#ifndef __FASTGRNN_GRNN1_PARAMS__
#define __FASTGRNN_GRNN1_PARAMS__

#define GRNN1_HIDD_DIM0 (64)
#define GRNN1_HIDD_DIM1 (32)

// clang-format off

const float GRNN1_ZETA = (1.533591e-01);
const float GRNN1_NU = (-6.737424e+00);

const float GRNN1_BIAS_UPDATE[32] = 
   { 5.19293904e-01, -4.18068469e-01,  3.83375436e-01,  8.76883149e-01,  5.54735899e-01,  2.16125154e+00,  1.21445727e+00,  1.26343412e+01,
     1.18849528e+00, -6.41332030e-01,  8.84571135e-01,  5.35776854e-01,  1.41618085e+00,  1.50312920e+01,  1.60451663e+00,  1.32032232e+01,
     4.39402938e-01, -1.24022520e+00,  8.51616561e-01,  1.37961502e+01,  2.68987101e-02,  1.07837152e+00,  8.68325055e-01,  1.35410249e+00,
     8.53882194e-01,  8.70320380e-01,  3.33103746e-01,  7.61831582e-01,  6.50190651e-01,  8.97756666e-02,  1.34327006e+00,  6.75229311e-01};

const float GRNN1_BIAS_GATE[32] = 
   {-5.04438400e-01, -2.05800936e-01,  1.73357439e+00,  1.77093875e+00,  1.79284561e+00,  3.95108509e+00,  2.03159237e+00,  1.76134801e+00,
     3.96621799e+00, -1.08832777e+00,  4.45851296e-01,  1.32241511e+00,  3.34399962e+00,  4.71489286e+00,  3.55174112e+00,  4.50513411e+00,
     1.20729160e+00,  2.26692057e+00,  5.01045167e-01,  3.12508798e+00,  9.05186176e-01,  2.54971027e+00,  2.97062778e+00,  2.84962344e+00,
     2.84095883e+00,  2.63645720e+00,  1.37391412e+00, -3.73068237e+00,  3.98805356e+00, -2.62570095e+00,  3.44181538e+00,  1.51759017e+00};

const float GRNN1_W[32][64] = {
   { 2.63835806e-02, -2.38602236e-01,  1.86234042e-02, -2.48256475e-02, -1.51246294e-01,  2.75671422e-01,  5.10426946e-02,  5.08364677e-01,
     2.67926417e-02,  1.34777054e-01, -2.87317961e-01,  2.98564229e-02,  2.28262655e-02, -2.64647622e-02,  1.66708171e-01, -9.67602655e-02,
    -3.02258164e-01, -4.51301664e-01,  6.67559505e-02,  5.66483557e-01,  4.08667102e-02,  2.22076893e-01,  1.01560252e-02, -1.84512734e-01,
     1.30258650e-01,  2.05719732e-02,  3.12760413e-01,  4.82449085e-02, -1.03492826e-01, -1.62676439e-01, -9.07754377e-02, -2.33345360e-01,
    -9.63212699e-02,  2.71637384e-02, -2.61430621e-01,  1.86761037e-01,  9.00264084e-02,  5.61908707e-02,  5.43670319e-02,  4.44950424e-02,
     4.40260500e-01,  3.39449614e-01,  2.37581491e-01,  2.97926754e-01, -3.33144426e-01,  3.26764956e-02,  3.64879906e-01,  2.05482170e-01,
    -1.79575026e-01, -1.14805497e-01, -9.47227180e-02,  2.76172429e-01,  2.10865125e-01, -1.56307896e-03,  3.13176177e-02,  2.07910493e-01,
     3.14474031e-02, -2.27484941e-01, -4.26660329e-01,  2.47532010e-01, -4.09764320e-01,  4.72043574e-01, -3.96362804e-02, -1.93483047e-02},
   { 2.81322189e-02, -2.87879765e-01, -8.71304423e-02,  8.10611174e-02,  2.74565935e-01,  5.45495987e-01, -3.66440229e-02,  9.63774323e-01,
     8.72809887e-01,  1.54972970e-01, -3.78089219e-01,  1.47929741e-03,  4.88106161e-03, -1.02032140e-01, -3.55194688e-01, -1.64599866e-01,
    -5.89381307e-02, -6.62345290e-01,  3.44050497e-01,  4.03094620e-01, -1.89000107e-02,  2.34654263e-01, -1.21025942e-01, -1.84316084e-01,
     3.58025104e-01,  1.14428125e-01,  6.40591383e-01,  6.71584457e-02, -5.96415102e-01, -2.71490306e-01, -2.50838608e-01,  1.16507113e-02,
     2.58060079e-02,  2.89780110e-01, -1.95738599e-01,  5.23845181e-02, -2.52610117e-01, -1.05889037e-01, -3.12425755e-02, -3.32735896e-01,
     1.95599616e-01,  8.68623927e-02,  2.03558683e-01, -3.52156535e-03, -8.14049467e-02,  3.39032233e-01,  3.31987172e-01,  4.75301556e-02,
    -1.01576291e-01, -1.60246745e-01, -4.20470834e-01,  1.28987362e-04,  2.81639278e-01, -1.07967630e-02,  8.16742033e-02, -9.76844430e-02,
    -1.80649340e-01, -6.66315079e-01, -4.22363400e-01,  2.13859454e-01, -4.68085974e-01,  3.83954525e-01,  4.69698794e-02, -1.27758905e-01},
   {-1.00686938e-01, -1.62020400e-01,  2.35506147e-01,  8.63616243e-02,  2.86187023e-01, -8.26767683e-02, -9.71619561e-02,  1.51463792e-01,
     1.05684251e-01,  8.48220661e-02,  4.58551228e-01,  3.05951416e-01,  1.04438889e+00, -2.41408467e-01, -2.29131728e-02, -2.30332509e-01,
    -2.11241364e-01, -8.60990286e-02, -5.58844745e-01,  3.32269222e-01,  2.18136132e-01,  2.72233129e-01,  2.33732119e-01,  6.73961282e-01,
     1.55587971e-01, -1.63458645e-01, -6.06106333e-02, -1.59999758e-01,  3.03333905e-02, -2.40474015e-01, -8.93911183e-01, -3.14926535e-01,
    -6.47864118e-02, -1.08090013e-01, -1.97778344e-01, -3.46093923e-01,  6.95114791e-01, -1.93263561e-01, -1.14269264e-01, -1.21413834e-01,
     2.87539810e-01, -6.97057784e-01, -4.80268197e-03,  1.34395242e+00, -3.15737724e-01, -1.13810942e-01,  1.19361542e-01,  3.15141082e-01,
    -3.38587970e-01, -1.73876047e-01, -8.83668289e-02,  4.75373149e-01,  3.20879579e-01, -6.65855929e-02, -1.98409557e-01, -3.44849229e-02,
    -2.10006341e-01, -1.19818769e-01, -3.43769729e-01, -2.08684817e-01,  6.70281589e-01,  3.87647092e-01, -2.15306394e-02, -1.27733439e-01},
   {-1.50271893e-01, -2.62426704e-01, -4.09367383e-01,  9.24655050e-02, -4.78663184e-02,  3.27435024e-02, -1.60910442e-01,  2.08800837e-01,
    -3.62635851e-01, -1.13253824e-01,  2.66978800e-01,  1.52486160e-01, -3.47239345e-01, -1.74418598e-01, -7.56982937e-02,  1.17792964e+00,
     2.96881914e-01, -3.20473760e-02, -4.40641671e-01,  8.83176178e-02, -1.24252759e-01, -4.41133715e-02, -4.09872025e-01, -5.71626276e-02,
    -4.75919276e-01, -7.94587210e-02, -6.95936680e-01,  9.33258012e-02, -1.21294081e-01,  8.05352330e-02, -2.70460267e-02, -5.52960753e-01,
    -9.73931402e-02,  1.79312527e-01, -2.02570364e-01,  5.37406087e-01,  2.38506749e-01,  5.42793810e-01,  5.10831662e-02, -3.79254550e-01,
     3.31214249e-01,  4.45761114e-01, -1.23196594e-01,  6.90133214e-01,  4.86442417e-01, -3.10850918e-01,  5.01856089e-01, -2.70332426e-01,
     1.73852131e-01,  2.21416038e-02, -4.40299928e-01,  1.35629416e-01, -5.92135116e-02,  1.61488891e-01, -7.89911970e-02,  3.38365823e-01,
     3.69494766e-01,  4.74213243e-01,  1.92172959e-01,  6.04544580e-01, -4.15337980e-01, -5.27915835e-01,  6.02601096e-02,  6.76261410e-02},
   {-3.56416792e-01, -1.64849430e-01,  5.08321285e-01, -1.73765242e-01,  3.86931777e-01,  3.03258389e-01,  2.81296344e-03,  3.60241115e-01,
    -1.36364460e-01,  3.93104523e-01, -9.98133838e-01,  2.00032815e-01, -1.24255610e+00, -1.16418779e-01,  1.80978552e-01, -4.38985646e-01,
    -1.22481726e-01,  4.07913566e-01,  3.04680854e-01,  1.47465527e-01,  2.31052801e-01, -2.57415771e-01,  1.92804128e-01, -9.42360163e-01,
     6.10695601e-01, -3.07745151e-02,  9.96656716e-02, -1.10834137e-01,  4.49198157e-01, -3.08707744e-01, -6.20046079e-01,  5.10695457e-01,
    -6.36726245e-02,  1.20549284e-01, -4.79110591e-02,  1.08910099e-01, -2.14171335e-01, -3.99525434e-01,  1.59514129e-01,  2.70359993e-01,
     1.16481215e-01,  6.29119217e-01,  1.87265277e-01, -9.63819623e-01, -2.48408735e-01, -1.95828274e-01,  2.65654832e-01,  6.53355241e-01,
     2.02904925e-01, -1.51349351e-01,  2.85704166e-01,  2.93708295e-01,  5.34224629e-01, -1.22682683e-01, -5.43684363e-01,  6.12504594e-02,
     6.44338503e-02, -6.87472671e-02, -4.22090799e-01, -1.73383653e-01, -3.54267120e-01,  2.66449332e-01, -3.24796117e-03, -2.83339620e-01},
   { 2.49890815e-02,  2.10471898e-01,  2.43486822e-01, -3.20746064e-01,  4.43434656e-01,  4.19664830e-01,  2.48602152e-01, -6.60648763e-01,
     4.74941939e-01,  1.94333509e-01,  3.57448250e-01,  2.80781925e-01, -2.37773523e-01,  7.96341896e-01,  1.45452186e-01, -1.42812058e-01,
    -2.79041648e-01,  3.63058627e-01,  6.68993175e-01,  5.46608195e-02, -3.08446765e-01, -6.95189834e-02,  1.46695942e-01, -4.32514884e-02,
     4.65670407e-01, -3.96707565e-01, -4.56899375e-01,  6.20948732e-01,  1.47014558e-01, -4.44228649e-01, -6.55482784e-02,  8.87394547e-02,
     1.85983807e-01,  8.37580442e-01, -7.94805586e-01,  3.10397357e-01, -2.62066841e-01, -5.19041438e-03, -2.61901826e-01,  2.31205389e-01,
    -4.76714492e-01,  1.79322585e-01, -5.53147554e-01,  8.85799229e-02, -3.93190563e-01, -6.09567314e-02,  1.72724918e-01, -5.51459014e-01,
    -3.13555479e-01, -1.63861066e-01, -5.02374172e-01,  2.68758863e-01, -2.42994145e-01,  4.49148864e-02,  1.11218281e-01,  2.23220676e-01,
     6.90593064e-01, -5.51861405e-01, -1.52720988e-01, -2.79871702e-01,  5.55314720e-01, -3.78962696e-01,  6.75437897e-02,  2.49612685e-02},
   {-1.86990947e-01,  6.77210450e-01,  1.05168961e-01, -2.19348669e-01, -1.75782531e-01, -2.98351049e-01,  8.91581103e-02,  5.53141795e-02,
    -4.83532429e-01, -4.02685910e-01,  3.84418964e-01, -3.63059223e-01,  2.18713880e-01, -2.91548595e-02,  1.18900202e-01, -5.88714719e-01,
     3.10773224e-01,  2.59755909e-01,  6.40510395e-02,  1.75487339e-01,  2.88820386e-01,  3.82886350e-01, -8.75574499e-02,  8.70423257e-01,
    -8.39199960e-01, -2.85598010e-01,  3.98296446e-01, -8.81200582e-02, -3.17937493e-01, -1.88137859e-01, -3.93545002e-01, -2.33935788e-01,
     4.79759350e-02, -8.88204798e-02,  1.97006568e-01, -1.46533892e-01, -1.74020037e-01,  7.57661909e-02, -2.06624597e-01,  9.60302874e-02,
    -4.15213764e-01, -2.21040145e-01,  3.03426415e-01,  3.17014277e-01, -4.66335714e-01,  1.20617911e-01, -2.02439547e-01,  3.73112619e-01,
    -9.83296037e-02,  3.63291889e-01,  1.46919355e-01, -2.70884007e-01,  4.43335086e-01, -6.13618679e-02, -3.52963865e-01, -2.14768708e-01,
    -4.66053979e-03, -1.55690551e-01,  4.88378793e-01,  2.84240339e-02,  1.44138262e-01, -4.02656011e-02,  7.17747808e-02, -1.75841317e-01},
   {-4.34317261e-01,  3.00947189e-01,  4.84304518e-01, -2.05486804e-01,  1.22434902e+00,  1.50729477e-01,  3.53103504e-02,  1.61858284e+00,
     1.42677516e-01,  8.79659891e-01,  3.36275190e-01,  9.09184813e-01, -1.74154949e+00, -2.42101431e-01, -7.87998259e-01, -3.62190187e-01,
     4.70300227e-01,  2.01908514e-01,  3.58044878e-02,  8.96425605e-01,  4.99698967e-01,  1.99123204e+00,  8.74381959e-01, -2.78870553e-01,
     4.19863731e-01, -6.80148602e-01,  1.34385622e+00, -2.57896781e-01, -1.47376454e+00,  2.52152774e-02, -2.23279953e+00, -1.54515767e+00,
    -5.15141413e-02, -9.53741431e-01,  7.31548488e-01, -4.80702132e-01,  1.31580345e-02, -2.84953356e-01, -5.57978116e-02,  7.01043546e-01,
     1.69247225e-01, -5.71067154e-01,  6.76988363e-01,  9.18947518e-01, -8.00902188e-01, -5.21631598e-01,  3.54194432e-01,  9.77504790e-01,
    -1.15717351e+00,  3.95754933e-01,  6.78561032e-02,  5.11576712e-01,  2.43480295e-01, -2.30101511e-01, -9.06130552e-01,  1.33461520e-01,
    -1.28591275e+00, -1.29944730e+00, -3.26920324e-03, -4.41671431e-01, -4.96629059e-01,  5.32432854e-01, -1.14615284e-01, -2.86132962e-01},
   { 1.58175658e-02, -8.05757567e-02, -1.99184224e-01, -3.62320960e-01, -1.44788995e-01, -3.81101161e-01, -4.54835325e-01, -3.96056592e-01,
     3.69815826e-01,  1.62002429e-01,  1.12572961e-01,  4.12261665e-01, -1.50174290e-01, -2.39652410e-01,  8.07822645e-02, -7.56519660e-02,
    -5.86760007e-02, -6.47159815e-01,  1.28314346e-01, -1.73226923e-01,  2.85785407e-01,  2.86408868e-02, -1.01692706e-01,  7.59157389e-02,
    -3.87129664e-01,  1.64289728e-01, -3.02435696e-01,  8.45842183e-01, -6.69546902e-01, -9.56587076e-01, -6.23050213e-01, -2.76386067e-02,
     2.59710383e-02, -1.23266883e-01,  8.01170245e-03, -3.72647271e-02, -4.20425534e-01,  1.82431266e-01,  2.77352775e-03, -1.33729339e+00,
     6.51599765e-01,  1.21558525e-01,  3.44150662e-01,  1.53871298e-01, -7.27120340e-01,  4.58841980e-01,  1.54415965e-02, -5.50557196e-01,
    -1.68696791e-01,  7.80991453e-04, -1.12803113e+00,  3.44456956e-02, -1.04729578e-01,  5.13210118e-01, -3.88334878e-02,  3.28559726e-01,
    -1.85545519e-01, -3.89337316e-02, -3.90259415e-01, -4.70607877e-02, -8.75891864e-01, -3.19491386e-01, -3.22427154e-01, -3.94617349e-01},
   {-1.14281535e-01,  1.34497151e-01, -1.04709618e-01, -4.14338373e-02, -1.58262417e-01,  6.72155470e-02, -8.58870149e-02, -1.51947841e-01,
    -1.27341419e-01,  4.63829935e-01, -3.48696997e-03,  6.01242959e-01, -7.39061892e-01, -4.80030626e-02,  2.84194201e-01,  5.60165882e-01,
     3.65679026e-01,  4.35550481e-01,  4.48916927e-02,  2.15131879e-01,  6.05114643e-03, -8.13655332e-02,  2.65761733e-01, -7.90513605e-02,
     9.25485939e-02, -9.36847739e-03, -2.58582979e-01,  2.14482352e-01,  7.41923973e-02,  4.24024224e-01,  1.48073986e-01, -1.18048869e-01,
    -2.17432380e-02,  1.64204344e-01,  5.35264611e-03,  1.50999486e-01, -9.18512940e-02,  5.89942038e-01,  4.00631540e-02,  2.08990738e-01,
    -8.68720636e-02,  1.02368140e+00, -1.21575318e-01, -2.04116598e-01, -1.14197239e-01, -1.60312742e-01,  1.55194402e-01,  6.62269294e-02,
     2.16034055e-01,  4.53005731e-02,  2.16934130e-01,  2.52793700e-01, -1.01067632e-01,  2.55041778e-01, -4.46830958e-01,  5.51672220e-01,
     4.12035882e-01,  5.73094010e-01, -5.18806949e-02,  4.27574664e-01, -4.56874281e-01, -2.89959073e-01,  1.13990083e-01,  4.19774771e-01},
   {-1.46823794e-01, -1.53456450e-01,  2.14883015e-01, -3.03432137e-01, -1.60939962e-01,  1.76668510e-01, -3.55696827e-01, -9.11023617e-02,
     1.09324984e-01,  1.60949916e-01, -3.41526091e-01, -1.57835424e-01, -1.24810569e-01, -3.16434950e-01,  3.27697508e-02, -1.31080329e-01,
     4.96649332e-02, -3.23538572e-01,  1.33979060e-02,  1.08367041e-01,  4.25896719e-02,  1.10296778e-01, -4.21991907e-02, -1.60433948e-01,
    -3.40308905e-01, -6.96198791e-02,  1.12948976e-01,  4.71212156e-02, -4.01427507e-01, -1.10237069e-01, -3.34152937e-01, -1.95557117e-01,
    -1.22424819e-01, -4.99489531e-02,  2.91377872e-01, -2.07540154e-01, -3.04100543e-01, -1.65665433e-01,  5.82145434e-03, -3.35374236e-01,
     4.07928973e-03,  2.45716110e-01,  2.96531618e-01,  1.09427541e-01, -1.16192460e-01,  1.72081187e-01,  4.28308666e-01, -2.44931481e-03,
    -7.08942264e-02,  1.09550633e-01, -5.56614436e-03,  4.33245152e-02, -1.19175196e-01,  1.92796260e-01, -1.34687185e-01,  1.98998451e-01,
    -1.12108357e-01, -7.33280033e-02, -3.07215691e-01, -3.40129226e-01, -6.49283051e-01, -1.99880009e-03, -1.31278887e-01, -1.90438345e-01},
   { 3.67775373e-02,  5.86195707e-01, -2.42803916e-01, -1.30960509e-01,  4.39769506e-01, -7.11754322e-01, -9.57873389e-02, -3.51069152e-01,
    -5.28276622e-01,  6.90147042e-01,  2.74471790e-01,  3.06046873e-01, -8.30527246e-01, -4.42912802e-02,  1.04205765e-01, -2.72379965e-01,
     3.54343206e-01,  4.51020628e-01, -3.07176977e-01, -2.30500959e-02,  3.90500516e-01,  2.66245931e-01,  5.66012084e-01,  3.75951797e-01,
    -2.30434328e-01,  1.18349586e-02, -1.05833791e-01,  5.38022220e-01, -3.93252850e-01, -3.69252831e-01, -3.27003837e-01, -7.65288115e-01,
     1.82037726e-02, -7.88150504e-02,  3.44429672e-01, -1.16418473e-01, -5.24610043e-01, -2.38766462e-01, -5.80997169e-02,  2.64119178e-01,
     2.37412661e-01, -2.48677596e-01,  3.12106669e-01, -1.29974321e-01, -4.49997008e-01,  1.73849966e-02, -6.11446165e-02,  9.91321877e-02,
    -3.18726838e-01,  2.14301750e-01, -3.57566848e-02, -2.29096681e-01, -3.75145316e-01,  1.04075680e-02, -2.56177694e-01, -2.91340519e-02,
    -2.94643432e-01, -1.92144975e-01,  1.92468882e-01,  4.36294265e-02,  3.24233621e-01, -5.50675452e-01, -4.98090275e-02, -3.57961297e-01},
   {-1.46321952e-01,  4.70319122e-01,  1.57792032e-01,  5.90720307e-03, -2.44166747e-01, -2.32957855e-01, -2.02687651e-01, -8.39990377e-01,
    -6.80937231e-01, -3.79810810e-01,  2.31489763e-01, -6.09744787e-01, -5.27153671e-01, -4.10147846e-01,  2.19375178e-01,  6.33581460e-01,
     2.60131001e-01,  1.10668696e-01,  8.49783644e-02, -2.18715981e-01,  1.37672890e-02,  1.31386202e-02, -3.67986798e-01,  3.42675209e-01,
    -7.04701662e-01,  1.76352695e-01,  3.07236433e-01, -6.87429085e-02, -1.56059101e-01,  2.11371690e-01,  9.92072225e-02, -2.89498508e-01,
     9.06546935e-02, -2.97470130e-02,  2.28258714e-01,  4.23050195e-01,  6.86972812e-02,  1.18459366e-01, -6.22442365e-02,  1.33055389e-01,
    -7.06383213e-02, -6.49518609e-01, -2.45503396e-01,  1.74107626e-02,  3.77129614e-01,  4.06658351e-01, -8.70030642e-01,  1.96425557e-01,
     5.22768855e-01,  4.05774191e-02,  3.38368207e-01, -4.04025555e-01, -1.64926276e-01,  5.81573844e-02, -1.10485919e-01, -6.54022515e-01,
    -3.63931991e-02,  4.16273177e-01,  5.04669309e-01, -1.65851444e-01,  3.82160127e-01, -1.50197655e-01, -1.96376160e-01, -2.20365524e-01},
   {-1.44991839e+00, -1.18427217e+00,  2.74948239e-01,  1.43793672e-01,  8.39154184e-01,  7.22152740e-02, -2.45731503e-01,  1.30896771e+00,
     1.95864841e-01, -1.13231957e+00,  6.80145979e-01, -8.43633413e-01, -5.04793525e-01,  1.17336035e+00, -1.04756251e-01,  7.50783861e-01,
    -9.06040519e-03, -5.38660049e-01,  6.27971828e-01,  5.98796129e-01, -5.52532852e-01, -1.39506590e+00, -7.09266722e-01, -4.09835845e-01,
     1.51536679e+00, -7.08781123e-01,  3.18958908e-01, -3.34023118e-01,  1.69890136e-01, -3.66823412e-02,  6.47674561e-01,  8.81390870e-01,
     1.60420060e-01, -3.09153289e-01, -2.85480708e-01,  9.70966697e-01,  7.18382359e-01, -9.55202281e-02, -3.88716906e-01,  1.31720826e-02,
    -1.92921713e-01,  3.23592275e-01, -7.45583296e-01,  9.67988253e-01,  3.87738287e-01, -4.21069488e-02,  2.24957779e-01, -1.77063152e-01,
    -4.00007814e-01, -2.23835245e-01, -8.99155661e-02,  1.28570631e-01,  4.07106131e-01,  4.84271526e-01, -9.46904063e-01,  2.25730196e-01,
     8.95547330e-01, -6.32602349e-02,  2.14861911e-02,  1.41034752e-01,  8.52534294e-01, -1.07668746e+00,  2.23255768e-01,  6.74543858e-01},
   { 3.27043116e-01,  6.20933138e-02,  6.40414774e-01, -1.53892964e-01, -2.94819981e-01, -1.75525263e-01, -1.14996381e-01, -2.95332402e-01,
    -7.14200914e-01, -5.33360481e-01,  3.38701278e-01, -3.51881891e-01, -1.78581312e-01, -4.24982049e-02,  4.06597167e-01, -2.65607238e-01,
    -2.60766614e-02,  2.23712251e-01, -4.06406224e-02, -3.72478068e-01, -1.73371971e-01,  2.86050647e-01, -7.67456740e-02,  4.06992957e-02,
    -2.98627496e-01,  1.78829029e-01,  3.91372502e-01, -2.50809520e-01, -2.74353981e-01,  5.15014529e-02, -8.72649103e-02, -7.76613414e-01,
     5.86485937e-02, -4.19018902e-02,  2.28182390e-01, -4.71113950e-01, -4.70536165e-02, -3.63262415e-01, -2.66262945e-02,  1.89495713e-01,
    -6.02510393e-01,  2.59968907e-01, -4.64511430e-03,  2.49972627e-01, -3.18402648e-01,  3.43492419e-01,  5.85268021e-01,  3.97501469e-01,
     5.40860236e-01,  2.17991784e-01,  5.18618107e-01,  6.73323646e-02, -9.56779048e-02, -3.13378245e-01,  1.61027968e-01, -1.01413476e+00,
     7.21545070e-02, -2.26643920e-01,  1.89785704e-01, -4.37515199e-01, -3.16975027e-01,  6.57134652e-01,  1.33970857e-01, -2.38419175e-01},
   {-1.06519759e+00,  1.12331593e+00,  2.34957337e-01, -1.28207311e-01,  1.38077199e-01, -9.40415859e-02, -4.42708999e-01, -2.73702174e-01,
    -1.52641737e+00, -1.11142457e+00,  2.95353234e-01,  8.88098836e-01, -1.18242121e+00, -2.29591638e-01, -8.52544844e-01,  1.69903028e+00,
     1.29347992e+00, -1.98518142e-01, -1.48465908e+00, -3.28880399e-01,  2.33129591e-01,  8.28569114e-01, -1.36129642e+00, -7.05899239e-01,
    -6.64389491e-01, -5.81621528e-01,  1.35238349e-01, -6.59223437e-01, -2.17107475e-01,  8.07619035e-01,  1.09475002e-01, -2.26713634e+00,
     4.81189787e-01,  1.67428625e+00,  1.13473095e-01,  4.30645317e-01,  2.83533067e-01,  9.77314532e-01,  9.29693356e-02, -3.90886031e-02,
    -5.56783259e-01,  1.04080975e-01,  1.17489062e-01,  2.67970413e-01,  2.46139959e-01, -1.17453188e-02,  1.00489795e+00,  2.83858240e-01,
     8.51257205e-01,  2.75214195e-01, -8.74795690e-02,  1.28998220e+00,  6.22834206e-01,  3.37307155e-01, -1.24799621e+00, -8.67982507e-01,
    -1.56290367e-01, -7.09306076e-02,  2.39789262e-01,  7.52665341e-01, -5.24889767e-01,  5.44323325e-01,  2.12294292e+00,  6.96549356e-01},
   {-2.42965622e-03, -1.72794476e-01,  4.34229076e-01, -3.37582827e-01,  1.42450541e-01,  2.21633375e-01,  7.74512440e-02, -6.27281129e-01,
    -1.86071694e-01,  4.06913608e-01, -1.45677283e-01,  3.19751769e-01, -1.73837215e-01, -1.59897402e-01, -3.70027453e-01, -1.30438842e-02,
    -1.86986551e-01,  2.42490247e-01, -1.74767807e-01,  6.88305497e-01,  3.38595599e-01, -5.23829013e-02,  6.22271240e-01,  1.68215305e-01,
     3.52946728e-01, -2.12361559e-01, -6.82304144e-01, -1.48908705e-01,  1.14554048e-01,  8.11192617e-02, -4.07817483e-01,  2.34709620e-01,
     7.02311322e-02, -2.08198559e-02, -3.99457872e-01, -3.50019962e-01,  7.69713640e-01, -3.64496440e-01,  2.40077764e-01,  1.78244591e-01,
     4.88764495e-01, -8.95950273e-02, -7.30067343e-02,  4.66632433e-02, -1.58508629e-01, -1.36117876e-01, -2.45688437e-03,  2.81783670e-01,
    -5.04406512e-01, -5.23738638e-02,  2.02736035e-01,  4.65245277e-01,  6.35915697e-02, -2.51157545e-02, -4.49869156e-01,  1.46445394e-01,
    -2.63803154e-01,  2.38284096e-01, -3.05643201e-01, -3.42251182e-01,  4.80499212e-03,  9.43199620e-02, -1.92748100e-01, -5.75840056e-01},
   { 2.23606862e-02,  1.64395154e+00, -2.38592133e-01, -6.42359257e-01, -1.59909859e-01, -3.35810006e-01,  1.00904366e-03,  6.37135923e-01,
    -3.18174094e-01,  7.85247907e-02, -7.36420691e-01, -2.68554419e-01,  2.69197315e-01,  1.23394561e+00,  7.96488464e-01,  6.49816036e-01,
    -2.14738190e-01,  3.16584200e-01,  7.61710763e-01, -1.94643617e-01,  2.18602065e-02,  1.32887149e+00, -2.65183687e-01, -2.36296341e-01,
    -3.30925882e-01,  1.68654621e-01, -1.31702924e+00, -7.40591288e-02,  7.70378470e-01,  1.21754996e-01,  1.73930898e-01,  7.36073315e-01,
    -9.22499821e-02, -2.80135661e-01,  1.15051247e-01,  7.47325420e-01, -1.13412046e+00, -5.13220668e-01,  7.97600970e-02, -1.52606040e-01,
     5.08850396e-01, -5.13753712e-01, -2.42579635e-02, -1.77367970e-01, -8.72078598e-01, -1.01351178e+00,  1.96917683e-01, -1.71419352e-01,
    -1.18210280e+00, -6.32523298e-02,  8.09249505e-02,  6.43463880e-02,  8.30248222e-02,  1.81322709e-01,  1.07856870e-01, -2.45688453e-01,
     4.84158516e-01, -2.97783434e-01, -1.07084513e+00, -9.69869256e-01,  7.27499723e-01, -4.69729692e-01,  1.36459911e+00,  3.12596887e-01},
   {-5.89462742e-02, -4.17649806e-01, -1.84536502e-01, -7.49575347e-02, -3.77974957e-02,  1.39192671e-01, -3.79107031e-03,  8.18503201e-02,
     3.44166011e-01,  2.89482065e-02, -1.59448206e-01,  1.57253847e-01, -1.83817949e-02, -4.95210588e-02,  2.05369413e-01,  1.25503331e-01,
    -1.76931247e-01,  2.50221491e-02,  1.24728754e-01,  1.77069992e-01, -2.47691780e-01, -1.07451536e-01,  1.56164378e-01, -2.06311435e-01,
     3.80844235e-01, -3.92679721e-02, -9.57228169e-02, -1.00121722e-02,  1.16946973e-01,  5.55103123e-02,  1.61305759e-02,  6.71647340e-02,
    -1.08393103e-01,  1.55776099e-04, -9.07902420e-02, -1.37441725e-01, -6.88262805e-02,  4.06197831e-02,  2.54245475e-02, -3.50297317e-02,
     9.96662304e-02,  1.79751158e-01, -1.26568720e-01, -3.38376939e-01, -6.57221377e-02, -2.22219974e-01,  1.43963858e-01, -1.91979185e-01,
    -3.44332904e-02, -1.95006534e-01, -8.46929550e-02,  1.71847194e-01, -4.98103276e-02,  3.48784447e-01,  6.46478012e-02,  1.18260197e-01,
    -4.01458479e-02, -1.40757635e-01, -1.43070161e-01,  4.59771864e-02, -1.99369416e-01,  2.13550761e-01, -1.24013901e-01,  8.16913396e-02},
   {-1.09136093e+00,  9.37353969e-01,  6.91181779e-01, -1.75433159e-01,  6.27433658e-01,  6.54154241e-01, -4.19582605e-01, -9.12912115e-02,
    -5.96063249e-02,  8.12643096e-02,  9.90860045e-01,  7.29785711e-02, -8.38659048e-01,  2.83193201e-01,  7.91235030e-01, -4.48511183e-01,
     1.27634943e-01,  8.15637708e-01, -1.87187478e-01, -8.26928437e-01,  3.00862670e-01,  3.39395553e-01, -4.14239168e-01,  1.03934810e-01,
     1.51032940e-01, -1.08502471e+00,  4.37404454e-01, -1.59001667e-02,  4.14633423e-01, -1.98045701e-01, -7.93124795e-01,  1.03919971e+00,
     5.42849675e-03,  3.98819149e-01, -7.79005826e-01, -2.89841369e-02, -9.91748214e-01, -5.46306551e-01, -3.21411699e-01,  8.31824958e-01,
    -1.29202712e+00, -1.21524809e-02,  5.15114307e-01,  8.72053206e-01, -3.05099964e-01, -4.96733129e-01,  5.61925530e-01,  8.45341265e-01,
     8.78386438e-01,  1.93465501e-01, -7.34849945e-02,  3.77982914e-01,  6.74042404e-01, -1.99901968e-01, -8.38074267e-01,  2.88818359e-01,
     6.43081293e-02, -4.16899085e-01,  2.38394022e-01,  2.92802632e-01,  9.54645276e-01,  8.15473720e-02, -6.45120680e-01, -7.48256266e-01},
   {-1.11201704e-01, -1.67113304e-01,  1.70997933e-01, -2.51877427e-01, -4.60289717e-01, -1.37849987e-01, -1.85945943e-01, -5.63462496e-01,
    -2.40226552e-01,  1.13852553e-01, -2.87962168e-01,  1.42321914e-01, -7.30612054e-02,  1.66463107e-02,  1.06207803e-01, -5.25322519e-02,
    -7.30460435e-02,  2.55648345e-01, -4.72783633e-02,  3.71208489e-01,  2.12246686e-01, -2.01007560e-01,  3.66734892e-01,  7.03626871e-03,
    -3.13221633e-01, -9.86592993e-02, -9.51553941e-01, -1.77535117e-02,  1.75998300e-01, -2.56474346e-01,  6.16253853e-01, -1.81144059e-01,
     1.19352795e-01,  2.77894102e-02,  1.21707879e-01, -1.15470745e-01,  4.10352051e-01, -1.51336834e-01,  6.05757236e-02,  2.05734894e-01,
     9.53528062e-02,  7.36657083e-01,  1.16718709e-01,  3.61508906e-01, -2.36996144e-01, -3.13179404e-01,  2.22206309e-01,  2.82393277e-01,
    -4.21749979e-01,  2.96435915e-02,  2.20817938e-01,  2.78732926e-01,  2.27166444e-01,  2.01214999e-01, -1.55024126e-01,  3.56083721e-01,
     1.55599684e-01,  7.31329679e-01, -7.77822062e-02,  2.83143157e-03, -4.61589217e-01, -8.75977986e-03,  9.38070193e-02,  9.20594558e-02},
   {-9.32931602e-02,  3.54304790e-01,  3.32234085e-01,  3.92136723e-01,  2.79652804e-01, -4.22209650e-02, -5.99847957e-02,  2.63584614e-01,
     3.31604704e-02, -5.09375095e-01,  3.66327882e-01, -4.64699745e-01,  3.12978290e-02, -1.47368267e-01,  5.51195443e-02,  1.64720025e-02,
     4.51245189e-01, -3.90535086e-01,  3.28653455e-01,  8.44111480e-03, -7.79268369e-02,  5.51281214e-01, -3.72038111e-02, -2.90838238e-02,
     2.11976022e-01, -2.03393877e-01,  4.93561268e-01, -1.26351556e-02, -7.56832287e-02, -2.84788907e-01, -2.79811680e-01,  1.97112739e-01,
    -1.07671261e-01,  3.68931264e-01,  6.86909497e-01, -4.39858198e-01, -4.08941835e-01, -3.12338263e-01, -1.05643772e-01, -2.49961108e-01,
    -1.27252743e-01, -8.91036630e-01,  5.80358468e-02,  4.42031503e-01,  1.22082181e-01,  1.54241189e-01, -1.14851788e-01,  4.67320606e-02,
     1.42702293e-02,  1.74957767e-01, -1.05823092e-01, -6.29864633e-02,  1.41224578e-01, -1.25566110e-01, -2.85972238e-01, -1.10545069e-01,
    -6.93198264e-01, -3.95153344e-01, -3.32459241e-01,  8.92955735e-02,  2.54911602e-01, -9.44280811e-03,  4.88671541e-01,  1.23045720e-01},
   {-7.37796187e-01,  4.23689652e-03,  9.03599560e-02,  5.06088696e-03,  1.33469135e-01,  2.05415428e-01,  5.59226200e-02, -9.89928916e-02,
     5.48716560e-02, -1.50341511e-01, -2.30210364e-01, -4.70822483e-01, -1.02704622e-01, -2.32415169e-01, -3.21998805e-01,  1.15029393e-02,
     3.25083405e-01,  4.58573028e-02,  4.01375800e-01, -2.27666706e-01, -2.12390050e-01,  2.67813653e-01, -4.90310162e-01,  1.36209488e-01,
     2.65323550e-01, -3.81721467e-01,  2.13918224e-01,  2.40337789e-01, -2.96229988e-01, -4.35173333e-01,  1.53992653e-01, -2.26064727e-01,
     8.04843530e-02, -2.99638093e-01, -5.13522029e-02, -4.36692953e-01, -4.67428207e-01, -3.91645432e-02, -5.04625551e-02, -3.17283049e-02,
    -1.35420442e-01, -2.78642654e-01, -3.01013887e-01,  1.88827202e-01,  5.97359061e-01,  2.32445523e-01, -1.30807295e-01, -7.70435929e-02,
     1.49647733e-02, -1.09785564e-01, -5.97488642e-01, -5.35148799e-01,  3.52146626e-01,  2.21846923e-01, -2.61004031e-01, -6.10593498e-01,
     1.72880322e-01, -2.14553982e-01, -2.78397501e-01, -2.73877243e-03,  3.78757566e-01, -2.62924194e-01, -3.82174671e-01,  1.51081845e-01},
   { 1.41941085e-01, -1.79534853e-01, -4.12466601e-02, -2.55740047e-01, -1.18619278e-01,  4.57857162e-01,  2.16616653e-02, -2.08309308e-01,
    -8.11917707e-02, -1.29867747e-01,  3.44297588e-01,  2.03526989e-01, -6.72056198e-01,  1.36087134e-01,  1.84922308e-01,  6.58926547e-01,
    -9.47396830e-02,  4.61992845e-02, -3.52687342e-03,  1.39368564e-01, -2.56409526e-01, -5.28799772e-01,  2.65167743e-01, -3.42046320e-01,
     2.91889220e-01,  7.08424374e-02, -3.51229131e-01,  1.67948693e-01,  5.17330348e-01,  4.68259186e-01,  4.20692742e-01,  2.50115991e-01,
     1.09945307e-03,  4.41016436e-01, -1.42338634e-01,  7.88666010e-01,  5.11866510e-01,  6.63559854e-01,  1.83682859e-01,  3.91030125e-02,
     2.53840476e-01,  3.35785985e-01, -2.73653954e-01, -1.02872588e-02, -1.13727286e-01, -6.24836206e-01,  1.70506001e-01, -1.26201987e-01,
    -1.50516788e-02, -1.70619227e-02,  2.05022484e-01,  4.74211812e-01, -3.76385450e-01,  9.47458297e-02,  2.41491228e-01,  6.88686669e-01,
     1.27420589e-01,  2.61229664e-01,  2.91502744e-01,  7.27331713e-02, -1.15215741e-01, -2.37457573e-01,  2.87890047e-01,  3.01987618e-01},
   { 4.73183572e-01,  3.29252392e-01, -3.74584317e-01, -1.59983471e-01, -2.77584821e-01, -4.06557351e-01,  1.33368567e-01,  7.14924335e-01,
    -3.15708667e-01, -1.82918623e-01,  2.12038711e-01, -8.82489681e-01, -5.37660085e-02, -2.48149082e-01,  5.99090576e-01, -2.34465167e-01,
     4.95987162e-02,  6.29073501e-01,  4.78617281e-01, -2.53993392e-01, -1.99865252e-01,  3.91509652e-01,  3.02426696e-01,  3.51928920e-02,
    -2.12092727e-01, -8.51389542e-02,  7.92696655e-01, -1.54037401e-01, -4.34250236e-01,  2.98617482e-01, -4.90526587e-01, -8.40452909e-01,
     1.64887726e-01, -1.98701732e-02,  1.05113816e+00, -4.02843475e-01, -6.37082517e-01, -2.21926495e-01,  5.61750308e-02,  3.18301141e-01,
    -6.36408985e-01,  6.72364160e-02,  2.53893703e-01, -4.17932570e-02, -1.35457348e-02, -5.48249967e-02,  1.77290633e-01,  3.24239939e-01,
    -4.02501225e-01,  6.37620747e-01,  1.88247338e-01, -6.13890231e-01, -5.82061112e-01,  1.70034811e-01,  1.77548248e-02, -4.46200445e-02,
    -3.65021408e-01, -3.19320321e-01, -2.01823354e-01, -3.12432170e-01, -2.33139783e-01, -3.49348873e-01,  1.37760699e-01, -2.26241618e-01},
   { 1.08797722e-01, -5.31406224e-01,  3.15430597e-03,  3.92072052e-01, -2.85120308e-01,  6.19560443e-02,  3.11959773e-01,  6.55613318e-02,
     7.78163552e-01, -3.43469948e-01, -4.44102615e-01, -2.58872390e-01,  1.70172468e-01,  2.34711587e-01, -3.12316597e-01, -1.98457912e-01,
     9.22448654e-03, -4.36850905e-01,  7.19111443e-01,  1.52767494e-01, -1.57096326e-01, -1.55781671e-01, -3.27378124e-01, -2.40392983e-01,
     8.75202268e-02, -6.36672154e-02,  3.42733234e-01, -1.10775948e-01, -6.62631616e-02,  4.15732190e-02, -2.88432445e-02,  7.46686682e-02,
     1.62458271e-01,  2.49444798e-01,  4.30899382e-01,  1.23812839e-01,  1.50200978e-01,  3.55385333e-01,  6.09508231e-02, -2.39567444e-01,
    -3.26762766e-01,  5.40520906e-01, -3.33086967e-01, -5.24804518e-02,  1.58229664e-01,  2.95115680e-01,  3.25085908e-01, -8.60745609e-02,
     1.08294591e-01,  5.50652742e-02, -3.59147698e-01,  2.85034567e-01,  2.98534095e-01, -4.88773398e-02,  1.56224728e-01,  6.66128471e-02,
     1.20789550e-01, -5.14263868e-01, -3.10777798e-02,  3.61918032e-01, -1.85741797e-01,  1.33698061e-01,  4.15982962e-01,  3.31407607e-01},
   {-2.18111306e-01,  6.38755634e-02,  2.55367924e-02,  1.34551346e-01, -6.66672707e-01, -6.39040411e-01,  2.15240065e-02,  1.86852396e-01,
    -4.35557514e-01, -3.40325475e-01, -1.84023365e-01, -5.93162954e-01, -2.06554204e-01, -2.31856138e-01, -2.87184976e-02,  2.00833961e-01,
     2.99862742e-01,  6.65688694e-01, -4.17035967e-01,  8.92921463e-02, -4.74050939e-02, -4.62839119e-02,  3.35737944e-01,  1.53149411e-01,
    -3.11739624e-01, -7.86031410e-02, -2.89987680e-02, -3.56898487e-01,  3.49888891e-01,  1.81001369e-02,  2.99090266e-01,  1.85348660e-01,
     7.37339556e-02, -2.16820180e-01,  1.44982308e-01, -3.04096609e-01,  2.64256120e-01, -1.63072348e-01,  1.72047019e-01,  2.13410124e-01,
    -1.40578691e-02, -1.78211108e-01,  9.75261405e-02, -3.78936291e-01,  2.06818525e-03, -4.08805400e-01, -2.29038060e-01, -9.24182124e-03,
    -6.71614528e-01,  1.27455384e-01,  3.71542662e-01, -1.95294425e-01,  1.52527109e-01,  1.64524559e-02, -2.99713075e-01,  1.14683613e-01,
    -3.69274795e-01,  5.65297782e-01,  1.61873236e-01, -3.16169918e-01, -3.80471021e-01, -4.19105083e-01, -1.62351191e-01, -2.03090042e-01},
   { 2.75001377e-01, -1.11683682e-01, -5.26180565e-01,  4.53905948e-02, -5.67656279e-01, -1.65450424e-01,  7.72705078e-02, -4.16547894e-01,
    -8.44564438e-02, -7.47347355e-01, -6.31028190e-02, -2.26603210e-01,  6.43770158e-01,  4.16134261e-02, -8.70556533e-02,  3.80094022e-01,
    -3.13863486e-01, -4.93022710e-01, -4.01616186e-01, -5.94976842e-01, -3.76017362e-01, -2.77734905e-01, -7.67411888e-01, -2.90197879e-01,
    -3.70008588e-01,  4.14006084e-01, -7.29728103e-01, -3.97014111e-01, -1.78610787e-01,  5.45998931e-01,  7.80253589e-01,  1.74661815e-01,
     1.09233789e-01, -5.23233712e-01, -7.44689226e-01,  4.39757258e-01,  2.52700448e-01,  3.08333933e-01, -1.32463723e-01, -4.27257776e-01,
    -2.33287498e-01, -1.60691693e-01, -3.75642359e-01, -1.59263417e-01,  3.61739069e-01, -1.70011178e-01, -6.46412790e-01, -7.30718374e-01,
     2.92892247e-01, -1.06954232e-01, -1.31252110e-01, -5.61235785e-01, -2.52838761e-01,  1.96468815e-01,  7.31331944e-01, -5.14548600e-01,
    -1.69470876e-01,  6.80120960e-02,  1.85537279e-01,  3.38040441e-01, -2.84330964e-01,  2.30222911e-01, -2.30943993e-01,  6.69730380e-02},
   {-6.30294621e-01, -8.44358385e-01,  1.90434515e-01, -2.85401314e-01, -6.84831813e-02, -1.76866397e-01, -4.43794876e-01, -2.62218118e-01,
    -1.30416125e-01,  1.04035825e-01,  2.05948204e-01, -1.26041383e-01, -2.53522485e-01, -1.29540667e-01, -4.10989940e-01, -3.82624328e-01,
    -3.02435875e-01, -5.94160259e-01, -3.66481692e-01,  1.15651600e-01,  2.27522150e-01, -4.09486830e-01,  4.99793515e-02,  4.44186538e-01,
    -7.01594204e-02, -2.44922683e-01, -5.41158728e-02,  4.52816367e-01, -4.13833141e-01, -2.44560510e-01, -3.28530610e-01,  4.15036410e-01,
     2.02482000e-01,  1.04813688e-01, -3.75449747e-01, -3.82970601e-01,  7.62987971e-01, -2.34574437e-01,  3.45413834e-01, -3.20200771e-01,
    -1.87196024e-02, -4.26297635e-01, -9.59327891e-02, -4.03049648e-01, -8.62326473e-02,  4.82534736e-01, -1.42879099e-01,  1.91226006e-01,
    -5.42814851e-01,  1.45146385e-01, -1.25066834e-02,  1.81685671e-01,  1.61392540e-01,  1.70988512e+00, -6.75054550e-01, -1.67103559e-01,
     7.99828023e-02,  2.19183326e-01, -6.36074543e-02, -2.76247635e-02, -3.83891225e-01, -3.41619372e-01, -5.96381187e-01, -3.76765728e-01},
   { 3.22877645e-01,  1.06892012e-01, -4.78664130e-01,  2.19769284e-01,  9.96175688e-03, -3.57759446e-02, -7.04739010e-04, -2.86248207e-01,
     2.41886809e-01,  4.72704649e-01, -2.13285044e-01,  3.68335456e-01,  3.97159010e-01, -5.53532057e-02,  1.14338614e-01, -1.07355624e-01,
    -7.62635171e-02,  3.14306468e-01,  1.37152135e-01, -1.03875086e-01,  4.27717976e-02, -4.34322916e-02, -1.72725737e-01,  1.16413936e-01,
    -4.76645410e-01,  2.58955300e-01, -2.61953976e-02,  2.09924534e-01, -3.64892930e-01,  2.87713796e-01, -1.11385539e-01,  2.87360400e-01,
    -8.85643810e-02,  7.47393966e-02,  7.73851154e-03, -3.63404304e-01, -3.46485972e-01, -5.26472460e-03, -2.66724247e-02, -1.67120695e-02,
     1.13879651e-01,  2.15936191e-02,  7.83380195e-02, -5.20071030e-01, -1.06751835e-02,  1.33699790e-01, -1.59081087e-01, -3.69242787e-01,
     1.44647375e-01, -1.14276126e-01, -3.16737413e-01, -4.69228834e-01, -5.83119504e-02,  3.63497287e-02,  3.22037309e-01, -2.41600767e-01,
    -1.59832105e-01,  1.13598868e-01,  2.81103514e-02,  8.25020075e-02,  1.31327659e-01,  1.31763041e-01,  4.95566167e-02,  2.08932534e-01},
   { 9.37649548e-01, -1.50321096e-01,  1.09027267e-01, -3.07063758e-01, -4.57779527e-01,  3.76338124e-01, -2.57120699e-01,  4.28502530e-01,
     2.22902641e-01,  1.31568879e-01,  2.50169635e-01,  5.65340638e-01,  6.34954572e-01, -1.47409022e-01,  5.33628821e-01,  2.97231972e-02,
    -2.51589805e-01,  2.92039365e-01, -3.99997532e-01,  4.00604039e-01, -4.43910390e-01,  3.94673675e-01, -2.37049356e-01, -4.71413583e-01,
    -3.37482244e-01,  3.97536397e-01,  3.18469167e-01, -6.26774952e-02, -1.22195810e-01,  4.84085709e-01, -1.87201902e-01, -2.06149846e-01,
    -1.50009722e-01,  1.46309823e-01, -1.47029450e-02, -4.32824939e-01, -2.13442728e-01, -2.09718775e-02,  8.10610130e-03,  5.11319578e-01,
     2.55672306e-01,  3.62186611e-01,  3.12111884e-01,  2.01174527e-01, -4.04634416e-01, -3.32220912e-01,  5.75333714e-01, -9.80118364e-02,
     2.05221981e-01,  1.21985577e-01,  4.27787125e-01,  4.47103307e-02, -2.77732015e-01, -2.10794434e-02,  6.34107828e-01,  2.60217339e-01,
    -1.85165346e-01, -8.51180628e-02, -3.01577896e-01, -8.31178725e-02, -6.65379763e-01,  6.35681570e-01,  1.34850159e-01, -2.42924225e-03},
   { 1.70543656e-01,  4.99121994e-02,  9.60777104e-02,  7.74814263e-02,  4.42624807e-01,  6.50374889e-01,  1.89347968e-01,  3.78387809e-01,
     4.11359996e-01,  1.83100984e-01, -1.75736696e-01,  9.15478840e-02, -1.88181922e-01,  4.56128329e-01,  6.01037502e-01, -3.63301665e-01,
     6.61987066e-02,  3.65286708e-01,  5.22450626e-01, -4.44771685e-02, -4.18005232e-03,  1.51139796e-01, -4.86856289e-02,  9.61773098e-02,
     2.65778780e-01, -2.81957686e-01,  3.95309299e-01,  3.23406130e-01,  4.28079396e-01, -1.58031046e-01, -1.30356565e-01,  4.71118391e-01,
     1.47581622e-01,  2.68215425e-02,  4.78171825e-01, -1.16940983e-01, -4.44329709e-01, -3.41857113e-02,  1.64183117e-02,  4.50707257e-01,
    -3.79917324e-01,  5.59418321e-01, -5.90103008e-02,  6.80808946e-02, -1.84120446e-01,  1.09986790e-01,  5.90369940e-01,  1.79344937e-01,
    -5.69134876e-02,  1.79268103e-02, -3.15927774e-01,  3.40652585e-01,  2.19445601e-01,  1.71427891e-01,  1.95364133e-01,  3.39449942e-01,
     3.63472998e-01, -2.42204443e-01, -6.02858126e-01, -1.40459806e-01,  8.06920171e-01, -3.00120950e-01, -7.00454116e-02,  4.14479859e-02},
};

const float GRNN1_U[32][32] = {
   { 9.61157307e-03, -1.97204709e-01, -8.64805937e-01,  9.61631119e-01,  8.75559807e-01, -2.43121338e+00, -1.29257739e+00,  9.95808125e-01,
    -1.35339454e-01,  3.56350362e-01, -7.24694803e-02, -4.61532146e-01,  1.65174341e+00, -1.53251469e+00, -1.59219575e+00, -9.78871703e-01,
    -2.77694762e-01,  9.29006279e-01, -3.24439436e-01, -5.73474050e-01, -1.57995987e+00,  1.31367993e+00, -3.16705775e+00,  6.56672895e-01,
    -7.12666810e-01,  1.75897002e-01,  3.73270482e-01,  1.79317504e-01, -8.36104572e-01, -6.35297820e-02, -3.30754578e-01,  5.98854661e-01},
   {-3.88473660e-01, -1.18739808e+00,  2.85406900e-03, -1.11815622e-02, -1.69822261e-01,  1.13771349e-01,  1.52941477e+00,  2.04898620e+00,
     2.80980915e-01, -4.82955843e-01,  8.23100209e-01,  1.29824439e-02, -3.67774904e-01,  9.35151517e-01, -1.64400607e-01,  2.75002867e-01,
    -6.56243920e-01,  5.03097653e-01, -5.45374095e-01,  7.97195435e-01, -1.43280819e-01,  6.09272718e-01,  3.15039229e+00, -8.71761084e-01,
    -2.33761922e-01,  4.98157412e-01, -3.20925117e-02,  1.34870097e-01, -8.04309547e-01,  2.36056298e-02, -2.02428532e+00,  4.28351045e-01},
   { 2.57014126e-01, -1.92325965e-01, -1.70269573e+00,  3.50199759e-01,  7.07349956e-01, -5.00342488e-01,  1.71894610e-01, -3.28069150e-01,
    -1.11548565e-01, -5.59009373e-01,  6.26626909e-01,  1.02770239e-01,  4.70591933e-02,  7.85152614e-01,  3.08603811e+00,  8.55843067e-01,
    -9.51465726e-01, -1.08894520e-01, -7.29342699e-01,  6.94825053e-01,  6.72973931e-01,  3.88530821e-01, -1.12545097e+00,  1.96816862e-01,
    -3.44513543e-02, -3.37122679e-01, -1.29771754e-01,  4.83530462e-01,  4.16936129e-02,  8.17528442e-02, -3.52070481e-01, -1.14254601e-01},
   {-4.15765822e-01,  8.79705727e-01,  3.55096906e-01, -8.79944921e-01,  4.73326266e-01, -6.11695111e-01, -8.48736167e-01,  1.83904648e-01,
    -4.84145209e-02,  1.56544352e+00, -3.52998763e-01, -8.58078122e-01,  9.74381387e-01,  3.31410736e-01, -4.29186225e-01, -1.30317688e-01,
     6.09805703e-01, -8.76792222e-02,  5.11755049e-01, -4.39189404e-01, -3.40593606e-01, -1.17457664e+00,  1.08987415e+00,  1.15361404e+00,
    -8.17717731e-01,  6.30440712e-01,  4.62162405e-01,  6.59810156e-02,  3.04414272e-01,  5.61982512e-01, -2.25630784e+00, -8.80735554e-03},
   {-4.30939972e-01,  7.72509813e-01, -5.78087747e-01,  3.01763475e-01,  2.79214382e-01,  1.68226168e-01,  5.86996913e-01, -1.71527397e-02,
    -4.27066892e-01,  6.53157651e-01,  2.77207345e-01, -3.92226398e-01, -1.01728475e+00,  4.26474065e-01,  8.71084154e-01, -4.58425671e-01,
    -2.13816118e+00, -7.44110525e-01,  1.16789424e+00,  5.68558156e-01,  1.05966568e+00,  4.78080243e-01,  5.15659750e-01, -9.98729646e-01,
     2.08544180e-01, -7.85595238e-01, -1.22541654e+00,  5.59407175e-02, -2.48699248e-01,  7.87158787e-01, -1.51540625e+00,  1.12790823e+00},
   { 3.57478648e-01, -1.86217856e-02,  2.59786105e+00, -2.36945406e-01, -6.49070978e-01,  5.74847400e-01,  2.35721588e-01, -7.07322538e-01,
    -8.09343904e-02, -2.32639685e-01, -6.35455489e-01,  5.58468521e-01,  5.35721004e-01,  1.40613127e+00, -3.49232674e-01, -4.25428927e-01,
     5.77310562e-01,  2.77949702e-02, -8.75279784e-01,  2.68570900e-01, -6.62119329e-01, -9.54112053e-01, -2.16576427e-01, -7.73036122e-01,
    -4.65722352e-01, -1.56150651e+00,  4.59409326e-01, -1.17965686e+00,  2.81633288e-01, -3.49638939e-01, -4.05261070e-01, -7.31146336e-01},
   { 7.55492330e-01, -4.88892972e-01,  7.64931515e-02,  5.99569023e-01,  5.67448318e-01, -2.56026596e-01, -3.10901463e-01,  1.19322240e+00,
    -1.44041374e-01,  8.52534354e-01,  2.17761055e-01,  8.01260293e-01, -7.63539553e-01,  1.77504063e-01, -9.30827796e-01, -3.61566126e-01,
     3.04014951e-01,  4.18139726e-01, -5.00558913e-01,  7.66499400e-01,  1.59925294e+00, -1.67610860e+00, -2.38584471e+00,  9.18202579e-01,
    -1.44540679e+00,  6.98456228e-01,  1.13956535e+00, -6.07934356e-01,  1.88246205e-01, -1.10126615e+00,  6.88677907e-01, -2.88082391e-01},
   { 8.62085879e-01,  2.28995770e-01,  5.62144399e-01,  1.97730660e+00, -1.45138204e+00,  1.41402721e+00, -7.56365538e-01,  1.40581727e+00,
    -3.95700663e-01,  1.33920741e+00,  7.56451935e-02,  1.26382470e+00, -2.32004285e+00, -2.39562824e-01, -8.66929516e-02, -6.87369585e-01,
    -8.55788827e-01, -2.21347418e-02, -1.13698995e+00,  1.39799094e+00, -1.68638086e+00, -1.17749643e+00,  4.62329119e-01,  1.11089957e+00,
     3.31469983e-01,  3.47100049e-01, -7.12283075e-01, -1.84182763e-01, -6.65875554e-01, -8.57842147e-01,  1.18521845e+00, -8.86520296e-02},
   {-3.79247248e-01,  6.53964639e-01,  5.38473487e-01,  1.21556890e+00,  1.37082100e-01,  1.37521654e-01,  1.04984500e-01,  3.78820866e-01,
    -2.46992803e+00,  4.95322764e-01, -1.50964901e-01, -2.03868723e+00, -1.03106403e+00,  2.23040402e-01, -1.31203270e+00, -1.96760893e-01,
    -1.29170209e-01,  4.35721302e+00,  7.77996600e-01, -8.49686339e-02,  2.62051851e-01, -1.45621192e+00, -4.49706823e-01, -2.80526280e-01,
    -1.60916492e-01, -6.15981340e-01,  5.55811152e-02,  6.72965795e-02,  5.38969088e+00,  9.16753188e-02, -2.17009473e+00, -1.55444372e+00},
   {-4.24807891e-02,  5.06797433e-01,  1.74439043e-01, -2.14306760e+00, -2.39717551e-02,  9.99794900e-01,  1.19162865e-01,  1.28484619e+00,
     3.19920242e-01, -9.81011808e-01,  3.16416532e-01,  1.62374091e+00, -2.53974795e-01,  1.47313857e+00, -6.60421431e-01,  7.11331189e-01,
     8.66685212e-01,  2.38433406e-01, -2.68174142e-01,  1.11815579e-01, -2.18968487e+00, -5.70093319e-02, -1.35966754e+00,  3.19727361e-01,
     6.91400766e-01, -5.18804312e-01, -4.06907260e-01,  9.03725177e-02,  9.62952822e-02, -2.39272341e-01,  1.37682045e+00, -7.80322373e-01},
   {-4.14130002e-01, -3.28377903e-01, -7.08069354e-02,  3.18926930e-01, -7.87290335e-01,  3.98919791e-01, -2.71863759e-01, -8.56213331e-01,
    -8.08389962e-01,  2.41658136e-01, -4.76935565e-01,  2.08660269e+00,  1.82615042e-01,  1.16083384e+00,  1.29026771e+00,  2.88870782e-01,
    -1.05256391e+00,  7.62949467e-01, -3.87077063e-01,  1.38922915e-01,  5.78261673e-01,  4.57290281e-03, -1.54040217e+00, -9.62770998e-01,
     2.10928336e-01, -8.13429177e-01,  1.05840288e-01,  4.46156025e-01,  3.24987948e-01, -1.53807029e-01,  1.03410637e+00, -1.77170432e+00},
   { 1.81283444e-01,  4.27352250e-01,  1.03274263e-01,  9.26793694e-01, -1.00360954e+00,  3.31763268e-01,  4.49264795e-01,  1.19375300e+00,
     5.33125937e-01, -1.95098341e-01, -6.59459114e-01, -4.55082059e-01, -3.96783233e-01, -3.16133916e-01, -4.72877562e-01, -7.45347083e-01,
    -5.42331576e-01,  3.88990268e-02, -6.15332186e-01,  8.07780325e-01, -2.53700316e-01,  6.98156059e-01,  1.72550094e+00,  1.77321291e+00,
    -1.24663961e+00,  1.91354012e+00, -9.44141150e-01,  6.27911866e-01, -6.54437482e-01,  5.78762703e-02, -1.19024730e+00, -3.49329799e-01},
   { 8.83239746e-01, -2.14186206e-01, -7.60797501e-01,  3.93466651e-01,  4.98740256e-01, -3.22729200e-01,  1.20012128e+00, -1.82520509e+00,
    -8.51208419e-02, -6.33905947e-01, -1.19256067e+00, -5.89129686e-01, -1.38810539e+00,  1.02660418e+00,  3.00461531e+00,  1.09958899e+00,
     7.16142595e-01, -1.28643781e-01,  3.81747514e-01,  9.01446104e-01,  9.77609634e-01, -1.20882118e+00,  1.84343439e-02,  1.34693730e+00,
    -4.61426675e-01, -2.43266916e+00,  1.33598018e+00, -1.21829951e+00,  4.28739756e-01, -4.02238816e-01,  6.48950517e-01, -1.16393805e+00},
   {-5.63652277e-01, -1.52886260e+00, -9.01675045e-01,  1.68628943e+00,  1.49344236e-01, -1.12380636e+00, -1.29444826e+00,  9.61855054e-01,
    -1.51089549e+00,  1.63379347e+00,  2.81293631e-01,  4.61020994e+00, -7.34878361e-01,  1.98469543e+00,  3.42969227e+00, -3.19161391e+00,
    -3.02109504e+00, -2.91571593e+00,  1.56867340e-01,  4.28635329e-01, -1.23833621e+00, -1.14753580e+00, -2.98384595e+00,  2.82903814e+00,
    -5.49260557e-01, -1.24499261e-01, -7.10197091e-01, -9.72213373e-02, -5.54078436e+00, -1.91698444e+00,  8.49580646e-01,  1.89823830e+00},
   { 1.13648725e+00, -6.87275469e-01, -5.57271719e-01,  2.09430552e+00, -1.29461408e+00,  1.09644854e+00,  1.30785453e+00, -1.18235373e+00,
     3.79873306e-01, -5.46590686e-01, -5.61615415e-02,  4.77563180e-02, -1.09704375e+00,  1.71255910e+00, -1.08076429e+00,  5.23856401e-01,
    -8.93443644e-01, -3.39772612e-01, -6.12387002e-01,  1.10849726e+00,  1.56279850e+00, -1.33133256e+00,  1.11378312e+00,  8.78601968e-01,
    -1.53786266e+00, -6.42313838e-01, -4.44454044e-01, -1.12119645e-01,  4.77772593e-01, -1.38643503e+00,  6.06230259e-01,  4.14365466e-04},
   { 1.06720400e+00,  2.53970355e-01, -3.36103702e+00,  2.93505341e-01,  2.72571301e+00, -1.95908391e+00,  1.23096669e+00, -1.01910412e+00,
    -3.66854286e+00, -4.95361030e-01,  9.73941147e-01,  1.48075163e+00, -9.90540683e-01,  2.69796014e+00, -2.60031551e-01,  2.82992005e-01,
    -3.68044794e-01, -2.21713352e+00, -9.01623905e-01, -1.05758214e+00, -2.14502406e+00, -1.11285079e+00, -1.53015208e+00,  6.40732050e-01,
     2.69407225e+00, -5.36268771e-01, -1.05654083e-01, -5.25692046e-01, -1.35623419e+00,  1.57735395e+00, -2.81091380e+00, -2.20177755e-01},
   { 9.11708713e-01,  1.60284221e+00,  4.33322459e-01, -8.25034738e-01,  2.47416943e-01, -5.38785934e-01,  1.47352189e-01,  3.81605119e-01,
    -3.63952070e-02, -9.30575609e-01,  4.12415326e-01,  2.64048487e-01, -1.03486729e+00, -6.75530434e-01,  7.92068839e-01, -6.66494846e-01,
    -8.56364332e-03, -8.14809561e-01, -1.29148513e-01,  2.31060982e+00, -7.89382122e-03,  3.24467003e-01,  4.78851557e-01, -1.39101875e+00,
     4.17473942e-01, -6.20151460e-01, -1.09243429e+00, -6.84551775e-01,  3.09318364e-01,  8.98319840e-01, -4.07239199e-01,  6.89559758e-01},
   { 2.32777059e-01, -1.71358049e+00,  2.08076566e-01,  9.70369041e-01,  2.03794670e+00,  2.32538939e+00,  1.16919303e+00, -1.40911400e+00,
     7.23174691e-01, -1.53616095e+00,  9.98399496e-01,  5.75846136e-01,  2.34985137e+00,  3.79252911e+00,  1.65955615e+00,  1.81672168e+00,
     1.01920545e+00, -2.23275042e+00,  2.98399282e+00, -4.52880889e-01, -2.50589943e+00,  2.39034152e+00, -2.43886447e+00,  3.77856684e+00,
     1.12204552e+00,  1.04154205e+00,  1.67095482e-01,  2.63494670e-01,  7.60629773e-01, -1.54962909e+00,  2.64628124e+00,  1.44634023e-01},
   { 3.23296130e-01,  3.20202231e-01,  5.21364391e-01,  8.37926030e-01, -7.18395650e-01,  2.12425590e+00, -1.01193440e+00, -1.38450670e+00,
     5.64349771e-01,  2.33677909e-01, -1.43470839e-01,  1.60354984e+00, -2.82220632e-01,  1.94838691e+00, -2.91845894e+00,  1.37208080e+00,
     1.09780085e+00,  4.52168822e-01, -9.67315078e-01,  1.96701929e-01, -4.34532255e-01, -1.82415533e+00,  6.32106364e-02,  1.24953854e+00,
     6.25243127e-01, -1.48046482e+00,  1.20712824e-01,  2.63591617e-01, -5.89510262e-01,  3.33097950e-02,  5.77838838e-01, -1.24776423e+00},
   {-5.87075531e-01,  1.15585148e+00, -5.10291696e-01, -5.73245704e-01, -4.44383919e-01, -4.01597410e-01, -8.82757545e-01,  1.77747881e+00,
    -4.90774012e+00,  1.02559495e+00, -6.03567421e-01, -3.48327255e+00, -4.37372863e-01,  3.98552155e+00, -1.03716910e+00,  3.25014877e+00,
    -2.71085739e-01, -6.64709902e+00,  1.19482672e+00,  1.30049145e+00,  1.41671669e+00, -2.24261403e+00,  1.06358552e+00, -2.61795759e-01,
    -2.04782963e+00, -5.26989661e-02, -6.61032319e-01,  1.33219093e-01, -3.80009294e-01,  1.30645263e+00, -2.32840180e+00,  1.16795921e+00},
   {-2.21915737e-01, -1.05035342e-01,  1.41725659e-01,  1.37822473e+00, -6.28135324e-01,  1.17574263e+00, -6.84364080e-01,  1.03396618e+00,
    -6.09525517e-02,  7.55381167e-01,  9.38127413e-02, -6.40414536e-01, -2.42201805e+00,  1.55646956e+00, -1.82831287e+00, -1.60258994e-01,
    -4.84233558e-01, -4.51883644e-01,  1.79982021e-01,  1.54101956e+00, -1.23340750e+00,  1.16330713e-01, -6.23609602e-01,  9.39716578e-01,
    -7.67438948e-01,  1.46720624e+00, -6.11414492e-01,  3.49537611e-01, -2.27585644e-01,  1.80628479e-01, -3.34260240e-02,  1.04263878e+00},
   {-2.01105177e-01, -5.98237813e-01, -8.58057618e-01,  1.38125610e+00,  5.43320298e-01,  5.54810703e-01,  8.82758737e-01,  2.17482209e-01,
    -8.46692383e-01,  2.81484872e-01, -9.42114741e-02,  1.32634610e-01,  1.76266178e-01, -1.07082047e-01,  1.15093803e+00, -6.28970385e-01,
     6.40846118e-02,  1.49094760e-01,  2.25980818e-01, -1.83320391e+00,  1.34174824e+00, -2.06397206e-01, -2.50673056e+00,  2.78884023e-01,
    -4.55989778e-01, -3.65175068e-01,  1.24210787e+00, -9.32559490e-01, -2.75711089e-01, -1.88492095e+00, -1.59741378e+00,  5.33893593e-02},
   {-3.40044230e-01, -8.72597516e-01, -3.74976128e-01, -9.57535565e-01,  7.25584865e-01, -5.61964214e-01,  1.26976585e+00,  1.73703992e+00,
     7.70154178e-01, -5.73106468e-01, -4.40032929e-01,  9.06099305e-02,  7.98831344e-01, -1.78326771e-01, -1.95399630e+00,  8.04468393e-01,
    -2.91890949e-01,  2.48304695e-01,  4.65349317e-01,  1.01487517e+00,  3.91440719e-01,  9.48610425e-01, -2.20192289e+00, -7.62428701e-01,
     4.86146450e-01, -4.00284022e-01,  1.38215315e+00, -8.53189349e-01,  5.15527308e-01, -1.77501738e-01, -9.92637336e-01,  1.86044216e-01},
   {-2.39878409e-02,  9.77911651e-01,  1.67035210e+00, -1.53466016e-01,  4.04624254e-01,  1.73689210e+00, -8.00980628e-02, -1.39306533e+00,
    -1.46128803e-01, -2.25337088e-01,  1.96593821e-01, -3.50234727e-03,  3.66465300e-02, -8.49849507e-02,  5.97877055e-02, -5.42456150e-01,
     4.10577357e-01, -2.45882794e-01, -1.97108746e-01, -1.24757636e+00, -1.36381388e+00,  6.73417598e-02, -2.20206952e+00, -4.12356794e-01,
    -5.18484175e-01, -3.99500020e-02,  4.80393887e-01, -9.20953810e-01,  3.62553418e-01, -1.27282381e+00,  3.78899008e-01,  2.49841645e-01},
   { 1.65601913e-02, -8.89963061e-02, -5.05088508e-01,  1.09091794e+00,  5.00065684e-01, -1.21437383e+00,  6.14418462e-02,  1.42113805e+00,
     1.19093776e+00,  3.42922628e-01, -3.29500735e-01,  1.38438511e+00,  4.36202854e-01, -2.67578673e+00, -3.88833404e-01, -1.38378829e-01,
     2.82025576e-01, -3.40312332e-01, -1.56003261e+00, -9.10573125e-01,  1.40956843e+00, -4.88430649e-01, -1.36618865e+00,  3.25740457e-01,
    -2.56382823e+00, -9.25140321e-01,  6.30962670e-01, -1.43122482e+00, -4.94433492e-01,  9.32228565e-01, -2.46536112e+00, -2.99362391e-01},
   {-7.40355551e-01, -6.06930435e-01,  1.01964009e+00, -1.40032458e+00, -2.14488342e-01,  2.80663371e+00,  1.36697933e-01,  5.34863591e-01,
     1.10986926e-01, -3.49284142e-01, -4.31364328e-01,  2.85238594e-01, -2.21528172e-01, -2.37171435e+00, -2.64209056e+00, -6.77770615e-01,
    -1.50600910e-01,  8.49275649e-01,  8.56558502e-01, -1.67396998e+00,  2.12917209e-01,  1.61038041e+00, -2.06745103e-01, -3.80922854e-01,
     6.45760953e-01, -1.26231670e+00,  2.86229521e-01, -8.38786542e-01, -3.42228651e-01, -1.39135504e+00,  5.57022750e-01,  1.75779119e-01},
   { 2.67585576e-01,  6.80779159e-01, -1.46956849e+00, -1.48948610e+00,  1.34176815e+00,  1.69532657e-01, -1.06064963e+00,  2.56029874e-01,
    -8.57979506e-02,  9.85468626e-01,  5.27201474e-01,  8.65588367e-01, -2.68245816e-01,  3.74363005e-01,  5.49617052e-01,  5.32197773e-01,
     1.27865100e+00, -7.13075936e-01, -1.19019248e-01,  1.36457968e+00,  4.31744993e-01, -7.44414508e-01, -1.84022522e+00, -9.58539367e-01,
     1.67558026e+00, -3.17409784e-02, -1.13921607e+00, -8.05246830e-01,  3.16439122e-01,  8.09971809e-01,  1.46621072e+00,  1.85362741e-01},
   {-3.31984252e-01, -7.89759517e-01, -3.23208183e-01, -6.38149500e-01,  2.33943582e-01, -9.56153311e-03, -8.76948655e-01, -1.32169592e+00,
     9.10481811e-02, -2.55565941e-01, -4.02378172e-01,  2.25942999e-01,  1.76210964e+00, -1.11104071e+00,  6.85092151e-01, -3.02157730e-01,
     2.09231034e-01,  1.14990556e+00,  6.72804534e-01, -5.25149763e-01, -5.37946880e-01,  5.31844497e-01,  1.41518879e+00,  8.21577013e-01,
     1.05105186e+00,  1.82136250e+00,  8.06854904e-01,  9.74697053e-01,  3.09948176e-01, -6.36018395e-01,  4.39920306e-01,  1.05548227e+00},
   { 8.55926156e-01,  4.61724460e-01, -6.34838343e-02, -8.16622138e-01, -6.45500541e-01,  2.86819994e-01,  2.82847613e-01,  6.44341409e-01,
     4.91516399e+00, -4.74928319e-01,  1.67519236e+00,  8.87323499e-01, -9.22787070e-01, -1.92561066e+00, -1.16196978e+00, -2.55735099e-01,
    -1.11197211e-01,  3.46339369e+00, -1.75582290e+00,  1.71683741e+00, -1.68809772e-01,  2.23594442e-01, -2.00618124e+00, -1.41793942e+00,
    -7.69759655e-01, -4.27189201e-01,  8.78482834e-02, -4.31217372e-01,  3.36273015e-01, -2.85622239e-01, -2.19660187e+00, -1.11378062e+00},
   { 4.40972507e-01, -1.50884449e+00, -8.21329653e-02,  7.44342446e-01, -9.52089548e-01,  8.93698096e-01, -2.59936213e-01,  3.65798652e-01,
    -3.25644910e-02, -1.13728464e+00,  4.12404269e-01,  5.23352772e-02,  6.45035654e-02,  4.92741793e-01,  9.24238563e-01,  7.07112849e-01,
    -2.30147131e-02,  5.30992337e-02,  6.71686053e-01,  3.61280292e-02, -9.46693420e-01, -3.90798241e-01, -2.01584315e+00,  1.10458887e+00,
    -2.73147583e-01,  7.11171865e-01, -1.23361535e-01,  9.49646235e-01,  4.46619838e-01,  4.03662771e-01,  1.23429978e+00,  9.84447896e-02},
   {-6.92498505e-01, -4.53894287e-01, -1.03377700e-01,  1.06776655e+00, -5.46551764e-01, -2.70304132e+00, -5.54049909e-01, -8.99953246e-01,
    -1.00045390e-01,  7.74157584e-01, -1.01112378e+00,  1.23654771e+00, -1.34663451e+00,  5.96607365e-02,  2.09591866e+00,  1.00147486e-01,
    -1.22685754e+00, -3.17054421e-01,  5.82553782e-02, -2.17835367e-01,  9.88722086e-01,  6.77823499e-02, -8.00872594e-02, -1.16649318e+00,
     1.39190674e+00, -2.45273873e-01,  2.96420138e-03, -1.20534599e+00,  1.14033230e-01, -2.09048897e-01, -1.59273636e+00, -2.83560485e-01},
   {-9.29947555e-01,  3.52275092e-03,  1.26634526e+00, -2.83618391e-01, -9.74310756e-01,  1.70736539e+00,  6.54243290e-01, -7.76767373e-01,
    -1.16042280e+00, -7.77483219e-03, -6.69429421e-01,  4.56160724e-01,  1.01427890e-01, -9.22591388e-02, -6.13539994e-01, -3.35663259e-01,
     5.24376452e-01, -1.02257740e+00, -1.49253577e-01, -4.57691252e-01,  7.64953122e-02,  1.36288568e-01, -1.28178024e+00, -1.01367116e+00,
    -5.23473020e-04, -2.52451253e+00,  7.22053111e-01, -6.08067513e-01,  5.28768361e-01,  5.58591075e-02, -6.94691539e-01, -1.59612703e+00},
};

// clang-format on


#endif // __FASTGRNN_GRNN1_PARAMS__

