#ifndef __FASTGRNN_GRNN0_PARAMS__
#define __FASTGRNN_GRNN0_PARAMS__

#define GRNN0_HIDD_DIM0 (32)
#define GRNN0_HIDD_DIM1 (64)

// clang-format off

const float GRNN0_ZETA = (-6.035645e-01);
const float GRNN0_NU = (-4.697160e+00);

const float GRNN0_BIAS_UPDATE[64] = 
   {-1.13494444e+00,  1.31306720e+00,  5.68920195e-01,  1.86535251e+00,  2.66665602e+00,  6.64367557e-01,  3.34549308e+00,  7.38761723e-01,
     8.95339727e-01,  1.60615325e+00,  4.03604805e-01,  1.41217005e+00,  8.99230123e-01,  1.37022722e+00,  1.14845085e+00,  1.29776978e+00,
     1.70745921e+00,  2.24134541e+00,  4.66714889e-01,  2.00612116e+00,  2.27742052e+00,  8.24455559e-01,  1.62246382e+00,  2.31153178e+00,
     1.30217791e+00, -2.39689305e-01, -2.05364525e-01,  1.71700692e+00,  6.02136016e-01,  1.88656360e-01, -4.01962474e-02,  8.86655271e-01,
     4.51196718e+00,  1.12384558e+00, -1.01776615e-01,  6.50517270e-02,  8.07862461e-01,  2.21871829e+00,  2.16199279e+00,  9.40916300e-01,
     1.09635961e+00,  1.21000838e+00,  1.45457304e+00,  1.07912099e+00,  1.11794841e+00,  2.82626152e+00,  3.20444316e-01,  1.63291264e+00,
     1.35231996e+00,  2.13875723e+00,  1.20335567e+00,  9.19825852e-01,  2.83634830e+00,  2.60321903e+00,  3.29537749e-01,  8.16746950e-01,
     1.02993596e+00,  1.12843001e+00,  1.13310182e+00,  1.12769985e+00,  5.36781847e-01,  1.98135841e+00,  1.61872935e+00,  1.64371657e+00};

const float GRNN0_BIAS_GATE[64] = 
   {-1.17757797e-01,  3.69048738e+00,  2.25862145e+00,  2.36875153e+00,  2.72327518e+00,  2.28048873e+00,  1.40340602e+00,  5.81724167e+00,
     4.17777538e+00,  3.07083654e+00,  4.43968344e+00,  2.21849036e+00,  3.25752926e+00,  2.55115390e+00,  2.97084880e+00,  4.16284704e+00,
     2.21183777e+00,  5.20974779e+00,  2.21501493e+00,  4.16145182e+00,  1.56915414e+00,  5.01397181e+00,  6.20343447e+00,  3.11719680e+00,
     3.26680613e+00,  1.03328240e+00,  3.72228408e+00,  1.67086053e+00,  4.38615465e+00,  3.28557104e-01,  1.66940570e+00,  4.16811466e+00,
     9.22540545e-01,  3.53754687e+00,  1.15722346e+00,  3.35059237e+00,  1.57711852e+00,  4.49422741e+00,  9.15770292e-01,  3.39926362e+00,
     3.96566868e-01,  4.27406883e+00,  1.07342102e-01,  3.31532693e+00,  1.92884314e+00,  6.24117136e+00,  2.17080474e+00,  3.03316331e+00,
     3.69622970e+00,  1.50742960e+00,  1.68104577e+00,  1.57826197e+00,  8.52998555e-01,  3.27685547e+00,  1.70842957e+00,  3.50038910e+00,
     3.19422483e+00,  1.78953648e+00,  2.88421249e+00,  3.06742144e+00,  1.41892159e+00,  1.87647593e+00,  2.37933993e+00,  1.93222141e+00};

const float GRNN0_W[64][32] = {
   { 2.07569465e-01,  2.91535318e-01,  2.06079349e-01,  4.70940858e-01,  3.42300504e-01,  4.75049317e-01,  2.28240937e-01, -2.97835004e-02,
    -3.87592256e-01, -6.52862564e-02,  3.72878194e-01,  1.51161611e-01, -9.64884609e-02,  6.52618930e-02, -1.35797858e-01,  1.78126872e-01,
     7.32963979e-02,  1.33322358e-01,  2.03035980e-01, -4.93736975e-02,  1.12965658e-01, -5.90304211e-02,  1.77904680e-01,  1.70842245e-01,
    -3.96837182e-02, -2.52910871e-02,  1.42618090e-01,  2.77086735e-01,  1.71960875e-01,  1.46303430e-01,  3.25964876e-02,  9.43027958e-02},
   {-1.50900241e-02,  1.32165458e-02, -3.20949793e-01,  2.52792209e-01,  6.41842186e-01,  1.65694222e-01,  2.48500124e-01, -9.13621604e-01,
    -7.14299679e-01, -6.63403869e-01, -3.02214831e-01, -2.96397150e-01, -4.39903475e-02, -1.02575317e-01, -2.49053180e-01, -5.67391142e-02,
     3.47760320e-01,  4.86372650e-01,  1.90090567e-01,  5.50985336e-02,  1.14892200e-01, -1.61874771e-01,  1.43166631e-01, -2.01427996e-01,
     2.65383022e-03,  1.88262910e-01,  1.71186045e-01, -2.87327021e-01,  6.45659789e-02, -2.47564420e-01,  8.33281055e-02,  5.04629016e-02},
   { 7.35441223e-02, -6.24471605e-01,  2.26247728e-01,  4.14586961e-01,  2.73576319e-01,  4.23219800e-01,  7.51700282e-01,  7.28010476e-01,
     7.81560615e-02,  2.25836650e-01, -1.23664647e-01, -7.49553740e-02, -3.59649301e-01, -1.36230603e-01, -3.92776668e-01, -3.72712731e-01,
    -4.31960225e-01, -9.84373152e-01, -6.30067170e-01,  3.33048135e-01, -2.75722928e-02, -1.28090575e-01,  1.13897070e-01,  3.43721598e-01,
     3.02190185e-01, -7.64833018e-02,  3.17055404e-01,  4.13223267e-01,  2.67066181e-01,  9.36688632e-02,  1.03341028e-01,  3.37002099e-01},
   {-1.84485659e-01,  4.04328883e-01, -1.20671421e-01, -1.29572093e-01, -8.84316787e-02, -4.38168257e-01, -3.08873802e-01, -4.34033543e-01,
    -2.61965930e-01, -4.39776704e-02, -3.15260828e-01, -4.12767410e-01, -1.09801792e-01, -1.59567595e-01, -1.08752158e-02, -1.55003861e-01,
    -2.95633912e-01, -4.85659838e-02, -6.44135699e-02,  1.00192301e-01,  1.00470340e+00,  1.02745664e+00,  1.08863175e+00,  1.32429373e+00,
     1.10760272e+00,  1.12896967e+00,  5.19066393e-01,  2.10568860e-01, -6.58920825e-01, -6.31923735e-01, -1.72153819e+00, -1.44542241e+00},
   { 4.58929241e-02, -8.81598592e-02, -1.43577665e-01, -8.74644071e-02, -1.98896542e-01, -1.76854953e-01, -1.95013925e-01, -3.65114212e-01,
     2.04326883e-02,  6.28207698e-02,  2.08037421e-01,  4.14660096e-01,  1.17938623e-01,  2.55041301e-01, -1.17057070e-01, -2.26113722e-01,
     5.37868068e-02, -1.28919482e-01, -1.74733728e-01, -4.00575399e-01, -9.04079005e-02,  1.44346412e-02,  4.30946164e-02,  1.94667149e-02,
     7.78488815e-02, -9.74333100e-03,  4.30338979e-02,  8.44098814e-03, -9.21012983e-02,  6.22627623e-02, -3.56307030e-02,  1.69125006e-01},
   {-1.32168755e-01, -1.85041353e-01, -2.98660100e-01, -9.38095629e-01, -1.00565660e+00, -1.09004056e+00, -4.51093018e-01,  3.54778707e-01,
     4.96239007e-01,  2.35289961e-01,  1.66607231e-01,  1.20423511e-01,  5.43106258e-01,  6.03057444e-01,  5.89158058e-01,  4.11790699e-01,
     3.39176893e-01, -4.88342345e-02, -2.32591942e-01,  2.90170670e-01, -1.56459138e-01, -8.92099440e-02, -1.76903650e-01, -4.42071585e-03,
     5.19877039e-02,  8.75930116e-02, -6.98305108e-03,  5.63316513e-04, -7.48727098e-02,  1.98914319e-01, -7.24248141e-02,  1.09845195e-02},
   { 4.22481149e-02,  6.01468384e-01,  2.09014678e+00,  8.18757772e-01,  6.41892493e-01,  7.57266581e-01,  5.94923735e-01, -3.89652699e-02,
    -3.84367853e-01, -1.48656860e-01, -5.85229456e-01, -3.98224175e-01,  1.91862658e-01,  2.09795266e-01, -7.72594959e-02,  1.33169726e-01,
    -1.04181468e-01, -2.48556182e-01,  2.59466141e-01, -6.90051243e-02,  4.09643322e-01,  3.64673406e-01,  1.24042772e-01,  6.49236143e-02,
     2.02578589e-01,  2.97938317e-01, -1.42829055e-02, -3.64288464e-02,  4.78560716e-01,  2.35332325e-01,  1.20900941e+00, -1.29799080e+00},
   { 1.44774467e-01,  5.18209815e-01,  7.86623657e-02, -2.11823955e-02, -6.64500952e-01, -1.37271261e+00, -1.07663155e+00,  5.19358993e-01,
     1.57969177e+00,  9.14687887e-02,  1.00549228e-01, -4.11615491e-01,  4.62644994e-02, -1.52848259e-01, -6.54459774e-01, -3.47231030e-01,
     4.62328583e-01,  1.12237501e+00,  3.68212730e-01,  6.93549573e-01,  4.04494852e-02, -4.40621614e-01,  3.42127740e-01,  2.34631687e-01,
    -9.37806785e-01,  3.70776415e-01, -1.20859660e-01, -1.36244059e-01,  2.15084538e-01, -6.90551698e-02, -5.68453111e-02, -1.37054741e-01},
   {-2.18044207e-01,  2.01644242e-01,  3.57108563e-01, -3.78707349e-01, -6.84867680e-01, -6.51888847e-01, -3.41465473e-01,  8.16432536e-01,
     8.48635793e-01,  3.97034101e-02, -3.33523244e-01, -3.59015286e-01, -6.54689193e-01,  4.51236628e-02, -5.44294655e-01, -1.52621297e-02,
     1.04314280e+00,  6.03901863e-01,  5.24331689e-01,  9.51753259e-01,  9.53852981e-02,  2.16375545e-01,  5.92716737e-03, -9.03040320e-02,
    -1.54568702e-01,  2.69380301e-01, -1.61703601e-01, -1.00725070e-01, -7.58926570e-02, -3.38373452e-01, -1.51936784e-01,  6.32340491e-01},
   {-7.06464574e-02, -1.73169985e-01,  2.30166707e-02, -1.11157328e-01, -6.57304585e-01, -8.07756722e-01, -6.33984089e-01,  7.87026733e-02,
     3.88833195e-01,  4.20260847e-01,  1.64936140e-01,  2.06669584e-01, -1.18405752e-01,  1.63659632e-01,  8.95946100e-02, -3.82679924e-02,
     2.01254398e-01,  7.25306496e-02, -3.77777629e-02, -9.69711691e-03,  3.74328308e-02,  2.72647664e-03, -1.31181270e-01, -8.87536928e-02,
    -3.36333700e-02, -1.16788760e-01, -1.17242739e-01, -1.95429981e-01, -8.54344815e-02, -1.48478925e-01, -1.93148822e-01, -1.37848943e-01},
   { 1.64214626e-01,  3.33380044e-01,  5.12704074e-01,  5.16745329e-01,  5.60519040e-01,  5.87572515e-01, -1.15200378e-01,  2.30753981e-02,
    -1.40853405e-01, -8.26367974e-01, -9.08043444e-01, -7.28920281e-01, -4.50072408e-01, -8.01583290e-01, -7.93702066e-01, -8.99567187e-01,
    -9.38240409e-01,  4.12380844e-02,  3.96048725e-01,  3.23256463e-01,  4.49076355e-01,  5.95269024e-01,  5.09062529e-01,  2.07276091e-01,
    -1.14588261e-01, -6.58285758e-03,  9.34346095e-02,  1.35884613e-01,  8.82482156e-02,  2.11638644e-01,  2.76642642e-03,  7.58592039e-02},
   { 1.04644589e-01,  7.82379881e-02,  7.63999745e-02,  5.59249759e-01,  1.39503673e-01, -1.49651803e-02, -4.25184906e-01, -9.06545639e-01,
    -4.91868228e-01,  1.06365971e-01,  5.63923478e-01,  4.98249739e-01,  2.37888873e-01, -2.38947511e-01, -3.29613924e-01,  2.25339942e-02,
    -1.42683461e-01, -1.46477684e-01, -6.64164126e-02, -2.87395179e-01, -2.66125351e-01, -1.65912256e-01, -3.39837551e-01, -4.37266938e-02,
    -9.51791033e-02, -5.29259682e-01, -2.49354079e-01, -2.46207371e-01, -1.06804542e-01, -1.49858549e-01, -1.54229283e-01,  1.57470554e-01},
   {-1.85781062e-01, -4.04724360e-01,  4.40524071e-01,  3.73909801e-01, -1.36001423e-01,  1.48450732e-01, -1.97799727e-01,  2.23329756e-02,
     2.02707052e-01,  1.41393185e-01, -1.58552960e-01, -2.00244695e-01, -2.63689101e-01, -5.43312728e-02, -3.88905555e-01, -5.81356943e-01,
    -7.50505865e-01, -2.27486297e-01,  1.03218667e-01,  5.45308471e-01,  3.32681298e-01,  5.57497025e-01,  3.76382202e-01,  2.09786192e-01,
     4.76162344e-01,  3.26099902e-01,  1.23191699e-01,  2.22946689e-01, -7.81383645e-03, -1.06137149e-01, -9.39610451e-02, -4.43129539e-02},
   {-8.43214840e-02,  2.77756810e-01,  6.62032127e-01, -1.69472508e-02, -3.52371395e-01, -4.47808921e-01, -6.51604414e-01,  6.70782924e-01,
     9.23517644e-01,  4.24761325e-01,  4.36221868e-01,  4.45583403e-01,  8.31352696e-02, -8.70435610e-02, -6.59147725e-02,  6.03417829e-02,
    -4.89574909e-01, -1.44738838e-01,  2.29742631e-01,  9.49339494e-02, -3.79896045e-01,  3.17981243e-01,  1.23229615e-01,  8.59940797e-02,
     3.05571616e-01,  1.99336171e-01,  9.84048992e-02,  1.59716874e-01, -3.78403515e-01,  1.63110107e-01,  8.05370867e-01, -1.24901640e+00},
   {-2.25210220e-01,  8.35388452e-02, -2.12645575e-01,  1.84911072e-01,  3.88012193e-02,  2.13661313e-01, -3.64191115e-01, -2.63187140e-01,
    -5.34823770e-03, -4.82203692e-01, -7.62398779e-01, -2.53762871e-01,  1.49998224e+00,  1.17899954e+00,  5.99087179e-01,  3.94086167e-02,
    -6.06130123e-01, -7.58823216e-01, -7.93336689e-01, -7.28064656e-01,  4.24211472e-02,  1.31286532e-01,  7.95408860e-02,  2.06024900e-01,
     3.35731387e-01,  6.50642393e-03, -3.03123239e-02,  3.94406527e-01,  1.22918494e-01,  1.98710009e-01, -3.63076061e-01,  4.70545113e-01},
   {-3.21191311e-01,  2.73434192e-01, -3.63670588e-01,  1.85495511e-01,  2.24853277e-01,  3.89145315e-01,  5.13954274e-03,  2.73046158e-02,
     1.73221841e-01, -3.04730982e-02,  5.92262685e-01,  1.93755627e-01,  1.54240638e-01, -3.05049196e-02,  2.89373156e-02,  4.70560551e-01,
     1.81515366e-01, -3.55634689e-02, -1.56693496e-02, -2.39306167e-02, -1.37222588e-01, -1.39398187e-01,  5.21193072e-02, -3.92485410e-01,
     6.17011972e-02, -1.52200818e-01, -9.62603018e-02,  7.32784122e-02, -2.04634801e-01, -3.48506212e-01,  3.58512580e-01, -8.96406993e-02},
   { 2.74844795e-01, -9.29672420e-02, -4.53188777e-01, -4.63057272e-02, -4.39378321e-01,  1.45016899e-02,  3.28298002e-01,  7.58034527e-01,
    -4.65327781e-03, -1.34939939e-01, -1.14519395e-01, -1.65808603e-01, -4.26988930e-01, -5.76565564e-01, -1.94379047e-01, -2.89573148e-03,
     2.86064208e-01,  6.84210062e-02,  6.53147578e-01,  3.47434610e-01,  1.09612554e-01,  2.24829763e-01,  1.39235571e-01, -2.71588653e-01,
    -1.63884178e-01, -1.72200739e-01,  6.81323186e-02, -6.40222356e-02,  7.49214888e-02,  2.22702429e-01, -1.72213107e-01, -1.33423162e+00},
   {-1.90722197e-01, -3.74595493e-01, -4.02474143e-02, -2.70278037e-01,  1.83548108e-01, -1.66746691e-01, -3.40601474e-01, -4.24734324e-01,
    -1.24643005e-01, -5.96646331e-02, -2.44522676e-01, -5.82500398e-01, -1.26937944e-02,  1.29984766e-01, -3.82651575e-02, -2.95446247e-01,
    -2.96337962e-01, -1.32598013e-01, -2.46290594e-01, -2.29249001e-01,  5.34639433e-02,  4.56438027e-03,  1.55873746e-02, -3.21993142e-01,
     1.34751603e-01, -1.69152722e-01, -2.07017466e-01, -2.92910300e-02, -3.03260460e-02,  1.46162659e-01, -3.07287186e-01,  1.34007465e-02},
   {-6.99982420e-02, -1.32540077e-01, -1.79513529e-01, -9.45207894e-01, -8.92057061e-01, -4.96501297e-01,  1.11125391e-02,  8.42198014e-01,
     7.09030986e-01,  5.45211077e-01,  5.64291358e-01,  5.24120092e-01,  5.58096468e-01,  4.56159830e-01,  6.70407772e-01, -1.48053765e-01,
     1.09267905e-01, -4.53223377e-01, -3.05217117e-01, -3.37949038e-01, -3.64810109e-01,  5.82596334e-03, -4.84535806e-02, -1.76146477e-01,
     6.87512234e-02, -2.19811514e-01,  2.86640197e-01,  1.98874980e-01,  3.50016415e-01,  8.29675198e-02,  2.29754210e-01, -1.38466358e-02},
   {-3.48305237e-03, -5.55218995e-01,  3.34465027e-01,  5.63850880e-01,  2.19921961e-01, -7.54479706e-01, -1.37440419e+00, -1.58681703e+00,
     1.91171855e-01,  6.40342534e-01,  8.42856705e-01,  6.00534499e-01, -4.36402112e-01, -3.20384175e-01, -6.21464074e-01, -6.37169182e-01,
    -9.31570008e-02,  9.86829519e-01,  6.50064707e-01, -7.48125017e-02, -2.99770385e-01,  2.75595665e-01,  3.77040744e-01,  4.75476496e-02,
    -3.06419045e-01,  3.59940948e-03,  2.37695053e-01, -1.18711680e-01,  9.49721932e-02, -2.53044546e-01,  9.76704136e-02,  2.97766030e-01},
   { 1.19859934e-01, -6.63313940e-02, -1.78731605e-01, -1.24484971e-01,  4.75146890e-01,  3.83107752e-01,  4.07656819e-01, -7.02118695e-01,
    -8.52837265e-01, -3.44421804e-01, -3.74452919e-01, -5.81747115e-01, -4.99196202e-01, -1.65090457e-01, -5.11868358e-01, -2.89864451e-01,
    -1.28282040e-01, -3.23743999e-01, -1.50082614e-02,  2.11838201e-01, -1.87898055e-01,  4.09562767e-01, -8.51469859e-02, -1.75791666e-01,
     2.84844130e-01,  2.60230750e-02,  5.72090223e-02,  1.39899641e-01,  1.79225236e-01,  1.72092915e-01,  9.03740376e-02,  4.07284230e-01},
   { 1.39434859e-01, -2.67816726e-02,  1.29114941e-01,  7.19157457e-02,  6.31228611e-02,  9.00760368e-02, -2.68616304e-02, -5.34215689e-01,
    -7.75982067e-02,  4.01739448e-01,  4.79162455e-01, -6.62852585e-01, -9.27553594e-01, -7.13983893e-01,  4.55039833e-03,  1.88645199e-01,
    -2.49256194e-02,  2.13211790e-01,  3.60240310e-01,  7.88179636e-02, -2.22603381e-01,  3.11188668e-01, -1.02238946e-01, -2.27747802e-02,
     3.64489853e-01, -9.70882997e-02,  1.18991420e-01, -3.14922899e-01,  6.99870884e-02,  9.69340801e-02, -8.65890756e-02,  1.65732831e-01},
   { 1.08850174e-01, -3.86977404e-01, -1.76085502e-01, -1.06502688e-02,  3.49638849e-01,  6.18496835e-01,  5.00895858e-01, -6.01396084e-01,
    -1.51000834e+00, -9.28142726e-01,  3.21921915e-01,  9.73574102e-01, -4.31731418e-02, -4.86445397e-01,  2.22185440e-02,  3.40795517e-01,
     2.13484719e-01, -3.27808142e-01, -4.74556267e-01, -2.16804862e-01,  2.74096489e-01, -9.68557037e-03, -6.07524551e-02,  1.92607507e-01,
     1.53563872e-01, -1.64617822e-01,  8.46496448e-02,  2.84368871e-05,  2.64590904e-02, -7.75229037e-02,  2.09507551e-02,  4.78160940e-03},
   { 1.70448393e-01, -3.35222423e-01, -8.08463395e-02, -4.46334928e-01, -1.92954943e-01,  2.45751351e-01, -8.41869339e-02,  2.75642294e-02,
    -1.49038751e-02, -2.09142417e-01, -6.76063240e-01, -1.65028289e-01,  2.61925220e-01,  4.94235277e-01,  3.86800319e-01,  2.52205849e-01,
     2.43845597e-01,  2.96322117e-03,  7.52130989e-03,  5.91235831e-02, -1.57901615e-01, -5.46040572e-02, -3.21586519e-01, -1.77143514e-01,
     1.50038168e-01, -2.33308032e-01,  1.60480812e-01, -7.25737289e-02, -6.52289093e-02, -3.49476397e-01,  3.27701569e-01, -2.15981886e-01},
   { 1.57607064e-01, -6.74437135e-02,  1.49325028e-01, -4.08968806e-01, -2.38498360e-01, -1.15310557e-01, -5.04041553e-01, -4.42933619e-01,
    -4.48886938e-02,  3.69019806e-01,  8.78242373e-01,  8.37934017e-01,  5.69679320e-01,  3.61487627e-01,  7.08480626e-02, -3.61699634e-03,
    -3.14988762e-01, -6.26055956e-01, -2.85484493e-01, -4.53398019e-01, -8.16985071e-02,  1.12245232e-01, -1.48474917e-01, -8.49681720e-02,
    -6.99538291e-02,  1.92914214e-02, -4.15677279e-02,  2.87271768e-01,  2.02847481e-01,  2.49689212e-03, -6.50247857e-02,  2.52490073e-01},
   {-6.05197251e-01,  7.53954649e-01,  1.02544582e+00, -4.25346822e-01, -2.12250769e-01, -2.83544153e-01, -5.09087682e-01,  2.43518040e-01,
     1.27163839e+00,  9.57025051e-01,  1.07407570e-01, -8.23306143e-01, -1.23269588e-01,  4.12283629e-01,  9.17134464e-01,  4.26571280e-01,
    -7.55389214e-01, -9.27825332e-01, -5.95305376e-02,  4.90577817e-01,  7.43956566e-02,  3.76261026e-01, -1.06960118e-01, -3.41093630e-01,
     1.71011567e-01,  2.71453053e-01, -2.50204265e-01, -3.77934463e-02,  1.10145239e-03,  1.20981806e-03,  2.38712326e-01, -9.08336341e-02},
   {-1.44297883e-01,  1.86329499e-01, -2.06575058e-02, -5.31278312e-01, -6.76217496e-01, -4.32320356e-01,  1.38757408e-01,  2.31759176e-01,
     2.96955049e-01, -3.48471962e-02, -6.16290569e-01, -6.71142042e-01,  2.76463062e-01,  4.63849485e-01,  2.64203638e-01,  3.45319897e-01,
     5.29315889e-01,  1.56716406e-01,  2.17899531e-01,  2.09009245e-01,  4.49601375e-02, -2.35271811e-01, -1.41874015e-01,  1.15452670e-01,
    -1.74552158e-01, -4.13848683e-02,  4.39612344e-02, -1.51853506e-02,  2.93081760e-01,  3.60419750e-02,  9.06830467e-03,  2.90183663e-01},
   { 1.43554211e-01, -6.35066107e-02, -2.98623979e-01, -3.42859805e-01, -1.08944662e-01, -1.92487597e-01,  9.38638374e-02,  7.47363968e-03,
     1.16025425e-01, -1.18267342e-01,  2.82048266e-02,  2.90383369e-01,  1.95623457e-01,  3.98041725e-01,  2.06906945e-01,  4.22070891e-01,
    -3.69021893e-01, -6.46266043e-01,  2.09002048e-01, -1.77877665e-01, -2.38758251e-01, -3.82931978e-01, -1.95477873e-01, -1.36901855e-01,
    -4.34579760e-01, -5.87497912e-02, -1.18839025e-01, -2.65649408e-01,  8.22531655e-02,  2.21304700e-01, -4.70438689e-01,  9.62570429e-01},
   { 2.09611312e-01, -2.55591631e-01, -6.28647268e-01,  7.10326374e-01,  5.19886911e-01,  6.74998820e-01,  6.15848482e-01, -2.12621808e-01,
    -5.97381651e-01, -6.67218208e-01, -2.91338060e-02,  8.40013921e-02,  9.18585956e-01,  1.01499796e+00,  3.52844410e-02, -7.40361035e-01,
    -6.55468881e-01, -4.00592893e-01, -7.16365993e-01, -4.76237357e-01, -3.67425047e-02,  5.16371906e-01,  1.58060774e-01, -3.38091962e-02,
     9.17555913e-02, -2.88587287e-02,  3.06046873e-01,  1.23091877e-01,  1.51502946e-02,  1.55456156e-01, -2.72152752e-01, -4.20255274e-01},
   {-6.64528972e-03, -1.20470911e-01,  5.20109236e-01,  1.27668810e+00,  2.33760655e-01,  5.24899662e-01,  1.62337810e-01,  7.72239625e-01,
     8.16479385e-01,  3.64501834e-01,  1.54910296e-01,  2.44495571e-01,  1.71597362e-01,  1.76681459e-01, -2.46900424e-01, -2.64368534e-01,
    -1.89676404e-01, -1.21982209e-01, -3.51246327e-01, -9.52463374e-02, -3.73700500e-01,  5.74734882e-02, -3.65920067e-02, -1.16135016e-01,
     3.31259280e-01,  2.82846987e-01, -1.96044445e-01, -4.02205773e-02,  1.35744587e-01, -3.07361364e-01, -9.39461946e-01,  8.42859223e-02},
   {-1.93632022e-02,  2.82567382e-01,  7.31368840e-01,  7.57853925e-01,  1.10801041e-01, -2.48363584e-01, -4.07243669e-01, -5.27353883e-01,
    -2.13216275e-01, -4.22314033e-02,  6.12469316e-01,  7.29673147e-01,  1.71929061e-01, -5.46649322e-02, -4.90209386e-02, -2.08112910e-01,
    -1.51557326e-01, -1.96285471e-01, -2.13118076e-01, -3.20195109e-01, -1.63469866e-01, -2.15581268e-01, -1.17067553e-01, -3.40780228e-01,
    -7.71766752e-02, -2.82051235e-01, -3.84315759e-01, -2.29747772e-01, -2.79235750e-01,  8.10295269e-02, -4.65415806e-01,  4.30590689e-01},
   {-3.79690155e-03,  1.50147423e-01, -4.17767197e-01,  1.93345964e-01,  6.02728277e-02, -1.11967921e-01, -2.76882201e-02,  9.69533250e-02,
     3.45520198e-01,  9.15348709e-01,  9.12522316e-01,  7.05048919e-01, -9.67286974e-02, -1.10912669e+00, -1.24543583e+00, -6.79741383e-01,
    -7.04208851e-01, -7.27683604e-01, -1.78043116e-02,  2.93445796e-01, -6.88386112e-02,  3.86124760e-01,  6.16355479e-01,  4.11886662e-01,
    -1.77193619e-02, -1.71904266e-01,  4.67991605e-02,  6.63875863e-02,  7.74071589e-02,  1.97104827e-01, -5.94115555e-02,  4.87626851e-01},
   { 9.53291059e-02, -7.90058792e-01, -7.39532709e-01, -5.97326517e-01,  8.77660096e-01,  5.80694497e-01,  5.10429204e-01,  3.77289504e-01,
    -3.85870449e-02, -2.12402478e-01,  1.65148705e-01,  3.30371886e-01,  5.21350741e-01,  2.84730554e-01, -1.42205641e-01,  7.17700273e-02,
     4.82612282e-01,  5.62278688e-01,  4.60806072e-01, -7.54011199e-02,  7.71853775e-02,  3.26490998e-01, -2.38443553e-01,  1.61079630e-01,
     3.40761721e-01,  3.53315502e-01, -8.38228315e-02,  4.59489375e-01,  7.90134788e-01,  5.26661754e-01,  4.13916081e-01, -1.38905847e+00},
   { 2.98375115e-02,  5.30914545e-01, -3.21815163e-01,  6.05506301e-01,  2.22510308e-01,  5.84171452e-02, -6.01418257e-01, -5.67797840e-01,
     1.77799687e-02, -8.31927299e-01, -7.70715237e-01, -6.57404900e-01,  2.26924881e-01,  8.38758767e-01,  9.63481009e-01,  9.28723991e-01,
     6.64080381e-01,  5.61052978e-01,  1.70415610e-01, -1.07940696e-01, -9.76443198e-03, -4.54878688e-01, -9.70714688e-02, -3.13442685e-02,
    -4.65645269e-02, -9.36386064e-02, -2.71802515e-01, -2.07908809e-01,  1.66198745e-01, -9.90729779e-02, -1.74968898e-01, -1.88547969e-01},
   { 3.54378410e-02, -2.42226869e-01, -3.32037896e-01, -3.68658513e-01, -7.90231824e-02,  1.53375700e-01,  2.46813029e-01,  4.52082098e-01,
     3.36569786e-01,  3.18787932e-01, -1.82400942e-01,  1.00557923e-01,  1.32719308e-01, -2.38064714e-02, -2.85436273e-01, -7.81827122e-02,
     2.20846191e-01,  1.71132639e-01,  2.23474622e-01,  7.22841799e-01, -3.26825455e-02,  1.49624139e-01,  4.96706925e-02,  1.72327876e-01,
     2.09093750e-01,  1.31452251e-02,  5.04077710e-02,  3.09986144e-01,  1.55897751e-01, -8.12869892e-02,  3.40419561e-01, -3.75464410e-01},
   { 2.90515542e-01, -9.15827602e-02,  4.79988486e-01,  1.21675067e-01,  1.18281161e-02, -9.13191438e-02,  4.91315722e-01,  1.24512696e+00,
     1.02260888e+00,  1.05850077e+00,  8.91863346e-01,  9.84167278e-01,  3.42351943e-01,  5.50244808e-01,  5.38635552e-02,  5.34860864e-02,
    -1.36043623e-01, -1.65312309e-02, -4.97968525e-01, -6.16463840e-01, -5.37406921e-01, -4.43236172e-01, -8.81331384e-01,  1.99612770e-02,
     1.38136342e-01, -4.66041893e-01,  2.84560531e-01,  4.28857058e-02, -3.51156920e-01, -1.63612366e-01,  3.35169524e-01, -1.36151218e+00},
   {-6.48902133e-02, -1.37528509e-01,  2.02662662e-01,  3.42996456e-02,  1.43300846e-01,  2.71595567e-01,  2.95182765e-01,  4.88780290e-01,
     3.72835040e-01, -1.73404291e-01, -4.83533919e-01, -3.07575345e-01, -2.21559197e-01,  1.58319414e-01, -1.28444314e-01,  1.18297927e-01,
    -6.05535507e-02,  1.67620942e-01, -1.52256563e-01, -2.92985648e-01,  8.93828198e-02, -5.00892773e-02, -5.60125429e-03,  4.11662124e-02,
     3.52230743e-02, -2.34730035e-01, -8.06912258e-02, -7.09076449e-02, -9.34799463e-02, -1.64962169e-02, -1.90529265e-02, -1.16696786e-02},
   {-4.04283673e-01,  2.22304747e-01,  8.62932578e-02,  2.76929736e-01,  1.25369057e-01, -2.98041739e-02, -5.74942911e-04,  1.39294013e-01,
     3.64421010e-01,  8.52424055e-02, -2.14179099e-01,  2.28214469e-02, -1.32482916e-01,  1.32778794e-01, -1.26730219e-01, -4.04668897e-01,
    -1.52321860e-01,  3.47640812e-02,  4.76381928e-01,  1.10769296e+00,  8.44949722e-01,  4.40256089e-01,  6.92071244e-02, -3.22968721e-01,
    -8.86524260e-01, -3.75349402e-01, -2.51200050e-01, -2.81295389e-01, -1.45605460e-01, -2.68345803e-01, -3.34086977e-02,  4.20321971e-01},
   { 2.57491350e-01,  2.05261976e-01, -3.78514409e-01, -4.43589747e-01, -1.06627412e-01,  5.49099803e-01,  6.70978248e-01,  1.13543010e+00,
    -2.11697277e-02, -8.02071750e-01, -1.42480671e+00, -4.41591948e-01,  5.62859297e-01,  1.26529503e+00,  4.03219700e-01, -1.46707964e+00,
    -1.08860493e+00,  3.56873453e-01,  3.28242540e-01,  4.53754216e-01,  1.21198192e-01, -2.62971073e-01,  3.51696849e-01, -1.92666892e-02,
     3.71728897e-01, -9.31834131e-02, -1.84771586e-02, -2.18188372e-02, -1.02938727e-01,  2.11733758e-01,  2.90365010e-01, -9.42225814e-01},
   { 1.11941196e-01,  2.21192047e-01, -1.25809953e-01, -2.14256514e-02,  3.59051675e-01, -2.58496821e-01, -2.24808127e-01, -5.39854527e-01,
     1.50902480e-01, -2.75729209e-01, -6.91669583e-02, -4.05992061e-01,  3.19637312e-03,  1.28011867e-01, -2.53420144e-01,  1.36680931e-01,
    -2.37332229e-02,  1.52062073e-01, -2.46909499e-01, -3.56411576e-01, -2.49799579e-01, -2.68439233e-01, -1.00485876e-01, -3.79146449e-02,
    -4.12486702e-01,  1.48901090e-01,  3.06331336e-01,  2.30585366e-01, -2.20232621e-01,  2.79077351e-01, -4.91776109e-01,  9.54980373e-01},
   { 9.60405171e-02, -1.04036182e-01, -1.47856250e-01, -1.74708664e-01,  2.62676422e-02,  2.32533485e-01,  1.25730813e-01, -1.81829572e-01,
    -1.95218623e-01, -2.26635128e-01, -1.18879480e-02, -5.78004606e-02,  1.68272078e-01, -2.53746323e-02,  3.49889919e-02,  2.03618899e-01,
     9.63293239e-02, -5.94379567e-02, -2.88184047e-01, -1.92860469e-01,  2.31224135e-03, -3.24191898e-02, -9.46343690e-02,  1.72158003e-01,
     1.56928657e-03,  1.42831489e-01, -6.29613772e-02,  1.27490506e-01, -1.02764748e-01, -1.20120227e-01,  1.37980744e-01, -7.92951509e-02},
   { 1.73308298e-01, -2.66316742e-01,  6.87830567e-01,  3.02511483e-01,  3.90773676e-02, -7.37658143e-01, -6.91885829e-01, -7.36579180e-01,
    -3.08858454e-01,  1.58757731e-01,  5.65615058e-01,  2.97708750e-01,  4.64393377e-01,  5.08081496e-01,  1.74312979e-01,  1.78666070e-01,
     1.23918667e-01, -2.16366515e-01,  8.20765868e-02, -2.15689823e-01,  7.63685256e-02, -1.88822627e-01, -2.94969648e-01, -2.52777725e-01,
    -5.20738736e-02, -2.04204470e-01,  6.20214939e-02, -1.56860605e-01, -8.45698267e-02, -6.38937950e-02,  1.13347538e-01, -2.98628598e-01},
   { 9.81906336e-03, -2.63345808e-01,  2.62033373e-01,  1.56162024e-01, -2.37382427e-01, -3.09086353e-01, -6.34809196e-01, -6.42857134e-01,
    -1.26155719e-01, -5.61084390e-01, -3.89805019e-01, -2.41183028e-01, -2.36854672e-01, -5.56082129e-01, -8.12934041e-01, -2.53189683e-01,
     2.59283841e-01,  3.22117478e-01,  6.40833914e-01,  3.48973870e-01,  3.26154709e-01,  5.73364832e-03,  4.75359708e-02,  1.62971795e-01,
    -1.11136682e-01,  6.36253059e-02,  2.03941002e-01,  2.85076171e-01,  2.80318171e-01,  5.87362163e-02,  1.26805156e-02,  3.09212118e-01},
   {-8.49398375e-02, -1.24336012e-01,  2.51179367e-01,  2.49936357e-01, -1.29278943e-01, -1.96493179e-01, -4.51177210e-02, -2.47032419e-01,
    -5.60334101e-02, -3.67132306e-01, -2.42304131e-01, -1.00090630e-01, -1.20739415e-01, -2.99477071e-01, -7.34100163e-01, -4.20855194e-01,
    -3.44614208e-01, -2.20102772e-01, -4.60621864e-01,  3.12042862e-01,  1.98604003e-01,  4.46181417e-01,  5.26335657e-01,  2.79772043e-01,
     5.14511824e-01,  2.17651322e-01,  1.87669739e-01,  3.79195690e-01,  2.37967908e-01,  2.53894866e-01,  4.68691736e-01, -2.55311757e-01},
   {-1.45324886e-01,  1.06499903e-01, -5.36342859e-01, -1.01568222e+00, -3.20598751e-01, -1.99145347e-01,  4.62997824e-01,  4.91157681e-01,
     1.72475159e-01,  4.67173278e-01,  4.43919778e-01,  3.26868564e-01, -1.25281811e-01,  5.56269109e-01,  3.00329000e-01,  3.31429005e-01,
     9.20166820e-02, -5.28460920e-01, -1.55380949e-01, -3.96241724e-01, -2.77417600e-01,  1.16690099e-01,  2.76057571e-01,  2.99866676e-01,
     2.59942740e-01,  1.68606099e-02, -6.13508001e-02,  1.14926107e-01,  3.09550077e-01, -1.52145490e-01, -4.10305828e-01, -3.62724900e-01},
   { 3.57422903e-02, -5.80255538e-02,  2.16308057e-01,  2.09433958e-01,  3.39939892e-01, -2.43339270e-01, -5.66448331e-01, -5.64705491e-01,
     7.30148479e-02,  2.26793736e-01,  5.49851716e-01, -2.17766628e-01,  3.08968835e-02, -9.54409614e-02,  2.44688600e-01,  8.67737755e-02,
    -3.17509592e-01, -4.55667198e-01, -5.84970340e-02,  1.49605125e-01, -1.89897493e-01, -1.55263066e-01,  1.35903627e-01,  2.46252120e-01,
     3.14224154e-01,  6.91873655e-02,  2.19781935e-01, -1.88247353e-01, -1.02322869e-01,  9.98051047e-01,  3.01022077e+00,  2.24561191e+00},
   { 1.52685389e-01,  1.88664436e-01, -2.30102345e-01, -3.98943067e-01, -2.86921293e-01, -2.78564215e-01, -6.81621194e-01, -8.12799215e-01,
    -6.18130207e-01, -4.81672317e-01, -1.12888515e-01,  1.70279350e-02,  9.62480307e-02,  1.78802222e-01,  4.07117873e-01,  1.88079044e-01,
     2.34144002e-01,  6.95207566e-02,  1.08228073e-01,  2.02251926e-01,  1.78658381e-01,  1.80826783e-01, -9.19338763e-02, -1.72739118e-01,
     9.48891565e-02, -4.16414589e-02, -1.33875012e-02, -7.16744512e-02,  1.73139155e-01, -4.64536995e-02, -2.28337049e-02, -1.02414943e-01},
   { 8.00493080e-03, -1.32718369e-01, -2.06296667e-01,  9.53732803e-02,  6.51600063e-01,  2.75620788e-01, -4.15764935e-03,  4.35268253e-01,
    -3.02712411e-01, -8.34112287e-01, -7.70250797e-01, -5.66935301e-01, -3.62305105e-01, -4.63498503e-01, -2.70192534e-01,  1.72955111e-01,
     3.92656885e-02,  8.39813426e-02,  1.50744408e-01,  1.48406163e-01,  3.18275720e-01,  1.01409234e-01,  1.25515923e-01, -6.17594533e-02,
     1.59554347e-01,  6.81738779e-02,  1.05090655e-01,  4.37384807e-02,  2.82678157e-01, -1.18549921e-01,  1.06290549e-01,  9.21601132e-02},
   {-2.71207958e-01,  4.23925556e-02,  1.88789815e-01,  6.10697448e-01,  4.38303173e-01,  2.51752377e-01,  4.48159486e-01,  4.75921124e-01,
     6.24712229e-01, -3.54982466e-01, -4.95257974e-01, -4.81893420e-01,  3.56627464e-01,  4.27673012e-01, -5.52769704e-03, -1.52313977e-01,
    -2.53030092e-01, -7.41472244e-02,  1.79332457e-02, -1.36099979e-01, -2.61829227e-01, -3.65009934e-01, -3.57401013e-01, -3.95493925e-01,
     2.49501601e-01,  1.56705707e-01, -1.29181296e-01,  4.12134826e-02,  1.57878190e-01,  1.32013753e-01, -5.74225962e-01,  4.22728360e-01},
   {-1.07785046e-01, -5.18973708e-01,  2.58670837e-01,  3.49082470e-01,  2.49741778e-01, -2.17399418e-01, -2.59231210e-01, -9.75530446e-01,
    -5.24220884e-01, -2.06897303e-01, -6.71761215e-01, -1.14048505e+00, -5.24349511e-02,  1.03078520e+00,  1.26730096e+00,  6.36409998e-01,
     3.47871363e-01,  1.95183009e-01,  4.08097990e-02, -2.11108550e-01, -1.24860734e-01,  2.61258204e-02,  1.11419998e-01,  1.99329063e-01,
     2.52296533e-02, -1.86558679e-01,  3.35091799e-01, -2.05915440e-02,  9.11760405e-02,  2.68531200e-02,  1.41359240e-01,  2.05999523e-01},
   {-1.09787183e-02,  1.73002288e-01,  4.60055977e-01,  5.72201192e-01,  4.96625721e-01,  4.88828421e-01,  6.47583425e-01,  1.39550477e-01,
     2.33860817e-02,  2.46771313e-02, -1.19283885e-01, -2.59644747e-01, -2.12312803e-01, -2.35187665e-01, -1.65650070e-01, -3.80604982e-01,
    -4.08371031e-01, -3.06788683e-02,  2.37456739e-01,  1.25271395e-01, -9.39961374e-02,  1.20904967e-01,  8.30967054e-02,  2.53279388e-01,
     1.82302237e-01,  1.20106108e-01,  1.58627494e-03,  1.86186787e-02,  1.67977259e-01,  7.28911087e-02, -6.12769611e-02, -7.77271688e-02},
   {-1.19959842e-02,  3.59004587e-01,  1.94826096e-01,  5.79919398e-01,  5.36580563e-01,  3.72845620e-01,  4.87708777e-01,  6.88366592e-02,
    -2.64857322e-01, -3.56642485e-01, -6.92361742e-02, -1.60859898e-01, -2.99569875e-01,  2.48456113e-02,  8.46677348e-02,  1.38656303e-01,
    -2.26633102e-01, -3.20569932e-01, -2.60817647e-01, -1.31076783e-01, -6.78208545e-02, -5.34590557e-02,  2.35268138e-02, -9.31465030e-02,
    -1.54714555e-01,  3.53512689e-02, -3.72089408e-02, -1.68056950e-01,  1.88385062e-02, -9.70725715e-02, -3.71732891e-01,  4.18768495e-01},
   {-4.63535562e-02,  4.29447256e-02, -3.01786333e-01, -6.00122437e-02,  1.98673527e-03,  2.15662241e-01,  6.69884682e-02,  3.51948410e-01,
     8.12717527e-02, -4.70545322e-01, -2.84259319e-01, -3.68637234e-01, -3.28210831e-01, -3.04560661e-01,  1.64182752e-01, -4.43627030e-01,
    -2.81914115e-01, -1.64034203e-01, -1.02166705e-01,  1.12746947e-01, -2.47824062e-02, -4.99747172e-02, -4.77678180e-02, -4.14710902e-02,
     5.05037494e-02, -6.68814778e-02,  6.14177100e-02, -2.08087396e-02,  1.14496306e-01, -1.03930272e-01, -2.76389480e-01,  5.59859313e-02},
   {-3.99669290e-01, -2.56599814e-01,  3.58426958e-01,  2.37403065e-01,  2.21032664e-01, -3.41345638e-01, -4.55496818e-01,  8.00776482e-02,
     5.96197248e-01,  1.99171945e-01, -1.59755304e-01, -2.68995821e-01,  3.48319501e-01,  1.77388713e-01, -3.03864330e-01,  2.61662990e-01,
     1.72961643e-03, -2.50897139e-01, -1.47400707e-01,  3.74488294e-01, -3.40764076e-02, -5.25757000e-02,  2.31450483e-01, -6.26873299e-02,
    -3.82302478e-02, -8.55027959e-02, -3.79680283e-02, -2.47820884e-01, -4.65272814e-01, -3.09505641e-01,  1.68597162e-01,  4.68743324e+00},
   { 3.71800452e-01,  1.36210129e-01,  6.56171069e-02,  7.38022104e-03,  4.67992872e-01,  6.99371338e-01,  7.13591516e-01,  5.26341438e-01,
    -4.13695395e-01, -2.82019019e-01, -7.33039975e-01, -5.25366604e-01,  4.66934852e-02,  6.81430986e-03, -6.69740140e-01, -6.09894702e-03,
    -4.33360785e-02,  1.22435972e-01,  3.60373743e-02,  2.64691055e-01, -2.34713834e-02, -7.68308491e-02,  3.36739480e-01, -8.85331631e-02,
     1.31911770e-01, -3.95876123e-03,  3.06324422e-01,  1.39852554e-01,  4.33698520e-02, -4.24297564e-02,  5.00303745e-01, -1.33194178e-01},
   {-2.55095828e-02,  1.34447560e-01,  2.71009386e-01,  4.71721031e-02, -1.52031034e-01, -2.91215122e-01, -7.05641508e-01, -1.29967475e+00,
     5.27421013e-02,  4.55777943e-01,  1.12242031e+00,  9.27529991e-01,  7.33920395e-01, -3.85610536e-02, -5.75869203e-01, -6.84496582e-01,
    -1.05795622e-01, -1.86896846e-01, -1.80148408e-01,  6.95165768e-02,  1.40184864e-01,  1.19704254e-01, -3.83520365e-01, -5.86123951e-03,
     4.14951034e-02, -1.96670085e-01,  1.63289636e-01, -2.44859420e-02,  1.39969766e-01,  7.66530226e-04,  4.94283019e-03,  9.37233940e-02},
   {-5.66141382e-02,  7.22858489e-01,  4.35591042e-01,  1.25742987e-01,  7.89570734e-02, -4.29550946e-01, -1.12574577e-01, -3.36318612e-01,
    -2.77776390e-01,  7.47125372e-02, -1.89888358e-01,  5.35556734e-01,  5.31296015e-01,  1.27933502e+00,  9.85436320e-01,  7.15060532e-01,
    -1.90777853e-01, -1.59736052e-01, -4.85260099e-01, -5.50238490e-01, -5.75890243e-01, -4.74855676e-02, -4.92186695e-01, -2.27726310e-01,
    -4.50926088e-02,  3.71644385e-02,  1.99946716e-01, -9.71338376e-02, -1.54699072e-01, -2.11363763e-01,  8.52588773e-01, -1.36997294e+00},
   { 4.69474960e-03, -4.66966256e-02,  2.96047609e-02,  1.96516976e-01,  1.55099796e-03,  2.13064440e-02, -1.85493737e-01, -1.92100257e-01,
     1.23449648e-03,  7.11863786e-02,  2.86017098e-02, -3.23980093e-01, -2.21422598e-01, -2.67562956e-01,  5.34455553e-02,  1.33897871e-01,
     1.41541511e-01, -9.17184800e-02, -1.58836409e-01, -2.43708983e-01, -1.07845321e-01,  2.95360386e-01, -1.22646265e-01,  2.22471915e-02,
     1.49560431e-02,  2.48618703e-02,  1.86435804e-01,  1.76276281e-01, -1.39514287e-03, -7.87129626e-02,  1.06860168e-01, -1.01581579e-02},
   { 1.06650963e-01, -2.20377333e-02, -4.95420933e-01,  9.97929201e-02, -1.34695455e-01,  4.42685664e-01,  6.75212324e-01,  2.17199787e-01,
    -8.14660490e-01, -3.02932054e-01,  2.77464092e-01,  8.39800835e-02, -1.44055367e+00, -7.61844993e-01, -1.29133333e-02,  3.12190473e-01,
     7.67718792e-01,  4.39667642e-01,  2.83982456e-01, -3.90184410e-02, -1.28149360e-01,  2.07263324e-02, -2.62626261e-01,  8.38449970e-02,
    -6.86449185e-02,  1.14084475e-01, -1.13020077e-01, -5.30937826e-03,  2.58640707e-01, -7.30558182e-04, -2.44532630e-01,  4.14879531e-01},
   {-1.34036705e-01, -1.33625537e-01,  1.97439224e-01,  6.83910668e-01,  4.05581862e-01,  3.46486539e-01,  4.70998079e-01,  2.15653390e-01,
     5.34243345e-01, -1.90099761e-01,  1.11986876e-01,  2.63956368e-01,  1.11166403e-01, -9.31785163e-03,  6.78542405e-02, -2.40819961e-01,
    -2.02251449e-01, -2.10029632e-01,  1.07144356e-01,  1.79076463e-01, -3.03606894e-02, -3.77840251e-01, -2.66330242e-01,  2.33411081e-02,
     4.60598469e-01, -8.44296440e-02,  2.44707868e-01, -7.88869858e-02, -1.67462334e-01,  4.19564545e-02, -1.28328931e+00,  2.22960520e+00},
   { 9.93923843e-02, -3.31950575e-01, -5.43255471e-02,  1.91592410e-01,  1.16292052e-01, -2.84496605e-01, -1.29644483e-01, -3.25422198e-01,
     2.68613417e-02,  3.64169717e-01,  9.48576778e-02, -1.17372617e-01,  2.00228810e-01,  2.17874289e-01,  5.70124924e-01,  2.58989066e-01,
     3.92931819e-01, -7.22032115e-02, -3.04527909e-01, -2.11541817e-01, -1.63268298e-01, -9.39635411e-02,  8.32346082e-02, -2.51316547e-01,
    -1.87544972e-01, -1.56551767e-02,  1.29138693e-01,  1.42904267e-01,  8.20206851e-02,  2.93212980e-02, -3.66144121e-01,  3.07864021e-03},
   {-1.27478495e-01,  1.14186473e-01,  5.28936349e-02,  2.39285931e-01,  2.08031133e-01,  3.21914494e-01,  2.96894163e-01,  3.17192495e-01,
    -1.13189101e-01, -1.18957937e-01, -8.71126801e-02, -5.08604459e-02, -1.42574713e-01, -4.07484263e-01, -1.71903849e-01, -3.89651917e-02,
    -1.64843395e-01, -2.42924184e-01, -2.67046392e-01, -1.42558292e-01, -3.30586463e-01, -1.45781487e-01,  2.22632989e-01, -4.31744531e-02,
    -9.21560526e-02, -3.11431974e-01,  1.33705616e-01, -8.98950472e-02,  2.02740103e-01, -1.45205483e-01, -1.51297033e-01, -1.43619552e-01},
   {-3.57973903e-01,  3.57026607e-01,  7.02864051e-01,  3.19730014e-01,  5.28061450e-01,  1.00407504e-01,  6.04075640e-02,  3.24588984e-01,
     3.77980679e-01,  1.31551415e-01,  1.96543857e-01,  8.27272981e-02,  1.40787199e-01, -4.46719974e-01, -1.58590168e-01, -9.23259780e-02,
    -3.46021317e-02,  2.35267747e-02,  1.02500126e-01,  7.39198685e-01,  1.06357419e+00,  3.45613718e-01,  2.53942132e-01,  6.08613417e-02,
     2.32198745e-01, -1.60760209e-01, -2.02607904e-02, -4.84778732e-01, -6.69233561e-01, -5.23974240e-01, -6.73990920e-02, -6.09500706e-01},
   {-9.83798951e-02, -2.52081454e-01,  2.95602322e-01,  4.36046690e-01,  3.52928877e-01, -7.27453381e-02,  6.80898070e-01,  1.35566962e+00,
     6.49685204e-01,  6.58481479e-01,  3.39773804e-01,  2.34527767e-01,  3.65727514e-01,  3.01241010e-01,  4.01460677e-01,  5.99374712e-01,
     7.16245890e-01,  7.07086742e-01,  1.65809944e-01, -3.95129859e-01,  9.74299833e-02, -1.31705821e-01, -2.08900899e-01, -4.71999258e-01,
    -2.94499010e-01, -8.13175321e-01, -8.63968372e-01, -1.01433158e+00, -4.66909349e-01, -7.45387375e-01,  1.06988013e-01, -1.08301413e+00},
};

const float GRNN0_U[64][64] = {
   {-4.41710234e+00, -8.17650437e-01, -1.16839612e+00, -1.98828891e-01,  9.13013697e-01,  2.83751082e+00,  1.65250933e+00, -5.02983749e-01,
    -4.89295900e-01,  6.83704805e+00, -1.38994229e+00,  4.06354256e-02, -1.50862396e+00,  9.69092190e-01, -9.31975782e-01, -2.19926432e-01,
     2.88662225e-01,  7.37831450e+00,  1.77171087e+00, -1.20284796e-01,  4.80633527e-01, -8.41466308e-01,  4.58906221e+00, -8.82559896e-01,
    -2.44913809e-02,  1.54030848e+00, -2.65134990e-01, -1.66341484e+00,  2.54838794e-01, -7.66495541e-02, -2.88767648e+00, -2.75466418e+00,
     1.68247926e+00, -7.29629338e-01,  2.07331395e+00,  1.24479520e+00, -1.15999842e+00,  1.03365290e+00,  2.56721407e-01,  9.97451842e-01,
    -1.51883984e+00,  2.84960568e-01,  9.75570798e-01,  3.40891540e-01, -1.47424030e+00, -1.07027853e+00,  2.62193775e+00, -8.15135002e-01,
    -1.61431134e+00,  1.25654006e+00,  1.28134537e+00,  6.13811135e-01, -6.33504987e-01, -3.37316212e-03,  2.89846092e-01,  8.85866046e-01,
    -6.72007978e-01,  3.58598232e-01,  1.93914294e+00,  5.48170805e-01, -8.67364407e-01, -1.14628577e+00,  1.31919003e+00, -1.16513622e+00},
   { 8.43738556e-01, -4.54714060e+00, -1.71828079e+00, -6.41933560e-01, -7.79569924e-01, -5.55987298e-01,  6.86008334e-01, -1.79308045e+00,
    -2.90550661e+00, -1.60093069e+00,  5.19155324e-01, -1.20481658e+00, -1.02438450e+00,  3.09175277e+00, -1.16289444e-01,  8.50060940e-01,
    -6.69149458e-02, -3.14604729e-01,  1.11498439e+00, -1.76020849e+00,  2.94655710e-01, -3.10440898e+00, -1.26855779e+00,  2.02435374e+00,
     2.19874644e+00,  2.15284109e-01, -1.75633800e+00,  4.77618515e-01, -1.68950415e+00,  5.79621613e-01, -9.58585978e-01,  4.60915756e+00,
    -2.94408500e-01, -5.00811577e-01,  9.26625907e-01,  2.49483943e+00, -1.29999590e+00, -2.55819011e+00,  9.73917916e-02, -1.17170322e+00,
    -2.55320221e-01, -3.22121978e+00,  1.10788536e+00, -2.55867219e+00, -1.84893918e+00,  8.75596225e-01, -2.16994596e+00,  1.23811674e+00,
    -4.49736148e-01,  2.82769823e+00, -1.92417216e+00, -2.23119807e+00,  5.50883293e-01,  9.83520299e-02, -3.40950966e-01, -1.84556341e+00,
     6.21876657e-01,  1.57810962e+00,  3.28394866e+00, -2.50622416e+00, -8.38723779e-01,  3.06254923e-02,  2.58705378e+00,  1.82759500e+00},
   {-2.20954251e+00,  5.53043112e-02, -5.59436417e+00, -2.34511113e+00, -7.17473507e-01,  2.03207111e+00, -4.08772498e-01,  1.49223208e+00,
     1.29646468e+00, -2.08821371e-01, -2.04584813e+00, -4.20938343e-01, -1.10110307e+00,  2.46551260e-01,  1.58903623e+00, -1.93883085e+00,
     1.46002698e+00,  4.18159276e-01,  1.81908011e+00,  2.72171283e+00,  1.12063611e+00,  2.57984138e+00,  3.80515158e-01, -2.02955675e+00,
    -1.67974341e+00, -1.66077030e+00,  4.23562080e-01, -4.23576295e-01,  1.43546486e+00, -1.45647597e+00, -2.80112171e+00,  9.76515785e-02,
     1.48092583e-01, -4.67759371e-01,  4.04983848e-01, -8.82695675e-01,  7.61934876e-01,  3.92389566e-01,  1.44143999e+00,  1.34879780e+00,
     2.12928250e-01,  2.29630637e+00,  9.98415351e-01,  3.64809662e-01,  8.66673514e-03,  6.10212624e-01,  1.17254400e+00,  1.77149165e+00,
     1.16497242e+00, -4.65675265e-01, -3.57208490e-01,  5.94749331e-01,  6.94442511e-01, -3.28115486e-02, -1.83862066e+00,  1.86953807e+00,
    -3.65218186e+00, -4.47108090e-01, -1.04103696e+00,  1.27104044e+00, -1.30042398e+00,  1.34815550e+00,  4.73399132e-01, -3.63384902e-01},
   {-1.05020690e+00, -2.10595775e+00,  2.33476949e+00, -3.72894049e+00,  1.54992330e+00, -8.52776110e-01,  1.01072979e+00,  7.64252007e-01,
     7.71334827e-01, -2.54194617e+00, -4.40291941e-01, -8.40976000e-01, -8.36102068e-01, -9.01865363e-01,  1.29661366e-01, -2.46001816e+00,
     3.07976216e-01, -7.95809478e-02, -1.87022954e-01,  4.58814621e-01,  1.57957315e-01, -3.92896724e+00, -9.02145684e-01,  6.28321096e-02,
     4.75359708e-01,  2.94608325e-01,  2.11841512e+00,  5.69269121e-01,  7.42019534e-01,  2.44721681e-01,  8.42207968e-01,  2.19906569e+00,
    -3.94129544e-01,  1.75459433e+00,  1.29709268e+00, -1.26287937e+00,  1.15291461e-01, -5.23502767e-01, -7.99731135e-01, -1.31883770e-01,
    -4.13524598e-01, -2.05077600e+00, -8.38610053e-01, -1.15372312e+00, -3.05934936e-01, -1.04014051e+00, -2.21497893e+00, -1.42911315e+00,
     3.68930602e+00, -2.92181879e-01,  2.31449410e-01, -9.31765020e-01,  1.79695296e+00, -6.95617557e-01, -1.64376095e-01, -1.07910359e+00,
    -4.32755530e-01,  8.47831607e-01, -1.79990375e+00,  1.68374169e+00, -1.53068185e+00, -6.92818701e-01, -1.16223860e+00, -6.13011658e-01},
   {-4.65196228e+00,  2.61231828e+00, -1.64193049e-01, -6.74171984e-01, -4.91107416e+00,  4.56069499e-01, -5.50984323e-01,  4.66939116e+00,
     3.43928361e+00, -2.42993683e-01,  4.04072380e+00,  2.23267031e+00,  5.32415032e-01,  1.71052325e+00,  1.72658950e-01,  2.35111403e+00,
     2.64777094e-01, -9.93822992e-01,  8.98071647e-01, -2.31615090e+00,  1.33262977e-01,  4.64272547e+00, -7.16683388e-01,  6.78595901e-02,
     2.95807958e+00, -1.68957496e+00,  1.55860007e+00,  8.13019395e-01,  1.22504437e+00,  5.44760704e-01, -4.83943939e+00, -1.16831315e+00,
    -1.88968039e+00,  1.89090765e+00, -2.74761248e+00,  3.67370881e-02, -1.27687526e+00,  9.64741260e-02,  2.11789131e-01,  2.31546783e+00,
    -5.69169223e-01, -3.66407514e+00,  2.85006702e-01, -9.88609016e-01, -2.40855515e-01,  2.66714115e-02, -9.56865430e-01, -3.06203866e+00,
     3.35058600e-01, -1.10627460e+00,  3.19429666e-01, -1.11243337e-01,  7.62732387e-01, -5.95600605e-01, -2.23586726e+00,  6.53761804e-01,
     3.30605298e-01, -1.09517968e+00, -1.79053247e+00,  1.91564953e+00,  3.45337689e-01, -5.74645340e-01, -1.08158684e+00, -9.38766420e-01},
   { 1.98908210e+00, -2.21143469e-01,  9.78625894e-01,  7.53618851e-02,  1.40733361e-01, -3.72707605e+00, -7.34310746e-01,  6.10203326e-01,
     3.22265685e-01,  6.43657207e-01,  3.18140173e+00,  5.65223694e-01,  8.46703351e-01,  8.41350675e-01, -7.90675521e-01,  1.32397920e-01,
    -2.96478510e-01, -2.68755853e-01,  2.10233498e+00, -1.56382188e-01, -8.41147542e-01, -3.30015016e+00, -1.92459071e+00,  6.48648381e-01,
     1.97564766e-01, -1.24831414e+00, -3.70032668e+00,  2.11983576e-01,  4.50754732e-01,  1.30216873e+00,  1.11746855e-01,  2.49587297e+00,
     7.31049001e-01,  1.76157296e+00, -1.17305243e+00,  1.14760149e+00,  9.65130091e-01,  4.65258926e-01, -2.00019747e-01, -1.80602565e-01,
    -4.34754997e-01, -1.14515877e+00, -8.27853501e-01,  1.12210107e+00,  1.55076021e-02, -5.02182722e-01, -5.52217817e+00, -5.23732603e-01,
     4.34369385e-01, -2.05673605e-01,  2.28075361e+00, -5.58029488e-02, -7.86558807e-01,  2.94967115e-01,  5.03136873e-01,  1.34319365e+00,
     1.76201183e-02,  3.55233669e-01,  1.27633202e+00,  6.20288908e-01, -9.83388945e-02, -4.94475901e-01,  3.38061184e-01, -1.17689118e-01},
   {-1.30620575e+00, -7.27993846e-01, -2.19117141e+00, -8.76276135e-01,  5.36273003e-01,  1.00923181e+00, -1.69462955e+00,  4.24450302e+00,
     3.39670277e+00, -7.04604208e-01, -6.23937070e-01, -1.58684731e-01, -6.58475757e-01,  3.43576646e+00,  8.52087975e-01,  3.18931788e-01,
    -5.62852800e-01, -2.53530622e+00,  8.14391196e-01,  1.30938947e+00, -2.03208280e+00, -1.36205387e+00, -4.34707999e-01, -1.75180995e+00,
     2.36417866e+00, -2.41239920e-01, -5.54845750e-01, -5.87680265e-02,  7.36835599e-01,  6.40282452e-01, -8.31871629e-01,  1.52858043e+00,
     2.18186331e+00, -1.27484310e+00, -1.78904152e+00,  2.31670618e+00,  6.46625459e-01,  3.51019919e-01,  2.88129210e-01, -1.65461004e+00,
    -4.16776061e-01,  1.68086588e-01, -4.00973201e-01, -1.79226840e+00, -2.22869372e+00, -1.61007118e+00,  2.41165829e+00,  2.57412076e-01,
     2.00146222e+00,  1.24886549e+00, -2.50683501e-02,  7.90435791e-01, -4.45441723e-01,  1.53807211e+00,  1.28707159e+00,  2.79922932e-01,
     1.55116260e+00, -8.49675462e-02,  1.72134325e-01,  1.50976622e+00, -1.24780381e+00,  2.04649359e-01, -3.70720506e-01,  4.72455442e-01},
   {-1.47283840e+00, -1.04177499e+00, -1.68914175e+00,  2.97857523e-01, -2.79409021e-01,  1.56864190e+00,  8.93403053e-01, -2.90416408e+00,
    -6.05349056e-02, -9.51474667e-01, -1.17619634e-01, -9.49392855e-01, -1.28994715e+00,  3.11292219e+00,  1.26924145e+00,  1.51157081e+00,
    -1.05556285e+00,  6.20527789e-02, -2.69118100e-01, -2.90492833e-01, -1.94332874e+00,  2.91337252e-01, -3.57713795e+00, -7.07358539e-01,
    -2.20720720e+00, -3.62729102e-01, -1.39832282e+00, -4.26279575e-01, -3.01816702e-01, -2.49971718e-01, -1.81438935e+00,  2.83301210e+00,
     4.47409481e-01, -1.54905331e+00, -2.46911311e+00,  3.18975091e-01, -1.91830099e+00, -4.09710944e-01,  1.01875246e+00,  2.16723347e+00,
     4.52356875e-01, -1.59778941e+00,  3.17972851e+00, -5.05826890e-01, -1.74085295e+00, -2.94854712e+00,  1.51510739e+00, -1.33956921e+00,
     1.38834929e+00,  2.35947895e+00,  1.27219200e+00, -2.64984894e+00, -3.55762951e-02, -5.32335377e+00, -2.86265945e+00,  2.32671738e+00,
    -1.96360254e+00,  2.00491071e+00, -7.61472344e-01,  2.61294484e+00,  2.26501536e+00, -2.25282955e+00,  1.71153522e+00, -4.52389628e-01},
   { 1.15594077e+00,  9.09265578e-01,  2.75475889e-01,  8.10588658e-01, -4.68138456e-01,  9.00461674e-01, -2.98438239e+00,  1.17287314e+00,
    -6.39884329e+00, -8.28529894e-01, -1.65267813e+00,  2.08662063e-01, -1.54744005e+00,  1.47222328e+00,  1.22130799e+00, -6.32756174e-01,
     3.58208060e-01,  1.18118513e+00,  3.39317346e+00, -3.55894661e+00, -1.61634481e+00, -1.33197355e+00,  1.04192364e+00, -1.77774167e+00,
     2.73390919e-01, -5.75378180e-01, -1.23024940e+00,  1.61857474e+00,  2.26740694e+00, -1.28960693e+00,  1.00659922e-01,  2.07448244e+00,
     1.02172971e+00,  3.65616822e+00, -6.74865067e-01,  1.59432983e+00, -1.81730676e+00, -1.20005512e+00,  1.41676128e-01,  1.45893097e+00,
    -2.49160275e-01, -1.61842453e+00, -9.70393598e-01, -1.12763166e+00,  5.73229432e-01,  9.44162965e-01, -6.30954280e-02, -3.00205588e+00,
    -1.80411315e+00,  3.97374570e-01, -8.59593600e-03, -2.19015741e+00, -8.76145124e-01, -5.44581831e-01, -1.06154072e+00,  3.09252954e+00,
    -5.49034953e-01,  9.68463480e-01, -2.34418631e+00,  4.82113272e-01, -8.32767785e-01,  5.91253042e-01, -2.05085015e+00, -8.99388969e-01},
   {-2.70802062e-02,  1.29049790e+00,  1.14624035e+00,  5.26556671e-01,  1.22094154e+00, -2.24514166e-03, -4.97122914e-01, -2.24213409e+00,
     3.58780086e-01, -4.33430767e+00,  1.40147400e+00,  6.64443374e-01, -1.32038188e+00,  1.44519961e+00, -1.07120919e+00, -1.69149637e-01,
    -8.54079366e-01, -2.82174373e+00, -2.21578464e-01, -1.21057701e+00,  5.85236669e-01, -6.90071702e-01,  1.74204969e+00, -5.69589019e-01,
    -3.14300686e-01,  1.80921209e+00, -1.70632899e+00,  6.23990297e-01, -1.07409728e+00,  2.49311462e-01,  1.10903606e-01,  5.53789675e-01,
    -1.22618997e+00, -3.95492196e-01, -9.28455234e-01, -1.33852780e+00, -1.19680607e+00, -1.83295876e-01,  2.57614255e-01, -1.05115557e+00,
     5.80449760e-01, -2.01150402e-01,  9.98173207e-02, -1.58112645e+00,  3.68558913e-01,  2.09238672e+00, -1.79010773e+00,  1.32367444e+00,
    -2.42340952e-01,  4.67243046e-01, -1.90423739e+00, -5.74545860e-01,  1.14407098e+00, -2.66752988e-01,  3.38820291e+00, -5.26855111e-01,
     2.02667028e-01,  8.07846308e-01,  3.73737693e-01, -1.39424548e-01,  1.30696201e+00,  1.26152420e+00, -4.02726918e-01,  1.83671638e-01},
   { 2.73984402e-01, -3.18338084e+00, -3.83642495e-01, -9.17212188e-01,  1.16028929e+00,  2.94290996e+00,  1.48649085e+00,  1.53155553e+00,
     2.72945791e-01, -4.80724871e-01, -7.07295132e+00, -2.28125644e+00,  2.35500860e+00,  4.23296899e-01,  2.65585685e+00,  2.85315537e+00,
     1.76031637e+00, -1.70059466e+00,  5.09416223e-01,  1.38624918e+00, -1.58195245e+00, -4.31787491e+00, -9.09915447e+00,  1.19955206e+00,
     1.94507703e-01,  1.15805542e+00, -2.25919676e+00, -3.56617987e-01, -6.77946448e-01, -4.01757300e-01, -3.84593099e-01,  1.47770035e+00,
     9.91630614e-01, -1.11034310e+00,  1.54769704e-01, -5.71154892e-01,  2.28968000e+00,  2.77570605e+00,  1.40462041e+00, -3.06373858e+00,
     1.86713886e+00, -2.80165941e-01, -2.32904062e-01,  3.44145465e+00, -4.50671256e-01, -1.77022791e+00, -1.78032506e+00,  6.91666961e-01,
     4.12654400e+00,  2.64579701e+00, -1.86137426e+00, -1.03914857e+00,  1.76919723e+00, -8.15573812e-01, -4.35833126e-01, -6.73457444e-01,
     6.61447704e-01,  1.15962899e+00,  1.79559839e+00,  3.16976070e+00, -1.42977226e+00,  7.94845998e-01,  1.00036395e+00,  1.42865479e+00},
   { 1.81807661e+00,  1.09329748e+00,  1.12597513e+00,  5.80569148e-01,  4.83450592e-01, -1.46630263e+00, -2.50678859e-03, -1.42518842e+00,
     3.14894700e+00, -1.65135741e+00, -4.84545916e-01, -1.79417074e+00,  1.58300591e+00,  2.19486654e-01, -2.06300330e+00, -7.81086326e-01,
     6.10042810e-01, -4.67638397e+00, -1.78838050e+00,  1.16870868e+00,  1.36908507e+00,  1.45473635e+00, -3.04204655e+00, -3.23699921e-01,
    -2.52827793e-01,  1.64858460e+00,  7.04039931e-01, -7.28563741e-02, -1.34453773e-01,  1.75634578e-01, -2.73254752e-01, -4.28687477e+00,
    -2.43418622e+00, -9.40298676e-01, -3.18120629e-01, -2.14110017e+00,  5.04448652e-01,  9.99942005e-01,  1.74919045e+00, -1.30464435e+00,
     1.14280507e-01, -1.36275458e+00, -2.27152601e-01,  5.30996799e-01,  8.14600959e-02,  3.01060414e+00,  1.10892618e+00,  1.26687551e+00,
     9.19105232e-01, -4.60485578e-01, -1.57298386e+00, -8.54288757e-01, -1.07260039e-02,  4.57389921e-01,  2.05167460e+00, -3.43718934e+00,
    -3.43394250e-01,  6.88032448e-01, -3.13630491e-01,  4.93194163e-01,  1.15452206e+00,  1.50006557e+00,  1.12461329e+00,  1.97624600e+00},
   { 1.09937620e+00,  1.47021198e+00, -5.13971472e+00, -3.87831211e-01, -2.32561946e+00, -4.71131861e-01,  1.63876519e-01,  1.83396649e+00,
     1.14376915e+00,  8.89735043e-01, -2.33615375e+00, -1.50711751e+00, -6.62812805e+00,  1.39189792e+00, -2.82835305e-01,  3.81684601e-01,
    -1.23360145e+00,  1.24695551e+00, -1.49862659e+00, -2.35104010e-01,  4.19886172e-01, -2.25919858e-01, -1.48944354e+00, -1.50950289e+00,
    -3.89712811e-01, -3.03522611e+00,  1.41146624e+00, -8.45314324e-01, -5.39358079e-01, -1.02761686e+00,  5.83226383e-01, -1.28394818e+00,
     6.44292831e-01, -1.84490407e+00, -1.71348691e+00,  3.75656068e-01, -9.27455306e-01, -8.67201626e-01, -8.48546624e-01, -7.90657103e-01,
    -1.08751714e+00, -8.43833506e-01, -7.39678979e-01,  1.11009657e+00, -3.34929079e-01, -1.13834059e+00,  4.60589379e-01, -8.51166487e-01,
     1.64785314e+00,  2.05917209e-01,  1.80642116e+00, -2.15745687e+00, -5.32182932e-01,  1.41791844e+00,  9.19371471e-02, -1.91091669e+00,
     4.12054628e-01,  9.69085813e-01, -5.03518939e-01, -3.20000744e+00, -3.27325535e+00,  1.76475585e-01,  3.56709331e-01, -1.03477693e+00},
   {-1.92373610e+00, -4.32906538e-01,  1.81710565e+00, -1.69391775e+00,  5.71252048e-01,  1.38852620e+00,  3.04452538e+00, -1.82041907e+00,
    -1.13316810e+00,  1.24965131e+00,  2.59728718e+00, -1.37750387e-01,  1.57177436e+00, -2.33761621e+00, -2.89800633e-02,  1.34595609e+00,
    -3.63724136e+00,  2.97747922e+00,  9.61639285e-02,  2.02931738e+00,  4.62517053e-01,  2.22734690e+00,  7.08051324e-01,  6.71135426e-01,
     7.43662417e-01, -1.85652781e+00, -1.47044182e+00,  3.80547905e+00,  4.21744347e-01, -1.34026259e-01, -6.87714994e-01, -2.42164660e+00,
     1.98509502e+00,  2.41817641e+00, -1.18705213e+00,  7.77009130e-01, -3.64327319e-02, -2.84664941e+00, -1.70908308e+00,  2.17509651e+00,
    -8.16249728e-01, -5.78286529e-01,  1.57253349e+00,  1.79106843e+00,  4.93576139e-01, -1.82930076e+00,  2.67421547e-03, -9.83616471e-01,
    -1.42044568e+00, -6.42460108e-01,  9.19363439e-01, -2.46729910e-01,  2.34197164e+00, -1.00919962e+00, -7.98611224e-01,  2.17673063e+00,
     2.24441195e+00, -2.25180769e+00, -2.25185171e-01, -4.41649532e+00, -3.60026479e-01, -1.18048334e+00,  9.14114952e-01,  8.55393887e-01},
   { 3.77911367e-02,  2.22746015e+00, -3.64090371e+00, -1.31283092e+00, -6.51619673e-01,  3.09553206e-01, -9.86373007e-01,  1.64268267e+00,
    -1.34673619e+00,  6.11301422e-01, -1.28012073e+00,  7.20070899e-01,  5.78221381e-01,  2.00723815e+00, -5.36573648e+00,  2.84441680e-01,
    -2.98017263e-01,  2.38277411e+00, -1.44563735e+00,  4.56492096e-01, -1.43066800e+00,  2.02351451e+00, -2.19824219e+00,  7.93245494e-01,
     3.45457524e-01, -4.81911413e-02, -6.05577409e-01,  7.09459633e-02, -1.84590602e+00,  1.47357976e+00,  7.26902783e-01,  1.52933776e+00,
    -8.99395049e-02,  2.62491536e+00,  1.60025787e+00, -1.21224895e-01,  1.67690933e+00, -3.04966664e+00, -1.46641397e+00,  7.04028070e-01,
     1.44100952e+00,  2.96855974e+00, -1.00686455e+00, -1.48374546e+00,  9.29980993e-01, -8.14351141e-01,  3.54881823e-01, -2.67382026e-01,
    -6.22428715e-01,  1.91498983e+00,  9.50577021e-01,  1.43785492e-01, -1.09464431e+00,  3.91757160e-01, -1.84647334e+00,  1.54841590e+00,
     1.64274645e+00, -2.68565804e-01, -6.85089290e-01, -3.72704172e+00,  5.58173120e-01,  6.43323779e-01,  5.36821485e-01,  2.06962991e+00},
   {-3.93681002e+00, -5.08937240e-02, -1.15341684e-02, -3.51380169e-01, -2.96529555e+00, -4.78801250e-01,  1.37648618e+00, -2.40199089e+00,
    -3.73118901e+00,  7.27598786e-01,  4.81798053e-01, -6.90581143e-01, -4.42544222e+00,  6.58625960e-01, -2.81569743e+00, -5.02019310e+00,
     9.35147181e-02,  3.18620992e+00, -3.16968799e+00,  1.29873347e+00, -2.76601362e+00,  1.52190000e-01,  2.73466444e+00, -7.47222185e-01,
    -6.46213233e-01, -8.96165311e-01, -1.53553888e-01,  1.15014410e+00,  1.01072299e+00,  6.75087035e-01, -2.99474311e+00, -1.42197704e+00,
    -3.12989175e-01, -1.69622540e+00, -3.43915582e-01,  1.16460109e+00, -7.77210474e-01, -6.29319191e-01,  1.84693444e+00,  2.12393069e+00,
    -2.12797236e+00, -1.88080192e-01, -1.03518915e+00,  2.76581454e+00,  2.91990638e-01,  2.44715381e+00,  4.94425207e-01,  6.33555293e-01,
    -5.70510104e-02, -7.27074087e-01,  2.31038690e+00,  1.37436414e+00, -2.86798382e+00,  5.38704777e-03, -2.69155526e+00, -9.24158037e-01,
     2.65855491e-02,  3.73230338e-01, -1.41081822e+00, -1.20918071e+00, -1.92920518e+00, -1.54935694e+00,  1.18009174e+00,  2.62200308e+00},
   {-2.98801470e+00,  1.94163358e+00,  1.84932661e+00,  3.27930021e+00,  2.27806702e-01, -3.13396525e+00, -1.29202688e+00, -3.38102365e+00,
    -1.17373776e+00,  9.80334431e-02, -1.45612322e-02,  2.93843389e-01, -3.56096411e+00,  7.83449948e-01, -6.68113947e-01,  7.46976018e-01,
    -5.44580173e+00,  1.84063423e+00,  2.27284265e+00, -4.93611383e+00, -6.02966130e-01,  8.75720799e-01, -1.28646135e+00, -1.58515263e+00,
     3.41207057e-01, -4.05906439e-01,  2.39607573e+00,  3.00362825e+00, -1.35055184e+00,  7.21847951e-01, -1.36116886e+00,  2.88779640e+00,
     1.00902426e+00, -5.34647465e-01,  2.14553976e+00, -1.84907317e-01, -1.01800776e+00,  4.57387018e+00, -1.11251295e+00,  2.86084986e+00,
    -1.03648615e+00, -6.44958019e-01,  2.65985936e-01, -2.33245254e+00,  2.38747358e+00, -1.43872666e+00, -2.19384050e+00,  1.15467775e+00,
     1.14764369e+00,  4.17864233e-01, -1.33745182e+00, -8.01781416e-01,  5.04328370e-01, -4.07432270e+00, -8.56809080e-01, -2.96374857e-01,
    -2.18997025e+00,  5.41271567e-01,  6.76456213e-01, -2.33229399e+00, -1.72083497e+00,  4.01964754e-01,  2.81635928e+00,  1.54933679e+00},
   { 3.62087154e+00,  2.35954571e+00, -1.74443042e+00,  3.38900059e-01, -2.88975775e-01,  3.67395207e-02,  3.44887167e-01, -4.72289610e+00,
     7.30063558e-01, -1.53576458e+00, -2.04737639e+00,  9.45345223e-01,  2.38370562e+00,  3.14243841e+00,  1.44320405e+00, -1.08918719e-01,
     1.39091969e+00, -9.39540291e+00, -4.96391445e-01, -1.42279100e+00, -5.03426008e-02, -2.76091266e+00, -3.20144272e+00, -4.11876410e-01,
     5.20282388e-01,  6.09664500e-01, -1.26534069e+00,  1.85436785e+00,  1.12909997e+00,  1.23362339e+00, -8.52783382e-01,  3.09520698e+00,
     2.39975953e+00,  2.02420354e+00,  2.71876311e+00, -7.27681100e-01, -9.54935133e-01,  2.53039861e+00,  7.37286210e-02, -1.89353633e+00,
     3.24574900e+00,  1.04932316e-01, -9.63026360e-02,  2.95859247e-01,  2.77058554e+00,  1.91317248e+00, -2.18824220e+00, -7.95647025e-01,
     4.22626352e+00,  1.72453153e+00,  3.27493608e-01, -2.35437679e+00,  2.11552763e+00, -1.09669292e+00,  2.87118173e+00, -7.34531522e-01,
    -8.47341955e-01,  1.89612150e+00, -5.45265019e-01,  4.89173442e-01, -2.51022607e-01,  1.36851144e+00,  1.69146442e+00,  9.18496966e-01},
   {-1.98464787e+00,  4.60768509e+00,  1.13835752e-01, -1.83232531e-01,  4.65048492e-01, -3.72714758e-01,  5.26690722e-01,  1.27805904e-01,
    -2.10833097e+00,  4.03036118e-01,  3.17127419e+00, -3.96662056e-01,  2.08228183e+00,  9.68663216e-01, -7.32370377e-01,  7.26722896e-01,
     1.43449441e-01,  8.73943865e-01, -4.98833942e+00, -7.61804998e-01, -6.36407316e-01,  2.80418849e+00, -5.98031819e-01,  2.52410531e-01,
     1.11115587e+00, -1.41857660e+00,  4.85365838e-01,  6.88094079e-01, -1.20297813e+00, -6.29795790e-01, -5.70991635e-01, -1.50228655e+00,
     7.97389269e-01,  2.78062034e+00,  2.20352459e+00, -3.32912922e-01, -2.10428596e+00,  8.57852459e-01, -1.65824378e+00,  5.80389678e-01,
    -8.26424584e-02, -1.51367998e+00, -7.62286186e-01, -2.36882001e-01,  1.09670186e+00, -9.35178399e-01, -1.43340397e+00, -2.65334749e+00,
    -3.52122211e+00, -3.60468090e-01,  5.62535763e-01, -1.45426452e-01,  4.61516798e-01, -2.28629619e-01, -7.03039110e-01,  1.84432471e+00,
    -7.21802592e-01, -2.31295109e-01, -2.72943163e+00,  8.26290309e-01, -1.42212927e+00, -6.35297418e-01,  2.50936717e-01, -3.52603108e-01},
   {-1.94808096e-01, -2.69465446e+00, -6.99365020e-01, -1.44057795e-01, -1.48881704e-01,  2.43065429e+00,  4.58913982e-01,  1.34348714e+00,
     2.79715204e+00,  1.19219124e+00, -1.82124209e+00,  1.21363378e+00,  6.23572290e-01,  1.02524805e+00, -1.69206655e+00,  1.92449427e+00,
     7.19722867e-01,  8.47228393e-02,  1.02018344e+00, -6.50166798e+00, -8.87764096e-01,  1.47303474e+00, -3.18935800e+00, -9.03326929e-01,
    -1.65100789e+00,  1.97473198e-01, -7.41896152e-01,  9.01377678e-01, -3.70148277e+00, -1.33714116e+00, -1.82690039e-01, -1.64937818e+00,
     1.90540516e+00,  1.60942376e-01, -1.02636945e+00,  2.08810878e+00, -4.78608906e-01,  6.86459541e-01,  9.41174924e-01, -4.50067282e-01,
    -4.00269985e-01, -2.14837384e+00, -1.90511979e-02,  6.64646029e-01, -1.53856516e+00,  1.65674281e+00, -2.09819818e+00, -1.04021466e+00,
     2.48369241e+00, -3.20277840e-01, -3.49162072e-01,  3.97250891e-01,  8.95260572e-02,  3.07864165e+00,  1.38328478e-01, -1.76822519e+00,
     9.72426355e-01,  1.94447792e+00, -2.41258100e-01,  7.45105267e-01, -7.94761479e-02,  1.56099272e+00,  1.01964426e+00,  3.14555526e-01},
   {-1.50752938e+00,  3.39606285e+00, -9.73897755e-01, -3.42459857e-01,  1.13022125e+00, -6.90634072e-01, -1.69529140e+00, -6.98360145e-01,
    -3.42344791e-01, -7.94031382e-01, -1.33276367e+00,  1.15567589e+00, -4.20929670e-01, -1.03231668e-01,  2.89584589e+00, -1.14688444e+00,
     1.61633885e+00, -3.90581727e+00, -7.01539278e-01,  2.84123659e+00, -2.14148879e+00, -3.09001064e+00, -1.06382501e+00,  2.93838501e-01,
     1.53370081e-02,  2.71206403e+00, -2.67883945e+00, -8.16877842e-01,  1.60567486e+00, -1.68209469e+00, -6.70618176e-01,  1.48398690e-02,
    -1.38460219e+00,  2.07265306e+00, -2.55304217e-01,  5.82659006e-01,  1.57512271e+00, -8.54864717e-01,  1.26014555e+00, -3.33600134e-01,
     1.23720920e+00,  1.45399392e+00,  8.11274469e-01, -1.52791882e+00, -2.16186690e+00,  2.68402791e+00, -2.90974975e-01,  2.72089019e-02,
     2.86116302e-01,  2.06643581e+00, -2.46510124e+00,  4.76735234e-01,  5.88751256e-01,  5.04346371e-01,  4.37740982e-01, -2.59282321e-01,
     2.00088310e+00,  1.44622147e+00,  1.02582061e+00,  1.46487367e+00, -6.62254453e-01,  1.34731948e-01,  1.79687276e-01, -1.65845680e+00},
   {-2.12314557e-02,  5.97828388e-01, -2.85831738e+00,  1.03658712e+00, -2.52362394e+00, -1.48192659e-01,  1.66573048e-01,  7.68073142e-01,
    -7.45773554e-01,  8.25484693e-01, -1.49414778e+00, -2.75128770e+00,  5.42796552e-01,  1.45891166e+00,  2.84277797e+00,  1.68792176e+00,
    -1.10411811e+00,  1.58216166e+00, -1.34748626e+00, -8.33826065e-01,  1.29180133e-01, -4.84114170e+00, -1.58050609e+00,  7.30430067e-01,
    -2.94098401e+00, -9.60624993e-01,  2.74381685e+00, -1.00989723e+00, -2.37285227e-01, -1.42330277e+00, -1.48486066e+00, -9.47327435e-01,
     5.59265837e-02,  4.18065161e-01, -1.33273578e+00,  2.76886702e+00, -2.38111091e+00, -1.15487874e-01, -2.36837268e+00, -9.26881015e-01,
     4.64457482e-01, -2.71122843e-01,  1.70240235e+00,  8.12975943e-01, -1.37708235e+00, -8.79070282e-01,  1.85748911e+00,  1.69069636e+00,
    -4.12822455e-01,  1.40110207e+00, -2.16702890e+00, -3.77389598e+00, -3.50086570e-01, -6.04081452e-02, -3.51900190e-01, -2.54699445e+00,
     3.77176195e-01,  3.08234835e+00, -1.47468522e-01, -1.19155633e+00, -7.51629949e-01, -1.27553916e+00,  3.34844470e+00,  1.67818880e+00},
   { 1.50690719e-01,  4.11113441e-01, -4.73688513e-01, -6.45584047e-01,  2.59543085e+00, -2.23192048e+00, -1.41703200e+00,  1.09113872e+00,
     4.47828382e-01,  6.46849930e-01,  2.44007856e-01,  2.43560433e+00,  1.21429515e+00,  4.13163513e-01, -1.96223366e+00, -4.42741680e+00,
     4.42319131e-03, -9.34708536e-01, -2.86706519e+00,  4.45798588e+00,  2.15484691e+00, -1.84916198e+00, -3.32050729e+00, -5.59717238e-01,
     7.40644693e-01,  4.47410393e+00, -9.03299451e-01,  1.46856594e+00,  7.36106992e-01, -7.14312732e-01,  3.32052618e-01, -2.86586857e+00,
     1.03372371e+00, -1.08929527e+00,  6.46178722e-01, -1.49775290e+00, -8.99473131e-01, -2.64379668e+00,  3.67600489e+00, -2.68615842e-01,
     1.22786380e-01,  9.37657237e-01,  6.91990629e-02, -3.88255835e-01,  6.09361641e-02,  1.88171041e+00, -2.25916684e-01, -1.10224271e+00,
    -4.18834269e-01, -1.69983232e+00, -3.30834770e+00, -9.60098743e-01,  9.91849959e-01,  3.38770926e-01, -6.36059105e-01,  1.05774343e+00,
    -2.45284289e-01,  6.68894053e-01, -5.23767352e-01,  1.86582580e-01,  1.04160190e+00,  6.81296661e-02,  7.21312284e-01,  2.23323250e+00},
   {-2.48571014e+00, -5.25769666e-02,  1.24629867e+00,  8.99362862e-02, -1.24219930e+00, -2.32751274e+00, -2.48549509e+00, -4.06490527e-02,
     3.27008814e-01, -1.28358948e+00,  3.32652879e+00, -4.97249663e-01,  4.84508753e+00, -1.84715807e+00,  2.04184604e+00, -1.48185873e+00,
     1.82384610e+00, -4.92529094e-01,  8.99640799e-01,  1.49593186e+00, -2.42106810e-01, -1.88379432e-04, -2.61005998e-01, -5.33514166e+00,
     1.35878885e+00, -1.19028771e+00, -5.51456571e-01,  3.12443107e-01,  2.50251263e-01, -5.96398652e-01, -4.54294771e-01,  1.11913335e+00,
    -1.88965607e+00, -2.68917894e+00, -1.31918085e+00, -1.04247475e+00,  2.32771087e+00, -2.05281019e+00, -1.46542180e+00,  7.70192802e-01,
     9.89463210e-01, -1.26631725e+00,  4.14219230e-01,  2.96304369e+00, -8.08093309e-01,  2.93405366e+00, -4.48982143e+00, -7.74324954e-01,
    -1.98389137e+00,  1.27007067e+00, -8.67084205e-01, -1.53319168e+00, -2.25088984e-01, -6.93137124e-02,  3.06781828e-01, -2.44144246e-01,
     8.08133543e-01,  1.43072534e+00,  1.22714996e+00,  1.74411047e+00,  7.09090233e-01, -2.12700386e-03, -6.39876053e-02, -9.44104046e-02},
   {-2.85999799e+00, -7.98373997e-01,  5.18596649e-01, -1.32826895e-01,  1.57478705e-01,  4.66886950e+00,  3.25350136e-01,  4.78388405e+00,
     4.09406328e+00, -1.55320466e-01,  2.42109251e+00,  1.93042612e+00, -7.58018792e-01,  4.60857488e-02, -2.45070076e+00, -2.38904003e-02,
    -9.11379457e-01,  5.49949884e-01,  1.87005162e+00,  5.88864386e-01,  2.70751625e-01,  2.57561660e+00,  4.74596351e-01, -9.49522793e-01,
    -7.95955420e+00, -2.74211502e+00, -9.04329002e-01, -3.18899661e-01,  2.96178460e-03, -1.40704393e+00, -3.98059011e+00, -1.88889623e+00,
     7.17457652e-01,  3.54822850e+00, -1.98748457e+00, -8.61929953e-01,  8.34508657e-01, -1.15288353e+00,  2.35311985e-01,  1.54196417e+00,
    -2.19315305e-01, -2.64512992e+00,  1.98429242e-01, -5.18322289e-01,  2.35613871e+00, -2.31927538e+00, -1.68784046e+00, -1.28940582e+00,
    -1.85263431e+00, -3.26680326e+00,  1.70600629e+00,  1.03753424e+00, -5.37894070e-01, -1.52865970e+00, -3.09593010e+00, -4.48136218e-03,
    -1.67348638e-01, -1.64794171e+00, -4.53230143e-01, -6.47380471e-01, -1.10076976e+00,  3.92242104e-01,  1.38594317e+00,  5.45386910e-01},
   { 2.34125447e+00, -1.76484287e+00, -8.16707015e-01,  1.05820805e-01,  2.81974941e-01,  2.11520076e+00,  8.42424035e-01, -2.53717804e+00,
    -2.77763677e+00,  1.89280474e+00,  9.59346652e-01, -1.10750580e+00, -5.11528432e-01,  1.40325814e-01, -7.30374992e-01,  2.72696757e+00,
    -3.72965455e-01,  4.15400696e+00, -2.14505410e+00, -2.39027947e-01,  4.79386657e-01,  3.58569562e-01,  9.61267948e-01,  4.00301725e-01,
    -2.75505066e+00, -3.31173158e+00, -3.00709188e-01, -6.27224803e-01, -1.06644678e+00,  6.84157848e-01, -1.77514815e+00, -1.26457119e+00,
    -7.83685863e-01,  3.14794064e-01, -1.84730321e-01,  1.26317477e+00,  6.19080842e-01, -5.38196325e-01, -1.12940758e-01,  1.28161669e+00,
     2.00623244e-01, -3.05556369e+00, -6.89995646e-01, -5.19247949e-01, -6.05445445e-01, -1.19357669e+00,  1.42936754e+00,  7.65705943e-01,
    -9.07063842e-01,  5.24731457e-01,  1.51848722e+00, -3.39897752e-01,  5.21067798e-01,  5.84816754e-01,  3.97836983e-01, -3.22196698e+00,
    -6.20474875e-01,  1.02407135e-01, -1.78682864e-01,  6.51640594e-01,  8.29737842e-01,  2.11067826e-01, -6.94986284e-01, -1.06390250e+00},
   {-7.94935167e-01, -3.07279319e-01, -4.28039551e-01,  6.90516591e-01,  9.88655448e-01,  7.52705276e-01,  1.26572788e-01,  3.90325928e+00,
    -2.01949310e+00, -3.74129266e-01,  1.44825590e+00, -3.76879239e+00, -2.55868816e+00,  1.84852731e+00,  1.62809873e+00, -9.40439939e-01,
     3.38095099e-01,  2.61026359e+00, -1.56044602e+00, -1.75382960e+00, -1.70300746e+00, -2.55873346e+00, -3.21922946e+00,  1.85175681e+00,
     3.00632983e-01, -1.62915027e+00, -7.55766487e+00,  4.66741025e-01, -1.69133091e+00, -1.42416501e+00, -1.29631698e+00,  3.60243464e+00,
     1.12333691e+00, -9.28818822e-01, -3.31470251e-01, -7.51504779e-01, -1.00239408e+00, -7.21809208e-01, -7.96515465e-01,  8.68967712e-01,
     4.48999375e-01,  2.38449290e-01,  7.55597591e-01, -7.34200776e-02, -2.01214981e+00,  4.15556729e-01,  4.21663910e-01, -6.45267010e-01,
     1.61955881e+00,  1.29805589e+00,  1.56067002e+00, -2.16961551e+00, -5.30273378e-01, -2.59618425e+00, -1.66187274e+00,  1.01930356e+00,
    -3.41978312e+00,  8.84006083e-01,  1.20389831e+00,  2.77412105e+00,  2.11712551e+00, -1.51236176e+00, -1.07746339e+00, -7.31233478e-01},
   { 6.76616073e-01,  2.61064625e+00, -5.97811699e-01, -1.07978547e+00, -7.77521431e-01,  1.50066942e-01, -1.53890765e+00, -3.67085910e+00,
     1.62751687e+00,  3.70918006e-01,  2.00052857e+00,  1.24062181e+00, -5.36568701e-01, -4.66827117e-02, -1.12513041e+00, -9.79515135e-01,
     1.27961084e-01, -1.12518632e+00,  1.74168849e+00, -1.64292693e+00,  8.69139135e-01, -1.13665514e-01, -8.92266512e-01, -4.62630033e-01,
     6.62588298e-01, -1.14651990e+00, -2.18881512e+00, -4.12137222e+00, -1.00497401e+00, -1.03681958e+00, -6.92836702e-01, -1.21122098e+00,
    -1.31650901e+00,  2.78050780e+00,  1.58941102e+00,  9.70393419e-02, -4.16926414e-01,  3.32302451e+00,  4.93474543e-01,  4.67174836e-02,
     1.36060447e-01,  4.28968489e-01, -9.71531689e-01,  1.75428987e-01, -2.60053897e+00,  3.05440092e+00, -7.81023443e-01, -3.01778197e+00,
     4.38791588e-02, -8.74767363e-01, -1.66426873e+00, -1.41539598e+00, -1.41029453e+00,  1.23744631e+00,  1.29969299e+00,  1.19328654e+00,
     1.90871164e-01, -3.13268542e-01,  6.63535595e-01, -1.77132234e-01, -2.58866370e-01, -3.31786752e-01, -7.21319139e-01, -5.57255566e-01},
   {-1.16420031e+00,  1.88349795e+00, -9.32002902e-01,  1.29890347e+00, -5.06526291e-01,  1.23464644e+00,  1.67164373e+00, -2.48651552e+00,
     1.11099672e+00, -5.96065819e-02, -1.31733000e+00, -3.12950641e-01,  1.80806744e+00,  2.27718496e+00,  2.54575253e+00,  1.64946878e+00,
    -3.48144174e-01,  1.94097006e+00, -2.31444216e+00,  1.58227718e+00,  3.91998813e-02, -1.10930674e-01, -1.41695845e+00, -2.78907394e+00,
     4.34826910e-01, -2.43228054e+00, -2.97524393e-01,  1.60127234e+00, -5.51789141e+00, -7.87038863e-01, -1.71018791e+00, -2.61025101e-01,
     2.26180863e+00,  1.46536660e+00,  2.46977735e+00,  1.15441036e+00, -2.77296185e-01,  3.17482948e-01, -1.42835414e+00,  1.19124985e+00,
    -1.66128623e+00,  9.42139506e-01, -5.87027334e-02, -2.20236003e-01, -6.63817346e-01, -4.28888655e+00,  1.03902864e+00,  1.38127208e-01,
     1.70181298e+00, -3.64432311e+00,  4.55656707e-01,  6.41886443e-02,  3.25245023e-01, -2.52571225e+00,  1.26172364e+00,  1.05794454e+00,
     1.41399994e-01,  2.09728032e-02, -2.39089942e+00, -3.54547620e+00, -1.22473121e+00, -9.90855813e-01,  1.99835110e+00,  9.49289650e-02},
   { 1.79337060e+00, -9.69544053e-02, -8.35089624e-01, -2.45359480e-01, -2.36791182e+00, -1.21929073e+00, -8.19313943e-01,  2.60195112e+00,
     2.54232943e-01,  1.14404035e+00, -9.03442383e-01,  1.24569535e+00, -6.55175507e-01,  6.13670722e-02, -3.95024866e-01,  4.51871097e-01,
    -9.07711685e-01,  5.80696344e+00, -2.33917189e+00, -1.43439084e-01, -4.27693462e+00,  2.37661004e+00,  2.22841811e+00,  1.63970792e+00,
    -3.33568394e-01, -1.30160320e+00,  4.42980385e+00, -3.40333164e-01, -8.98328483e-01, -4.02454233e+00, -9.91503239e-01, -3.70554566e+00,
     5.07315993e-01, -7.98838496e-01, -5.80053449e-01, -4.37461138e-01,  5.33732951e-01, -1.63488567e-01,  8.18021953e-01,  1.90929091e+00,
    -5.07803857e-01,  1.63075542e+00, -7.76987821e-02, -4.35259312e-01, -3.27408934e+00, -3.39661956e-01,  1.15897608e+00, -8.01292002e-01,
    -2.40982771e+00, -2.08469070e-02,  1.82898176e+00, -5.66460550e-01, -8.08107376e-01, -3.66623521e-01, -1.43995094e+00,  6.09807849e-01,
    -1.62082708e+00, -1.23274378e-01, -2.23822460e-01, -1.44066274e+00, -2.33077741e+00, -1.23224783e+00, -1.19752072e-01,  3.28725100e-01},
   { 4.30808187e-01,  2.98314095e+00, -1.52608478e+00,  3.04091305e-01, -2.72817755e+00,  3.52113128e-01,  1.02347529e+00, -1.93967327e-01,
     2.05716848e+00, -3.37104821e+00, -4.47633088e-01, -3.05407333e+00,  1.16733253e-01, -2.54983574e-01, -6.53644264e-01,  3.98340058e+00,
     2.07436681e-01,  7.44110703e-01,  8.77949655e-01,  8.01582038e-01, -1.51499355e+00, -5.83330750e-01, -1.33313167e+00, -6.92327499e-01,
     1.33191609e+00, -9.50851202e-01, -1.98921546e-01, -2.62079430e+00, -1.71144649e-01, -8.99624527e-01, -6.59483576e+00,  8.94983649e-01,
     1.96664619e+00,  1.02750349e+00,  2.40226313e-01, -4.75076772e-02, -1.10482371e+00,  1.45995939e+00,  7.98224390e-01, -1.90124047e+00,
     6.39242113e-01, -3.29593706e+00, -1.13084924e+00,  1.97133791e+00,  1.98139381e+00, -5.25100350e-01,  2.13280916e-01,  3.88801903e-01,
    -1.11742592e+00,  1.42538875e-01, -1.41297042e+00, -1.32576036e+00, -4.16383892e-01,  8.51569891e-01,  1.45861149e+00, -1.79180908e+00,
    -1.01005793e+00, -9.60794270e-01, -7.42248297e-01, -6.28741443e-01, -1.43958747e-01, -7.53227547e-02,  5.14088333e-01,  1.87606364e-01},
   {-9.20585036e-01, -2.34273624e+00, -6.97345793e-01, -1.64173293e+00,  1.38939393e+00,  1.73384130e-01,  3.80679160e-01, -1.55885220e+00,
     2.80824113e+00,  7.63065159e-01, -3.01431608e+00,  7.54701942e-02,  6.03640139e-01,  2.12663889e+00,  7.49975264e-01,  1.32852554e+00,
    -1.68409690e-01,  5.67875087e-01, -5.92710748e-02, -2.79108977e+00,  5.18202484e-01, -1.24678802e+00, -1.68624473e+00, -2.26619267e+00,
     1.09466505e+00,  4.85446900e-01, -1.71776628e+00,  5.17451465e-01,  3.35480881e+00, -1.09531105e+00,  4.44160730e-01, -7.52119541e+00,
    -2.88986444e-01,  5.94195247e-01,  1.51446903e+00, -3.28468800e-01,  1.29313242e+00, -2.33480239e+00,  2.13359380e+00,  1.26090932e+00,
     2.64046699e-01, -1.81626499e-01, -1.43705475e+00, -1.50075078e+00,  9.16658819e-01, -1.21292102e+00,  3.84463847e-01, -8.59562874e-01,
     1.94814098e+00, -1.93989396e+00,  8.82356584e-01,  1.77068484e+00, -3.17623690e-02,  8.79785568e-02,  2.48730034e-01, -1.03317940e+00,
     2.03063917e+00, -1.95817322e-01, -3.27382827e+00, -2.38148117e+00, -1.05396354e+00,  1.08642471e+00,  1.79441512e-01,  2.37414315e-01},
   {-9.79771316e-01, -2.08640218e+00, -1.91414571e+00,  1.81050897e+00,  8.95193100e-01,  2.11816356e-01,  1.55889738e+00, -7.71646082e-01,
    -1.47692025e+00,  2.91817117e+00,  7.25689471e-01,  1.85097769e-01,  9.75938976e-01,  1.28624690e+00, -7.03502238e-01,  1.20621526e+00,
    -1.81044772e-01,  1.97796679e+00, -2.17139814e-02, -6.55561686e-01,  1.43130910e+00, -3.91564250e+00,  3.07533592e-01, -5.95735610e-01,
     9.95708883e-01,  7.55931288e-02, -2.80127931e+00,  9.64161158e-01, -2.70917058e-01, -5.72311766e-02, -2.86763835e+00,  2.36541659e-01,
    -1.13015160e-01, -4.34319556e-01,  8.47731352e-01, -1.23106205e+00,  1.33321500e+00,  1.21878721e-01,  1.86203289e+00,  1.55692959e+00,
     9.02542889e-01, -1.88458908e+00, -4.03997451e-01, -6.37774348e-01,  2.42004371e+00, -2.50956726e+00, -6.83032215e-01,  1.96829632e-01,
    -2.55155265e-01,  9.43133175e-01,  8.30867052e-01, -8.34172070e-01, -7.33232975e-01, -4.76784468e+00, -1.56549320e-01,  1.55274820e+00,
    -5.53332984e-01,  8.44273508e-01,  1.68701887e+00, -5.30451417e-01,  6.95559800e-01,  3.48517299e-01,  1.96910463e-02, -1.01592183e+00},
   {-8.48041594e-01, -1.62339485e+00,  1.90141714e+00,  1.13741346e-01,  2.93328971e-01, -1.22716916e+00,  4.99477684e-02,  2.30581903e+00,
     1.50923789e+00,  6.63645923e-01,  2.67996812e+00, -1.60317749e-01,  1.45270312e+00, -1.08654594e+00,  1.90957808e+00,  4.72254962e-01,
    -1.24210548e+00,  1.04069781e+00, -5.30602276e-01, -6.13581002e-01, -1.48849297e+00, -3.99703550e+00, -5.49038172e-01,  1.50381732e+00,
     2.87689161e+00, -8.67053807e-01, -9.91283059e-02,  1.41815698e+00,  1.27270520e+00, -6.05556846e-01, -2.37313128e+00,  2.92025542e+00,
     9.07639086e-01, -4.82927275e+00,  7.23935962e-01, -6.02259755e-01,  2.10921240e+00, -5.96410930e-01, -1.51455808e+00,  4.14482743e-01,
     1.42505801e+00,  3.86881500e-01, -5.21148920e-01,  1.44041181e+00, -2.10256130e-01, -5.44025469e+00, -6.69178367e-01, -1.59669399e+00,
     1.69586527e+00,  2.02479100e+00, -4.97108817e-01, -1.84322894e+00, -1.21669686e+00, -5.39513588e+00, -2.91552687e+00, -4.62524861e-01,
     1.80806887e+00,  3.55358064e-01,  1.04132183e-01,  9.96286690e-01, -5.75449705e-01, -4.70756680e-01,  3.10390329e+00, -1.19896221e+00},
   {-1.65058553e+00, -7.57023096e-01, -6.13627061e-02, -5.97430170e-01, -3.65781397e-01, -1.02686751e+00, -1.34515136e-01,  3.43523908e+00,
    -9.56934452e-01,  9.24319923e-02,  2.01506066e+00, -4.10801858e-01, -4.00634098e+00, -6.08616590e-01,  1.55971754e+00, -9.33988035e-01,
    -4.46530163e-01,  1.89148831e+00,  6.50343359e-01, -1.79530755e-01,  7.64854431e-01,  7.73596942e-01,  3.33750153e+00,  1.28465819e+00,
    -7.13340938e-01, -1.25515831e+00,  1.83904782e-01, -6.01067901e-01, -7.70160913e-01, -9.11202967e-01,  1.38809606e-02,  1.04070616e+00,
     1.72492480e+00, -2.05181313e+00, -4.77784777e+00, -1.32915473e+00, -1.01032841e+00, -1.76869079e-01,  7.43761882e-02,  2.11605406e+00,
    -2.99220860e-01, -9.97737765e-01,  1.38919878e+00, -5.59593320e-01,  6.60178661e-01, -1.67449999e+00, -1.54663682e+00, -1.55292973e-01,
    -1.79438126e+00,  1.14214301e+00, -1.62477040e+00,  9.08809528e-02, -6.42549694e-01, -6.68072939e-01, -2.02318335e+00,  2.77534783e-01,
    -6.23694360e-01, -1.88241506e+00, -2.76642352e-01, -1.11127317e+00, -1.03722966e+00, -1.03683972e+00,  1.19540465e+00, -3.05041313e-01},
   {-3.31617188e+00,  8.56305957e-01,  1.40187979e+00, -1.18448651e+00,  9.94939625e-01,  1.56348431e+00,  8.14153671e-01, -4.73204434e-01,
     2.29500890e+00,  3.11745262e+00,  7.40259111e-01, -2.17297482e+00, -3.89509320e-01,  1.87046361e+00,  2.39692235e+00,  5.03651381e+00,
    -2.60830283e-01,  3.32610059e+00, -5.82423687e-01,  2.70659089e+00, -4.64487076e+00, -1.88342452e-01,  9.43809211e-01,  8.23278427e-01,
     2.57966757e+00, -1.91171622e+00,  1.17601287e+00,  2.76355028e+00, -1.17582619e+00, -2.80677736e-01, -2.59516001e+00, -3.78173739e-01,
     1.99344233e-02, -6.76456928e-01, -4.20723772e+00, -5.80547094e+00,  2.34175253e+00,  2.01876950e+00, -9.84466374e-01,  6.48507059e-01,
     4.60134506e-01, -1.05730343e+00,  2.53287411e+00,  5.16647196e+00, -9.18529510e-01, -1.12844154e-01,  1.27212834e+00,  5.83764255e-01,
    -2.18631315e+00,  2.32356381e+00,  1.21300793e+00, -9.03201878e-01,  1.95005977e+00,  2.39457250e+00, -9.10571158e-01,  1.07856321e+00,
    -1.40276062e+00,  4.34858054e-01,  1.44428492e+00, -1.66993070e+00,  8.26648533e-01, -9.84043181e-01,  6.77956045e-01, -7.80861020e-01},
   {-9.18831706e-01, -2.80152822e+00,  6.11932158e-01, -1.18292332e-01, -8.12985241e-01, -3.73645782e-01,  2.52665997e-01, -1.15157437e+00,
     1.32841587e+00, -1.23356819e+00, -1.24355519e+00, -8.96697223e-01,  3.73990631e+00, -3.42531466e+00, -3.33036613e+00,  3.21764946e+00,
     6.51815414e-01, -1.50424290e+00, -2.64555025e+00,  3.72247648e+00,  1.02702272e+00, -3.43999207e-01,  3.26723504e+00, -4.46052939e-01,
    -1.57818604e+00, -3.60264570e-01, -1.05690017e-01, -9.33252752e-01,  1.54478395e+00,  9.19120789e-01,  1.69247651e+00, -2.11848044e+00,
    -1.15392423e+00, -1.83626568e+00, -1.34422350e+00, -3.06696206e-01, -6.67632532e+00, -8.88116062e-01, -1.42626062e-01, -1.22520305e-01,
     2.05721331e+00,  2.33171415e-02, -1.94894302e+00,  3.53005481e+00, -9.25636590e-01,  1.18161774e+00,  4.60974187e-01,  2.04987431e+00,
    -6.62594020e-01, -3.94600034e-01, -1.01840127e+00,  1.22940052e+00,  6.14766359e-01, -6.02318406e-01, -1.51421630e+00, -5.19351363e-01,
     2.54475269e-02,  5.80595136e-01, -1.11789548e+00,  9.21427190e-01,  2.80160457e-01,  2.36539111e-01, -1.30583370e+00, -1.21666707e-01},
   {-9.95141506e-01, -4.20112658e+00, -1.33121562e+00,  5.85747659e-02, -1.75479126e+00, -3.68332952e-01,  1.44784284e+00,  3.55350487e-02,
     6.54485166e-01,  1.70028126e+00, -1.06757796e+00,  3.52261752e-01, -8.92832577e-01, -4.07893181e+00,  7.65156865e-01,  1.71628094e+00,
     3.01813893e-02,  1.44233036e+00, -2.27391720e+00, -2.66261554e+00, -2.56413436e+00,  1.66322976e-01,  2.37504780e-01,  2.30504084e+00,
     1.04109323e+00, -1.36655629e+00, -1.27671289e+00, -1.05857715e-01,  1.56496787e+00,  2.50080377e-01, -2.72389245e+00,  3.84352595e-01,
    -7.74090052e-01,  1.13544852e-01, -2.66038084e+00,  8.03347766e-01, -6.34104371e-01, -6.04841995e+00,  3.30425084e-01,  2.01237106e+00,
    -2.68032283e-01,  2.33392549e+00, -1.39794564e+00,  4.72354507e+00, -7.97869325e-01, -1.86839979e-02, -4.26954746e-01, -2.90524650e+00,
    -9.56731856e-01, -9.81580734e-01, -6.25370383e-01,  2.75957063e-02, -1.10824466e+00, -1.90295160e-01, -7.83283889e-01,  9.65667069e-01,
     8.32185626e-01, -2.30442435e-01, -3.83122414e-01,  6.53476536e-01, -6.02332890e-01, -7.66738117e-01, -1.03464568e+00,  2.93535328e+00},
   {-1.48990944e-01, -6.64644003e-01, -8.63701701e-01,  3.62010479e-01, -9.67962563e-01, -4.79658872e-01, -4.82594073e-01,  2.10671735e+00,
    -1.06283486e+00,  3.60126197e-01,  4.67222184e-01, -1.97334856e-01, -2.66246088e-02, -6.83334827e-01,  2.68420219e+00, -2.44360074e-01,
    -9.43944573e-01, -6.67698920e-01,  1.11413395e+00,  3.67488122e+00,  8.75581026e-01, -2.41327429e+00, -6.61619425e-01, -1.28921366e+00,
     3.96756172e-01,  1.59189141e+00,  7.88142160e-03,  1.15754032e+00,  2.96301198e+00, -1.61967444e+00, -2.38609239e-01, -2.92865753e+00,
     1.16463268e+00, -1.52921379e-01,  1.10897684e+00, -2.90193510e+00,  1.45471489e+00, -2.44548127e-01, -1.61661065e+00,  2.27045510e-02,
    -1.00166984e-01,  1.95263731e+00, -7.11076617e-01, -5.87172747e-01, -4.38272581e-02, -4.17950630e+00,  1.73129833e+00, -2.25922093e-01,
    -1.21726942e+00, -1.22681725e+00,  9.32692289e-02,  1.92748293e-01, -9.06700969e-01, -3.60754108e+00, -3.56780797e-01, -8.50701392e-01,
     4.01236594e-01,  3.59630287e-01, -2.41303182e+00, -1.17777109e+00, -1.61622211e-01,  7.08648562e-02, -3.53050441e-01,  3.61039728e-01},
   {-5.57042658e-01,  1.12163985e+00, -1.95667493e+00,  1.03051984e+00, -1.22651577e+00,  3.24461222e+00,  1.64740741e+00, -3.80469036e+00,
    -3.25708687e-01,  1.07467651e+00,  1.16353119e-02, -5.55850863e-01,  1.31676483e+00,  1.73785388e+00,  6.76843405e-01, -1.44168067e+00,
    -7.32886046e-02,  2.80889177e+00,  3.14509964e+00,  2.36266971e+00,  1.60524917e+00, -1.66930842e+00,  1.32912591e-01,  1.75733835e-01,
    -5.61424613e-01,  1.96710467e+00, -3.21303988e+00, -1.28055120e+00, -5.60037851e-01,  2.07103872e+00, -2.50044793e-01,  2.56188130e+00,
     1.92387950e+00,  1.05512750e+00, -1.27605224e+00, -1.24585462e+00, -5.07997572e-01, -1.49294722e+00,  2.76346449e-02, -2.83900523e+00,
     2.31133842e+00,  8.22353780e-01,  5.32376945e-01,  1.21811700e+00,  4.21052408e+00, -9.75513101e-01,  1.89895719e-01,  1.81808844e-01,
     2.32350421e+00,  2.48882556e+00,  1.56724238e+00, -1.24197245e+00, -4.98213053e-01, -3.96713734e+00, -2.78201193e-01,  3.44813675e-01,
    -1.30973649e+00,  1.88628805e+00,  1.15196788e+00,  1.13462067e+00, -3.71689171e-01,  1.58735657e+00,  6.46235347e-01,  1.32583177e+00},
   { 1.94319379e+00, -1.79829085e+00, -6.23363793e-01, -3.66693437e-01,  1.45257190e-01, -8.77979994e-02, -4.30013150e-01,  5.37834287e-01,
     2.16347575e+00,  1.12968028e+00, -1.68326235e+00,  7.60904551e-02,  9.78560090e-01, -2.73066831e+00, -2.32708812e+00,  5.46042728e+00,
    -5.20084560e-01, -3.73425531e+00, -1.57303751e+00,  4.29019737e+00, -1.36520863e-02,  5.48987865e-01,  2.08216786e+00,  2.63813343e-02,
    -6.68740749e-01,  2.56821156e+00,  4.47369695e-01, -1.07907489e-01,  1.69380414e+00, -6.91545546e-01,  1.09085989e+00, -6.49413824e-01,
    -1.93250334e+00, -1.16796982e+00, -1.20396364e+00,  1.39163017e+00, -1.47377157e+00, -1.15902042e+00,  6.46295428e-01, -3.36685491e+00,
    -3.67381454e+00, -1.94272339e+00, -6.68338733e-03,  6.19134963e-01, -1.37889719e+00,  5.79042435e-01,  6.48216188e-01,  2.50906110e-01,
    -2.05791020e+00, -9.57127512e-01,  9.24441993e-01, -7.50582069e-02, -3.06891590e-01,  4.39005315e-01, -3.79719555e-01, -3.22321624e-01,
     2.48316467e-01,  5.75022519e-01,  2.62543075e-02, -4.24779087e-01,  2.78829604e-01, -2.61350423e-02, -1.80612206e-01, -1.61838961e+00},
   { 9.48837399e-01, -1.12897563e+00,  2.77036619e+00,  1.07989073e+00, -1.06084991e+00,  4.87399101e-01, -3.80218416e-01, -2.83076286e+00,
     6.37500942e-01,  6.86380029e-01, -4.61359650e-01,  8.05289149e-01,  6.99732363e-01,  1.69456589e+00, -1.22276044e+00, -1.80276766e-01,
     1.04891396e+00, -8.98755789e-01,  9.09899175e-01,  2.30278552e-01, -3.69437671e+00, -1.23914695e+00, -5.61181879e+00, -4.27672714e-02,
     3.92963231e-01, -8.02899063e-01, -5.83688498e-01,  8.53948176e-01, -1.95434427e+00, -2.31989264e-01,  3.93302023e-01,  5.05655229e-01,
     1.06163919e+00,  2.06870103e+00,  1.39761353e+00, -1.14391696e+00, -1.94698715e+00,  1.04940975e+00,  3.53920639e-01, -1.20475280e+00,
     5.19306779e-01, -7.28914165e+00, -5.51637709e-01,  2.14513516e+00, -1.56796932e+00,  1.49509716e+00, -8.28647077e-01,  7.67211765e-02,
    -8.19633067e-01, -1.29307556e+00,  2.02755809e+00, -6.74274266e-01, -1.35889244e+00,  1.91747868e+00,  4.21256274e-01, -1.68893039e+00,
     1.16610718e+00,  3.25239152e-01, -6.27222240e-01,  1.99261218e-01,  7.47548282e-01,  2.28808951e+00,  7.93158174e-01,  1.49539244e+00},
   { 6.00018680e-01, -1.86829537e-01, -2.37171769e+00,  6.32930040e-01, -8.01508069e-01,  1.75828445e+00, -1.34169161e+00,  1.94315910e+00,
     7.86978245e-01,  2.44045067e+00, -1.08510042e-02,  4.00560886e-01,  3.40813041e-01, -2.74308729e+00,  1.87206316e+00, -2.12512922e+00,
     7.36502469e-01, -1.50862634e+00, -4.49186534e-01, -1.66654837e+00, -4.22918916e-01, -8.96901071e-01, -8.66470814e-01, -2.87749386e+00,
    -3.03717971e+00,  1.68877280e+00, -6.18606985e-01,  3.37907344e-01, -1.71011245e+00,  1.08899879e+00, -1.43142700e-01,  1.72179937e+00,
    -1.32773900e+00, -3.00170809e-01, -2.64275408e+00,  5.78633487e-01, -2.23251194e-01,  1.35786086e-01,  6.96275175e-01, -1.65429533e+00,
     8.33724320e-01,  1.54902720e+00, -2.51913643e+00, -4.97924834e-01, -1.23824322e+00,  2.32348871e+00,  2.14912629e+00,  1.10300100e+00,
     3.87371451e-01,  2.48201704e+00,  7.17512250e-01, -9.78270233e-01, -5.73870875e-02, -6.79864764e-01, -1.36180651e+00, -7.75291800e-01,
    -2.26579070e+00,  7.37395063e-02,  1.69785333e+00, -6.80998325e-01, -1.31774819e+00, -4.50428784e-01,  4.71472889e-01, -1.44747627e+00},
   {-5.09250700e-01, -2.90931654e+00, -3.99265242e+00,  4.92039740e-01,  1.17663884e+00,  3.87565941e-01, -2.82001477e-02,  4.24500555e-01,
     1.38854837e+00,  5.53812861e-01, -4.99299383e+00, -3.09558451e-01,  3.08597255e+00,  3.15305799e-01, -3.39170980e+00,  4.59974861e+00,
     8.33261847e-01,  2.97049880e-01, -2.34141207e+00, -1.01636577e+00,  5.90639710e-01, -8.39107156e-01, -4.24048948e+00, -1.10893059e+00,
    -3.11643791e+00, -1.14430106e+00, -4.18231964e-01,  5.98515511e-01,  1.60599959e+00, -8.52318883e-01, -9.45945680e-01, -4.33143091e+00,
     1.84811580e+00, -1.26097426e-01, -1.20684639e-01,  2.69410515e+00, -3.04580152e-01,  1.56483173e+00, -4.34535109e-02, -1.03119445e+00,
     7.95500875e-01,  1.63398659e+00,  2.96880305e-01, -4.56347513e+00,  5.69496095e-01, -2.16868734e+00, -4.07616049e-01,  1.64671040e+00,
     1.42879403e+00,  1.00439394e+00, -1.84495652e+00, -1.81076992e+00,  2.36209869e-01, -4.22197670e-01, -7.02034652e-01,  9.74757612e-01,
     2.97143912e+00,  2.03030324e+00, -2.92161375e-01,  3.06927896e+00, -1.59650040e+00, -3.58968318e-01,  9.21248674e-01,  8.06356609e-01},
   {-2.46976638e+00, -1.79502153e+00,  1.08873928e+00, -5.51481009e-01, -3.18238199e-01, -1.03489184e+00,  1.94432139e-01, -4.97334808e-01,
    -4.05577868e-01, -2.14421988e+00, -1.34895551e+00, -1.28005528e+00,  1.71604887e-01, -2.46576834e+00, -3.34721565e+00,  2.86926365e+00,
     6.16792254e-02,  1.33334613e+00,  6.01075292e-01, -5.80003798e-01, -1.02752984e+00,  5.33963330e-02, -3.09251642e+00,  3.68252434e-02,
     1.26974261e+00, -1.14639640e+00,  2.00379872e+00, -3.99471968e-01, -1.22337806e+00,  1.86194539e+00, -1.84077191e+00, -3.19259977e+00,
    -1.83573291e-01, -1.22211194e+00,  1.34930754e+00, -1.38314986e+00,  2.38772130e+00,  3.11812830e+00, -8.79758954e-01, -1.07066095e+00,
    -1.43178034e+00,  2.08515450e-01, -6.89489543e-01, -3.87301445e-01, -5.29259825e+00,  4.91226614e-01, -8.73453140e-01, -1.62246311e+00,
    -1.20185554e+00, -1.63572657e+00,  6.33041203e-01,  1.63517028e-01, -1.88826978e+00, -1.10675111e-01, -5.01368701e-01, -1.50943184e+00,
     1.02960896e+00,  4.39944342e-02, -6.98285758e-01,  1.21524525e+00, -7.83796132e-01, -1.06058407e+00, -2.60397863e+00,  3.12285461e-02},
   { 1.70709044e-02, -6.47342443e-01, -1.94127095e+00, -3.00141692e-01,  1.88316286e+00, -1.47234192e-02, -1.03309774e+00, -2.80850351e-01,
    -1.93363845e-01, -6.18977770e-02, -9.76801634e-01, -2.76677346e+00,  1.45773780e+00,  1.12520337e+00,  5.07161438e-01,  8.54027748e-01,
     3.38992763e+00,  2.98215961e+00,  7.57424831e-01, -5.96103489e-01, -5.34130968e-02, -3.52800578e-01, -2.73033476e+00,  1.77768552e+00,
     2.05786419e+00, -4.36284393e-01, -3.74622308e-02, -1.73578620e+00, -4.64172393e-01, -1.57335985e+00, -2.70480454e-01, -5.76591969e-01,
     1.41748261e+00,  1.84496355e+00,  1.50298822e+00, -1.54523075e+00,  1.88043222e-01,  2.32127166e+00,  1.09161890e+00, -1.89325631e+00,
     1.53640091e+00, -7.88164735e-01, -1.43210995e+00, -6.35788739e-02,  1.25889349e+00, -8.26323628e-01, -2.31345749e+00, -2.81026453e-01,
     1.03397191e+00,  1.78200006e+00,  1.94084391e-01,  6.00931942e-02,  1.30801988e+00, -1.34750223e+00, -7.07370788e-02, -3.03984976e+00,
     1.43302858e+00, -1.88640147e-01,  9.72900748e-01,  4.16128016e+00,  9.91612136e-01,  1.94920003e+00, -1.23736393e+00, -9.88959968e-01},
   { 5.97947419e-01, -2.90952754e+00,  2.52286577e+00,  8.20164442e-01,  6.08790338e-01,  1.60109079e+00, -9.97035563e-01, -1.22404528e+00,
     1.02140987e+00,  1.71131372e+00, -1.65176153e+00, -1.48583889e+00, -2.04595014e-01,  3.82082391e+00,  1.29752314e+00,  3.03123283e+00,
    -2.78135180e-01,  4.52066332e-01,  1.21844590e+00,  1.24691379e+00, -1.74331534e+00, -3.36413956e+00, -4.06817293e+00,  9.14922476e-01,
     8.89327347e-01,  3.56183141e-01, -1.28392506e+00,  6.57076061e-01, -1.38720667e+00, -6.23004794e-01, -1.63305581e-01,  3.23446774e+00,
     1.03853595e+00, -3.01486164e-01, -1.56497717e-01,  1.57320929e+00,  7.06958175e-01,  2.71032119e+00, -3.66530925e-01, -1.37958336e+00,
     8.18855703e-01,  7.87769377e-01,  1.30001888e-01,  1.23572421e+00,  1.85446039e-01, -7.06879914e-01, -4.15881348e+00, -9.06733632e-01,
     8.38286877e-01, -2.06190199e-01,  1.63027525e-01, -1.90317476e+00, -3.43471587e-01,  4.82474476e-01, -8.99485230e-01,  3.72424155e-01,
     8.19173992e-01,  1.10467815e+00,  3.98074975e-03,  1.35275602e+00,  1.33561158e+00,  3.46471369e-01,  3.37118173e+00,  8.53110552e-01},
   {-1.93205857e+00, -2.18882823e+00, -6.82217360e-01, -7.69543946e-01,  1.06401742e+00,  1.47350085e+00,  2.80657470e-01,  3.95537131e-02,
    -1.75076425e+00, -4.20962721e-01, -3.26383543e+00, -2.58668065e+00,  5.19822359e-01, -4.58476394e-02,  1.88410914e+00, -1.80786622e+00,
     4.10462804e-02, -1.98270750e+00, -2.90913075e-01,  6.88561916e-01,  1.98327863e+00, -2.35560679e+00, -1.06765598e-01, -1.22169960e+00,
     1.73942268e+00, -3.71812612e-01,  7.21242428e-02,  1.02655029e+00,  7.29290187e-01,  1.44777149e-02, -6.71655178e-01,  3.41029477e+00,
    -2.82475263e-01,  2.22787872e-01,  1.78406656e-01,  5.33936799e-01, -4.54300433e-01, -3.91723484e-01,  6.55699193e-01,  3.95320117e-01,
     3.31722736e-01,  2.91147757e+00,  9.19242680e-01, -9.48582470e-01, -5.29924214e-01,  3.71925056e-01,  2.98432422e+00, -3.69295454e+00,
     1.17378962e+00,  1.13146532e+00, -3.61769438e-01,  4.09059860e-02,  7.14917183e-01, -1.57621980e+00, -3.40183997e+00,  1.00147545e+00,
    -9.44308713e-02, -3.81188154e-01,  2.28148445e-01,  1.65619159e+00,  5.39381742e-01, -4.75769192e-01,  2.04528236e+00, -8.83576155e-01},
   {-7.36370459e-02,  1.02106524e+00,  2.48392582e-01,  9.07371402e-01,  1.44511807e+00,  2.62716627e+00, -4.17595595e-01, -3.45730114e+00,
    -1.53726768e+00,  1.18179262e+00,  5.43682337e-01, -8.35176110e-01, -4.33831304e-01, -1.00854087e+00,  2.31799197e+00, -1.13590384e+00,
     1.19895422e+00, -8.51948917e-01,  2.06706858e+00, -2.57111406e+00,  5.41076250e-02,  1.05258262e+00, -6.01989365e+00, -3.93649518e-01,
     5.17417550e-01, -2.87187636e-01,  1.84216428e+00, -7.73847222e-01, -3.39464092e+00,  6.33474231e-01, -4.93637592e-01, -2.18780711e-02,
    -1.90528965e+00,  3.30663252e+00, -2.22618714e-01, -3.85568887e-01, -7.48648703e-01,  1.31991541e+00, -1.69101918e+00,  3.82343709e-01,
     2.90764481e-01,  2.69758677e+00, -8.97217393e-02,  3.06862593e-01,  2.44627619e+00,  4.66304958e-01,  1.32854664e+00,  7.28039980e-01,
    -3.86626410e+00,  3.96072149e-01,  9.97815073e-01, -1.09846604e+00,  6.01589262e-01, -2.75841045e+00,  2.08087102e-01, -1.62702525e+00,
    -1.38326335e+00, -1.96446359e+00, -5.52780390e-01,  1.87209725e+00,  7.52297640e-01,  1.78689694e+00, -2.95681024e+00,  2.06388980e-01},
   { 9.21012685e-02,  4.93028820e-01, -1.49693620e+00,  8.15265402e-02, -1.29076517e+00, -1.95376241e+00,  6.13218784e-01,  1.87432945e+00,
    -1.49212706e+00,  8.14932883e-01, -1.30241275e+00, -6.87261105e-01, -3.16731715e+00,  1.79774892e+00,  1.33788198e-01, -2.72747159e+00,
     2.11015272e+00,  1.41020203e+00, -4.66486007e-01, -5.75633109e-01, -9.39130187e-01, -4.12934303e-01,  1.82544136e+00,  5.74883103e-01,
     2.44840160e-01, -1.81188035e+00, -3.18502724e-01, -3.40323210e-01, -3.45623612e+00, -3.35452378e-01,  5.99698007e-01,  2.14902139e+00,
     1.26994276e+00, -1.50010836e+00,  1.34801939e-02,  2.31237483e+00,  6.70892179e-01, -1.34205568e+00, -2.39521241e+00,  1.23094630e+00,
     4.25924867e-01,  1.23925114e+00,  1.64286256e-01,  4.66944844e-01,  4.42733765e-01,  2.20053172e+00, -4.37467873e-01,  6.27245665e-01,
    -1.92652524e+00, -1.32637215e+00, -4.43497062e-01,  4.88327861e-01,  1.51057661e-01,  3.11081243e+00,  1.26175869e+00,  2.81879157e-01,
    -1.89572453e+00,  9.84443843e-01,  4.28379488e+00,  2.23711133e+00,  3.37674499e-01,  4.11069602e-01, -2.55444765e-01,  2.87971318e-01},
   {-1.13819979e-01,  5.26580274e-01,  6.84702635e-01, -9.63668644e-01, -2.17683029e+00, -1.55161810e+00, -5.79240359e-02, -8.66141737e-01,
    -3.51516080e+00,  9.25029695e-01, -1.16503656e+00, -5.70455551e-01, -2.52140975e+00, -1.95448172e+00,  9.94672954e-01, -1.22792542e+00,
    -9.65122759e-01,  3.83144355e+00, -2.42175078e+00,  3.32895064e+00, -6.26006201e-02,  1.54611909e+00,  4.81625509e+00, -1.80229795e+00,
    -6.07370853e-01,  1.10154666e-01,  1.75272897e-01, -7.88155973e-01, -2.70053029e-01,  1.16055655e+00,  1.47032464e+00, -2.62881017e+00,
    -7.91178823e-01, -1.00536847e+00,  2.03753257e+00,  1.47960886e-01,  2.38349795e+00, -4.14898872e+00, -5.80159247e-01,  2.97390652e+00,
    -9.72835839e-01,  9.57680345e-01,  3.02629232e-01, -2.03763461e+00, -7.88693130e-01, -2.75174469e-01,  2.77454185e+00,  3.34055924e+00,
    -5.72589636e-01, -9.62663628e-03, -6.54947329e+00,  4.89797503e-01, -7.31568456e-01,  1.30187124e-01, -1.35439277e+00, -1.78377464e-01,
    -5.13142586e-01,  6.53370470e-02,  2.30954334e-01, -1.76395679e+00,  2.24833891e-01, -1.28041339e+00, -1.33137000e+00,  9.31554615e-01},
   {-1.17307626e-01, -8.48094702e-01,  9.14560556e-01, -6.91831172e-01,  4.32750106e-01,  2.33238935e+00, -1.84866235e-01,  1.98489344e+00,
     2.00787926e+00, -1.99449515e+00, -1.13923275e+00,  2.09182119e+00,  1.50639236e+00,  1.33940160e+00, -1.19035220e+00,  2.78786689e-01,
     1.29752874e-01, -9.33026731e-01, -1.48474658e+00,  3.05881739e+00,  1.61929503e-01,  3.35456038e+00,  1.12754512e+00, -8.84318471e-01,
    -6.00598156e-01, -2.40377617e+00,  1.62941504e+00,  6.09118164e-01,  2.62186670e+00,  1.16423333e+00, -2.26264358e+00, -1.14196062e+00,
    -1.16466498e+00,  3.78041577e+00,  8.66661131e-01,  1.07724619e+00,  8.00314784e-01, -5.71087539e-01,  7.43455172e-01,  2.02587783e-01,
    -5.57042480e-01,  9.83327270e-01, -8.55425537e-01,  1.90061533e+00, -2.63714409e+00, -8.37160349e-01,  3.25434518e+00, -3.37106250e-02,
    -5.92798233e-01, -1.28385401e+00, -1.75717115e+00, -4.92624235e+00,  4.00391042e-01,  1.80119410e-01, -1.92845261e+00,  3.48140311e+00,
    -6.32780418e-02, -1.53253484e+00, -2.38448381e+00, -9.17031109e-01,  3.46487820e-01,  4.11291093e-01,  2.10963413e-02,  6.64207876e-01},
   {-2.44439363e+00,  5.90915799e-01,  1.13368070e+00, -4.74848926e-01, -7.49437630e-01,  2.29593468e+00, -1.22182977e+00, -1.00246623e-01,
     3.33963561e+00, -5.02876234e+00, -1.52718234e+00, -1.55024910e+00,  2.82037187e+00, -1.69984829e+00,  3.17631841e-01, -2.76448220e-01,
     4.01825964e-01, -3.24208999e+00,  9.77690220e-01,  2.27825594e+00,  5.35854459e-01,  2.16611791e+00, -2.54283810e+00,  3.99723649e-01,
     5.97504601e-02, -2.13642740e+00,  2.38173461e+00,  7.74024367e-01,  5.36940336e-01, -5.31414270e-01, -5.01210332e-01,  2.93825150e+00,
    -1.87552178e+00,  1.85754883e+00,  7.34912813e-01, -2.21205139e+00,  4.63932425e-01, -2.03107730e-01, -6.00314081e-01,  9.10784364e-01,
    -6.54927611e-01,  1.56631875e+00, -3.03476661e-01, -6.76939905e-01,  6.08642101e-01,  8.68290067e-01,  1.69184923e+00, -8.06165874e-01,
     6.17304325e-01, -6.55677497e-01,  1.77356228e-01,  6.54313982e-01, -2.89338875e+00, -1.93039238e+00, -1.98673844e+00,  1.38854861e+00,
    -4.54953939e-01,  8.04157734e-01, -1.24031889e+00,  4.83537227e-01, -1.50218856e+00,  5.61888158e-01, -4.55278337e-01,  9.87836838e-01},
   {-1.09940302e+00, -1.42197883e+00, -8.39559078e-01, -1.41705823e+00,  6.89565361e-01, -7.35389411e-01,  4.59126890e-01, -1.73499691e+00,
     3.95386294e-02,  7.85431147e-01, -1.79976094e+00, -7.59394884e-01, -4.82142031e-01,  2.37666607e+00,  1.28083266e-02,  2.87733865e+00,
    -7.42559314e-01,  1.42486703e+00, -1.27543151e+00,  8.49428058e-01,  1.61948115e-01, -3.53276223e-01, -1.69996619e+00, -6.67961240e-01,
    -3.50174874e-01, -1.62602797e-01, -4.38033491e-01,  1.69914591e+00, -2.07585549e+00, -2.25268424e-01,  2.65672326e-01,  3.17457348e-01,
     1.39388573e+00, -7.48418808e-01, -2.92602599e-01,  1.97846934e-01, -1.24548757e+00,  2.84166217e+00,  2.15373963e-01, -9.83302653e-01,
     1.03255785e+00, -3.34275216e-01,  8.42894733e-01,  1.72143531e+00, -1.93176532e+00,  2.39748001e+00, -1.16303980e+00,  8.39268982e-01,
     8.60802770e-01,  8.33400786e-01, -7.76656508e-01, -1.26729310e-01,  1.07949579e+00, -3.89226973e-01, -3.99904221e-01, -1.21201026e+00,
     7.67396986e-01,  7.77465999e-01, -1.70138389e-01,  5.23520589e-01,  1.28404856e-01, -1.75535902e-02,  4.67306197e-01, -4.79236543e-02},
   { 1.92478526e+00, -9.02572721e-02, -1.52202773e+00, -9.29865241e-01, -5.94533145e-01,  2.45343518e+00,  3.87737602e-02,  1.09294593e+00,
    -2.15310410e-01,  3.20353580e+00, -3.74859786e+00, -3.16244411e+00,  8.54558170e-01,  5.29158473e-01,  1.95693958e+00,  9.68036577e-02,
    -1.30121902e-01,  3.87649322e+00, -9.80705619e-01,  1.41929090e+00, -2.11403632e+00,  7.18456447e-01,  1.45906854e+00, -1.86363602e+00,
     8.41510355e-01, -8.45078528e-01, -1.26221150e-01, -2.04469013e+00, -5.86705685e-01,  2.65909210e-02,  1.70305863e-01,  1.42725527e+00,
     2.10029930e-02,  6.57429636e-01, -2.59051061e+00,  1.29209280e+00, -6.37297213e-01,  1.35891807e+00, -8.81023765e-01, -1.61333895e+00,
    -1.10744750e+00,  2.18461227e+00, -7.30823874e-01,  1.15025952e-01,  1.29645560e-02, -9.89785612e-01,  1.02134275e+00, -2.36562061e+00,
