#ifndef __FASTGRNN_FC_PARAMS__
#define __FASTGRNN_FC_PARAMS__

#define FC_IN_DIM (32)
#define FC_OUT_DIM (6)

// clang-format off

const float FC_W[6][32] = {
   {-7.30266392e-01, -2.02779222e+00, -1.18506622e+00,  2.63770491e-01, -1.11143923e+00,  6.05253220e-01,  2.42745900e+00,  1.82899714e-01,
     8.76437664e-01, -1.04522395e+00, -4.67609093e-02,  8.33066046e-01,  6.91046536e-01, -1.21456742e+00, -5.97347975e-01,  3.45431477e-01,
    -7.13754356e-01, -8.09457779e-01,  8.54706645e-01, -2.53494292e-01,  2.71562219e-01, -2.14833304e-01, -6.56328797e-01,  6.96685672e-01,
     3.86363328e-01,  5.16266167e-01, -6.59283519e-01,  2.82238275e-01,  5.43819714e+00,  2.21758652e+00,  5.71076727e+00,  3.91935134e+00},
   { 3.47932339e+00,  1.89370370e+00, -1.50969577e+00,  1.15362275e+00,  1.62145269e+00, -1.80294597e+00, -7.40660608e-01,  7.27251843e-02,
     1.49060655e+00,  7.43124541e-03,  2.41387033e+00,  3.43819857e-01, -1.04790950e+00, -3.73559624e-01,  1.59414518e+00, -1.53545475e+00,
    -7.39416599e-01,  3.07071638e+00, -1.74320912e+00, -1.62273371e+00, -7.90302634e-01, -6.12950996e-02,  3.14373523e-01, -1.57723844e-01,
    -2.54688096e+00,  4.65523064e-01, -7.78981388e-01,  4.74589854e-01, -5.53924441e-01, -1.34627187e+00, -7.92362452e-01, -6.19815946e-01},
   {-7.01413214e-01, -2.66125870e+00, -1.84965968e+00,  1.61795902e+00,  7.57358491e-01, -1.85484838e+00, -8.30230951e-01, -1.21971570e-01,
     2.20466185e+00,  2.24149203e+00, -3.67245317e+00, -2.19875979e+00,  9.67944264e-01,  1.39434707e+00, -5.57233453e-01, -1.07251751e+00,
    -8.55629146e-01,  4.08382750e+00,  9.16852057e-01, -1.25093234e+00, -1.08888590e+00,  1.16194260e+00,  1.24150777e+00, -5.77934206e-01,
     1.13216388e+00,  5.19896030e-01, -6.64999127e-01, -2.08081555e+00, -7.95169771e-01, -1.33637631e+00, -7.75949895e-01, -6.45425141e-01},
   {-1.26284170e+00,  1.01608133e+00,  2.54603076e+00, -1.89712203e+00,  1.64712715e+00,  8.02480817e-01, -3.56048137e-01, -2.30114516e-02,
     2.02596092e+00,  1.96373689e+00,  2.34931755e+00,  1.88894403e+00, -1.28788185e+00,  1.18922019e+00, -5.39910793e-01,  1.40928042e+00,
     1.13443208e+00, -8.01150680e-01, -2.35887480e+00,  1.15409255e+00,  1.70734298e+00, -2.04556614e-01,  1.71941423e+00, -5.43924093e-01,
     1.63567376e+00, -1.76238358e+00,  2.08750296e+00, -1.66473770e+00, -6.31572843e-01, -9.69348490e-01, -3.82276773e-01, -6.11738920e-01},
   { 3.60441208e+00,  8.04505944e-01,  3.21192122e+00,  8.40095401e-01, -2.61047173e+00,  7.25604653e-01, -4.59019482e-01,  2.08385795e-01,
    -2.92607737e+00, -1.03410411e+00, -2.33411956e+00,  6.40940428e-01,  7.28100836e-01, -9.47067082e-01, -6.85021102e-01, -1.25839889e+00,
     1.38239014e+00, -1.46780813e+00,  2.07629472e-01,  1.26415622e+00,  1.33732939e+00,  5.04418202e-02, -9.09527063e-01, -7.55189657e-01,
    -1.87143636e+00,  6.48943603e-01,  1.79447067e+00,  9.17518437e-01, -9.63606656e-01,  3.10062790e+00, -7.49781430e-01, -5.87918580e-01},
   {-2.51892877e+00,  2.48606706e+00,  1.96871948e+00, -1.67186642e+00,  1.59012103e+00,  1.01870799e+00, -2.12213978e-01, -1.47382155e-01,
    -3.18872070e+00, -1.11034727e+00,  2.22827125e+00, -2.65966296e+00, -7.96380460e-01,  1.57740223e+00,  1.98715234e+00,  2.73190331e+00,
     1.51126134e+00, -1.20734870e+00,  1.87694228e+00,  1.62877619e+00, -1.81597304e+00, -4.30067256e-02, -8.99534166e-01,  3.28377545e-01,
     1.09916031e+00, -1.55489400e-01, -6.32132053e-01,  2.36020136e+00, -5.88720620e-01, -9.90843356e-01, -8.15279484e-01, -5.50069690e-01},
};

const float FC_B[6] = 
   { 1.63372517e+00, -2.52692461e-01, -8.07900786e-01, -3.41536134e-01, -2.61402458e-01, -1.16035020e+00};

// clang-format on


#endif // __FASTGRNN_FC_PARAMS__

