#ifndef __FASTGRNN_FC_PARAMS__
#define __FASTGRNN_FC_PARAMS__

#define FC_IN_DIM (32)
#define FC_OUT_DIM (6)

// clang-format off

const float FC_W[6][32] = {
   {-1.01876640e+00,  8.82426918e-01,  7.97044218e-01,  5.27679920e-01, -1.14344847e+00, -1.31566274e+00,  7.15613186e-01, -1.28947929e-01,
     5.01945210e+00,  4.21062201e-01,  9.31112170e-01,  6.79761589e-01,  1.15256655e+00,  1.28910160e+00,  5.57762802e-01,  7.81024277e-01,
     7.21558690e-01,  2.67299294e-01,  1.02604985e+00,  4.28639591e-01,  7.90530443e-01, -1.31585836e+00,  1.16346478e+00, -9.85148013e-01,
    -5.66399932e-01, -1.04637861e+00,  6.02218091e-01, -1.48391590e-01,  6.42307472e+00, -2.52311174e-02, -1.23022032e+00, -1.55368531e+00},
   {-1.25427425e+00, -1.66530430e+00, -5.43561459e-01, -1.35160112e+00, -1.32696712e+00,  1.77822375e+00,  1.31966674e+00,  4.21014801e-02,
    -6.46677136e-01, -9.56940591e-01,  6.45243049e-01,  8.43990445e-01, -1.94800973e+00, -5.43887496e-01,  1.15205801e+00, -5.93377411e-01,
    -1.48179853e+00, -3.78203303e-01, -1.34070599e+00, -3.09097469e-01,  7.85409570e-01,  2.44408321e+00,  5.59893429e-01, -1.81799638e+00,
     3.29088140e+00,  2.63714409e+00, -9.56666529e-01,  3.33350301e-02, -5.59695482e-01, -7.39123970e-02,  2.12939501e+00,  2.30068731e+00},
   { 5.78333974e-01,  3.16753238e-02, -2.39198279e+00, -1.01460624e+00,  1.75333631e+00, -3.83902240e+00,  1.07053173e+00,  3.54576856e-02,
    -5.51588833e-01, -1.21621287e+00,  9.05550957e-01,  5.19581795e-01,  1.72610462e+00, -4.02662605e-01,  4.07919466e-01, -1.53603661e+00,
    -1.49774957e+00, -1.35032147e-01, -1.41260982e+00, -2.42641911e-01, -1.31413519e+00,  2.68658662e+00,  7.31695116e-01, -1.75883973e+00,
     2.95835304e+00, -1.21206427e+00,  1.98149955e+00,  4.75245975e-02, -7.29115069e-01, -6.62436113e-02,  2.49015093e+00, -1.92826092e+00},
   { 7.42799640e-01,  1.21900928e+00,  1.51864123e+00,  1.31053436e+00,  1.31531549e+00,  1.68824041e+00,  5.76339722e-01,  2.51926817e-02,
    -4.95115489e-01, -6.43838763e-01, -2.00257039e+00, -2.95299363e+00,  1.53174365e+00, -8.94445240e-01, -1.49706408e-01, -2.40024224e-01,
     9.30686176e-01, -1.90558285e-01, -1.29019797e+00, -1.00127332e-01,  1.86089373e+00,  1.57411122e+00,  1.26331913e+00,  2.34774494e+00,
    -1.98311925e+00,  5.11944711e-01, -1.34446871e+00, -2.61959195e-01, -7.14899778e-01, -1.91109642e-01, -2.35936832e+00,  1.17363012e+00},
   { 8.84727657e-01, -1.00527132e+00,  1.64455259e+00,  1.38610256e+00, -1.46349773e-01,  1.48515928e+00, -2.14640713e+00, -1.98136374e-01,
    -7.12713659e-01,  7.96206534e-01,  7.62133718e-01,  4.91376817e-01, -1.62145495e+00, -1.72134507e+00,  1.14214802e+00, -7.84285247e-01,
    -3.27581763e-01,  1.33891270e-01,  1.14514685e+00,  7.21121430e-02, -1.11065495e+00, -1.69165683e+00, -3.60303140e+00,  2.91850901e+00,
    -8.93901229e-01, -8.98680091e-01, -1.14152527e+00,  1.32426441e-01, -6.85515046e-01,  4.06753570e-01,  2.48427248e+00, -4.25367117e-01},
   { 6.61175549e-01,  3.94189298e-01, -1.60646665e+00, -1.21165514e+00,  7.31573343e-01,  1.17580032e+00, -2.07723832e+00,  8.87461379e-02,
    -6.39063239e-01,  1.07070529e+00, -1.67370975e+00, -7.20046163e-02, -1.53324711e+00,  4.37054038e-01, -4.01756191e+00,  7.70933032e-01,
     2.03344727e+00,  2.64906324e-02,  1.31983054e+00, -6.47743046e-01, -2.05142808e+00, -1.10451698e+00,  9.87885237e-01,  2.17547631e+00,
    -8.95749867e-01,  2.24909973e+00,  1.51246405e+00,  6.61935136e-02, -5.84801316e-01,  4.66600321e-02, -1.84143424e+00,  2.02170253e+00},
};

const float FC_B[6] = 
   { 1.35292435e+00, -4.69823301e-01, -7.47131765e-01, -6.62152648e-01, -1.54967412e-01, -7.17667997e-01};

// clang-format on


#endif // __FASTGRNN_FC_PARAMS__

