#ifndef __FASTGRNN_GRNN0_PARAMS__
#define __FASTGRNN_GRNN0_PARAMS__

#define GRNN0_HIDD_DIM0 (32)
#define GRNN0_HIDD_DIM1 (64)

// clang-format off

const float GRNN0_ZETA = (-1.460862e+00);
const float GRNN0_NU = (-5.001822e+00);

const float GRNN0_BIAS_UPDATE[64] = 
   { 3.20782876e+00,  1.27977610e+00,  2.10189247e+00,  9.37166929e-01,  2.60043693e+00,  2.00396442e+00, -2.20496655e-02, -5.01415133e-01,
     2.59184361e+00,  1.23596299e+00,  9.89540279e-01,  1.38713717e+00,  1.89522946e+00,  2.81866527e+00,  3.30044746e+00,  8.88735592e-01,
     3.48712862e-01,  1.55408216e+00, -8.90519023e-01,  1.85764098e+00,  2.02728820e+00,  1.08572018e+00,  2.32428455e+00, -8.93874943e-01,
     5.89445591e-01,  1.14330161e+00,  2.56039119e+00,  2.62008429e+00,  7.97076643e-01,  3.92735809e-01,  1.49773502e+00,  1.13112509e+00,
    -3.83172005e-01,  2.75175834e+00, -5.12924373e-01,  1.77442753e+00,  2.26956153e+00,  7.86423802e-01,  2.38039207e+00,  2.71091331e-02,
     1.49639404e+00,  1.63667655e+00,  1.44115698e+00,  2.22505951e+00,  4.76653874e-01,  3.59405541e+00,  2.52458334e+00,  1.19223297e+00,
     2.60460466e-01,  3.18814397e+00,  5.35389602e-01,  9.67421941e-03,  4.92004454e-01,  1.01231277e+00,  1.85028005e+00,  9.02039289e-01,
     6.29332364e-01,  7.21633554e-01,  6.99376643e-01,  5.98178267e-01,  1.66061378e+00,  2.46861005e+00,  6.70209169e-01,  1.91241837e+00};

const float GRNN0_BIAS_GATE[64] = 
   { 2.50659913e-01,  5.82053852e+00,  4.37167072e+00,  1.61022556e+00,  2.74597096e+00,  5.21568823e+00,  5.07045221e+00,  5.89295530e+00,
     4.10181236e+00,  4.58425236e+00, -2.20874205e-01,  5.77057600e+00,  5.02453327e+00,  4.99085855e+00,  3.52975512e+00,  1.17974067e+00,
     1.47174954e+00,  2.77428269e+00, -1.15380204e+00, -2.03792763e+00,  3.18035126e+00,  3.10187292e+00,  4.20707226e+00,  3.33621597e+00,
     3.86908025e-01,  6.32538939e+00,  7.11221814e-01,  2.53836584e+00,  2.54583025e+00,  1.45768702e+00,  1.74739909e+00,  1.44885445e+00,
     4.49329793e-01, -6.28104329e-01,  3.60941172e+00,  7.34755611e+00,  2.87609339e+00,  3.24115467e+00,  3.56018257e+00,  5.77275848e+00,
     3.35625267e+00,  5.18752861e+00,  1.87667096e+00,  2.50140309e+00,  7.33851135e-01,  2.67640471e+00,  1.73573053e+00,  3.40467906e+00,
     5.08006620e+00,  5.60241520e-01,  4.52059174e+00,  3.31313324e+00,  2.94697189e+00,  2.87494683e+00,  3.92552853e+00,  6.07675731e-01,
     3.30502200e+00,  2.50917745e+00,  1.96634138e+00,  1.69758487e+00,  5.20580435e+00,  3.72457957e+00,  2.39599848e+00,  1.57425594e+00};

const float GRNN0_W[64][32] = {
   { 2.70353913e-01, -1.37967467e-01, -3.43476802e-01, -5.66952825e-02,  9.30496097e-01,  5.39867342e-01,  8.19201946e-01,  4.40027080e-02,
    -1.04186559e+00,  2.42099404e-01, -6.15915775e-01, -7.99288034e-01, -1.61206055e+00, -1.08366072e+00,  8.56308490e-02,  4.41140413e-01,
    -7.40169431e-04, -5.72862744e-01, -5.63265860e-01, -3.50294192e-03,  8.59267563e-02, -7.55123138e-01, -1.44143775e-01, -2.42011249e-01,
     1.63752243e-01, -1.19960435e-01,  2.43436635e-01, -1.51053160e-01,  1.56348988e-01, -6.48057312e-02, -3.88002038e-01,  4.93690878e-01},
   { 5.92073441e-01, -5.05254686e-01, -6.06039882e-01, -1.09770799e+00, -6.47919536e-01, -1.86883450e-01,  5.29946208e-01,  1.27707422e-01,
    -2.07106203e-01,  1.00786082e-01,  9.53129292e-01,  3.30288976e-01,  9.33310807e-01,  8.83232415e-01,  2.17361540e-01,  9.89883617e-02,
    -2.18744859e-01, -9.06408131e-01, -1.00511718e+00, -1.31602061e+00, -9.58083868e-01,  5.71577400e-02,  3.90956700e-01,  7.28585720e-01,
     4.63906765e-01, -2.32859589e-02, -3.79500538e-01, -5.35842359e-01, -2.02846840e-01,  5.12970507e-01, -3.53737250e-02,  5.59956729e-02},
   {-3.69443029e-01,  1.76155254e-01,  1.11664546e+00,  7.96268880e-01, -3.50046486e-01, -7.87960172e-01, -1.79796088e+00, -5.30222118e-01,
     7.13699818e-01,  9.19476569e-01,  1.51841447e-01, -9.43729430e-02,  6.82321429e-01,  1.27807224e+00,  8.72436702e-01, -3.43572609e-02,
    -1.03720951e+00, -7.35722065e-01,  1.79900393e-01, -3.82097423e-01, -6.56426132e-01,  4.60443087e-02, -6.47195056e-02, -3.43663245e-01,
     1.35092244e-01, -7.04453886e-01, -2.38796040e-01, -5.60578704e-01, -1.86426088e-01, -1.87555388e-01, -4.23875861e-02, -1.00921512e-01},
   {-5.96150696e-01,  1.20209169e+00,  1.96843338e+00, -5.21512151e-01, -2.66047448e-01,  6.64398000e-02,  4.28359717e-01,  2.78122365e-01,
    -4.77841347e-01, -2.93985993e-01, -3.56148779e-01, -1.03906617e-01, -9.51780081e-02, -6.55739754e-02,  3.80062945e-02,  2.94849426e-01,
     2.79376090e-01, -2.06658959e-01, -3.93588319e-02, -5.61917484e-01, -6.50546730e-01, -7.06921816e-02,  1.39878958e-01,  1.84517160e-01,
     3.43852043e-01,  8.60515535e-01, -1.78066701e-01,  5.19473910e-01,  2.53679633e-01,  7.89325893e-01,  5.22247493e-01, -1.55318484e-01},
   { 7.57740676e-01, -2.23458916e-01, -4.04830009e-01,  6.54383540e-01,  1.27348065e+00,  1.23991084e+00,  7.47887373e-01, -2.05511832e+00,
    -2.61046529e+00, -1.66316688e+00, -6.93969309e-01,  1.15852036e-01,  3.77955347e-01,  8.49131346e-02,  5.32940822e-03, -8.47551003e-02,
     1.58001319e-01,  1.73978254e-01,  3.61391455e-01, -1.66636497e-01,  1.79597095e-01, -4.07009199e-02, -4.50574458e-01, -5.20363688e-01,
     2.50882834e-01,  1.97262108e-01,  1.79865599e-01, -7.71072805e-02,  1.08175628e-01, -6.71604201e-02, -8.82784501e-02,  5.00521123e-01},
   { 3.25548142e-01, -2.78166592e-01, -5.98968387e-01, -1.01632215e-01,  4.83523816e-01,  9.27616775e-01,  1.87498248e+00,  1.28502631e+00,
    -8.75387073e-01, -9.39865232e-01, -1.41144562e+00, -1.26504862e+00, -3.26967716e-01,  1.73752785e-01,  1.98180929e-01, -8.34459588e-02,
     3.48905385e-01,  4.52937707e-02, -2.65453793e-02,  5.84766194e-02,  2.05548406e-01,  1.34495988e-01, -2.19316185e-01, -7.91484118e-01,
     5.16114235e-01,  1.45763993e-01, -8.98041204e-02,  1.60331815e-01,  3.77949953e-01,  1.99755400e-01, -4.26655769e-01,  8.61770272e-01},
   {-7.36240894e-02, -3.60079587e-01,  5.43872476e-01,  1.20653011e-01,  6.46725893e-02,  6.91695690e-01,  4.00943577e-01,  5.14229953e-01,
     3.56806163e-03, -2.55037457e-01,  6.43097281e-01,  1.81930751e-01,  3.27771604e-02, -2.09668338e-01,  4.89581734e-01,  7.23967135e-01,
     7.30323195e-02, -3.21659118e-01,  2.57491261e-01,  4.17927027e-01,  5.46507239e-02, -9.32010785e-02,  1.35050714e-01,  1.21935746e-02,
    -5.71345925e-01,  2.36558989e-02,  1.83908626e-01,  3.43104094e-01,  2.86828369e-01, -1.23944789e-01, -1.57538489e-01,  2.25591570e-01},
   { 2.00658105e-03,  5.43070436e-01,  1.21811247e+00,  3.88433069e-01, -2.14277804e-01, -3.12327266e-01, -9.78747785e-01, -3.91215652e-01,
    -2.75078565e-01, -3.86503756e-01,  1.68405309e-01,  1.59607574e-01, -3.68048906e-01, -2.78223544e-01, -1.79082215e-01, -2.19199792e-01,
    -1.34092540e-01,  3.29925537e-01,  5.14800251e-01,  2.44930796e-02,  2.56041437e-01,  3.48940253e-01, -4.73804384e-01, -2.95564830e-01,
    -7.13209510e-01, -6.85342789e-01, -3.56435150e-01, -7.72681832e-01, -3.01659763e-01, -7.69275725e-01, -1.05489528e+00, -1.19178140e+00},
   { 1.53616711e-01, -6.73775613e-01, -1.31042808e-01,  1.11405432e-01,  4.49413061e-01,  5.50754309e-01,  1.73568010e-01, -1.66082835e+00,
    -1.33561063e+00, -6.84929937e-02,  1.00903451e+00,  1.49452603e+00, -1.46258369e-01, -1.22111154e+00, -1.16325426e+00, -5.21955490e-01,
     6.65254369e-02,  5.75121403e-01, -1.99896228e-02, -1.33295789e-01, -2.25340813e-01,  2.91943550e-01,  6.71856254e-02,  2.42282808e-01,
    -9.98163894e-02, -2.30426386e-01,  6.06640995e-01, -2.93280154e-01,  4.14138079e-01, -3.47733378e-01,  7.02615827e-02,  8.51427019e-02},
   { 2.66158938e-01, -2.82841563e-01,  5.11355221e-01,  3.80198538e-01,  1.75148249e-01, -6.19082212e-01, -1.11369383e+00, -8.99518609e-01,
     2.85040103e-02,  1.03057468e+00, -2.72706121e-01, -2.02612448e+00, -2.93072748e+00, -3.57402146e-01,  2.00009966e+00,  1.39628065e+00,
     2.71220177e-01, -3.09640199e-01,  5.62243044e-01,  4.07340825e-01,  5.20306826e-01, -9.98324752e-02, -3.74221176e-01,  2.87874550e-01,
     2.93915838e-01,  4.51231629e-01,  4.56853151e-01,  8.28536674e-02,  3.01964134e-01,  1.76649243e-02, -3.16835344e-01,  6.41926229e-02},
   {-2.10326418e-01, -6.57836258e-01,  2.85698950e-01, -6.75564945e-01, -4.63177025e-01, -5.37978411e-02,  4.85952109e-01,  9.90875900e-01,
     1.29745305e+00,  1.10427248e+00,  1.46294975e+00,  1.14193588e-01, -5.32729447e-01, -2.36910895e-01, -7.55759239e-01,  2.80925810e-01,
     1.48006707e-01, -6.15463674e-01, -6.07653968e-02,  1.64419985e+00, -1.01100348e-01,  7.43349731e-01,  1.08992279e+00,  6.33891523e-01,
     1.11593522e-01,  6.58675849e-01,  7.24194199e-02,  6.53168678e-01,  7.67104983e-01, -5.81097007e-01, -2.55784869e-01, -3.33010018e-01},
   {-5.01785457e-01,  2.02557757e-01, -7.94878788e-03,  1.17162406e+00,  1.46214917e-01,  1.35056674e-01,  1.19480908e-01,  5.21841645e-01,
     4.48021024e-01, -9.02596056e-01, -1.96337152e+00, -1.20589685e+00,  5.64739406e-01,  1.42191160e+00,  1.02173495e+00,  7.25600839e-01,
     4.64290440e-01,  7.25127637e-01,  1.84233710e-01,  8.37824792e-02,  1.84801906e-01, -3.10619175e-01,  2.46562317e-01, -8.43810976e-01,
    -1.30405828e-01,  1.37813762e-01, -4.42220002e-01, -1.99867308e-01, -2.41375238e-01, -3.73703301e-01,  7.65905082e-02, -4.73452955e-01},
   { 6.69048876e-02, -5.68492591e-01,  8.47162545e-01,  4.31706011e-01, -7.84124672e-01, -1.93528080e+00, -2.12583733e+00, -1.35508971e-03,
     1.79869270e+00,  9.17410493e-01,  6.85413659e-01, -4.71036494e-01, -9.25420761e-01, -3.46390992e-01, -9.67858970e-01, -1.02119505e+00,
    -1.82614356e-01,  1.26045859e+00,  1.79240072e+00,  5.83554022e-02, -6.29005730e-02,  3.71635407e-01,  7.54484162e-02, -2.20323175e-01,
    -5.89601278e-01,  3.68616790e-01,  4.35013443e-01, -1.16328448e-01,  4.05177355e-01, -4.59594339e-01,  1.13818735e-01,  4.51459765e-01},
   { 9.12237838e-02, -5.25081873e-01, -9.12694395e-01, -3.06978524e-01,  9.55208004e-01,  7.10446775e-01,  1.42195320e+00,  2.33644441e-01,
    -1.76738644e+00, -1.34534752e+00, -1.85187176e-01,  5.14408886e-01, -5.73263347e-01, -9.05203074e-02,  3.78410399e-01,  3.12304199e-02,
     3.43490601e-01, -7.01947436e-02, -6.76688731e-01, -2.30466992e-01,  2.70541966e-01,  8.94267932e-02,  1.66618615e-01, -8.79094675e-02,
     3.06484669e-01, -7.26237714e-01,  1.04429834e-01, -1.73997805e-01,  1.65335551e-01,  2.88620312e-02, -4.93598193e-01,  3.05109710e-01},
   { 9.77136493e-02,  9.98531282e-03,  4.03278947e-01,  5.27393341e-01, -3.48375440e-01,  5.26764214e-01, -3.63503158e-01, -6.72324955e-01,
    -7.27468312e-01, -5.28613389e-01,  3.20173353e-01,  4.23160791e-01,  9.01532054e-01,  1.03192472e+00,  5.30101538e-01,  3.86385828e-01,
    -2.64910161e-01, -8.02065313e-01, -1.27107286e+00, -4.31251496e-01, -2.29329586e-01, -6.62056953e-02, -7.49776006e-01, -2.76432544e-01,
    -3.25846195e-05,  2.31977046e-01,  9.72856954e-02,  1.91518456e-01, -3.06970507e-01,  8.68629098e-01,  3.79038393e-01, -2.20791399e-01},
   { 5.77579588e-02, -1.35847524e-01,  1.05277956e+00,  8.69037271e-01,  2.91811824e-01, -3.17595512e-01, -3.68806235e-02, -9.11299527e-01,
    -8.45431805e-01, -6.05215371e-01,  4.22294766e-01,  1.00655591e+00,  4.82577384e-01,  1.95227012e-01, -2.23323360e-01, -3.38763684e-01,
     1.28622487e-01,  7.33412683e-01, -1.39275780e-02, -6.82084680e-01, -3.19747120e-01,  9.45451185e-02, -1.18559241e-01,  1.01781510e-01,
     1.83742106e-01, -1.54507071e-01, -2.61891186e-01, -1.07213743e-01,  2.48674646e-01,  1.75280213e-01,  1.02200873e-01,  5.45483947e-01},
   { 1.30442774e+00,  1.87956914e-01,  1.11512125e+00,  1.42716503e+00,  6.78069830e-01,  1.52681060e-02,  4.04382274e-02, -8.78553331e-01,
    -1.27147496e+00, -3.31369758e-01,  9.39605474e-01,  1.06784368e+00, -8.39618266e-01, -4.35169935e-01, -2.17251673e-01,  2.39443064e-01,
     1.55555204e-01,  7.84391105e-01,  2.90096313e-01, -6.27673566e-01,  1.91916358e-02,  2.93910921e-01,  6.99236274e-01,  5.64076483e-01,
     2.13758573e-01,  6.07368350e-01,  3.90843391e-01,  3.70174907e-02,  2.68338531e-01,  2.25417569e-01,  6.62197620e-02,  3.01882744e-01},
   { 4.32769388e-01,  6.92258298e-01,  1.77257681e+00,  5.07403910e-01, -1.66796312e-01,  5.90823479e-02,  2.29299963e-01, -4.90704924e-02,
    -6.14863575e-01, -5.42319834e-01, -8.62660185e-02,  9.22225654e-01, -1.07879229e-01, -8.53749633e-01, -4.73118395e-01,  5.72765648e-01,
    -1.15801901e-01, -6.03586286e-02,  1.59264103e-01, -2.21104503e-01, -5.08609295e-01, -7.00068474e-01, -2.13985726e-01,  2.05468550e-01,
    -6.10099547e-02,  3.66201907e-01,  1.49302632e-01, -1.09031066e-01,  3.55454862e-01,  3.93108606e-01, -2.43645176e-01,  6.67091489e-01},
   {-3.17802548e-01, -5.16598105e-01, -8.74083638e-02, -5.55469632e-01,  2.19835594e-01,  7.18832135e-01,  1.05397129e+00,  8.78907926e-03,
    -3.18301886e-01, -1.18292734e-01,  4.05923605e-01, -5.02354622e-01,  2.05440372e-02,  1.82925731e-01,  6.02015257e-01,  4.32554066e-01,
    -5.23157656e-01, -3.56237948e-01,  5.38646162e-01,  1.18421066e+00, -3.07410154e-02, -5.57202548e-02,  1.36821598e-01, -1.22181982e-01,
     3.67114514e-01,  3.31258923e-01,  1.82088569e-01,  3.99754047e-01,  1.68711990e-01,  5.45489371e-01,  2.49509126e-01,  3.31508994e-01},
   {-4.94696915e-01,  1.08208764e+00, -5.27785540e-01,  1.04393043e-01, -1.13778142e-02,  2.50182897e-01,  4.28116530e-01, -7.13162363e-01,
    -6.83386445e-01,  2.28451699e-01, -4.73377556e-01, -1.33610442e-01, -2.69803733e-01, -4.99003589e-01, -1.82525754e-01, -8.82366419e-01,
     1.29397854e-01,  5.40002406e-01,  6.12839520e-01, -6.73002675e-02, -1.66146711e-01,  4.27792579e-01,  2.79886276e-01,  2.99693674e-01,
     2.99677074e-01,  4.21444625e-02, -4.29231934e-02,  2.40138397e-01,  5.84135711e-01,  1.25065669e-02, -1.48218587e-01,  4.73904401e-01},
   { 1.36513591e-01,  3.37560028e-01,  7.98594356e-01,  6.98507488e-01, -4.15651798e-02, -9.08317387e-01, -1.06783760e+00, -7.04658866e-01,
    -4.50194895e-01,  1.81606457e-01,  2.49751695e-02,  3.62879932e-01,  4.49315816e-01, -3.71618211e-01, -1.08663186e-01, -3.68263036e-01,
    -5.04993737e-01,  2.82162189e-01,  1.58723593e-01, -5.72832525e-01, -3.97708893e-01, -1.87504262e-01,  3.44917208e-01, -4.63174701e-01,
    -9.69438627e-02, -4.69197094e-01, -1.92638382e-01, -4.19783533e-01, -4.33072522e-02, -2.69885659e-01, -2.06440881e-01,  3.38067263e-01},
   {-8.11360404e-02,  4.96731818e-01, -9.43959713e-01,  8.05963218e-01,  4.60634716e-02, -3.54527920e-01, -5.28108776e-01, -6.67046070e-01,
     1.54738069e-01,  4.60794903e-02,  4.66388702e-01,  5.55213630e-01,  4.51000154e-01, -5.57678789e-02, -3.82068008e-01, -4.22939241e-01,
     5.68312526e-01,  5.90420961e-01,  3.81851226e-01, -5.21890759e-01, -2.72430897e-01, -5.40022433e-01, -5.32651067e-01, -9.00207400e-01,
    -2.04629922e+00, -1.16840458e+00,  1.15883417e-01,  8.58871877e-01,  7.97535539e-01,  5.61979234e-01,  7.88902049e-04,  1.79438341e+00},
   { 4.51146841e-01, -1.50245205e-01, -3.81672651e-01,  2.50607613e-03,  2.80440953e-02,  2.54149824e-01,  5.71123123e-01,  4.69325840e-01,
    -7.91713655e-01, -2.47540042e-01,  2.62527108e-01, -3.26804459e-01, -1.95333040e+00, -1.37280726e+00,  8.05086568e-02,  5.17947435e-01,
     8.52892101e-01,  6.86868310e-01,  3.74344468e-01,  4.11920011e-01,  3.37282658e-01, -3.98151487e-01,  1.00099280e-01, -2.02304050e-01,
    -7.24533796e-02,  5.31372316e-02,  1.64105296e-01, -3.99307698e-01, -7.56694525e-02, -1.38883561e-01, -1.17155977e-01,  1.88668087e-01},
   { 2.89344400e-01,  1.32683539e+00,  4.97693777e-01,  8.64698708e-01,  8.10962200e-01,  1.41331851e-01, -8.16987336e-01, -1.33400452e+00,
     1.12547673e-01, -1.38892770e-01,  4.20497805e-01,  3.25889319e-01, -1.22881413e+00, -4.23795879e-01,  1.26404476e+00,  1.28697824e+00,
     1.09916985e+00,  7.09684610e-01,  7.46542513e-01,  1.29074171e-01,  3.63985658e-01, -3.68252009e-01,  1.74752906e-01, -4.49925959e-01,
    -1.48223913e+00, -1.33676875e+00, -6.95751905e-01, -8.68212461e-01, -1.33605528e+00, -7.44878531e-01,  5.62585108e-02,  1.49270356e+00},
   { 1.26918063e-01, -3.34203541e-01,  6.13633335e-01,  7.91093521e-03, -1.97775483e-01,  5.59759557e-01,  2.89133310e-01,  3.26770335e-01,
     6.72897100e-01,  5.66910565e-01, -3.26687783e-01, -7.84307182e-01, -2.63504982e-02,  6.78018689e-01,  2.96802312e-01,  2.17346221e-01,
    -3.97575349e-01, -3.65642905e-01,  2.79619992e-01,  1.10888302e+00,  1.08138859e-01, -5.88045835e-01, -3.83354485e-01, -1.04600340e-01,
    -2.28972938e-02, -4.39291060e-01, -5.44246137e-01, -8.21895748e-02, -4.56192017e-01, -2.15652853e-01,  6.00396454e-01, -8.08806121e-01},
   {-1.21777467e-01,  2.91914135e-01,  8.59076798e-01,  7.56185770e-01, -6.09603822e-01, -5.81959128e-01, -1.32726300e+00, -6.21937633e-01,
     8.10611099e-02, -4.65385109e-01,  5.64049125e-01,  2.61021435e-01,  4.98833954e-01,  8.47004116e-01,  9.46667552e-01,  5.71804941e-01,
    -6.11852348e-01, -1.72441506e+00, -6.68987572e-01, -1.54443622e-01,  1.74189925e-01,  8.64423364e-02,  1.91875584e-02,  2.25147858e-01,
     2.08519056e-01,  4.80296075e-01, -1.78205427e-02,  4.54904914e-01, -1.21347658e-01,  5.43461502e-01, -6.65787101e-01,  3.14891458e-01},
   {-5.17286398e-02, -1.42300546e-01, -1.57993448e+00, -6.03657842e-01, -5.21705210e-01, -1.95142999e-01, -3.65192860e-01, -5.13407230e-01,
    -1.66999891e-01, -6.08079016e-01,  5.59245087e-02,  4.80683893e-03,  4.43889380e-01, -6.55065998e-02, -3.79254043e-01, -7.08629966e-01,
    -2.24453524e-01, -4.03833568e-01,  6.83384761e-02, -3.67117263e-02, -4.32976753e-01, -1.79654464e-01, -2.13563710e-01,  5.62293351e-01,
    -2.18648091e-02, -3.39524597e-02,  5.86733997e-01,  1.78865224e-01,  4.05919194e-01,  7.49691367e-01, -9.22306776e-02,  1.41292536e+00},
   { 2.75416791e-01,  2.78078973e-01,  1.41050935e+00,  4.96897936e-01,  2.98460603e-01,  1.67574957e-01, -4.66651805e-02,  2.42803529e-01,
     3.08266819e-01,  5.30511618e-01, -3.04090381e-01, -3.04249544e-02,  6.21275485e-01,  7.46057510e-01,  1.81742325e-01,  8.09760690e-02,
    -4.36647922e-01,  4.76015508e-01,  4.54270810e-01, -4.43989307e-01,  9.91544798e-02, -5.61400019e-02, -5.30736029e-01, -5.19969642e-01,
    -4.28836405e-01, -4.88515794e-01, -3.72227758e-01, -6.86176479e-01, -7.60455012e-01, -1.30308497e+00, -5.66174090e-01, -1.49986684e+00},
   {-3.46541137e-01,  1.88156292e-01,  2.92080224e-01, -7.37827599e-01, -5.53617120e-01, -9.65046227e-01, -9.90936339e-01, -7.21509755e-01,
    -1.52848601e-01,  4.97948080e-01,  5.83024561e-01,  8.28913450e-01,  4.66018617e-01,  6.75384164e-01,  2.80150026e-01, -2.40722165e-01,
    -9.85231698e-02,  2.27837726e-01, -1.05374947e-01, -2.26116747e-01, -2.92443007e-01, -3.60562652e-02, -2.61750698e-01, -4.89349633e-01,
    -7.83360749e-02, -4.30047475e-02, -2.54225731e-01,  3.43257561e-02, -1.20126247e-01,  3.32310274e-02,  5.08710027e-01,  1.99979618e-01},
   { 5.50450742e-01, -5.34170568e-01,  6.18889272e-01,  8.09702754e-01,  2.09794626e-01,  9.59963739e-01,  1.27888370e+00,  6.16960287e-01,
     1.29113689e-01,  2.77205706e-01,  5.42262554e-01, -1.45433098e-01,  3.46538305e-01,  9.66181338e-01,  2.17197120e-01, -4.53553677e-01,
    -5.25506437e-01, -4.96189110e-02, -8.22910964e-01, -4.45771992e-01, -3.10925573e-01, -6.23169541e-01, -8.27901065e-01, -4.84834224e-01,
    -2.43585318e-01,  3.09191104e-02, -3.32834661e-01, -2.77395278e-01,  2.75855958e-01, -7.15884209e-01, -3.86427850e-01, -1.04428959e+00},
   { 5.94162270e-02,  2.10233852e-01, -9.80776966e-01, -2.09556913e+00, -2.02856040e+00, -1.96012902e+00, -8.47634375e-01,  1.77103662e+00,
     1.23804152e+00, -3.85871857e-01,  6.33653045e-01,  9.28409219e-01,  9.72418249e-01,  5.79660654e-01,  6.44326627e-01,  1.09657919e+00,
     6.19782582e-02,  1.84994470e-02, -9.48593114e-03,  4.02101755e-01, -3.36803228e-01, -7.46915698e-01,  9.63702574e-02,  2.10371673e-01,
    -5.34672678e-01, -5.81135333e-01,  3.38773340e-01, -1.14762597e-01,  5.32567799e-01,  2.84157276e-01, -4.23649520e-01,  5.19772708e-01},
   {-8.73055905e-02,  4.10315543e-01,  1.35626245e+00,  8.95350218e-01, -2.97603428e-01, -1.32571852e+00, -1.50267279e+00, -3.33941996e-01,
     7.35044837e-01,  1.12810814e+00,  1.24200034e+00, -8.41242075e-02, -1.28455132e-01,  4.91117179e-01,  1.16331744e+00,  7.11404920e-01,
    -2.20301569e-01, -1.09219015e+00, -8.43767822e-01,  7.46495962e-01,  4.31569785e-01, -9.86341238e-02, -1.62566692e-01,  2.20428016e-02,
    -1.38911381e-01,  4.38385867e-02,  1.18062869e-01,  1.76969826e-01, -1.43832847e-01, -6.09614141e-02,  3.73434991e-01, -3.01397771e-01},
   {-2.10614547e-01,  6.49155825e-02,  4.18399513e-01, -7.74901152e-01,  5.23544431e-01,  9.88374829e-01,  8.48615408e-01, -2.35550478e-01,
    -4.59639370e-01,  1.77775443e-01,  3.14582199e-01,  1.71551138e-01, -4.84374553e-01, -1.87261581e-01,  5.49779475e-01, -1.47783905e-01,
    -1.17983557e-01,  1.26588568e-02, -4.41278927e-02, -3.00054461e-01,  5.15801072e-01,  2.17004642e-02, -2.56700248e-01,  1.87997684e-01,
     3.84020805e-02,  5.89712381e-01,  4.59561467e-01,  3.38837236e-01,  1.12604506e-01,  6.54697180e-01,  5.05406916e-01,  2.57792413e-01},
   {-2.38918900e-01, -1.53219447e-01, -1.78863740e+00, -9.58065510e-01, -1.18475568e+00, -6.92213655e-01, -1.55600682e-01,  1.72154568e-02,
    -3.85950506e-02, -7.58318007e-01, -5.31479940e-02,  1.41187027e-01,  1.31375611e+00,  2.09690601e-01, -2.35776186e-01,  2.41358966e-01,
     1.15468979e+00,  4.17057604e-01, -2.51575351e-01, -4.80248421e-01, -8.45569015e-01, -4.80026484e-01, -3.76361877e-01,  3.30943286e-01,
    -5.98743372e-02, -4.89168167e-02,  3.24648798e-01,  2.34034523e-01,  6.03407860e-01, -1.59502581e-01, -1.00938447e-01,  1.21841550e+00},
   {-6.40676558e-01, -9.54049751e-02,  8.95245731e-01,  2.99530119e-01,  9.68113780e-01,  5.68661153e-01, -7.57260993e-02, -4.55280751e-01,
    -2.95818001e-01, -9.17186216e-02, -4.83864129e-01, -1.02718782e+00, -1.05198526e+00, -5.59702873e-01, -1.60080865e-01,  2.10744679e-01,
    -3.95746350e-01, -1.64422441e+00,  1.57639980e+00,  1.46237278e+00,  1.68670058e-01,  4.76711802e-02,  3.48353982e-01,  8.63235652e-01,
     6.35741115e-01,  7.22424805e-01,  6.00609124e-01, -4.21630889e-02,  3.62407535e-01,  1.75223261e-01, -2.30187282e-01,  1.15798868e-01},
   { 5.42963266e-01,  1.48306608e-01, -4.10945624e-01, -3.12392823e-02, -8.67794007e-02, -1.25943017e+00, -1.36547995e+00, -9.89837527e-01,
    -6.45375907e-01,  7.00268030e-01,  1.71323168e+00,  1.02942526e+00,  3.04960966e-01, -5.37826002e-01, -1.81997158e-02,  2.68988341e-01,
     1.00732052e+00,  1.48061335e+00,  1.27448782e-01, -1.87797070e+00, -1.00132287e+00,  3.91801268e-01,  3.51822942e-01, -7.16098845e-01,
    -8.80728424e-01,  7.91897923e-02, -2.27610737e-01, -2.08652049e-01, -9.39808413e-02, -3.05285335e-01,  1.13599330e-01,  1.27599165e-01},
   {-3.08788985e-01, -5.17291240e-02, -3.60893995e-01, -5.27698696e-01, -8.85259211e-01, -8.57012630e-01, -2.51576543e-01, -3.51107448e-01,
     4.17362869e-01,  1.95475861e-01, -1.31203875e-01,  2.41699275e-02, -3.31371367e-01,  9.39495936e-02,  5.96532822e-01,  1.87670439e-01,
     2.14801937e-01, -1.82969302e-01, -1.88634545e-01,  2.53306180e-01, -3.96492034e-01, -2.31490344e-01, -2.61542443e-02, -2.66073585e-01,
    -3.51963073e-01, -5.13284147e-01, -1.42134458e-01,  1.30419983e-02, -2.58535057e-01, -5.04047990e-01, -4.05321121e-01,  3.42541374e-02},
   { 2.24855974e-01,  7.15689436e-02, -9.33637023e-02, -1.92963099e+00, -1.01086748e+00, -1.37991011e+00, -6.51526898e-02,  2.05678391e+00,
     1.35108101e+00,  1.32633996e+00,  1.82196915e+00,  8.05768013e-01, -7.45108187e-01, -3.78187209e-01,  2.71082997e-01,  6.62090838e-01,
     2.60865331e-01, -1.07479239e+00, -5.51370144e-01, -4.85321045e-01, -8.92230749e-01,  1.18172042e-01,  3.43916267e-01,  4.88690972e-01,
    -3.43215078e-01, -6.78772271e-01,  6.01633430e-01,  8.02821279e-01,  4.47898120e-01,  3.01013947e-01,  3.22085433e-02,  1.41919553e-01},
   {-2.09901646e-01,  5.69592677e-02,  7.06693172e-01,  1.01850307e+00, -3.12549084e-01, -1.93609369e+00, -3.15345788e+00, -8.47533882e-01,
     7.89660394e-01,  6.09931707e-01,  1.02723372e+00,  8.06290567e-01,  9.28791940e-01,  3.32486987e-01, -1.66681290e-01, -2.07396343e-01,
    -1.23927265e-01, -2.92073607e-01, -4.95106220e-01, -4.14989382e-01, -5.53123839e-02, -4.74051237e-02, -5.25805950e-01,  1.50926456e-01,
     6.50297329e-02, -1.73491158e-03,  3.00799906e-01, -2.22514868e-01, -2.05352515e-01,  8.81376117e-02, -3.22959721e-02, -6.85043782e-02},
   {-2.71397345e-02,  2.00593665e-01,  9.38399434e-01,  1.09508944e+00,  2.13842914e-01, -2.08800212e-01, -5.77696860e-01, -4.70740683e-02,
     7.41624832e-01,  8.86444747e-01,  9.31010931e-04, -4.43822533e-01,  5.51066510e-02, -3.89417708e-01, -4.42322612e-01, -7.46703088e-01,
    -1.25832915e+00, -6.62755013e-01, -4.45552170e-01, -7.46072114e-01,  3.09166253e-01,  9.27296042e-01,  2.72115648e-01,  2.27010518e-01,
    -7.70863965e-02, -1.87961906e-01,  8.27691406e-02,  1.14920232e-02,  2.58867759e-02, -9.89737585e-02, -4.17618126e-01, -4.11687523e-01},
   {-1.31588385e-01, -3.31570089e-01, -2.60620046e+00, -3.85925204e-01, -1.11438060e+00, -6.71160638e-01, -7.66008675e-01,  3.38787884e-01,
     1.21395004e+00,  3.70286673e-01, -3.50847036e-01,  1.29001588e-02,  6.84871852e-01, -3.19000214e-01, -2.60265082e-01, -1.38177350e-01,
     4.82907802e-01,  4.25522864e-01,  1.04510975e+00,  1.19055402e+00,  1.19065881e-01,  3.22707593e-02,  9.18357968e-01,  8.91610920e-01,
    -2.18498230e-01,  2.22114608e-01, -1.02004111e-01, -7.08780997e-03,  3.89858902e-01, -8.29749584e-01, -5.08253217e-01,  8.82748127e-01},
   { 6.09616756e-01,  1.29721146e-02,  2.16302216e-01, -3.25623602e-01,  4.62434351e-01,  6.91724122e-01,  8.47097278e-01,  2.72415131e-01,
    -4.92998660e-01, -7.31445551e-01, -5.58804333e-01,  2.79879212e-01,  1.01520419e+00,  7.70705044e-01, -1.88092574e-01, -9.85085309e-01,
    -8.98002625e-01,  9.78648901e-01,  1.00547910e+00,  9.93729651e-01,  1.14089251e+00, -2.89685041e-01,  8.34418163e-02, -5.69924951e-01,
    -1.92215189e-01, -3.86454791e-01,  1.86682343e-01, -4.10494395e-02, -4.16223586e-01, -4.89199013e-01,  3.34263891e-01, -4.37069952e-01},
   {-1.50055915e-01, -1.18879128e+00, -7.55331933e-01, -2.64888167e-01,  3.28384489e-01,  1.08316576e+00,  1.11344898e+00,  8.13031077e-01,
    -1.10429630e-01, -4.01498020e-01, -1.02189220e-01, -4.87291999e-02, -5.80838382e-01, -1.56639785e-01,  1.46071315e-01, -1.63109556e-01,
    -4.01324220e-03,  6.88338935e-01,  5.72036743e-01,  1.04938269e-01, -1.94316700e-01, -1.01990521e-01,  4.29981351e-02, -1.73480541e-01,
    -5.90608940e-02,  3.64750952e-01,  4.28059310e-01,  6.30519688e-02,  3.54592830e-01,  2.03205705e-01, -9.83137265e-02,  2.55179584e-01},
   { 3.34018141e-01,  9.19339433e-02, -9.37488735e-01, -1.58985883e-01, -2.34437183e-01,  4.46033359e-01,  6.80893883e-02, -2.54874200e-01,
    -2.05730960e-01, -6.89208865e-01, -1.83383495e-01,  5.49227297e-02,  7.29929507e-01,  1.37733877e-01,  3.55806679e-01, -1.14520162e-03,
    -5.76846719e-01, -9.01943326e-01, -3.67220044e-01, -2.95753479e-01, -4.89759177e-01, -4.94989395e-01, -4.83644158e-02, -3.52135934e-02,
     4.12506014e-01,  4.57158744e-01,  8.22710514e-01, -3.59969556e-01,  1.53341830e-01,  1.22669153e-01, -5.96871138e-01,  2.32236624e-01},
   {-1.88093960e-01,  1.17506993e+00,  2.16889596e+00, -5.52729785e-01, -4.81195241e-01, -1.50705399e-02, -7.17879236e-02,  1.27165806e+00,
     6.79956377e-01,  4.07872081e-01, -1.13149852e-01,  5.97544789e-01,  6.89860284e-02, -1.61169723e-01, -7.48376489e-01, -9.62880790e-01,
    -6.42384470e-01, -1.55190593e-02,  5.26665092e-01,  3.39248747e-01,  5.92645764e-01, -2.66527534e-01,  2.82511622e-01,  3.31140935e-01,
    -2.04388365e-01, -5.58894984e-02, -2.04068035e-01, -1.58463389e-01, -5.07304251e-01, -9.15169418e-02, -8.86029080e-02, -8.77082229e-01},
   {-2.31253728e-01,  3.36241841e-01,  2.26652235e-01, -9.82471406e-01, -1.10872114e+00, -8.65122676e-01, -1.83138162e-01,  9.80328202e-01,
     1.05855417e+00,  2.65206903e-01,  6.63143456e-01,  1.90015465e-01, -1.97829917e-01,  2.24270687e-01,  8.91981065e-01,  9.16047633e-01,
     3.02681953e-01, -3.97982955e-01,  3.30643132e-02, -4.36084807e-01, -6.53469741e-01, -3.50820601e-01, -7.93472588e-01,  8.49667005e-03,
     1.68021947e-01,  4.52724770e-02,  4.94257025e-02,  1.03585958e-03, -2.23907866e-02,  2.59717345e-01, -2.92328984e-01,  4.28047746e-01},
   {-1.19027205e-01,  1.84160963e-01,  3.40962470e-01, -6.30416334e-01, -4.01535094e-01,  3.18569481e-01, -5.75452566e-01,  2.31175542e-01,
    -2.14162797e-01,  2.57133394e-01,  6.22753501e-01, -1.42189071e-01, -1.49278939e-01,  5.31018138e-01,  8.69689524e-01,  9.45185125e-01,
     3.52591842e-01,  4.46985006e-01,  7.37534046e-01, -6.77537143e-01, -7.35120103e-02,  2.32291684e-01,  3.94743174e-01, -2.59404987e-01,
    -2.58724004e-01, -3.80474716e-01, -4.12942648e-01, -6.11949503e-01, -5.52163184e-01, -9.83174324e-01, -6.32169604e-01,  1.92739949e-01},
   {-3.16468090e-01,  5.89697242e-01, -5.27850017e-02, -8.57836902e-02, -1.21291232e+00, -1.81523049e+00, -8.42397332e-01,  8.81891489e-01,
     1.24441898e+00,  7.77580142e-02, -1.12141716e+00, -1.45279872e+00, -2.24784955e-01,  8.65566015e-01,  8.76036286e-02,  2.08276689e-01,
     1.07300079e+00,  6.09022796e-01,  8.37793574e-02,  7.49459207e-01, -2.79181153e-01, -6.08220935e-01,  9.81175154e-02,  2.12591067e-01,
    -5.38363993e-01,  1.91644982e-01,  2.03014147e-02,  1.34903952e-01,  1.50869310e-01, -1.17648937e-01,  6.04871213e-02,  8.70345607e-02},
   {-4.05464530e-01, -1.45307228e-01,  8.95051777e-01, -4.15506482e-01, -5.12978196e-01,  2.12825492e-01,  3.31459373e-01,  9.74313319e-01,
     3.48600119e-01,  1.11158335e+00,  1.13318741e+00,  3.33444983e-01, -3.41349453e-01,  3.84742320e-02,  6.71153188e-01,  2.64926344e-01,
    -1.29475999e+00, -1.07440615e+00, -7.25329041e-01, -6.17705584e-01,  5.21420464e-02, -6.41388595e-02, -3.44799131e-01, -1.04209259e-01,
     5.25835872e-01, -1.21893033e-01,  2.27427050e-01,  1.64991528e-01, -2.52433598e-01, -1.24860160e-01, -5.57419099e-03, -4.82737064e-01},
   { 2.25882623e-02, -2.65274912e-01,  3.10258627e-01,  4.53753918e-01,  1.56382710e-01, -2.54128188e-01, -6.95977092e-01, -1.65782094e-01,
    -1.46215081e-01, -4.68245327e-01, -9.81310844e-01, -9.28232074e-01, -1.42791629e+00, -1.56835362e-01,  1.45833671e+00,  1.09664142e+00,
     1.72931457e+00,  8.53480160e-01,  2.41262212e-01,  6.70401827e-02,  5.89161873e-01, -4.04492885e-01, -4.38707024e-02,  2.33565457e-02,
     9.11384597e-02,  2.48191193e-01,  9.92300957e-02, -3.50890070e-01, -2.59964317e-02, -3.99384141e-01, -2.64396697e-01,  5.59622228e-01},
   { 6.99017227e-01, -1.94407985e-01,  1.26649213e+00, -4.57212329e-01, -1.42156601e+00, -1.03997767e+00, -9.56290245e-01, -5.46265721e-01,
     8.66251349e-01,  1.72789872e+00,  7.71627605e-01, -7.43869767e-02, -8.64181936e-01, -6.44538045e-01, -8.26487020e-02,  1.90629855e-01,
     7.47314215e-01,  6.37535453e-01,  6.82851553e-01, -2.83031464e-01,  1.85884327e-01,  5.53936481e-01,  1.33782342e-01, -4.92791384e-01,
    -3.45513344e-01,  1.69313759e-01,  3.90829176e-01, -4.09621522e-02, -1.51334122e-01,  1.75325483e-01,  6.21550441e-01, -1.88992426e-01},
   { 5.73856160e-02,  7.93010056e-01, -2.76854426e-01, -1.14964843e+00, -1.14624655e+00, -1.56124318e+00, -9.61414754e-01,  6.72547333e-03,
     6.46004617e-01,  1.04872274e+00,  8.45958352e-01,  9.72750604e-01,  5.54534256e-01,  7.13737845e-01,  5.75574458e-01, -7.58433715e-03,
     3.37328851e-01,  1.95530709e-02,  3.35364968e-01,  9.80782136e-02, -2.95436114e-01, -6.42884195e-01, -5.93237914e-02, -3.82565528e-01,
    -8.58210981e-01, -3.78004700e-01,  3.96649092e-01,  4.53587621e-01, -2.73905188e-01, -4.23545614e-02,  4.80886340e-01,  4.50372696e-01},
   {-2.92365462e-01, -2.33374443e-03, -4.22308356e-01,  5.23607850e-01, -3.71430904e-01,  4.81797040e-01,  1.40929091e+00,  4.92721021e-01,
     4.80177313e-01,  1.01574905e-01,  1.09982356e-01,  1.63780183e-01,  2.64655143e-01,  2.54432082e-01,  6.14515066e-01, -7.27270246e-02,
    -3.09080034e-01, -7.37987280e-01, -3.94717425e-01, -4.57818925e-01, -1.04632223e+00,  5.93679607e-01,  9.97898042e-01,  7.14593828e-01,
     5.26126504e-01, -3.28633577e-01, -1.70016721e-01,  2.34195963e-01,  2.84805208e-01, -1.02922402e-01,  1.89917162e-01,  1.44963002e+00},
   { 2.47505337e-01, -4.36913311e-01,  2.29172409e-01,  7.03881741e-01, -3.75546105e-02, -2.91756570e-01, -4.39549416e-01, -1.17124844e+00,
    -9.56057489e-01,  2.33969510e-01,  7.84746945e-01,  1.25110781e+00,  1.88889217e+00,  1.20177829e+00, -6.61268651e-01, -1.64133394e+00,
    -9.90989923e-01,  1.56505983e-02,  4.39796373e-02, -1.10930157e+00, -1.11097284e-02,  1.13239765e+00, -3.55795503e-01, -2.47077957e-01,
     3.72107476e-01,  1.31639376e-01,  2.60930479e-01,  3.70123655e-01,  3.69172543e-01, -3.69537085e-01, -1.84677184e-01, -6.33601129e-01},
   { 8.20127353e-02, -4.10292566e-01,  1.24771431e-01,  7.27105916e-01,  8.29689026e-01,  1.28121769e+00,  4.18843359e-01, -1.14480901e+00,
    -8.21771264e-01, -3.57485920e-01, -3.11406076e-01, -5.09397611e-02,  1.09716654e+00,  1.12843168e+00,  2.40456872e-02, -1.11861813e+00,
    -1.60783136e+00, -8.28137100e-01,  1.61265090e-01,  1.52441293e-01,  1.51529640e-01,  4.94270712e-01, -1.72284156e-01,  5.51344454e-01,
     3.27064693e-01, -1.00171804e-01,  4.78132874e-01,  5.01702249e-01, -3.85660887e-01, -9.36746523e-02, -5.35451360e-02, -3.27514827e-01},
   {-4.93799336e-03, -8.27922106e-01, -2.65549809e-01,  5.67848384e-02,  5.74994922e-01,  1.11938846e+00,  1.23249269e+00,  2.51020193e-01,
    -9.53111887e-01, -5.93600631e-01, -9.02963281e-01, -6.35932565e-01, -1.10076301e-01,  7.94589758e-01, -1.12595439e-01, -3.20209444e-01,
     1.97208226e-01, -2.52662629e-01, -5.56902289e-01, -5.22990286e-01, -1.54072553e-01,  1.28540739e-01, -1.44128501e-01,  2.85198480e-01,
     4.48490381e-01,  1.19287431e-01,  2.38922387e-01,  8.53999406e-02, -1.56707987e-01,  6.20701492e-01, -1.67972460e-01,  4.98588026e-01},
   {-3.75304312e-01, -4.86058623e-01,  4.38410372e-01, -2.76413798e-01,  5.82536519e-01,  5.96084535e-01, -3.19962651e-02,  2.08955199e-01,
    -4.43748981e-02, -8.65543187e-01, -1.58758628e+00, -2.05210090e+00,  1.13724910e-01,  1.78797591e+00,  1.60228837e+00,  6.49689794e-01,
     7.13477254e-01, -1.69508815e-01, -4.81230110e-01, -5.19371927e-01, -1.40333518e-01,  5.94248891e-01, -2.53020227e-01, -2.00121522e-01,
     1.18783936e-01,  6.09045088e-01, -4.12710875e-01,  5.24012506e-01, -2.12232843e-01,  3.10812742e-01,  2.49064758e-01, -1.34810969e-01},
   {-5.88500977e-01,  4.62842554e-01,  3.70296776e-01,  1.60975969e+00, -8.68761912e-02,  1.39435664e-01, -5.95348887e-02,  6.85940802e-01,
     4.88863200e-01, -1.35878444e+00, -1.24032629e+00,  1.05932020e-01,  6.02828681e-01,  4.94625151e-01,  6.25086963e-01,  5.37483633e-01,
     1.86126724e-01,  2.24374592e-01, -4.50308859e-01, -3.38320494e-01,  4.07914072e-01, -4.64423686e-01,  4.81445402e-01, -2.67247736e-01,
     2.23540202e-01,  3.51978838e-01, -2.05540240e-01,  1.11898616e-01, -3.71206664e-02, -6.73939884e-01, -3.22719991e-01,  1.40900582e-01},
   {-1.68380976e-01, -1.42546743e-01,  3.63463640e-01, -3.13543789e-02, -5.00756025e-01, -6.59300566e-01, -2.03821287e-01,  5.43001294e-01,
     8.14316928e-01,  1.16437590e+00,  1.25364244e+00,  9.75899771e-02, -1.25461817e+00, -6.68904066e-01,  5.38611472e-01,  7.20434338e-02,
    -3.69507611e-01, -8.07490885e-01, -6.14724010e-02,  8.01037729e-01,  7.86850333e-01,  8.49016756e-02, -3.85482043e-01,  5.81923664e-01,
    -5.22613600e-02, -5.54158390e-02,  7.64370203e-01,  3.84027213e-01, -1.44604668e-01,  2.47072205e-01,  5.89061417e-02,  5.19965410e-01},
   {-4.60680276e-02, -4.41720247e-01, -7.90596128e-01,  2.33373582e-01,  9.99681413e-01,  1.64095700e+00,  1.48761570e+00, -6.32380843e-02,
    -1.32370901e+00, -1.00848508e+00, -1.53197795e-02,  7.24762440e-01, -7.32978135e-02, -2.82989293e-02,  3.06106657e-01,  2.15366140e-01,
     2.37525906e-02, -3.94910425e-01, -8.13611627e-01, -2.11964250e-01,  3.44639421e-02,  3.08666956e-02, -2.32450172e-01,  2.68646836e-01,
     5.32620966e-01,  4.30261642e-02,  7.38608837e-03,  2.91827679e-01, -7.75111988e-02, -1.78451706e-02,  1.20540664e-01,  1.49333209e-01},
   {-3.69893909e-01,  8.12076151e-01, -6.18528306e-01,  1.76178247e-01, -5.75072348e-01, -9.20675933e-01, -8.24441016e-01, -6.28511384e-02,
     8.54103506e-01,  6.12417102e-01,  7.26184785e-01,  2.64388677e-02, -4.63248521e-01, -6.30421162e-01, -9.13033664e-01, -1.05539060e+00,
    -7.39524126e-01, -5.65428674e-01,  1.29917181e+00,  1.46823239e+00,  2.67680679e-02,  7.74538517e-01,  4.91863668e-01,  8.16710711e-01,
    -1.86800122e-01, -5.35370767e-01,  2.03881040e-01, -1.30311877e-01,  4.45932955e-01, -3.97474140e-01, -2.50314325e-01,  1.01593221e-02},
   { 1.60504907e-01, -5.25994956e-01, -2.61291295e-01,  3.05877924e-01, -3.40732098e-01, -9.94747460e-01, -7.90075421e-01, -5.72486103e-01,
    -1.31825030e-01,  4.76672679e-01,  7.76582360e-01,  7.62667418e-01,  5.15711188e-01,  2.22088188e-01, -7.20236748e-02, -2.95608900e-02,
     3.66114229e-01,  8.31578016e-01, -1.13086842e-01, -1.06445217e+00, -2.47737542e-01,  7.48529285e-02,  1.73928440e-02, -4.95690107e-01,
     8.34365338e-02, -7.66094387e-01, -1.86092824e-01, -3.53344828e-01, -3.85324568e-01, -4.74535152e-02, -5.27168989e-01,  3.72969769e-02},
   {-1.43996567e-01, -4.80596960e-01, -6.98417842e-01, -1.50729740e+00, -4.09222305e-01,  1.16323245e+00,  1.37486041e+00,  8.10889840e-01,
    -7.51006082e-02,  3.89972836e-01, -1.72851324e-01, -2.61026055e-01, -7.99454689e-01,  1.69640090e-02,  1.50400475e-01, -2.66654342e-02,
    -1.51956752e-01, -4.87626232e-02,  3.52294952e-01,  9.93560851e-01,  7.87810236e-02, -7.82109946e-02, -5.93999624e-01, -1.50334343e-01,
     4.58590865e-01,  2.75500625e-01, -2.86449939e-02, -1.04374021e-01,  3.07414949e-01,  2.78782728e-03,  5.27502239e-01, -3.99874032e-01},
   { 1.09854303e-01,  1.43024057e-01, -4.70577389e-01, -3.63571107e-01, -2.00938523e-01, -4.63002086e-01, -5.99134207e-01, -7.13035166e-01,
    -5.56767881e-01, -8.74141604e-02, -1.73385009e-01, -5.50219119e-01, -1.08322608e+00, -1.39629912e+00, -5.00929713e-01,  6.75515950e-01,
     1.60922551e+00,  9.32865560e-01,  5.22951663e-01, -2.46055853e-02, -8.45283940e-02,  4.41719145e-02,  2.12080881e-01, -3.81225139e-01,
    -1.24651372e-01, -2.86910366e-02, -1.96049795e-01, -2.32433259e-01,  3.42311561e-01, -1.68125957e-01,  2.04800919e-01,  4.26388204e-01},
};

const float GRNN0_U[64][64] = {
   {-4.24308825e+00, -1.26405287e+00, -2.30770540e+00,  3.16232473e-01,  9.15558994e-01, -2.75488234e+00,  2.46774268e+00, -1.54160595e+00,
    -8.94146681e-01,  3.43145776e+00, -1.87329710e+00,  1.51578224e+00,  1.07425129e+00, -2.07857370e+00, -1.49637416e-01, -2.44136167e+00,
    -2.53045702e+00,  8.77596438e-01, -1.53759038e+00, -1.46463561e+00, -2.75292134e+00,  3.59883219e-01, -1.87551171e-01, -7.34141171e-01,
    -6.78185642e-01, -7.52160668e-01,  5.70221841e-01, -1.28938928e-01, -2.50146604e+00,  1.10470927e+00, -8.07074785e-01,  6.13782525e-01,
    -2.46635127e+00,  8.40772688e-01,  7.89683282e-01, -1.56072640e+00, -3.29873890e-01,  6.62312508e-01, -3.00332260e+00, -1.02146983e+00,
     2.03370023e+00, -9.72253203e-01, -2.46664643e+00,  1.33410722e-01, -1.07250094e+00, -8.46745729e-01, -8.93756866e-01,  4.05335665e-01,
    -1.65309501e+00, -6.07835114e-01, -4.26680177e-01, -7.68288255e-01,  4.58843994e+00, -8.05549860e-01, -8.10975373e-01, -4.81724948e-01,
     2.73491454e+00, -1.02642000e-01, -1.54010463e+00, -2.07827735e+00,  3.35509515e+00, -1.28198838e+00, -9.58726048e-01,  6.84973955e-01},
   {-1.12243450e+00, -7.25866985e+00,  7.83373058e-01, -4.49387252e-01,  1.58129823e+00,  1.72528219e+00, -8.39035928e-01,  3.42691278e+00,
    -2.89694858e+00, -4.99543047e+00,  1.24512863e+00, -1.32960439e+00, -2.12733078e+00,  1.22095537e+00,  3.37380743e+00,  2.32951999e+00,
    -9.40782428e-01, -1.77006638e+00,  5.29222727e-01,  1.65941262e+00,  3.14919519e+00,  3.26184392e-01, -3.02943766e-01, -2.25305855e-01,
     6.44767821e-01,  3.76844138e-01,  1.65443647e+00, -4.11099464e-01,  9.02380884e-01, -1.76007199e+00,  1.89502978e+00, -2.56186152e+00,
    -2.67073989e+00,  6.45180702e-01, -3.06043243e+00,  1.55838847e+00, -2.13379696e-01,  2.26011324e+00,  1.63229501e+00,  3.53747100e-01,
    -1.14785008e-01, -1.30215657e+00,  1.78920960e+00,  1.63830733e+00, -3.58592844e+00,  2.45029867e-01,  5.92748702e-01, -1.38742995e+00,
    -3.13856649e+00, -2.99479556e+00,  2.32387885e-01,  1.59169689e-01, -1.01001620e+00,  6.52851105e-01,  2.40413141e+00,  6.45102978e-01,
    -2.12836313e+00, -1.74079013e+00,  1.00524700e+00,  2.75235802e-01, -3.43861556e+00,  1.19484770e+00,  2.08048439e+00, -2.64518929e+00},
   {-3.96691710e-01,  2.68875092e-01, -9.47342587e+00, -1.58124042e+00, -2.09172583e+00, -4.64960068e-01,  1.10356939e+00, -1.52077115e+00,
    -2.25045586e+00, -2.07797909e+00, -1.22212946e+00, -4.38797288e-02, -6.19815159e+00, -1.78110981e+00,  1.28809834e+00,  6.01861119e-01,
     2.92346859e+00,  2.22285494e-01,  2.08414721e+00, -2.55592513e+00,  3.78907013e+00, -5.23523033e-01,  4.58012313e-01, -1.73076272e-01,
     1.28688586e+00,  1.34700716e+00, -7.27810264e-01,  3.52074289e+00, -1.68277740e+00, -1.26543105e+00,  1.83480248e-01, -2.73169208e+00,
    -6.41018689e-01, -8.49391162e-01,  2.40779352e+00, -4.80596972e+00,  3.15533662e+00,  1.51430380e+00,  2.05263948e+00, -3.10345912e+00,
     4.53740805e-01, -9.41327929e-01, -7.62000442e-01, -2.99210763e+00, -5.53348549e-02,  3.72451186e+00,  3.37844586e+00, -1.40308410e-01,
    -2.68753624e+00, -1.72656465e+00,  2.00746584e+00, -9.61216807e-01, -1.74099934e+00, -4.72088242e+00, -4.28851843e+00, -1.81092215e+00,
     2.33016625e-01, -3.98014009e-01,  3.10511994e+00, -3.51662606e-01, -1.56587267e+00,  8.03919971e-01,  5.26296043e+00,  4.22130615e-01},
   {-2.02310777e+00,  1.91757941e+00,  2.27746558e+00, -8.32361126e+00,  8.54138315e-01, -1.02718756e-01,  7.73954913e-02,  2.04202151e+00,
     1.06958258e+00, -1.51409400e+00,  7.90965855e-02, -1.14666569e+00,  4.35122073e-01,  1.22237456e+00, -7.10298419e-02,  2.33217573e+00,
     1.38030791e+00, -1.32725787e+00,  2.90749431e-01,  6.23345077e-01,  2.82541776e+00, -4.69273138e+00, -1.28322494e+00,  1.83597159e+00,
     7.14125216e-01,  1.81133580e+00, -2.72567368e+00, -3.47749019e+00,  1.50551367e+00, -1.33192670e+00, -2.02332163e+00,  2.76342690e-01,
     4.92476225e+00, -3.73311234e+00, -7.98308849e-01,  1.91339529e+00,  1.36854947e+00, -2.93497354e-01,  1.92384899e+00, -1.31601626e-02,
    -1.20129168e+00,  1.14516938e+00,  2.39501953e+00, -2.02795768e+00,  3.78051353e+00,  3.68253618e-01,  2.81931809e-03, -5.31045794e-01,
     2.65210652e+00,  8.76876414e-01,  8.26008916e-01,  1.08071554e+00, -3.95233774e+00,  6.41428411e-01, -4.08412486e-01, -5.59715748e-01,
    -5.94861150e-01,  5.72853088e-01, -2.54480171e+00,  2.95751035e-01, -2.99252009e+00,  2.05432367e+00, -4.18803930e-01, -1.51308715e+00},
   { 1.55632102e+00,  3.94103199e-01,  1.87146401e+00, -1.93966305e+00, -1.08978927e+00,  2.02701449e+00,  2.50005627e+00,  4.54961985e-01,
     2.59372830e-01, -1.13264525e+00, -2.50822365e-01, -1.28099453e+00, -3.28678429e-01,  4.29025233e-01,  3.61139703e+00,  2.35458064e+00,
    -3.51180840e+00, -2.02453136e+00, -7.00753868e-01,  1.71019554e+00, -8.28071609e-02,  5.26835561e-01, -2.05806503e-03,  9.33470309e-01,
     1.06477034e+00,  4.56375688e-01,  9.01473880e-01,  9.78209317e-01, -7.14356303e-01,  1.78088748e+00, -3.22214031e+00,  4.28079635e-01,
    -1.38297784e+00,  7.45465577e-01,  1.78720176e-01, -4.39190388e-01, -1.14964032e+00, -2.12116671e+00,  1.63100040e+00, -1.35129762e+00,
    -8.39075685e-01, -6.18338525e-01,  4.27580535e-01,  7.52912760e-01, -7.06097126e-01,  3.25870335e-01, -5.99148452e-01, -2.92526603e+00,
    -3.81689757e-01,  6.45811796e-01,  1.72570169e+00,  6.90705776e-01,  5.01278520e-01,  3.40370446e-01,  1.66103792e+00,  1.87702864e-01,
    -1.25223064e+00,  7.30956376e-01, -2.61390758e+00,  1.01093137e+00, -1.46217501e+00,  1.04328561e+00,  2.72312522e+00, -3.53340864e-01},
   { 2.19381213e+00,  5.05003810e-01,  3.79330444e+00,  8.15411329e-01,  1.27293360e+00, -6.73739529e+00,  3.87369752e-01,  4.02430207e-01,
    -3.21091413e+00, -9.36277866e-01,  6.20709062e-02, -3.54988670e+00, -4.23676968e+00, -9.64426696e-02, -1.13079107e+00,  5.83081603e-01,
    -6.61293387e-01,  2.36141682e+00, -1.31000054e+00,  2.20549011e+00,  3.85862613e+00, -8.09022367e-01,  1.62950444e+00, -1.04925358e+00,
    -9.63442698e-02, -6.03063583e-01, -1.51091740e-01,  4.48156691e+00,  8.45889449e-01,  1.47365868e+00, -1.10420620e+00,  9.30776417e-01,
    -1.37709260e+00,  3.11015934e-01, -8.32703292e-01, -4.03417915e-01, -5.26022613e-01, -2.22749457e-01,  6.46446228e+00,  4.76095051e-01,
    -6.04699194e-01, -1.62339318e+00,  1.82112837e+00, -4.97289747e-01,  1.46444857e+00,  7.75353670e-01,  1.96849853e-01, -2.89724016e+00,
     3.42820257e-01,  1.46244824e+00, -8.82184446e-01,  3.60186368e-01,  5.99074066e-01,  3.35930324e+00, -2.24019313e+00,  1.53256014e-01,
     9.81991291e-01, -3.49798143e-01, -4.13404167e-01, -1.19671464e+00, -1.53553772e+00,  8.80782187e-01,  9.01696861e-01,  3.11631650e-01},
   { 1.01213586e+00,  1.52782118e+00, -1.49529204e-01, -6.83951855e-01, -3.24813581e+00, -1.95827460e+00, -5.26122618e+00,  1.70664120e+00,
    -4.22321558e+00, -2.25997448e+00, -2.10697722e+00,  1.18694329e+00,  5.08316338e-01, -2.68341398e+00, -1.73225403e+00, -1.70132887e+00,
    -3.61147714e+00, -2.67832547e-01,  1.83753565e-01, -3.82358479e+00, -2.65156120e-01, -2.65105915e+00, -5.53499937e-01, -6.51163876e-01,
    -1.40767884e+00, -1.40347254e+00, -1.60151565e+00,  1.45578194e+00,  2.71868199e-01,  1.48316073e+00,  1.51705408e+00, -1.54737365e+00,
     1.41941130e+00,  3.75097275e-01, -2.22123241e+00,  3.11503005e+00, -4.70405483e+00,  3.05298710e+00, -2.44955707e+00, -5.93271926e-02,
    -7.28356302e-01,  2.75773478e+00, -1.32793796e+00, -2.81950045e+00, -3.54508966e-01, -8.84171903e-01, -1.17484581e+00,  1.58491635e+00,
     2.71207285e+00, -3.43653631e+00, -2.37642527e+00, -3.07350755e-01, -1.88251531e+00, -5.01102328e-01, -2.09829831e+00, -3.04994655e+00,
    -1.74297243e-01,  1.24822533e+00, -1.93655252e+00, -2.61263847e+00,  6.14459574e-01, -9.64130044e-01, -1.74719632e+00, -3.35676432e-01},
   {-3.72929513e-01,  1.86732101e+00,  2.36607981e+00,  5.52785695e-01,  2.01919031e+00,  1.00159609e+00, -4.40672815e-01, -5.78409624e+00,
     2.38460231e+00, -1.98803961e+00,  3.08138180e+00, -3.30036044e-01, -2.76168919e+00,  2.43951654e+00,  1.90290558e+00,  1.99096072e+00,
     1.83406842e+00, -3.86848867e-01,  7.43503630e-01,  2.49557242e-01,  2.53373861e+00,  2.98194997e-02,  2.47191405e+00, -3.44037390e+00,
     4.05732107e+00,  4.98293340e-01, -4.55871791e-01,  5.49160480e-01, -1.16211700e+00, -1.04736829e+00, -2.64176846e-01,  4.87535655e-01,
    -3.33000481e-01,  1.24776459e+00, -2.00064659e+00,  2.30319858e+00,  8.51069540e-02,  3.38372302e+00,  2.89057612e+00, -8.45088303e-01,
    -1.77801573e+00,  1.67394948e+00,  4.90522414e-01, -1.92457452e-01, -1.67115521e+00,  2.47764182e+00,  3.93018484e+00, -1.93435454e+00,
     7.69448996e-01,  2.47914004e+00,  1.69931424e+00, -3.16289186e+00, -6.65396303e-02, -5.46248317e-01,  1.16537981e-01, -3.07584000e+00,
    -1.41733730e+00, -1.00251031e+00,  4.36949825e+00, -1.54711807e+00, -2.89135551e+00,  2.77670670e+00,  4.61580873e-01, -9.74452570e-02},
   { 9.18935776e-01, -2.09962106e+00, -9.14941370e-01,  7.69886002e-02, -1.49679554e+00, -5.87663412e+00,  3.35491848e+00, -4.03600788e+00,
    -4.21505690e+00,  1.53482711e+00, -9.22642648e-01, -4.71967250e-01,  7.09603882e+00, -2.94781327e+00,  1.67316759e+00, -4.25861001e-01,
    -1.21600735e+00,  2.44917870e+00, -8.46461833e-01,  1.88082054e-01,  1.77294061e-01, -6.16519153e-01,  1.97115040e+00,  7.61675775e-01,
     3.75077653e+00, -3.99272621e-01, -1.58893287e+00, -7.27983296e-01, -1.39401686e+00,  5.97034752e-01,  3.18604171e-01,  2.88853359e+00,
     1.00547564e+00, -6.51334286e-01,  1.21723044e+00, -4.72839534e-01,  1.12925684e+00,  6.26666367e-01, -2.82672405e+00, -4.20474577e+00,
     3.32025260e-01,  7.39482582e-01,  1.75726426e+00, -3.36229992e+00, -1.70914841e+00,  3.83644080e+00,  3.07166219e+00, -1.37105823e-01,
    -1.49445459e-01,  1.98148561e+00,  1.90179741e+00,  8.10792625e-01, -2.32394338e-01, -4.12338972e+00, -1.10645473e+00, -2.58575702e+00,
    -2.40765786e+00,  1.99099338e+00, -3.63162696e-01,  1.14631045e+00,  2.46791291e+00, -1.74712820e-03, -1.26836658e+00,  2.37127876e+00},
   {-6.17587864e-02, -2.00700808e+00,  8.21717799e-01, -2.59250969e-01, -8.61971855e-01, -5.29137075e-01,  3.09233010e-01, -4.84225154e-01,
    -1.62371719e+00, -5.97664833e+00, -1.37828720e+00,  8.74258697e-01,  1.43971682e+00, -1.30264461e+00,  1.08293128e+00, -2.50761080e+00,
    -9.02953893e-02, -1.31054544e+00, -7.85458744e-01, -5.59382617e-01, -2.53225714e-02, -1.02266705e+00,  2.34592199e+00,  8.22265506e-01,
    -2.91580856e-01,  3.47364569e+00, -2.56916404e-01, -5.29358089e-01, -5.13314366e-01,  1.14730942e+00, -3.23771149e-01, -7.93422200e-03,
     3.70906413e-01, -4.22967106e-01, -6.82752371e-01, -2.39037657e+00,  1.00514138e+00, -3.53409553e+00,  7.30358064e-01,  2.13734210e-01,
    -4.96129304e-01, -1.11886394e+00,  4.76544239e-02, -7.55116224e-01, -5.66949010e-01,  1.04869986e+00, -7.66095996e-01,  5.28018236e-01,
     3.02411032e+00,  3.87196398e+00, -6.16431057e-01, -1.24081910e+00,  5.06584704e-01, -7.17722893e-01, -2.25797415e+00, -1.38557005e+00,
     2.82719111e+00,  1.65783212e-01,  2.87449718e+00, -1.88980186e+00,  2.11375141e+00, -1.06415248e+00, -1.55245602e+00,  1.73293030e+00},
   { 3.49773258e-01, -1.74640203e+00, -9.91515219e-01,  2.39148855e+00, -5.03511429e-01,  2.09487811e-01, -2.12188158e-03,  1.03909560e-01,
    -7.56715298e-01,  7.26245582e-01, -5.86173916e+00, -6.70647383e-01,  1.93571687e+00, -2.57772207e+00, -1.34011877e+00, -2.38841271e+00,
     2.31675997e-01,  3.95106435e+00,  3.48455811e+00,  1.15328848e+00, -1.99475348e-01, -2.07382536e+00, -6.69975281e-01,  1.67203379e+00,
    -1.46326625e+00, -1.17751658e+00, -1.04153134e-01, -2.33935761e+00,  2.33655667e+00,  9.18812335e-01, -1.75138772e-01,  8.16697598e-01,
    -3.44229072e-01,  1.59785137e-01,  4.74195093e-01,  3.83252293e-01, -5.07723629e-01, -3.61294866e-01, -1.65613437e+00,  6.36216477e-02,
    -3.16546112e-01,  4.02781457e-01, -6.86085284e-01, -1.11487031e+00,  2.97352266e+00,  1.86577588e-01,  8.80648941e-02, -4.09819156e-01,
     1.72382390e+00, -5.68998098e-01,  2.46480256e-01,  9.05958414e-01, -2.52757072e+00, -1.47744632e+00, -1.92094553e+00,  1.28803766e+00,
     1.07968938e+00, -9.33040142e-01, -4.10811949e+00, -5.26042938e-01,  1.15507340e+00, -2.60144424e+00,  4.80773360e-01,  9.48754668e-01},
   {-7.54280388e-01, -2.70248830e-01, -2.97173679e-01, -1.63666546e+00, -1.84702194e+00, -3.06037694e-01, -2.33570647e+00, -2.77571249e+00,
    -2.84549189e+00,  1.77855945e+00, -8.57241273e-01, -4.79997492e+00,  6.36237860e-01, -2.86391926e+00,  1.19855511e+00,  4.51829702e-01,
    -2.67357379e-01, -1.50894511e+00, -3.94031000e+00,  1.06218874e+00,  2.29311061e+00,  2.97588944e+00, -2.23660445e+00, -1.98681784e+00,
    -1.00958693e+00,  3.78495082e-02, -3.83417666e-01,  4.92191911e-01,  2.06384826e+00,  7.39325523e-01,  2.02150154e+00, -3.65059233e+00,
    -3.17330861e+00,  1.60903215e-01, -1.23224533e+00,  1.74995995e+00,  1.05538201e+00,  2.06170249e+00,  2.49496102e+00,  1.07579684e+00,
     9.30864453e-01,  4.74334812e+00,  6.48616076e-01,  1.67123854e+00,  5.19155741e-01,  1.33084548e+00,  3.85754013e+00,  4.57698154e+00,
     2.06872725e+00,  3.56239128e+00,  1.28699511e-01,  1.02332878e+00,  2.66383219e+00,  1.38838899e+00, -3.07924151e+00, -1.62268972e+00,
     3.20749998e+00,  6.36054456e-01,  3.07192016e+00, -1.44918799e+00, -6.92950070e-01,  1.77180469e+00, -2.51085854e+00,  2.60557961e+00},
   { 7.65143692e-01, -2.81199312e+00, -1.01475847e+00, -4.29501295e-01, -6.56379747e+00, -2.33717155e+00, -4.20153052e-01, -2.73402357e+00,
    -4.21504164e+00, -2.54504174e-01, -8.32003713e-01,  1.23893070e+00, -8.05284214e+00, -3.36705971e+00, -1.39944756e+00, -2.57581592e-01,
    -3.08182538e-01, -1.31687963e+00, -2.91481614e+00, -8.52417231e-01,  4.34881568e-01,  2.22841382e-01, -2.29444003e+00,  4.62036669e-01,
     1.13862765e+00, -4.31028217e-01, -1.48713088e+00, -4.64145541e-01,  4.99146610e-01,  3.69769782e-02,  1.12533164e+00,  2.81674981e+00,
     3.19592208e-01, -2.54384845e-01, -2.59486270e+00,  1.56916749e+00, -9.51128900e-01, -2.83634782e+00,  3.43161970e-02, -2.67067385e+00,
    -3.51636767e-01, -7.57325828e-01,  1.53244936e+00, -3.04201841e+00, -1.30096555e+00,  1.31088746e+00,  7.39187837e-01,  4.96691972e-01,
    -3.75606477e-01,  4.81215715e+00, -5.61939001e-01, -5.37508607e-01, -2.68858701e-01,  4.20679539e-01, -1.31973886e+00, -2.25110650e+00,
     1.84444475e+00,  1.27057707e+00,  1.84417748e+00,  2.35147786e+00, -5.05684757e+00,  1.55597293e+00, -2.22794318e+00,  6.74670339e-01},
   { 8.43784034e-01, -1.33668673e+00,  3.73237401e-01, -7.96107829e-01,  3.87082160e-01, -9.66986120e-01,  1.62008309e+00, -3.72035742e-01,
     3.63923311e+00, -1.85944951e+00,  9.47113037e-01, -3.68221331e+00,  3.44590735e+00, -5.20232964e+00,  2.66668010e+00, -8.77405941e-01,
    -2.05204415e+00,  1.12215126e+00, -1.86384097e-01,  8.69544566e-01,  8.87527823e-01, -8.49098861e-01,  2.92051220e+00,  9.94561791e-01,
     4.16357327e+00, -5.81284344e-01,  1.83617517e-01,  3.04408908e+00, -1.00206840e+00,  1.86916471e-01, -2.19547081e+00,  3.08307123e+00,
    -1.83184445e+00,  1.88995075e+00, -7.47067809e-01,  9.56593335e-01,  1.84555262e-01, -4.52230406e+00,  1.78899956e+00, -2.19677544e+00,
     4.53510843e-02,  9.19738233e-01,  1.47510254e+00,  2.46674195e-01,  6.79211095e-02,  2.17212439e+00,  2.60497475e+00, -1.51687592e-01,
    -2.66218638e+00, -3.49191964e-01,  3.48699498e+00,  7.99263418e-01, -1.46375969e-01, -1.68902445e+00,  1.83287776e+00, -6.46227896e-01,
    -4.62561989e+00,  2.50246733e-01, -7.37979293e-01,  9.87664640e-01, -1.71808422e+00,  2.83947855e-01, -2.05475330e+00, -1.38095284e+00},
   {-5.72627336e-02, -9.46625352e-01,  4.29497099e+00, -1.91135001e+00,  2.84962225e+00, -3.44730109e-01, -1.60724378e+00, -5.48920870e-01,
     2.48759723e+00,  1.80340791e+00,  9.56737101e-01, -3.33937228e-01,  8.90374279e+00,  7.27751434e-01, -3.83649445e+00,  9.85762700e-02,
    -2.05582452e+00, -4.00066900e+00,  5.92774972e-02,  7.63990164e-01, -3.64368248e+00, -7.82995522e-01, -7.52477467e-01,  1.03265144e-01,
     1.49278128e+00,  2.47334138e-01,  2.23257810e-01,  1.35514855e+00, -3.51437837e-01,  5.66831052e-01, -5.95336854e-01, -1.62836683e+00,
    -2.07583761e+00,  6.53578699e-01,  1.35656750e+00,  1.11727726e+00, -1.39804751e-01, -9.53834951e-01,  4.40729952e+00, -1.53327012e+00,
    -3.45659465e-01, -2.04860854e+00, -9.87673044e-01,  9.48056936e-01, -3.22328758e+00,  6.41046190e+00,  2.95445943e+00,  2.88539839e+00,
     4.31629390e-01, -4.30937338e+00,  2.23091269e+00, -7.19388202e-02, -8.96694660e-01, -3.47580642e-01,  3.45257187e+00,  1.07242036e+00,
    -3.92073464e+00, -7.01147974e-01, -1.85280704e+00,  1.06525862e+00,  1.75919414e+00,  5.73261738e-01,  1.08343518e+00, -9.85937715e-01},
   {-9.47087705e-01,  5.76691926e-01,  2.00759381e-01, -1.55608386e-01,  1.77267087e+00,  1.27152753e+00, -4.26837057e-01,  1.86977223e-01,
     1.12857831e+00, -1.20293748e+00,  1.00160801e+00, -5.14135504e+00, -3.38185519e-01,  3.88442850e+00,  2.67324352e+00, -8.48944092e+00,
     2.00985980e+00, -1.92600146e-01,  2.05093098e+00, -6.25847161e-01,  1.91290304e-01, -6.61941290e-01, -9.19426620e-01,  1.46673247e-01,
     2.99854875e+00,  5.92019141e-01, -6.21124148e-01, -9.05922830e-01, -1.34708655e+00, -2.80303931e+00, -1.99218190e+00, -3.63321185e-01,
     3.20975804e+00, -9.84320343e-02,  1.16465151e+00,  1.85011292e+00,  3.35285008e-01, -9.96658504e-01,  1.72361851e+00, -1.22129762e+00,
    -6.87253416e-01, -1.23987091e+00, -3.75182778e-01,  9.06528533e-01, -5.39137721e-02, -1.19677389e+00, -6.11853480e-01, -1.00955224e+00,
    -2.10037947e+00, -1.79613614e+00,  2.21535254e+00,  1.19954753e+00, -9.35421944e-01,  3.73930857e-02,  2.28032970e+00,  4.38733339e-01,
    -3.16182804e+00, -2.47354889e+00, -1.60126221e+00,  2.94883132e+00, -4.01080036e+00,  3.16320443e+00,  1.34296930e+00, -1.88741863e+00},
   {-9.22737956e-01, -2.10889912e+00,  7.64415503e-01,  2.56239951e-01, -6.41387343e-01, -4.16746169e-01, -4.41158676e+00,  1.89224482e+00,
     3.54377675e+00,  3.03656697e-01, -2.18595052e+00, -1.34955004e-01, -5.31740725e-01,  4.96555662e+00,  8.13289642e-01, -2.66830015e+00,
    -7.82688856e+00, -2.07818651e+00, -1.14511824e+00, -1.99645472e+00,  3.80578965e-01,  1.15045202e+00,  2.66305852e+00, -2.93243623e+00,
     6.46252573e-01,  2.33998895e+00,  7.45355725e-01, -2.48613954e-02,  2.22757030e+00, -3.17548990e-01,  2.96533823e+00, -7.41201878e-01,
     1.16459620e+00, -1.12590826e+00, -6.22483063e+00,  3.61617970e+00,  5.09427547e+00,  5.36194086e-01,  2.94690323e+00,  1.18426299e+00,
     9.86470342e-01, -9.09831107e-01,  4.42110628e-01,  9.15546298e-01, -9.45403278e-01,  2.08897662e+00, -1.13967383e+00,  2.91323829e+00,
     4.00099307e-02,  1.71884120e+00, -3.74093080e+00, -3.98419213e+00, -1.47834027e+00,  7.07086623e-01,  1.16585076e+00, -1.70036793e-01,
    -1.20479930e-02, -2.98332036e-01,  2.81114149e+00, -2.53802156e+00, -1.14347434e+00,  4.42478561e+00, -2.54222226e+00,  1.98940217e+00},
   {-3.81831932e+00, -1.18422735e+00, -4.08221662e-01, -8.72313380e-01, -1.94983944e-01, -2.55599523e+00, -4.89194334e-01, -8.34684134e-01,
    -3.81045520e-01, -8.89601231e-01,  2.55117621e-02,  7.00266778e-01,  1.11046386e+00, -7.68914074e-02, -4.58426356e-01,  3.94094110e-01,
     1.97031409e-01, -8.65894413e+00,  1.55867696e+00, -8.48755598e-01,  5.05497977e-02, -3.53526783e+00,  2.62678951e-01,  8.82362068e-01,
    -2.76606739e-01, -4.09675151e-01, -2.98592949e+00, -1.67841470e+00,  4.25369680e-01, -1.27929068e+00,  8.20876658e-02,  1.63855362e+00,
     4.69003010e+00, -2.69489694e+00, -2.82099128e-01,  1.07185197e+00, -2.40747499e+00, -1.29715574e+00,  5.47142804e-01, -2.40153098e+00,
     3.87006938e-01,  4.08700275e+00,  2.14047790e+00, -2.52129459e+00,  4.90945816e-01,  1.13278592e+00,  1.45316780e-01, -1.31707788e+00,
     1.44560564e+00,  5.13278723e-01, -1.25252336e-01, -5.77796817e-01, -4.58983278e+00, -7.77300596e-01, -2.29461265e+00, -3.51665914e-01,
     8.83318037e-02, -3.11107665e-01, -2.70941925e+00,  1.69410157e+00, -9.87751245e-01, -8.67367148e-01, -9.28187191e-01, -1.02259266e+00},
   { 1.68037164e+00, -1.86396575e+00,  1.52101660e+00,  2.13669673e-01, -2.50606370e+00, -5.43711960e-01, -3.73812795e+00,  3.54828119e+00,
     4.54981595e-01,  9.64168429e-01, -1.26960266e+00,  2.74049751e-02,  3.49420905e+00,  6.50937855e-01, -2.15817475e+00, -2.47515440e+00,
    -9.19296682e-01, -4.55344915e-01, -5.75834799e+00,  7.93316305e-01,  2.29450870e+00, -3.16104603e+00,  1.33771932e+00,  6.95097625e-01,
    -2.14785576e+00, -2.09784412e+00, -6.40938997e-01, -1.87428927e+00,  2.09816790e+00, -1.42298317e+00,  2.06590533e+00, -2.51971221e+00,
     1.22627282e+00, -1.36621141e+00, -3.64223742e+00,  3.68738890e+00,  7.51370728e-01,  1.47241747e+00, -1.70731628e+00,  4.13291407e+00,
     4.10720259e-01,  2.26542497e+00,  8.35960925e-01, -1.65350080e+00,  1.22475481e+00, -2.04613447e+00, -1.18400204e+00, -5.95916808e-01,
     2.77547860e+00, -3.49927574e-01, -2.35579085e+00, -1.13346577e+00, -2.18664837e+00,  2.03495240e+00, -2.78233218e+00, -4.82883453e-01,
     1.97815967e+00, -1.49925137e+00, -4.08317041e+00, -3.14851022e+00,  3.60149169e+00,  4.69263887e+00, -1.11927617e+00,  1.84637868e+00},
   { 1.04902232e+00, -3.26803279e+00,  3.16996241e+00,  5.80244184e-01,  1.11570835e+00, -4.22928274e-01,  1.37343049e+00,  2.31726098e+00,
     3.62776220e-01, -8.48872423e-01, -6.45846367e-01, -2.56909156e+00,  4.29461002e+00, -4.53762650e-01,  4.12513018e-01,  6.82573318e-01,
     2.34318763e-01,  8.62852484e-02,  6.02651477e-01, -4.15879631e+00,  3.43475962e+00, -8.07321489e-01, -2.18963695e+00,  3.77215505e+00,
    -4.60333198e-01, -7.19618797e-02, -4.99215871e-01, -2.02792120e+00,  4.51844072e+00, -6.42342150e-01, -1.76799250e+00,  2.48898721e+00,
     4.18088347e-01, -1.39939988e+00,  7.39167869e-01,  3.28597784e+00,  2.47223735e+00, -4.12674046e+00,  1.85316324e+00,  2.04569077e+00,
    -1.82454145e+00, -2.51291323e+00, -1.32754946e+00, -1.08643734e+00,  1.20968127e+00, -1.45045757e+00, -2.04302073e+00, -4.71024126e-01,
    -4.22011130e-02,  1.18648720e+00,  2.78179407e+00,  3.67631841e+00, -5.40625989e-01,  1.25569177e+00,  1.89508408e-01,  9.19478476e-01,
    -4.68491495e-01, -3.36725998e+00, -3.07574391e+00, -1.59611440e+00, -6.34387910e-01,  9.65448767e-02, -6.66649461e-01, -7.91647315e-01},
   {-9.70462024e-01, -1.06662965e+00, -1.70226026e+00,  9.06928658e-01, -2.63286471e+00, -2.43008256e+00,  3.94743443e-01, -3.13069057e+00,
    -2.58909345e+00, -7.19328463e-01, -7.28085458e-01, -1.59041131e+00, -1.44302285e+00, -4.30312490e+00, -2.57179260e-01,  4.67749149e-01,
     3.46628499e+00,  1.74355292e+00,  2.62309980e+00, -3.15623951e+00, -6.16145706e+00, -2.29935598e+00, -1.51349223e+00, -2.75575280e+00,
     3.64975882e+00,  1.32727194e+00, -1.67817914e+00,  2.74661446e+00, -3.07791448e+00, -8.55811656e-01, -1.25139281e-01,  4.48439747e-01,
     2.24958634e+00, -1.91746640e+00,  9.07732248e-01, -7.22936153e+00, -2.44800717e-01,  2.43473291e+00,  1.16388428e+00, -4.49294853e+00,
    -1.90848231e+00, -5.44590056e-01, -8.96925926e-02, -3.38754177e+00, -1.27441287e+00,  4.98625755e+00,  2.54133272e+00, -8.81786048e-01,
    -1.93012202e+00,  1.60945463e+00,  1.48610957e-02, -1.73595583e+00, -1.84916282e+00, -4.07316208e+00, -1.73210454e+00, -7.40083516e-01,
     1.78025615e+00, -1.14304192e-01,  4.18856144e+00,  1.87355781e+00,  4.80972171e-01, -2.27605677e+00,  2.53933573e+00, -5.82087636e-01},
   {-2.03274775e+00,  4.75336045e-01, -2.07848862e-01, -5.18905997e-01,  8.04442227e-01, -1.51917291e+00,  1.58474660e+00, -1.23313010e+00,
     5.66578805e-01,  9.47491005e-02, -7.23660707e-01,  1.74394822e+00, -2.95460612e-01, -9.70947087e-01,  3.42926455e+00,  2.39270888e-02,
    -1.44433820e+00,  7.63582662e-02, -4.31536019e-01,  4.15845871e-01, -3.48129719e-01, -5.33058214e+00, -5.03433831e-02,  1.88998580e+00,
     1.53064144e+00,  7.65272677e-02,  9.13096488e-01, -3.92348729e-02,  4.37617153e-01,  8.50113511e-01, -6.81186080e-01, -1.38226247e+00,
    -8.58521342e-01,  1.37025988e+00,  2.24288607e+00,  1.73649335e+00, -6.64376616e-01,  5.24785638e-01,  4.87094355e+00, -3.12943459e+00,
    -3.29150707e-01, -1.14765429e+00, -1.49020553e+00,  2.00612351e-01, -1.15663564e+00,  3.82182121e+00,  7.44523346e-01, -1.84306252e+00,
     2.34872729e-01,  3.22225833e+00,  3.94050598e-01,  2.57764530e+00, -7.48131573e-01, -1.82974711e-02, -3.56178951e+00, -8.43120992e-01,
    -3.69551986e-01,  4.40170318e-01, -1.37955940e+00, -8.22097242e-01, -7.73704290e-01, -8.95281062e-02,  1.94082475e+00, -8.63916159e-01},
   { 6.10709608e-01,  9.86640379e-02,  9.76684839e-02,  7.27458745e-02,  4.82343137e-01, -8.12880516e-01,  3.51402020e+00, -1.28844452e+00,
     4.84744191e-01, -6.33593035e+00,  2.42480367e-01, -7.12542534e-02, -6.29573727e+00,  5.83772779e-01, -1.70053375e+00, -7.25437820e-01,
    -2.52647352e+00,  3.51491380e+00,  4.72508848e-01,  5.13940394e-01,  7.83382237e-01, -1.84248284e-01, -5.78007364e+00, -7.23910093e-01,
     1.32456636e+00, -5.22554576e-01,  8.79027769e-02,  9.95566666e-01, -4.57509100e-01,  1.17057288e+00, -1.92207551e+00,  2.71499467e+00,
    -8.21569741e-01, -2.54063427e-01,  1.76140964e-01, -2.51580739e+00, -5.76955199e-01, -5.41842401e-01, -9.04950380e-01, -6.08792007e-01,
    -1.97580278e+00,  5.50660229e+00,  1.27621603e+00, -6.65484518e-02, -1.14355935e-02,  2.04259801e+00,  4.49729967e+00, -6.38203812e+00,
     2.53613377e+00, -1.43021798e+00, -2.70663095e+00, -1.58023858e+00,  5.97283185e-01, -1.97680026e-01, -2.96911895e-01, -1.82260799e+00,
    -5.44690704e+00,  2.66967225e+00, -1.22549757e-02, -3.16962600e-01,  2.37408161e+00,  2.74788022e-01,  1.74375355e-01, -8.81759375e-02},
   {-8.01597178e-01, -2.19790435e+00, -3.18655193e-01, -2.00722289e+00, -2.73563051e+00, -6.08721077e-01, -2.63565183e+00, -2.94567060e+00,
    -1.33253860e+00, -4.35091674e-01, -1.13265741e+00,  1.62780452e+00, -1.33156228e+00, -1.59470642e+00, -2.08475733e+00, -2.22952151e+00,
     2.22334337e+00, -9.25113201e-01, -2.88786352e-01, -1.58175099e+00, -7.85181820e-01, -7.18104243e-01,  1.17204857e+00, -5.55884218e+00,
    -1.09463298e+00, -1.91688621e+00, -2.74520135e+00,  2.66616011e+00,  1.12977874e+00,  1.36015013e-01,  3.61641109e-01, -2.19584644e-01,
     1.22396469e+00, -2.30054951e+00, -1.01808608e+00, -1.90404668e-01, -6.89119160e-01, -1.74892294e+00, -5.41476786e-01, -2.30906320e+00,
    -1.31450105e+00,  2.63900065e+00,  2.34037682e-01, -3.24197578e+00,  7.86077797e-01, -3.40889573e-01, -9.86931264e-01, -3.55350047e-01,
     7.98900187e-01,  2.31275702e+00,  3.14081818e-01, -1.40715861e+00, -2.09427357e+00, -3.10836697e+00, -2.82021499e+00,  3.51630956e-01,
     2.20226264e+00, -1.19478595e+00, -1.44470930e+00, -1.49835598e+00,  9.28521574e-01, -1.05806983e+00,  3.01500678e+00,  1.47998762e+00},
   { 2.18709305e-01,  1.28111136e+00, -2.65382862e+00,  1.00185966e+00,  3.87525588e-01, -2.12599564e+00,  1.17735982e+00,  9.93743777e-01,
     2.34772778e+00, -2.20748734e+00,  2.53770876e+00, -1.69765815e-01, -3.27370548e+00,  1.46966195e+00,  1.72854078e+00, -3.49688959e+00,
     1.47765613e+00,  4.03577834e-01,  2.55249906e+00,  2.05993176e+00, -2.53015256e+00, -1.17915428e+00, -1.41367483e+00, -1.35373080e+00,
    -5.00747442e+00, -2.10660711e-01,  1.00113297e+00, -2.36562324e+00, -1.89352190e+00,  6.99780941e-01,  1.90385771e+00,  1.25852436e-01,
     4.06729841e+00,  1.58345246e+00, -1.04300165e+00,  2.44634652e+00,  1.23472381e+00,  2.72032142e+00, -2.05575991e+00,  2.56315160e+00,
     1.16330123e+00,  1.07844543e+00,  5.69543004e-01,  8.97383571e-01, -9.78343427e-01,  9.28649545e-01, -2.88173437e+00,  3.71804070e+00,
     1.94292712e+00,  1.08518708e+00, -4.70612675e-01, -3.43628898e-02,  2.70281434e-01,  1.65044561e-01, -1.40749300e+00,  9.90585864e-01,
    -6.57821715e-01,  1.98660791e+00,  2.26035523e+00,  6.82326674e-01,  7.42203295e-01,  2.62329030e+00, -2.45347083e-01,  2.50749850e+00},
   {-3.38180852e+00, -7.64753163e-01,  3.49077296e+00, -4.30245459e-01,  1.98855627e+00,  1.38559341e+00,  9.02291108e-03,  1.62309158e+00,
    -2.41677356e+00, -3.81069946e+00,  4.20080155e-01,  3.79392594e-01, -3.39222193e+00,  6.66281223e-01,  2.11079192e+00,  1.52936006e+00,
     2.56990552e-01, -1.43969089e-01,  1.49244380e+00,  7.35296667e-01,  1.37841594e+00, -6.18813157e-01, -5.93115032e-01,  1.76367557e+00,
     1.36193514e+00, -7.39736509e+00,  7.05297828e-01,  2.14328766e+00,  9.62670147e-01, -1.79188526e+00,  8.79820168e-01, -4.53392744e+00,
    -1.75642347e+00,  2.77096808e-01, -3.55024624e+00, -2.21989846e+00,  3.45889837e-01, -1.27885783e+00,  3.82273126e+00, -4.58242714e-01,
    -2.47703290e+00, -2.61843371e+00,  9.12520945e-01,  8.15753222e-01, -1.01341796e+00,  4.02946281e+00,  1.27292299e+00, -2.86119556e+00,
    -5.81853926e-01,  4.62827772e-01, -3.53875041e+00, -1.51980865e+00, -1.25488609e-01,  5.50815463e-01,  4.15393291e-03,  7.30612278e-01,
    -2.37486959e+00,  6.96485758e-01,  1.23412228e+00, -1.89375889e+00, -3.99055266e+00,  1.37545586e+00,  3.36530161e+00, -3.48032522e+00},
   {-2.63118863e-01,  2.90647864e-01,  2.06069517e+00,  1.10489726e+00,  2.32218075e+00,  1.16324854e+00,  2.17795968e+00,  1.27661335e+00,
     4.68951178e+00,  1.29240215e+00,  5.99353433e-01,  9.24568534e-01,  2.98880601e+00, -2.34656647e-01,  3.31734705e+00,  6.24312580e-01,
    -4.68082380e+00,  1.20376265e+00, -6.26710057e-01,  2.41176224e+00, -1.81320953e+00,  3.05454326e+00,  3.58669305e+00,  3.59626842e+00,
     1.23228383e+00,  9.89261270e-02,  6.76677048e-01, -3.99324864e-01, -1.37840271e+00,  1.96132755e+00,  2.98215508e+00,  9.38634753e-01,
    -1.13216734e+00,  1.70012558e+00,  1.51903439e+00,  7.56993294e-01, -2.93413925e+00,  3.24406549e-02,  3.25213885e+00,  1.47070810e-02,
     1.53814340e+00,  2.81757981e-01, -9.34370339e-01,  1.02316904e+00,  2.68342763e-01,  2.08378148e+00, -1.00594848e-01, -1.65354264e+00,
     2.51914239e+00,  2.55364037e+00,  7.78436720e-01, -5.97928524e-01, -8.31281722e-01,  2.36225557e+00,  1.63391328e+00, -4.03886884e-01,
    -1.72987413e+00,  2.66700029e+00, -1.14176738e+00,  5.67128837e-01,  2.99470162e+00,  4.68954325e-01, -1.07209647e+00,  2.70032811e+00},
   { 4.41447347e-01,  7.31145620e-01, -1.53740323e+00,  8.18369836e-02,  6.54631793e-01,  1.35784698e+00, -2.53235555e+00, -5.79520226e+00,
     9.75559771e-01, -1.54922509e+00, -1.06478572e+00, -1.42869329e+00, -9.80154395e-01,  2.61621928e+00,  1.62147865e-01,  2.46130490e+00,
     3.77078366e+00,  1.65646486e-02, -2.19839501e+00, -6.88009083e-01,  4.37646866e+00,  2.37314868e+00, -1.79659247e+00, -4.15004730e+00,
     4.61892426e-01, -1.27616441e+00, -1.86592269e+00, -3.95754695e+00, -7.30704904e-01, -2.15982175e+00, -1.03827798e+00, -4.68918800e-01,
     1.03934205e+00, -1.42100430e+00,  2.28063774e+00, -4.82198286e+00,  5.47237098e-01, -1.87213421e+00,  5.39884567e-01, -2.27488542e+00,
     1.96945536e+00, -1.43052423e+00, -8.93038392e-01, -9.07076478e-01, -7.59766877e-01,  9.51520681e-01,  4.21065235e+00, -4.00034100e-01,
    -5.78841829e+00, -7.62410581e-01,  9.77930605e-01, -2.59315801e+00,  1.91020250e+00,  2.97272772e-01,  4.71471190e-01, -7.19410717e-01,
     3.25457835e+00, -2.41164970e+00,  2.32477355e+00,  1.79671037e+00,  3.81842911e-01, -9.51187849e-01,  4.32549620e+00, -1.37881517e+00},
   { 1.17446995e+00, -1.92237508e+00,  7.99335301e-01,  1.72631040e-01, -4.79186487e+00, -3.05450535e+00, -1.38595331e+00, -2.50454402e+00,
    -1.53221309e+00, -1.17237723e+00, -2.23391747e+00,  2.84390616e+00,  2.06277132e+00, -4.46543264e+00, -2.04141235e+00, -2.94346046e+00,
     1.32367778e+00, -7.66675966e-03, -4.76104975e-01, -2.28028035e+00,  2.83775425e+00, -2.59808660e+00,  4.13926095e-02, -9.43098783e-01,
     1.79911578e+00, -3.32206655e+00, -1.35728681e+00,  4.17942953e+00, -8.10032177e+00, -1.50015965e-01, -1.18406963e+00,  2.16662034e-01,
     1.10702717e+00, -2.55604458e+00,  8.04736614e-01, -4.25103617e+00,  4.84109521e-01, -4.34580818e-02, -4.80599165e-01, -1.37274042e-01,
    -1.28619766e+00,  5.50498533e+00,  7.41544962e-01, -3.22020864e+00,  8.69038284e-01,  1.00171185e+00,  2.72926474e+00, -2.18461439e-01,
     8.76106083e-01,  7.79873669e-01,  2.92515010e-01, -2.15603304e+00, -1.35819530e+00, -1.61236811e+00, -1.66294813e+00, -1.68544877e+00,
     3.87045860e-01,  1.06568563e+00,  1.57228649e+00, -7.49371529e-01,  2.45915484e+00, -2.02943277e+00,  3.08451867e+00, -4.11076218e-01},
   { 1.32711673e+00,  5.23518860e-01,  2.07366705e+00, -1.94684052e+00, -1.62228358e+00,  1.06740522e+00, -2.44443321e+00, -3.42687428e-01,
     2.31504035e+00,  8.54219973e-01, -2.06583142e+00,  1.88994753e+00,  8.16461384e-01,  2.49311948e+00,  1.22152090e+00,  1.34379059e-01,
     9.50501382e-01, -1.59876525e+00, -2.09281254e+00, -9.25003588e-01,  1.21903765e+00,  1.52939498e+00,  1.13801706e+00, -1.07274461e+00,
    -2.57730103e+00,  2.61890817e+00, -5.16740143e-01,  6.18434191e+00,  1.98235142e+00, -7.04403067e+00,  1.04470015e+00, -4.12631178e+00,
     3.66332293e-01, -1.30152857e+00,  1.23336709e+00,  2.27279449e+00,  6.91364825e-01, -6.83141768e-01,  1.93076742e+00,  1.04054224e+00,
    -4.37082589e-01,  3.32332945e+00,  4.09812510e-01, -3.57405134e-02, -2.73841955e-02,  2.77120924e+00,  3.36634827e+00,  3.89586973e+00,
     5.30601084e-01, -2.64173359e-01, -2.16747618e+00,  3.36797535e-02,  5.08873649e-02,  3.79916477e+00,  1.77902031e+00, -1.01696002e+00,
    -6.46446526e-01, -2.80047059e-01,  2.99452353e+00, -8.76251400e-01, -1.18518293e+00,  1.74725926e+00,  1.29647732e+00,  6.59515142e-01},
   {-2.73504901e+00, -1.55912924e+00, -1.57158196e+00,  9.79705274e-01, -1.49898541e+00, -5.05002081e-01, -1.77779400e+00,  1.25508916e+00,
     2.06825304e+00,  1.10730577e+00,  1.14995182e+00, -1.82015157e+00,  1.70479631e+00, -1.54143310e+00, -6.28070533e-01, -6.75586581e-01,
    -2.67003989e+00, -2.89956897e-01,  1.09653914e+00,  6.48015857e-01, -7.67754495e-01, -9.90401685e-01,  1.19566190e+00, -1.15731299e+00,
    -8.18466604e-01, -6.86804235e-01,  1.93204302e-02, -1.71118164e+00, -2.55129623e+00, -6.75072670e-02, -3.97206473e+00, -1.04097784e+00,
    -1.32070160e+00,  7.33850062e-01, -3.70023459e-01, -2.20421648e+00, -4.86269087e-01,  7.30889559e-01,  2.97935516e-01,  1.68170244e-01,
    -4.64949399e-01, -1.65717185e-01, -8.16530645e-01, -2.92979360e-01, -4.34667230e-01,  1.29034162e+00,  5.61140239e-01, -2.08337021e+00,
     2.90301561e-01, -8.84225592e-02, -2.69457661e-02, -1.41541398e+00, -5.60462832e-01, -3.31084937e-01, -1.99618137e+00,  2.09925485e+00,
    -4.36453104e-01, -1.86158621e+00, -2.78029084e-01, -8.01162422e-01,  1.56196380e+00, -7.55472302e-01,  4.19984728e-01,  4.20091718e-01},
   { 2.04680875e-01, -2.47921610e+00, -3.73324692e-01,  7.13049889e-01,  1.96941328e+00,  1.37121499e+00,  1.18187833e+00,  1.33600032e+00,
     1.34400928e+00,  2.02789831e+00,  1.17887795e+00,  2.42197847e+00, -1.29684234e+00,  2.75696015e+00, -8.22498798e-01, -2.15343761e+00,
    -9.64584827e-01,  5.13948090e-02,  3.47952986e+00,  5.54635048e-01, -1.07153225e+00, -2.29579163e+00,  3.22043610e+00,  1.57749176e+00,
     3.63390833e-01, -1.74315977e+00,  1.29715359e+00, -3.47375584e+00,  5.77536404e-01, -1.21711409e+00,  7.80835152e-02, -5.44206810e+00,
     5.19273233e+00,  2.14961275e-01, -7.75366604e-01, -1.71796337e-01,  2.58852410e+00, -1.99825370e+00, -1.25706744e+00, -2.89017582e+00,
    -2.21312475e+00,  2.14224648e+00,  3.06714678e+00,  1.00695515e+00,  2.76030040e+00,  6.05457842e-01, -5.88620976e-02, -2.14735317e+00,
     8.61198366e-01,  1.30344892e+00, -1.05596900e-01, -1.08801931e-01, -1.12034750e+00, -3.49877620e+00, -1.06732523e+00,  2.29515529e+00,
     1.77177227e+00,  6.05740666e-01, -2.80467248e+00,  1.26805186e+00, -2.62053800e+00, -3.54109824e-01,  1.70865327e-01,  1.14285696e+00},
   {-3.49005729e-01, -1.31631827e+00,  1.89827955e+00, -1.26201344e+00,  2.09178984e-01,  1.12138063e-01, -4.66470909e+00,  4.06564951e+00,
     2.58302832e+00,  1.63609371e-01, -1.64640355e+00,  1.32124856e-01, -7.31426358e-01,  3.63990164e+00,  1.64409190e-01, -1.69715714e+00,
     2.14282870e+00, -3.96809721e+00, -1.10537529e+00, -8.38348687e-01,  4.43532705e+00, -5.67395449e-01,  1.04755521e+00,  1.97323430e+00,
    -1.45130634e+00,  1.05440402e+00, -9.87129867e-01,  1.81733263e+00,  2.36139894e+00,  1.26851988e+00,  6.69866621e-01, -1.99887526e+00,
    -5.42852688e+00, -2.90272284e+00, -7.02194166e+00,  4.64338112e+00,  6.42372847e+00, -9.95453969e-02,  1.41415727e+00,  3.96453834e+00,
     2.37262234e-01,  2.47646976e+00,  3.02878451e+00,  1.38531387e+00,  2.92094731e+00,  1.62449796e-02, -2.55739403e+00,  1.90076971e+00,
     1.22131550e+00,  1.98067939e+00, -3.11060810e+00, -3.22482634e+00, -2.34498978e+00,  2.99668014e-01, -3.67930472e-01, -1.34074569e+00,
     1.19316638e+00, -9.76621330e-01,  8.29830408e-01, -2.39506769e+00, -3.23819113e+00,  7.86617708e+00, -4.25821972e+00,  2.15294033e-01},
   {-1.45432901e+00, -4.51452285e-01, -6.14250839e-01, -6.72647238e-01,  2.43075228e+00,  2.83284807e+00,  2.72470665e+00,  5.63443601e-01,
     4.08388710e+00,  3.11546254e+00, -1.44332081e-01,  1.14397109e+00,  1.98785353e+00, -1.21979129e+00,  7.21748114e-01, -9.18226540e-01,
    -4.18900824e+00, -4.06759918e-01, -1.58828044e+00,  6.87580287e-01, -3.16517210e+00,  1.70468700e+00,  3.62899590e+00,  3.94074607e+00,
     1.67912149e+00, -1.75480068e-01,  1.27382725e-01,  3.44640046e-01, -3.35959125e+00,  1.74464607e+00,  4.26020479e+00, -1.18768644e+00,
    -2.03445268e+00, -2.45576644e+00,  1.94429159e+00, -2.62493348e+00, -3.14092326e+00,  1.78892529e+00,  1.62691581e+00, -5.67519963e-01,
    -2.70127445e-01, -2.70830169e-02, -4.17282677e+00, -3.46904248e-01, -1.09288979e+00,  2.15855241e+00,  1.10851574e+00, -1.25194275e+00,
     2.22981310e+00,  2.38959455e+00, -1.15499817e-01, -4.95327204e-01,  3.37429702e-01,  2.67015767e+00, -2.92768896e-01, -6.98220730e-01,
    -6.77760482e-01,  3.06789875e+00, -1.89196122e+00, -2.75156665e+00,  2.64940572e+00, -8.02698076e-01, -8.39826286e-01,  1.19152272e+00},
   {-5.15169621e-01, -1.57259643e+00,  2.71248364e+00, -1.26040161e-01, -1.82056367e+00, -1.70454371e+00,  6.79623306e-01, -6.24497831e-01,
    -3.01854444e+00,  2.15412542e-01, -9.02307868e-01,  2.45130277e+00,  1.18848562e+00, -2.33282065e+00,  3.10285401e+00, -1.03648114e+00,
    -1.18384886e+00,  7.12221086e-01,  2.41219974e+00, -5.34967005e-01, -5.82513154e-01, -2.68963552e+00,  1.98248029e-01, -3.10748786e-01,
     1.28231883e+00,  8.88272107e-01, -4.18514872e+00,  2.70756960e-01,  2.00238037e+00, -2.61225438e+00,  1.96487677e+00,  3.50771189e-01,
     3.78548241e+00, -3.83586073e+00, -3.49659681e+00,  2.29526281e+00, -2.31215563e-02, -9.69580829e-01,  2.07150245e+00, -2.42234015e+00,
    -2.50453496e+00,  2.38926530e+00,  3.81007314e+00, -5.64254999e+00, -5.32321751e-01,  2.81506562e+00,  3.25618458e+00, -3.53378743e-01,
     1.43567181e+00,  8.31733525e-01,  4.14406633e+00,  2.82915878e+00, -4.01001596e+00, -1.66353440e+00, -3.63222671e+00, -4.27246094e-02,
     1.44269693e+00,  1.07103214e-01, -2.99664760e+00,  1.81232798e+00, -2.74554014e+00,  4.84661818e+00,  5.15499711e-01, -2.68586826e+00},
   {-1.10938597e+00, -1.84313834e-01,  2.17575002e+00,  1.24462581e+00, -3.00410032e+00, -4.14627600e+00, -8.70250881e-01, -2.87341166e+00,
     4.87597525e-01, -2.91983366e-01, -7.92838931e-01,  2.13507485e+00, -7.01066911e-01, -3.33594370e+00, -1.52362216e+00, -1.39799941e+00,
     2.57460523e+00, -1.47560906e+00, -1.87593746e+00, -1.08875476e-01,  5.46140862e+00,  1.32518753e-01,  2.57520318e+00, -4.30522025e-01,
     1.20510273e-01, -1.59229791e+00, -5.66078246e-01,  1.62409878e+00, -1.92549020e-01,  4.38234508e-02,  1.54618895e+00, -3.72569919e-01,
     7.14862108e-01,  2.28288054e-01, -3.24535191e-01, -2.86030459e+00,  1.65564644e+00,  2.96771359e+00,  5.68398046e+00, -1.93468642e+00,
    -8.54208171e-01,  2.67709064e+00, -2.48104453e+00, -9.55652177e-01, -1.86469197e+00,  2.12882233e+00,  3.59890103e+00, -3.08521628e-01,
     3.39475423e-01,  1.68381095e+00,  2.00681520e+00,  2.86129057e-01,  2.25357413e-01, -6.43580794e-01, -3.87913871e+00, -2.80855799e+00,
    -2.66515344e-01,  6.35647118e-01,  2.98898530e+00, -4.06745291e+00, -2.10107493e+00,  1.05247641e+00,  1.99058902e+00,  6.10590100e-01},
   { 8.23860705e-01, -9.24181819e-01, -2.74747539e+00,  2.21122169e+00,  1.07831573e+00, -4.22935039e-01,  4.16450214e+00, -4.35861349e+00,
     1.08455920e+00, -2.13300139e-01,  9.46603596e-01, -1.12892461e+00,  2.61668444e+00, -5.45909345e-01,  3.77912378e+00,  1.86143267e+00,
     1.14510691e+00,  4.04652786e+00,  8.93536091e-01, -7.16775179e-01, -1.79241776e+00,  1.34669632e-01, -1.95489740e+00,  2.26719880e+00,
     2.88301516e+00,  5.27661324e-01, -2.39675140e+00, -2.52327919e+00, -3.29419637e+00, -3.16652894e-01, -4.65277374e-01,  2.02288222e+00,
     2.33535361e+00, -4.65302050e-01,  6.08656883e+00, -5.58678865e+00, -9.38063431e+00, -5.83604515e-01, -1.31467044e+00, -2.43703270e+00,
    -1.85582840e+00,  7.45029300e-02, -3.07059956e+00, -1.31174028e+00,  1.57240260e+00,  3.11866498e+00,  1.67123532e+00,  7.66283810e-01,
    -1.43868434e+00, -1.36880949e-01,  2.12414455e+00,  1.78185034e+00,  1.68312645e+00, -2.91859841e+00,  1.63411093e+00,  1.91838133e+00,
    -1.68312788e+00,  1.27432275e+00, -7.43342221e-01,  2.25452638e+00,  1.81995904e+00, -6.55618787e-01, -1.59332454e-01, -2.31505632e-01},
   {-8.59118402e-01,  1.93760312e+00,  4.18071628e-01, -1.64523268e+00, -1.16038835e+00, -6.35240138e-01, -2.15707636e+00,  2.60428071e+00,
     2.89237118e+00, -5.32992892e-02, -1.02940217e-01, -1.19661629e+00,  2.02827001e+00, -1.13379836e+00,  1.24155390e+00, -1.15354908e+00,
    -1.72983181e+00, -5.81047118e-01, -9.02319193e-01, -1.43444121e+00,  4.75098550e-01, -1.05233915e-01,  1.37731671e-01, -3.82187545e-01,
    -2.12966561e+00,  9.89760041e-01, -1.29090128e-02, -1.73372221e+00, -3.26964664e+00, -2.24668527e+00,  2.27632022e+00, -3.38121343e+00,
    -2.36102200e+00, -6.05453670e-01, -1.29521203e+00, -1.61632095e-02,  1.39017570e+00, -5.43514299e+00,  8.35603774e-01,  1.10165632e+00,
    -1.18997610e+00, -3.76704454e-01, -2.39039683e+00,  5.02043545e-01, -3.56387830e+00,  3.25634408e+00, -8.91372800e-01, -1.19010735e+00,
     2.78209269e-01, -1.26821864e+00, -2.93333709e-01, -1.60992730e+00, -2.11613536e+00,  1.98531938e+00,  4.42648619e-01, -6.77478135e-01,
    -2.25891685e+00, -2.69699144e+00, -1.39861733e-01, -3.15653300e+00,  1.96324384e+00,  2.19670749e+00, -3.61136615e-01, -1.06777154e-01},
   {-1.49102259e+00, -5.17178237e-01, -1.07684422e+00, -6.64789617e-01, -1.51871395e+00,  8.04116070e-01, -4.68705952e-01,  5.77517033e-01,
    -1.05029809e+00,  1.36964631e+00, -5.99627554e-01,  1.18469870e+00, -3.17747021e+00, -1.15885243e-01,  1.37015057e+00,  1.04272246e+00,
     2.68530905e-01,  1.37950408e+00,  1.91799736e+00, -1.09572816e+00,  2.65736771e+00, -1.47346246e+00,  1.32699478e+00,  3.83477151e-01,
     8.35070670e-01, -3.00939608e+00, -8.89682114e-01,  3.06820226e+00, -1.81626236e+00, -1.36056042e+00,  7.51825988e-01,  1.07564062e-01,
     2.73969722e+00, -8.11100304e-01,  1.83596420e+00, -6.26375484e+00,  2.91535068e+00, -3.08671498e+00, -9.05231953e+00, -2.84745932e+00,
    -5.59000134e-01,  8.71749103e-01, -2.29441977e+00, -2.53765225e+00,  4.40481007e-01,  1.56277132e+00,  1.44266129e+00, -1.79882860e+00,
    -3.09289813e+00, -8.66915226e-01,  8.82439256e-01, -1.63815200e+00, -3.61613607e+00, -1.06092393e+00, -1.36716819e+00,  3.10617894e-01,
     1.97969365e+00, -1.13973069e+00, -2.91538787e+00,  2.08021188e+00, -2.76575983e-01,  1.30217862e+00,  4.26872396e+00, -7.94457197e-01},
   {-8.01470459e-01,  1.33153152e+00,  4.37115812e+00,  7.26141185e-02, -7.67001033e-01,  9.83481944e-01, -8.50552797e-01, -1.23232889e+00,
     4.93422061e-01, -2.36799479e+00,  1.13385522e+00, -7.84337223e-01, -1.76763976e+00,  7.30142236e-01,  1.58646977e+00,  9.63096440e-01,
     2.39825606e-01, -1.62719667e+00, -2.16408587e+00, -2.09411442e-01,  5.64921284e+00,  1.49323857e+00, -7.15438426e-01, -1.66745877e+00,
    -1.20366752e+00,  6.97264731e-01, -1.17982066e+00,  1.16010261e+00, -1.41390190e-01, -1.00773215e+00, -9.68635499e-01, -2.08760619e+00,
    -5.32955027e+00, -5.62736988e-01, -1.61166042e-01, -1.48762250e+00,  2.00102639e+00,  2.30172619e-01,  4.68142939e+00, -6.53965664e+00,
    -7.81442106e-01, -1.32183683e+00, -2.69662172e-01, -1.38668463e-01, -4.62868601e-01,  1.13826597e+00,  1.22835231e+00, -1.33595300e+00,
    -6.15582824e-01,  7.93892145e-01,  5.66406727e-01, -2.00916815e+00,  1.19899762e+00,  1.12016773e+00, -1.61879992e+00, -5.99752307e-01,
    -4.74140674e-01, -2.10258055e+00,  3.82578540e+00, -2.55273151e+00, -2.00881958e+00,  2.77149534e+00,  2.60170746e+00, -1.27902555e+00},
   {-2.98315406e-01,  1.83325028e+00, -3.36590934e+00, -1.56634843e+00, -2.11574405e-01,  3.82347912e-01, -3.96145880e-02,  1.12060046e+00,
    -1.49040088e-01,  1.11161339e+00,  2.62696475e-01,  1.42262101e+00,  1.18320119e+00, -8.19952786e-01, -1.19141150e+00, -1.85621905e+00,
    -2.34684587e+00, -1.70622575e+00, -1.45572925e+00, -2.98434973e-01,  3.01636219e+00, -1.12231478e-01, -4.07847375e-01,  1.17320150e-01,
     1.08711994e+00,  2.94389158e-01,  1.84595191e+00, -1.84672832e-01,  2.45853394e-01,  1.03201199e+00,  2.08805704e+00,  7.33937502e-01,
    -8.48642409e-01,  1.48676372e+00, -4.17433769e-01, -1.24801910e+00, -1.06375754e+00,  6.03810489e-01,  5.02706885e-01, -5.61319470e-01,
    -7.52711153e+00, -4.42902237e-01, -1.28328979e+00,  5.86948514e-01, -1.50468290e-01, -1.50174153e+00,  6.63157880e-01, -1.51305437e+00,
    -1.44677234e+00,  2.06485510e+00, -1.71637893e+00, -7.28416741e-01, -1.28027603e-01, -4.50128943e-01, -6.58184171e-01, -2.10449600e+00,
     5.45635045e-01, -1.64308921e-01,  5.64134538e-01, -8.40702415e-01,  2.64624262e+00, -1.46772480e+00,  2.23213291e+00,  2.46035457e+00},
   {-1.84290755e+00, -1.27353179e+00, -1.34111777e-01, -3.41254902e+00, -2.00719178e-01,  1.51809824e+00, -5.73225880e+00, -1.97306287e+00,
     8.45322132e-01, -1.74781494e-02, -2.09919882e+00, -9.54607069e-01, -1.42204142e+00,  1.86914527e+00, -1.02064407e+00,  1.02305293e+00,
    -1.85669020e-01, -4.74452829e+00, -3.55307388e+00, -1.74476278e+00,  1.35281456e+00,  2.09085107e+00, -2.05238605e+00, -1.73117828e+00,
    -4.55873346e+00, -8.85371029e-01, -2.27848577e+00,  4.56376123e+00,  3.56621802e-01,  5.88621616e-01, -7.03104377e-01, -4.11652708e+00,
    -5.43833494e-01, -2.04219484e+00, -4.10253477e+00,  3.42544889e+00, -1.70146525e+00, -5.53461027e+00, -1.17863619e+00,  5.60395658e-01,
     1.18529344e+00, -6.50579548e+00,  1.16762376e+00,  6.52224839e-01,  8.33952665e-01,  3.54453683e-01,  2.26733136e+00,  1.63197294e-01,
    -2.35226679e+00, -1.89163697e+00, -1.69719696e+00, -3.45486283e+00, -1.15570056e+00,  5.36390722e-01,  1.76737642e+00, -1.69140387e+00,
     7.67876267e-01, -2.76673317e+00, -2.14248800e+00, -6.37181938e-01, -2.86795664e+00,  9.88486469e-01,  4.46603410e-02,  1.04100481e-02},
   {-1.13446422e-01,  7.11557269e-01,  3.00929904e+00,  9.30755198e-01,  1.78044093e+00,  1.67878270e-01,  2.23740935e-01,  1.68270624e+00,
     5.81604838e-01, -4.05307913e+00,  1.43002427e+00, -4.14770794e+00, -2.38982201e+00,  1.73469794e+00,  2.36950770e-01,  1.15272832e+00,
    -1.99162948e+00,  7.85631873e-03,  2.39644504e+00,  2.73098111e+00,  6.56874466e+00, -1.91130295e-01, -5.82479954e-01,  2.71010280e+00,
     5.32346606e-01,  2.09533882e+00, -1.21964231e-01,  8.05000782e-01,  3.95826626e+00, -1.04379702e+00, -1.41089118e+00,  9.31208253e-01,
     3.42388928e-01,  6.19286716e-01, -1.22871757e+00,  2.72358632e+00,  1.53160679e+00, -4.58900547e+00,  2.29729939e+00, -2.39714026e-03,
    -6.44916296e-01,  3.53922033e+00, -9.06467056e+00, -8.86694431e-01,  2.03808498e+00, -9.91295397e-01, -3.53626199e-02, -2.33066821e+00,
    -6.50185421e-02,  1.16410762e-01,  8.18449914e-01,  1.37844610e+00, -1.52890265e+00, -1.34502485e-01,  2.48001885e+00,  7.96656013e-01,
    -4.07675409e+00,  3.26156706e-01, -3.76369572e+00,  1.20749801e-01, -2.76368999e+00,  2.38331604e+00, -3.68829370e-01, -1.54461348e+00},
   { 6.35564029e-01,  1.87387669e+00,  7.56435096e-02,  4.90699932e-02,  3.18188262e+00,  1.76328266e+00, -3.20044696e-01,  2.36920580e-01,
     5.51437235e+00, -7.44971335e-02, -8.04314315e-01,  2.75266743e+00,  2.42166495e+00,  1.18215013e+00,  1.41077232e+00, -1.70101726e+00,
    -2.53045034e+00, -3.21203738e-01, -1.83913803e+00,  3.54106688e+00, -1.44732881e+00,  1.98936856e+00,  1.29304993e+00,  1.19125199e+00,
     8.84024680e-01,  4.32723671e-01,  1.83832526e+00, -9.06834900e-01, -1.08523214e+00,  1.51098287e+00, -6.65585577e-01,  8.10216188e-01,
    -1.14414322e+00,  2.36419201e+00, -2.16529921e-01,  2.52975464e+00, -1.26294744e+00,  1.16641499e-01,  3.71575356e+00, -1.81021035e-01,
     4.96306717e-01, -1.92236292e+00, -2.55805016e-01,  1.13049459e+00, -1.40555942e+00,  4.93193483e+00,  1.41329038e+00, -1.47891402e-01,
     1.73555255e+00,  3.83560514e+00,  1.33004785e+00, -2.30262652e-01, -2.58336931e-01,  7.78908908e-01,  3.38390410e-01,  1.06110966e+00,
    -1.57881331e+00,  2.94526339e+00,  1.38633919e+00, -8.47920656e-01,  1.45092165e+00,  9.57841337e-01, -6.37264371e-01,  5.56751013e-01},
   {-2.45944357e+00, -4.00317818e-01,  3.81007791e-01, -1.58384275e+00, -2.92643356e+00, -1.62145686e+00, -1.75645292e+00, -2.39958382e+00,
    -1.97746292e-01, -4.31033969e-01,  4.02796090e-01, -1.41978133e+00, -9.05766010e-01,  6.31495416e-02, -1.50299966e+00, -1.65023357e-01,
     8.33262324e-01, -2.86567032e-01, -7.04536974e-01, -2.30994630e+00,  6.78909600e-01, -3.27930474e+00, -1.11500788e+00,  1.22607864e-01,
    -2.36762238e+00, -1.29219127e+00, -3.03854489e+00,  2.04916430e+00,  1.52295351e+00,  1.16134512e+00, -1.09023941e+00,  2.26710534e+00,
    -1.68475199e+00, -2.79211593e+00,  1.13186765e+00, -4.82270628e-01, -1.91043451e-01, -3.20996809e+00,  1.15095770e+00, -1.13980448e+00,
    -3.72970998e-01,  1.98301351e+00,  8.59664679e-01, -3.03364253e+00, -4.39310551e+00,  2.95946300e-01, -1.50361940e-01, -1.67577040e+00,
     4.56581533e-01, -2.99364388e-01,  1.18130684e+00, -1.75806656e-01, -1.28201175e+00,  9.07217786e-02, -2.55672622e+00,  7.50653446e-02,
     1.07942748e+00, -1.86375558e+00, -2.99635983e+00,  1.25824839e-01, -2.22800326e+00, -1.79871356e+00,  6.08744085e-01, -8.61716628e-01},
   {-1.96462047e+00,  5.12033820e-01,  1.10709243e-01, -9.17373538e-01, -1.30142069e+00,  2.02056885e+00, -9.20741975e-01,  5.73897839e-01,
     5.11326694e+00, -2.11844277e+00,  1.01695120e-01,  4.52219754e-01, -3.20907211e+00,  1.97783542e+00,  2.09138370e+00,  1.60447046e-01,
     1.41568112e+00, -1.95778024e+00, -1.50754809e+00, -1.81434721e-01, -1.96580279e+00,  2.66538262e-01,  2.27422881e+00, -1.11475432e+00,
     8.00235510e-01,  8.79758120e-01, -4.66747433e-02, -2.09099650e+00, -2.77265406e+00,  4.10562642e-02,  1.66315067e+00, -3.03794575e+00,
    -4.03673470e-01,  5.86282194e-01, -7.91942060e-01, -1.80086422e+00,  1.89068985e+00,  3.32677811e-01,  1.86923933e+00,  6.68994486e-01,
    -2.57386422e+00, -7.23585367e-01, -1.60297084e+00,  5.38177669e-01, -9.75186527e-01, -1.05045843e+00,  2.16324019e+00, -6.25132099e-02,
     3.42728555e-01,  2.55723387e-01, -2.79085588e+00, -4.98529911e+00,  3.90600860e-01,  2.07253838e+00,  1.41808510e+00,  6.59346759e-01,
    -3.78635263e+00, -2.73362130e-01,  6.94011033e-01, -4.44974273e-01, -1.15809131e+00,  3.94867086e+00, -1.90475941e+00, -2.62270522e+00},
   { 7.39309490e-01, -7.65507281e-01,  2.60670328e+00, -5.09222937e+00, -1.91213596e+00, -1.43483734e+00, -9.24472034e-01, -2.32495332e+00,
     1.36621666e+00,  2.29839161e-01, -3.06391746e-01, -2.70289838e-01, -4.10050631e+00, -2.44813824e+00,  3.47807407e+00,  1.47932947e-01,
     3.55451989e+00, -7.03950942e-01, -2.53310537e+00,  1.25109577e+00,  2.69013810e+00,  2.98164177e+00,  1.26750052e+00,  9.80295166e-02,
    -8.48939866e-02,  1.93889523e+00, -8.44680607e-01,  3.70638847e+00,  5.50890088e-01, -5.60382962e-01,  1.01905227e+00, -1.95514643e+00,
    -1.71431422e+00,  3.28399748e-01,  1.03466988e+00, -1.03519428e+00, -7.36351728e-01,  2.00355411e+00,  1.96759808e+00, -1.59860790e+00,
    -1.08427846e+00,  1.19678557e+00,  3.81638259e-01,  1.65523612e+00,  1.31033111e+00,  7.23541355e+00, -1.22071910e+00,  3.93083654e-02,
    -1.46007970e-01,  7.40699172e-01, -6.95007265e-01, -9.27919626e-01,  2.76915979e+00,  1.08429754e+00, -1.81352520e+00, -4.01326275e+00,
    -1.80490747e-01, -7.45754719e-01,  3.70433211e+00, -3.32030463e+00, -2.53229952e+00,  1.46165586e+00,  1.07630718e+00, -7.49752343e-01},
   {-4.13435125e+00,  2.54099298e+00, -2.57467318e+00,  1.72660303e+00, -5.52227020e+00, -3.43360901e+00, -1.19707739e+00, -1.22255094e-01,
     2.49211907e+00, -2.94396734e+00,  2.34262556e-01, -3.44637227e+00,  8.60060528e-02, -1.93272066e+00, -2.82651573e-01, -1.40976465e+00,
     1.16380608e+00, -2.25472140e+00, -1.74047875e+00, -1.36676610e+00, -1.63133419e+00, -7.97122002e-01, -1.46346128e+00, -5.85117877e-01,
    -6.57719672e-01,  1.19666886e+00, -4.96138334e-01, -1.38830328e+00, -1.19230366e+00,  1.83690917e+00,  3.22066283e+00, -6.40416518e-02,
     1.44337380e+00, -7.46056974e-01, -1.30399477e+00, -1.42698574e+00,  3.89744826e-02,  1.73802495e+00,  1.42240238e+00,  7.15943277e-01,
    -1.26546907e+00,  3.08381230e-01,  1.29776073e+00, -3.55924219e-02,  2.71077394e-01,  2.37475753e+00,  1.78954148e+00, -1.04062929e+01,
     4.75384188e+00,  2.58634639e+00, -1.94924319e+00, -1.20821631e+00,  4.42580462e-01,  2.53780460e+00,  1.08345115e+00, -1.15248764e+00,
    -9.31856096e-01,  2.04496324e-01,  3.24921679e+00,  8.24111402e-01,  2.43767053e-01,  8.97882357e-02, -3.67275882e+00, -1.76077974e+00},
   {-3.12502623e-01,  7.35242069e-01,  1.98181713e+00, -3.68867040e-01, -4.63117266e+00,  1.34515750e+00, -2.50530386e+00, -1.28436720e+00,
     6.38527095e-01,  1.43885851e+00, -2.55017996e+00,  3.25361043e-01, -4.61365032e+00,  2.95229316e-01,  2.13500309e+00, -5.44311225e-01,
     2.25679135e+00, -1.08008444e+00, -1.82101488e+00, -2.69291544e+00,  2.19619662e-01,  3.87017615e-03,  3.51071239e+00, -4.08861309e-01,
    -2.65306640e+00,  1.75324667e+00, -1.53153002e+00,  3.13584661e+00,  1.86540037e-01,  1.56393456e+00,  2.64579558e+00, -2.90486431e+00,
     2.25570336e-01, -1.43427253e+00,  6.60874128e-01,  3.68436147e-03,  7.80043542e-01,  2.66632223e+00,  3.36498642e+00,  1.61326325e+00,
     3.34018320e-01,  2.75798082e+00,  6.44659817e-01, -1.31047225e+00,  8.91254544e-01,  3.85576606e+00,  1.96337092e+00,  1.48516572e+00,
    -8.01654720e+00, -6.53384089e-01, -1.68136752e+00, -2.84588313e+00,  3.51073056e-01,  1.56077254e+00, -2.73207188e+00, -5.59530973e-01,
    -2.64869094e+00, -1.79637671e+00,  2.33151984e+00, -3.74134731e+00, -2.60288954e+00,  1.68610716e+00, -1.96376145e-02,  1.21420808e-01},
   {-1.07184589e+00, -3.20315552e+00, -2.00736165e-01,  8.21428180e-01,  1.38693023e+00,  1.36338186e+00, -7.56503701e-01,  1.29177463e+00,
    -1.00248277e-01, -6.97173119e-01, -2.37193123e-01, -3.23553824e+00, -9.10482121e+00,  1.27252614e+00, -1.04856002e+00,  6.40426457e-01,
     8.71650994e-01,  1.67633545e+00, -1.22251563e-01, -3.00353378e-01,  3.46799922e+00,  3.84333760e-01,  7.24899292e+00,  2.56897807e-01,
    -3.70433658e-01,  1.29786938e-01, -4.34129119e-01, -6.39909387e-01, -5.40268421e-01, -1.22666955e+00, -3.69149745e-01,  2.84896016e-01,
     2.87361294e-01, -1.12811005e+00, -2.04928946e+00, -1.10751569e+00,  1.63833630e+00, -2.43363333e+00,  2.88328648e+00,  1.16202846e-01,
    -1.38586617e+00, -1.42944837e+00,  1.87861311e+00, -7.55860090e-01,  8.72758746e-01, -4.89250273e-01, -1.65620983e+00, -4.34959650e+00,
    -1.76533210e+00, -3.27485418e+00, -1.40618539e+00, -4.27331716e-01, -8.19586396e-01,  2.19884962e-02, -3.51757169e+00,  6.57088935e-01,
    -7.63345659e-02, -1.28558064e+00, -6.79943264e-01, -3.27309191e-01, -3.67070079e+00,  9.71183240e-01,  1.47989452e+00,  1.56928062e+00},
   { 7.88092077e-01, -3.93355560e+00,  2.83115566e-01,  1.87121236e+00, -4.48129267e-01,  1.13763595e+00,  7.13932157e-01, -2.51193523e-01,
    -3.45959735e+00, -6.97305679e-01, -2.25389361e+00, -7.75987327e-01, -2.95159888e+00,  8.02650154e-01,  1.94706827e-01,  6.65391624e-01,
     5.33178747e-01,  3.68216217e-01,  5.01912773e-01,  6.00590885e-01, -3.59912276e-01, -3.19611764e+00, -1.54784155e+00, -3.10909569e-01,
     1.03891325e+00, -8.31502378e-01, -2.63508177e+00, -3.32850862e+00,  1.57024908e+00, -2.07553458e+00,  1.58641362e+00, -3.73164900e-02,
     3.88323498e+00, -1.42487133e+00, -5.12257159e-01, -2.43192983e+00,  2.87514234e+00, -1.59007502e+00, -6.15619659e-01, -1.85595345e+00,
    -1.21925974e+00, -8.91062140e-01,  1.67976606e+00, -3.98302984e+00,  3.63843232e-01, -1.39573276e+00, -2.37703070e-01, -8.81472588e-01,
     1.45043087e+00,  2.56677485e+00, -6.40323353e+00,  2.25062943e+00, -2.65101862e+00, -2.75491071e+00, -2.75376225e+00,  1.78828824e+00,
     1.48777533e+00, -1.65651464e+00, -1.76020169e+00,  3.15912795e+00, -2.61996865e+00,  1.38270378e+00, -2.27704998e-02,  8.84105451e-03},
   { 2.24286842e+00, -2.46791625e+00,  8.23356152e-01,  1.19033659e+00, -3.64925647e+00, -9.23648477e-01, -9.19998586e-01, -7.16432452e-01,
    -3.63441277e+00, -1.27627011e-02, -7.12190926e-01, -3.70833111e+00,  1.03819585e+00, -2.41925931e+00, -1.85775805e+00, -1.62262452e+00,
    -1.82149017e+00,  5.29249072e-01,  2.55575776e-01,  1.23914838e+00, -2.18727216e-01, -5.94144011e+00, -2.93273449e+00,  4.81103398e-02,
     2.39002079e-01, -2.59302115e+00, -5.34745598e+00, -1.17511261e+00,  1.73343563e+00, -2.25239420e+00, -1.14083958e+00, -1.73369303e-01,
     1.41694605e+00, -4.61106825e+00,  9.81118560e-01, -4.35571575e+00,  3.24204111e+00, -1.23961866e+00,  5.85658252e-01, -2.03824830e+00,
    -2.52191830e+00, -9.96219274e-03,  1.96495152e+00, -5.69322586e+00,  2.08918262e+00, -1.13895357e-01,  1.04062092e+00,  2.48877600e-01,
     3.78420621e-01,  1.00876905e-01,  1.82978415e+00, -4.18624830e+00, -3.02965188e+00, -3.47680283e+00, -2.32294846e+00,  3.67548108e-01,
    -6.74274802e-01, -3.94060230e+00, -2.98262334e+00,  2.39628106e-01,  2.81539023e-01, -5.11671185e-01,  2.88920188e+00, -1.28423619e+00},
   { 1.61887085e+00,  3.30613661e+00,  1.23149288e+00, -3.60610604e+00,  1.16845965e+00,  2.30138826e+00, -1.74425590e+00,  4.52122986e-01,
     1.88552094e+00,  1.22412705e+00, -2.66521168e+00,  9.89754438e-01,  1.14917815e-01, -3.99793625e-01, -2.17235684e-01, -3.36405468e+00,
    -4.87711430e+00, -4.08796930e+00, -6.51482046e-01, -4.68957603e-01,  5.15423596e-01,  1.01353359e+00, -3.68193090e-02, -2.23458409e+00,
    -2.18190837e+00,  2.23764682e+00, -2.12972835e-01, -1.13008177e+00, -2.52516437e+00, -1.21943557e+00,  2.78804207e+00, -5.46142912e+00,
    -5.15783787e+00,  1.52573860e+00, -1.91143143e+00,  4.29868132e-01, -1.31616497e+00,  5.32530975e+00,  2.63903236e+00,  1.22588706e+00,
    -1.17632473e+00, -2.98359966e+00, -3.20133901e+00,  7.87696779e-01, -5.22923088e+00,  4.49829197e+00,  2.80211473e+00,  1.02160215e-01,
    -2.84053832e-01,  1.71656632e+00, -3.20108342e+00, -2.56338286e+00, -5.97485638e+00,  1.91784668e+00,  9.16227698e-01, -1.42267919e+00,
     4.97633934e-01, -8.00681263e-02,  1.12220562e+00, -4.15986300e+00,  1.74873874e-01,  6.34557068e-01,  8.98896717e-03, -4.31686431e-01},
   {-2.60442185e+00,  8.73730898e-01,  2.70765948e+00, -1.29664385e+00,  6.27777100e-01, -5.09052277e-01, -3.17669302e-01, -1.37024891e+00,
     1.89015782e+00, -5.86031914e+00, -1.00412905e+00, -4.58653629e-01, -8.13219786e-01,  2.31876567e-01,  2.45505452e-01,  2.08988500e+00,
     8.52766812e-01, -7.50039041e-01, -3.75396323e+00,  3.02168995e-01,  4.95142508e+00,  3.23671889e+00, -1.10164315e-01, -7.90503085e-01,
    -4.16550219e-01,  2.78740525e-01,  2.30557039e-01,  3.15548563e+00,  1.60335159e+00, -1.81684732e-01,  7.25130260e-01, -1.28884435e+00,
    -6.20647252e-01, -6.16804600e-01,  3.09423774e-01,  2.07356715e+00,  1.23408604e+00, -8.34138870e-01,  3.05250907e+00, -6.87408626e-01,
    -1.95276648e-01,  1.97583640e+00, -5.98884106e-01,  1.05001128e+00, -1.11088109e+00,  4.63421643e-01,  1.42644894e+00, -9.69234169e-01,
    -7.05185682e-02, -2.51738834e+00, -4.13571775e-01,  1.07950842e+00,  7.16947675e-01, -5.85042429e+00,  9.65390354e-02, -1.08994079e+00,
    -1.52658403e+00,  1.77379876e-01,  8.04456532e-01, -4.59321946e-01, -1.83578527e+00,  1.08262944e+00,  2.29036236e+00, -1.27894807e+00},
   {-1.10733998e+00,  1.97501510e-01,  1.88227725e+00, -1.71692550e+00,  2.42989063e+00, -9.32534575e-01,  1.91436075e-02, -5.53335667e-01,
     5.29645348e+00,  6.34500325e-01, -9.29893106e-02, -9.97813284e-01,  9.41075134e+00,  6.01542532e-01,  4.06365305e-01, -2.67887443e-01,
    -2.18008208e+00, -5.05688143e+00,  4.35620666e-01,  1.74443877e+00,  2.78848678e-01,  1.40830350e+00, -3.75471544e+00,  6.74042761e-01,
     1.85681844e+00,  1.44392633e+00,  6.61518872e-01, -7.47899339e-02, -5.29707730e-01,  1.13516533e+00, -2.27251649e+00, -4.13908195e+00,
    -1.47235811e-01,  3.19804341e-01, -5.52300394e-01,  2.27641463e+00, -4.24699076e-02, -2.03823495e+00,  1.11581028e+00, -8.06359231e-01,
     1.12570941e+00, -1.89190185e+00,  8.07823718e-01,  1.40385938e+00, -4.13010025e+00,  1.69855881e+00,  8.25542629e-01,  3.78583264e+00,
