#ifndef __FASTGRNN_GRNN1_PARAMS__
#define __FASTGRNN_GRNN1_PARAMS__

#define GRNN1_HIDD_DIM0 (64)
#define GRNN1_HIDD_DIM1 (32)

// clang-format off

const float GRNN1_ZETA = (-2.143325e-01);
const float GRNN1_NU = (-5.284311e+00);

const float GRNN1_BIAS_UPDATE[32] = 
   { 1.26749408e+00,  4.75147128e-01,  1.45030713e+00,  4.62547272e-01,  7.14127183e-01, -9.47907791e-02, -3.25274646e-01,  5.10939646e+00,
     1.45743227e+00,  1.39620438e-01,  1.86608493e+00,  4.89782810e-01,  7.59783108e-03,  8.86848271e-01,  4.75023594e-03,  6.78645372e-01,
     6.70362234e-01,  2.39657864e-01,  7.61859179e-01,  2.57793546e-01,  4.79382932e-01,  5.29287994e-01,  6.86271861e-02,  1.24539165e+01,
     1.36075068e+00,  4.68979418e-01,  4.48281497e-01,  7.26063132e-01,  5.06488800e-01,  1.66383338e+00,  8.15144658e-01,  1.58643687e+00};

const float GRNN1_BIAS_GATE[32] = 
   { 3.91485500e+00,  1.57087922e+00,  3.59322357e+00,  2.13484478e+00,  2.42423773e+00, -1.68605506e+00,  2.14784169e+00,  2.10996771e+00,
     3.14007664e+00,  1.30258524e+00,  4.08392429e+00,  1.54973543e+00, -4.96377289e-01, -1.97207004e-01, -7.48485774e-02,  1.95763958e+00,
    -9.00050223e-01,  2.23200107e+00,  1.63404346e+00,  1.44729078e+00,  1.06912804e+00, -1.97066975e+00,  1.67626888e-01,  4.03669167e+00,
     2.23885441e+00,  3.26821297e-01,  5.75715959e-01,  2.54146171e+00,  3.75158215e+00,  3.81489229e+00,  3.52857590e+00,  4.83944559e+00};

const float GRNN1_W[32][64] = {
   {-3.65310073e-01,  1.82211846e-01, -6.28634274e-01,  1.07344186e+00, -4.70327288e-01,  4.82688129e-01,  2.02108044e-02,  9.45357680e-02,
     6.67053461e-01,  4.67264622e-01,  3.12312394e-01, -9.48120952e-02, -1.40363500e-01,  2.77645707e-01,  9.02341902e-01, -7.09294677e-02,
     8.05016100e-01,  1.17246306e+00, -5.82780719e-01,  1.27072823e+00, -8.00138861e-02, -3.10173661e-01, -4.66556996e-01, -5.35978317e-01,
     1.50774002e-01,  1.79821663e-02, -1.40170360e+00,  1.21089712e-01, -5.02669215e-01, -1.31210232e+00,  4.90292907e-01,  1.16402499e-01,
    -4.11412686e-01,  6.18901968e-01,  1.45983785e-01, -6.94026113e-01,  1.36416197e+00,  1.06624842e+00, -2.93803632e-01,  2.87636835e-02,
    -4.12495047e-01,  1.26478803e+00,  6.89613461e-01, -6.50673449e-01, -6.54744983e-01, -3.22592735e-01, -1.96465291e-02,  9.66352522e-01,
    -7.49818146e-01, -1.87394217e-01,  1.34212241e-01, -2.79182136e-01,  1.43915594e+00, -5.87516427e-01,  1.57113429e-02,  4.54954714e-01,
    -1.12465501e+00,  4.26264882e-01,  7.78863609e-01,  8.34497333e-01,  4.83787209e-01, -8.43310237e-01, -3.33145082e-01, -3.18732671e-02},
   {-2.43238345e-01,  3.99193078e-01, -4.82440501e-01,  8.75617802e-01,  1.93375349e-01, -3.87088895e-01, -1.48676082e-01, -4.23476726e-01,
     3.55672061e-01, -5.03339469e-01,  1.13541819e-01, -1.45613164e-01,  4.09573555e-01,  1.99214518e-01,  5.76204479e-01, -1.02422610e-01,
    -3.00353736e-01,  3.84091474e-02, -4.90568995e-01,  6.51153028e-02,  8.17344785e-02, -1.76781006e-02,  7.06134975e-01, -1.57138795e-01,
     6.83835447e-02,  1.04042494e+00,  1.84469715e-01, -5.21974802e-01, -1.50816828e-01, -2.28629664e-01, -8.05823505e-02,  3.17315698e-01,
    -3.16291183e-01,  3.71284038e-01,  3.72000411e-02,  6.87198043e-02, -6.48843825e-01,  1.06616294e+00,  1.19843952e-01, -9.00555909e-01,
     1.91649556e-01,  1.34401941e+00,  9.31270063e-01,  3.40694815e-01,  8.18023831e-02,  1.16472282e-01, -1.33540154e-01,  2.69758284e-01,
     9.12640154e-01, -1.64143041e-01,  3.88007581e-01, -3.24307501e-01,  7.06963778e-01,  1.40488014e-01,  1.25934079e-01, -1.07428230e-01,
     6.04363561e-01, -3.07989687e-01, -1.93044804e-02,  3.10725998e-02,  3.94913614e-01,  1.58934314e-02, -1.24304093e-01,  9.61331725e-01},
   { 5.38651273e-02, -2.21624941e-01, -3.55979294e-01,  1.06458700e+00,  4.92608137e-02, -2.76397914e-01,  4.11342047e-02, -5.07353961e-01,
     2.05575898e-01,  8.63599181e-02,  3.95261943e-01,  4.34382930e-02,  6.55149996e-01, -1.23362410e+00,  6.59813106e-01,  5.87757230e-01,
    -1.82636768e-01, -1.12212382e-01,  1.14703619e+00,  8.56594555e-03,  1.07256174e-01, -1.76990945e-02, -2.29124352e-01,  6.11079633e-01,
     7.98559785e-01,  6.06022298e-01, -7.18980491e-01,  4.58580941e-01, -6.83811605e-01,  1.31187451e+00,  1.11760847e-01,  5.46825640e-02,
    -3.48361582e-01,  3.80408317e-01, -7.73659706e-01, -5.03117681e-01,  1.77616253e-01,  7.26147830e-01, -2.48164341e-01,  1.73913026e+00,
     3.13981444e-01, -1.94802675e-02,  1.03183317e+00,  1.33599520e+00, -1.12609875e+00,  8.75345886e-01, -3.24079186e-01, -2.91922063e-01,
     3.28021973e-01, -3.75044674e-01,  4.13176119e-01,  1.37747779e-01, -1.24504671e-01,  7.53827751e-01, -4.09812570e-01, -4.42923903e-01,
     3.05056751e-01, -2.17089325e-01, -7.03601837e-01, -5.89460552e-01,  6.59599245e-01, -1.76327795e-01,  4.04967129e-01,  4.18809444e-01},
   {-6.68655336e-02,  6.27690315e-01,  7.72223055e-01, -6.38846159e-02,  2.99609125e-01,  3.98475170e-01, -2.50548542e-01, -9.79041874e-01,
    -1.16333628e+00, -3.95327568e-01,  1.20991433e+00,  7.42986679e-01,  7.93833256e-01,  5.99157214e-01,  5.75280227e-02, -1.89699769e-01,
    -2.13299736e-01,  1.39722973e-01, -3.28440487e-01, -2.51557022e-01,  7.28849247e-02,  7.25873113e-02, -8.31423938e-01, -5.36472201e-01,
    -4.39556241e-01, -1.68370259e+00,  2.03892484e-01,  7.16108918e-01,  4.76685554e-01, -2.40754694e-01, -7.20903575e-01, -7.55350173e-01,
     1.58666968e-01,  3.94060701e-01,  9.27655101e-01,  2.27548748e-01, -5.74389249e-02, -4.09308553e-01,  3.96626651e-01, -6.49856269e-01,
     4.49689090e-01,  2.10686848e-01, -1.64945030e+00, -7.70182312e-01, -1.87463894e-01,  7.37471104e-01,  4.27121609e-01,  3.40531915e-01,
     2.48673201e-01,  6.43705606e-01,  1.39034760e+00, -2.02437669e-01,  4.01588455e-02,  2.15516314e-01,  4.48603272e-01, -1.19494605e+00,
    -1.02249777e+00, -4.40867424e-01, -2.77315378e-01, -2.59931922e-01,  6.68977857e-01,  6.83122873e-02,  2.52835065e-01, -7.30487764e-01},
   {-1.15698189e-01, -3.54409367e-01,  2.97062188e-01, -5.15439987e-01,  8.74288321e-01,  5.13577342e-01, -1.07533053e-01, -5.69755852e-01,
     4.58371550e-01, -2.56829888e-01,  4.13431048e-01,  2.03001767e-01,  6.55018449e-01, -2.32096925e-01, -7.60236204e-01, -6.55861914e-01,
     7.48953596e-02,  4.42543298e-01,  7.77829111e-01, -1.24730515e+00, -3.55009794e-01,  1.71072394e-01,  5.73567927e-01,  1.11194374e-02,
     3.46008271e-01, -1.78696200e-01,  7.40710422e-02, -3.16290818e-02, -2.42160708e-01, -6.84558272e-01,  1.27307177e+00, -2.86747605e-01,
     8.69261920e-01, -9.86155197e-02,  1.62069350e-01, -5.52585006e-01, -9.94759202e-01, -8.35939944e-02, -3.14109296e-01,  1.70783937e-01,
     3.27495664e-01,  9.54907537e-01,  1.38460115e-01, -2.19466090e-01,  2.68421739e-01,  2.96456158e-01,  1.94707558e-01, -5.42804226e-02,
     5.00812948e-01, -5.16346037e-01, -2.16247281e-03,  2.86505550e-01, -6.77263498e-01,  2.98318982e-01,  1.14978835e-01,  7.08703836e-03,
    -7.76263118e-01,  9.05106738e-02,  8.92123044e-01, -5.96387267e-01, -1.19567132e+00,  7.88140535e-01,  2.32443795e-01,  2.54408479e-01},
   { 1.05162248e-01,  1.50208041e-01,  1.31031945e-01, -4.28676248e-01, -2.91459057e-02, -1.26172125e-01,  2.04016924e-01,  1.97792605e-01,
    -5.51497042e-01, -8.76886919e-02,  1.26529753e-01, -1.11208800e-02,  3.24478857e-02, -7.21395135e-01,  4.31867123e-01,  2.66406275e-02,
    -4.34267670e-01,  8.65609497e-02,  5.17173745e-02, -1.39157549e-01,  1.85262293e-01, -2.67057046e-02, -4.76092324e-02,  1.39667124e-01,
     5.02907455e-01,  1.96282536e-01, -1.97888613e-01,  1.21101625e-01,  3.73799056e-01,  4.08499300e-01, -3.03081572e-01,  2.69613266e-02,
     4.79580998e-01, -1.31685078e-01,  3.74830365e-01, -2.31040537e-01,  2.65544266e-01,  6.98269755e-02,  4.11659747e-01,  2.91847587e-01,
     2.25798622e-01, -4.22585875e-01, -2.31816709e-01,  3.01145226e-01, -1.22554712e-01,  7.48159111e-01,  3.47345956e-02, -1.24741040e-01,
     3.84322435e-01,  4.94452268e-01,  5.14304757e-01,  8.69701803e-02, -1.94189072e-01,  3.22774410e-01, -1.57879546e-01, -2.53376495e-02,
     1.93435237e-01, -2.82069653e-01, -1.36284500e-01, -1.45794630e-01,  1.58141583e-01,  1.67132899e-01,  4.94941980e-01,  1.56162918e-01},
   { 2.27284297e-01,  2.41540298e-02,  2.46022415e+00,  1.66362953e+00,  5.84696829e-01, -2.73219287e-01,  8.91564608e-01, -4.52266246e-01,
    -1.11385798e+00, -8.93380225e-01, -3.57522517e-01, -8.94257426e-02, -7.49684274e-02,  2.59797841e-01, -2.47524428e+00,  5.51982939e-01,
    -2.07687116e+00, -7.88948834e-01, -2.24229395e-01,  5.47499537e-01,  1.57252237e-01,  2.73379254e+00, -2.36561194e-01,  3.09109360e-01,
     4.13222045e-01, -4.27440591e-02, -3.92145813e-01, -2.93882221e-01, -2.18131632e-01,  1.94541335e+00,  1.06713569e+00, -2.90762126e-01,
    -1.05881786e+00, -1.44620335e+00, -4.44816709e-01, -1.36979921e-02,  4.44018275e-01,  4.10124520e-03,  2.61913002e-01, -6.22748196e-01,
    -3.46986026e-01, -3.75018030e-01,  2.31138423e-01,  9.74578261e-02,  7.03114450e-01,  8.70870203e-02, -1.16800191e-02, -5.66679277e-02,
     6.85062170e-01,  3.20728332e-01,  5.47116511e-02,  9.17147219e-01, -5.20629346e-01, -3.83483142e-01, -3.48410048e-02, -4.74636927e-02,
     6.74104810e-01,  1.65916070e-01, -2.63506800e-01,  1.62352586e+00, -5.97362876e-01, -2.05956578e-01, -4.48738337e-01, -6.28502786e-01},
   { 5.08991122e-01,  1.06319916e+00,  5.03140986e-01,  5.42189809e-04, -1.87308475e-01,  3.84066880e-01, -2.47858793e-01, -6.21499181e-01,
    -1.24106653e-01, -3.06474715e-01,  9.26538289e-01, -2.79308259e-01,  6.81609809e-01, -8.00167501e-01, -8.49135756e-01, -8.16547096e-01,
     5.29838502e-01,  5.43532193e-01, -5.81689119e-01, -7.11213589e-01, -5.58306396e-01,  1.79876074e-01,  1.96327484e+00,  1.15711354e-01,
    -2.12905016e-02, -5.43301776e-02, -2.71303654e-01, -6.78617179e-01, -6.83862150e-01,  7.39639163e-01, -3.01178962e-01,  2.52004504e-01,
     3.80036563e-01,  7.39088178e-01, -1.13381594e-02, -2.26482868e-01, -5.02832174e-01, -6.25890911e-01, -4.96203393e-01,  2.10809112e-02,
    -4.53184843e-01,  6.13338590e-01,  5.28045297e-01, -9.51994836e-01, -3.55675250e-01, -1.55689359e+00,  1.58637702e-01,  3.36073101e-01,
    -4.54432756e-01,  7.42615044e-01,  1.52520382e+00,  5.95622778e-01,  5.70447326e-01,  3.87570024e-01, -8.76701176e-01, -1.90459096e+00,
    -1.02076912e+00, -4.26932834e-02, -1.43379593e+00,  2.53866822e-01, -1.16439915e+00,  6.27852559e-01, -4.54593003e-01,  1.04064214e+00},
   {-3.79739642e-01,  6.34700418e-01,  1.21894097e+00, -8.60503390e-02, -5.39269075e-02,  6.87791049e-01,  2.69992113e-01, -2.83204138e-01,
     9.39435959e-01,  3.33378106e-01, -4.44924176e-01,  3.58900785e-01,  3.88994008e-01,  3.71486306e-01, -1.86361647e+00, -2.51602501e-01,
     1.18137145e+00,  6.67757273e-01, -9.07485902e-01, -7.16879740e-02,  1.30399451e-01,  3.42522383e-01,  5.30052073e-02, -3.14603359e-01,
     3.98012638e-01, -5.26509769e-02,  2.19561264e-01, -1.02911934e-01, -2.18063921e-01, -2.32823119e-01, -1.15143470e-01, -4.14210618e-01,
     3.52708310e-01,  7.75627673e-01,  1.91878796e+00, -6.47295639e-02,  6.06270611e-01, -2.75419094e-02, -7.38012135e-01,  5.85780680e-01,
     3.25970538e-02,  5.16660452e-01, -3.82813603e-01, -9.02736723e-01,  5.84032796e-02, -1.42061889e+00,  1.34430438e-01,  2.14940473e-01,
    -6.44494832e-01,  3.47903550e-01,  2.28833333e-01,  4.77581918e-02, -1.63819179e-01,  5.12561947e-02,  2.53359050e-01, -5.84652126e-01,
    -7.90996790e-01,  5.09891212e-01,  1.44626766e-01,  2.13774487e-01, -2.53344595e-01,  2.86017329e-01, -3.06453198e-01, -1.09085524e+00},
   {-8.41379836e-02,  7.96872199e-01, -2.10086420e-01,  1.86993200e-02,  8.11041445e-02, -2.69950122e-01, -5.65218747e-01,  7.89581835e-01,
    -3.43769312e-01, -2.82859206e-01,  7.75974810e-01,  1.32803082e-01, -5.73768795e-01,  3.01306158e-01,  8.02218139e-01, -4.53934789e-01,
    -1.22667468e+00, -4.55938071e-01, -2.17925608e-01, -2.26184428e-01, -2.55793542e-01,  9.07157585e-02,  2.80672967e-01, -2.65008420e-01,
    -7.91241080e-02,  5.17206341e-02,  2.89086401e-02, -2.17877656e-01,  3.39133143e-01, -5.25980741e-02, -8.80159318e-01,  1.05638242e+00,
    -1.22399107e-02,  4.55288291e-01,  1.21165097e-01,  7.43073165e-01,  2.29456425e-01,  7.76702166e-01,  4.34669405e-01, -1.69454232e-01,
     1.16356544e-01, -4.21886206e-01,  6.57674730e-01,  5.42371273e-02, -3.84793490e-01,  3.17820311e-01,  2.17509031e-01,  5.73185444e-01,
    -3.33850235e-01,  1.73596695e-01,  1.00410736e+00, -8.02261308e-02,  1.57722056e+00,  1.35298714e-01, -4.31782380e-02, -2.87754864e-01,
     1.19055319e+00, -4.45098996e-01, -7.43921340e-01,  9.85155880e-01, -7.64004290e-01, -3.35001707e-01, -2.70722330e-01,  7.52442703e-02},
   {-2.53828466e-01, -4.67620380e-02, -5.05375266e-02,  1.37717474e+00,  5.93688250e-01, -1.21260524e+00,  1.19451739e-01, -1.29533303e+00,
    -6.21989071e-01,  4.40964133e-01,  3.78335752e-02, -3.43016207e-01,  5.87509036e-01, -9.90598649e-03,  4.77231413e-01, -5.87825775e-01,
    -1.10355151e+00,  3.88066202e-01, -1.08616340e+00,  4.42528933e-01,  2.40711555e-01,  2.04834029e-01,  1.30365670e+00, -3.86736095e-01,
     7.83901215e-01, -2.12496758e-01,  1.48738295e-01, -6.72312379e-01, -5.88027716e-01, -4.11444604e-01, -3.62596303e-01,  4.01425093e-01,
    -1.36120230e-01, -2.91451871e-01,  1.33027956e-01, -8.27665925e-01, -1.42799056e+00,  7.88335204e-01, -1.52346051e+00, -3.26907218e-01,
    -5.75969815e-02,  1.15281999e+00,  5.30372739e-01,  3.40127051e-02,  5.24745405e-01,  6.32490158e-01, -5.11825204e-01, -4.12273288e-01,
     1.35815358e+00,  2.00605035e-01,  4.57644403e-01, -4.82672662e-01,  1.07528162e+00,  8.30269158e-01, -2.63147056e-01, -4.37157601e-01,
    -4.01170015e-01, -5.26762128e-01, -4.75085586e-01, -9.04115215e-02,  8.56592119e-01,  7.41520524e-03,  1.79515630e-01,  6.21027231e-01},
   {-3.84202212e-01,  3.56500208e-01,  7.14953423e-01, -5.18072844e-01, -2.41612494e-01,  3.86846244e-01,  1.41560808e-01,  8.94208729e-01,
     1.93508005e+00, -1.69677168e-01,  1.61863074e-01,  2.96549890e-02, -6.73690140e-01,  2.65641809e-02, -1.13210487e+00, -2.34623879e-01,
     9.33844268e-01, -2.42515072e-01,  8.12483728e-01,  2.15594918e-02, -8.19436014e-02,  3.29279244e-01, -5.29149473e-01, -7.03015998e-02,
    -3.75385731e-02,  4.25559342e-01,  1.81477219e-01,  4.54977974e-02,  3.82111400e-01, -2.09067866e-01,  4.04533505e-01, -5.07339954e-01,
    -2.28666842e-01,  7.78232217e-01, -4.24730986e-01,  1.92933530e-01,  2.43400767e-01, -2.25040093e-01,  7.25177675e-02, -1.59499139e-01,
     6.63439274e-01, -7.37594545e-01,  3.29338580e-01, -9.51453745e-02, -1.44873679e-01, -5.44227004e-01,  1.97124362e-01,  2.55253643e-01,
    -1.15541834e-03,  1.57677323e-01, -6.67225301e-01, -5.03895104e-01, -6.84720516e-01, -6.54148757e-01,  1.64909270e-02, -1.05135433e-01,
     1.36641385e-02, -2.75074661e-01,  1.31078362e-01,  6.48953974e-01, -7.51635492e-01, -3.30755591e-01, -4.53296840e-01, -4.66879636e-01},
   {-9.41106379e-02, -5.05883694e-01, -2.76248395e-01, -3.11324686e-01,  2.81975329e-01,  5.89497447e-01,  4.31311905e-01, -1.16528735e-01,
    -9.55564529e-03, -3.46549392e-01, -4.80624348e-01, -1.10087737e-01, -4.97078523e-02,  3.80349398e-01, -7.12530494e-01, -9.89198163e-02,
     1.01184346e-01,  5.66691309e-02,  1.68585852e-01,  4.18155342e-01, -3.33831936e-01, -1.26777917e-01,  4.66893882e-01, -3.49532425e-01,
     3.83877724e-01, -1.84431791e-01,  2.19709784e-01, -1.62388042e-01, -2.82432050e-01, -3.41242313e-01,  2.08862230e-01,  3.49098980e-01,
    -1.74427211e-01, -2.49962077e-01, -3.16561788e-01, -1.55382916e-01, -8.36356729e-02, -1.96956336e-01,  5.18672109e-01, -4.92184043e-01,
    -1.75205828e-03,  5.22077680e-01,  9.40737188e-01, -2.31355652e-01, -2.28919104e-01,  6.83615625e-01,  4.40645158e-01,  1.98900938e-01,
     2.24812120e-01, -5.54478467e-01, -3.59055161e-01,  2.96666287e-03,  2.26043075e-01,  6.87893033e-01, -5.97993881e-02,  1.71735287e-01,
     7.53118321e-02,  1.49578020e-01,  3.55404764e-01,  4.14186895e-01, -4.03865486e-01,  1.21508770e-01, -2.41156518e-01, -4.23981905e-01},
   {-1.23621583e-01,  1.28193125e-01,  2.32787579e-01,  1.87803075e-01,  2.68311016e-02,  2.08443746e-01, -9.57464725e-02,  1.45861194e-01,
     2.30351776e-01,  5.01869656e-02, -3.14764768e-01,  1.01016194e-01,  4.72995453e-02,  3.91747266e-01, -3.04952059e-02,  3.72337013e-01,
     8.55040371e-01,  4.99468118e-01, -2.88906664e-01,  8.00317824e-02,  1.79438457e-01, -4.83406745e-02, -9.59796309e-02,  1.58851042e-01,
    -3.92621793e-02,  6.69140071e-02,  2.17532665e-01, -6.65901676e-02,  2.77370334e-01,  4.73611116e-01, -1.19231768e-01, -4.88109082e-01,
    -2.64923796e-02, -2.46659547e-01,  5.98613441e-01, -9.27637666e-02, -3.55862677e-02, -1.12996794e-01,  2.43965372e-01,  2.82237351e-01,
    -2.53928304e-01, -2.99526602e-01, -5.06013691e-01, -1.90556034e-01, -7.13233650e-02, -1.45822421e-01,  1.69611990e-01, -2.95077354e-01,
     5.65521657e-01,  1.62476420e-01,  4.79713947e-01, -5.56842275e-02, -9.08127606e-01,  1.49621040e-01,  1.39743328e-01,  2.90648043e-01,
    -4.19782639e-01,  4.56788510e-01,  6.88277110e-02, -2.22430110e-01,  8.92519712e-01,  4.62010473e-01,  2.06041247e-01,  2.82246530e-01},
   { 3.06172758e-01, -4.17928278e-01,  1.68278694e-01, -3.66924912e-01, -2.61131860e-02, -3.39781284e-01,  2.13930607e-01,  1.02933094e-01,
    -4.26301360e-01, -5.00500202e-02, -7.84216940e-01, -8.34552571e-02, -5.55554405e-02, -1.81732073e-01, -3.05697650e-01,  6.97070826e-03,
     8.03053677e-02, -4.73548621e-01,  4.93847579e-01, -7.11324811e-02, -2.67518163e-01,  5.88303395e-02,  6.88710630e-01,  6.57419711e-02,
    -4.23066288e-01, -6.58212364e-01,  3.23762302e-04, -1.49514705e-01, -1.53374523e-01,  2.34508127e-01, -4.76647586e-01,  1.20364793e-01,
     3.52407366e-01, -6.24154866e-01, -7.07200229e-01, -4.14647460e-01, -3.09563458e-01, -6.68818295e-01, -9.90342572e-02,  2.49588042e-01,
    -4.01986003e-01,  7.69653738e-01,  4.71280098e-01, -1.39168456e-01, -2.25270651e-02, -1.50230557e-01, -1.34677798e-01, -4.24873322e-01,
     5.75006902e-01, -7.44707465e-01, -6.11663520e-01, -2.63493627e-01, -2.21500956e-02, -4.21150178e-02, -2.43740633e-01,  1.80019870e-01,
    -2.61336684e-01,  5.84734604e-03,  3.61974031e-01, -8.00443888e-02,  1.13245040e-01,  8.88262540e-02, -2.21234828e-01,  4.23653722e-01},
   {-1.67047992e-01,  3.09791505e-01,  1.54596627e-01,  3.73812355e-02,  2.85554260e-01, -4.03838843e-01, -1.37868851e-01,  9.66180086e-01,
    -6.77780062e-02, -5.04742861e-02,  7.09961116e-01, -1.57637596e-01, -4.22134042e-01, -7.72251427e-01,  3.08160812e-01, -8.18825066e-01,
    -1.06376791e+00, -4.35395539e-01,  1.12993038e+00, -1.04503798e+00,  4.23806123e-02,  1.17995553e-01, -3.49475890e-01, -7.60972500e-01,
    -4.67104912e-01,  6.91730499e-01, -2.45036319e-01,  2.94470657e-02,  5.40023029e-01, -2.56548405e-01, -4.69404876e-01,  9.81208459e-02,
    -2.36815125e-01,  1.85712799e-02,  7.13443384e-03,  1.76530138e-01, -1.70977637e-01,  2.03458294e-01, -1.25514343e-01, -1.11234987e+00,
     6.01162255e-01, -9.63252425e-01, -4.34349254e-02,  1.05407393e+00, -2.07081601e-01,  5.05369782e-01,  2.94414582e-03, -1.20733887e-01,
    -4.35507670e-02,  6.41727984e-01,  1.90117612e-01, -2.35549092e-01,  5.46212018e-01, -2.92205125e-01, -4.60250914e-01, -6.20057046e-01,
     1.06597945e-01, -3.56972367e-02, -1.14840555e+00,  3.20698619e-01, -4.96561021e-01, -5.46270847e-01,  4.44929361e-01,  1.25433877e-01},
   { 4.57248807e-01, -4.88733470e-01, -1.77326873e-02,  4.01161402e-01,  9.92765948e-02, -2.11788461e-01,  3.91648859e-01, -6.89424932e-01,
     1.06331788e-01,  1.28346402e-03, -7.28495777e-01,  1.85209349e-01, -5.75673103e-01, -4.48605239e-01,  1.21113145e+00, -2.07510650e-01,
     2.67867714e-01, -5.06222785e-01, -2.03161716e-01,  9.50064883e-02,  6.16262928e-02, -9.64535847e-02, -6.30204380e-02,  4.29728597e-01,
     2.76981175e-01, -2.48624533e-01, -2.31914580e-01,  2.25381061e-01, -2.48388305e-01,  7.74269760e-01,  8.43538284e-01,  1.45027861e-01,
     1.46571353e-01, -6.33181632e-02, -1.39218554e-01, -4.51287866e-01, -1.35794774e-01,  2.34502897e-01, -3.83181006e-01,  9.55044031e-01,
     7.61953667e-02,  1.30794331e-01,  4.58477437e-02,  2.24640414e-01, -1.88480377e-01, -2.25248486e-01, -2.87115932e-01,  1.04610778e-01,
     2.39679925e-02, -7.71183968e-01, -2.31298119e-01,  1.22463919e-01,  2.91634589e-01,  6.91239908e-02, -2.08823547e-01, -3.09943128e-03,
     2.76354492e-01, -6.53403327e-02,  2.54197508e-01, -2.65821099e-01, -7.13034123e-02, -2.14939505e-01, -4.30373222e-01, -3.07608396e-01},
   { 2.01362461e-01,  4.35428888e-01, -4.02379453e-01, -9.78043377e-02,  1.33848116e-01,  9.22481894e-01,  1.86083555e-01, -1.50014460e+00,
     6.61956251e-01, -1.50976330e-01,  3.21072549e-01,  3.97595227e-01,  6.81273401e-01,  4.98760134e-01, -1.44197166e-01, -6.20806873e-01,
     3.07265788e-01,  8.54873240e-01, -1.96630090e-01, -2.29594588e-01, -7.29115158e-02,  2.15474233e-01, -1.10899401e+00, -6.75614536e-01,
     3.75666767e-01,  6.56711757e-01, -9.65588018e-02,  1.21791018e-02, -3.02915424e-01, -3.28888059e-01,  1.18691623e+00, -1.13208346e-01,
    -2.30651945e-01,  6.10831618e-01,  7.12521970e-01,  1.18675940e-01, -8.47788677e-02, -5.70893943e-01, -9.14269388e-01,  5.96854627e-01,
    -1.22489132e-01,  3.04911971e-01, -1.12920451e+00, -4.99265492e-02,  5.68943679e-01, -6.52482867e-01,  5.74141324e-01,  1.46920431e+00,
    -1.04179931e+00,  4.43369031e-01,  3.51573378e-01,  6.87202215e-01, -8.81252110e-01, -2.09935516e-01,  3.76206517e-01, -1.26338315e+00,
    -1.68281928e-01, -2.29502261e-01, -4.84603286e-01, -3.65784705e-01,  5.62190786e-02,  4.10192579e-01, -1.65728569e-01,  7.48811588e-02},
   { 3.35692242e-03,  8.09314370e-01, -2.32670009e-01, -6.53305352e-01, -1.88385099e-01, -2.93515861e-01, -3.23640466e-01,  8.32090735e-01,
    -7.98900053e-02, -1.66823506e-01, -2.76304245e-01,  1.13901138e-01, -1.02171731e+00, -1.22615516e-01, -1.43064350e-01, -7.15827465e-01,
    -8.74337435e-01, -3.95386338e-01,  1.27595627e+00, -3.37723374e-01, -2.10409954e-01, -2.36321658e-01,  1.18826270e-01, -1.71448261e-01,
    -4.95240062e-01,  8.02276954e-02, -2.87456125e-01,  3.20702851e-01, -5.13897479e-01,  4.13787156e-01, -5.04947603e-01,  3.50639850e-01,
     6.73432648e-02, -4.46137846e-01, -6.89196944e-01, -8.41439486e-01, -5.68837821e-02, -1.08815682e+00, -3.32204327e-02, -1.36181027e-01,
     2.02791065e-01, -1.38607193e-02, -1.48730263e-01,  9.04653490e-01,  7.74185583e-02, -1.58218518e-01,  3.04406703e-01,  4.40516859e-01,
    -1.57842088e+00, -4.61369485e-01,  1.40724316e-01, -1.47484645e-01,  2.20600799e-01, -2.30319232e-01, -2.51472499e-02, -4.63834442e-02,
    -3.14390302e-01,  6.14272535e-01, -2.22512856e-01,  2.25905895e-01, -1.01139474e+00, -6.77983344e-01,  4.35224883e-02, -1.28653944e-01},
   {-3.28196138e-02,  4.30807561e-01, -4.64044750e-01, -1.06959909e-01,  1.25280112e-01,  6.90022588e-01,  3.33584517e-01,  6.78386450e-01,
     1.02725059e-01, -5.68376899e-01,  2.69897640e-01,  6.72115684e-02, -1.31064624e-01,  2.20235527e-01, -9.70499396e-01, -1.46008289e+00,
     3.92181098e-01,  7.74781942e-01,  6.86257541e-01, -1.23042576e-01,  1.75962389e-01,  2.56674647e-01, -3.23726051e-02, -2.87064493e-01,
    -3.20190847e-01,  1.92262724e-01, -5.46714127e-01, -3.56593639e-01,  4.30476546e-01, -1.13510758e-01,  1.35791743e+00,  9.31865070e-03,
    -3.60548526e-01,  1.20506667e-01, -1.97499901e-01,  5.52008450e-01,  6.04260445e-01, -7.95500696e-01,  4.80986655e-01, -7.92884529e-02,
    -1.04553230e-01,  1.58639118e-01,  9.59151745e-01,  2.04923943e-01, -6.11590147e-01, -2.23975345e-01,  6.47205949e-01, -2.63340086e-01,
    -6.83990493e-02,  2.66900748e-01, -6.07446432e-01,  3.22067618e-01,  2.83380687e-01,  2.72570789e-01, -3.42538774e-01,  2.56894762e-03,
    -1.77838838e+00, -7.99172759e-01, -4.17481244e-01,  4.23220068e-01, -5.43905199e-01,  1.17354417e+00,  6.41883075e-01,  3.36065620e-01},
   { 1.33108079e-01, -2.40241095e-01, -5.23866594e-01,  9.50040370e-02, -2.98398405e-01, -3.32252651e-01, -3.04457694e-01, -5.99261940e-01,
     3.38132888e-01, -2.74627656e-01, -9.52086985e-01, -5.20257745e-05,  1.03951015e-01,  2.04897374e-02,  8.25627685e-01,  1.54233366e-01,
    -1.14695907e+00, -4.54007834e-01,  4.99585420e-01,  2.57877320e-01,  4.40312512e-02, -1.02050446e-01, -1.63577273e-01,  4.62006778e-01,
     1.45705685e-01, -3.54871660e-01,  4.26784366e-01,  2.38470789e-02,  1.95453972e-01,  8.57486606e-01,  1.00687742e+00,  2.26744428e-01,
     1.77874193e-01, -8.77189457e-01, -6.78710997e-01, -2.61493828e-02, -7.46688366e-01, -1.87014595e-01,  3.86505038e-01,  1.51591623e+00,
     2.35170722e-01, -1.15419388e+00,  2.77179450e-01,  4.85420078e-01, -2.04573303e-01,  5.92749268e-02, -1.29072621e-01, -1.89475566e-01,
    -3.75555456e-01, -1.78439334e-01, -2.57649660e-01,  9.12559554e-02,  3.09595466e-01,  6.03944398e-02, -9.90252718e-02, -1.11226268e-01,
     3.52791458e-01, -6.71571866e-02, -4.33647871e-01,  7.25560039e-02,  8.31929326e-01,  4.04539853e-02,  1.14189856e-01, -3.36282343e-01},
   {-1.47653729e-01, -1.24640651e-01, -2.40007520e-01, -5.82730889e-01, -7.58294836e-02, -3.20647627e-01, -2.34687954e-01,  2.68833935e-01,
    -1.34499207e-01,  6.50307417e-01, -4.19611633e-01, -3.00469875e-01, -6.15442157e-01, -2.00961933e-01,  1.58359751e-01,  3.64054501e-01,
    -1.17823333e-01, -4.62824315e-01,  3.85579988e-02,  6.80470884e-01,  1.34916946e-01, -1.86730355e-01,  2.68910110e-01,  2.90616065e-01,
    -1.88126162e-01, -2.42705613e-01, -4.22346324e-01, -1.00563511e-01, -4.43697840e-01,  5.09797215e-01, -1.42129540e-01, -2.09154829e-01,
     2.82515474e-02, -2.66171604e-01, -5.69647431e-01, -7.01366663e-01,  4.75533992e-01, -7.31022298e-01, -5.56595325e-02,  2.72792913e-02,
    -5.02866745e-01, -5.48429251e-01,  4.51968879e-01, -5.81602659e-03, -3.72471422e-01, -9.90268812e-02, -5.71398497e-01,  1.42675698e-01,
    -5.59674390e-02, -4.54058945e-01, -1.94861814e-01,  5.47862463e-02, -8.70137632e-01, -1.50183693e-01, -1.92631766e-01,  1.93434566e-01,
    -2.53205299e-01,  5.72779894e-01,  2.49841228e-01, -1.95452183e-01, -1.00729316e-01, -6.88368499e-01,  8.29051137e-02,  9.04241577e-02},
   {-1.84685618e-01, -2.89375514e-01, -6.67455018e-01,  1.68864802e-01,  5.51587194e-02,  1.83694690e-01, -1.89916626e-01,  2.09874615e-01,
    -4.29248422e-01, -5.92526197e-02,  2.40820080e-01, -3.85242421e-03, -9.65539292e-02,  3.27488706e-02, -7.02093780e-01, -7.59676218e-01,
     1.53503969e-01,  7.74127126e-01, -6.54315233e-01,  2.07925871e-01,  7.19373599e-02,  1.05614305e-01,  7.20386267e-01, -3.43823195e-01,
    -3.67774665e-01, -2.91844636e-01,  1.32998511e-01, -2.21348330e-01, -5.88568673e-02, -2.97189474e-01,  1.01097894e+00,  2.33600736e-01,
     1.15281576e-02,  4.81182665e-01, -4.57808763e-01, -4.53593023e-02, -2.59866744e-01,  5.39964259e-01,  4.02326673e-01, -7.82655776e-01,
    -3.47563624e-01,  1.96716976e+00,  7.85114050e-01, -8.72852430e-02,  2.54372537e-01, -8.72083068e-01, -5.01374193e-02, -4.50818807e-01,
    -4.73753409e-03, -5.51279821e-02, -6.10529602e-01, -2.72531837e-01,  6.69729471e-01, -1.59605950e-01, -6.58119470e-02,  4.30860192e-01,
    -1.06266010e+00,  6.32088557e-02,  6.39941812e-01,  5.70274711e-01,  4.04835381e-02,  4.89227057e-01,  4.33804393e-02,  6.76874220e-01},
   { 1.99415222e-01,  4.66172278e-01, -6.39911413e-01,  1.01387465e+00,  2.84234911e-01,  9.76761341e-01,  3.71538430e-01, -4.32330430e-01,
    -1.56005830e-01,  6.51076138e-02,  1.60270095e-01, -3.24510396e-01,  8.04722190e-01,  1.51741624e-01,  1.33892286e+00,  1.58456340e-01,
     8.56890559e-01,  4.61492687e-01, -1.28216195e+00, -3.92499900e+00, -3.59506279e-01,  9.48841572e-02,  3.62427860e-01,  7.16770887e-01,
     2.99184620e-01, -6.32800162e-02, -2.94137836e-01,  3.59894067e-01,  4.39547807e-01,  1.72131646e+00,  4.90140356e-02, -2.49106184e-01,
     6.66964293e-01,  5.85065186e-01, -3.35006058e-01,  5.40860236e-01,  1.76436305e+00,  2.03741837e+00, -8.14496577e-02,  2.70012546e+00,
    -4.20417404e-04, -3.80963117e-01,  2.13291192e+00, -7.08742142e-01, -4.63673532e-01, -2.24602771e+00, -4.05998975e-01, -1.10177636e+00,
    -1.33474243e+00, -4.88504082e-01, -3.50611418e-01, -2.17759609e-01,  9.25235689e-01, -8.91303778e-01, -7.56241381e-01, -3.58333158e+00,
     6.31377280e-01, -2.94621301e+00,  1.73022877e-02,  1.69655359e+00,  4.58900213e-01,  9.50729907e-01, -1.55517006e+00,  1.15914440e+00},
   { 1.45139307e-01,  4.31013286e-01,  8.73298228e-01, -7.88676620e-01,  1.33157834e-01, -1.17199041e-01,  2.05103040e-01, -1.29148215e-01,
    -1.22146375e-01,  7.88688883e-02, -1.19706720e-01,  1.71274081e-01, -4.66264263e-02, -8.88147950e-02, -1.58641160e-01,  5.98555028e-01,
     5.10011353e-02, -1.54290333e-01,  6.52577803e-02, -4.28759843e-01,  2.10044086e-02, -1.89375430e-02, -7.52699256e-01,  3.26632738e-01,
    -4.84121323e-01, -2.45726213e-01,  2.74928566e-02,  8.00341606e-01, -2.35948533e-01,  1.36831999e+00, -1.53219628e+00, -3.73691201e-01,
     4.66386765e-01,  5.28355181e-01,  8.30292642e-01,  4.54969667e-02,  4.53631639e-01, -4.82464969e-01, -1.56243312e+00,  7.64536738e-01,
     2.74162114e-01, -1.27018857e+00, -1.17543912e+00, -9.14664790e-02, -5.65963313e-02, -9.44987595e-01, -1.38053894e-01, -4.13318098e-01,
    -3.24323416e-01,  2.26042613e-01,  6.95462227e-01, -2.17938218e-02, -5.85909128e-01, -8.06223035e-01, -2.24767383e-02, -6.72428906e-01,
    -3.30333747e-02,  2.44568482e-01, -9.73834991e-01, -7.19936311e-01, -3.69979173e-01, -2.73334831e-01, -8.88454914e-01, -2.11088791e-01},
   { 1.95378572e-01,  7.41853356e-01,  3.60694200e-01, -5.97423494e-01,  2.25115404e-01,  3.37516218e-01, -2.41096541e-01, -1.20946622e+00,
    -4.74751651e-01, -1.98016018e-01,  1.56476974e+00, -3.20251137e-02,  5.69957852e-01,  3.19878250e-01,  1.65971950e-01, -6.73502386e-01,
    -2.87126064e-01, -9.61228367e-03,  1.72308475e-01, -9.08965990e-03, -3.85298938e-01,  1.58152446e-01,  2.92343721e-02, -1.85562104e-01,
    -1.86013192e-01, -3.76709074e-01, -9.09176916e-02,  2.23806530e-01,  3.97039764e-02, -1.44600883e-01, -1.26077905e-01,  2.96334773e-01,
     1.36200354e-01,  3.04315984e-01,  3.37583750e-01, -1.23231672e-01,  2.25681275e-01, -7.62344360e-01, -2.08379686e-01, -3.14179212e-01,
     2.25880408e+00,  9.36558485e-01,  2.53378958e-01,  7.48240054e-02,  1.93204105e-01,  5.07609062e-02,  1.15771666e-01,  4.40043598e-01,
    -4.86715913e-01,  1.66783720e-01,  6.40366495e-01, -6.50180876e-01,  1.03958178e+00, -1.78157941e-01,  3.05774659e-01, -5.27319908e-01,
    -2.62457639e-01,  1.55488119e-01, -3.79144162e-01, -2.51903627e-02, -3.03209335e-01, -6.40454531e-01,  2.05726281e-01, -9.38969776e-02},
   {-1.33838609e-01,  2.65029520e-01, -6.16814852e-01,  3.66184294e-01,  3.43423158e-01, -4.03272063e-01, -1.14468381e-01,  4.78542745e-01,
    -3.13227862e-01,  5.44816971e-01,  7.38036752e-01, -1.96402818e-01, -1.61305100e-01, -2.36717537e-02,  5.92816472e-01, -1.64950758e-01,
    -9.90761399e-01, -8.15033354e-03,  1.11480057e+00,  2.30016455e-01,  5.98507561e-02, -6.31448478e-02, -2.88250502e-02, -9.40360054e-02,
     1.70469940e-01,  1.77298397e-01,  2.99372487e-02, -5.78758344e-02,  4.38904315e-01,  1.27267197e-01,  3.45943928e-01,  1.30437538e-01,
    -4.84667867e-02,  2.07126334e-01, -4.86751854e-01,  2.23870337e-01,  7.27318302e-02,  1.72009822e-02,  1.99800849e-01,  1.65583417e-01,
    -4.22295034e-02, -2.41665751e-01, -8.01387727e-02,  4.59517002e-01,  4.67415899e-02,  5.57199955e-01, -9.08432454e-02, -2.84740657e-01,
    -9.67324674e-02,  2.60273784e-01, -9.23660919e-02, -5.59675135e-02,  6.90434337e-01,  3.72794330e-01,  1.67426262e-02,  1.66540086e-01,
     1.44010380e-01,  4.95049953e-01, -9.78021137e-03,  5.19747913e-01, -1.46309778e-01, -1.05448633e-01,  4.90941793e-01,  2.62419414e-03},
   { 5.37913263e-01,  5.04693449e-01,  1.65687025e+00,  5.97950637e-01, -3.78082722e-01,  6.28263593e-01, -1.21241018e-01, -2.01032788e-01,
     7.94137180e-01, -4.72003549e-01,  4.64545965e-01,  3.52651715e-01,  1.56522512e+00, -4.52715427e-01,  9.63430910e-04,  3.16195786e-01,
     1.18831205e+00,  2.10091159e-01, -3.57373655e-02,  5.53343356e-01, -8.06436419e-01,  3.60955954e-01, -1.25734401e+00, -8.15196276e-01,
    -6.41165197e-01,  2.11543366e-01, -6.70159385e-02, -5.34785576e-02,  1.44602939e-01,  3.97469074e-01, -4.25331891e-01, -2.26782250e+00,
     3.05404782e-01, -6.50666058e-02,  8.07816029e-01, -2.30934713e-02, -2.13372007e-01, -1.14739254e-01,  4.76370603e-01, -1.04852602e-01,
     1.79569900e+00, -2.72972286e-01, -3.90522599e-01, -3.07093918e-01, -3.90328974e-01,  1.69069362e+00, -2.15051040e-01, -7.13011742e-01,
     3.35420847e-01,  7.47679710e-01,  8.02587211e-01, -2.14625895e-01, -1.67763889e+00,  8.38151336e-01,  4.40937132e-02,  2.89392859e-01,
    -3.32754225e-01, -4.86577392e-01,  5.03775716e-01, -2.29914352e-01,  9.23241556e-01,  7.98300862e-01,  9.37716067e-01,  1.34580240e-01},
   { 1.69706285e+00, -1.13290119e+00,  5.97504795e-01, -7.99824715e-01,  1.11695431e-01,  8.85720193e-01,  9.23031628e-01, -4.12866354e-01,
    -4.62409616e-01, -9.63311940e-02,  7.82585800e-01, -5.97591102e-02, -4.00340587e-01, -7.42044508e-01, -1.47449398e+00, -7.00618029e-01,
     3.38088036e-01, -2.06866771e-01, -8.44600201e-02, -2.99280733e-01, -3.18766758e-02, -3.51960987e-01,  8.08456957e-01, -7.69160390e-01,
    -2.29732275e-01, -6.49241686e-01,  5.24392366e-01, -6.78566694e-02,  1.18709004e+00,  6.06006123e-02,  1.26175892e+00, -1.19510412e-01,
     8.29576135e-01, -1.38458773e-01, -6.00120783e-01, -9.52642877e-04, -1.82810616e+00, -1.45909941e+00, -2.20541224e-01, -3.04317117e-01,
     3.16610426e-01,  4.38556492e-01,  2.38594204e-01,  2.12382719e-01, -1.78452283e-01, -9.14075434e-01,  1.49982184e-01, -1.57065189e+00,
    -1.30940452e-01,  6.14315569e-01, -1.63523448e+00,  1.99233070e-01,  5.19524992e-01,  5.26024848e-02, -5.60243011e-01, -3.81510586e-01,
    -4.46485281e-01,  6.27269745e-02, -6.77502155e-01, -6.87670887e-01, -2.89863437e-01,  2.44615182e-01,  7.90349916e-02,  3.28836739e-01},
   {-2.05484673e-01,  2.92100519e-01, -7.45439887e-01,  1.03163451e-01, -4.96834636e-01, -9.68364060e-01,  2.20041558e-01,  3.57136667e-01,
    -3.67107928e-01, -2.42258266e-01, -1.89681220e+00, -3.51926029e-01, -7.05369115e-01,  4.30987030e-01,  5.31356037e-01, -5.56989133e-01,
    -9.47263241e-01,  4.09890771e-01, -4.95804697e-01,  1.19535351e+00,  2.59108935e-02, -4.98895854e-01, -1.78219348e-01,  7.58290570e-03,
     1.40360251e-01,  2.93067694e-01, -2.16322199e-01, -7.77629539e-02, -7.12727487e-01,  2.17185512e-01, -8.73565257e-01,  6.24899507e-01,
    -4.80882347e-01, -1.15045762e+00,  3.18674818e-02, -5.67179739e-01,  2.68680453e-01,  6.52760983e-01,  1.80677927e+00, -7.03351557e-01,
    -1.11596227e+00, -1.26134622e+00, -7.33852983e-01,  3.17774937e-02, -1.51674831e+00,  1.26066637e+00,  2.04853714e-01,  5.76995492e-01,
     7.85297081e-02, -1.94657877e-01,  1.89888942e+00, -2.04979733e-01, -1.27408117e-01,  1.60105169e-01,  1.01520061e-01,  5.78205764e-01,
     9.60209012e-01,  4.21365559e-01, -1.32527435e+00, -3.22949380e-01, -4.35158759e-01, -1.26041993e-01,  3.67719591e-01, -2.28647903e-01},
   { 1.15134966e+00, -4.26324010e-02,  5.02373815e-01,  2.57968366e-01, -3.50704566e-02,  4.15017009e-01,  2.06063166e-01, -1.51589528e-01,
     4.52773094e-01, -3.82255353e-02, -9.15486217e-02, -2.04529867e-01, -1.75597250e-01, -2.82568395e-01, -2.74573117e-01, -3.02170992e-01,
     4.02050853e-01, -3.13496381e-01, -7.57190168e-01, -7.13339627e-01,  2.36217350e-01, -1.38774496e-02,  8.59213352e-01,  2.74963021e-01,
    -4.63917591e-02, -7.21569657e-01, -1.81291804e-01, -1.87356114e-01, -4.07932818e-01, -5.47763169e-01, -1.12603593e+00, -2.91743129e-01,
     2.76270866e-01, -2.95959741e-01,  1.88072419e+00, -7.20366314e-02, -4.31880876e-02,  7.21835256e-01, -1.13464403e+00, -5.72401397e-02,
    -2.08648190e-01, -5.02964079e-01, -2.07081497e-01, -5.53661406e-01,  7.66397268e-02, -8.43345881e-01, -1.93624258e-01, -4.66649204e-01,
    -8.32575142e-01,  6.23193793e-02,  6.30493879e-01, -4.86094058e-01, -9.02703524e-01,  3.09826851e-01,  9.04623233e-03,  2.56011665e-01,
     1.10342467e+00, -3.10403295e-04, -1.84039935e-01, -1.38936996e+00, -3.70979533e-02, -2.61042356e-01, -8.33952069e-01, -1.41159844e+00},
   { 2.66700983e+00, -3.37629557e+00, -1.19263157e-01, -1.61172807e+00, -5.99363744e-01,  9.45922315e-01,  1.61435413e+00, -5.85664157e-03,
     1.19122982e-01, -1.38915157e+00, -6.23660088e-01,  1.09625943e-01, -7.26711392e-01,  1.63284838e-01, -3.23330939e-01, -9.78965044e-01,
    -5.71826696e-01, -1.13063753e+00, -1.54799707e-02,  2.31622159e-01, -1.95906627e+00, -2.39683643e-01, -5.90509534e-01, -2.48687291e+00,
    -6.19814456e-01, -8.94661546e-01,  1.18215609e+00, -7.25900233e-01,  9.90061283e-01, -4.61986512e-02, -1.17472267e+00, -7.63680398e-01,
    -9.62395251e-01, -1.47719514e+00,  3.17749977e-01,  2.95554549e-01, -1.04740715e+00,  2.54811794e-01,  1.29341507e+00,  7.99291134e-01,
     2.38087088e-01, -1.77698106e-01, -7.15846837e-01,  4.27788615e-01, -1.36403155e+00,  8.96412909e-01,  3.58045399e-01, -7.82669127e-01,
     1.92439243e-01,  3.69235575e-01, -2.23523664e+00,  8.24381635e-02,  1.19994909e-01,  7.04751134e-01, -2.13043362e-01, -5.97570419e-01,
    -5.06101131e-01, -1.18803382e+00,  7.01868773e-01, -1.02478862e-01, -3.24749798e-01,  4.96465564e-02, -4.20118958e-01, -4.64616448e-01},
};

const float GRNN1_U[32][32] = {
   {-4.98735332e+00,  3.58710498e-01,  2.20028996e+00,  9.21508253e-01,  1.01829541e+00, -1.52986646e-02, -5.20445347e-01, -1.03927040e+00,
    -1.30253124e+00,  1.13092649e+00,  3.01742077e+00,  1.96057808e+00, -1.27985549e+00,  5.69770746e-02, -2.72889107e-01, -1.87690878e+00,
    -3.06977570e-01, -3.16258371e-01,  5.95669985e-01,  3.38860720e-01,  2.80815911e+00, -2.32730770e+00, -1.56931281e+00,  3.25215906e-01,
    -1.38111746e+00,  1.08379662e+00,  2.13696688e-01, -4.21772711e-02,  4.94701803e-01, -1.27591598e+00, -7.92887270e-01,  1.95054188e-01},
   {-1.22483552e+00, -3.15915012e+00, -1.13388300e-01,  6.57404780e-01, -5.55569708e-01,  9.70336437e-01, -1.22830880e+00, -1.26589730e-01,
    -8.94143403e-01, -1.17076106e-01,  8.81732881e-01,  1.17498529e+00, -5.74598968e-01, -2.92690158e-01, -7.25209415e-01, -4.45623696e-01,
    -1.52537310e+00,  1.71591476e-01,  1.60340384e-01,  2.03233182e-01,  2.88125694e-01, -7.57836819e-01, -4.85569566e-01, -1.71707773e+00,
     8.80557060e-01,  1.48218155e-01, -1.79357445e+00,  1.41805935e+00, -2.14448407e-01, -6.70932949e-01,  8.51306200e-01, -1.47422111e+00},
   {-4.22554731e-01,  1.91305205e-01, -8.55305374e-01,  5.20485759e-01, -1.68547451e+00, -1.06484480e-01, -2.78869689e-01, -1.56739795e+00,
    -1.43509936e+00,  1.00358784e+00, -1.20666468e+00,  2.00169945e+00, -2.43663485e-03,  2.00567350e-01, -1.70592403e+00,  8.94413650e-01,
    -5.10462999e-01,  1.28072989e+00, -4.80812192e-02,  3.65924311e+00, -5.81742942e-01, -6.91980600e-01,  7.96740532e-01, -1.97248387e+00,
     1.20835972e+00, -1.07213296e-01, -1.11164355e+00,  6.75694585e-01,  1.58632413e-01, -1.00354314e+00, -1.88328356e-01,  5.56302786e-01},
   {-2.20574665e+00, -8.30058753e-01,  3.38507438e+00, -1.38959432e+00,  1.48487377e+00, -3.87542516e-01, -2.85816610e-01,  2.20074058e+00,
     5.37111461e-01, -1.21704841e+00,  2.50458646e+00, -1.13374507e+00, -1.42694843e+00,  8.54691148e-01, -2.82722294e-01, -2.07538748e+00,
     5.72027922e-01, -5.35458624e-01,  7.44765639e-01, -1.34784853e+00,  2.60271287e+00,  3.73220205e-01,  4.09815103e-01,  6.96297824e-01,
    -7.74624825e-01, -2.00074339e+00,  1.77808285e-01,  1.97506174e-01,  6.38642311e-01, -2.66457945e-01, -1.32460451e+00,  1.35917263e-02},
   {-9.31160152e-02,  4.64078367e-01, -1.34152639e+00, -7.76055574e-01, -2.12996864e+00, -4.49245006e-01, -5.67966819e-01,  4.47190404e-01,
    -4.97115076e-01,  9.59703505e-01, -6.80005968e-01, -3.92905533e-01, -6.91606462e-01,  4.13356751e-01, -8.65589559e-01,  2.10780525e+00,
    -1.91706866e-01,  1.07567477e+00,  1.52599782e-01, -3.34840000e-01, -7.81327859e-02, -1.97957301e+00, -7.72023976e-01, -9.21296120e-01,
     1.64303887e+00,  3.44033509e-01, -1.20780194e+00, -1.31145537e-01, -1.57736361e+00,  1.00552130e+00,  1.59007514e+00, -1.21691734e-01},
   {-2.32016373e+00, -1.63427621e-01,  1.95897341e+00, -9.11822915e-01, -1.49439633e+00, -8.95587981e-01,  3.81612957e-01,  4.34713453e-01,
    -1.33563387e+00, -2.01396823e+00,  7.71123946e-01,  6.44620180e-01,  3.14203382e-01,  4.23905551e-02,  3.96172315e-01,  1.24863863e+00,
    -2.25783110e-01, -3.17545271e+00, -1.13765466e+00,  1.50862217e+00, -1.04157853e+00, -1.87927246e-01,  7.38388300e-01,  2.54079556e+00,
     7.26892114e-01, -6.96182072e-01,  2.73980945e-01, -6.31201386e-01, -4.78055984e-01,  2.71645713e+00,  8.76032233e-01,  4.64941002e-02},
   { 8.78598928e-01, -7.88238227e-01,  2.65630275e-01, -5.20543754e-01, -2.46712267e-02, -1.05459034e+00, -2.14184380e+00,  4.27046061e+00,
     2.19459176e+00, -2.92566824e+00,  5.91847610e+00,  1.62618089e+00, -7.09145248e-01,  3.27111793e+00, -1.19268417e+00,  7.88063109e-01,
     1.63720262e+00, -2.03095007e+00,  3.03501248e+00,  3.11643386e+00,  9.45765853e-01, -1.50040317e+00, -1.55747283e+00,  3.80590177e+00,
     3.11830854e+00,  2.17947647e-01,  1.63821185e+00, -6.29347146e-01,  4.56871986e+00,  5.87020302e+00,  2.82934976e+00,  8.07746351e-01},
   {-1.50313604e+00,  5.95263243e-01, -1.34138334e+00,  6.47913814e-02,  5.89225173e-01, -1.78483397e-01, -1.38631833e+00,  1.26387560e+00,
     1.55531514e+00,  2.05468750e+00,  1.89562872e-01,  1.06794842e-01, -4.23376709e-01, -7.31232405e-01, -4.25491855e-02,  9.87776637e-01,
    -2.47963399e-01,  3.06061840e+00, -5.18599272e-01, -5.36183476e-01, -7.82892928e-02, -9.55348670e-01,  2.97889084e-01,  2.07605004e+00,
     1.41974568e+00,  3.85363966e-01, -7.08468556e-02,  8.29708636e-01, -1.21947610e+00,  1.79176593e+00, -3.33352661e+00, -3.45976448e+00},
   {-1.52519345e+00, -2.73079395e-01,  1.16017604e+00,  3.47498387e-01, -4.91961390e-01, -1.37847567e+00, -6.68843865e-01,  2.19263101e+00,
    -2.78996682e+00,  1.86690724e+00, -1.03484035e+00,  8.08174431e-01, -6.69031501e-01, -1.05180144e+00, -8.15184891e-01,  1.78287101e+00,
    -1.65133059e-01, -1.99864611e-01,  6.05039418e-01, -1.34060115e-01,  1.00270247e+00, -1.81808305e+00, -2.30020237e+00,  1.57850718e+00,
     1.40805376e+00,  3.35171759e-01,  2.33204269e+00, -1.23364544e+00, -6.59343541e-01, -4.98551458e-01,  2.78550297e-01,  1.42022169e+00},
   { 1.32196248e-01, -1.58309728e-01,  4.74545598e-01, -1.58106935e+00,  1.01102936e+00,  4.35857058e-01, -3.94730061e-01,  3.04670548e+00,
    -1.76676357e+00, -2.21338868e+00, -5.33639193e-01, -1.36412859e+00,  4.66423154e-01, -6.58101141e-01,  3.71759653e-01, -1.90088224e+00,
     5.31148732e-01, -1.34903148e-01,  5.37323117e-01, -1.11846697e+00,  9.42577660e-01,  5.80057383e-01,  3.48315015e-02,  1.97565114e+00,
    -1.01883817e+00, -4.03155029e-01, -2.43697211e-01, -7.42730618e-01,  5.46433866e-01,  1.29375982e+00, -7.17612267e-01, -5.58676481e-01},
   {-4.58521318e+00, -1.09588575e+00,  1.17212439e+00,  6.76697940e-02,  2.67336988e+00, -1.46260962e-01,  3.25360388e-01,  4.44987953e-01,
     2.25216413e+00, -6.01900697e-01, -3.32559538e+00,  2.36831141e+00, -8.80813003e-01,  1.25907266e+00, -5.15757680e-01,  2.78986716e+00,
    -1.68344128e+00,  1.97381318e+00,  2.92542756e-01, -5.85595258e-02, -1.86394024e+00, -1.39511669e+00, -4.91118520e-01, -7.32602298e-01,
     5.15243970e-02, -3.53789240e-01, -9.08801258e-01,  1.79881978e+00, -9.29774523e-01, -1.69024467e+00,  1.71890259e+00,  5.98935425e-01},
   { 6.73710406e-01, -8.05162370e-01, -1.02961898e-01,  1.87577754e-01, -4.83021021e-01, -7.79360890e-01, -4.20585930e-01,  4.15896446e-01,
     1.68857229e+00,  3.95679414e-01, -2.39612758e-01, -2.51778913e+00, -2.86902636e-01, -2.00737730e-01, -3.17656845e-01, -1.62182081e+00,
    -4.22063842e-02, -7.90837705e-01, -5.91420293e-01, -7.09056914e-01,  2.13430953e+00,  5.34611046e-01, -2.71800041e-01,  8.06025088e-01,
     4.51852292e-01,  1.36465766e-02,  5.51856346e-02, -1.79967201e+00,  3.52311224e-01, -4.04759198e-01, -2.07430348e-01,  2.89531291e-01},
   { 1.31355572e+00, -1.16493046e+00,  3.82214636e-01,  2.20099139e+00, -9.21828330e-01,  6.15652539e-02,  2.82340229e-01, -3.66382450e-01,
    -6.67784691e-01, -1.61793351e+00, -1.61073434e+00,  6.97990060e-01, -6.51027203e-01,  1.54303348e+00, -7.86618948e-01, -9.80527580e-01,
    -2.06928611e-01, -6.76226974e-01,  1.40310943e-01, -1.06067479e+00,  9.13965702e-01,  1.11073792e+00, -1.41863918e+00,  2.97744632e+00,
     8.36200893e-01,  6.18175209e-01, -1.23682385e-02,  2.58920819e-01, -8.14882338e-01,  2.41816282e+00,  3.89839768e-01,  5.32866605e-02},
   {-2.70458937e+00,  8.84255528e-01,  6.44910455e-01, -2.15177011e+00,  1.33975184e+00, -2.84272760e-01,  3.25002700e-01, -1.42552304e+00,
    -7.54790425e-01,  1.22167218e+00, -1.55382276e+00, -6.93403661e-01, -1.14986643e-01, -1.19503212e+00, -4.12157178e-03,  6.55457616e-01,
     3.75985444e-01,  8.10618699e-01,  6.97915733e-01,  2.79237747e-01, -9.24867868e-01,  4.63803113e-02,  2.41148695e-01, -3.33038807e+00,
     1.34536815e+00, -4.29730296e-01,  5.46070337e-02, -1.56217527e+00,  1.60374403e-01, -2.47603965e+00,  1.12881148e+00, -9.49113905e-01},
   {-2.86992520e-01,  2.01146817e+00,  1.69672167e+00,  2.64827907e-01,  2.63577437e+00, -1.05261111e+00,  1.32917434e-01,  7.57727981e-01,
    -8.84441733e-01, -1.25895059e+00,  3.27371621e+00,  2.51356605e-02, -8.72855127e-01,  8.04479420e-01, -1.21178102e+00, -2.40565285e-01,
     3.39539826e-01,  1.61572897e+00,  5.95516682e-01, -9.48972046e-01, -1.21327662e+00, -6.87066019e-02, -1.52030241e+00, -2.66915292e-01,
    -1.99317789e+00, -3.84148568e-01,  9.04354155e-02,  1.17119670e+00,  4.28346366e-01, -4.54023927e-01,  1.05849758e-01,  4.40224409e-01},
   { 5.67780793e-01,  4.45145935e-01, -1.12104845e+00, -2.13309973e-01,  1.52712867e-01,  4.63819325e-01, -4.15115029e-01,  2.17129135e+00,
     3.98624867e-01, -9.63921964e-01, -9.30693507e-01,  1.45511568e-01,  1.28241968e+00, -3.18508863e-01,  1.15642095e+00, -2.28650928e+00,
    -1.29602540e+00, -1.32540107e+00, -6.95251346e-01,  9.73285675e-01, -1.04744375e+00,  7.56202340e-02,  1.34459424e+00, -8.46833825e-01,
    -4.84724581e-01,  4.79753353e-02,  1.49691021e+00,  9.26626325e-02,  2.64673144e-01, -7.68011391e-01, -1.82535899e+00,  1.04038037e-01},
   { 5.19448996e-01,  1.93833005e+00,  2.74343061e+00, -1.10300481e+00, -8.91060531e-01,  6.69886112e-01,  1.42835188e+00, -2.15821648e+00,
    -2.50937986e+00, -5.46278179e-01, -1.91775203e+00,  1.08980870e+00, -1.29570097e-01,  8.24826419e-01,  1.62244827e-01,  3.87470305e-01,
    -7.12378204e-01, -3.63326639e-01,  1.29466623e-01,  1.33550942e+00, -6.64277136e-01,  7.45902732e-02,  4.46184799e-02, -8.49299908e-01,
     3.56640294e-02, -3.01487803e-01,  5.12982905e-01,  1.01426020e-01, -1.25444829e+00, -1.61753058e+00,  4.64430422e-01, -3.25280011e-01},
   { 5.05682468e-01,  4.83063638e-01, -6.92587018e-01,  1.09298992e+00, -2.48969674e+00,  2.63220906e+00, -1.06918037e+00,  1.16007662e+00,
     3.76558214e-01,  3.05183268e+00, -1.91969144e+00, -1.04486418e+00,  4.79797095e-01,  5.09991586e-01,  6.92959785e-01,  1.76454604e-01,
    -7.42297292e-01, -1.42091244e-01, -1.02778959e+00, -3.01926613e+00,  1.10765004e+00,  3.17366153e-01, -7.72951484e-01,  4.33109343e-01,
     5.75498462e-01,  3.06587487e-01,  2.30852231e-01,  6.52864575e-02,  7.34566331e-01, -1.57390207e-01, -1.31364155e+00, -4.94134456e-01},
   {-6.11385822e-01, -4.50895935e-01, -4.01160896e-01,  1.62839973e+00, -1.44516098e+00, -1.07014962e-01, -3.21932822e-01,  8.21819603e-01,
    -3.18751287e+00, -8.39982986e-01, -2.56687951e+00, -2.69446921e+00,  1.18429673e+00,  1.34184510e-01, -7.93397307e-01,  6.50109470e-01,
     2.55963296e-01, -6.03510380e-01, -1.34106016e+00,  8.84185016e-01, -7.72139549e-01,  1.19108193e-01,  4.33943480e-01,  2.64420581e+00,
     7.51404703e-01,  1.60998249e+00,  2.57693268e-02,  1.98263109e-01,  7.02466011e-01,  1.33468699e+00, -7.21608162e-01, -4.11298871e-02},
   {-8.01334262e-01,  2.27818325e-01, -1.08225834e+00, -1.45002842e-01,  7.35441670e-02, -4.84162122e-01,  1.56886056e-01,  2.22512817e+00,
     1.19501245e+00,  7.41096675e-01, -8.86772096e-01, -6.37817323e-01,  7.18922257e-01, -5.02535343e-01,  6.18254781e-01, -1.27870476e+00,
    -9.33753885e-03,  3.68995756e-01, -5.58372319e-01, -1.58381963e+00,  1.29178569e-01,  1.51836984e-02, -2.33000234e-01,  9.56407249e-01,
     1.39263868e-01,  3.26229751e-01, -1.27154875e+00, -3.37985724e-01,  1.58566087e-01, -4.26852345e-01, -1.40726399e+00, -1.82650000e-01},
   {-1.79703498e+00,  8.42750728e-01,  8.23704422e-01, -1.41344535e+00,  1.17244482e+00,  1.97708762e+00, -1.68212801e-01,  1.87347122e-02,
    -1.88976204e+00, -5.85622191e-01, -4.36252594e-01, -5.05585134e-01,  7.06083238e-01, -3.64810824e-01,  6.01636231e-01,  9.10649955e-01,
     5.82947075e-01, -8.39509308e-01,  1.01818120e+00,  6.40107393e-01, -2.01308870e+00, -3.05995941e-01,  9.56201196e-01, -1.21457148e+00,
     1.42247868e+00, -3.13098967e-01, -1.31854987e+00,  1.21690094e+00,  3.06106359e-01, -1.86489880e+00, -7.14981616e-01, -5.71143031e-02},
   { 1.14486265e+00,  1.68590322e-01, -7.53569961e-01,  1.20838273e+00,  1.61441648e+00, -8.77259433e-01,  4.39950436e-01, -1.26313353e+00,
     1.37471807e+00,  6.55595183e-01, -3.19454384e+00, -8.43424201e-01, -1.53612256e-01,  7.85285413e-01, -1.12588644e+00,  6.18462622e-01,
    -8.75220746e-02,  1.21038067e+00,  1.23402798e+00,  4.23423082e-01, -6.82297528e-01,  1.16195428e+00,  6.20137691e-01, -3.10548484e-01,
     1.15042329e+00,  1.57566261e+00, -2.16417164e-01,  2.70687908e-01,  1.18011177e+00, -1.59726048e+00,  4.62889761e-01, -6.67898834e-01},
   { 1.01323374e-01,  2.48514757e-01,  7.97948718e-01, -2.69828975e-01,  1.38962507e+00, -5.32841206e-01,  1.64700150e-01, -2.52970040e-01,
     3.84837961e+00,  4.28866297e-01, -4.79340136e-01,  4.78180736e-01,  2.56533315e-03,  3.28030556e-01,  5.01817465e-01, -1.41893506e+00,
     5.36987297e-02,  8.51347268e-01, -7.42177606e-01, -8.92224908e-01,  8.71211767e-01, -2.99422771e-01, -7.11798608e-01, -1.14595187e+00,
     9.63859618e-01, -7.58789957e-01,  1.51937962e-01, -4.84247327e-01, -1.95834175e-01, -1.31427610e+00,  1.12023687e+00, -6.04701698e-01},
   {-2.57680130e+00,  5.86697638e-01,  2.42939901e+00,  4.29598713e+00, -3.13067651e+00,  1.81991005e+00, -2.24078250e+00,  1.02859044e+00,
    -4.60087717e-01, -1.53816533e+00, -2.01642871e-01, -2.52362680e+00,  5.24606824e-01,  1.48001850e-01, -2.23279667e+00, -2.51426530e+00,
     1.92884398e+00,  1.96465755e+00,  8.23139191e-01,  6.89227521e-01,  9.66575801e-01,  3.92935693e-01,  1.65722096e+00,  1.10667348e+00,
    -4.47865605e-01,  1.43715024e+00, -3.02328444e+00,  2.97180355e-01, -4.13770485e+00, -2.53858507e-01, -3.49498940e+00, -4.12888670e+00},
   {-1.75285196e+00,  8.81816208e-01, -1.04125309e+00, -5.60612738e-01,  1.25215209e+00, -1.88892767e-01, -7.40189552e-01,  8.41209948e-01,
     2.86938787e-01,  8.83797407e-01,  9.41999793e-01, -2.09745216e+00,  4.06461596e-01, -1.67779446e+00,  8.14243078e-01,  1.81536686e+00,
    -9.40201283e-01,  4.31266055e-02,  3.99253905e-01,  6.16700053e-01, -9.86947179e-01, -1.24735379e+00,  2.50089860e+00, -4.02040839e-01,
    -9.84233856e-01, -5.37329614e-01,  8.60674024e-01, -5.70557356e-01,  5.22764623e-01, -2.60154343e+00,  2.02345386e-01,  4.99930620e-01},
   {-1.48845971e+00, -6.14478409e-01,  2.68172288e+00,  4.99498814e-01,  6.36209428e-01, -4.82210815e-02,  3.11718322e-02,  2.11931992e+00,
     7.45371521e-01, -8.18305850e-01,  3.14952064e+00,  3.19401860e-01, -1.55966386e-01,  1.26248682e+00,  2.29899079e-01, -1.01587683e-01,
    -7.35427201e-01, -2.03657746e+00, -1.90370703e+00,  5.77410832e-02, -1.76720306e-01, -3.73881608e-01, -3.59115362e-01, -3.27749044e-01,
    -1.26644045e-01, -2.33110905e+00,  1.38761580e+00,  3.66460592e-01, -3.80357713e-01, -6.57491446e-01, -1.45868456e+00,  3.79349619e-01},
   { 1.38313794e+00,  4.40788388e-01,  2.52010655e+00, -1.11014593e+00, -1.01626182e+00, -2.71558762e-02,  3.89238983e-01, -1.88746583e+00,
     5.19583464e-01, -2.92985350e-01, -1.12769115e+00, -4.42321539e-01,  2.12671794e-02, -2.85980761e-01, -4.77356523e-01, -9.84180689e-01,
     1.05263484e+00, -1.77255988e-01, -1.31994486e+00,  6.18225336e-01,  1.80610883e+00,  1.54601440e-01,  1.79398343e-01, -2.69159508e+00,
     7.84098625e-01, -5.59617937e-01, -1.53041780e+00,  1.07767656e-02, -6.06214821e-01, -3.26513857e-01,  9.87494826e-01, -2.15195562e-03},
   {-4.89059508e-01,  1.00946158e-01,  7.59494305e-01, -1.18768489e+00,  9.98876691e-01, -9.98931468e-01,  3.64439338e-02,  1.63549542e+00,
     1.00148439e+00, -1.02448535e+00,  1.11005628e+00,  5.16328394e-01,  2.72899598e-01,  1.04083872e+00,  4.18125331e-01,  2.77438909e-01,
    -2.01570719e-01, -2.76432872e+00, -6.45708561e-01, -1.17232502e+00, -7.25202039e-02, -3.03788371e-02,  1.56039536e+00,  9.64737415e-01,
    -8.09124053e-01, -8.81979465e-01,  7.31074214e-01,  2.45993480e-01, -6.79243088e-01, -4.56827432e-01,  5.49965143e-01,  2.25968391e-01},
   {-2.06723356e+00, -1.69081956e-01, -1.45131505e+00, -1.19325328e+00,  1.00471044e+00, -1.70617545e+00,  3.12544513e+00,  1.77658546e+00,
     1.86098385e+00,  8.09414029e-01,  3.04090214e+00, -1.70630291e-01,  6.75676167e-02,  4.11273599e-01, -8.88885021e-01,  1.52004313e+00,
     5.69772422e-01,  4.97286379e-01, -1.28713772e-01, -2.91684151e+00, -1.27981973e+00, -7.74217725e-01,  3.73337604e-02, -4.86118853e-01,
     4.25598830e-01, -1.30219364e+00, -3.84529233e-01, -6.58926368e-01, -3.25042081e+00, -2.43309021e+00,  4.43973589e+00,  4.61541891e+00},
   { 2.52970505e+00,  3.64562124e-01,  2.72906542e-01,  1.15919101e+00, -1.24929750e+00,  1.10861707e+00, -7.95116663e-01, -1.04152417e+00,
     7.81765819e-01, -8.86551678e-01,  1.03596866e+00,  8.69508624e-01, -1.66911423e-01,  6.48970783e-01, -1.64265442e+00, -9.36353207e-02,
     7.53884837e-02,  6.88768625e-01,  1.03531516e+00,  2.53888917e+00,  2.29852700e+00,  3.22678447e-01, -2.24448517e-02,  1.44729829e+00,
    -5.44407010e-01,  1.90938425e+00, -7.39684761e-01, -1.86686084e-01,  4.98456776e-01, -3.13003826e+00,  2.67997050e+00,  1.62415051e+00},
   { 8.66409063e-01, -1.18020773e+00, -4.89672959e-01,  4.44731504e-01, -2.72257972e+00,  6.89981580e-01,  2.27845407e+00, -5.51420152e-01,
     1.40649569e+00, -1.42093822e-01, -1.64466906e+00,  1.26089096e+00,  2.32629076e-01, -9.27036405e-01, -1.13827014e+00,  1.53723037e+00,
    -2.90401906e-01, -7.25351423e-02, -8.10498670e-02,  2.34955683e-01,  1.49746633e+00, -1.17012548e+00, -1.27957439e+00,  1.02087688e+00,
     4.90255088e-01,  1.05477369e+00,  1.08244777e+00, -3.31467807e-01,  1.83001363e+00,  2.46306801e+00, -6.96887016e+00,  5.05619097e+00},
   {-4.87567216e-01, -1.41444957e+00, -4.94336158e-01, -5.38071930e-01, -1.77763271e+00,  1.10184453e-01,  7.33511639e+00, -1.33501410e+00,
    -1.59671009e-01, -1.22757101e+00, -1.09394467e+00, -7.58482695e-01,  2.50533104e-01, -6.98414594e-02,  8.59611094e-01, -8.40181231e-01,
     1.01701438e+00,  5.52319288e-01, -1.19872022e+00, -6.44636035e-01, -7.29334295e-01, -2.35345870e-01,  5.77013902e-02, -1.46413910e+00,
    -1.94793797e+00, -5.51011980e-01,  2.87198722e-01, -2.58998215e-01, -3.31433505e-01, -2.84371877e+00,  2.47554636e+00,  3.84394646e+00},
};

// clang-format on


#endif // __FASTGRNN_GRNN1_PARAMS__

