#ifndef __FASTGRNN_GRNN1_PARAMS__
#define __FASTGRNN_GRNN1_PARAMS__

#define GRNN1_HIDD_DIM0 (64)
#define GRNN1_HIDD_DIM1 (32)

// clang-format off

const float GRNN1_ZETA = (-2.141097e-02);
const float GRNN1_NU = (-1.241449e+01);

const float GRNN1_BIAS_UPDATE[32] = 
   {-3.90418738e-01,  1.12587404e+01,  4.48102266e-01, -3.33578810e-02, -1.77182540e-01,  1.30246365e+00,  4.88323480e-01,  1.23708177e+00,
     9.83098507e-01,  2.86150861e+00,  1.54894674e+00,  1.16802859e+00,  9.66985893e+00,  7.76185751e-01,  7.11167049e+00,  3.63918394e-01,
     1.14245138e+01,  1.25829725e+01,  8.04972589e-01,  4.48780447e-01,  9.27192032e-01,  1.11489773e+01,  4.18178886e-01,  1.53060222e+00,
     9.55694556e-01,  3.73499483e-01,  7.60404289e-01, -4.59796153e-02,  9.18575943e-01, -5.17247692e-02,  2.45991498e-01,  3.50560427e-01};

const float GRNN1_BIAS_GATE[32] = 
   {-1.49124563e+00,  4.25428247e+00,  8.25607061e-01,  1.12110794e+00,  4.99162793e-01,  2.78148270e+00, -1.90057445e+00,  2.89828706e+00,
     2.09469414e+00,  2.69204617e+00,  3.55002713e+00,  2.51476073e+00,  3.84289384e+00,  2.44677687e+00,  3.37215018e+00,  1.67237246e+00,
     4.70839310e+00,  5.79760551e+00, -3.70211053e+00,  2.15505791e+00,  2.69259691e+00,  4.48421574e+00, -1.40434340e-01,  3.76767302e+00,
     1.21760845e+00, -3.52574363e-02,  1.36536312e+00, -1.17071509e+00,  3.56348228e+00, -6.91384554e-01,  8.27067137e-01,  1.45198452e+00};

const float GRNN1_W[32][64] = {
   {-8.37369263e-02,  9.85077143e-01,  1.17153645e+00,  3.77117880e-02, -2.07469463e-02, -4.94599134e-01,  3.75946850e-01,  1.43040702e-01,
    -5.30217588e-01, -9.30510104e-01,  1.45937994e-01, -9.44320634e-02, -6.48603559e-01, -3.97821486e-01,  5.62048316e-01,  3.23640227e-01,
     3.38654667e-01,  1.31249860e-01,  2.89825171e-01, -4.11217302e-01, -2.47212410e-01,  8.97065997e-02, -3.41128677e-01, -2.69478232e-01,
     2.51460969e-01,  3.72141331e-01, -1.58496693e-01,  5.39915264e-01,  3.25840265e-01,  6.60848260e-01,  2.50834316e-01, -1.37053713e-01,
     4.17562388e-02, -1.86415121e-01, -1.38589948e-01,  2.50940323e-01,  2.06412926e-01,  4.42071617e-01, -1.12624243e-01,  7.65289485e-01,
     1.32940054e-01,  7.01852441e-01,  2.60474741e-01, -2.78800219e-01,  2.29664788e-01, -2.29024872e-01,  8.94277692e-02,  1.68453138e-02,
     1.21363771e+00, -3.53262648e-02,  2.57515684e-02,  1.27395064e-01,  9.43461657e-01,  6.97574496e-01,  3.46142620e-01,  8.36468674e-03,
    -4.70026761e-01,  4.32459861e-01, -3.17842551e-02,  1.90691814e-01, -6.87122822e-01,  1.42345995e-01,  8.66472483e-01, -6.26057982e-01},
   {-6.64457858e-01, -1.94829151e-01,  6.59146667e-01, -3.88137698e-01, -2.20859975e-01, -7.21807122e-01,  9.38559115e-01, -4.52520937e-01,
     1.30396485e-01,  2.42229644e-03, -2.84632713e-01,  1.52488017e+00,  1.07589245e+00, -5.38841248e-01,  4.18431424e-02, -1.66156638e+00,
     4.36819613e-01,  8.46743956e-02,  9.92987931e-01,  1.76103309e-01,  7.18545914e-01,  3.66731852e-01,  1.03592801e+00, -4.91148025e-01,
     1.39015049e-01,  1.67473280e+00,  7.81601906e-01,  1.80854249e+00,  1.04545510e+00,  1.83083785e+00,  6.68206811e-01, -2.30500311e-01,
     3.74837071e-01,  1.06835806e+00, -2.24703789e+00,  6.07972145e-01, -1.11954582e+00,  7.18167186e-01,  1.29545343e+00,  2.59266030e-02,
    -1.20798491e-01,  1.22881126e+00,  4.23659593e-01,  9.73377407e-01,  9.39376891e-01,  6.12844944e-01,  6.28415942e-01,  1.23831607e-01,
     1.67043293e+00,  6.51680470e-01, -3.25383520e+00, -1.06813633e+00, -2.34600499e-01,  7.44848013e-01, -2.20867679e-01,  3.92846078e-01,
     5.65773010e-01,  1.38035321e+00,  1.79592407e+00, -1.41875935e+00,  7.51210153e-01, -1.07595336e+00, -7.83603370e-01,  1.39540112e+00},
   { 1.14143014e-01, -7.28450239e-01,  5.87806776e-02, -1.77701905e-01, -8.99499655e-02, -6.76352620e-01, -2.89122194e-01, -6.25814319e-01,
     5.10038972e-01,  5.14045060e-01, -2.41161034e-01, -3.17520350e-01,  7.52161145e-01, -1.18624061e-01,  5.93699515e-01,  6.17111996e-02,
     2.48880282e-01, -9.53072235e-02,  4.50314805e-02,  3.70220870e-01,  1.67747408e-01, -8.60200167e-01, -7.83866584e-01, -5.23518622e-01,
    -3.40481669e-01, -2.62482196e-01, -2.05067277e-01,  1.64255753e-01, -6.39839292e-01,  2.73230791e-01, -6.72984660e-01, -9.56445634e-02,
     3.33004802e-01, -2.94218957e-01,  6.03085876e-01, -1.47435546e+00,  7.28383780e-01, -7.78987467e-01,  1.08267009e-01, -7.51549080e-02,
     1.38133973e-01,  4.03208584e-02, -1.84110291e-02, -9.71445348e-03, -1.68804243e-01,  2.31872007e-01,  2.09595293e-01,  3.71394306e-01,
     1.69733852e-01, -1.56123424e-02, -1.15946541e-02,  5.60846776e-02, -4.01764423e-01, -1.02689467e-01,  9.58558798e-01,  6.32704556e-01,
    -3.97996604e-01, -4.01951641e-01,  1.47960231e-01,  7.89184868e-01,  1.29950821e+00,  2.41549596e-01, -2.31355235e-01,  3.71566005e-02},
   { 6.50175512e-01,  3.67031731e-02, -7.32664108e-01, -2.60270357e-01,  2.90308911e-02, -5.70527792e-01, -2.96733916e-01, -4.08032209e-01,
     2.27969736e-01,  1.00102139e+00, -4.19604570e-01,  6.69778883e-01,  1.08809245e+00, -7.21970022e-01,  2.77214378e-01, -2.09167972e-01,
     4.91962880e-02, -4.36172068e-01, -3.21103305e-01,  4.92434442e-01, -1.09305525e+00,  5.50986707e-01, -9.18154001e-01, -2.50477612e-01,
    -5.82465172e-01, -4.73680109e-01,  2.64366388e-01, -3.36245298e-01,  2.61043519e-01, -3.88084978e-01,  9.00303781e-01, -4.29797977e-01,
    -8.77116323e-02,  4.19029862e-01,  2.04639703e-01,  4.05492783e-01,  4.04728740e-01,  7.65928268e-01, -5.60403705e-01, -3.19676936e-01,
     1.91925943e-01, -6.62498355e-01, -1.27083981e+00,  1.99747413e-01, -4.68536526e-01, -3.01443785e-01, -3.54281187e-01,  1.96956789e+00,
    -1.41748503e-01,  9.22977924e-02,  3.74192208e-01,  5.95120430e-01,  2.39323035e-01, -1.72760505e-02,  6.90164492e-02, -9.08507966e-03,
     7.55073249e-01, -3.31806868e-01, -1.32574821e-02, -1.31889239e-01,  1.05165613e+00, -8.23323250e-01, -8.71707916e-01,  2.03152388e-01},
   { 7.79308259e-01, -4.11815941e-01, -1.45596731e+00, -8.76677454e-01,  5.87004840e-01, -9.76073444e-02, -4.51072365e-01,  1.82438999e-01,
     2.05646944e+00,  7.77830541e-01, -5.72242618e-01,  1.74024776e-01,  9.74230349e-01,  8.04821730e-01,  2.02608153e-01,  2.23014832e-01,
     8.07460472e-02, -4.62683529e-01, -2.16911569e-01,  3.72283518e-01, -1.92098603e-01,  5.65930545e-01,  7.24955499e-01, -2.49100283e-01,
    -4.03199762e-01, -1.08604467e+00,  3.00884247e-01,  5.78406900e-02,  3.04136835e-02, -3.47275704e-01, -2.04652827e-02, -8.94385502e-02,
     1.83969304e-01,  2.94672459e-01, -1.07109919e-01,  3.09802592e-01,  5.26227117e-01,  7.67794251e-02, -9.56787765e-01, -4.09961700e-01,
     8.20792079e-01,  3.16637278e-01, -6.61837578e-01,  4.17230815e-01, -7.16786504e-01, -2.33590141e-01, -3.62144828e-01,  2.14144647e-01,
    -1.58061528e+00,  1.75705373e-01, -1.60642952e-01, -3.37407202e-01, -2.23987307e-02,  3.78387794e-02,  1.68268070e-01,  3.08633476e-01,
     1.43227220e-01, -2.66647726e-01, -8.15680027e-02,  2.09596634e-01,  1.09172702e+00,  6.98978007e-01, -1.07841957e+00,  8.44974518e-01},
   {-2.56907731e-01, -5.74513018e-01,  3.63650471e-02,  1.18065439e-02,  1.21323913e-01,  9.16387618e-01, -7.38647640e-01, -4.52469766e-01,
    -5.54159880e-01,  3.39276612e-01, -1.45921469e-01,  5.40619373e-01, -2.38111764e-01,  3.69238228e-01, -2.91389436e-01, -3.49099524e-02,
     1.04195213e+00,  8.29101205e-02,  3.45213413e-01,  4.59674805e-01,  2.25706637e-01, -8.68301019e-02,  2.94642478e-01, -5.31102717e-02,
    -4.40921217e-01, -1.92030221e-01, -4.27454710e-01, -2.49522150e-01,  1.08403757e-01, -6.20756686e-01,  1.81605786e-01,  7.82162845e-02,
     1.38843313e-01, -5.16415417e-01, -1.40576228e-01, -5.39392769e-01, -2.32019395e-01, -1.41874003e+00,  9.84964311e-01,  4.06870633e-01,
    -4.18330193e-01, -1.07185769e+00, -2.80108958e-01, -7.19511285e-02,  2.28873685e-01,  3.34532887e-01,  3.44220430e-01,  3.73321801e-01,
    -9.17090714e-01,  7.09289312e-03, -4.43841726e-01, -3.22325788e-02,  6.91790104e-01, -7.18375683e-01, -8.44957456e-02,  5.80029368e-01,
     7.92440295e-01, -1.43712804e-01, -4.30001020e-01, -5.88230133e-01, -5.30573547e-01, -1.08176363e+00,  5.19557357e-01, -2.12615579e-01},
   {-8.54572095e-03, -1.91166587e-02, -6.38720334e-01,  7.92796314e-02,  1.94321781e-01,  1.32514894e-01,  1.61966071e-01, -2.75491215e-02,
     1.33915311e-02, -3.30263287e-01,  6.95190281e-02, -2.96629786e-01, -3.07897210e-01,  4.79262620e-01, -9.54066310e-03,  7.23924115e-02,
    -4.60925043e-01, -2.74694115e-02,  2.88747638e-01,  9.59178656e-02,  1.47900403e-01, -7.94086605e-03,  4.63593930e-01, -1.71293631e-01,
     1.32465929e-01,  6.37096688e-02,  2.44373642e-02, -1.20170653e-01, -3.54945928e-01, -2.57309049e-01, -8.37208867e-01,  7.61441067e-02,
    -3.08981270e-01,  8.84274393e-02,  4.25593294e-02, -6.15118027e-01,  6.34969473e-02, -4.45475221e-01, -4.45476294e-01, -6.85854768e-03,
    -3.16716075e-01,  3.48444223e-01,  2.94373035e-01,  5.50124466e-01,  1.35553190e-02,  2.80984372e-01,  6.32585064e-02, -7.32491553e-01,
    -3.52742761e-01, -3.84658188e-01, -9.56480429e-02, -2.29376018e-01, -2.19975501e-01, -2.74278313e-01,  3.27967227e-01,  3.26628149e-01,
    -8.79784703e-01, -1.39488220e-01,  4.98315185e-01,  1.98812261e-01, -1.33633301e-01,  9.02636126e-02, -2.84333527e-01,  1.30612180e-01},
   {-1.71052124e-02,  8.98054540e-01,  5.30854821e-01, -5.39588407e-02, -6.87354565e-01, -1.26257312e+00, -8.31777453e-01, -7.17601925e-02,
     1.23482622e-01,  9.04404968e-02, -4.68114704e-01, -8.39318708e-02,  1.04382527e+00, -7.80505657e-01,  5.90810657e-01, -3.45228255e-01,
     5.98374069e-01, -6.15558028e-01,  3.88156444e-01, -3.31532329e-01,  1.14996850e-01,  7.67407894e-01, -9.54605162e-01, -3.39672953e-01,
     2.90194720e-01,  1.37000084e+00,  3.05058956e-01, -1.40775576e-01,  3.99202287e-01, -5.41411698e-01,  4.66936231e-01, -5.42774260e-01,
     4.39801633e-01,  3.51808280e-01, -1.34359881e-01,  4.00405288e-01,  1.38804317e-01,  1.25918293e+00,  7.04274893e-01, -3.26708928e-02,
     3.62158448e-01, -8.43868196e-01, -1.20750278e-01,  5.60536444e-01, -3.66891026e-01,  2.31457338e-01,  5.68914533e-01,  1.26657331e+00,
     3.18708152e-01,  6.54782876e-02, -3.29204589e-01,  8.00533295e-02,  6.14551723e-01,  3.09964985e-01,  5.81133664e-01, -1.52250302e+00,
     3.29615921e-01,  3.46557826e-01,  1.27117944e+00, -3.05891961e-01,  1.13993812e+00, -5.86012527e-02, -7.28292823e-01, -8.01244080e-02},
   { 6.75378889e-02,  9.39043343e-01, -4.12669107e-02, -3.26228857e-01, -5.82284451e-01, -1.90164432e-01,  4.01552886e-01,  3.17526311e-01,
     1.56387150e-01, -8.32492709e-02, -3.05140261e-02,  4.20434266e-01,  1.13369274e+00,  1.30932838e-01, -1.47136793e-01, -4.56340462e-01,
    -5.02161145e-01,  9.59558636e-02, -1.02436535e-01, -6.11101985e-01,  3.61532003e-01,  1.64423093e-01,  1.25416428e-01, -5.72068319e-02,
     1.12444103e-01,  5.71082354e-01,  4.73862708e-01,  3.20021540e-01,  2.85260707e-01,  8.33249092e-01,  2.39275366e-01, -4.21971709e-01,
     1.36573032e-01,  2.11906254e-01, -6.97477460e-01,  5.42204857e-01, -5.06714761e-01,  3.42338860e-01, -8.68048429e-01,  4.07735109e-01,
     6.73884928e-01,  9.22327161e-01, -3.06132257e-01,  6.04123652e-01, -2.57028282e-01, -2.72047836e-02, -3.24108899e-01,  1.12927938e+00,
     5.08623421e-01, -1.27500400e-01, -1.27786076e+00, -3.32792342e-01,  3.48490447e-01,  7.99390912e-01,  7.10983038e-01, -1.31517053e-01,
    -7.69481808e-02,  1.10547507e+00,  4.13568690e-02, -1.13366939e-01,  8.25922012e-01, -1.20153159e-01, -5.50703704e-01, -8.40838850e-02},
   { 4.66410726e-01, -2.19747573e-02,  3.79448337e-03,  1.69902608e-01,  1.61906764e-01, -5.65696955e-01,  5.28548181e-01, -3.69156778e-01,
    -4.91149336e-01, -6.42399728e-01,  2.80481517e-01,  3.26741934e-01, -1.43440604e+00,  8.30119729e-01,  5.46978056e-01,  3.44334632e-01,
     1.86568916e+00,  2.66687244e-01, -5.48964083e-01,  1.46296233e-01, -1.77042753e-01, -9.58210468e-01, -1.33853063e-01, -8.97958800e-02,
     5.87925375e-01, -2.96719581e-01,  3.66556823e-01,  3.48606110e-01, -4.12908405e-01,  3.95282477e-01, -4.21428859e-01,  2.96264440e-01,
     5.10563791e-01,  5.52732527e-01,  5.11599302e-01, -1.35491335e+00,  1.40063214e+00, -5.21212444e-02, -5.61699986e-01, -1.66218624e-01,
     1.52950749e-01, -6.60072267e-01,  3.28081191e-01,  5.74265540e-01,  2.17299134e-01,  2.21509323e-01,  5.79669893e-01, -8.08658481e-01,
    -1.23625588e+00, -3.00598115e-01,  3.26062858e-01, -1.83235526e-01,  6.48017406e-01, -8.19275618e-01,  3.53314221e-01,  2.20578700e-01,
    -6.60708368e-01,  2.88769454e-01,  1.53698063e+00,  1.49180576e-01, -6.47812426e-01,  3.25028449e-01,  1.22069180e-01, -3.98647755e-01},
   { 5.24412701e-03,  3.35224152e-01,  2.82162100e-01,  4.69592422e-01, -1.10731967e-01, -2.14830235e-01,  7.38967299e-01,  3.58397886e-02,
    -6.85069382e-01, -3.09118181e-01,  3.11202526e-01,  3.91816944e-01, -1.03914309e+00,  2.45310664e-01,  2.06166834e-01,  7.84440637e-02,
     1.26460180e-01, -3.93794030e-01,  2.55895585e-01, -1.63161099e-01, -5.39605439e-01,  3.69826764e-01, -1.93760768e-02, -7.51478314e-01,
     6.97489202e-01,  2.59833604e-01,  1.52247190e-01, -4.03468221e-01, -4.93518502e-01, -5.57382777e-03,  4.75956082e-01, -8.31215084e-02,
     4.71814424e-02,  1.79640204e-01,  3.53688821e-02,  1.02636194e+00,  2.34906495e-01,  9.85053897e-01,  1.03405559e+00, -2.03580812e-01,
    -2.00023577e-01, -1.61192763e+00, -6.51685059e-01, -1.79503605e-01, -3.15486372e-01, -4.21727262e-02,  1.33020431e-01,  6.64470136e-01,
     8.28869641e-01, -2.10638717e-01,  4.55209106e-01,  1.72566921e-01,  6.91963375e-01, -2.08036959e-01, -4.38234150e-01, -6.40265048e-01,
    -3.29886407e-01,  1.92943528e-01,  1.52340293e-01, -6.91803813e-01, -1.50620127e+00,  9.34993327e-01, -7.01734703e-03, -5.33110440e-01},
   {-2.94765294e-01, -1.64385661e-02,  7.74563327e-02, -6.82406545e-01,  1.33337855e-01,  6.14148855e-01, -1.80234045e-01,  2.36786515e-01,
    -6.37492314e-02,  4.70568419e-01, -1.29760474e-01, -2.60613054e-01,  1.64550617e-02,  2.79620588e-01,  5.30747473e-01,  4.84426528e-01,
    -7.21313134e-02, -3.85965019e-01, -4.88770872e-01, -7.30128288e-01, -8.41130435e-01,  3.24166536e-01,  7.45026954e-03, -3.93924564e-01,
     1.02179982e-01,  2.41616517e-01,  2.09221225e-02,  2.28127286e-01, -1.22200227e+00,  6.25214994e-01,  2.49745354e-01, -6.77298546e-01,
     4.72073145e-02,  2.77333468e-01,  8.42782378e-01, -8.99751663e-01,  4.46288615e-01,  2.13756457e-01,  1.69813848e+00,  2.36200064e-01,
    -3.02650154e-01, -3.73375505e-01, -8.69771957e-01,  7.95453638e-02, -2.39464208e-01,  3.83915901e-01,  6.25062287e-01,  3.90840799e-01,
     3.30143541e-01, -1.61393330e-01, -1.02638078e+00, -1.55065846e+00,  4.77544159e-01,  1.12017505e-02,  5.65848388e-02,  3.98320377e-01,
     8.17590281e-02,  3.66342068e-01,  7.27876574e-02,  7.06149995e-01, -6.58766627e-02,  1.41215849e+00, -8.45316052e-01, -1.80501610e-01},
   {-3.89185287e-02,  2.94811457e-01, -9.99437094e-01,  3.44272763e-01,  5.49762011e-01,  1.56438160e+00, -1.09459770e+00,  5.56033015e-01,
    -1.76413798e+00,  1.00449300e+00, -3.46644670e-01,  1.49530005e+00, -2.99399257e+00,  6.83982491e-01, -3.99561614e-01,  3.93177092e-01,
     1.52424848e+00,  1.05168507e-01, -4.29126859e-01,  2.02182487e-01, -7.63412058e-01,  5.59923768e-01,  5.70340276e-01,  6.82469830e-02,
    -5.70681810e-01,  6.86896265e-01,  2.43353128e-01, -1.21905303e+00, -2.51265860e+00, -9.08305123e-02,  3.73022348e-01, -6.20897293e-01,
     2.70712686e+00,  7.95517802e-01, -3.59183013e-01,  7.06290781e-01,  8.83631945e-01,  1.20007539e+00, -3.52433175e-01, -4.47381347e-01,
    -2.58046985e-01, -1.46624577e+00, -5.64857423e-01,  1.02389121e+00, -9.99309182e-01,  9.68981802e-01, -2.89150387e-01,  6.81341946e-01,
     1.98274925e-01,  1.57599616e+00, -1.17341137e+00, -2.62330890e+00,  1.45594209e-01, -7.33135939e-01, -1.83093011e+00,  5.87935209e-01,
     1.35066462e+00,  1.40182352e+00,  1.70634162e+00, -1.78902781e+00, -2.03378558e+00,  1.91423738e+00, -3.71272504e-01,  5.32328546e-01},
   { 4.19300109e-01, -2.99089789e-01, -6.70111537e-01, -8.28519166e-01,  1.80164337e-01,  4.43020850e-01, -7.02350259e-01, -1.30225867e-01,
     7.38618523e-03,  9.58105206e-01,  4.09201264e-01,  6.39281809e-01,  3.50256622e-01,  4.50995713e-02, -4.45505053e-01, -7.92578578e-01,
    -3.77427526e-02, -6.52463853e-01,  1.61689937e-01, -4.76907581e-01,  2.89000601e-01, -1.92914173e-01,  1.08039248e+00, -3.68504852e-01,
     1.77226946e-01, -2.41440833e-01,  2.45957643e-01,  1.21760711e-01, -5.20338655e-01, -7.17518926e-01,  2.59022266e-01, -1.31988358e-02,
    -3.99068236e-01,  2.46557832e-01, -3.60549949e-02, -6.97562814e-01, -7.88975358e-01, -1.88362971e-01, -4.04733270e-01, -3.34761441e-02,
     4.06205744e-01, -6.31860912e-01, -6.31116450e-01,  2.73961484e-01, -6.78865135e-01,  4.94888648e-02, -2.23249067e-02,  1.43125445e-01,
    -8.38219106e-01,  5.35375357e-01, -6.20124400e-01, -1.01224124e+00,  4.06234890e-01, -4.53540921e-01, -2.39064068e-01, -1.15327790e-01,
     6.86419129e-01,  3.17547053e-01, -3.06272417e-01, -1.15188766e+00,  4.33384657e-01, -5.74993253e-01,  2.32759595e-01,  5.38289011e-01},
   {-2.77788520e-01, -1.90026313e-01,  1.13156986e+00,  3.13489139e-02, -6.85746729e-01,  2.78525919e-01,  2.95718342e-01, -6.05584264e-01,
     6.02421820e-01,  7.47793794e-01, -5.44310272e-01,  1.23278177e+00, -9.15573239e-01, -8.22181761e-01,  1.17640924e+00, -1.18190646e+00,
     8.02188694e-01, -1.26193479e-01, -1.81526870e-01, -1.80148572e-01, -9.70194697e-01,  7.51767457e-01,  5.67397654e-01, -1.19159710e+00,
     1.16635919e+00,  5.85040569e-01,  5.62737107e-01, -4.77460355e-01, -9.45713639e-01,  4.44430560e-02,  9.13378775e-01, -6.64998591e-02,
     1.06688476e+00,  2.57103950e-01,  3.19826640e-02, -8.57742071e-01, -4.53529537e-01,  5.53136766e-01,  1.39308858e+00,  2.07966864e-01,
    -4.08058435e-01, -1.63749063e+00, -1.35499156e+00,  7.59581208e-01, -8.69010627e-01,  2.95537591e+00,  1.54769790e+00,  1.21366525e+00,
     1.90197837e+00,  8.50050971e-02, -1.53352153e+00, -1.19127989e+00,  1.83198380e+00, -4.11376450e-03,  1.55893475e-01,  6.12838387e-01,
     8.05595219e-01,  1.94154477e+00,  1.53236270e+00, -4.83378142e-01, -1.45348752e+00, -3.04414213e-01, -5.63760042e-01, -7.64947593e-01},
   { 3.53480220e-01,  1.55867612e+00,  2.77409792e-01, -2.65758187e-01,  5.17800152e-01,  4.94795367e-02, -1.65831470e+00,  5.35785377e-01,
     2.86244601e-01, -3.90305579e-01, -2.09990352e-01, -3.12991768e-01,  3.94700468e-01,  4.44660336e-01,  8.81170869e-01,  5.70214510e-01,
    -3.58430296e-01, -1.24335730e+00, -1.77908152e-01,  9.43879932e-02, -4.62834984e-01,  9.67879593e-02, -4.44664538e-01, -2.09465414e-01,
    -7.87005424e-02,  1.33941460e+00,  1.67754903e-01, -3.65486413e-01,  4.44569141e-01,  1.74301386e-01, -3.40930581e-01, -7.89649606e-01,
    -7.87400663e-01, -4.62360442e-01, -7.13798344e-01,  7.72570610e-01, -3.52147281e-01,  5.43525875e-01,  5.18968096e-03,  4.12476927e-01,
    -5.77351861e-02, -4.37158763e-01,  2.41805509e-01,  4.25956190e-01, -8.88330996e-01, -3.33449170e-02, -2.41788104e-01,  6.98370993e-01,
    -2.15441644e-01, -5.54041207e-01, -9.74358022e-01, -2.53326356e-01, -4.79832977e-01,  6.38465285e-01,  1.37153018e+00,  2.54310399e-01,
    -4.42499429e-01, -6.59349084e-01, -1.68656960e-01,  9.46918488e-01, -6.30486980e-02, -2.92278863e-02,  3.06277484e-01, -6.36159301e-01},
   {-3.39585066e-01, -2.44682834e-01,  9.90944147e-01,  2.39486471e-01,  3.45838547e-01, -3.38056386e-01, -8.94613087e-01,  4.86660272e-01,
    -5.85096255e-02,  7.43000209e-01, -1.31266475e-01, -4.66687918e-01,  1.53896368e+00, -1.82784665e+00, -4.93662328e-01, -1.93609655e-01,
     1.33678496e+00,  2.92444319e-01,  5.92653751e-01,  7.57574439e-01,  9.42865491e-01, -1.09744370e+00, -6.01861835e-01,  4.93280828e-01,
    -4.28683668e-01,  1.20941174e+00, -9.26232815e-01, -7.33082831e-01,  1.13203786e-01,  2.35752702e-01,  2.19907135e-01,  2.52714783e-01,
     4.76577520e-01, -8.88600826e-01, -5.16582549e-01,  6.24778867e-01, -1.43359467e-01,  4.52129483e-01,  1.35885644e+00,  9.71614778e-01,
    -2.33178243e-01,  1.13347098e-01, -5.79306334e-02, -1.42729092e+00,  3.01444344e-02,  1.05964905e-03, -5.45478284e-01,  1.41101927e-01,
     8.16102505e-01,  3.51363480e-01, -2.36361146e-01, -3.59658360e-01, -1.90500593e+00,  5.70477903e-01,  8.15310299e-01,  1.81392714e-01,
     8.08912635e-01, -3.81002069e-01,  7.06513405e-01, -1.90475568e-01,  9.01858211e-01, -2.41357997e-01, -8.89584303e-01, -1.65797859e-01},
   {-3.77899766e-01, -6.58641160e-01, -1.57156599e+00,  4.90633696e-01, -1.32442379e+00, -1.49156213e+00, -3.62573355e-01, -2.42531490e+00,
    -2.83669472e-01, -3.09193403e-01,  2.37270102e-01,  5.33651948e-01,  5.98862588e-01, -1.71647978e+00,  7.57502094e-02, -5.37215412e-01,
     1.48289001e+00,  3.66872370e-01, -4.09932099e-02,  2.91557699e-01, -1.08374953e+00, -7.90355444e-01, -8.16979647e-01,  1.34078100e-01,
    -4.18159187e-01, -7.49026164e-02, -1.15475619e+00, -8.92413378e-01, -5.32945633e-01, -1.18530071e+00, -3.44730914e-01, -3.14908206e-01,
    -7.07566679e-01, -9.69749689e-01, -2.31346458e-01,  9.39580202e-01, -5.71726620e-01, -1.14099538e+00, -2.45151535e-01, -1.76951504e+00,
    -1.82324797e-01, -1.35974002e+00, -3.26047897e-01, -6.14996374e-01, -7.45509788e-02,  1.12376118e+00, -2.17616871e-01, -4.23170209e-01,
    -7.97210753e-01,  3.18747759e-01, -6.38472140e-01, -1.02496736e-01, -1.42535746e-01, -1.42240655e+00,  1.92333713e-01, -5.66565573e-01,
     4.98704851e-01,  3.31170827e-01,  8.24614644e-01, -8.92461300e-01, -1.75884172e-01, -2.41390252e+00,  6.33550823e-01, -3.95381898e-01},
   {-4.02379483e-01, -6.47879422e-01, -7.36613810e-01,  1.06003833e+00, -2.27640837e-01, -3.95614088e-01,  1.11270869e+00, -3.03878784e-01,
     3.30468297e-01, -8.64585698e-01,  9.37604904e-01, -1.04148841e+00, -7.80919313e-01,  3.52475718e-02, -2.28653312e-01,  4.55436170e-01,
    -6.39948547e-01,  9.55233574e-01,  3.19868147e-01,  4.87957522e-03, -8.67908448e-02, -5.16805708e-01, -1.94460660e-01,  2.76632197e-02,
     9.16383445e-01, -1.42005491e+00, -2.99016058e-01, -7.00618267e-01, -7.16915667e-01, -5.46967909e-02, -1.48090601e-01,  1.02803469e+00,
     3.41287851e-01, -2.25552395e-01,  4.14605826e-01, -1.60005474e+00,  5.49555242e-01,  1.40345365e-01, -7.79405117e-01, -2.74253726e-01,
    -6.50405049e-01,  8.38885084e-02,  1.08466446e+00, -4.36038017e-01,  7.36730874e-01,  2.90222496e-01, -4.30227429e-01,  1.06040075e-01,
     2.58211285e-01,  2.43604764e-01,  5.24915218e-01,  5.92735350e-01, -2.16791704e-02, -9.96003449e-01, -9.79683578e-01,  2.10203260e-01,
    -2.80209303e-01, -1.81870162e-01,  1.14059336e-01,  5.94125867e-01, -8.30679178e-01, -2.15053424e-01,  1.87917382e-01, -2.10737064e-01},
   { 4.35329497e-01,  1.08286411e-01,  7.19482899e-01, -3.91093850e-01,  3.47203285e-01,  3.06620568e-01,  6.10264063e-01,  3.09560478e-01,
    -1.41459250e+00,  2.39915937e-01, -5.64632602e-02,  1.68890786e+00, -9.47325408e-01, -4.14465368e-01, -3.67960483e-01, -1.27275848e+00,
    -6.46770358e-01, -9.86171514e-02, -9.47773099e-01, -2.67055750e-01, -6.78384244e-01, -7.40173832e-02,  6.39976561e-01,  2.01763824e-01,
    -1.44633114e-01, -3.19769919e-01,  1.92809328e-01,  7.57838666e-01,  6.12036407e-01,  1.80135325e-01, -1.94656774e-01, -3.23423058e-01,
    -4.58644509e-01,  2.49843255e-01, -2.22997680e-01,  4.48650032e-01, -9.32805777e-01, -2.87054509e-01,  6.47168458e-02,  4.80432697e-02,
     2.31552660e-01,  6.96204126e-01, -6.65483534e-01,  4.48749870e-01,  2.27047324e-01, -1.15060203e-01,  5.40204108e-01,  7.87026167e-01,
     1.12844551e+00,  2.66058091e-02, -1.00543714e+00, -3.09260011e-01,  1.77685931e-01,  8.94019678e-02, -1.01740992e+00, -1.59036785e-01,
     3.90344977e-01,  1.29687059e+00,  4.92494479e-02, -1.35875249e+00, -5.43066442e-01, -4.59363580e-01, -1.48011670e-01,  2.65199542e-01},
   {-3.30126584e-01,  7.60484338e-01, -8.87967110e-01,  1.47241965e-01,  2.68326253e-01,  1.01204803e-02, -4.25263673e-01,  4.49403614e-01,
     6.34572029e-01, -7.61984408e-01, -2.76300013e-01, -1.43854392e+00, -9.88117039e-01,  5.47780871e-01,  3.37277383e-01,  1.96166575e-01,
    -3.55468154e-01,  2.05343008e-01, -9.55314934e-01, -5.61269581e-01, -9.81255054e-01,  1.97862133e-01,  1.24779068e-01, -3.68740410e-01,
     1.88626736e-01,  1.24001630e-01, -1.11285090e-01,  4.94569570e-01, -2.28829160e-01,  7.36211658e-01,  1.45285562e-01, -3.71820092e-01,
     5.22790849e-03,  3.27467710e-01, -9.18079317e-01, -9.26807895e-03, -2.92973995e-01,  1.74386829e-01, -2.73022175e-01,  1.06813312e-01,
    -4.49973136e-01,  9.66261566e-01,  1.87078580e-01,  2.63571709e-01, -3.79455201e-02,  3.10928524e-01, -3.13327909e-01, -3.04855019e-01,
     5.01727283e-01, -1.55381516e-01, -1.03769994e+00, -9.41963732e-01,  1.56181484e-01,  5.16165733e-01,  4.99543548e-01,  8.41717795e-02,
    -5.96408725e-01, -1.13354936e-01,  1.88969791e-01,  4.71885622e-01, -1.14141452e+00, -2.55047232e-02, -2.70012289e-01, -3.48543078e-01},
   {-8.59317958e-01,  4.02815431e-01,  1.06229389e+00, -1.01202583e+00, -4.17273104e-01, -1.35931134e+00, -1.26860529e-01,  3.09469979e-02,
     2.78104353e+00, -7.54141212e-01,  6.48485869e-02, -2.08040625e-01,  5.60400426e-01, -8.01261187e-01,  6.88299894e-01, -8.80067125e-02,
     5.36901057e-02, -1.08393288e+00, -1.63009599e-01, -7.94942915e-01,  1.22596860e+00,  1.32083088e-01, -5.98629355e-01, -1.69078088e+00,
     1.13047373e+00,  1.09516573e+00,  2.07802709e-02, -4.51714396e-01, -1.30677474e+00,  2.56448805e-01,  6.62008107e-01, -7.35502362e-01,
     3.36845577e-01,  7.89885938e-01, -4.52406496e-01, -9.73794460e-01, -3.97041559e-01,  1.23658431e+00,  8.16383839e-01,  7.40106463e-01,
     2.89673030e-01, -7.93741763e-01, -1.02208710e+00, -1.86200425e-01, -1.26867795e+00,  1.41051972e+00,  6.31650329e-01,  4.19421107e-01,
     9.85587835e-01, -8.95620465e-01, -2.33051515e+00, -2.33413291e+00,  1.44705892e+00,  7.18757689e-01,  1.64969122e+00, -1.85386086e+00,
    -2.02436495e+00,  2.75072493e-02,  2.52534294e+00, -7.67246425e-01,  1.16963661e+00,  5.52841127e-02, -3.38819742e-01, -5.61672866e-01},
   {-6.92176521e-02, -2.37697437e-01,  2.92625099e-01, -9.49439406e-03, -2.46234909e-01, -6.46824539e-01,  3.40870500e-01,  2.81519562e-01,
     2.98311770e-01,  3.65264326e-01,  8.70379806e-03, -1.03500463e-01, -4.83235627e-01,  3.10729891e-01,  1.31602108e-01,  9.81272161e-02,
     4.77224708e-01,  2.32429683e-01, -2.54473001e-01, -2.37189293e-01,  5.09951413e-01, -1.52804898e-02, -2.36248020e-02,  2.31506661e-01,
     2.68818140e-02,  1.51439130e-01, -2.11811990e-01,  2.69880116e-01,  3.79364699e-01, -2.97326326e-01, -1.10186473e-01,  6.30290508e-02,
    -2.37497255e-01, -7.04529136e-02, -5.32576926e-02,  1.47871971e-01,  2.06029966e-01, -1.35342672e-01, -1.69311538e-01, -2.92407051e-02,
    -1.71054736e-01, -1.40384033e-01, -1.62015498e-01, -1.41398251e-01,  4.30548936e-02,  7.35593438e-02, -4.13164496e-02, -1.80976704e-01,
    -1.49065360e-01, -7.89275169e-02, -1.14998639e-01,  5.45748137e-02,  1.11789741e-01, -5.95720485e-02, -2.97078133e-01, -5.08098960e-01,
    -4.57912609e-02,  3.98795754e-01,  3.37457567e-01, -3.23878974e-01, -3.62553239e-01,  3.96769255e-01, -3.93499941e-01, -4.14501071e-01},
   {-3.00619423e-01, -7.56046474e-02,  1.44284701e+00,  2.73232251e-01, -3.83432269e-01,  7.31332660e-01, -7.12093115e-02,  1.29439726e-01,
     3.02079856e-01,  6.20625727e-02, -3.13308120e-01, -1.34203508e-01,  8.23469535e-02, -1.35445595e-01, -5.80730677e-01,  2.88223743e-01,
     7.56177723e-01,  3.96343708e-01,  3.90726447e-01,  5.32630444e-01,  1.67250562e+00,  3.43673408e-01,  3.05897612e-02,  1.95548665e-02,
    -9.25029535e-03,  2.28247970e-01, -5.89973032e-01,  7.28907466e-01,  4.53735918e-01,  3.72091293e-01, -1.69889048e-01, -4.09312956e-02,
     1.59671426e+00, -2.67248631e-01,  1.41156256e-01, -3.54455084e-01,  3.50186437e-01, -2.49853998e-01,  9.61234272e-01,  2.00873703e-01,
    -2.94614613e-01,  8.55209958e-03,  3.87168646e-01, -3.58322203e-01, -1.45938829e-01,  2.14793650e-03, -1.78496726e-02, -4.00668442e-01,
     5.95758498e-01,  3.87604773e-01,  3.51958692e-01,  2.91084260e-01, -4.22343910e-01,  3.93562734e-01, -1.85236752e-01,  4.68021423e-01,
     2.51522005e-01,  3.16843390e-02,  3.04975342e-02,  1.53004214e-01, -3.19479108e-01,  1.15904641e+00, -7.06172036e-03,  2.27550536e-01},
   {-4.29411441e-01, -5.82158625e-01,  4.20172662e-01,  3.71213168e-01, -8.92334133e-02, -2.93959081e-01, -3.96469645e-02, -8.11133906e-02,
     6.43371837e-03,  6.14445284e-02, -6.13112152e-02,  9.55595434e-01,  1.83888167e-01, -3.23660731e-01, -3.95593256e-01, -2.77141333e-01,
     4.88897040e-02,  3.16342682e-01,  6.08409584e-01,  1.18871085e-01,  1.33677468e-01,  4.94646639e-01,  4.22552042e-02,  2.16572210e-01,
     7.76293159e-01, -1.69505134e-01, -2.80981839e-01, -1.76251113e-01, -1.05428986e-01,  4.94668782e-02,  5.41648380e-02,  7.38774598e-01,
     1.17931390e+00, -4.48878296e-02,  2.27515459e-01,  6.96700692e-01,  4.98403132e-01, -4.31114256e-01,  1.53371528e-01, -2.35959977e-01,
     2.16965988e-01,  3.53531539e-02,  5.92847347e-01, -2.67234862e-01, -7.21274912e-02,  2.01303706e-01, -2.00784840e-02,  1.48809671e-01,
    -9.52875763e-02, -3.33738148e-01,  1.70627281e-01, -1.57587200e-01, -3.94561529e-01, -1.73362643e-01, -5.55197656e-01,  3.21000844e-01,
    -8.59144405e-02,  6.20009422e-01, -1.40764460e-01,  7.16787696e-01, -3.78027618e-01,  3.15647453e-01, -3.72925937e-01,  7.92206749e-02},
   {-1.91360842e-02, -2.29889601e-01, -2.18167886e-01,  5.23492508e-03, -2.33600140e-01, -3.21121454e-01,  9.43432096e-03, -3.32376450e-01,
    -6.22084327e-02, -3.44914459e-02,  2.40172029e-01, -2.24671736e-01,  1.17769256e-01, -2.99475938e-01, -5.96923986e-03,  4.41744551e-02,
     1.32706031e-01, -4.27881889e-02,  1.07056312e-01, -2.45287381e-02, -2.60613244e-02, -4.52453971e-01, -2.41255000e-01, -1.41107991e-01,
     2.47613832e-01, -1.88160434e-01, -2.65263598e-02, -4.67537828e-02, -2.97967046e-01, -5.67685068e-02, -1.25256836e-01, -6.16392344e-02,
    -5.74806072e-02,  5.94912395e-02,  9.69404131e-02, -4.29918230e-01, -3.01089197e-01, -2.62921780e-01, -1.22190148e-01, -3.88894051e-01,
     1.04155980e-01, -4.82318610e-01,  4.60416786e-02, -3.85002494e-02,  2.06654638e-01, -1.44274980e-01,  2.10249826e-01, -3.42278816e-02,
    -2.66849529e-02, -1.95601791e-01, -8.44969973e-02,  3.18876386e-01,  2.57868350e-01, -3.59879017e-01, -3.26321870e-01, -7.54972100e-02,
     2.59103239e-01,  7.48030655e-03,  1.47488967e-01, -6.18534163e-02,  5.90936728e-02, -2.01960191e-01,  1.27310216e-01, -1.30127266e-01},
   { 8.44094038e-01, -3.10097218e-01, -3.38374525e-01, -6.48425102e-01,  3.94014120e-01,  9.69027162e-01, -5.64955294e-01,  4.13045138e-01,
     7.55666971e-01,  2.99876362e-01, -3.11732203e-01, -7.24143445e-01, -8.95788789e-01,  9.13637996e-01, -6.13186896e-01, -4.99634892e-01,
     2.68359110e-02, -2.32362017e-01,  5.33575602e-02,  2.94121921e-01,  6.03219092e-01,  4.44438338e-01,  2.04828405e+00, -2.37825915e-01,
    -1.23758674e-01, -6.79346561e-01,  5.36687315e-01, -3.85588646e-01, -8.76837134e-01,  5.81797436e-02,  2.83601526e-02, -1.42241657e-01,
     2.22276092e-01,  6.34532928e-01, -4.61139947e-01, -8.16866290e-03, -3.22214514e-01, -7.86639869e-01, -1.86738178e-01,  2.03131407e-01,
     3.41487288e-01,  2.42762163e-01,  2.50338435e-01,  5.98277330e-01, -3.09863746e-01, -6.53389767e-02, -2.29067504e-02, -7.05444276e-01,
    -4.97060150e-01,  1.04765296e+00, -8.88875067e-01, -8.01870644e-01, -2.96690643e-01, -1.30913526e-01, -3.76590699e-01,  5.18657625e-01,
     5.16428530e-01, -2.48985246e-01, -2.23762915e-02, -6.71642661e-01, -6.05569482e-01,  5.94867587e-01,  6.29074216e-01,  7.36720383e-01},
   {-4.51671109e-02,  3.46076638e-01, -7.73448348e-01, -9.89920646e-02, -1.14272542e-01, -6.44783080e-01,  5.52576222e-02, -3.42099726e-01,
     3.04577231e-01, -1.94188729e-02, -1.74198568e-01,  7.26196051e-01,  1.14034724e+00, -1.90556929e-01,  2.97339916e-01, -1.93222761e-01,
    -8.64100270e-03, -2.87957579e-01, -5.34447610e-01,  3.41598466e-02, -7.29374230e-01, -1.35103524e-01, -3.22744161e-01, -2.33843476e-01,
    -8.42081532e-02, -5.24508536e-01,  2.42642373e-01, -6.03573382e-01,  2.01450244e-01, -1.05752364e-01,  3.08670729e-01,  1.99810177e-01,
    -1.60693258e-01,  2.90299535e-01,  1.03332385e-01,  2.60927767e-01, -8.42699707e-02,  3.70492876e-01,  2.09524736e-01, -6.14797890e-01,
     5.20528436e-01,  1.14382274e-01, -4.27070409e-01,  2.84443140e-01, -2.20203444e-01,  1.53525203e-01, -1.22117214e-01,  8.48036170e-01,
    -2.11107701e-01, -1.42756298e-01,  6.02478385e-01,  5.26011102e-02,  3.08136702e-01, -6.84998557e-02,  4.17610109e-01,  1.16655312e-01,
    -3.84778380e-01,  2.78795242e-01,  1.35881498e-01,  5.03034174e-01,  6.91303670e-01, -4.21453536e-01,  4.91035245e-02,  2.52868593e-01},
   {-1.77336261e-01,  7.44450390e-01, -1.71157166e-01, -9.48493600e-01, -3.02120328e-01, -4.66636449e-01,  4.77508724e-01, -2.19564214e-01,
    -4.37869370e-01, -7.63459280e-02, -1.04105137e-01, -1.64862990e-01,  3.97401422e-01, -2.47995272e-01, -4.53817099e-02, -7.26472616e-01,
    -1.13662434e+00, -4.91442293e-01,  8.15831348e-02, -8.66716683e-01, -8.80699754e-01, -4.82941955e-01,  2.58554131e-01, -5.94893038e-01,
    -2.12215871e-01, -5.30463040e-01,  2.04829678e-01,  3.46494734e-01,  2.07042769e-01, -1.91358894e-01,  7.08005250e-01, -3.95728618e-01,
    -7.97704935e-01,  2.19962358e-01, -4.84880656e-01, -1.00496136e-01, -4.19292778e-01,  9.39184785e-01, -1.07714951e+00, -1.02512109e+00,
     7.82064140e-01,  4.00768131e-01, -1.95828155e-01, -4.71048146e-01, -5.84674776e-02,  4.30452414e-02,  5.42691462e-02, -2.17082098e-01,
     7.71136060e-02, -2.47329965e-01, -7.09982276e-01, -8.02640542e-02,  3.43781233e-01, -4.77760315e-01, -3.57576638e-01, -9.64304626e-01,
    -2.40904808e-01, -6.74212754e-01, -5.92656255e-01, -7.20951259e-01,  4.30155635e-01, -4.46386993e-01,  6.64859533e-01,  5.05896620e-02},
   {-5.03377914e-01,  1.84014887e-01,  8.96502733e-02,  1.75594792e-01, -2.51925528e-01, -4.13031369e-01,  9.82137471e-02, -3.26714903e-01,
     4.75639850e-01, -4.77977455e-01, -1.12228673e-02,  9.43067148e-02,  5.52072227e-01, -3.06214958e-01,  1.81638762e-01,  5.77453434e-01,
     4.20908719e-01,  4.21800613e-01, -1.32972607e-02, -1.36857554e-01,  1.43300131e-01,  4.05640602e-01,  3.60641986e-01, -7.43450001e-02,
     4.52188492e-01, -6.26108885e-01,  1.65015176e-01, -8.89401734e-02,  5.13331056e-01, -3.58930111e-01,  5.32646477e-01,  4.80578750e-01,
     4.58533555e-01,  1.99939594e-01,  2.25553721e-01,  4.78511512e-01,  3.71876866e-01,  1.92602575e-01,  4.73655760e-01, -5.39590716e-01,
    -2.56629139e-02,  3.96745317e-02, -3.15655954e-02, -6.66977391e-02,  3.14837039e-01, -2.61306733e-01,  3.30763273e-02,  8.87642875e-02,
    -3.14878225e-01,  1.08941697e-01,  2.20502406e-01,  1.01166874e-01, -1.62301809e-02,  1.00154907e-01, -3.60726357e-01, -6.26381159e-01,
    -4.11342233e-01, -2.73378104e-01, -1.99219525e-01,  4.55775917e-01,  6.01180159e-02,  1.30106598e-01, -2.83711612e-01, -1.45814866e-01},
   { 1.14328906e-01,  2.97633201e-01,  8.74898374e-01, -1.42971396e-01,  4.00313586e-01,  3.02648157e-01,  5.38853034e-02,  1.93444863e-01,
     6.47807777e-01,  1.88963041e-02,  8.24994501e-03,  2.58255661e-01,  5.43113947e-01,  4.39940929e-01,  4.97712851e-01,  5.37975490e-01,
    -2.57083058e-01, -4.36743982e-02,  6.06972314e-02,  2.39882603e-01,  1.21555781e+00,  3.20997447e-01, -3.19173038e-01,  9.84438136e-02,
     2.56418437e-01,  6.18751347e-01,  2.66700178e-01,  6.09697878e-01,  8.86524141e-01,  2.88586348e-01, -2.96157807e-01, -1.38837337e-01,
     1.65849924e-01, -6.02417579e-03, -2.95273393e-01,  9.07195270e-01,  1.57317091e-02, -1.92305639e-01,  1.52293694e+00,  1.29611596e-01,
     1.10822752e-01,  6.16922937e-02,  4.36150074e-01,  3.40899944e-01,  1.20483320e-02, -6.33387491e-02,  6.56858180e-03,  5.21524586e-02,
    -2.42067352e-01, -1.32775940e-02, -1.37983430e-02,  2.37989575e-01, -1.51738063e-01,  6.42308414e-01,  7.55570471e-01,  4.50241625e-01,
    -2.14114904e-01,  1.33578014e-02,  1.91777889e-02,  9.50942755e-01, -4.13905919e-01,  3.91076267e-01, -2.68365473e-01, -1.89275160e-01},
   {-3.74411225e-01, -7.08849192e-01,  2.91335344e-01, -2.03170031e-02, -7.50355422e-01, -9.67356026e-01,  4.05977756e-01,  3.15115750e-01,
     1.03700176e-01, -6.99475884e-01, -1.44750953e-01,  1.64677989e+00,  5.03527448e-02, -6.99839771e-01, -3.89153928e-01, -6.57491982e-01,
    -8.97359699e-02, -1.05574112e-02,  5.80523582e-03, -7.48107255e-01, -6.66074216e-01, -2.05334023e-01,  1.02103162e+00,  2.75347561e-01,
     8.62122253e-02, -4.63928282e-01, -6.03784919e-01,  9.89120305e-01,  6.38751268e-01,  9.31459785e-01, -2.05616951e-01, -4.78058085e-02,
     2.57930994e-01, -3.95363986e-01, -2.38761753e-02,  3.70165139e-01, -2.99726516e-01, -4.33871776e-01, -4.89391655e-01,  4.66850609e-01,
    -4.75716591e-01,  2.25305843e+00, -1.83558967e-02, -4.66817796e-01,  7.10635483e-02, -2.38367766e-02,  8.10978472e-01, -9.38689187e-02,
     1.30279350e+00, -2.59070665e-01, -4.11633968e-01, -3.41294885e-01, -7.43747413e-01,  4.59206939e-01, -1.79429084e-01, -9.33653265e-02,
    -5.61102271e-01,  1.54895115e+00, -1.78765461e-01, -2.69642472e-01, -2.46451706e-01,  1.08240210e-01, -1.03270423e+00, -3.38549227e-01},
};

const float GRNN1_U[32][32] = {
   {-3.19425195e-01, -8.94262493e-02,  7.78025866e-01,  1.10677171e+00, -3.20195377e-01, -5.66552401e-01,  5.40720284e-01,  1.86162674e+00,
     1.77020955e+00,  1.44342899e+00, -2.07387543e+00,  2.09844685e+00,  8.68123591e-01, -1.32793653e+00, -1.19262040e-01,  1.69528276e-01,
     1.18490720e+00, -3.43134671e-01,  1.81698650e-01,  7.77634323e-01,  1.79709613e+00, -1.45943999e+00, -4.07042056e-01,  9.52278674e-01,
     6.72318161e-01,  6.51706994e-01, -6.38486743e-01,  5.77463925e-01, -2.64933276e+00, -3.29200774e-01, -1.28557146e+00, -1.38606042e-01},
   {-9.76982594e-01,  3.55813789e+00,  8.59071076e-01, -1.06398153e+00, -4.09756756e+00,  1.25712299e+00, -5.95795810e-01,  1.11196828e+00,
     1.87062538e+00, -1.02646983e+00, -2.48823071e+00, -2.53068590e+00, -7.19778001e-01, -1.92218018e+00,  1.99587333e+00, -3.74261332e+00,
     4.24593544e+00,  2.23167849e+00, -1.37041056e+00,  3.76445365e+00, -3.87070036e+00,  4.30874968e+00,  3.92163897e+00, -1.32482255e+00,
     1.20615339e+00, -4.91720974e-01, -1.66231382e+00, -2.28659797e+00,  1.42375290e+00,  6.34087980e-01, -1.49223220e+00,  4.08743668e+00},
   {-1.62876561e-01,  5.24641611e-02, -1.36734509e+00,  8.33326161e-01, -6.12380281e-02, -2.45891404e+00, -5.65435052e-01,  1.44994342e+00,
     2.28441548e+00, -6.00087345e-02, -5.35947084e-01, -3.59693915e-01, -1.94976652e+00, -6.52560353e-01,  5.02061844e-01,  1.25681520e-01,
    -2.46302223e+00,  9.62428078e-02,  1.05523892e-01,  3.35846931e-01, -3.03456932e-01, -2.40852213e+00,  2.69414783e-01,  1.26732635e+00,
     1.85162044e+00, -2.81186365e-02, -1.80695862e-01, -2.91365772e-01, -2.24850082e+00, -7.81562105e-02, -1.03010702e+00, -2.85111308e-01},
   { 1.02280937e-01, -6.03920877e-01,  8.41667056e-02, -1.56591272e+00, -1.53961718e+00,  3.68389308e-01, -8.77314448e-01,  2.33041143e+00,
    -1.71591902e+00,  1.45566368e+00,  8.19845855e-01, -1.33104992e+00,  1.46886218e+00, -2.91957498e+00, -4.32783991e-01, -1.20429277e+00,
     5.72223902e-01,  1.57251358e-01, -3.67080420e-01, -8.68168592e-01, -2.01048899e+00,  9.41875815e-01, -4.11677867e-01, -6.90424979e-01,
     5.49782440e-02,  4.15951073e-01,  1.56610936e-01,  1.63063496e-01,  1.16295946e+00, -2.08963379e-01,  7.12011933e-01, -7.35354245e-01},
   { 2.72664726e-01,  3.41622084e-01, -6.28229618e-01,  2.02979803e-01, -1.11565948e+00,  1.31263122e-01, -3.68388832e-01,  9.63185310e-01,
     4.41658199e-01,  1.87576401e+00, -7.07724690e-01,  5.57069302e-01,  2.25191689e+00, -3.77778351e-01,  2.02870274e+00, -2.39179587e+00,
     7.25958288e-01,  1.66205764e+00,  5.37675738e-01,  1.64498949e+00, -8.14049244e-01, -2.42915511e-01, -6.50569260e-01, -2.45608473e+00,
     2.64045268e-01,  6.94753170e-01,  2.36228257e-01,  8.03623021e-01,  1.22426403e+00,  9.76184011e-01, -9.20853540e-02,  2.34685794e-01},
   {-1.42223811e+00, -3.28543901e-01,  3.35932881e-01, -6.80790722e-01, -2.23762959e-01,  4.91480976e-01,  3.93672399e-02, -1.61125720e+00,
    -1.42241120e+00,  9.81639624e-01, -1.24894524e+00,  4.15538073e-01,  1.58557069e+00,  1.10908270e+00,  5.88840365e-01, -1.94272614e+00,
     1.94258988e+00,  7.59740770e-01,  2.06532046e-01, -2.14471132e-01,  6.79909438e-02,  8.88585091e-01, -1.56468585e-01, -1.20663166e+00,
     2.09352827e+00, -1.56652796e+00,  1.37693942e+00,  1.08555281e+00, -2.13590908e+00,  6.80064440e-01,  1.86234975e+00,  2.11563540e+00},
   { 5.48932195e-01, -6.28083289e-01, -2.68133640e-01,  1.38839328e+00, -8.95243466e-01, -2.73703194e+00, -4.66448396e-01, -1.29392326e+00,
     1.88703763e+00, -9.05025244e-01, -5.68088889e-01, -3.53815818e+00,  7.42246866e-01,  5.24296820e-01,  1.32433593e+00,  9.75518882e-01,
     3.27779561e-01, -4.21367198e-01, -4.63846833e-01,  2.32966566e+00,  6.63073540e-01,  2.00203322e-02, -6.33248448e-01,  7.09071979e-02,
    -6.26864374e-01,  3.65623176e-01, -1.46465158e+00, -4.72747758e-02,  3.75434875e+00, -3.27875435e-01, -6.26641989e-01, -6.61283731e-02},
   {-2.44616270e-01, -2.25451803e+00,  1.07785261e+00, -1.35768116e-01,  5.36042213e-01, -8.24131891e-02,  4.93391633e-01, -8.60836983e-01,
    -7.23034739e-01, -3.18922424e+00,  5.66671304e-02,  1.15537179e+00,  2.74625778e-01, -2.06387687e+00, -2.60607690e-01,  3.90654594e-01,
     3.76090240e+00, -3.49404424e-01, -1.42145884e+00,  1.46069384e+00,  9.40774202e-01, -9.18384075e-01,  2.58478522e-01,  9.00146544e-01,
    -1.45813048e+00, -1.08360887e+00,  1.31526172e-01, -5.61367214e-01,  7.38588348e-02, -7.03375995e-01, -8.37694824e-01,  1.00442278e+00},
   {-1.32182211e-01,  9.64931607e-01, -9.32332635e-01,  3.43176991e-01,  3.54784280e-01, -1.29182860e-01,  1.27725512e-01,  6.96324229e-01,
    -1.26736283e-01, -1.44249594e+00, -1.50456655e+00, -7.97293067e-01, -1.36900723e+00,  2.15439439e+00, -4.83006716e-01,  2.55993676e+00,
     3.50272417e-01, -6.03558898e-01, -1.23011363e+00,  8.84029150e-01,  3.77186298e-01, -5.73032141e-01,  1.70732111e-01,  8.46373320e-01,
    -5.26450276e-01, -1.74180126e+00,  4.80487466e-01, -2.93084204e-01,  5.37550330e-01, -8.48705769e-01,  4.87667888e-01, -2.26696229e+00},
   {-6.58817053e-01,  4.80717993e+00,  7.94006228e-01, -1.75135016e+00, -6.40763342e-01, -7.30938315e-01,  7.25417495e-01,  8.77452254e-01,
    -8.80153537e-01,  2.39318347e+00,  1.54136014e+00,  1.10203731e+00,  9.48377013e-01, -2.57542896e+00,  5.30534267e+00, -1.98010516e+00,
     2.50107832e-02,  2.55540943e+00,  1.35007724e-01, -3.39697385e+00, -1.56262457e+00,  7.16124058e+00,  3.58544260e-01,  8.15247655e-01,
     7.60574698e-01,  1.35750532e+00,  1.39324272e+00,  4.37096655e-01,  1.01457214e+00,  2.50618815e-01,  3.99212509e-01, -1.43287992e+00},
   {-1.17073607e+00,  7.11686969e-01,  1.37870491e+00, -5.73719680e-01,  1.05556583e+00, -8.20223153e-01,  3.30075890e-01, -2.59628344e+00,
    -3.01413864e-01, -1.07112622e+00, -6.50730908e-01,  2.41013765e+00,  9.36672747e-01,  1.68550348e+00, -6.10882759e-01,  1.82480490e+00,
    -1.20119363e-01,  9.79671657e-01, -1.26887155e+00, -9.86799955e-01, -2.42594749e-01,  9.28313792e-01, -4.50771987e-01, -2.63954043e-01,
    -1.54100668e+00,  1.50796831e+00,  1.20032704e+00, -3.84538502e-01,  2.44653296e+00, -1.13367856e+00,  6.02999866e-01, -7.61673808e-01},
   {-3.82032573e-01, -4.11662698e-01,  2.96290278e+00, -2.33066544e-01,  1.27217579e+00,  7.07400799e-01,  1.94074228e-01, -2.35462356e+00,
    -9.31036115e-01,  1.28464198e+00, -1.95602953e+00,  5.39652705e-01,  2.08860946e+00, -6.08660340e-01, -2.30837628e-01, -1.36346385e-01,
     1.70285285e+00, -9.79388654e-01, -8.73629749e-02, -3.96453917e-01, -1.14406502e+00,  1.59201336e+00, -5.71758032e-01,  1.10536206e+00,
    -7.55391896e-01,  1.12084055e+00, -8.72798085e-01,  1.37564933e+00,  1.71293426e+00, -2.25456208e-01, -1.03632224e+00, -7.82824695e-01},
   {-2.22046852e-01,  3.61872959e+00,  1.81838512e+00, -5.51845312e-01,  1.67426956e+00, -1.56060386e+00,  5.06723225e-01,  2.20981336e+00,
    -2.01930714e+00, -1.09534785e-01,  3.50782561e+00,  5.52810955e+00,  3.60133439e-01, -6.92266798e+00, -2.47428656e+00, -4.05032539e+00,
    -2.95013595e+00, -1.13188517e+00,  1.24822950e+00, -2.50707555e+00,  1.12216389e+00,  3.98318291e-01,  1.89120400e+00,  7.08953798e-01,
    -1.73855591e+00,  1.15636969e+00,  7.68261433e-01, -1.92339647e+00, -1.74044979e+00, -1.08084559e+00, -1.55559587e+00, -3.87474120e-01},
   { 3.33524615e-01, -1.52697814e+00, -6.21323109e-01, -8.92496288e-01, -8.67327154e-01, -9.66510773e-01,  1.86661053e-02,  2.76027560e-01,
    -8.39443281e-02, -1.24524307e+00, -3.15678939e-02,  2.54926421e-02,  5.47014594e-01, -1.36987376e+00,  3.34615082e-01,  1.29290271e+00,
    -1.07683814e+00,  3.12596583e+00, -1.40544283e+00,  1.02628160e+00, -2.79218853e-01, -1.34306207e-01, -3.45887244e-01, -8.20966244e-01,
     7.02057660e-01, -1.96046531e+00,  2.32817084e-02, -1.62008017e-01, -8.29725683e-01,  8.93847167e-01,  1.56556118e+00,  8.84230793e-01},
   {-9.33288991e-01, -2.01161480e+00,  3.21223497e+00, -6.90272391e-01,  3.79062891e-01,  3.58418107e+00,  2.80369967e-01,  3.34208274e+00,
    -1.72407067e+00, -3.04427415e-01,  3.89765477e+00,  3.43092608e+00,  2.88112855e+00, -2.56566018e-01,  1.22496831e+00, -1.69520390e+00,
     1.30705833e-01,  2.24119449e+00, -1.54558802e+00,  2.10061479e+00, -8.79333675e-01, -1.99062571e-01,  8.14535499e-01, -1.06007767e+00,
     2.32982540e+00, -5.82421184e-01, -5.53184271e-01,  3.42663360e+00, -2.26801991e+00, -5.76760828e-01, -1.64131209e-01,  4.33851719e+00},
   { 1.25920844e+00,  9.19621531e-03,  2.13206038e-01,  3.25087935e-01,  8.16823423e-01,  1.47887564e+00, -1.94546688e+00,  1.72496641e+00,
    -9.63284612e-01, -2.67136872e-01, -4.11767244e-01,  1.00000292e-01, -2.81108350e-01,  1.36794358e-01,  1.64031222e-01, -1.92591274e+00,
     1.64922357e+00,  3.01886529e-01, -3.36818695e-01,  9.76312757e-02, -4.61321592e-01,  8.80430520e-01, -2.46115506e-01, -1.93310425e-01,
    -1.05510271e+00,  3.03879082e-01, -1.54084134e+00,  1.20607030e+00, -2.77171397e+00,  2.49394566e-01,  3.74956518e-01, -1.76947904e+00},
   {-2.78151417e+00,  2.47464442e+00,  1.69510400e+00, -1.40387952e+00,  2.29097366e+00, -4.42067832e-01, -1.91990900e+00,  3.00726652e+00,
    -7.80267477e-01, -6.37471557e-01,  2.48480225e+00,  3.51903176e+00, -5.94506085e-01, -2.76764059e+00,  5.56243420e-01, -1.35260034e+00,
     2.72811222e+00,  4.10294294e+00, -1.27239716e+00, -4.49225217e-01, -3.31376642e-01, -1.05080411e-01,  4.78349733e+00,  1.50843227e+00,
     4.79514599e+00, -2.13746476e+00,  8.59906435e-01, -1.09072137e+00, -4.74317598e+00,  1.85429737e-01, -1.58750892e+00,  3.19477499e-01},
   {-5.74448824e-01, -3.09781313e+00,  1.65561795e+00,  6.53344929e-01,  5.06614268e-01,  6.12605429e+00, -1.32393003e-01,  6.95162535e-01,
     8.23097974e-02,  1.92875192e-01, -2.57470345e+00, -1.76025248e+00,  8.27496111e-01,  2.94526243e+00,  8.91831756e-01, -1.06287801e+00,
     1.16160381e+00,  3.24183732e-01, -6.55917168e-01,  2.66925669e+00,  6.77525103e-01, -4.64094281e-01, -1.09516525e+00, -3.48801875e+00,
     4.56827211e+00,  1.92900613e-01,  1.33892548e+00,  2.27607083e+00, -1.96954536e+00,  1.32797599e+00, -2.63596463e+00,  3.02347922e+00},
   {-2.32175924e-02, -6.26219928e-01,  8.43365371e-01,  2.69058555e-01, -1.64671272e-01, -1.17753541e+00, -7.05011249e-01, -2.23030543e+00,
     8.30354810e-01,  2.31342673e+00,  1.91777980e+00, -1.85454500e+00,  2.65346915e-01,  4.72547948e-01, -1.54963183e+00,  4.67683673e-01,
    -4.10034752e+00, -1.43930769e+00,  8.10900211e-01,  1.13702059e-01,  8.52635205e-01, -2.58754325e+00,  3.66834193e-01,  9.24047053e-01,
     9.49019313e-01, -6.05514884e-01,  3.73189002e-01, -3.75571460e-01,  3.19441009e+00, -2.66698927e-01, -1.01719797e+00,  1.41744924e+00},
   { 8.32357705e-01,  1.85969067e+00, -1.32470101e-01,  1.13853490e+00, -1.75003678e-01,  9.11737829e-02, -1.47021425e+00,  1.01446056e+00,
     5.16881108e-01, -8.63946140e-01, -1.88672185e+00, -1.28675616e+00, -2.05732918e+00, -5.22064745e-01, -1.51674950e+00, -1.89557099e+00,
     3.25872278e+00,  3.13103175e+00, -4.51864079e-02, -4.13036376e-01, -1.42571485e+00,  3.44970131e+00, -4.80234064e-02,  5.32099485e-01,
    -7.26710916e-01,  3.85939837e-01,  4.82594937e-01, -1.19753070e-01, -5.47438383e-01,  6.94557801e-02,  5.00454783e-01,  1.21033704e+00},
   {-1.76196873e+00,  7.68545568e-01,  1.32100523e+00,  8.34289864e-02,  1.24041784e+00,  1.54763862e-01, -8.67092848e-01, -5.41635096e-01,
    -9.92546499e-01, -2.90563375e-01, -2.00075603e+00,  3.83464247e-01,  9.79300439e-01,  5.05533695e-01,  1.11087918e+00, -3.43351275e-01,
     8.64612520e-01,  9.71359849e-01, -1.47591603e+00,  8.85663927e-01,  1.45833254e+00,  2.60339546e+00, -5.90626538e-01, -5.95667958e-02,
    -3.75698447e-01, -1.43440640e+00, -8.30566406e-01,  2.77252197e+00,  1.48958576e+00,  6.01832151e-01, -1.21079099e+00, -9.65833187e-01},
   {-3.10025740e+00, -1.57115877e+00,  1.74882114e+00, -1.09685326e+00,  2.14879966e+00,  2.70968342e+00,  9.32747006e-01,  2.16063118e+00,
    -1.65566337e+00, -1.83193088e+00,  2.21144080e+00,  3.33395982e+00, -1.17385852e+00, -5.99974096e-01,  1.27291226e+00, -2.15589905e+00,
     3.34041142e+00, -5.05232215e-01, -2.05385923e+00,  2.81456017e+00,  1.36418128e+00,  1.33370101e+00,  1.30036044e+00, -7.76061475e-01,
    -2.92865098e-01, -3.75741214e-01, -7.15568185e-01, -1.37787533e+00, -2.00198770e+00, -2.93561435e+00, -2.34719753e+00,  2.88482118e+00},
   { 3.95752527e-02,  8.71067762e-01, -5.49359262e-01,  6.28870074e-03,  3.57980654e-02, -2.59146285e+00,  2.65503854e-01,  1.13131201e+00,
     2.95251548e-01, -1.47632098e+00,  3.54383302e+00,  2.01862001e+00, -2.19006228e+00, -2.93492228e-01, -8.57877731e-01,  3.90615702e-01,
    -2.63651967e+00, -1.40349245e+00, -2.71909773e-01,  7.38151252e-01, -3.09169292e+00, -2.20735097e+00, -1.65471566e+00, -4.01630729e-01,
     7.47195125e-01,  5.18647611e-01,  6.06898904e-01, -1.00309066e-02,  1.25311565e+00, -5.64554334e-01, -1.12067294e+00, -1.86127269e+00},
   {-6.65506363e-01, -7.75351748e-02, -2.07115427e-01,  7.08304465e-01,  2.85226870e+00,  2.34017229e+00,  4.07901466e-01,  2.31343865e-01,
    -7.62598872e-01, -1.56403029e+00,  1.22435689e+00,  1.63550401e+00, -9.70953584e-01, -2.65448689e-01, -2.80326605e-01,  1.67032138e-01,
     1.96515012e+00,  1.77612051e-01,  1.13060248e+00, -2.43038726e+00,  1.46450973e+00,  5.53431273e-01,  1.08163424e-01, -1.82521939e+00,
     1.25603664e+00, -4.17651013e-02,  4.29198205e-01, -3.31569165e-01, -1.35889494e+00,  3.88127416e-01,  1.48760641e+00,  1.90485466e+00},
   { 6.24985278e-01, -2.51604199e-01, -4.49185431e-01,  7.99925327e-01,  1.12245286e+00, -2.19045949e+00,  4.37970936e-01,  8.49426091e-02,
     1.71581757e+00, -9.48709488e-01, -6.10412300e-01, -5.78280568e-01, -1.06674945e+00, -1.05476868e+00,  6.18753672e-01, -2.48277292e-01,
     1.81790769e-01, -1.29341972e+00, -8.55295658e-01,  3.12742025e-01,  6.07778847e-01, -3.10641074e+00,  5.00411510e-01,  4.19190228e-01,
    -1.59783447e+00,  2.50048697e-01, -1.08076394e+00, -6.09090686e-01, -2.42630482e+00,  2.17973236e-02, -9.03250515e-01,  9.49593723e-01},
   { 1.05351150e-01, -4.61074144e-01, -6.25472903e-01,  3.88821363e-01, -1.81291556e+00, -1.32906663e+00,  4.14715290e-01,  3.04224402e-01,
     1.24880934e+00,  5.20032167e-01,  3.46635520e-01,  5.04715741e-01,  1.09183609e+00,  1.50418448e+00,  8.46161783e-01,  4.79777575e-01,
    -7.70407394e-02, -6.26144588e-01, -9.36796591e-02,  7.08480358e-01, -1.92403066e+00, -1.10064363e+00, -5.12780389e-03, -2.72833204e+00,
     4.11883265e-01, -1.54797769e+00, -3.87224734e-01,  2.52804518e-01,  1.66673744e+00, -1.05883285e-01, -8.47018838e-01, -1.08371592e+00},
   { 8.79215717e-01,  1.03321016e+00, -3.65347415e-01, -1.30357361e+00, -1.11488986e+00, -5.76757610e-01,  8.68849814e-01,  2.46425956e-01,
     6.43172622e-01,  9.36322927e-01, -6.32594287e-01,  1.48656595e+00,  1.66285408e+00, -1.87799895e+00,  7.45383510e-03,  3.95093203e-01,
    -7.54137039e-02,  1.98199734e-01,  2.81812012e-01,  5.79123139e-01,  2.42081985e-01, -1.04339468e+00, -3.51722717e-01, -1.49095249e+00,
     4.08744305e-01, -7.16843486e-01, -1.10849357e+00, -1.78300112e-03, -1.60961449e+00,  6.49036050e-01,  6.40037477e-01,  4.34409261e-01},
   { 1.48135066e-01,  5.09888083e-02, -5.04741073e-01,  6.54329127e-03, -1.24735844e+00, -1.42217112e+00,  1.61576867e-01,  3.50883186e-01,
     4.50378090e-01, -1.13679349e+00,  5.71402502e+00,  2.32448602e+00, -2.46474817e-02,  3.97561103e-01,  4.25257534e-01, -6.03709161e-01,
    -3.29784691e-01,  8.58632803e-01, -1.67292684e-01,  1.31736803e+00, -8.85185242e-01, -2.75723410e+00, -1.39165968e-01, -2.77594495e+00,
     7.29891419e-01,  4.57591176e-01, -5.28618276e-01, -6.00001156e-01,  7.37854183e-01, -6.64884597e-02, -4.79050606e-01,  1.57775962e+00},
   {-1.26147747e+00,  8.45607400e-01, -3.95099998e-01, -7.30453849e-01, -5.71092427e-01, -7.86003828e-01, -1.65374354e-01,  3.94086421e-01,
     1.44544435e+00, -1.61753488e+00, -1.23483992e+00, -6.78121984e-01, -7.86181331e-01,  1.31310546e+00,  7.98488632e-02,  1.07880521e+00,
    -3.09560522e-02, -3.84700835e-01, -1.37485433e+00,  3.66289645e-01, -5.86986244e-01, -9.81042087e-01, -6.76695406e-02,  2.92450115e-02,
     7.85443068e-01,  5.64283013e-01,  1.57719702e-01, -7.85350263e-01, -1.30916905e+00, -1.61203051e+00,  4.53859478e-01, -4.54950407e-02},
   { 4.65160143e-03, -1.94252193e-01,  2.33613029e-01,  3.44571799e-01, -9.39453900e-01,  1.54188907e+00, -1.13276219e+00, -6.99782610e-01,
     1.02760804e+00, -3.64820659e-01, -8.97978425e-01, -1.73528683e+00, -6.72998726e-02,  1.72483385e+00,  9.59384739e-01,  4.18945909e-01,
    -7.42218673e-01, -2.21035719e+00, -3.22066128e-01,  1.04566801e+00, -1.31126094e+00, -1.00191939e+00,  1.04192555e+00, -2.16800070e+00,
    -3.82406265e-02,  4.27270800e-01,  2.87660807e-01, -1.08479297e+00,  3.93179011e+00, -6.17393374e-01, -6.42979562e-01, -9.70368266e-01},
   { 2.15178639e-01,  5.38412690e-01,  1.45544857e-01,  6.84718132e-01,  1.16537772e-01, -2.66463280e+00,  3.51395197e-02,  2.32614875e-01,
    -3.49242270e-01,  9.67451751e-01,  7.41936386e-01,  2.24913836e+00,  5.27386606e-01, -9.97295201e-01,  2.20826209e-01, -1.11898446e+00,
     4.48335230e-01,  2.77137089e+00,  2.26011291e-01,  3.36742818e-01,  2.21293196e-01,  6.78388700e-02, -5.30783385e-02,  3.66663313e+00,
     1.24105680e+00,  1.77861348e-01, -1.52782106e+00, -3.66653293e-01, -2.46866894e+00,  1.81635246e-01, -1.41524339e+00,  7.63549209e-01},
   { 6.89171195e-01,  2.83141804e+00,  6.40486777e-01,  6.73978031e-01,  7.32055247e-01, -4.37547453e-02, -1.28081128e-01,  9.42813158e-02,
     1.06759167e+00, -4.06979263e-01, -6.81929827e-01,  8.91693473e-01,  2.28833571e-01, -4.11101691e-02,  6.89683080e-01,  8.04848909e-01,
     2.87917113e+00, -4.92294371e-01, -6.14937305e-01,  2.49867976e-01,  1.33323777e+00,  5.11089325e-01,  7.56985188e-01, -1.85050201e+00,
    -1.18486249e+00,  4.52199817e-01, -4.37752813e-01, -4.54110146e-01, -3.14880919e+00,  7.72682428e-01, -9.75828528e-01, -2.64549327e+00},
};

// clang-format on


#endif // __FASTGRNN_GRNN1_PARAMS__

