#ifndef __FASTGRNN_GRNN0_PARAMS__
#define __FASTGRNN_GRNN0_PARAMS__

#define GRNN0_HIDD_DIM0 (32)
#define GRNN0_HIDD_DIM1 (64)

// clang-format off

const float GRNN0_ZETA = (-3.091278e+00);
const float GRNN0_NU = (-6.174129e+00);

const float GRNN0_BIAS_UPDATE[64] = 
   { 2.14852953e+00,  6.25411928e-01,  1.87393546e+00,  1.32010651e+00,  2.92437434e+00,  3.38875890e+00,  1.48755372e+00,  4.16176349e-01,
     6.84426367e-01,  1.24204218e+00,  1.06277990e+00, -4.89567846e-01, -8.66788179e-02,  1.81131411e+00,  2.75292206e+00,  2.39249682e+00,
     9.57654268e-02,  2.36763024e+00,  1.87952530e+00,  1.10958827e+00, -7.93885827e-01,  4.55744803e-01, -4.96825725e-01,  2.35882783e+00,
    -6.20910302e-02,  2.22616935e+00,  1.93227243e+00,  2.63694143e+00,  6.18261635e-01,  9.95503664e-01,  2.00687218e+00,  1.92281914e+00,
     1.39245546e+00, -3.13300252e-01,  2.37408042e+00,  3.11507726e+00,  3.25184417e+00, -2.87154108e-01,  1.39048266e+00,  1.93639302e+00,
     2.00758171e+00,  1.99219608e+00,  6.31439090e-01,  1.37870169e+00,  1.43669987e+00,  1.23566675e+00,  1.66657102e+00,  2.58892584e+00,
     2.51929259e+00,  1.70755959e+00,  1.92446995e+00,  7.77770698e-01,  2.00208807e+00,  1.13530564e+00,  1.64696920e+00,  3.92672688e-01,
     1.84548652e+00,  3.13006878e+00, -8.32188368e-01,  1.38329852e+00,  1.09854531e+00,  1.55429292e+00,  9.35450077e-01,  2.04691482e+00};

const float GRNN0_BIAS_GATE[64] = 
   { 3.83117390e+00,  4.98605347e+00, -1.37978590e+00,  2.88910937e+00,  1.10749590e+00,  1.05116296e+00,  2.88167208e-01,  4.61943102e+00,
     1.90277517e+00,  2.18194246e+00,  5.07294703e+00,  3.93684959e+00,  5.25820684e+00,  9.22046959e-01,  5.75156736e+00,  1.49276304e+00,
     5.90225649e+00,  5.56205702e+00,  4.53536940e+00,  5.21826315e+00, -1.20614374e+00,  3.79324937e+00,  3.88600278e+00,  4.68733835e+00,
    -2.80592144e-01,  1.61954030e-01,  3.38100553e+00,  3.24575424e+00,  5.98636150e+00,  5.45039034e+00,  5.31904650e+00,  1.87730110e+00,
     3.02447557e+00,  5.09581900e+00,  4.30133533e+00,  4.17466974e+00,  9.78867561e-02,  3.60511184e+00,  1.57611763e+00,  4.33366537e+00,
     1.32337868e+00,  1.13662720e+00,  4.08815002e+00,  1.94950187e+00,  1.76356113e+00,  2.36456800e+00,  3.34723687e+00,  6.06471479e-01,
     1.51024628e+00,  2.48502326e+00,  2.68334484e+00,  3.89734030e+00,  5.84323168e+00,  5.85167122e+00,  2.52785754e+00,  1.22188139e+00,
     2.82126904e+00,  4.43464375e+00,  7.44143367e-01,  2.62704921e+00,  5.57946777e+00,  2.81044269e+00,  1.87100863e+00,  1.90471041e+00};

const float GRNN0_W1[8][32] = {
   {-3.17690969e-02,  1.39522016e-01,  1.09648323e+00,  9.35449719e-01, -2.52567023e-01, -1.25623298e+00, -1.78073215e+00, -5.78367352e-01,
     1.26146173e+00,  4.54971105e-01, -1.48094557e-02, -4.76069987e-01,  3.53226572e-01,  3.07972461e-01, -6.79683864e-01, -6.00622654e-01,
    -4.83210683e-01,  8.48585486e-01,  9.11779583e-01,  9.29750800e-02,  2.59296715e-01,  2.98178177e-02,  2.75539368e-01, -1.93849672e-03,
    -2.62780309e-01,  2.31380358e-01, -8.29956215e-03, -1.47477865e-01,  7.01360106e-02, -4.27036375e-01, -1.53551735e-02, -2.71022707e-01},
   { 1.20504878e-01,  3.65036279e-02,  1.11112881e+00,  4.40781772e-01,  7.01499581e-02, -3.02419901e-01, -6.63632870e-01, -8.45158339e-01,
    -6.81042850e-01,  7.78650418e-02,  4.47512090e-01,  7.47773290e-01, -6.75730884e-01, -2.40363613e-01,  9.45106566e-01,  8.82385075e-01,
     6.14105463e-01,  1.36094883e-01, -4.25005734e-01, -7.30564952e-01, -1.32830858e-01, -6.99690953e-02, -2.93473542e-01, -2.64715940e-01,
    -1.52765950e-02, -1.21495113e-01,  2.30081230e-01, -7.86820874e-02, -1.00884482e-01,  3.48883390e-01, -1.69593364e-01,  1.16781279e-01},
   { 1.76476508e-01, -1.32048190e-01, -8.22077930e-01, -5.77353120e-01, -7.24008858e-01, -7.02698112e-01, -7.78263986e-01,  4.39524710e-01,
     5.21052480e-01,  4.04145010e-02,  2.17314586e-01, -5.01295388e-01, -3.31519008e-01,  2.68677641e-02,  1.05264172e-01,  2.45504200e-01,
     8.01045060e-01,  1.14236325e-01,  1.32252529e-01,  4.72164974e-02, -2.56385684e-01, -2.78234184e-01,  1.53218448e-01,  3.26362252e-01,
    -3.19055080e-01,  2.35439427e-02,  2.68363744e-01,  2.95987755e-01,  3.64669651e-01,  1.31996259e-01, -1.92262307e-02,  5.29155254e-01},
   { 1.91250846e-01, -3.49607259e-01, -2.25575417e-01, -9.94439498e-02,  5.37511468e-01,  7.57354558e-01,  6.77777350e-01, -8.41442883e-01,
    -1.13202620e+00, -1.23506784e-01,  2.38038182e-01,  4.58413690e-01, -1.48736858e+00, -1.52287138e+00, -5.10375619e-01, -1.63947612e-01,
     5.70994675e-01,  8.26272249e-01,  3.41789216e-01,  3.98383886e-02,  1.88863069e-01, -1.55703768e-01,  1.94602624e-01,  2.11994350e-02,
    -1.21286623e-01, -3.80730815e-02,  2.13218257e-01, -2.20814899e-01,  5.25721610e-02, -1.03722334e-01, -7.91163836e-03,  1.48996517e-01},
   { 1.13297485e-01, -7.14910686e-01, -2.58348256e-01,  2.76511431e-01,  6.14639342e-01,  1.24355817e+00,  6.32403493e-01, -1.19213283e+00,
    -1.54070497e+00, -3.42433482e-01, -3.82872105e-01,  4.72306699e-01,  1.20805657e+00,  6.05592430e-01, -1.35665014e-01, -6.44483030e-01,
     6.02386221e-02,  8.57750535e-01, -7.09935799e-02, -3.69699538e-01, -2.11614341e-01,  3.61704051e-01, -7.85458088e-02, -3.17279369e-01,
     1.28822565e-01, -2.94888746e-02,  2.80150324e-01,  9.81082674e-03, -1.63157478e-01, -2.52951503e-01,  1.26984358e-01, -6.86098635e-02},
   {-3.18517089e-02,  2.91595068e-02,  1.05171114e-01,  3.74652952e-01,  4.75255728e-01,  2.96425581e-01,  1.60531193e-01, -7.43386030e-01,
    -5.64986050e-01, -2.73563445e-01,  3.82313668e-03,  3.76450062e-01,  7.40365207e-01,  2.71022588e-01, -7.15905845e-01, -7.01382756e-01,
    -7.03941345e-01, -8.52706432e-01, -5.60494244e-01, -3.04066896e-01, -1.31126523e-01,  1.96648940e-01, -2.11680979e-01,  3.66079658e-01,
     4.12469804e-01,  2.39389110e-03,  3.03782642e-01,  2.74113357e-01,  2.53125131e-01,  4.60446209e-01, -1.68967724e-01,  3.36523235e-01},
   {-9.55742374e-02, -6.61788210e-02,  7.09995508e-01, -3.04560035e-01,  8.96548107e-02,  4.44035083e-01,  8.01503062e-01,  2.15951398e-01,
    -1.05301432e-01,  2.94480354e-01,  8.66967663e-02, -2.53898114e-01, -7.60561466e-01, -7.94753790e-01, -2.52482891e-01, -2.03998119e-01,
     1.50830612e-01,  1.30828783e-01,  5.14200509e-01,  5.06571293e-01,  3.14431697e-01, -4.44742590e-02,  1.67462468e-01,  3.11475396e-01,
    -3.70427072e-02,  4.76332724e-01,  1.43977106e-01,  1.28627524e-01,  7.68733770e-02, -3.72934341e-02,  2.38485381e-01, -2.39108339e-01},
   {-1.83945149e-01,  2.64475107e-01, -1.11457855e-01,  4.28574443e-01,  1.62159756e-01,  3.55355948e-01,  3.19901258e-01,  3.37935925e-01,
    -1.28107399e-01, -5.42115271e-01, -2.03155327e+00, -1.49636984e+00,  1.28630444e-01,  6.74223065e-01,  7.13287354e-01,  5.32561421e-01,
     5.90792000e-01, -3.76186892e-02,  1.27362341e-01,  2.11069688e-01,  1.49638429e-01, -4.78783190e-01,  8.17818940e-02, -3.58639926e-01,
     2.27136746e-01,  2.68378168e-01, -2.09770307e-01, -5.88365048e-02,  6.71223551e-02, -7.68352002e-02, -2.39827670e-02, -8.04004744e-02},
};

const float GRNN0_W2[64][8] = {
   {-6.38774097e-01, -2.98920959e-01,  1.28925359e-02, -8.19916308e-01, -4.44222808e-01,  2.45996401e-01,  2.03280821e-01, -7.12454438e-01},
   { 1.80539973e-02, -1.24093793e-01,  7.82130063e-01,  4.12616968e-01, -4.21943367e-01,  5.06094158e-01, -1.32543489e-01,  3.28225672e-01},
   {-1.93285905e-02, -9.76874009e-02,  8.80089879e-01,  8.14752579e-01, -1.10566877e-01,  7.71995664e-01, -1.18036520e+00,  2.74855923e-02},
   {-6.58668935e-01, -5.13665199e-01,  4.48218673e-01,  3.10502291e-01,  6.22989476e-01, -4.61037576e-01,  2.25146543e-02,  1.49971411e-01},
   { 3.81642282e-01, -3.18727344e-02,  8.12782586e-01,  1.42704058e+00, -1.50543749e-01, -5.97228408e-02, -1.70965895e-01,  7.68229604e-01},
   { 5.27266646e-03,  2.22303178e-02,  1.01586604e+00, -6.57177329e-01,  4.24071759e-01, -5.65293491e-01, -7.09112763e-01, -4.59529728e-01},
   {-4.18013692e-01, -5.78781664e-02,  3.25195372e-01,  2.47614197e-02, -6.31935060e-01,  9.38135266e-01, -3.67410272e-01,  3.62386823e-01},
   { 3.92765194e-01,  2.11152304e-02,  1.01630008e+00, -4.20494735e-01, -3.01501483e-01, -2.10485786e-01, -2.41331205e-01,  8.41431543e-02},
   {-2.72057563e-01, -2.42475480e-01,  5.27362823e-01, -7.26388395e-01, -3.23064238e-01,  1.60980552e-01,  5.96155107e-01, -9.16177630e-01},
   {-3.76468271e-01,  7.16721565e-02, -4.77201909e-01,  3.40904444e-01, -4.75603119e-02,  2.80496120e-01,  4.00195979e-02, -7.45371133e-02},
   {-1.81172594e-01,  9.52658504e-02,  2.28036731e-01, -5.96428692e-01, -7.47994781e-01,  1.12866737e-01, -4.20840740e-01, -1.44679859e-01},
   { 5.15377998e-01, -6.86171651e-02,  4.75549161e-01,  2.68546313e-01, -2.34278217e-01, -4.30057496e-01,  2.87265003e-01, -7.16138124e-01},
   { 5.64030945e-01,  2.52122700e-01, -3.36811841e-01, -8.29487741e-01,  1.13635786e-01,  5.79150438e-01, -6.69709325e-01,  5.04892409e-01},
   {-9.20438766e-02, -2.43791655e-01, -8.42412412e-01, -3.72942656e-01, -1.42197624e-01, -4.15784061e-01, -3.13229501e-01, -2.21174523e-01},
   {-2.85448551e-01, -2.37311482e-01,  2.40165353e-01,  6.02814019e-01,  5.32187708e-02,  2.78255999e-01, -6.16192997e-01,  6.28712121e-04},
   {-2.77947128e-01,  2.00568482e-01, -3.39783728e-01,  2.35563815e-01,  2.07068935e-01,  5.16701281e-01, -4.46320832e-01,  1.41275167e-01},
   { 4.42595273e-01, -6.49164736e-01,  2.00304672e-01,  4.22734112e-01, -6.09324753e-01,  5.02135396e-01,  3.07276100e-01, -8.78264289e-03},
   { 1.29290204e-03,  7.50298321e-01,  8.44874561e-01,  5.94025791e-01,  2.87731200e-01,  1.15340188e-01, -7.65614212e-01, -3.62110764e-01},
   {-1.08191952e-01,  1.50752112e-01,  1.21154793e-01, -6.80573642e-01, -1.03556819e-01, -8.05523276e-01, -2.20357403e-01, -2.72218976e-02},
   { 8.55386138e-01,  2.03342810e-01,  1.58166587e-01,  1.07508544e-02,  4.26328033e-01,  5.60395956e-01, -5.11223614e-01, -1.43031168e+00},
   {-3.97052318e-01, -7.75031671e-02,  3.25834751e-01, -4.25718576e-01,  5.27286351e-01,  1.30487338e-01,  1.39046562e+00,  1.57721117e-01},
   { 2.65678525e-01,  1.09064296e-01, -1.45735472e-01,  4.37372416e-01, -2.80216545e-01, -1.39435858e-01, -5.80553472e-01, -5.13603352e-02},
   {-2.88275450e-01,  1.98390424e-01, -5.50969839e-01, -5.72678566e-01, -1.11300170e-01, -5.47361732e-01, -7.19407499e-01, -9.73740280e-01},
   {-1.25713676e-01, -9.36310068e-02, -3.27681094e-01,  2.45196745e-02,  5.57214856e-01,  7.29295909e-01,  3.18796039e-02,  2.68836729e-02},
   { 4.14845049e-01,  7.41908312e-01, -9.93284404e-01, -9.59985629e-02, -1.51529297e-01,  2.39240117e-02,  1.60698310e-01,  3.56400311e-02},
   { 6.89464927e-01,  5.55106103e-01,  4.78448302e-01,  2.93316156e-01,  2.58675724e-01, -8.80590454e-02, -8.56495276e-02,  8.61604095e-01},
   {-5.13858914e-01, -3.79557848e-01,  2.04439536e-02,  5.16233921e-01,  1.95132226e-01,  9.91274044e-02, -3.76665652e-01, -8.39705467e-02},
   {-5.41790187e-01,  1.11954890e-01,  1.63700469e-02,  7.57701099e-01,  4.93708491e-01,  5.92244565e-01, -2.36303136e-01,  7.99792767e-01},
   {-1.33759886e-01,  2.19086736e-01,  2.50723302e-01, -7.74044454e-01,  6.72156453e-01,  5.16008377e-01, -3.98186892e-02, -1.41366050e-01},
   { 3.01374167e-01, -3.56319360e-02, -2.26730525e-01,  1.19078302e+00, -2.67224133e-01,  5.89734256e-01,  3.40701610e-01,  1.95129648e-01},
   {-2.67517745e-01,  6.84941784e-02, -1.60511121e-01, -2.46330038e-01,  7.77138948e-01, -1.33544818e-01,  1.64996892e-01,  1.19339883e+00},
   {-6.42315820e-02,  1.12472758e-01,  1.26285940e-01,  1.12462831e+00, -2.92432755e-01,  3.33170801e-01,  2.11097300e-01,  2.71925569e-01},
   { 1.29962876e-01, -2.36830950e-01, -7.61692226e-01,  4.84695993e-02,  1.64756298e-01, -4.84083444e-01,  3.10757726e-01, -5.53542636e-02},
   { 2.52954990e-01, -6.12782717e-01,  4.14058000e-01, -5.08342087e-01,  3.31113011e-01, -2.50324875e-01,  1.12391520e+00,  2.51437753e-01},
   { 6.77605689e-01,  3.00750703e-01, -6.39881417e-02, -5.65237133e-03, -1.68818042e-01,  2.24952936e-01, -7.82026708e-01, -1.78565264e-01},
   {-3.52983356e-01,  6.71676174e-02,  1.83643609e-01, -5.75715661e-01,  4.43554781e-02, -1.09536342e-01, -2.33059991e-02, -6.94191903e-02},
   {-2.69073755e-01,  1.33453691e+00,  6.56143129e-01,  1.80166841e-01,  1.14613965e-01, -6.31314576e-01, -6.66604161e-01,  4.43731219e-01},
   { 1.09913707e+00,  3.13618481e-01, -1.29527009e+00, -3.05034071e-01, -1.00868034e+00,  4.52804208e-01,  2.60972530e-01, -1.41215473e-01},
   { 2.58505225e-01,  7.85643458e-02, -2.27398977e-01, -1.42852040e-02,  3.49606127e-01,  4.87222791e-01, -3.45455378e-01,  6.32823527e-01},
   { 1.87513843e-01, -4.80191469e-01, -3.43192816e-01,  2.32336596e-02,  3.80898267e-02, -3.86427194e-01,  6.97243690e-01, -3.63845944e-01},
   { 1.58337727e-01,  1.24705501e-01, -1.22684288e+00, -1.06375504e+00,  2.79090971e-01, -9.62709308e-01,  2.98116624e-01, -1.77783504e-01},
   { 6.83057383e-02, -1.44457117e-01,  3.09261322e-01,  4.95628625e-01,  2.84769833e-01,  7.93424666e-01, -5.91743708e-01,  4.56977129e-01},
   {-2.26709127e-01, -4.72409129e-01,  8.44822705e-01, -3.64782989e-01,  1.64779827e-01, -3.00538123e-01, -6.00060940e-01, -1.14164036e-02},
   { 6.95336461e-01,  3.29010040e-02,  1.11144716e-02,  1.75557330e-01, -5.50145745e-01,  2.84869727e-02, -4.80875522e-01, -1.82745785e-01},
   {-1.55153066e-01,  5.41769028e-01,  3.32225591e-01, -3.64428014e-01,  3.37275624e-01, -1.19577415e-01,  1.49336743e+00,  5.65965995e-02},
   {-1.35398164e-01,  1.93985790e-01, -8.97982895e-01, -5.27474225e-01,  6.61690176e-01, -8.59885961e-02,  9.56088066e-01, -3.34020466e-01},
   { 9.59947526e-01,  3.03237915e-01,  2.51725852e-01,  7.06646383e-01,  8.81088004e-02, -2.04233378e-01,  7.43098259e-02, -6.73316061e-01},
   { 6.02696128e-02,  6.47799894e-02, -6.80779874e-01,  7.35139966e-01, -1.92473888e-01,  2.45474219e-01, -9.43090737e-01, -6.83709607e-02},
   {-3.98175448e-01, -1.41554490e-01, -4.18581694e-01,  8.82289350e-01,  1.48428366e-01,  4.26701546e-01,  2.38787774e-02,  3.52170676e-01},
   { 1.23308890e-01,  4.78474379e-01,  3.22594076e-01, -1.95556745e-01, -3.33591551e-02,  1.27701104e-01,  9.02471006e-01, -5.01824975e-01},
   { 2.96410054e-01,  2.49293149e-01, -1.73317209e-01,  3.42981815e-01, -1.17003368e-02, -3.83313186e-02, -1.09657586e+00, -3.80045116e-01},
   { 4.22501229e-02, -1.74340338e-01, -5.58458328e-01, -3.08055431e-01, -2.71653116e-01,  5.15043080e-01, -5.41221738e-01, -3.19958925e-01},
   { 1.09609640e+00, -5.19599855e-01,  5.12930632e-01,  3.31977576e-01, -3.58064473e-01, -2.73348510e-01,  3.13052982e-01, -2.67336726e-01},
   { 6.92658663e-01,  3.16718151e-03,  5.55314124e-01,  4.35517967e-01, -7.02346981e-01,  1.32509306e-01,  1.42722413e-01, -2.91298777e-01},
   { 7.22944021e-01,  4.12415981e-01, -4.12996829e-01, -8.47157478e-01, -6.39925301e-01, -4.35615391e-01, -6.80333793e-01, -8.03503036e-01},
   { 5.73846512e-03,  8.91861081e-01, -1.68763652e-01,  7.16869310e-02, -1.96267471e-01,  3.89530659e-01,  7.59821415e-01, -4.37307149e-01},
   { 4.19005960e-01,  5.17276287e-01, -3.78062934e-01, -6.17209196e-01,  3.66771758e-01, -6.78892076e-01, -4.10296202e-01,  1.15768480e+00},
   { 3.20519414e-03,  4.69905674e-01,  2.19550043e-01, -8.60323191e-01,  3.99495289e-02, -5.85310860e-03, -2.40111485e-01, -1.85346648e-01},
   { 1.32013544e-01,  8.58303666e-01,  4.28656191e-01, -7.71255255e-01,  3.69665772e-01,  9.06901583e-02,  1.57123697e+00,  1.62678674e-01},
   {-7.43599176e-01, -2.05989793e-01, -1.38339624e-01, -4.21191186e-01,  1.37264326e-01, -1.36565626e+00,  5.46068966e-01, -6.93196297e-01},
   { 4.33537275e-01,  2.86429197e-01,  9.56427932e-01, -3.61342430e-01, -1.45771936e-01,  1.06414437e-01,  3.75710100e-01,  1.56262243e+00},
   {-5.62474549e-01,  1.22968525e-01,  6.33853257e-01, -9.02352154e-01, -1.45529106e-01, -2.12428823e-01,  6.30968586e-02, -6.82532251e-01},
   {-1.03875113e+00,  1.57968149e-01, -8.34311023e-02, -4.79396023e-02,  6.82882547e-01,  6.20875120e-01,  5.87275147e-01,  8.80697444e-02},
   { 3.12193304e-01,  3.24577779e-01,  4.33682948e-01, -1.40600681e-01, -2.85393059e-01, -6.44947350e-01, -3.87413055e-01, -3.68682623e-01},
};

const float GRNN0_U1[16][64] = {
   { 5.16720116e-01, -9.06687796e-01,  1.28425181e+00, -1.03971988e-01, -2.80360961e+00,  7.75231779e-01, -6.19753718e-01, -1.34717333e+00,
     1.23348284e+00,  4.54370320e-01,  1.42861605e+00,  1.71261936e-01, -1.08313096e+00, -3.20969701e+00,  4.55340242e+00,  6.87444508e-02,
    -2.27881342e-01,  1.83889961e+00, -1.40311098e+00,  1.52313685e+00,  2.52106595e+00,  2.28144407e+00,  6.54566824e-01,  2.91441989e+00,
    -2.24171862e-01, -7.71716118e-01, -5.10698497e-01,  2.55582929e-01,  1.56711173e+00,  2.16687465e+00, -5.10252357e-01, -6.54870033e-01,
    -1.30367255e+00,  5.70390224e-01,  1.77032396e-01, -9.89019811e-01, -1.21491373e+00,  1.81262195e+00,  2.38916010e-01, -1.00111532e+00,
    -1.62007439e+00,  9.55077052e-01,  1.16836619e+00, -1.33104420e+00,  1.19204259e+00, -1.71255791e+00, -5.73288918e-01, -5.14160752e-01,
     2.63806522e-01,  1.62479234e+00, -3.88149798e-01,  2.61141002e-01, -3.74699068e+00, -2.77862072e+00, -1.48968291e+00,  1.25410020e-01,
    -1.64124775e+00,  7.43256688e-01,  1.26776922e+00, -9.60908771e-01, -1.56255889e+00,  1.01502085e+00,  3.82800102e-02, -1.19971141e-01},
   {-1.06076503e+00, -5.55357814e-01,  1.90234631e-01, -7.46453166e-01, -5.77859342e-01,  8.51289868e-01, -3.84589702e-01, -1.69594273e-01,
     9.42873657e-01,  2.23357677e+00,  3.20786476e-01,  3.31101990e+00,  7.04341382e-02, -1.96522486e+00,  6.83533788e-01,  2.64855981e-01,
     2.30904412e+00, -4.78774786e-01,  2.61136770e-01, -4.90498304e-01,  1.75909007e+00, -1.44335532e+00,  3.53588551e-01,  1.40372038e+00,
     1.87655914e+00,  4.40978020e-01, -1.03771472e+00,  1.98372746e+00,  5.47209382e-01,  3.83347225e+00, -3.50080132e+00,  1.21106434e+00,
    -8.40653419e-01,  5.23344564e+00,  1.91693330e+00,  3.96064937e-01,  1.96236342e-01,  2.47261333e+00,  3.92464072e-01, -1.84769064e-01,
    -6.85687542e-01,  1.57359138e-01, -1.29124135e-01, -8.45311821e-01,  2.95585003e-02, -2.26112390e+00, -2.33204558e-01,  1.69275963e+00,
     4.91384357e-01,  3.57472688e-01, -9.65472162e-01, -4.70488667e-02, -5.41866720e-01, -1.05236304e+00, -1.46509945e+00,  1.55248690e+00,
    -5.38982570e-01,  8.69399548e-01,  1.34943366e+00,  3.04636669e+00, -1.85952079e+00,  3.33961797e+00,  8.13082814e-01, -3.94547731e-01},
   {-1.20966160e+00,  1.27045918e+00, -2.73860359e+00,  8.14658284e-01, -2.49385238e+00, -1.07914805e+00, -1.24837130e-01,  1.87959063e+00,
    -1.37948382e+00, -1.57201374e+00, -8.53714943e-01,  5.62461197e-01, -1.50373185e+00,  8.86771977e-01,  8.13282907e-01,  7.07226247e-02,
     1.30659580e+00,  1.01916754e+00,  3.00219989e+00, -2.26660872e+00,  1.01602089e+00, -2.47561336e+00, -2.81539989e+00,  9.82621670e-01,
     1.10591328e+00, -3.10227007e-01, -2.80212872e-02,  1.12630881e-01, -9.52629745e-02, -6.70837760e-01, -3.37885809e+00, -7.94420362e-01,
     1.09609175e+00,  3.91091657e+00,  4.56481308e-01,  2.81019521e+00, -1.80295920e+00, -1.75437760e+00,  7.97071993e-01, -4.60331172e-01,
     6.96644068e-01, -7.59891808e-01,  1.06266789e-01,  1.65718305e+00,  1.34538341e+00, -2.96993327e+00,  1.56467175e+00,  1.78691030e+00,
     6.00626051e-01,  4.12334174e-01,  9.63231385e-01, -1.17799544e+00,  2.09112239e+00,  1.56779003e+00,  8.05159569e-01, -1.73426819e+00,
     8.66336524e-01,  1.51592183e+00,  9.20500994e-01,  1.95916390e+00, -1.72320604e+00,  8.30588937e-01,  5.39259076e-01,  2.03261185e+00},
   {-2.63039231e-01, -1.77968100e-01, -1.00346828e+00,  1.18623829e+00,  6.38597012e-01,  1.86177641e-01, -1.44210970e+00, -8.35208595e-01,
    -3.52646150e-02,  8.80775213e-01,  8.54876220e-01,  1.01359117e+00, -8.14248860e-01, -5.31338155e-01,  2.17500043e+00, -4.70616631e-02,
     1.63085580e-01,  8.96357298e-01, -8.06979954e-01, -5.16976595e-01,  2.89201427e+00,  1.65722060e+00,  1.89664483e+00, -5.71116023e-02,
     2.37671518e+00,  7.58135498e-01, -3.68876308e-01, -7.23925948e-01, -1.03713405e+00, -3.07335687e+00, -4.46098626e-01, -1.49056566e+00,
     1.62357032e-01, -1.38877213e-01,  6.51191294e-01, -1.52612579e+00, -1.32159579e+00,  1.47174084e+00, -5.95589161e-01, -2.30307245e+00,
    -1.90968609e+00, -1.59560168e+00,  1.63032413e-01,  3.51848513e-01, -4.33462441e-01, -1.07910955e+00, -1.57275498e+00, -1.81057382e+00,
     1.31979382e+00, -6.28414094e-01, -6.25145972e-01, -4.50122356e-01, -1.93467844e+00, -1.58563459e+00, -9.26129937e-01,  1.82030368e+00,
    -1.12997210e+00, -1.66663051e+00,  3.18907714e+00, -4.09388840e-01,  8.02379012e-01,  4.11349565e-01,  1.36122406e+00,  4.74007010e-01},
   {-2.50163794e+00, -6.14228785e-01, -1.49299592e-01,  5.13265789e-01, -9.86053586e-01, -9.03262123e-02, -4.88378823e-01, -1.25023758e+00,
     5.16268134e-01, -6.03560865e-01, -1.19345033e+00,  1.34555042e+00, -2.41720843e+00,  2.98016810e+00,  1.59897482e+00,  1.24763370e+00,
     3.55235308e-01,  3.09047669e-01,  2.32661173e-01, -2.51202202e+00, -7.00442076e-01, -1.00738537e+00, -1.75838661e+00,  2.05003694e-01,
     1.26365793e+00, -7.63981640e-01,  3.78666013e-01,  2.21460795e+00, -3.01329136e-01,  2.92607248e-01, -4.73083210e+00, -3.58503431e-01,
    -1.21336353e+00,  3.31230378e+00,  9.81757939e-01, -9.96533632e-01,  3.73940200e-01, -7.22409725e-01,  7.99265087e-01, -9.92523670e-01,
     1.81716114e-01,  6.31979465e-01, -2.06028843e+00,  1.86006784e+00,  1.12358332e+00, -1.08006656e+00,  2.94816375e+00,  1.46464801e+00,
     1.90266371e+00,  2.38555759e-01,  1.08403349e+00, -5.55419445e-01, -1.34891260e+00, -4.74959433e-01, -3.29160064e-01, -2.90637046e-01,
    -2.76296282e+00, -5.35076261e-01,  7.80419171e-01,  8.19331035e-02, -8.21133554e-01, -1.38697505e-01, -5.51942825e-01,  1.70487309e+00},
   {-2.85412163e-01, -2.16190743e+00,  9.88774657e-01,  8.87024224e-01, -8.28874350e-01, -1.26135424e-01, -1.69005466e+00, -2.23152018e+00,
    -2.15863156e+00, -6.71316385e-01, -4.84411776e-01,  3.64387941e+00,  1.39861512e+00, -1.89384842e+00,  3.45006967e+00, -8.67450953e-01,
     2.06737828e+00,  4.42762196e-01,  1.09353042e+00, -9.64573443e-01,  1.74952364e+00,  4.66822052e+00,  1.72950554e+00,  1.82873142e+00,
    -5.94599962e-01, -8.00637901e-01,  1.14615226e+00,  2.30139518e+00, -1.13647580e+00,  4.91688824e+00, -1.12466717e+00,  1.78495979e+00,
    -5.30785382e-01, -1.52491570e+00,  8.04261029e-01,  2.64732718e-01, -1.94896579e+00,  1.21078157e+00, -1.25698805e+00, -1.25446236e+00,
    -2.08026981e+00,  2.75656879e-01, -1.41522121e+00, -1.82991362e+00, -6.21194541e-01, -2.23826170e+00, -8.20071280e-01, -2.27934170e+00,
     2.13116693e+00, -2.22557592e+00, -1.90617359e+00,  9.63636756e-01,  5.36761105e-01,  4.54938322e-01,  8.05899739e-01, -7.02224791e-01,
    -6.45046771e-01,  1.55267882e+00,  2.39043757e-01,  9.12399173e-01, -2.30454922e+00, -1.54651150e-01,  1.00249124e+00,  9.37495708e-01},
   { 5.04363477e-01, -1.95003390e+00, -4.73546423e-02, -3.51823896e-01, -8.70359004e-01, -1.39586198e+00, -1.46617925e+00,  1.89126587e+00,
    -1.28955615e+00, -3.57065654e+00,  2.17501783e+00,  1.39752090e+00,  1.77473319e+00, -1.65949631e+00,  8.68703723e-01, -7.51638651e-01,
    -1.99507070e+00,  3.29326653e+00, -4.20490324e-01,  2.28637362e+00, -4.79548186e-01,  2.10306025e+00,  1.77134407e+00,  7.89576113e-01,
    -1.71492279e+00,  4.56959128e-01,  3.69730622e-01, -8.72766972e-01,  1.43210828e+00, -1.60721111e+00, -4.31872934e-01, -1.54572082e+00,
    -2.98476666e-01, -3.19730663e+00,  1.76611936e+00,  7.63418615e-01,  7.48412728e-01, -6.89406469e-02, -1.02876401e+00, -1.53229725e+00,
    -2.01267570e-01,  4.17102277e-01,  1.10494614e+00,  7.11146653e-01, -6.69387639e-01, -4.60011184e-01,  2.58296394e+00, -5.17848969e-01,
    -8.15030694e-01, -6.54406428e-01,  3.68696362e-01,  1.23146784e+00,  2.46911287e+00,  1.87888825e+00,  1.17940104e+00, -5.90935767e-01,
    -5.66230893e-01,  2.03186226e+00, -8.26197922e-01, -1.27595520e+00, -1.29268205e+00, -1.78430450e+00, -5.67667365e-01,  1.62527871e+00},
   { 4.26630437e-01, -1.96720386e+00,  2.82139993e+00, -1.55784595e+00, -1.76370049e+00,  5.11382639e-01,  1.20973907e-01, -1.11072648e+00,
     1.76364493e+00,  6.05433881e-01,  1.75202489e-01,  2.84217983e-01, -1.13808446e-01,  5.61794117e-02, -3.67986655e+00,  1.21186748e-01,
    -6.48997307e-01, -2.20340729e+00, -2.14290237e+00, -6.28648937e-01,  1.83772266e+00, -2.59960747e+00, -1.12710929e+00,  9.83421803e-01,
    -7.41575539e-01, -4.60093498e-01, -1.21103740e+00, -5.23136735e-01,  1.17898357e+00, -8.90606046e-02,  1.53593242e+00, -1.72248185e+00,
    -8.07255924e-01,  4.23463869e+00, -1.90169156e+00,  3.84113073e-01,  7.81934321e-01, -9.98106003e-01, -7.37497628e-01,  6.06299400e-01,
     6.86158657e-01,  2.22137761e+00, -1.28663886e+00,  8.27501535e-01, -5.55063069e-01,  1.70060277e+00,  9.70320523e-01,  9.47714806e-01,
     7.09517300e-01,  2.67860627e+00, -1.64684236e+00, -5.75953722e-01,  1.77233052e+00, -2.06138894e-01, -1.93572426e+00,  1.69723487e+00,
     2.00860310e+00, -9.96697068e-01,  2.94074392e+00, -8.54826927e-01, -2.77306390e+00,  6.87262177e-01,  6.06824160e-01,  1.11623561e+00},
   {-8.97471756e-02, -7.71033823e-01,  1.95386797e-01, -8.42545271e-01,  5.44099808e-01,  3.91460210e-01,  7.71811128e-01, -4.63682920e-01,
     3.71362537e-01, -5.39477527e-01,  5.19233167e-01, -2.50982642e+00,  1.54664767e+00,  7.70232201e-01,  5.77672958e-01, -7.59382308e-01,
    -1.64355755e+00,  2.23773217e+00,  6.51101097e-02,  1.24114823e+00, -1.18602169e+00,  4.54050720e-01,  1.39333928e+00, -2.63467407e+00,
    -8.45420063e-02,  2.19560459e-01,  4.01106894e-01,  1.51904672e-02,  5.02766430e-01, -3.03607035e+00,  2.93257952e-01, -2.23441824e-01,
     1.34740913e+00, -3.53031468e+00,  3.25186062e+00,  8.96006167e-01, -8.64784777e-01,  7.85579324e-01, -2.35879406e-01,  3.27062631e+00,
     1.26047277e+00,  1.90305984e+00, -9.15786445e-01,  2.37004757e-01,  1.39067245e+00,  1.09587097e+00,  8.66310179e-01,  1.11686051e-01,
    -1.23220873e+00,  6.40230536e-01,  5.99328041e-01,  1.94365597e+00, -2.05370998e+00, -6.78311884e-01,  1.35626590e+00, -1.98132634e+00,
     1.58629179e-01,  1.55693865e+00, -3.59822750e+00,  9.06311572e-01, -1.55750573e+00,  1.44163501e+00, -2.47912574e+00,  1.33911645e+00},
   {-1.02492380e+00, -1.76631883e-01, -3.70665640e-01,  1.27081171e-01, -1.04557896e+00, -9.49614346e-02, -1.34788109e-02, -1.73870313e+00,
     3.38750899e-01,  1.24813318e+00, -4.39209640e-01, -1.35615242e+00, -1.55957073e-01,  1.75310564e+00,  3.82556438e+00,  1.32958472e+00,
     9.26994979e-01,  5.95361471e-01,  8.56522322e-02,  1.19078696e+00, -6.64050996e-01,  6.71208560e-01, -6.55913055e-02,  2.18040776e+00,
     1.55542111e+00, -5.65539598e-01,  1.27189088e+00,  2.66914755e-01, -1.37620986e+00,  7.14254797e-01, -1.45996928e+00,  5.65525115e-01,
     7.48062134e-01, -2.95848775e+00,  1.75168276e+00, -1.54348597e-01,  9.24726054e-02,  1.00071120e+00,  2.20442963e+00,  1.72451770e+00,
     3.40371907e-01,  5.72189689e-01, -7.05235183e-01, -9.13308114e-02,  7.18809307e-01, -8.18139911e-01, -1.10185117e-01,  8.16030860e-01,
     2.64658630e-01, -6.74851090e-02,  2.72884154e+00,  1.63721657e+00, -3.73711085e+00, -1.59170508e+00,  1.20210445e+00, -1.80913866e+00,
    -4.93692309e-01,  2.07773387e-01, -1.76509309e+00,  3.39993596e-01, -1.92889774e+00,  3.11560690e-01, -5.23280501e-01, -1.12590224e-01},
   { 1.79515108e-01, -1.60627913e+00,  1.93817198e+00, -1.34393251e+00, -7.40016639e-01,  7.85097957e-01, -3.66065115e-01,  1.81190431e+00,
     6.02834299e-03,  1.38556033e-01,  6.10949099e-01, -1.05046630e+00,  4.64566410e-01, -1.28705835e+00, -1.55085182e+00,  1.60367072e-01,
    -1.92424536e+00, -1.59905553e-01, -3.54857683e-01,  8.12403560e-01, -1.32579648e+00, -5.19648373e-01, -9.58343595e-02,  2.39333892e+00,
    -2.97712088e+00, -1.96848258e-01,  1.07176948e+00, -7.57299066e-01,  3.30465317e+00,  2.56106830e+00, -1.21554577e+00,  6.29072964e-01,
    -1.35981119e+00,  8.82223129e-01, -1.67295086e+00,  4.99600857e-01, -8.57534334e-02, -1.93494451e+00, -1.28842270e+00, -5.25798321e-01,
     7.07491696e-01,  9.51299131e-01,  1.07169557e+00,  8.64024401e-01, -7.82839954e-01,  8.89162242e-01,  1.74609169e-01,  2.08917484e-02,
    -6.99782014e-01,  1.03858924e+00,  1.08844709e+00,  5.96616268e-01,  1.00666478e-01, -6.24413371e-01, -1.64927289e-01, -1.03423762e+00,
    -3.19013119e-01,  1.87717485e+00, -1.38395166e+00,  1.29999772e-01, -8.18261147e-01, -9.93239582e-02,  1.19701636e+00,  6.98930442e-01},
   { 9.64401901e-01,  9.21696663e-01, -1.31570613e+00,  2.69909644e+00,  1.77720755e-01, -2.28576347e-01, -1.01698148e+00,  1.69410908e+00,
     3.14595133e-01, -1.04849422e+00,  1.89330041e+00,  2.56905150e+00,  6.60422087e-01, -1.14944279e+00,  5.00018448e-02, -4.39433724e-01,
     2.87438571e-01,  2.50060153e+00, -8.18311155e-01, -7.35165954e-01,  3.97342086e-01,  1.22551298e+00,  2.13415647e+00, -1.59044027e+00,
     3.25274557e-01, -4.62809116e-01, -1.64477932e+00,  1.41348720e-01,  6.02047622e-01, -3.59633017e+00,  1.50629783e+00, -1.41396141e+00,
     6.41855597e-01,  1.34017479e+00,  1.63997233e-01, -8.70741665e-01, -2.43020490e-01,  9.99833763e-01, -6.87400579e-01, -1.51179147e+00,
    -6.70094728e-01, -5.95269322e-01,  2.05195880e+00, -1.11071026e+00, -3.95608306e-01,  8.07182118e-02, -1.11417329e+00, -1.35876155e+00,
     1.39859951e+00, -1.74751371e-01, -2.15010858e+00,  9.78882387e-02, -6.79375887e-01, -5.49866915e-01, -1.91581219e-01,  4.44901139e-01,
    -6.46728337e-01, -2.28973255e-01,  1.65405214e+00,  1.23475246e-01,  1.84608686e+00,  1.44770074e+00,  1.90631783e+00,  1.01173568e+00},
   {-9.79499757e-01, -7.85197854e-01,  1.22662127e+00,  4.83185589e-01,  1.74092078e+00,  3.23309571e-01, -3.89857441e-01, -8.43035653e-02,
     6.21828079e-01,  5.83394468e-01,  3.02950442e-01,  2.87753046e-02,  8.93264771e-01,  1.57822704e+00, -1.49900162e+00,  2.93884128e-01,
    -1.43344160e-02, -4.94917035e-01, -9.09016728e-02, -2.87407541e+00,  6.71224177e-01, -1.74882126e+00,  1.48039675e+00, -3.00565815e+00,
     6.62703991e-01,  5.51467717e-01, -7.35005558e-01,  3.11233830e+00,  1.23254943e+00, -7.38172889e-01, -1.88394964e-01,  1.05457032e+00,
    -9.48557183e-02,  2.95068455e+00,  2.49157682e-01,  1.06695080e+00,  9.94168758e-01, -2.53019357e+00, -6.46260917e-01, -7.02281654e-01,
     9.12086248e-01,  1.20705438e+00, -9.25830901e-01, -1.19277847e+00,  1.41394234e+00,  9.38982785e-01, -1.83369780e+00,  2.34084678e+00,
     2.16748261e+00, -1.12175369e+00, -1.27025831e+00,  1.40696502e+00, -2.47236300e+00, -2.56936455e+00,  1.08441971e-01, -7.75964260e-02,
    -7.75049448e-01,  9.76609945e-01,  5.68714917e-01,  2.00673485e+00, -2.50677407e-01,  1.35256124e+00, -5.04118316e-02,  1.76094949e+00},
   { 1.55381680e+00, -1.84581017e+00, -3.04734886e-01,  1.24085259e+00,  4.39659625e-01,  1.91298914e+00,  1.28178313e-01, -2.35420108e+00,
     1.90080428e+00,  4.01378298e+00, -1.49132445e-01, -3.77355456e+00, -2.27667570e+00,  9.01031673e-01,  1.87700033e+00, -5.46249151e-01,
     2.34778255e-01, -2.89265180e+00,  3.92068252e-02,  6.22194707e-01, -1.12153625e+00,  6.89508498e-01, -1.55013531e-01, -5.42374671e-01,
    -7.40597069e-01,  8.12250197e-01,  1.43685055e+00, -2.26124382e+00, -2.52499723e+00,  1.06179500e+00,  4.11216589e-03,  2.17976160e-02,
    -3.69500548e-01, -2.40758634e+00, -1.06258821e+00,  9.17998105e-02,  1.82478905e+00,  1.34296012e+00,  9.82471287e-01,  2.24072146e+00,
    -1.94581866e+00, -3.62705499e-01, -9.81662095e-01,  1.07832742e+00,  1.03285468e+00, -3.29049975e-01, -1.09163725e+00, -2.77853072e-01,
    -2.20173073e+00,  1.78870165e+00,  2.04570246e+00,  1.62160590e-01, -2.09243536e+00, -1.65238810e+00, -3.21313173e-01, -1.72710359e+00,
    -9.80173126e-02,  1.62452906e-01, -1.56079948e+00, -2.60204047e-01,  3.79512250e-01,  1.21167588e+00, -1.14160514e+00,  1.11082292e+00},
   { 2.00388432e+00,  3.46854711e+00, -8.30400229e-01,  2.06713939e+00, -6.29540861e-01, -1.69481516e+00,  7.24880040e-01, -4.18246053e-02,
     9.93252039e-01, -1.98012102e+00, -4.50749308e-01, -4.48873472e+00, -1.27242851e+00, -1.17305808e-01, -7.23030329e-01, -1.57724380e+00,
     1.66582137e-01, -9.64131653e-01,  2.89837196e-02,  6.61225021e-02,  2.58131862e-01, -2.38747686e-01, -3.34987664e+00, -2.16851091e+00,
    -8.75355840e-01, -1.70589864e+00,  6.24745727e-01, -1.55320394e+00,  6.94730401e-01,  1.70578146e+00,  2.99538302e+00, -7.39086559e-03,
    -1.18775904e+00, -3.10194612e+00, -5.58929503e-01,  1.22723687e+00, -1.38310683e+00, -1.94350767e+00,  7.88769796e-02, -1.38342574e-01,
     1.49139559e+00, -2.63079524e-01,  6.03310704e-01, -3.33022499e+00,  1.21664476e+00, -7.28809774e-01, -1.73972845e+00,  6.16746366e-01,
    -1.63249028e+00,  1.55240571e+00, -1.45502877e+00, -1.22759950e+00, -1.36926401e+00, -6.21072292e-01,  7.49614775e-01, -1.85095227e+00,
     8.74851227e-01,  1.41151512e+00, -3.16295743e+00, -1.92992949e+00,  8.83175552e-01,  1.53961051e+00,  2.25704312e-01, -5.88432670e-01},
   { 2.62431431e+00, -5.76134872e+00, -1.67252466e-01,  1.90137118e-01,  1.01863623e+00,  7.44975448e-01, -1.34999096e+00, -3.38954282e+00,
    -1.89286244e+00,  9.02414799e-01,  1.07323027e+00, -2.46994877e+00, -5.54397464e-01, -2.54627585e-01, -2.86927342e+00, -8.30432653e-01,
    -2.51395774e+00, -3.38705087e+00,  3.15658832e+00, -5.07534206e-01,  2.08225918e+00, -2.70540029e-01,  9.93017793e-01,  5.56025565e-01,
    -1.83646119e+00,  1.09818566e+00, -9.85796079e-02, -3.07916880e+00, -1.22121429e+00, -1.23657227e+00, -1.22057664e+00, -3.78035940e-02,
    -4.28081781e-01, -1.64212406e-01, -1.76643407e+00,  3.77055573e+00,  8.13259661e-01, -1.19793749e+00, -4.43863988e-01,  1.19672918e+00,
    -1.86444831e+00, -1.10833097e+00, -3.98487020e+00,  2.63590068e-01,  1.38886344e+00, -1.06640287e-01, -1.16382134e+00, -1.88495195e+00,
    -2.95815349e+00,  1.13038160e-01,  7.65731454e-01, -5.88761926e-01,  7.17022479e-01, -1.92765296e+00,  3.79847348e-01, -1.41918957e+00,
     3.41414094e-01,  3.02702308e+00,  1.91910338e+00, -2.89650947e-01, -2.09755135e+00, -7.20965743e-01, -1.23251714e-01,  9.96763170e-01},
};

const float GRNN0_U2[64][16] = {
   { 4.30078924e-01,  8.92201185e-01, -2.59276062e-01, -2.45878148e+00,  3.30457121e-01,  7.85115302e-01, -5.89570582e-01,  7.75093198e-01,
    -4.84146386e-01,  1.51616824e+00,  9.47270632e-01, -3.43714166e+00, -7.75641561e-01,  2.30460119e+00,  9.97571170e-01,  8.96315277e-01},
   {-1.54632437e+00, -2.08272576e+00, -1.86835527e+00, -1.01917851e+00, -2.15064335e+00, -1.74789989e+00,  1.21921647e+00,  1.38361382e+00,
    -2.94301864e-02, -2.61670971e+00,  3.41197252e-01,  3.48137110e-01, -1.03195763e+00,  1.05290282e+00,  1.59089401e-01,  2.98635745e+00},
   {-2.19905210e+00,  9.59971622e-02, -1.81923851e-01, -2.86635041e+00, -1.27276063e+00,  2.02778369e-01,  6.28858268e-01,  5.57182848e-01,
     9.07265663e-01, -1.58311829e-01,  1.39027739e+00, -5.71017087e-01,  6.26463711e-01, -2.41132811e-01, -2.19238758e+00,  1.53575861e+00},
   {-1.08459368e-01, -6.83264971e-01, -1.95493937e+00, -8.93918395e-01, -1.83111317e-02, -5.49031943e-02, -1.68967533e+00,  8.37594509e-01,
     3.10784292e+00,  1.71007645e+00, -1.13441730e+00, -3.48930693e+00,  6.67877376e-01, -1.78096950e-01, -7.59238601e-01,  2.63340235e-01},
   { 7.99261212e-01, -1.28893912e+00, -2.12737250e+00, -3.86946797e-01, -8.21115315e-01, -1.29685962e+00,  5.31632304e-01,  2.75617170e+00,
     9.46952522e-01,  1.08159676e-01,  2.72475362e-01, -2.58812279e-01,  7.37225488e-02,  2.04397297e+00, -9.83232856e-01,  9.82254386e-01},
   {-7.85938203e-01, -4.94776443e-02, -1.89419663e+00, -1.65198851e+00, -1.80822098e+00, -2.03411579e-01, -3.82549196e-01, -1.12871909e+00,
    -1.21767807e+00, -3.80792618e-01, -8.83924067e-01, -1.04689956e+00, -1.48493850e+00,  2.35681272e+00,  2.51101995e+00,  1.19909966e+00},
   {-1.32115141e-01,  1.38112783e+00,  2.47580204e-02, -2.45768160e-01,  2.02133119e-01,  1.38527942e+00, -3.78386289e-01,  5.20215809e-01,
     1.40627778e+00,  1.65784746e-01, -3.70400429e-01,  8.38153005e-01,  3.43351340e+00, -1.70344397e-01,  4.66643214e-01,  1.86279535e+00},
   { 2.06233239e+00,  5.12145609e-02,  1.87151939e-01,  1.44060865e-01,  1.40823066e-01,  7.66157568e-01,  1.08494782e+00,  3.47121549e+00,
     6.56305969e-01,  6.07377231e-01,  1.96726239e+00, -1.59075570e+00, -2.11595297e+00,  3.30460429e+00,  1.35673452e-02,  4.29275274e+00},
   { 4.95812982e-01, -4.80137348e-01, -1.21254945e+00, -2.14980006e+00, -1.31036055e+00,  2.01279020e+00,  4.22395498e-01, -2.08043242e+00,
     9.05447662e-01,  2.54690528e-01,  1.21183622e+00, -1.10353267e+00, -1.43184924e+00,  6.31688595e-01,  2.26647472e+00,  8.42734814e-01},
   {-7.44643390e-01, -4.51606274e-01,  3.11535406e+00,  3.45008463e-01, -1.57488763e+00, -8.17993760e-01,  1.72806478e+00,  6.77583933e-01,
     7.69694000e-02, -1.77366614e+00, -2.01832390e+00,  1.58201301e+00, -9.37802017e-01, -1.82303190e+00,  1.33163762e+00,  2.86088347e+00},
   { 1.63510129e-01, -7.63507903e-01, -2.12505460e+00, -3.08625889e+00, -1.43305290e+00,  5.36153316e-02, -6.34862542e-01,  1.29497504e+00,
    -4.57351506e-01, -9.77370799e-01,  1.51171315e+00, -1.86349297e+00, -9.68332887e-01,  2.02783442e+00,  2.04094553e+00,  1.49202180e+00},
   {-3.04000068e+00, -3.23434019e+00, -1.06596243e+00,  2.62523562e-01, -4.56556320e+00, -3.48292732e+00, -1.55942452e+00, -3.23563427e-01,
     2.24360418e+00, -7.73269057e-01, -2.30296087e+00, -6.03575110e-01, -2.70054293e+00,  7.60891497e-01,  1.70691776e+00,  1.23960388e+00},
   {-2.18710923e+00, -6.68409541e-02,  1.41974747e+00, -9.29410517e-01, -3.05632830e-01, -4.70982742e+00, -1.75769985e-01,  3.02013904e-01,
     1.44863224e+00, -2.07317814e-01, -4.76926833e-01, -2.67503649e-01,  4.44947690e-01,  4.23577833e+00,  3.83803934e-01,  1.06873262e+00},
   { 2.25626722e-01,  1.51183426e+00,  2.43263268e+00,  1.51645529e+00, -3.40592116e-01, -7.92191505e-01, -6.31961763e-01,  1.17836189e+00,
    -6.02828503e-01, -1.20379007e+00, -6.50446534e-01,  8.52892756e-01, -1.80446655e-01, -2.74081320e-01, -6.32223710e-02,  1.28052044e+00},
   {-2.09335542e+00,  2.76078612e-01,  3.03154516e+00, -6.26936793e-01,  1.73893166e+00, -8.07551563e-01,  1.78314283e-01,  3.62607718e-01,
     8.25213671e-01,  9.97558951e-01, -6.38249993e-01, -1.67599857e+00,  5.82811117e-01, -1.11672139e+00, -8.92817914e-01,  1.55145919e+00},
   { 1.75143093e-01,  1.28876996e+00,  9.99557197e-01, -2.65963387e+00, -2.72463942e+00, -5.08642912e-01,  2.07168961e+00,  2.98408210e-01,
     9.96046811e-02, -1.85183740e+00,  1.99394619e+00,  1.28516209e+00, -1.26143619e-01, -2.48022294e+00,  1.17618895e+00, -1.24262249e+00},
   {-2.28841186e+00, -3.23403835e+00, -1.99556637e+00, -9.01485026e-01, -1.51997912e+00, -2.01253414e+00,  1.16537058e+00, -5.60026646e-01,
    -1.33459289e-02, -2.43473220e+00,  9.51144040e-01, -3.70316684e-01, -1.52048182e+00, -2.15237856e-01,  1.49534240e-01,  1.30310667e+00},
   {-1.31047428e+00, -1.06884563e+00,  1.81010401e+00, -7.69127190e-01, -8.22475374e-01, -2.36461592e+00,  1.18740499e+00,  2.23784852e+00,
     2.18698573e+00,  3.10151875e-01, -3.34919989e-01, -1.41482973e+00, -7.28521407e-01,  2.89744401e+00,  4.82960463e-01,  2.22851253e+00},
   {-3.68185677e-02, -1.10136425e+00,  1.37887791e-01, -3.02915883e+00,  3.62135977e-01, -1.34102678e+00,  3.59052896e-01, -4.82691973e-01,
     1.83875513e+00,  2.03489733e+00,  1.62670207e+00, -2.84421563e+00, -3.28670025e-01,  3.10090423e+00,  1.28188491e+00,  4.85536188e-01},
   { 7.89658427e-02, -2.37083530e+00,  2.69219184e+00, -2.96341807e-01,  1.39023542e+00, -4.82321009e-02, -6.89943790e-01,  7.77185977e-01,
     1.64997876e+00,  1.21240687e+00,  2.66149491e-01, -1.57596731e+00,  3.29051644e-01,  1.31153083e+00,  1.93444824e+00,  2.86033320e+00},
   {-4.54621762e-01, -1.46335888e+00, -4.10364300e-01,  1.02211332e+00, -1.37454852e-01,  1.01471007e+00,  2.60315132e+00, -2.31821203e+00,
     2.46555710e+00,  1.18590009e+00, -2.40428269e-01,  1.12082160e+00, -1.02108240e+00,  8.28062117e-01, -8.90478015e-01, -7.22628176e-01},
   {-3.93443525e-01,  5.12912750e-01,  1.46140623e+00, -2.06811094e+00,  1.93246269e+00, -3.35382605e+00, -6.98393285e-01,  4.96329427e-01,
     3.19314146e+00,  8.55251133e-01,  1.14129150e+00, -2.58359003e+00,  2.78326035e+00,  2.99973202e+00,  8.41389954e-01,  1.20188820e+00},
   {-5.25554895e+00, -1.24231589e+00,  6.07729495e-01, -9.82732952e-01, -8.16061676e-01, -3.00922298e+00, -1.84882021e+00,  1.13506246e+00,
    -4.01167929e-01, -2.55206871e+00, -3.04596591e+00, -2.39736602e-01,  2.80597806e-01,  2.45832846e-01,  3.93784881e-01, -9.27309871e-01},
   { 1.93001516e-02, -7.63532668e-02,  2.34073544e+00, -2.35795712e+00,  2.05986476e+00,  9.56989586e-01,  1.34878540e+00, -1.05042839e+00,
     1.06966484e+00, -1.59137547e-01,  6.15023613e-01, -9.48159993e-01, -2.32214271e-03, -9.32347298e-01, -4.40764844e-01, -7.50434041e-01},
   { 8.08900520e-02, -1.05891156e+00,  1.45300889e+00,  1.29467094e+00, -7.26228774e-01,  5.71024358e-01, -4.79328819e-02,  5.64656109e-02,
    -3.68987888e-01, -9.63325202e-01, -7.44228899e-01,  1.33611643e+00, -1.01335406e+00, -2.36877680e-01,  2.71464968e+00,  1.56397974e+00},
   { 3.94300282e-01,  2.05180407e-01, -6.14105582e-01,  1.91615605e+00,  3.24034810e-01,  1.15519524e+00, -9.25480247e-01,  7.96916783e-01,
    -5.83181262e-01,  1.38570413e-01, -1.88112807e+00,  1.01791871e+00,  6.19544923e-01,  1.66278636e+00, -8.54444206e-01,  3.18669367e+00},
   {-8.87607694e-01,  1.16969073e+00,  3.54567122e+00,  1.25658357e+00,  2.15906906e+00, -8.44302714e-01,  1.88841537e-01,  9.43547606e-01,
    -1.47778821e+00, -5.55893302e-01, -5.54956615e-01,  3.05824671e-02, -1.73207805e-01, -2.57201582e-01, -3.04961443e+00,  1.08227682e+00},
   {-4.63213436e-02, -9.87217575e-03, -1.22613840e-01, -4.06943828e-01,  2.04008150e+00,  1.30992782e+00,  1.49730706e+00,  1.31436825e+00,
     3.43481183e-01,  1.03574550e+00,  1.09740102e+00, -8.82321954e-01,  1.49671093e-01, -1.13174331e+00, -1.62658215e+00,  7.79092073e-01},
   { 3.06728292e+00,  4.30548280e-01,  4.48429346e-01, -5.39016068e-01,  1.24751675e+00,  1.27264857e+00,  1.31815541e+00,  2.79630375e+00,
     1.95574689e+00,  1.11139238e+00,  1.06319237e+00, -1.78197339e-01, -8.63275826e-01,  4.88196880e-01,  1.46761149e-01,  7.85559654e-01},
   {-3.28718472e+00, -2.93524480e+00, -1.46050096e+00, -5.36783934e-01,  8.75006616e-01, -1.84685576e+00,  3.93450171e-01,  8.09590816e-01,
     3.19994241e-01, -2.32198644e+00, -2.05645949e-01,  1.41495422e-01,  2.61408973e+00,  5.14607370e-01,  9.91043866e-01,  1.40208089e+00},
   {-1.85763216e+00, -1.19953878e-01,  1.60748094e-01, -9.49381053e-01,  3.03005904e-01, -3.72893167e+00,  5.76757908e-01, -2.24275255e+00,
     2.46283007e+00,  1.19537449e+00, -1.37146187e+00, -2.86882430e-01, -8.70123029e-01,  4.85466748e-01, -1.58217156e+00, -7.67125845e-01},
   {-1.83781135e+00, -1.01253045e+00, -3.20779741e-01, -6.18544757e-01,  7.09408820e-01,  6.51635170e-01,  8.60622108e-01, -5.10262430e-01,
     6.88581392e-02, -1.17508590e+00, -1.49167824e+00,  1.62900686e-01,  2.88968158e+00, -1.02758479e+00,  6.49050236e-01,  4.01812673e-01},
   {-4.86844480e-01, -3.01568890e+00, -9.85011876e-01, -1.54923177e+00,  8.20534885e-01, -8.18408430e-01,  3.55739653e-01, -1.85564470e+00,
     3.97495508e-01,  4.76098627e-01,  1.32072747e-01, -7.62946665e-01, -1.29259515e+00,  6.83257520e-01,  3.79897475e+00, -1.21002007e+00},
   {-8.53338361e-01, -1.55572021e+00, -1.78226125e+00,  1.23485935e+00, -3.10026503e+00,  1.55614126e+00, -1.81703255e-01, -1.79171646e+00,
     2.27290496e-01, -8.42341840e-01,  1.70550160e-02,  4.18302447e-01, -2.08213523e-01,  1.01321292e+00,  3.29433441e-01,  2.10579419e+00},
   {-3.60636532e-01, -3.68107289e-01,  3.32918310e+00, -6.59651518e-01, -7.44215965e-01, -1.72687769e+00, -1.91072357e+00,  6.52085185e-01,
     7.61289179e-01,  4.42001313e-01, -9.18981850e-01,  4.36209738e-01,  7.22845614e-01,  2.47721696e+00,  2.24180150e+00,  2.44638920e+00},
   {-3.93284053e-01,  5.43054640e-01,  1.17456889e+00, -2.61136746e+00,  1.78294230e+00,  4.24094051e-01, -1.29181945e+00, -6.02086544e-01,
    -1.87776649e+00,  1.43475068e+00,  8.05219471e-01, -3.02355814e+00, -1.96644521e+00,  3.29075962e-01,  9.83401462e-02, -8.98731828e-01},
   {-1.00919694e-01,  1.02984035e+00, -1.78642035e+00, -8.59344602e-01, -1.93543792e+00,  1.77495039e+00, -1.34248841e+00, -1.80449712e+00,
     6.83620870e-01, -8.50858629e-01,  8.53865370e-02, -2.50092953e-01,  1.53617251e+00,  8.26963246e-01,  1.99805224e+00,  1.26379943e+00},
   { 6.22053206e-01, -2.67286777e+00,  1.69968009e+00, -1.15484551e-01, -1.88291264e+00,  1.57459527e-02,  1.53666866e+00, -1.71305525e+00,
     1.74447906e+00,  1.69376087e+00, -1.98174089e-01, -2.06435785e-01, -1.67770088e+00, -9.80173826e-01,  4.47460651e+00,  9.61384416e-01},
   { 4.53961909e-01,  1.50851095e+00,  2.03686786e+00, -9.87757921e-01, -1.85670400e+00,  1.32124913e+00,  1.77966690e+00, -3.08223337e-01,
    -7.49753535e-01, -1.66210699e+00,  2.86126113e+00,  7.23442018e-01,  8.20523798e-02, -3.21950054e+00,  8.48148584e-01, -1.14196074e+00},
   {-1.17427456e+00, -2.58224463e+00, -1.29026902e+00, -1.10900557e+00, -8.33431184e-01,  1.41695365e-01, -2.76374966e-01, -1.05386806e+00,
     2.04471156e-01,  1.51946321e-01, -1.59624708e+00, -4.35232110e-02, -5.48094332e-01, -1.06208110e+00,  3.38518047e+00, -2.56139922e+00},
   { 2.27414513e+00,  1.56502295e-02,  1.32833982e+00, -1.16868579e+00,  1.54606879e+00, -1.04369581e+00,  5.76688275e-02, -1.30773377e+00,
    -1.13982046e+00,  1.47643447e+00,  1.41496015e+00, -1.33869696e+00, -1.96035314e+00,  1.97326577e+00,  1.91725016e+00, -1.16250026e+00},
   {-1.50524890e+00, -6.64386749e-01, -1.40790462e-01, -2.20876288e+00,  1.61746308e-01,  1.91905999e+00,  1.18302718e-01,  6.93662167e-01,
     6.03131533e-01,  8.73035550e-01,  3.61989528e-01, -1.83203089e+00,  1.01954138e+00, -1.01039255e+00, -1.70726347e+00,  1.10576153e+00},
   { 9.20651793e-01,  7.39769995e-01,  1.65345097e+00, -2.70075262e-01, -4.84158605e-01, -8.26917589e-02,  6.53020740e-01,  2.52262402e+00,
    -5.36824346e-01, -1.70598137e+00,  1.92060518e+00, -1.58963323e-01, -3.23295975e+00,  2.42506933e+00,  1.63053501e+00,  4.23979712e+00},
   {-1.24677384e+00,  3.01383942e-01,  2.11130691e+00,  9.50369895e-01, -5.73793709e-01, -1.81820393e+00, -9.85608339e-01,  9.24838066e-01,
    -1.86518252e+00, -2.55802810e-01, -1.21641994e+00, -1.05743460e-01,  6.85094774e-01, -2.65354991e-01,  1.09084404e+00,  2.29594445e+00},
   { 1.88744158e-01, -1.82787824e+00, -2.11917424e+00,  2.16314524e-01, -2.09085536e+00,  2.63069630e+00,  2.49013233e+00, -2.52824116e+00,
     6.52550340e-01,  1.48740733e+00, -1.35797405e+00,  5.20730495e-01, -3.28815269e+00, -5.02532184e-01, -5.13386786e-01, -1.22571874e+00},
   {-1.32093942e+00, -2.89758182e+00,  6.91719770e-01, -1.19366646e+00,  1.02049339e+00, -1.98053345e-01,  8.18835735e-01, -2.66518998e+00,
     5.00889838e-01,  8.70198190e-01, -3.87479365e-01, -6.07150614e-01, -1.49147058e+00,  1.01870441e+00,  1.64340353e+00, -1.97686589e+00},
   {-3.29624128e+00, -2.18033171e+00,  6.63839579e-01, -5.61588287e-01, -1.43637812e+00, -1.28881955e+00, -8.53123903e-01, -4.43973988e-02,
     1.47882700e+00, -1.95685163e-01, -1.12030518e+00, -2.97663063e-01,  2.01287675e+00,  3.51673178e-03, -2.15259448e-01,  1.17339969e+00},
   {-1.85018682e+00, -7.08293736e-01,  1.49209821e+00, -7.39603519e-01,  9.62460995e-01, -1.82360673e+00, -2.37204242e+00,  2.19308805e+00,
    -1.57095110e+00, -1.77095485e+00, -2.00074703e-01,  2.25511104e-01,  1.37727749e+00, -1.57327282e+00,  5.50957918e-01, -5.64316154e-01},
   { 1.20963812e-01, -1.99406159e+00, -8.06547880e-01, -1.50972593e+00, -1.27702677e+00, -1.43720782e+00,  2.17311311e+00, -4.83008400e-02,
     1.90759730e+00, -2.45407805e-01,  5.83971858e-01,  6.91823483e-01, -2.72053689e-01, -2.40119219e+00,  9.49918747e-01, -1.01623452e+00},
   { 9.80955303e-01, -5.37765399e-02, -1.64309716e+00, -2.46657801e+00, -1.65659487e+00,  1.91648781e+00,  2.10739660e+00, -2.25418591e+00,
     1.46438229e+00,  1.70638323e+00,  2.69000888e-01, -1.75806642e+00, -1.00797486e+00, -2.76874632e-01,  1.57537413e+00,  2.97667414e-01},
   {-7.44500816e-01,  4.91325259e-01,  2.25296450e+00,  6.16262674e-01,  1.39079487e+00,  1.40883178e-01, -1.53786910e+00,  1.09868431e+00,
    -2.71059132e+00, -1.79576993e+00,  1.00911051e-01, -5.91095805e-01,  1.05148602e+00, -5.76369047e-01,  8.37765276e-01,  9.59005952e-01},
   {-2.14458942e+00, -9.57666337e-02,  3.76549387e+00, -1.25753605e+00,  4.90930319e-01, -3.68568349e+00, -1.59796250e+00,  8.51947665e-02,
     2.09353852e+00, -5.57567239e-01, -9.67904270e-01,  5.49840964e-02,  6.84515357e-01,  3.19877100e+00,  1.14738679e+00,  1.42009735e+00},
   { 1.31422609e-01, -3.51029754e+00, -1.12068713e+00,  5.53226471e-01, -1.69768691e+00, -3.27178502e+00,  1.80129182e+00, -2.74689257e-01,
     6.11495674e-01, -5.92019856e-01,  1.99544644e+00,  7.02994168e-01, -1.79478914e-01,  1.05225968e+00, -1.91368327e-01,  2.74784422e+00},
   {-1.25705850e+00, -3.26583838e+00, -1.57119071e+00,  1.44503154e-02, -1.40631223e+00, -3.75611281e+00,  1.61983287e+00,  5.94905376e-01,
    -2.97902137e-01, -1.14889336e+00,  1.84636211e+00, -1.29738554e-01, -6.91832185e-01,  5.41220427e-01, -9.55839217e-01,  2.33999276e+00},
   {-4.95445013e-01,  1.29954657e-02,  1.48499501e+00, -1.09011722e+00,  1.08495724e+00, -2.73059154e+00, -2.88838029e+00, -1.84193864e-01,
    -1.24022193e-01,  1.21937740e+00,  5.09261452e-02, -1.36132944e+00,  4.06782568e-01,  2.20134425e+00,  1.67918837e+00,  5.73978603e-01},
   {-1.74084938e+00, -1.87592745e+00,  2.04518676e+00,  8.84018481e-01, -2.16749623e-01,  1.50174880e+00, -7.26063624e-02, -2.24178553e+00,
     2.21216634e-01,  3.61565858e-01, -1.55693913e+00,  6.87873244e-01, -1.03825653e+00,  1.41089618e+00,  7.25123823e-01,  2.71815252e+00},
   {-1.53798604e+00, -5.85207522e-01,  9.62766111e-01, -9.41033185e-01, -1.79600298e-01, -4.40156937e+00,  1.07661104e+00, -4.24979180e-01,
     1.61936331e+00, -2.02515244e-01,  2.19488725e-01,  5.80102563e-01,  5.24266899e-01, -6.33234084e-01, -5.45293450e-01,  1.89980745e-01},
   { 4.71147656e-01, -5.28400540e-01, -7.32681632e-01, -1.79658210e+00, -4.25778329e-01,  8.93382967e-01,  3.50945473e-01,  2.12610424e-01,
    -2.97704428e-01,  1.57612288e+00,  8.10982585e-01, -2.80540419e+00, -1.56281495e+00,  2.75177383e+00, -5.89548290e-01,  1.44364464e+00},
   { 1.43097469e-03, -3.06721640e+00, -5.01996040e-01, -1.86432973e-01,  2.38325626e-01,  1.77083194e+00,  1.44614649e+00, -3.91870141e+00,
     2.49896431e+00,  3.32513738e+00, -2.05745116e-01, -4.91752952e-01,  4.03238237e-01,  2.03561020e+00,  1.46840203e+00, -7.07734227e-01},
   {-7.64978230e-01, -1.47613609e+00, -5.83472967e-01, -1.90826559e+00, -1.60610020e+00, -1.82029307e+00, -2.92276084e-01,  7.22589135e-01,
     3.52566034e-01, -5.47607780e-01, -1.21450448e+00, -4.19539452e-01, -3.11598706e+00,  1.68106318e-01,  2.43682122e+00, -2.29562545e+00},
   {-9.63482141e-01, -2.15484309e+00, -1.00680983e+00, -1.01222491e+00, -7.68428624e-01,  6.10328019e-01,  1.59973398e-01, -1.62010705e+00,
    -1.02706599e+00, -4.59000349e-01,  4.78876382e-01, -1.39824593e+00, -1.06204236e+00,  2.65272546e+00,  1.42699516e+00,  1.82350004e+00},
   {-7.22812653e-01, -9.80657637e-01, -3.20171192e-02, -2.90442085e+00, -7.86108494e-01,  1.09319949e+00,  4.05746788e-01, -1.47405779e+00,
    -4.28017616e-01, -9.37752306e-01,  1.73918355e+00, -1.28735375e+00, -1.29430592e+00,  9.09428239e-01,  2.86681700e+00,  8.37613761e-01},
   {-2.15048105e-01, -9.67249453e-01,  2.24906063e+00,  6.17761552e-01,  1.11763585e+00,  9.20695245e-01,  2.42004108e+00, -6.52158916e-01,
     2.58242428e-01, -2.42214501e-01, -1.78725612e+00, -1.13459575e+00, -2.22011638e+00, -1.05450535e+00, -3.07068610e+00,  5.27298808e-01},
   { 7.09343016e-01,  1.56296444e+00, -1.29585242e+00,  1.13214052e+00,  6.91043198e-01,  1.09677327e+00, -2.55098271e+00, -9.24860060e-01,
    -2.24408245e+00, -6.02299809e-01, -6.28750205e-01, -4.28026766e-01,  5.01740396e-01,  1.39260590e+00, -7.10962176e-01,  8.61529231e-01},
};

// clang-format on


#endif // __FASTGRNN_GRNN0_PARAMS__

