#ifndef __FASTGRNN_FC_PARAMS__
#define __FASTGRNN_FC_PARAMS__

#define FC_IN_DIM (32)
#define FC_OUT_DIM (6)

// clang-format off

const float FC_W[6][32] = {
   {-4.12031412e-01,  7.77265072e-01, -3.97525728e-01, -2.93234110e-01,  2.97861874e-01,  3.50579202e-01, -3.87349129e-01, -1.09022593e+00,
    -4.07478690e-01, -5.51415002e-03,  2.96490192e-01,  2.94076592e-01,  1.20256655e-01, -7.37239957e-01,  2.82105237e-01, -2.16428682e-01,
     1.45102173e-01,  7.56766260e-01,  2.24836096e-02, -8.00065815e-01, -1.10755481e-01,  6.80769563e-01, -4.96614158e-01,  2.04525900e+00,
    -5.61343610e-01, -8.55033755e-01,  4.64215726e-01, -5.67712247e-01, -9.86671627e-01, -3.65079701e-01,  1.26391459e+00, -3.02317321e-01},
   {-5.33325791e-01, -6.14651620e-01, -4.62878287e-01, -1.17226744e+00, -6.74483836e-01,  6.23009562e-01, -6.82647645e-01,  8.73878121e-01,
    -3.31204504e-01, -2.39179015e-01,  2.23918247e+00,  5.74555397e-01, -9.34900343e-01,  2.66188860e+00, -6.80951476e-01, -7.76964068e-01,
    -8.95814002e-01, -1.24284172e+00, -2.82815486e-01,  6.22724056e-01, -1.45068669e+00, -1.08393848e+00,  1.79362559e+00, -2.47802377e+00,
    -8.06533992e-01,  1.29012001e+00,  1.13851321e+00,  9.13503110e-01,  2.15672612e+00,  1.31408834e+00, -1.40017152e+00, -9.13850188e-01},
   {-6.90976441e-01, -1.33782792e+00, -6.48012280e-01, -8.53084743e-01, -7.25815654e-01,  1.62554964e-01,  8.58098745e-01, -1.41676962e+00,
    -1.07807599e-01,  5.85618466e-02, -1.98876154e+00, -3.09636354e+00,  7.11012959e-01,  2.63246965e+00,  9.69784021e-01, -2.65270859e-01,
     1.01285064e+00, -1.01401234e+00, -3.45377885e-02,  1.15522814e+00, -1.32219136e+00,  7.56976545e-01, -3.89516503e-01, -1.83064759e+00,
    -6.57113433e-01,  9.83010471e-01,  1.13138986e+00, -5.79826891e-01,  2.52012587e+00,  1.44207835e+00, -1.04868543e+00, -8.94094884e-01},
   { 7.99778759e-01, -9.83801544e-01, -6.91693246e-01,  1.24381495e+00, -6.74732864e-01,  3.99792403e-01,  1.10596919e+00,  8.89561713e-01,
     1.57479668e+00,  3.80835533e-01,  2.43063903e+00,  4.97319996e-01,  8.13547075e-01,  1.44404280e+00, -1.62090755e+00,  2.14743376e+00,
     1.14411724e+00, -4.60656613e-01, -1.54699817e-01,  6.37585878e-01,  1.67798901e+00, -1.28185940e+00, -6.85194969e-01, -2.25808024e-01,
     1.67405948e-01,  7.95344770e-01, -1.05427396e+00,  9.73587155e-01,  1.55683267e+00, -6.36977553e-01,  1.33132231e+00,  1.71850288e+00},
   { 6.89573169e-01, -1.15712309e+00,  1.69973695e+00,  8.96963537e-01,  1.05946743e+00,  6.11836255e-01, -4.76371258e-01,  1.10400975e+00,
    -5.99749744e-01,  1.72935128e-01, -1.80197227e+00,  4.16166306e-01, -6.20586216e-01, -1.16481876e+00, -1.65060294e+00, -8.19164336e-01,
    -2.80238342e+00, -8.25069606e-01, -5.08857444e-02,  4.79079574e-01,  1.16696870e+00, -1.34394085e+00, -6.16916299e-01,  2.21254516e+00,
     1.88164377e+00, -1.24409723e+00, -1.29351676e+00, -6.76721990e-01, -2.12780523e+00, -5.37510693e-01, -8.78445983e-01,  1.94192731e+00},
   { 8.65169466e-01,  8.68405104e-01,  1.36095107e+00,  8.37333798e-01, -4.21772689e-01, -2.71696019e+00,  9.04876292e-01,  1.13542771e+00,
     1.66218567e+00, -3.27213287e-01,  1.85175538e+00,  9.60935175e-01, -9.77394879e-01, -1.49951100e+00,  9.27097142e-01,  2.07106709e+00,
    -1.02554631e+00,  1.05328643e+00, -1.61793917e-01, -1.18331563e+00,  1.46811020e+00, -1.46826059e-01,  1.68097889e+00, -1.15860760e+00,
     1.49266279e+00,  5.60264945e-01, -1.50172877e+00,  7.81738043e-01,  1.86473370e+00, -5.59382796e-01, -6.79609060e-01, -8.28993499e-01},
};

const float FC_B[6] = 
   { 1.68946958e+00, -1.27505481e+00, -2.10484338e+00, -7.49810994e-01, -9.82859790e-01, -1.05698109e+00};

// clang-format on


#endif // __FASTGRNN_FC_PARAMS__

