#ifndef __FASTGRNN_GRNN1_PARAMS__
#define __FASTGRNN_GRNN1_PARAMS__

#define GRNN1_HIDD_DIM0 (64)
#define GRNN1_HIDD_DIM1 (32)

// clang-format off

const float GRNN1_ZETA = (3.086399e+00);
const float GRNN1_NU = (-4.893298e+00);

const float GRNN1_BIAS_UPDATE[32] = 
   { 3.76274204e+00,  1.04104280e+00,  5.03532529e-01,  8.16429794e-01,  8.09103310e-01,  4.06608009e+00,  1.25351655e+00,  9.71942246e-01,
     9.95564461e-01,  8.58623087e-01,  1.00446248e+00,  1.18104839e+00,  3.14189053e+00,  1.25355971e+00,  1.01773775e+00,  9.86773312e-01,
     1.05968523e+00,  3.81370091e+00,  7.62927651e-01,  7.96468318e-01,  4.23757935e+00,  8.36279035e-01,  8.67795169e-01,  9.94338095e-01,
     1.01498902e+00,  3.72766638e+00,  1.09481561e+00,  7.68434823e-01,  2.08030272e+00,  9.35103476e-01,  2.52980185e+00,  4.19659138e+00};

const float GRNN1_BIAS_GATE[32] = 
   { 9.63693082e-01,  1.72304845e+00,  1.31200552e+00,  4.92399093e-03,  1.56699967e+00,  4.40637141e-01,  2.92587723e-03,  4.85123426e-01,
     1.43423057e+00,  1.34304082e+00,  1.12140131e+00,  1.31818092e+00,  5.74889064e-01,  1.28219032e+00,  3.31422269e-01, -6.11473583e-02,
     1.50425744e+00,  6.81947649e-01,  1.06255066e+00,  6.12248063e-01,  8.58523428e-01,  1.50321782e+00,  9.67307448e-01,  1.64387417e+00,
     2.27574900e-01,  8.56344938e-01,  1.52060068e+00,  1.25967765e+00,  7.57310629e-01, -2.22260162e-01,  6.40195072e-01,  6.42717004e-01};

const float GRNN1_W[32][64] = {
   { 2.01099768e-01,  1.77930936e-01,  8.80970359e-01,  4.18985993e-01,  3.18778888e-03,  2.85836905e-01, -2.31084209e-02, -1.89461231e-01,
    -3.89586091e-01,  4.53775704e-01,  1.66613031e-02,  3.56478691e-01,  3.28279614e-01, -4.08026241e-02,  4.00204509e-01, -3.38499188e-01,
     1.44991919e-01,  7.01861531e-02, -1.44315556e-01,  2.84962833e-01,  4.02739257e-01, -7.85153136e-02, -1.02631204e-01, -5.47081709e-01,
     2.19428062e-01, -2.37608433e-01, -3.17673534e-02, -4.45323318e-01,  2.45821942e-02, -1.79753095e-01, -3.39666277e-01,  8.09063435e-01,
     5.15900731e-01, -2.64159024e-01,  8.34044069e-02,  3.89271468e-01,  4.09500778e-01,  3.35670203e-01, -1.16456367e-01,  5.06271124e-01,
    -7.11093843e-02, -6.13584876e-01,  1.95814595e-01,  8.05914551e-02,  2.86550134e-01,  2.26883784e-01, -5.74378856e-02,  2.07943335e-01,
     4.07680899e-01, -2.39716202e-01,  2.29031190e-01, -9.00149345e-03,  3.07104707e-01,  2.48675495e-01,  3.70806783e-01,  4.36331660e-01,
     3.53067249e-01,  2.96983063e-01,  2.41883412e-01, -1.72027931e-01, -3.36526871e-01,  4.60252315e-01,  3.14809710e-01, -5.82312569e-02},
   { 1.24293812e-01, -1.66562144e-02, -3.53630513e-01, -2.60304175e-02,  1.01799488e-01,  8.78994912e-02, -1.59430295e-01, -2.50679910e-01,
     2.57860780e-01, -5.50872386e-02, -1.71709388e-01,  8.13107530e-04,  8.10581595e-02, -2.13626608e-01, -5.19449078e-02,  5.40370703e-01,
     1.57575712e-01,  3.24517861e-02, -1.92589030e-01, -5.99964708e-02,  3.69748443e-01,  2.49584720e-01, -9.66065824e-02,  9.92344841e-02,
     3.89847681e-02,  8.76163766e-02,  1.71312951e-02,  1.73836112e-01,  2.19026223e-01,  6.80190325e-03,  7.10724741e-02, -3.83516140e-02,
     6.64826781e-02, -8.95757526e-02,  1.96818396e-01,  3.64981219e-02, -4.11169566e-02,  1.18386641e-01, -9.75341350e-02,  1.84960350e-01,
     6.32152483e-02,  9.32177305e-02,  7.64228478e-02,  3.84063553e-03,  2.68217504e-01, -1.43630564e-01, -3.14458311e-01, -2.97196712e-02,
    -9.52516347e-02,  2.15163723e-01, -1.76182568e-01, -1.39435334e-02,  1.89221382e-01, -1.25984058e-01,  1.06058829e-02,  4.44971949e-01,
    -9.89869982e-03,  2.70713180e-01, -6.01846948e-02, -2.57080030e-02,  5.57683110e-01,  4.65038531e-02, -6.90369383e-02,  1.12698711e-01},
   { 3.80515419e-02, -2.03498043e-02,  2.30086312e-01,  5.33046462e-02, -4.62908931e-02,  9.92694497e-02, -1.01548031e-01,  8.92590433e-02,
    -1.77121669e-01,  7.18631819e-02,  4.04008850e-02, -3.09558026e-02, -1.73205554e-01, -9.00152475e-02, -9.15666372e-02,  3.63077044e-01,
     5.21156229e-02, -2.77499408e-01, -1.77958980e-03,  1.51643515e-01, -1.42861769e-01, -2.22416237e-01, -9.05393586e-02,  3.35693285e-02,
     9.88927260e-02,  1.90536246e-01,  1.63026169e-01,  1.67857900e-01,  3.00197095e-01, -6.18517622e-02,  6.76231802e-01, -8.33517164e-02,
    -3.98663938e-01,  1.19181648e-01,  1.19038619e-01, -5.65044731e-02, -2.94542372e-01,  6.95021451e-02, -2.14095548e-01,  6.92302082e-03,
    -5.15257493e-02, -1.32520407e-01, -5.69573492e-02, -3.05748340e-02, -3.96310508e-01,  4.97875027e-02,  1.81414828e-01, -1.45665050e-01,
     1.44268841e-01, -4.91494052e-02,  1.94404408e-01,  8.00936893e-02,  6.40585795e-02, -1.39412746e-01, -2.09420964e-01, -5.35981596e-01,
    -2.03412339e-01,  2.27735996e-01,  4.20044251e-02,  1.01574630e-01,  8.99767131e-02, -1.62119627e-01, -1.69071406e-01, -6.61476552e-02},
   {-3.36667061e-01, -7.47703984e-02, -3.06992531e-02, -1.22158915e-01, -1.83428470e-02, -1.32470606e-02,  9.41192657e-02,  1.19928785e-01,
     2.83322990e-01, -2.06951708e-01,  1.13590956e-01, -1.76632941e-01, -1.67039298e-02, -2.11510628e-01, -1.96908653e-01, -1.20967114e-02,
    -2.18369991e-01, -1.20053023e-01,  1.87873274e-01, -1.00483462e-01,  2.21050289e-02,  2.39319522e-02, -1.46756113e-01,  1.36991546e-01,
    -1.26969874e-01,  4.71912660e-02,  7.23125339e-02,  4.16398227e-01, -1.44186601e-01, -1.19182281e-01,  4.97898534e-02, -5.27323224e-02,
    -3.31388593e-01, -3.62697542e-02,  7.98018649e-04, -2.06535414e-01, -1.09702758e-02, -6.79402724e-02, -1.45834357e-01, -1.79311827e-01,
    -8.33411217e-02, -2.51231026e-02,  8.40616971e-02, -8.36644918e-02, -1.56928301e-01,  6.45623952e-02,  2.47979626e-01,  2.39596553e-02,
    -1.61819756e-01,  3.46311107e-02, -7.42989704e-02,  2.13780925e-01,  1.09519556e-01, -2.14138210e-01, -6.16483502e-02,  1.57359809e-01,
    -2.10755378e-01, -1.46948934e-01,  1.60825104e-02,  1.19193874e-01, -1.60350930e-02, -4.62049544e-02, -6.38938546e-02, -1.33524746e-01},
   {-1.64345533e-01,  2.26636678e-01,  4.93815988e-02,  1.69339314e-01, -3.00091058e-02, -2.04241261e-01,  1.78043500e-01, -1.12626746e-01,
     7.21859187e-02, -2.64424294e-01,  1.13340653e-01,  3.20731401e-01,  1.40634209e-01,  2.66327828e-01,  3.31470221e-01, -2.73146965e-02,
     2.27154672e-01, -1.97184905e-01,  2.35818759e-01, -2.15139851e-01, -6.31281510e-02, -1.11580543e-01,  2.97199428e-01,  8.56950507e-02,
     2.08810881e-01, -1.68862164e-01, -1.68447811e-02, -1.12591594e-01, -2.89046139e-01, -2.91730046e-01,  7.46295303e-02,  5.59232105e-03,
     1.19091682e-01, -4.22190070e-01, -4.54470590e-02,  6.30897060e-02, -1.54969394e-01,  2.95033455e-01,  3.36391702e-02,  8.27979967e-02,
    -2.37152293e-01, -4.70141284e-02, -1.22622050e-01,  7.44788125e-02, -7.52408803e-02,  2.68821985e-01,  1.36703372e-01,  1.84229553e-01,
    -1.23770244e-01, -2.13812724e-01, -3.85094695e-02,  3.75422001e-01,  7.27829039e-02,  6.06481917e-02,  2.43264530e-02,  5.42884506e-02,
     1.67939886e-01, -7.44921193e-02,  9.77866054e-02,  1.09428959e-02,  1.89194065e-02,  4.26489353e-01,  2.92700440e-01, -5.68384305e-02},
   { 2.20086023e-01,  6.50329530e-01,  8.83515552e-02,  7.29121208e-01, -3.28214794e-01, -4.73651011e-03, -9.95194018e-02,  5.58432713e-02,
    -1.28393069e-01,  2.09074944e-01,  1.87660918e-01,  3.12942445e-01,  1.75623357e-01,  4.18414891e-01,  4.48377013e-01, -4.35220718e-01,
     8.17381561e-01, -4.29492980e-01,  8.53821412e-02, -1.14690371e-01,  3.77299219e-01, -7.56668866e-01,  2.71977782e-01, -2.47863397e-01,
     7.77632177e-01, -5.02369463e-01, -5.57531297e-01, -7.04818428e-01,  9.70123231e-01, -4.12830859e-01,  6.10419393e-01,  3.42441380e-01,
     3.46122622e-01, -2.28312105e-01,  7.32925981e-02,  5.87241113e-01,  9.09757838e-02,  3.87068927e-01, -1.79163396e-01,  4.55993980e-01,
    -3.53537619e-01, -4.66548532e-01, -8.64318758e-02, -2.48995442e-02, -5.77884912e-01, -1.13662090e-02, -7.18397424e-02,  6.89219296e-01,
     3.80699456e-01,  5.40116310e-01,  1.24928676e-01, -2.33515471e-01, -1.78963348e-01,  2.73161292e-01,  7.38659084e-01, -4.46016490e-01,
     1.19534008e-01,  3.95418584e-01,  2.54417688e-01,  1.06014110e-01,  2.95922130e-01,  6.16376817e-01,  2.79708266e-01, -2.69359618e-01},
   {-1.41593114e-01, -1.99815586e-01, -3.09366286e-01, -2.92942729e-02, -7.75858238e-02,  2.86968537e-02, -9.21535566e-02, -8.22621658e-02,
    -1.59414917e-01, -2.36490279e-01, -9.25723184e-03, -2.73205321e-02, -5.60790971e-02, -2.54015960e-02, -1.66189019e-02,  5.23217730e-02,
     7.57326633e-02,  2.74365339e-02, -1.18863294e-02,  4.35504913e-02,  1.51702255e-01,  9.50255767e-02, -2.45282724e-01, -1.31019548e-01,
    -2.21585408e-02,  1.90442186e-02, -1.12394124e-01, -1.41988263e-01,  1.19592056e-01,  8.04948807e-02,  5.77880368e-02, -3.19846570e-01,
    -3.60069312e-02,  1.81268543e-01, -1.84365079e-01, -2.48738024e-02, -2.80180603e-01,  4.20342870e-02,  9.58355889e-02, -1.24259368e-01,
     2.33369589e-01,  1.30546242e-01,  9.77505893e-02,  4.28047329e-02, -1.42448902e-01, -1.47273004e-01,  1.54163875e-02,  1.09293796e-01,
    -6.41145334e-02,  2.28177920e-01, -1.84690312e-01,  2.21476797e-02,  1.76206864e-02,  1.64659858e-01, -9.37547907e-02, -1.44464090e-01,
    -1.20454229e-01, -1.86803237e-01,  1.00525916e-01,  6.16501756e-02,  2.02973738e-01,  1.07801169e-01,  3.73086929e-01,  1.90608576e-01},
   {-1.98480800e-01, -3.12907696e-01,  2.19816357e-01,  2.72770226e-02, -1.79210342e-02, -1.82928920e-01,  5.31226210e-03,  5.12718797e-01,
     3.15156162e-01, -3.41394581e-02, -8.04317743e-03, -6.98441267e-02, -1.85095668e-01, -1.66953146e-01, -1.00114033e-01, -3.20332557e-01,
    -2.01632202e-01,  1.29532218e-02, -1.34210540e-02,  2.01773882e-01, -5.53639904e-02,  2.64380709e-03,  1.24241538e-01,  9.41589847e-02,
     9.19518396e-02,  1.77885801e-01, -1.01645716e-01,  4.63707507e-01, -7.76406005e-02, -1.30419850e-01,  2.00899825e-01, -9.03679132e-02,
     1.57312438e-01, -1.74375132e-01, -2.05795929e-01, -1.87852960e-02, -8.22816342e-02,  1.11205243e-01, -2.60983974e-01, -8.66548717e-03,
     2.62182709e-02, -9.73920375e-02,  4.47899640e-01,  1.05111331e-01, -1.27815247e-01, -3.38250875e-01, -1.13670200e-01, -1.95711851e-01,
     1.19993836e-02,  2.99475025e-02,  4.57083434e-02,  1.83687452e-02, -9.97509733e-02, -4.10299711e-02, -9.06761438e-02,  5.77082671e-02,
    -1.33201659e-01,  4.92427498e-02,  1.13034807e-01,  2.60119420e-02,  1.17666665e-02,  1.42414987e-01, -1.46156028e-02, -2.74043947e-01},
   {-4.62474823e-02,  1.15728535e-01,  3.50320302e-02,  3.17027979e-02,  1.45462409e-01, -9.82441902e-02,  2.59116273e-02, -1.62189260e-01,
     1.83832973e-01,  2.97919642e-02, -1.27324864e-01, -3.24566625e-02,  2.77186483e-02, -2.55233282e-03,  1.86240420e-01, -1.73607431e-02,
    -2.75823891e-01, -4.19487618e-02,  1.03571571e-01, -1.40691489e-01,  1.78762618e-02, -1.64927661e-01,  1.37840509e-01, -9.01104510e-02,
     3.69556129e-01, -9.42719057e-02, -1.14040077e-01, -6.59290515e-03,  1.00978769e-01, -4.40632254e-01,  1.37424871e-01, -6.83297291e-02,
    -1.09496720e-01, -2.91934788e-01,  1.12453192e-01, -7.57946447e-03, -1.05562136e-01, -1.47661075e-01,  3.18607874e-02,  2.04063933e-02,
    -2.28169456e-01,  5.14507107e-03, -2.79668480e-01,  1.54025227e-01, -4.20407169e-02, -2.26465501e-02,  1.53397292e-01, -8.99239182e-02,
     5.60712405e-02,  1.10698171e-01, -2.75929183e-01, -2.48021409e-01, -2.55052119e-01, -2.07486138e-01, -7.81078339e-02, -4.47463952e-02,
     1.15903601e-01, -2.02008247e-01,  1.61992803e-01, -3.22262757e-02,  2.01082751e-01, -1.01492926e-02, -3.00067458e-02, -1.69250190e-01},
   { 1.44829437e-01, -3.84456515e-02, -3.13830942e-01, -2.33169794e-01, -1.38001502e-01, -2.59384185e-01,  1.30822742e-02, -7.80427409e-03,
    -2.01750435e-02, -1.35996804e-01,  9.94966254e-02, -5.06269895e-02,  5.51052131e-02,  3.96992147e-01, -2.16114089e-01, -8.08329433e-02,
    -2.06549212e-01, -7.77245834e-02,  3.85632813e-02, -9.72617865e-02,  8.23010951e-02,  1.15572333e-01,  5.70060462e-02,  5.23418337e-02,
    -1.36478722e-01, -5.87416925e-02,  2.20144223e-02,  1.35129079e-01,  8.61908197e-02,  1.49924114e-01,  1.86881617e-01,  5.47894500e-02,
    -1.75004806e-02,  1.26474783e-01,  1.81216955e-01, -4.42021117e-02, -1.52755514e-01, -5.63019479e-04, -8.05422440e-02,  1.46048725e-01,
     1.16387241e-01,  4.96481881e-02,  1.78482071e-01,  2.27658316e-01, -3.39197144e-02, -1.34183943e-01, -2.29485124e-01, -1.71680450e-01,
    -2.23911658e-01,  3.60392444e-02, -1.17178701e-01, -1.02234356e-01, -1.10869721e-01,  1.95678815e-01, -1.60657689e-01,  1.31920248e-01,
    -1.43690348e-01,  4.00647260e-02,  1.42354714e-02,  1.28546506e-01,  5.52350879e-01, -1.16437241e-01,  4.54225719e-01,  1.62569329e-01},
   { 4.47838716e-02, -4.52014767e-02,  1.43630937e-01, -2.73951828e-01, -1.52559578e-01, -1.83505207e-01, -1.31571501e-01,  4.55249324e-02,
     1.40194711e-03, -6.06228635e-02, -5.07976227e-02, -1.49219736e-01, -1.38085466e-02,  3.02786916e-01, -3.86783369e-02, -5.22880703e-02,
     2.06143871e-01, -1.14746522e-02, -1.29789859e-01, -5.23301139e-02, -1.28741441e-02, -7.20331259e-03, -1.07221983e-01, -1.94053441e-01,
    -6.80692568e-02, -2.03351915e-01,  2.62637109e-01, -2.19465375e-01, -1.23039246e-01,  3.72240320e-02,  1.47720296e-02,  3.00057679e-01,
     1.11715838e-01,  2.43690729e-01, -2.85981875e-02,  1.11479983e-01,  2.19892383e-01, -2.44051777e-02, -2.20325604e-01,  6.86539933e-02,
     1.03124171e-01,  2.26284377e-02, -2.25583732e-01, -9.81197730e-02, -1.01858778e-02, -1.42255351e-01, -5.72897978e-02,  1.24971949e-01,
    -1.19446173e-01, -3.10632288e-02,  2.09707722e-01, -1.52154952e-01, -2.47351512e-01,  2.03418091e-01, -8.65908712e-02, -3.43417600e-02,
    -2.14470163e-01,  4.06793728e-02, -1.64390057e-01, -8.91442820e-02,  2.26973042e-01,  3.89310322e-03,  2.52153605e-01,  1.36702150e-01},
   { 1.83001384e-01,  2.31901586e-01,  3.11073363e-02,  7.15039894e-02, -2.19350412e-01, -1.36517644e-01,  1.50638252e-01,  3.18887174e-01,
    -2.97476351e-01, -1.10263079e-01, -5.54833412e-02,  3.27228516e-01,  5.62889017e-02, -6.98969513e-02, -1.43674212e-02, -2.47258797e-01,
     2.31942743e-01, -1.69487759e-01,  2.24879459e-01, -8.80857334e-02, -7.74154579e-03, -5.08227833e-02, -6.31531402e-02,  2.00422287e-01,
    -3.70005444e-02, -3.41201872e-01,  9.93785411e-02, -1.01189241e-01,  2.68940359e-01, -2.77317762e-01,  6.51779234e-01, -3.41898315e-02,
     1.68790482e-02,  2.53527701e-01,  2.42421433e-01, -9.60477907e-03, -2.33585730e-01,  3.58938605e-01,  6.60171062e-02,  6.76133782e-02,
     1.71825632e-01, -3.16961706e-01,  1.20335422e-01,  6.29691407e-03, -1.84511766e-02,  4.82881099e-01,  3.31005119e-02,  1.20448850e-01,
     2.35358611e-01, -1.65768787e-01,  2.38228709e-01,  5.96601367e-02, -5.69128282e-02,  1.63910255e-01,  3.66005629e-01, -3.44119780e-02,
     1.85940012e-01,  2.91990161e-01,  2.71043535e-02, -3.29694510e-01, -1.54988781e-01,  3.18519101e-02, -3.52760591e-02, -9.08498913e-02},
   {-1.36838198e-01,  1.82583425e-02,  2.14904845e-01,  1.02676861e-01, -9.16666329e-01,  3.21767867e-01,  4.30757523e-01,  7.49120414e-01,
    -5.53263128e-01,  5.30633070e-02, -1.81343719e-01,  4.05353516e-01,  7.14870155e-01,  3.92514467e-01,  2.02027440e-01, -6.39631152e-01,
    -6.16502054e-02, -3.92130822e-01,  4.21063155e-01, -2.97022074e-01,  1.76482782e-01, -2.22298324e-01,  5.70738554e-01,  2.72753509e-03,
     3.12851346e-03, -2.19189346e-01,  3.42791498e-01,  5.51390588e-01, -2.97561258e-01,  3.04470956e-01,  4.07372087e-01,  8.08162808e-01,
     2.47490957e-01, -1.29722714e-01,  3.11184138e-01,  1.34096339e-01,  5.79039395e-01,  2.35739648e-01, -2.96369165e-01,  3.63574266e-01,
    -1.61150992e-02, -6.78312957e-01,  6.31192505e-01,  4.39425766e-01, -3.43887508e-01,  1.27995282e-01,  1.61811143e-01,  3.01800728e-01,
    -9.88713726e-02, -1.59575060e-01, -4.09284979e-02, -3.45387995e-01,  8.07936117e-02,  8.84231329e-01,  2.73260862e-01,  4.54162627e-01,
     3.22860122e-01,  5.47791831e-02,  6.31350815e-01,  5.56312948e-02, -1.78727984e-01,  3.14550787e-01,  7.09228158e-01,  2.52776474e-01},
   {-1.35573164e-01, -4.09532845e-01,  9.86123383e-02,  1.22586109e-01,  7.36180097e-02,  1.88655585e-01,  1.20583653e-01,  3.10123771e-01,
    -1.26057059e-01,  3.33923548e-01, -7.14192465e-02, -7.78607558e-03,  4.20218885e-01,  9.92072895e-02,  2.61216402e-01, -2.71227062e-01,
    -7.34329894e-02,  7.00192153e-02, -1.64103955e-01, -5.65891489e-02, -5.30484617e-02,  9.01171863e-02,  2.74839923e-02, -5.08956969e-01,
     1.83502823e-01, -4.47522737e-02, -1.33342996e-01, -1.35645242e-02,  5.41951433e-02,  1.27683043e-01,  1.87378675e-02,  2.67916381e-01,
    -9.91743803e-02, -5.37149236e-02,  1.83189467e-01,  8.17144886e-02,  2.16599718e-01,  7.76738375e-02,  3.94241139e-02,  3.02213103e-01,
     1.46477565e-01,  8.75680745e-02,  2.91754067e-01,  3.28029156e-01, -2.87478775e-01,  1.86008990e-01, -1.36852812e-03,  2.06730708e-01,
     2.09440485e-01,  7.19995275e-02,  1.06204692e-02, -2.58721203e-01, -5.93506917e-02,  1.95192054e-01,  4.10541475e-01, -2.30214745e-02,
     9.30592045e-02,  1.93257958e-01,  2.78136004e-02, -2.37174511e-01,  1.81960851e-01,  1.90430403e-01,  3.99548886e-03, -1.50155231e-01},
   { 4.78791259e-02,  2.18923818e-02,  9.56265107e-02,  1.40325025e-01, -2.18819231e-02, -1.71939377e-02,  4.67611030e-02, -1.35269463e-01,
    -1.41609773e-01,  1.20811522e-01, -1.15630120e-01,  8.66108201e-03, -6.07648231e-02, -1.01618677e-01,  2.21386421e-02,  1.63667589e-01,
     4.66051660e-02,  8.88730809e-02, -8.76598135e-02, -4.41518463e-02,  2.59609763e-02,  3.16720195e-02, -2.95202732e-02, -1.86108977e-01,
    -5.55167149e-04,  9.61828604e-02,  2.01113187e-02, -1.76991254e-01,  1.53523050e-02,  4.07433808e-02, -1.29323006e-01, -1.11751728e-01,
    -1.15804657e-01, -8.80917534e-02, -1.04121678e-01,  1.68912590e-01, -1.74191669e-02, -3.70644443e-02,  2.16483958e-02,  2.96605118e-02,
     1.17998131e-01,  1.57581717e-01,  7.26294820e-04,  1.48687527e-01,  2.93084942e-02, -2.16631278e-01, -3.81523408e-02, -7.46443495e-02,
     1.93053838e-02,  2.14593280e-02, -1.27957612e-01, -2.77530588e-02, -8.08608234e-02,  3.95863205e-02, -1.36503205e-01, -1.94703668e-01,
    -2.14199200e-02,  7.83320516e-02, -1.45424396e-01,  1.70749336e-01,  1.65343672e-01, -1.64063007e-01,  1.68148920e-01,  4.43271361e-02},
   {-2.00912952e-01,  1.09349631e-01, -1.17371306e-01,  4.34522666e-02,  1.06530830e-01, -6.81604147e-02, -4.65023071e-02,  1.05552584e-01,
     2.32938435e-02, -3.46724615e-02,  3.78649272e-02,  2.32748426e-02,  5.85101172e-02, -9.50060412e-03, -7.83887655e-02, -8.50328617e-03,
    -1.73392132e-01,  7.84467161e-02,  9.67390537e-02, -1.10597216e-01, -9.11552086e-02,  4.08035442e-02, -1.11933559e-01,  1.09566912e-01,
     3.75428461e-02, -1.90286815e-01,  1.02826782e-01,  2.24416599e-01, -1.46852076e-01, -4.57493775e-03,  6.44929484e-02,  1.42077478e-02,
     1.49207544e-02,  2.57692542e-02,  1.17290981e-01, -9.84738693e-02,  1.33761778e-01, -1.27595142e-01,  8.12756945e-04, -1.48434918e-02,
    -3.60014737e-02,  9.94986296e-02, -1.77971691e-01, -5.74070960e-02, -1.09555908e-02,  1.32452518e-01, -1.40876472e-02,  3.26804817e-02,
    -1.43603325e-01, -5.50052486e-02, -1.55783325e-01, -1.79064617e-01, -1.55200735e-01, -4.66468930e-02, -4.48169410e-02,  1.32625461e-01,
     1.20794259e-01, -2.88459007e-02, -9.38680768e-02, -8.99341628e-02,  1.61495886e-03, -8.74738470e-02, -2.10394319e-02,  2.45835260e-02},
   { 2.24473909e-01,  2.68939704e-01,  3.06742229e-02,  3.18247080e-01, -4.14475352e-01, -1.05472943e-02, -3.58919531e-01, -4.52740848e-01,
    -3.64570141e-01, -1.70328453e-01, -9.37508792e-03,  7.56159872e-02, -6.55454025e-02,  2.53720939e-01, -1.93960518e-02,  1.66836083e-02,
    -2.19581500e-01, -4.78461608e-02,  2.45494246e-02,  9.12399143e-02, -3.73186991e-02, -1.92525119e-01,  3.42875212e-01,  1.05968185e-01,
     1.90019161e-01, -1.50654942e-01, -4.83966842e-02, -9.33120400e-02,  1.94835201e-01, -4.03067991e-02,  4.54994231e-01, -6.23001829e-02,
    -1.87984958e-01, -8.06527436e-02,  1.31020546e-01,  9.48181301e-02, -2.91405141e-01,  1.92973644e-01, -1.20361425e-01,  6.11275062e-02,
    -3.01807094e-02, -3.89781862e-01, -3.55310023e-01,  1.44090712e-01, -3.36451083e-01,  6.75166473e-02, -1.30024925e-01,  1.45624354e-01,
     1.29626259e-01, -1.21731095e-01,  2.77348250e-01, -4.47194695e-01,  1.26836792e-01, -3.02746505e-01,  1.31688982e-01, -8.45645145e-02,
     1.04823625e-02,  6.01285920e-02, -1.68879643e-01,  7.10840598e-02,  1.20204333e-02,  2.89076209e-01, -3.14607657e-02, -1.34907126e-01},
   {-2.69660443e-01,  1.15958758e-01,  4.16985691e-01, -1.79012418e-01, -2.93103158e-01,  2.51414716e-01,  1.36029482e-01,  6.38255060e-01,
     3.77382368e-01,  6.39890075e-01,  2.09594630e-02,  5.09659529e-01,  2.50158548e-01,  6.75281957e-02,  1.30229816e-01, -3.40209216e-01,
    -1.95680410e-01, -1.32556483e-01,  1.88460559e-01, -3.62645119e-01, -5.72360866e-02, -4.74798352e-01,  1.16157413e-01,  2.37427726e-01,
     5.06668508e-01, -1.99257970e-01,  4.89212722e-01,  7.29497910e-01, -2.50208508e-02,  7.61795044e-02,  4.33053255e-01,  8.10074568e-01,
     4.90804404e-01, -3.12741697e-01,  1.46452323e-01,  1.89414322e-01,  5.47992945e-01,  1.37726635e-01, -4.29284662e-01,  3.96882713e-01,
     5.47213592e-02, -2.02393815e-01,  3.59530747e-01,  2.94941396e-01,  2.51589268e-01,  1.35671422e-01,  7.97638476e-01,  3.39269936e-01,
     2.31869761e-02, -1.33426040e-01,  2.09370241e-01,  1.02076128e-01,  3.77792120e-01,  5.42785943e-01,  3.37548196e-01, -1.92755461e-01,
    -1.67789489e-01, -8.37263688e-02,  3.12419504e-01,  3.49740326e-01,  2.55767167e-01,  3.16130757e-01,  2.75851071e-01, -2.09968910e-01},
   {-2.15651393e-02,  5.30451499e-02,  8.31920058e-02, -2.18178958e-01, -1.04468390e-01,  1.72501162e-01,  1.41275469e-02,  3.24265271e-01,
    -3.15155923e-01,  1.97387248e-01,  2.62068659e-01, -3.69043797e-02, -8.65243822e-02,  9.43617597e-02, -3.97609919e-02, -5.52856401e-02,
    -1.69360608e-01, -1.22945175e-01,  3.17669600e-01,  1.13456950e-01, -2.24947765e-01, -3.60872984e-01,  3.16542834e-01,  1.15751304e-01,
    -2.53020555e-01,  1.23514175e-01, -2.48518456e-02,  1.39797673e-01, -1.51649460e-01, -2.77964860e-01, -7.07674818e-03, -2.26303682e-01,
    -4.17622700e-02,  3.64441216e-01, -5.82440048e-02, -1.46692067e-01,  1.26294911e-01,  2.21018344e-01, -7.24330842e-02, -1.32699400e-01,
    -5.42129613e-02, -2.08272226e-02,  4.73482907e-02, -6.12423904e-02, -2.01367680e-03,  1.28688931e-01,  2.04988971e-01, -5.61938919e-02,
     7.90818930e-02, -1.00448743e-01,  1.36958063e-01,  1.53246954e-01,  2.17162788e-01, -7.67117962e-02, -7.99911544e-02,  1.29118457e-01,
     1.05175123e-01,  2.67758042e-01, -8.85977875e-03,  7.35274851e-02, -2.37851799e-01, -1.59616083e-01, -1.58533379e-01, -1.05430625e-01},
   { 2.25596316e-02,  4.02971394e-02, -6.20680079e-02,  1.84697703e-01, -1.61776036e-01,  1.17005646e-01, -4.67896983e-02, -1.27372876e-01,
    -1.60287514e-01,  3.01201567e-02, -1.38992026e-01, -1.41190678e-01, -9.93029103e-02, -8.63952786e-02, -2.25554898e-01, -2.30899528e-01,
    -3.98396365e-02,  3.97308730e-02,  2.43213540e-03,  1.05245471e-01, -1.80759549e-01,  4.20215167e-03,  2.35047843e-02, -1.84870418e-03,
    -2.50530839e-01,  4.74599302e-02, -3.08780760e-01, -1.32867336e-01, -3.92773375e-02, -9.21243951e-02, -1.03020497e-01, -1.51178598e-01,
    -6.63573220e-02,  3.51051211e-01,  4.55214866e-02, -1.08707450e-01, -1.29294386e-02,  7.28396177e-02, -1.57708436e-01, -2.83763595e-02,
     2.42611602e-01, -1.46695837e-01, -2.92729568e-02, -1.92274600e-01, -7.00341389e-02, -2.72725374e-02, -1.39386028e-01, -1.55699641e-01,
     9.91351381e-02, -2.53129363e-01,  2.00494424e-01,  6.86388388e-02, -7.12167099e-02, -7.62390643e-02, -6.90274239e-02,  3.89947027e-01,
    -7.03065842e-02, -7.26001039e-02, -1.78442582e-01,  4.00888780e-03, -4.38965917e-01, -1.72559112e-01, -3.75550419e-01, -2.03459021e-02},
   {-1.27057105e-01,  2.74292320e-01,  5.72846711e-01,  6.54406324e-02, -5.96630037e-01,  2.60829348e-02,  2.29290247e-01,  5.34465611e-01,
    -4.38389974e-03,  5.50475657e-01, -3.53654027e-01,  2.40424231e-01,  5.13977468e-01,  6.11540377e-01,  3.92027944e-01, -4.33099866e-01,
     3.31450403e-02, -7.23059103e-02, -1.90007180e-01, -2.29130313e-01,  1.60848990e-01,  1.10598013e-01, -1.49837151e-01, -1.70986667e-01,
     2.68808961e-01, -4.74687845e-01,  3.24863702e-01,  5.42369723e-01, -1.83766186e-01,  2.02851892e-01,  1.23161562e-01,  9.72605705e-01,
     5.42602539e-01,  1.03389174e-01,  3.62395942e-01,  6.54535830e-01,  8.59318674e-01,  2.90977836e-01, -5.50746024e-01,  7.26027608e-01,
     2.98667550e-01, -4.23484266e-01,  4.61827248e-01, -2.46978588e-02,  2.27259174e-01,  9.30427089e-02,  9.33270028e-04,  7.66327322e-01,
    -1.64524838e-01, -2.94608414e-01,  4.73702371e-01,  1.57702535e-01,  1.50692418e-01,  6.73444033e-01,  4.31198865e-01,  2.01599017e-01,
     1.33815959e-01, -3.58502179e-01,  2.55595028e-01,  2.08657891e-01, -5.36363900e-01,  5.19744575e-01,  1.79385260e-01,  1.11599967e-01},
   {-2.14125544e-01,  1.30612373e-01,  1.06097475e-01,  9.03589427e-02, -2.31525943e-01,  7.89078474e-02, -3.49093713e-02,  7.30533451e-02,
     1.91677455e-02,  2.28500932e-01,  1.78883478e-01,  3.34570743e-02,  1.20007433e-02,  5.19733801e-02, -4.76174131e-02, -1.01771906e-01,
    -1.11605726e-01, -1.59519687e-01,  3.60880792e-02, -2.83108652e-01,  1.33702517e-01, -4.08671647e-02, -1.05030136e-02, -8.26245695e-02,
     4.23932336e-02,  2.97226608e-02,  1.30673707e-01,  1.29033066e-02, -1.62906557e-01, -1.77641079e-01,  1.24182954e-01,  3.14372182e-01,
    -2.61503714e-03, -7.09306672e-02, -2.35042702e-02,  8.59307349e-02,  4.63298149e-02, -2.68399864e-01,  7.74629414e-03, -8.16050097e-02,
    -4.32629883e-02, -9.57651958e-02, -2.84372885e-02,  6.98825270e-02, -1.33488908e-01, -9.25647765e-02,  1.06469974e-01, -8.14550649e-03,
    -1.46857783e-01, -1.06873080e-01, -1.53013943e-02,  3.04726548e-02,  2.91281249e-02,  1.95630565e-01, -1.53611034e-01, -2.56998926e-01,
     2.81334426e-02, -3.00945252e-01,  5.53584769e-02,  8.50347728e-02, -4.04349566e-01, -2.44808104e-02,  4.30240303e-01,  1.86861172e-01},
   {-4.66050714e-01,  6.29229695e-02,  6.24464750e-02, -2.62105912e-01,  1.27503574e-01, -2.45122224e-01,  2.22179480e-02,  6.14528954e-02,
     3.35487247e-01, -1.74718559e-01,  2.83810031e-02, -2.22739186e-02, -4.18537259e-02,  1.44922569e-01, -3.56610209e-01,  1.49384707e-01,
     1.12975419e-01,  7.88928419e-02,  1.14417441e-01, -3.47097874e-01,  6.10004328e-02, -1.44031718e-01,  1.08825251e-01,  2.34139562e-01,
    -2.04883963e-02,  4.52777445e-02,  1.22494698e-01,  1.89376101e-01, -4.01650630e-02, -1.53120160e-01,  4.90802228e-01, -2.10239366e-01,
    -1.39947355e-01, -2.89488062e-02,  6.47734478e-02,  2.89302729e-02, -2.74505585e-01, -1.22894451e-01, -7.73853138e-02, -7.44353905e-02,
    -2.64972389e-01,  6.96529746e-02,  1.60093248e-01, -9.92469266e-02,  6.90442324e-02, -2.05232445e-02, -1.63390949e-01, -2.02634465e-02,
    -4.90021110e-01, -7.48466477e-02, -8.07539187e-03,  7.49999890e-03,  1.46436498e-01, -1.14173025e-01, -3.00430149e-01, -4.51373905e-02,
    -6.06889948e-02,  2.87364293e-02, -2.06271142e-01, -1.32788002e-01,  1.46648124e-01, -8.41149762e-02, -5.63475899e-02, -2.24114791e-01},
   {-4.24394786e-01,  2.28042305e-01,  2.24257246e-01,  1.21538743e-01,  4.09255773e-02, -4.21714820e-02,  1.70243792e-02,  1.05656475e-01,
     1.15289032e-01,  8.82646069e-03, -3.69873457e-02,  2.09998593e-01, -5.06414995e-02, -2.97657222e-01,  6.64195120e-02, -1.96609452e-01,
    -5.50494194e-02, -3.72682847e-02,  5.43503948e-02,  8.57232660e-02, -1.33366451e-01, -5.48917148e-03, -3.68066162e-01, -5.89778572e-02,
     7.75941089e-02,  3.09050065e-02,  1.45830542e-01, -1.88129023e-01, -2.03592535e-02,  1.03853084e-01, -2.89271533e-01,  1.08115636e-01,
    -4.28429134e-02, -5.17959520e-02, -2.88444847e-01,  1.01022087e-01,  1.39041424e-01, -4.93338332e-02,  1.77246258e-01,  1.19501911e-01,
     3.66721414e-02,  7.91831017e-02,  1.56170428e-01,  2.90187113e-02,  2.20705613e-01,  1.18105389e-01,  2.16996536e-01,  1.20799087e-01,
     2.19465300e-01, -1.35173574e-01, -5.67361750e-02,  1.65291561e-03, -2.43911713e-01, -1.78194001e-01,  1.87084943e-01, -1.22221571e-03,
     1.85799807e-01, -2.69231945e-01,  2.69595552e-02, -5.77231348e-02, -1.68653294e-01,  5.66338971e-02, -3.18838596e-01,  2.07574498e-02},
   { 2.85167247e-01,  4.63993624e-02,  1.66962985e-02,  3.06749254e-01, -5.81628308e-02,  3.87981057e-01, -1.82028264e-01, -2.75753178e-02,
     1.71846569e-01,  5.61088100e-02,  3.55374306e-01, -6.02901578e-02, -9.38867033e-02, -8.27193111e-02, -5.90335159e-03, -3.95291269e-01,
     1.55070862e-02, -1.03744388e-01,  2.09846906e-02,  1.64433103e-02,  2.43374512e-01, -3.50088686e-01, -1.59379914e-01, -1.73581198e-01,
     1.41771242e-01, -1.00501940e-01, -4.40512598e-01, -7.49624148e-02, -2.66674999e-03, -1.27505630e-01, -1.61290586e-01, -8.51479694e-02,
    -4.22781445e-02, -1.93125188e-01, -4.36076075e-02, -4.55568358e-02, -1.58873022e-01, -2.63937533e-01, -2.03857780e-01, -4.95744720e-02,
    -3.04740574e-02, -2.32581854e-01, -5.05874604e-02, -2.88872831e-02, -1.16523542e-01, -3.13126236e-01,  2.88503498e-01, -2.16815829e-01,
     3.13999772e-01, -2.81030647e-02, -3.73272479e-01,  2.44953468e-01,  2.23033264e-01,  1.11032901e-02,  4.79091667e-02,  1.33915260e-01,
    -8.18969458e-02,  1.18451953e-01,  4.23267126e-01,  1.77079514e-01,  2.07682297e-01,  7.28645697e-02, -1.68019459e-01, -2.98791379e-01},
   {-2.70128399e-01, -2.46381387e-02,  4.92681682e-01, -1.10047296e-01, -3.16156864e-01,  2.66835332e-01,  3.74725580e-01,  1.19497523e-01,
    -2.45365933e-01,  5.02264798e-01, -2.12496091e-02,  4.63830471e-01,  6.13591909e-01,  4.64996904e-01,  1.88960373e-01, -2.39185572e-01,
     3.35767835e-01,  1.52940229e-01, -9.53175798e-02,  6.13890216e-02,  2.54461884e-01, -6.83375895e-02, -4.64817882e-01,  8.32095891e-02,
     1.09504029e-01,  1.14484534e-01,  3.00328225e-01,  3.47691655e-01, -3.26796293e-01,  9.56038013e-02, -1.53697774e-01,  6.64949894e-01,
     9.59752724e-02, -5.40795876e-03,  5.53944051e-01,  4.62595165e-01,  4.17694062e-01,  8.46425593e-02, -5.58618248e-01,  7.37800479e-01,
    -9.07860994e-02, -2.58670598e-01, -6.12360649e-02, -1.17158167e-01,  6.58477724e-01,  4.70768958e-01,  2.92664528e-01,  3.06991428e-01,
     5.68042276e-03, -2.47981459e-01,  2.78791219e-01,  1.67435378e-01,  5.56468517e-02,  2.48333871e-01,  1.99507847e-01,  3.03122312e-01,
    -1.91176310e-01,  1.58232749e-01,  2.49543086e-01, -3.35568488e-01, -2.16622517e-01,  2.27459043e-01,  1.24960110e-01,  1.53215855e-01},
   { 1.06730044e-01,  2.68477444e-02,  2.23363474e-01,  7.36379549e-02, -6.87979087e-02, -2.57466622e-02,  5.26161715e-02, -3.52237076e-02,
     5.97080309e-03,  3.36146764e-02, -5.02710454e-02,  5.74715175e-02, -4.14504223e-02, -5.58576956e-02, -3.56381685e-02, -3.09669990e-02,
    -1.62382945e-01,  7.94982761e-02, -3.01739480e-02, -4.55046408e-02, -2.09123164e-01, -1.26210898e-01,  1.38346225e-01, -1.22145280e-01,
     1.11737043e-01,  1.52115372e-03, -3.21482867e-02,  6.06933348e-02,  3.01402330e-01, -1.76292121e-01,  5.33782504e-02, -9.10417065e-02,
     2.60296255e-01,  8.59838948e-02, -4.24424969e-02,  3.63210216e-02,  1.18890807e-01,  7.63148442e-02, -3.39255571e-01,  4.85302582e-02,
     4.15967435e-01, -3.32923606e-02, -1.46473527e-01, -3.64338718e-02,  1.58458501e-01,  1.80097204e-02,  7.56076910e-03, -2.47782078e-02,
     3.51383463e-02, -2.61735946e-01, -5.55011258e-02, -2.10775241e-01, -2.88425922e-01,  2.69151270e-01,  2.20944509e-01,  2.24758938e-01,
     8.45666379e-02,  2.65869610e-02, -1.49684951e-01, -3.88647132e-02,  4.13842648e-01,  1.66806374e-02, -1.42885864e-01, -3.56483310e-01},
   { 1.54529408e-01, -2.43952274e-01, -9.48882774e-02,  1.24402829e-01,  2.11613670e-01,  1.72747448e-01, -1.31183222e-01, -9.42419171e-02,
    -5.17669842e-02, -2.70114124e-01,  1.43086120e-01, -5.91600463e-02, -2.77521580e-01, -3.69934067e-02, -1.38851237e-02,  3.91261041e-01,
    -2.23176941e-01, -3.18168998e-01, -2.93236934e-02,  1.68733835e-01,  6.40862659e-02, -6.54322430e-02,  7.37035125e-02,  8.44547078e-02,
     1.04313614e-02,  1.96502551e-01, -1.46825776e-01,  2.09568173e-01,  2.59844393e-01, -1.72698975e-01,  1.27424732e-01, -1.67601064e-01,
     2.36641884e-01,  1.99855477e-01, -2.68998332e-02,  6.36499375e-02, -6.12787642e-02,  7.17180073e-02, -1.42742753e-01, -1.32412747e-01,
     2.36105025e-01, -2.01034144e-01, -1.60083458e-01,  8.15070048e-03,  2.03348324e-01, -8.29754695e-02,  8.52201581e-02, -3.06728091e-02,
     6.67887479e-02, -1.52127780e-02,  8.08394998e-02,  6.39841929e-02,  2.13131025e-01, -1.75149828e-01,  5.87201305e-02,  4.70805407e-01,
     1.51289523e-01, -1.07445583e-01,  2.45530456e-02,  1.99762583e-01,  1.72287315e-01,  6.42280281e-03, -5.82897104e-02, -2.40670204e-01},
   { 5.32168671e-02, -1.35627657e-01,  3.99480373e-01,  1.15765601e-01, -3.50785881e-01,  1.33504644e-01,  1.36405453e-01,  3.48813087e-01,
    -4.05107588e-01,  3.27623606e-01,  1.00566354e-03,  1.92948610e-01, -1.60465345e-01,  1.49952009e-01,  1.47633821e-01,  1.99584529e-01,
    -1.24221109e-01, -2.01608658e-01, -6.08624592e-02, -5.43451793e-02,  1.11383297e-01,  1.33248508e-01, -1.66165769e-01, -1.29046872e-01,
     4.84642982e-02, -4.32219744e-01,  2.32384995e-01,  3.11445564e-01,  4.12539057e-02,  2.62416065e-01,  7.25598931e-02,  6.06059849e-01,
     4.32231218e-01,  3.30905735e-01,  1.60924271e-01,  1.25290126e-01,  5.20664036e-01,  3.99737358e-02, -2.23439455e-01,  3.62107366e-01,
     2.76808441e-02, -2.26940945e-01, -1.02341041e-01,  5.99884018e-02,  2.04968557e-01, -5.85772395e-02,  3.41362059e-01,  4.12335813e-01,
     1.19075060e-01, -1.13480292e-01,  2.62617856e-01, -6.44283891e-02,  6.39086515e-02,  7.60924518e-01,  2.57893056e-01,  2.90943198e-02,
    -1.06146321e-01,  3.92405123e-01, -4.11767140e-02, -6.39256760e-02, -5.33099234e-01,  3.19322020e-01,  2.19889119e-01,  1.66431278e-01},
   {-5.18709607e-02,  9.13163796e-02, -6.97894162e-03, -1.03680573e-01, -1.20922871e-01, -8.00011531e-02,  1.30330712e-01, -1.11876547e-01,
     2.03716718e-02, -4.10268083e-02,  4.08290252e-02, -7.92082846e-02, -5.70500195e-02, -2.01689824e-02,  2.17042461e-01, -3.31872165e-01,
     1.59174949e-01,  7.76473666e-03,  1.84202924e-01, -1.08876258e-01,  9.66924131e-02, -2.69006491e-01, -1.71617746e-01,  4.71542738e-02,
    -1.74323872e-01, -3.54780839e-03,  1.51101528e-02, -1.29718512e-01, -3.27666342e-01, -1.20402075e-01, -2.79490054e-02, -1.37258634e-01,
    -1.04228660e-01,  2.43696924e-02,  1.34250522e-01, -1.54100701e-01, -2.04231679e-01, -1.68108493e-02, -3.01398963e-01, -7.37076029e-02,
    -1.41398326e-01, -1.21945195e-01,  3.20094414e-02, -1.36218727e-01,  6.81802109e-02,  2.03846350e-01,  1.37871996e-01, -1.18810080e-01,
    -4.71163318e-02, -2.18314335e-01, -2.35702395e-01,  1.35104209e-01, -5.30567057e-02, -3.55317444e-01, -1.83228195e-01,  1.33577690e-01,
    -2.97026336e-01, -1.67506322e-01,  3.70719135e-02, -8.56817365e-02, -7.15280548e-02, -2.13959545e-01, -2.98069656e-01, -4.20812100e-01},
   {-2.88853049e-01,  2.67722279e-01,  2.51462668e-01, -1.15294337e-01, -3.19855779e-01,  4.65300903e-02,  2.00407639e-01,  5.36052883e-01,
     6.36029467e-02,  2.69554347e-01, -9.22866315e-02,  4.09737408e-01,  3.98296326e-01,  9.28276181e-02,  4.07210469e-01, -6.94275796e-01,
     1.60085991e-01,  3.50530237e-01,  3.76480192e-01, -1.12557650e-01,  6.69834241e-02, -7.06827760e-01,  1.53485194e-01,  2.05708101e-01,
     1.95762515e-01,  2.90332045e-02,  2.11433291e-01,  1.95154577e-01, -5.36570132e-01, -1.77130967e-01,  6.10702574e-01,  1.54786125e-01,
     3.92762750e-01,  1.39316350e-01,  1.71841756e-01,  2.44681433e-01, -3.44594091e-01,  3.27805310e-01, -2.93596894e-01,  2.86216885e-01,
     4.19253409e-02, -1.31110504e-01,  6.96108341e-01,  1.22507319e-01,  3.43618542e-01,  1.82329789e-01,  2.28074342e-01,  2.50226967e-02,
    -7.55700991e-02, -1.18644297e-01, -8.74934271e-02,  3.21681112e-01,  1.76911920e-01,  2.41495341e-01,  1.52417526e-01,  1.75750792e-01,
    -5.16596623e-03, -4.14283536e-02,  2.27273524e-01, -3.39875231e-03, -5.72263479e-01,  2.45212838e-01,  4.11449224e-02, -3.46537113e-01},
   {-5.14320657e-02,  4.16765988e-01,  3.60467583e-01,  1.79709151e-01, -2.99698353e-01, -4.81077917e-02, -2.42497027e-02, -4.68393028e-01,
     2.02429101e-01,  5.90139806e-01,  3.10791105e-01,  4.13920343e-01,  4.41771686e-01,  9.11626220e-02,  5.26317298e-01, -5.23786008e-01,
     7.61961579e-01, -2.46885136e-01, -3.80506366e-02, -5.55774719e-02,  1.55997053e-01, -7.92885065e-01, -4.15810257e-01, -4.61328357e-01,
     1.81156576e-01, -4.47541028e-01,  2.67494410e-01, -6.64036155e-01,  1.47129238e-01,  1.36671156e-01, -2.82270551e-01,  4.16385323e-01,
    -3.21817338e-01,  3.88260871e-01,  2.93031275e-01,  3.21284741e-01,  1.51494458e-01,  7.29369465e-03, -5.64285696e-01,  3.71047020e-01,
    -2.67676264e-01, -4.14874226e-01, -1.60857379e-01, -4.05352861e-01, -5.94574772e-02,  4.70492035e-01,  2.94674575e-01,  4.40198272e-01,
     9.87071469e-02,  3.79811227e-02, -1.04179852e-01,  1.16956934e-01,  1.50525138e-01,  2.40902230e-01,  1.85333878e-01, -3.83222811e-02,
    -1.68469012e-01,  5.81632137e-01,  3.14127535e-01,  3.68519187e-01,  4.00467783e-01,  2.38695085e-01,  4.09556985e-01, -1.79954156e-01},
};

const float GRNN1_U[32][32] = {
   { 2.35563815e-01, -4.76638451e-02, -1.48142791e+00, -4.28306669e-01,  1.99968249e-01,  2.93529242e-01,  1.83881238e-01,  1.45572171e-01,
     4.73127253e-02, -7.87607670e-01,  3.76891404e-01,  4.58919078e-01,  7.11966217e-01,  1.63164604e-02,  4.68928367e-01,  3.49066377e-01,
    -2.69764662e-01,  5.55392146e-01, -1.12708294e+00, -8.44372809e-01,  2.84742057e-01, -1.76677316e-01, -4.90685463e-01,  2.85187270e-03,
     2.42872052e-02,  3.54804069e-01, -7.31554627e-02, -1.86121568e-01,  6.00120068e-01, -4.28685665e-01,  7.44471788e-01, -3.51241045e-03},
   { 1.25753865e-01,  2.11295694e-01,  8.04909706e-01, -3.14893275e-01, -2.52668828e-01, -1.46505922e-01, -5.16560860e-02, -9.33107063e-02,
     1.99784562e-01,  1.28286958e-01,  1.07602477e+00,  7.79117048e-02,  1.39958382e-01,  2.43355595e-02, -9.78017300e-02, -2.19815239e-01,
     2.49811158e-01, -3.92429680e-01, -4.43706989e-01,  4.02484015e-02, -1.32611454e-01, -5.82271636e-01, -8.47844481e-02,  5.02999723e-02,
     3.94588977e-01, -2.26234719e-01,  4.83423054e-01, -4.77730036e-02, -2.46265233e-01,  3.28705043e-01, -3.07426974e-02, -2.64273286e-01},
   { 3.16732466e-01, -4.00559336e-01, -6.51953161e-01,  7.39423335e-01,  1.70163810e-01,  3.36359888e-01,  1.70907363e-01, -1.59341201e-01,
     5.19814566e-02, -1.57176509e-01, -3.07890236e-01, -3.90005074e-02, -1.49495095e-01,  9.99284834e-02, -2.73126006e-01,  3.09154391e-01,
     4.37070914e-02,  4.14141864e-01, -3.21290307e-02, -8.17669392e-01,  1.40779316e-01,  5.43392301e-01,  1.41085833e-01,  5.05781531e-01,
    -1.96495697e-01,  1.84702501e-01,  3.12608778e-02, -4.64286447e-01, -7.71850813e-03,  2.23132342e-01,  5.09879768e-01, -1.57221183e-01},
   {-3.36514384e-01, -3.90682340e-01, -7.23649979e-01,  1.48899540e-01,  3.68559927e-01,  8.03454876e-01, -3.38608623e-01, -4.54466999e-01,
     2.80063719e-01, -9.86290500e-02,  4.66118097e-01, -3.67636055e-01, -3.77647549e-01,  1.38509437e-01,  2.10752070e-01,  3.46438661e-02,
    -2.17593685e-01, -3.10030133e-01,  3.43095094e-01,  4.11025077e-01, -5.72506309e-01,  3.45799774e-01, -3.06876123e-01,  4.88259286e-01,
    -1.42323732e-01, -6.93430007e-01, -7.46429682e-01,  2.51785159e-01, -2.01527268e-01, -2.21502796e-01, -6.06749766e-02,  1.07150480e-01},
   {-2.32338935e-01, -2.37855777e-01,  1.14345707e-01, -1.47958279e-01, -4.92657572e-02, -1.72992777e-02, -5.05127430e-01,  3.88457537e-01,
    -3.23450118e-01, -2.47755617e-01,  2.85823017e-01,  2.92042643e-01,  5.07132225e-02, -1.85777783e-01,  2.36095935e-01, -7.50171721e-01,
    -2.65335739e-01,  1.05170794e-01,  2.12000728e-01,  7.70792425e-01, -4.00613882e-02, -3.50897253e-01, -3.32743585e-01, -2.53274024e-01,
     8.24795485e-01, -8.00844282e-02, -5.41165531e-01,  6.82408273e-01, -3.97737890e-01,  2.55522388e-03,  1.86803620e-02,  3.07093412e-01},
   { 2.97469851e-02, -2.90300339e-01, -2.90006042e-01, -3.39192241e-01,  2.26278961e-01, -1.45931365e-02,  4.32122946e-01,  8.01588833e-01,
     2.13404655e-01,  1.22779340e-01, -3.16498816e-01,  8.66933703e-01, -5.33418870e-03,  1.66893173e-02,  2.08956897e-01, -2.02225000e-01,
     2.51425892e-01,  3.92145216e-01, -1.14724159e+00, -8.87152855e-04,  9.77787152e-02,  2.35541031e-01,  5.36641777e-02,  1.61268666e-01,
     2.55946577e-01,  5.78709602e-01,  3.00584078e-01, -1.19978130e+00,  2.84397125e-01, -6.60499185e-02,  1.56727239e-01,  2.56410629e-01},
   { 2.99008608e-01, -5.38229942e-01,  8.67054835e-02,  8.00105408e-02,  9.63755131e-01, -2.58043170e-01,  1.22853704e-01, -2.77015179e-01,
     1.87428758e-01, -4.40616533e-02, -8.22052732e-02,  1.29958019e-02, -3.48160923e-01,  7.11462349e-02, -3.01709592e-01,  1.35755330e-01,
     1.71137631e-01,  1.09922796e-01,  4.44477946e-02,  6.46541953e-01, -1.82126403e-01,  1.02492285e+00, -2.79095829e-01, -4.27216068e-02,
    -2.25960866e-01,  2.02383712e-01, -3.75098130e-03, -7.72630215e-01,  7.18872920e-02, -3.91910464e-01, -3.90141517e-01,  3.62036563e-02},
   { 3.40492696e-01,  2.91120410e-01, -2.62952298e-01,  1.52021959e-01, -4.88479406e-01, -8.15415289e-03,  1.53475860e-03, -1.76116481e-01,
     6.34634972e-01,  5.23750901e-01, -5.88423014e-01, -3.18194032e-01,  2.05111846e-01,  5.07493973e-01,  3.57043713e-01,  3.53176504e-01,
    -2.61777043e-01,  2.73667753e-01, -4.41062123e-01, -1.84215195e-02,  1.49061859e-01, -4.97582436e-01, -4.24209088e-01, -2.78990120e-01,
     5.45982737e-03,  7.98153430e-02, -1.98180616e-01, -1.40130475e-01, -1.17768638e-01,  1.31716877e-01,  2.39915833e-01, -2.64893472e-01},
   {-2.94181108e-01,  3.16108853e-01,  1.40236408e-01,  3.17266494e-01, -4.52090412e-01, -3.83043766e-01, -2.89214015e-01, -3.51485848e-01,
     9.24817026e-01, -1.82623282e-01, -3.17447424e-01, -2.53516257e-01, -1.24770030e-01,  3.67417306e-01, -1.03237860e-01, -2.17207596e-01,
    -4.27745342e-01, -1.00808419e-01, -6.25058949e-01,  3.52330387e-01, -2.68628448e-01, -2.37554356e-01, -5.41813016e-01,  5.21376908e-01,
     5.18867671e-01, -7.76708871e-03, -5.71966112e-01,  8.94156396e-01, -3.36100698e-01,  3.33430320e-02, -5.33354096e-03, -1.52299613e-01},
   {-4.09698218e-01,  1.43016949e-01, -3.39641348e-02,  9.62609276e-02,  1.15595562e-02, -1.60161853e-01, -4.13717538e-01, -6.37293309e-02,
     2.23548278e-01,  5.09113252e-01,  6.53957248e-01,  1.43759027e-02, -5.72346151e-01,  3.27280015e-01, -1.02119014e-01, -1.30122164e-02,
     6.88872755e-01, -6.64254010e-01, -8.07599127e-02,  3.21208596e-01, -4.66891497e-01, -5.36068678e-01,  3.15993577e-01, -7.79730856e-01,
     6.94399953e-01, -4.91409868e-01,  1.61710262e-01, -1.37238368e-01,  1.84649348e-01, -2.23311454e-01, -2.13568628e-01, -6.36722922e-01},
   { 2.64331698e-01,  1.40416726e-01,  7.72372186e-01, -1.88108772e-01, -2.94807196e-01, -2.39136964e-02, -1.26507819e-01,  1.93577155e-01,
    -4.03567165e-01, -7.47624516e-01, -8.13740045e-02,  7.92189464e-02, -2.92188693e-02, -3.43927771e-01,  9.92431268e-02, -2.46671572e-01,
     4.59600359e-01, -2.84704030e-01,  4.72881496e-01,  2.13934705e-01,  1.58020794e-01, -1.49889290e-01,  7.58751156e-03, -3.26262712e-01,
    -3.68249327e-01,  1.88742787e-01,  1.83118194e-01, -3.01703542e-01,  4.29549336e-01, -2.35841855e-01, -1.53988019e-01,  1.86022565e-01},
   { 1.62333012e-01, -1.86031774e-01,  3.33712459e-01,  4.85360324e-01, -9.89027023e-01,  1.62998319e-01, -3.22434723e-01,  1.30828762e+00,
    -6.27547562e-01, -1.96984068e-01, -3.01345199e-01, -2.25788891e-01, -8.39623883e-02,  1.72571912e-01,  1.05998114e-01, -2.42696777e-01,
     9.50055346e-02, -8.49673375e-02, -1.07827358e-01, -2.42649958e-01,  1.24111712e-01, -1.69554532e-01, -2.19541648e-03,  9.24823582e-02,
     7.52962828e-01,  3.25185746e-01, -2.62974232e-01, -2.99888588e-02, -6.86663091e-02,  6.47376776e-02,  1.32135928e-01,  3.74174058e-01},
   {-3.21050584e-01, -2.66680062e-01, -4.67789888e-01,  4.13503468e-01,  1.01904303e-01,  3.40090871e-01, -2.95556694e-01,  3.46426249e-01,
    -4.82000023e-01,  1.37512200e-02,  8.98807526e-01,  6.41851544e-01,  4.79215473e-01,  9.40370038e-02, -9.29212756e-03,  5.67909442e-02,
     3.49830002e-01,  2.44241655e-01, -6.47097468e-01, -1.09818302e-01,  3.20037380e-02, -3.73393178e-01, -3.59788798e-02, -1.45115659e-01,
     9.01499629e-01, -2.74534732e-01, -8.56332257e-02,  3.13714117e-01,  1.14481069e-01,  3.38470101e-01, -1.29288092e-01,  5.57962619e-02},
   {-1.11164756e-01,  4.49549794e-01, -8.38738009e-02,  8.89343202e-01, -4.10165995e-01,  8.25537562e-01,  1.17285550e-01,  7.99333692e-01,
    -4.95600924e-02,  3.30017269e-01,  8.01490486e-01,  2.07732260e-01, -6.77101687e-02,  1.01215863e+00, -2.95575917e-01, -1.86414257e-01,
     4.74743545e-03, -3.31205040e-01, -1.01936996e-01, -5.56527555e-01, -2.72368759e-01, -6.63365781e-01, -7.66728967e-02,  9.58703607e-02,
     6.79508507e-01, -4.58590835e-01,  5.27460650e-02,  7.87686110e-01, -3.05136204e-01,  4.34941947e-02,  4.21175241e-01,  1.77953541e-01},
   { 3.82702099e-03, -3.57859507e-02,  4.21274714e-02, -2.67914414e-01, -4.74326611e-01, -1.04414276e-03, -6.21939301e-01, -6.61085188e-01,
    -5.93619198e-02, -2.94992793e-02, -7.76723087e-01, -6.11322165e-01,  2.76149273e-01, -4.75519717e-01,  4.51113611e-01,  1.44863024e-01,
     3.38021554e-02,  1.04429103e-01,  4.59360510e-01,  4.03716475e-01,  5.13133071e-02,  2.49685064e-01,  1.57068446e-01, -4.67069209e-01,
    -4.46351357e-02, -2.29816362e-01, -2.47931220e-02,  1.15163222e-01,  4.59492683e-01,  1.12482131e-01,  1.58816621e-01, -7.03248382e-01},
   {-2.90768892e-01,  2.35773828e-02, -2.72151262e-01, -1.06441453e-01,  9.22358409e-02, -5.73216200e-01, -1.23478502e-01, -6.81830049e-02,
     4.59980279e-01,  1.06011748e-01, -6.07710004e-01, -7.25685835e-01, -5.52008264e-02, -3.55352938e-01,  1.67839408e-01, -1.11277141e-02,
    -1.27925724e-01,  4.82782304e-01,  1.98796555e-01,  4.80083883e-01, -2.34813854e-01,  6.01342380e-01, -1.56220466e-01, -3.99199098e-01,
     1.82923630e-01, -3.32521014e-02, -6.16166353e-01, -1.52165145e-01,  7.80474246e-02, -7.90212601e-02, -5.65428957e-02, -3.53932142e-01},
   { 1.08570620e-01, -2.85847098e-01,  3.91516000e-01,  7.83855200e-01, -4.45039660e-01,  3.30898166e-01, -5.19698501e-01,  2.75737405e-01,
    -3.38650703e-01, -6.06269598e-01, -3.02287638e-01,  3.84929478e-01,  1.92073658e-02,  2.00797349e-01, -3.40026543e-02, -5.59530675e-01,
    -5.74474744e-02, -1.07221417e-01,  3.69869508e-02, -2.40149528e-01, -6.53116703e-02, -2.74647266e-01, -1.29859924e-01,  1.11776032e-01,
     6.90120757e-01,  5.88709190e-02, -1.29813194e-01, -1.84365541e-01,  4.97958541e-01,  7.50696242e-01, -5.86606264e-01, -9.36761424e-02},
   {-2.06969857e-01, -2.36100078e-01, -1.21744978e+00, -1.36114913e-03, -3.33069414e-01,  7.39044905e-01, -4.19846743e-01, -5.06848563e-04,
    -1.08938970e-01, -4.53612804e-01,  1.11785758e+00, -1.65419683e-01,  7.41847336e-01,  1.76525503e-01,  2.12822571e-01,  5.54324329e-01,
    -5.52365780e-01,  1.76651716e-01, -2.11918876e-01, -8.87933224e-02, -1.42264590e-01, -5.38585007e-01, -9.14097056e-02,  1.51801500e-02,
    -2.62537152e-01, -1.78486183e-01,  2.07612831e-02, -1.37404099e-01,  1.90335572e-01, -4.93505709e-02,  3.84632379e-01,  6.19482808e-02},
   {-1.76571146e-01, -7.82905594e-02,  2.88683362e-03, -4.48591202e-01,  5.35752416e-01, -9.53797325e-02, -5.68576932e-01, -5.28404675e-02,
     7.95863420e-02, -5.79354882e-01, -3.90148848e-01,  7.22233504e-02, -1.32659078e-01, -2.39940688e-01, -2.86969513e-01, -7.13457525e-01,
     8.06396231e-02, -9.44359228e-02,  2.69171089e-01, -1.68429278e-02,  3.94891351e-02, -3.01605999e-01,  2.25711167e-01, -2.93138057e-01,
     6.60594106e-02, -4.21847478e-02, -2.78024167e-01, -4.57740277e-02,  2.37280458e-01,  7.50578403e-01, -1.77316010e-01,  3.62119712e-02},
   {-1.27291188e-01, -2.74794847e-01, -1.22358017e-01,  5.21811843e-01,  4.74014550e-01,  2.86919773e-01, -5.11085927e-01, -3.98541749e-01,
    -3.50911021e-01, -7.26684928e-01, -4.85968679e-01,  1.13353774e-01, -3.54611605e-01, -2.09864378e-01, -3.66736948e-01, -2.75999695e-01,
    -1.48217589e-01, -1.64914519e-01,  8.64535391e-01,  3.11673107e-03, -1.85723826e-01,  8.44834447e-01,  6.82218671e-01,  7.52339289e-02,
    -4.30102855e-01, -6.25474192e-03, -1.72386646e-01, -1.69700861e-01,  8.42712224e-02,  2.14586437e-01,  5.37339225e-02,  6.91086128e-02},
   {-2.06427798e-01,  1.00052366e-02, -1.26937854e+00,  1.71688557e-01, -3.76046211e-01,  2.37275600e-01, -3.99017632e-01,  2.44785592e-01,
    -1.95733488e-01, -9.00660157e-01,  5.54711461e-01, -3.00698668e-01,  7.09867299e-01,  3.59048732e-02,  2.32162908e-01,  3.26686025e-01,
    -3.48821700e-01,  3.44880790e-01, -2.60037035e-01, -6.33986712e-01,  3.21329594e-01, -4.93385971e-01, -3.49393845e-01,  4.20803837e-02,
     2.50421673e-01,  7.81712085e-02, -2.11558014e-01,  2.06708997e-01,  5.53629279e-01,  3.91486347e-01,  2.73852736e-01, -5.54726422e-02},
   {-3.74747097e-01, -1.87161282e-01,  1.84624076e-01, -7.89717138e-02,  5.30848384e-01, -1.09528475e-01, -4.65760589e-01, -2.84861088e-01,
     2.26113081e-01, -6.40383065e-02, -3.80775146e-02,  5.96603215e-01, -1.33169338e-01, -1.52262822e-01,  3.01927209e-01,  2.90978253e-01,
    -5.43615706e-02,  2.28371128e-01,  6.77709699e-01,  4.87132668e-01, -1.82206348e-01,  3.32010895e-01, -2.45197006e-02,  5.86366467e-02,
     1.93637758e-01, -3.24660748e-01, -3.13924849e-01,  6.89729333e-01, -7.59848282e-02, -1.64347261e-01, -3.49838436e-02,  1.73479870e-01},
   {-1.29188731e-01, -9.71290395e-02,  8.47095549e-02,  4.33223359e-02, -7.08972812e-02,  2.66291559e-01,  2.03321725e-01, -1.79731593e-01,
    -6.48894727e-01,  7.03916013e-01,  4.75059122e-01,  3.73640865e-01, -1.98044568e-01, -2.86649942e-01,  8.15350935e-02,  9.64091569e-02,
     4.47042614e-01, -3.62448394e-01,  2.35656917e-01,  9.81378555e-02, -3.40591729e-01, -1.43796057e-01,  6.42135665e-02, -2.83423215e-01,
    -3.66670519e-01, -6.48967996e-02,  3.24982584e-01, -1.84789717e-01, -3.86211388e-02, -4.35508013e-01,  1.18122600e-01,  2.58518271e-02},
   { 1.01209491e-01,  3.99249166e-01,  1.55004978e-01,  5.14785290e-01,  2.34122738e-01,  1.67349249e-01, -5.17496347e-01, -2.01581523e-01,
     1.76616848e-01, -5.35051107e-01,  2.53178507e-01, -1.71081170e-01, -1.09788254e-01,  4.88889366e-01, -2.20374521e-02, -3.70798171e-01,
    -4.12333965e-01, -6.67433217e-02, -3.85070831e-01,  2.57858068e-01, -1.11850388e-01,  1.17678814e-01, -4.42191929e-01,  6.54133320e-01,
     2.34799817e-01,  3.85225774e-03, -4.44257617e-01,  1.32977808e+00, -3.87908608e-01, -7.55656138e-02,  4.67886955e-01,  3.25882107e-01},
   {-3.72614950e-01, -1.20075122e-01, -3.15634608e-02, -1.16403766e-01, -9.60029066e-02, -7.03024417e-02,  2.46833384e-01, -5.77745795e-01,
     4.51965988e-01,  1.16874114e-01,  1.75410256e-01,  1.33434832e-01, -5.38200550e-02,  5.15679777e-01, -2.55137622e-01, -5.90713620e-01,
     2.62742221e-01,  1.48569062e-01,  1.73436999e-01, -6.28856644e-02, -5.96250370e-02, -5.74937522e-01,  1.51339145e-02, -1.51992947e-01,
     7.05477476e-01, -1.96709737e-01, -2.60130912e-01,  1.32208362e-01,  1.20068058e-01, -1.31654218e-01,  3.28216612e-01, -1.30046278e-01},
   { 4.22841132e-01,  1.03635281e-01, -1.08335292e+00, -1.92146063e-01,  2.43527237e-02,  3.86664271e-01, -9.79121588e-03,  1.44677475e-01,
    -7.59483129e-02, -9.37808573e-01,  3.05672318e-01, -2.49645695e-01,  5.04314363e-01,  2.07163662e-01,  2.56361634e-01,  3.26409221e-01,
    -4.67020512e-01,  2.36867309e-01, -3.91737729e-01, -4.87695992e-01,  3.36393297e-01, -4.83399689e-01, -2.38093615e-01,  6.43010661e-02,
    -1.81805834e-01,  3.73370737e-01, -6.43570572e-02,  3.47873271e-02,  5.59212804e-01, -3.51056606e-02,  5.45588136e-01,  1.05683349e-01},
   { 3.36261421e-01,  7.41805792e-01,  1.20563352e+00,  3.54033619e-01, -2.17083335e-01, -2.50385582e-01,  4.45165247e-01,  1.70033038e-01,
    -3.37702245e-01,  2.38305375e-01,  3.37096453e-01,  2.42674515e-01,  2.96243634e-02, -2.67790146e-02,  1.83183357e-01,  8.40860158e-02,
     2.80481488e-01, -2.38312632e-01,  1.80856094e-01,  5.48880026e-02,  2.59363443e-01, -3.02139878e-01,  9.15745720e-02,  1.43517435e-01,
     2.29284987e-01,  1.18207440e-01,  4.86253560e-01,  1.05387174e-01, -4.06223387e-01, -4.34227765e-01, -8.40723366e-02, -1.09042535e-02},
   {-9.16902721e-02,  2.55031645e-01,  1.13226343e-02, -2.01794744e-01, -6.92549467e-01,  6.38383031e-01,  1.50182173e-01,  1.21389274e-02,
    -3.40391546e-01,  6.88643396e-01,  2.94464558e-01, -1.11036293e-01,  2.29434207e-01,  8.85758847e-02,  6.75751921e-03,  2.26302624e-01,
     3.19360971e-01,  5.30787170e-01,  4.58386213e-01, -4.05934274e-01,  1.47833899e-01, -5.21752954e-01,  6.34895191e-02, -3.08529943e-01,
    -4.62925583e-01, -2.79492795e-01,  2.32051551e-01,  2.38167673e-01,  3.31368089e-01, -3.38232607e-01,  2.51530021e-01, -3.97478640e-02},
   {-1.30626947e-01,  5.37574351e-01,  1.57050744e-01,  9.74595100e-02, -7.92499781e-01, -3.35869730e-01,  4.29864973e-01, -3.69487144e-02,
     6.08802326e-02,  5.79305813e-02,  1.20641661e+00, -5.14239013e-01, -1.25186116e-01, -1.74173355e-01,  3.64088386e-01,  5.01358330e-01,
     4.07062590e-01, -2.56197453e-02, -4.99593019e-02, -2.98838645e-01, -1.89781740e-01, -1.46154881e-01,  3.81490402e-02, -5.82000203e-02,
     1.75063685e-01,  5.44433929e-02,  4.51525897e-01,  1.06525598e-02, -4.48360234e-01,  6.55522272e-02, -1.79453611e-01,  6.59630671e-02},
   {-2.07519844e-01,  1.78068504e-01, -8.93434361e-02, -2.46948481e-01,  1.55236451e-02, -2.75459200e-01, -4.64846306e-02, -1.19481400e-01,
     3.31961036e-01,  2.71385580e-01,  4.11782339e-02,  4.58419025e-02,  1.63294733e-01, -2.65468776e-01, -4.48187068e-02,  1.61007568e-01,
    -1.22733982e-02, -9.43028182e-02, -6.59855306e-01, -3.89566839e-01,  8.99406075e-02, -4.25327301e-01, -2.11010769e-01, -1.07542932e-01,
     3.99179101e-01,  1.75883695e-01, -3.06035012e-01, -2.61136055e-01,  1.06448114e-01,  1.94724053e-01,  4.16146308e-01, -4.31460679e-01},
   {-1.29646316e-01, -1.91220984e-01, -3.59363586e-01, -1.31813616e-01,  8.50837529e-01,  3.72841716e-01,  7.88072031e-03,  6.77003920e-01,
    -4.66430962e-01, -3.49123478e-02,  6.19749904e-01,  6.72719002e-01,  2.15153366e-01,  4.10198756e-02, -1.07181650e-02, -1.47810638e-01,
     3.47287297e-01, -1.49323093e-02,  3.63575339e-01, -2.34905437e-01,  2.93309391e-01, -1.70334429e-01,  4.90680695e-01,  2.19415456e-01,
    -2.64700465e-02,  5.73073745e-01,  2.46400923e-01, -4.65252310e-01,  1.11649092e-03,  4.83344048e-01,  6.98892355e-01,  4.50121343e-01},
   { 3.09584528e-01,  2.09144101e-01, -1.33849335e+00, -1.33661419e-01,  3.35471869e-01,  1.05919325e+00,  2.14083761e-01,  3.13904822e-01,
     1.18179163e-02, -2.38703892e-01,  6.94372356e-01,  3.44729483e-01,  3.92875582e-01,  2.18591288e-01,  2.48386472e-01,  3.72544289e-01,
    -2.32793644e-01,  5.03018081e-01, -5.74716449e-01, -2.28877798e-01,  1.86657339e-01, -1.71800911e-01, -2.56521791e-01,  4.84063059e-01,
    -2.14253455e-01,  2.77470261e-01,  2.08219513e-01, -1.00440943e+00,  8.50831091e-01,  2.69610196e-01,  3.62118661e-01,  4.90804136e-01},
};

// clang-format on


#endif // __FASTGRNN_GRNN1_PARAMS__

