#ifndef __FASTGRNN_GRNN0_PARAMS__
#define __FASTGRNN_GRNN0_PARAMS__

#define GRNN0_HIDD_DIM0 (32)
#define GRNN0_HIDD_DIM1 (64)

// clang-format off

const float GRNN0_ZETA = (1.500865e+00);
const float GRNN0_NU = (-5.241538e+00);

const float GRNN0_BIAS_UPDATE[64] = 
   { 7.54972219e-01,  8.46091270e-01,  8.88783932e-01,  9.23906744e-01,  3.64556015e-01,  1.19381452e+00,  8.53923678e-01,  5.69832742e-01,
     8.13066483e-01,  1.01445591e+00,  9.66500878e-01,  1.09230530e+00,  9.94491935e-01,  7.93981671e-01,  1.13543856e+00,  8.23759675e-01,
     1.02175474e+00,  9.50471580e-01,  9.78385746e-01,  9.60071862e-01,  1.21189499e+00,  7.77375042e-01,  8.17980886e-01,  7.54763782e-01,
     1.52605867e+00,  9.16600287e-01,  6.82855010e-01,  7.06994116e-01,  7.67740667e-01,  8.98664415e-01,  8.20180714e-01,  1.19067883e+00,
     6.15476549e-01,  5.13488650e-01,  8.57659996e-01,  1.60028076e+00,  1.17207968e+00,  9.24882948e-01,  8.59220922e-01,  1.25381625e+00,
     8.44420314e-01,  3.32829714e-01,  9.23326373e-01,  8.32077265e-01,  1.07788444e+00,  8.73046041e-01,  1.01824737e+00,  8.96800101e-01,
     6.55977607e-01,  5.67839503e-01,  7.70440996e-01,  1.76408207e+00,  1.22023344e+00,  7.47342467e-01,  1.69443619e+00,  6.00937963e-01,
     1.23431861e+00,  9.20152962e-01,  9.53247547e-01,  9.30398166e-01,  4.42743152e-01,  1.20062006e+00,  5.81570506e-01,  1.36792457e+00};

const float GRNN0_BIAS_GATE[64] = 
   { 2.06123853e+00,  1.32140064e+00,  1.14159274e+00,  2.09722447e+00,  1.40301335e+00,  1.30710185e+00,  1.80844057e+00,  2.15552545e+00,
     1.49963260e+00,  1.29319274e+00,  1.01982856e+00,  1.27613640e+00,  1.66220856e+00,  1.76453996e+00,  1.53289068e+00,  1.82252574e+00,
     1.42698836e+00,  1.41607547e+00,  1.32067144e+00,  1.55030727e+00,  4.78145123e-01,  9.78691399e-01,  1.63111210e+00,  1.78950942e+00,
     1.28094614e+00,  3.27500463e-01,  1.79781187e+00,  2.07658505e+00,  2.02268696e+00,  1.18854737e+00,  1.98523402e+00,  1.64897919e+00,
     1.80834699e+00,  1.75199306e+00,  1.29702461e+00,  1.18778694e+00,  1.26292646e+00,  1.54251230e+00,  1.00162101e+00,  1.45872819e+00,
     7.35030890e-01,  1.33617342e+00,  1.30806649e+00,  5.15784681e-01,  1.58691895e+00,  1.52713382e+00,  1.82770240e+00,  1.26018882e+00,
     1.93459272e+00,  1.06968570e+00,  1.21718323e+00,  6.22120686e-02,  1.17387652e+00,  1.21177351e+00,  1.24187183e+00,  2.05483651e+00,
     1.08784389e+00,  1.27227390e+00,  1.47928441e+00,  1.61813998e+00,  1.15853894e+00,  1.48850214e+00,  1.46097445e+00,  8.84315252e-01};

const float GRNN0_W[64][32] = {
   { 1.91807643e-01, -1.05762243e-01,  1.76443815e-01,  1.36318564e-01,  4.24940646e-01,  2.18438334e-03,  1.24908779e-02, -4.70144778e-01,
    -5.09196818e-01, -1.91927940e-01, -6.60461094e-03,  1.22933075e-01, -5.89520112e-02, -3.96668874e-02, -1.26173601e-01, -1.46496817e-01,
     6.04880042e-03,  3.26801807e-01,  3.74576971e-02, -2.76070178e-01, -9.99524295e-02,  1.45333514e-01, -8.58532116e-02, -2.77110338e-02,
    -8.69910792e-02,  3.33853662e-02, -1.84582382e-01,  9.46363509e-02, -8.73399377e-02,  5.35466224e-02,  1.05367869e-01,  3.96181703e-01},
   { 1.92220863e-02,  5.57422899e-02, -2.01196149e-01, -4.91124988e-01, -5.24463773e-01, -5.63935339e-01, -2.23151281e-01,  1.24872118e-01,
     5.25343955e-01,  3.04596901e-01,  7.21160769e-01,  4.00047600e-01,  1.58289298e-01, -2.04881549e-01, -7.28503540e-02,  1.09184552e-02,
     2.12000012e-01, -6.99475780e-02, -1.11744227e-02, -6.13094792e-02, -1.54505357e-01,  7.33642578e-02,  5.55450656e-02,  1.15130529e-01,
    -2.16638952e-01, -1.55636430e-01,  3.20721529e-02,  1.64632484e-01,  1.80964440e-01,  6.91248327e-02,  7.00666010e-03,  1.39975488e-01},
   { 2.11773321e-01,  1.44286409e-01,  1.31685331e-01,  3.90376896e-01,  4.31805413e-04,  2.14101911e-01,  1.93053499e-01,  7.48063326e-02,
     1.52858675e-01,  1.56857699e-01,  1.24318026e-01,  1.90568477e-01,  5.92236340e-01,  1.70263812e-01,  8.12759325e-02, -1.35939464e-01,
    -9.20529515e-02, -8.81158262e-02,  1.53295100e-01,  1.10769615e-01,  1.72021717e-01,  1.91252068e-01,  2.23195210e-01,  8.03930387e-02,
    -6.37402013e-02,  2.51962513e-01,  1.11469097e-01,  3.81133199e-01, -4.41312604e-03,  1.29837707e-01,  1.01804867e-01,  1.28886968e-01},
   { 2.51719028e-01, -3.36393602e-02, -1.43549278e-01, -8.48115683e-02, -1.91311523e-01, -3.01617123e-02,  2.17999414e-01,  3.33372727e-02,
    -2.23878339e-01, -1.02951825e-01,  8.07546824e-02, -9.65898111e-02, -2.29518101e-01, -9.29746628e-02, -1.16597436e-01, -4.57505472e-02,
     3.39386500e-02, -5.50104156e-02,  1.52080700e-01,  2.09566996e-01, -2.62617227e-02, -1.25648044e-02, -4.82195318e-02, -1.62645936e-01,
    -1.53540328e-01, -6.42127469e-02, -5.60297491e-03,  1.03668207e-02,  4.53269370e-02, -1.51396720e-02,  1.41569182e-01,  1.07964113e-01},
   {-2.72821516e-01,  5.25920615e-02, -9.14013758e-02, -4.22971487e-01, -4.80355807e-02,  2.79079024e-02,  1.32869944e-01,  1.34358510e-01,
     1.79075688e-01,  3.93598378e-02,  1.01897949e-02, -2.13281751e-01, -2.42801175e-01,  9.75950733e-02,  3.11704069e-01,  3.70046496e-01,
     2.15838030e-01, -3.83527696e-01,  2.46548757e-01,  1.07638285e-01,  9.53530893e-02,  7.00768828e-02, -2.45397985e-02,  1.56039447e-01,
     1.46463230e-01,  5.30800968e-02,  2.34778598e-01,  3.57774168e-01,  1.32993758e-02,  2.61108905e-01,  3.12541723e-01, -9.20272097e-02},
   { 8.72562751e-02, -1.25604972e-01, -1.84813887e-01,  2.20847707e-02,  2.75312573e-01,  4.95204300e-01,  5.80358766e-02, -1.69662356e-01,
    -2.38433212e-01, -1.68447822e-01, -1.70770615e-01, -9.23149809e-02, -2.14941233e-01, -4.77872968e-01,  4.56463955e-02, -1.78758308e-01,
    -1.43181115e-01,  1.18625723e-01,  3.56931090e-01, -4.50332882e-03, -2.37804204e-02, -5.25670201e-02, -2.20875870e-02,  1.45466346e-03,
     1.54250022e-02,  2.87242919e-01, -5.96165918e-02, -2.39318371e-01, -1.19330503e-01,  1.15428008e-02,  2.56292634e-02,  2.69275695e-01},
   {-5.36392517e-02, -3.54056880e-02,  1.17792502e-01, -3.03006154e-02, -6.37398958e-02, -7.79331848e-02, -2.58936882e-01, -1.67975590e-01,
     6.42274842e-02, -2.43782967e-01, -6.84472322e-01, -5.77025652e-01,  5.79514466e-02,  4.96525675e-01,  3.67086709e-01,  2.52597988e-01,
     2.08015695e-01,  2.93600142e-01,  3.22012395e-01,  2.97567904e-01,  3.95292882e-03, -7.70650245e-03, -9.17520896e-02, -1.50650710e-01,
     2.32477617e-02,  1.16046906e-01, -9.55618247e-02,  2.46151797e-02, -2.46010408e-01,  5.32361083e-02,  1.49081230e-01, -3.34602501e-03},
   {-1.00252353e-01, -1.95233017e-01, -1.23209752e-01,  1.51785184e-02,  4.07020040e-02, -9.70482528e-02, -4.68620062e-01, -3.58004123e-01,
     1.67742819e-02,  6.35428131e-02, -2.48044841e-02,  1.88826919e-01, -1.51458040e-01,  5.26814200e-02, -1.90525666e-01, -2.67731935e-01,
    -3.20086598e-01,  3.08175296e-01,  1.49399415e-01,  1.22523189e-01, -3.19376737e-02,  1.62242547e-01,  4.25864518e-01,  5.91571629e-01,
     3.20196092e-01,  3.42637122e-01,  4.13285404e-01,  6.10547625e-02,  4.54782844e-01,  3.69574539e-02, -5.21100685e-03, -1.64855927e-01},
   { 7.79477581e-02, -2.83805337e-02, -1.60824470e-02, -4.12478417e-01, -2.37482280e-01, -2.52868891e-01, -2.18630373e-01,  1.71842813e-01,
     2.58742541e-01,  4.12936985e-01,  3.64503711e-02, -3.31473053e-01, -2.63590693e-01,  3.92217636e-02, -2.17482075e-01,  3.63725005e-03,
     1.36195704e-01, -1.63563892e-01, -3.92630398e-02,  1.89474270e-01, -3.90830338e-02,  1.76583022e-01, -1.46169364e-01,  1.66112959e-01,
    -9.65230390e-02, -1.36363087e-03,  1.59353778e-01, -5.49641997e-02,  1.10456727e-01, -7.24759176e-02,  8.48123953e-02, -3.33456695e-03},
   {-4.76532578e-02,  2.87827194e-01,  4.45663154e-01,  6.17241740e-01,  1.98372439e-01,  1.61619827e-01,  1.94164187e-01,  2.65940934e-01,
     2.77697533e-01,  1.28499880e-01,  8.91134590e-02,  7.70619735e-02, -1.23058796e-01, -1.46148115e-01, -2.54611999e-01, -3.08465302e-01,
    -4.52023059e-01, -2.93734401e-01, -1.21227466e-01, -2.54931897e-01,  1.75947577e-01,  1.89510092e-01,  3.32685947e-01,  2.97192425e-01,
    -2.37358920e-02,  1.05673075e-02, -2.72767916e-02,  1.01819769e-01, -1.31913051e-01, -2.28721321e-01, -1.85497954e-01, -2.15491608e-01},
   { 1.24066986e-01,  1.50685012e-01, -6.15704536e-01, -1.12808041e-01, -3.52919847e-01, -4.65242416e-01, -4.06347901e-01, -2.53656834e-01,
    -2.05473840e-01, -3.48904133e-01, -3.54931295e-01, -3.64409894e-01, -1.21088132e-01, -2.95424849e-01, -7.11142570e-02, -4.58913706e-02,
     1.48744911e-01,  1.05226960e-03,  2.32481778e-01, -1.28431901e-01, -4.47640307e-02,  1.08373113e-01, -8.69374126e-02, -2.23491132e-01,
     2.08723005e-02,  1.12244159e-01,  2.38787740e-01,  9.82943773e-02,  2.28926510e-01,  1.10057481e-01,  1.39509141e-01,  4.40512478e-01},
   { 4.33325730e-02, -1.83776215e-01,  1.31672785e-01, -3.97389561e-01, -2.58651674e-01, -2.61351645e-01,  2.42122054e-01,  7.73767233e-01,
     2.58586764e-01,  6.29077554e-02,  2.40454137e-01, -1.18561871e-02, -2.14600235e-01,  3.18055242e-01,  2.13225290e-01,  4.64898646e-01,
     7.05068260e-02, -5.71517944e-02, -1.68520525e-01, -1.68852106e-01, -4.09504592e-01, -1.69277504e-01,  5.53790592e-02,  1.01316035e-01,
    -1.97257269e-02, -1.03378333e-01,  1.33046195e-01,  1.20766267e-01,  4.86313254e-02,  3.06565110e-02, -1.80264823e-02,  1.24915577e-01},
   {-1.71363086e-01, -1.71224639e-01,  2.85944700e-01, -4.64783534e-02,  1.54147148e-01,  2.34240010e-01,  9.21406969e-02,  9.85646714e-03,
    -2.74119496e-01, -2.75947899e-01, -6.00540876e-01, -2.63095170e-01,  3.17421079e-01,  5.70017338e-01,  2.22313136e-01,  1.99560136e-01,
     2.00206071e-01, -3.56977177e-03, -2.55923331e-01, -2.08460599e-01,  1.17583446e-01,  5.24335131e-02, -7.49512464e-02, -1.30763769e-01,
    -1.09932899e-01,  1.11298431e-02, -4.01168652e-02,  8.19184631e-02,  1.52213320e-01,  1.34222180e-01,  1.01065852e-01,  1.69118028e-02},
   {-1.27078751e-02,  2.13345841e-01,  3.18154730e-02,  4.12377983e-01,  7.81863034e-02, -3.33895355e-01, -3.34071010e-01, -6.69511408e-02,
    -6.46741362e-03, -3.77718300e-01, -1.71525642e-01,  5.36814258e-02,  3.46547067e-01, -2.33179256e-02,  1.24809183e-01,  1.48071274e-01,
     2.71423966e-01,  4.08278912e-01,  1.20054625e-01,  2.08330415e-02,  1.92475781e-01, -9.43602324e-02, -7.50568062e-02, -1.57797530e-01,
     1.36500269e-01, -5.17717265e-02, -1.15553416e-01,  6.74165860e-02,  4.59121075e-05, -2.28090063e-01, -2.08156422e-01, -3.69881451e-01},
   { 4.68725078e-02, -1.96698964e-01, -3.30290385e-03,  8.35157931e-02,  4.52217683e-02,  6.06578849e-02,  1.83723271e-02, -2.42707923e-01,
    -1.36331365e-01, -9.45522487e-02,  4.11754437e-02, -5.20621240e-01, -4.74731296e-01,  3.45842808e-01,  4.40797061e-01,  4.53380615e-01,
     2.87388891e-01,  2.94380672e-02,  6.26825839e-02, -2.04606965e-01, -1.02273285e-01,  1.69285774e-01,  3.25050242e-02, -1.44252047e-01,
    -8.68857726e-02, -1.02739923e-01,  7.65870092e-03, -2.55310871e-02, -1.62524804e-02, -3.66511289e-03,  4.99176905e-02, -1.60124630e-01},
   { 1.16474684e-02, -2.15765759e-01,  8.62418860e-02,  1.87866300e-01,  7.39524961e-02, -1.43340454e-01, -3.17741781e-01, -7.48999953e-01,
    -5.10783494e-01,  8.16315040e-02,  4.32519287e-01,  4.78981197e-01,  7.97256082e-02, -1.26569524e-01,  2.80915350e-02, -8.52774754e-02,
     1.54745206e-01,  3.12426567e-01,  4.01987582e-02, -2.34088048e-01, -4.90197949e-02, -5.70898280e-02,  4.88833152e-02, -1.81672692e-01,
    -3.54386424e-03, -1.40135974e-01,  1.55657306e-01, -1.12698428e-01, -1.01362966e-01, -3.29177119e-02,  7.19908476e-02,  1.55231908e-01},
   {-6.80341246e-03, -5.16158044e-02, -1.48699775e-01, -2.01816022e-01, -4.27972585e-01, -3.87777925e-01, -3.74927074e-01,  2.99069937e-02,
     1.49483547e-01, -5.40887378e-02, -6.36788830e-02,  2.85705864e-01, -7.15385610e-03, -6.41648774e-04,  2.49989837e-01, -1.00059830e-01,
     2.61509139e-03,  1.40869215e-01, -7.99000170e-03, -1.56414341e-02, -1.20192818e-01, -1.56170979e-01,  2.23900322e-02,  2.04136651e-02,
    -1.61851346e-01, -2.42626458e-01, -8.67150351e-02, -9.88908485e-02, -1.97400168e-01, -8.90578181e-02, -1.43170685e-01, -3.73524576e-02},
   {-2.03485966e-01, -2.57343471e-01, -1.36851415e-01, -2.71839891e-02,  4.13913950e-02,  2.72757173e-01,  4.73578393e-01,  3.35233420e-01,
     2.86118865e-01,  4.01516169e-01,  1.28949806e-01,  4.78406787e-01,  2.50299156e-01,  1.85721740e-01,  5.62685318e-02, -1.88149571e-01,
    -1.26645133e-01, -5.30467153e-01, -3.38297635e-01, -1.54737635e-02, -2.09932297e-01, -2.23327383e-01, -5.99949397e-02, -1.34768009e-01,
     1.04648568e-01,  2.02154890e-01, -1.63515832e-03,  8.50671008e-02,  3.86399142e-02, -8.60392973e-02,  1.10044563e-03, -2.27616951e-01},
   {-2.07688063e-01,  1.62964717e-01, -2.35975087e-01,  1.65689006e-01,  5.62678352e-02, -1.49838507e-01, -3.50678921e-01, -4.76664789e-02,
     2.26020515e-01,  7.40108192e-02,  1.83590516e-01, -2.91176718e-02,  2.65391439e-01,  1.38976216e-01, -1.26835600e-01, -3.25870126e-01,
    -3.66122685e-02, -2.61497349e-01, -1.07385606e-01, -6.36299849e-02, -1.68440700e-01,  4.72623110e-02, -1.04581509e-02,  1.31952852e-01,
    -1.36890076e-02, -7.18034580e-02, -1.04905143e-01, -1.18127996e-02,  7.12732300e-02,  9.87564400e-02,  8.26010332e-02,  6.54935837e-02},
   { 1.90576110e-02, -7.43556991e-02, -3.49149085e-03,  2.44512409e-02,  2.23568186e-01,  2.87854552e-01,  2.33411714e-01, -1.39914051e-01,
    -5.08313239e-01, -3.44353735e-01,  2.79942881e-02,  1.95342869e-01, -3.11208785e-01, -3.25848497e-02,  2.44720876e-01, -3.39071490e-02,
    -9.54455510e-02, -2.30904430e-01, -1.17281243e-01, -1.28333613e-01, -3.51550020e-02,  5.68087287e-02, -1.77816987e-01,  4.75427136e-02,
     1.25963509e-01, -3.51715274e-02, -1.84974447e-01,  2.19218209e-02,  7.30042234e-02,  1.23444654e-01, -2.29733348e-01, -3.07119071e-01},
   {-9.54073295e-03, -5.98418862e-02,  2.71349475e-02,  1.77240223e-01,  1.84822790e-02, -3.02685171e-01, -3.65374684e-01, -1.56456009e-01,
    -1.57089010e-01,  1.57657627e-03, -2.43665919e-01, -2.42829800e-01, -5.68658233e-01, -2.26942286e-01,  4.39400226e-01,  2.68491089e-01,
     6.10952973e-01,  1.73384428e-01,  1.79299027e-01, -9.29518603e-03,  9.20255333e-02, -2.05814332e-01, -1.45058483e-01, -2.16432691e-01,
    -1.67725384e-02,  1.45290673e-01,  1.90614820e-01, -1.64716974e-01,  4.57925051e-02, -8.97539929e-02, -2.79508173e-01,  3.98757309e-01},
   {-3.34975868e-02,  1.04182996e-01,  4.93735343e-01,  2.57252991e-01, -1.88675061e-01, -1.52333260e-01, -4.32742909e-02, -7.09682927e-02,
     2.14986503e-01,  4.32793707e-01,  1.13367207e-01,  1.23137645e-01, -1.13027403e-02, -1.21759966e-01, -1.19652361e-01, -1.39211237e-01,
    -3.39949727e-01,  5.90885319e-02, -1.01312436e-01, -1.01981184e-03,  2.29607262e-02, -1.20755114e-01, -1.72697566e-02, -1.27673760e-01,
    -7.99141675e-02, -1.52940929e-01, -2.04413399e-01, -2.29947001e-01, -1.76566288e-01, -8.47292542e-02,  1.69289604e-01, -1.66535735e-01},
   { 3.65433954e-02, -1.93845674e-01,  2.52315462e-01,  1.62744761e-01,  5.73131293e-02,  4.12063226e-02,  2.22553569e-03, -1.12968646e-01,
     1.72106907e-01,  2.70261973e-01,  4.42182630e-01,  1.79388881e-01,  1.77605618e-02,  1.21412419e-01, -2.58651108e-01, -4.44959491e-01,
    -6.44465148e-01, -4.67618972e-01,  2.33106881e-01,  2.07068980e-01,  6.40487745e-02,  2.77925819e-01,  1.66173309e-01,  2.34275423e-02,
    -3.74389440e-03, -5.40183820e-02, -3.39453034e-02,  3.22273791e-01, -8.64559561e-02,  2.04332605e-01, -1.47556504e-02,  6.27740324e-02},
   { 1.75830022e-01, -5.77755943e-02, -2.66225249e-01, -2.04548120e-01, -5.32975234e-02, -1.48709834e-01, -1.82887435e-01, -3.36804301e-01,
    -2.19161630e-01, -1.54992223e-01,  1.77811936e-01,  3.41590792e-01,  1.94758624e-01,  3.31702419e-02, -3.00601255e-02,  1.46157324e-01,
    -2.67950967e-02, -2.87398361e-02, -1.13479204e-01, -1.73186198e-01,  1.04276016e-02,  1.36102177e-02, -1.34108365e-01, -3.62327248e-02,
    -2.68802419e-02, -1.72685981e-01,  8.05927068e-02,  1.67041272e-01,  7.23413378e-02, -1.39751524e-01, -6.41765893e-02,  2.65986800e-01},
   {-5.37071265e-02, -3.72360162e-02, -1.84639364e-01,  2.84721136e-01,  6.43398911e-02,  1.30613819e-01,  7.94571713e-02,  3.11380982e-01,
     3.23990434e-01,  8.33552033e-02, -1.17296569e-01, -5.27372025e-02,  6.24446750e-01,  7.32895076e-01,  3.20515454e-01,  1.16486065e-01,
    -3.43325466e-01, -3.58680874e-01, -1.85217708e-01, -1.23141088e-01, -1.94144413e-01,  4.17606579e-03,  4.19981554e-02,  5.43387653e-03,
     1.65045500e-01,  5.59808984e-02, -1.38353899e-01,  9.00080893e-03, -1.95966154e-01,  1.48043305e-01, -2.22500592e-01, -6.86656237e-02},
   { 5.45446668e-03, -8.04727823e-02, -2.95342833e-01,  9.09641609e-02,  4.04775798e-01,  6.53471828e-01,  4.62720513e-01, -1.51742876e-01,
    -6.82996452e-01, -2.91583389e-01, -3.17387491e-01, -3.75307083e-01,  1.83457449e-01,  1.03404135e-01,  4.29059453e-02,  2.71556880e-02,
     3.85755301e-02,  3.98381352e-02,  7.39486143e-02,  1.46372274e-01,  7.16992468e-02, -7.43103474e-02, -1.19599663e-01, -3.04728169e-02,
     3.76777933e-03,  1.94257237e-02, -6.34955540e-02,  2.35268865e-02, -8.65373202e-03, -5.04169352e-02,  3.23644765e-02, -6.02756031e-02},
   {-1.59829874e-02,  1.47263989e-01, -1.66553035e-01, -1.79245830e-01, -1.59634635e-01, -3.80456597e-01, -1.32519633e-01,  2.70262867e-01,
     5.07438123e-01, -3.40462290e-02, -1.26547888e-01, -2.02721655e-01,  1.21060103e-01, -9.82121676e-02, -7.43452460e-02, -1.20519489e-01,
     4.17287558e-01,  5.99647164e-01,  2.76340276e-01,  1.07931845e-01,  1.96076363e-01,  1.92320608e-02, -1.35165974e-01, -2.02044785e-01,
    -3.52380723e-01, -2.88119584e-01, -1.98676586e-01, -9.31673571e-02, -1.56121925e-01, -1.91275790e-01,  1.26863390e-01,  3.58246207e-01},
   {-8.52254182e-02, -9.16586146e-02,  1.21839181e-01,  2.76650488e-01, -1.81238562e-01, -5.57483435e-01, -6.25597239e-01, -3.06639045e-01,
     2.73419976e-01,  1.08415328e-01,  1.97479501e-01,  6.58690631e-02, -5.25630414e-02, -1.51969925e-01, -4.06720340e-01, -3.27254653e-01,
    -1.25398278e-01,  4.79205817e-01,  3.10034782e-01,  2.46834591e-01, -1.77432224e-01,  3.05084258e-01,  4.13214341e-02,  1.25037776e-02,
    -1.05312660e-01,  1.79638803e-01,  7.55837634e-02, -3.99382971e-02,  1.04386084e-01, -6.03167489e-02,  8.11353624e-02, -3.27391997e-02},
   {-8.56021792e-02, -5.54733634e-01, -4.47631687e-01, -1.35833859e-01,  2.44936228e-01,  3.27421218e-01,  1.16010949e-01, -3.24009061e-01,
    -4.19426858e-01, -1.10495552e-01,  1.83300283e-02,  1.64729580e-01,  6.64943606e-02, -1.34647265e-01, -5.51939150e-03, -6.91678748e-02,
     1.51308388e-01,  1.71139821e-01, -2.86724530e-02, -8.25769007e-02,  1.19938053e-01,  1.35185540e-01, -1.51915913e-02,  1.31000370e-01,
    -3.80224995e-02, -2.60382462e-02,  6.40146509e-02, -3.07660941e-02,  8.82336497e-02, -3.97484601e-02, -3.68876159e-02,  1.26526102e-01},
   { 4.33344916e-02,  5.53885281e-01,  3.81630957e-01, -1.86862163e-02,  2.37797946e-01, -5.14164530e-02,  3.59221399e-01,  2.10161582e-01,
    -1.13219611e-01, -4.52516228e-01, -2.55374700e-01,  7.79891685e-02, -1.93492606e-01, -2.18715817e-01, -2.56912112e-01, -2.88032204e-01,
     5.92252836e-02,  2.69007087e-01,  2.77860940e-01,  1.02302566e-01, -2.16760799e-01, -2.24346012e-01,  2.12280303e-01, -5.27242869e-02,
    -1.54008731e-01,  2.24955127e-01,  4.18293178e-02, -7.11579248e-02,  8.88210628e-03,  1.35274380e-01, -1.30766600e-01, -3.64060938e-01},
   { 1.52543440e-01, -2.60241926e-01,  5.69123849e-02,  7.98053518e-02,  3.55245501e-01,  3.24101150e-01,  6.58115149e-02, -6.06434882e-01,
    -6.55615032e-01, -1.80825204e-01,  2.15906188e-01,  4.33841079e-01,  2.93485746e-02, -1.37873650e-01, -2.94717252e-01, -1.43680900e-01,
    -2.21720204e-01, -1.03256688e-01, -2.34296933e-01, -1.90295503e-01,  4.97494265e-03,  2.12955952e-01, -9.31080952e-02,  7.43867829e-02,
     6.48827925e-02, -1.27967268e-01,  1.39767816e-02,  8.98517966e-02,  5.37147149e-02, -7.55026788e-02, -3.91158946e-02, -1.24365121e-01},
   {-1.57486081e-01, -7.68858567e-02, -5.05088791e-02,  2.58706182e-01,  8.91694054e-03,  2.23111466e-01,  4.32988524e-01,  2.51400024e-01,
    -1.62307583e-02,  2.09209710e-01, -2.09344521e-01,  1.02634095e-01, -6.64946288e-02,  9.07099694e-02,  4.05702069e-02, -1.18724510e-01,
     7.86533765e-03, -6.53269961e-02,  2.26241529e-01,  2.52958089e-01,  4.13629144e-01,  1.59562021e-01,  2.89923251e-01, -9.08876732e-02,
     8.14136118e-02, -1.01570092e-01, -8.20744485e-02, -1.25773296e-01, -2.25524530e-01, -3.24678898e-01, -8.31412375e-02, -2.92205095e-01},
   {-1.02473982e-01,  2.85552114e-01,  1.37587458e-01,  4.48225699e-02, -1.43309221e-01, -1.18264325e-01, -1.32901698e-01,  5.51362783e-02,
     1.04673915e-01,  3.06375623e-01,  8.32108781e-02, -2.95131700e-04,  2.26046637e-01,  5.12821794e-01,  3.99914801e-01,  4.39906567e-02,
    -1.87383875e-01, -1.49946213e-01, -3.76252711e-01, -8.62491801e-02, -2.60341048e-01, -2.21802548e-01, -1.97060525e-01, -1.28600776e-01,
    -2.00221166e-01, -1.49445578e-01, -1.93434671e-01, -2.02975750e-01, -7.78236566e-03, -5.34393154e-02,  2.54686791e-02,  5.11901006e-02},
   { 9.03346017e-02, -7.96012431e-02,  2.79631764e-01,  3.18355896e-02,  1.28308132e-01,  2.83767700e-01,  3.11261326e-01,  7.56579041e-02,
    -1.85611486e-01, -1.21920668e-01,  7.43428022e-02,  3.64270985e-01,  2.17336267e-01, -3.02744091e-01, -4.28606033e-01, -2.87208200e-01,
     8.90019014e-02, -6.59924746e-02,  8.82704780e-02, -1.83311448e-01,  1.38142079e-01,  1.72314301e-01, -2.18566597e-01, -2.36130446e-01,
    -7.16359690e-02, -1.05434231e-01, -3.42823602e-02, -8.25299174e-02, -1.52306244e-01, -3.48928422e-02, -9.26581621e-02, -2.15658486e-01},
   { 6.12731218e-01, -1.10201966e-02, -7.77626634e-02,  8.22198316e-02,  1.84185743e-01, -1.16843097e-01, -2.83887029e-01, -2.34703690e-01,
    -3.71627629e-01, -1.05470054e-01,  9.14064348e-02,  9.43738073e-02, -4.04151291e-01, -5.33847138e-02,  2.78899912e-02,  2.39800602e-01,
     4.16456372e-01,  4.58123416e-01, -1.85674820e-02, -3.26021940e-01, -2.29742154e-01,  2.24763881e-02,  1.52154937e-01,  1.51789552e-02,
    -6.06139600e-02, -1.30761847e-01,  7.58217424e-02,  3.90760489e-02,  2.93638200e-01,  2.60264575e-01, -1.67778507e-02,  1.53105035e-01},
   { 8.88890475e-02,  2.38951340e-01,  8.91484693e-02, -9.23110694e-02, -4.92223166e-02, -4.27915119e-02, -3.97656253e-03,  5.35910539e-02,
     1.65936679e-01,  1.96784258e-01, -5.12129441e-02, -1.84961841e-01,  1.49554819e-01,  3.73232126e-01, -1.28332675e-01,  4.90783434e-03,
    -2.22276539e-01, -3.14852327e-01, -2.67832249e-01,  1.96246460e-01,  2.77291685e-01,  1.99523084e-02, -1.82066798e-01,  2.32748494e-01,
     1.66748956e-01,  1.15601219e-01,  4.32985164e-02,  9.00396630e-02,  4.30383943e-02, -7.18012918e-03, -5.05230352e-02, -1.47608593e-01},
   {-7.14897737e-02,  3.64687622e-01,  2.55670637e-01,  3.23962808e-01,  1.36783138e-01,  1.60580829e-01, -1.60961732e-01,  2.52045602e-01,
     2.16980517e-01,  2.49096632e-01,  2.55209416e-01, -2.51617320e-02,  2.99251433e-02,  3.96088719e-01,  4.85716373e-01,  2.92589277e-01,
    -6.49865046e-02,  1.46839663e-01,  3.94345313e-01,  1.26064226e-01,  1.68099701e-01,  2.30001315e-01,  1.05025366e-01, -1.02508187e-01,
    -1.67317450e-01, -1.86859310e-01, -3.84383112e-01, -5.49717367e-01, -5.43447495e-01, -5.31809688e-01, -4.82334495e-01, -5.50398946e-01},
   {-3.46949995e-02, -1.23419128e-01,  7.70840736e-04, -1.85915217e-01, -2.48526946e-01, -5.64758927e-02, -2.43081778e-01,  1.10704951e-01,
     2.28864640e-01,  1.16106980e-01,  1.96261629e-01,  2.40953013e-01,  2.20378220e-01,  5.56889176e-01,  3.98287743e-01,  1.94890141e-01,
    -3.08939129e-01, -5.77117741e-01, -4.43017840e-01, -2.20479965e-01, -3.10463160e-02, -1.18776679e-01, -2.20616069e-02,  1.17972106e-01,
     2.56040573e-01,  3.33401971e-02,  2.34256953e-01,  1.07721932e-01, -1.06732219e-01,  2.61145502e-01,  5.53827733e-02, -3.65236402e-02},
   { 1.11841738e-01, -1.24587752e-01, -1.23937368e-01, -7.99720734e-02,  4.36633732e-03,  2.21101418e-01,  6.44090652e-01,  4.25176173e-01,
     3.68609965e-01,  3.46810780e-02,  1.54704586e-01,  1.19511858e-01, -1.55393913e-01, -5.14634959e-02,  1.85945034e-01,  3.26118231e-01,
     2.08778769e-01, -9.68529284e-02, -1.23858415e-01,  4.69139731e-03,  1.30394893e-02, -9.11476985e-02,  2.56689817e-01,  1.13664873e-01,
    -7.16022402e-02, -7.01920986e-02, -2.53666461e-01,  1.03788033e-01, -1.56931400e-01, -1.03109702e-01, -3.03463340e-01, -1.39365077e-01},
   {-8.91139209e-02, -3.58441174e-01,  4.62695956e-02,  5.75705171e-02, -3.75039935e-01, -2.28628770e-01, -1.98904395e-01, -6.35313243e-03,
     5.78773379e-01,  4.29477960e-01,  1.35063067e-01, -2.60263890e-01, -1.41008809e-01,  8.73104483e-02,  3.07287604e-01,  1.95691273e-01,
    -1.91003472e-01, -3.75839084e-01, -4.49981809e-01,  1.82089418e-01,  3.69595826e-01,  4.21037413e-02, -1.74270213e-01,  2.07089353e-02,
     3.04027170e-01,  4.87923808e-02, -1.55098680e-02,  1.66383624e-01, -2.48989820e-01, -2.41312068e-02, -2.10464019e-02, -9.70181301e-02},
   { 2.75572576e-02, -5.94857484e-02,  7.11450875e-02,  2.58689940e-01,  3.13492119e-01,  3.61509621e-01,  5.84696412e-01,  4.12412047e-01,
    -1.93718359e-01, -2.80902922e-01, -6.23323262e-01, -3.79542798e-01, -1.41999319e-01, -2.00212672e-02, -1.47550017e-01, -7.55654424e-02,
    -8.96391869e-02, -4.31985669e-02, -1.33105144e-01, -1.35452554e-01,  2.94173695e-02,  5.72827756e-02, -9.51443166e-02, -1.38754129e-01,
     1.95380419e-01,  5.28851561e-02,  8.69115908e-03,  1.39032735e-03,  8.13604612e-03, -8.93911626e-03,  5.84602430e-02,  7.65230060e-02},
   { 3.15578610e-01,  3.40227902e-01,  7.69844115e-01,  4.73462433e-01,  3.56931895e-01,  1.01997614e-01,  2.14778334e-01, -3.90375048e-01,
    -5.50934017e-01,  1.06018651e-02,  1.97496057e-01,  2.31389385e-02, -1.15210772e-01,  1.46364495e-01,  7.37891644e-02,  3.08963433e-02,
     1.41626418e-01, -1.56457156e-01, -1.44368764e-02,  3.03830862e-01, -5.31629436e-02,  1.08032770e-01,  7.87173063e-02,  2.08042890e-01,
     1.55806229e-01,  3.74372691e-01,  2.60734290e-01,  4.31098938e-02, -1.41434371e-02,  7.48682069e-05,  7.24021867e-02,  3.21100622e-01},
   {-1.49499401e-01, -1.12533020e-02,  2.60323554e-01,  1.02960341e-01,  2.30288699e-01,  1.76991031e-01,  1.30331829e-01, -1.55960307e-01,
    -1.77399769e-01, -3.95784229e-01, -7.85334706e-02, -9.20213982e-02, -4.00426507e-01, -2.85497040e-01, -2.71032661e-01,  1.86698630e-01,
     1.77998587e-01, -1.10041842e-01, -1.86851636e-01,  5.69921173e-02,  2.24703364e-02,  3.26080993e-02,  6.86843768e-02, -3.60301286e-02,
     2.16315195e-01,  1.15227938e-01,  1.97604686e-01, -1.60809174e-01,  2.87966076e-02,  8.58521461e-02, -1.49513900e-01, -1.00705782e-02},
   { 1.64866343e-01,  8.22374076e-02, -1.17394701e-01,  1.74098969e-01,  2.73503780e-01,  2.61777610e-01, -9.98751819e-02, -1.00686327e-01,
    -9.77752805e-02,  8.87363404e-02, -6.51629865e-02, -7.77162686e-02,  1.93387315e-01,  9.36681330e-02, -3.34740020e-02, -1.32043272e-01,
    -1.21920742e-01, -9.64580327e-02, -8.66519213e-02,  3.57658304e-02, -1.33530736e-01, -1.11618392e-01,  3.51722687e-02,  4.83246744e-02,
    -9.78928804e-02, -7.36764744e-02, -7.72344545e-02, -5.12688421e-02,  5.89136295e-02,  2.83483528e-02,  1.94848701e-02,  4.11769331e-01},
   {-1.90642625e-02,  4.57144603e-02, -4.49175715e-01, -3.87353897e-01, -3.41858976e-02, -2.30692983e-01, -2.33485609e-01, -8.53833705e-02,
    -1.64639443e-01,  7.37166032e-02,  3.48718226e-01,  4.49048340e-01,  4.94871408e-01,  3.18387538e-01,  5.23765311e-02, -1.40371114e-01,
     4.94643897e-02, -2.63106793e-01, -3.93711358e-01, -3.87306213e-01, -2.43554875e-01,  6.44050837e-02,  1.40059516e-01,  7.24127144e-02,
     1.17415413e-01,  6.37173876e-02, -1.37579381e-01, -3.73839727e-03,  8.97085592e-02, -1.10147081e-01, -4.24173512e-02,  1.65572211e-01},
   { 9.04997215e-02, -3.46863009e-02, -2.85943925e-01,  2.08420232e-02, -1.32014856e-01, -3.49396676e-01,  1.51490634e-02,  3.81383836e-01,
     1.37872174e-01, -4.29161675e-02, -1.42587021e-01, -7.47675123e-03,  5.24850368e-01,  3.08947265e-01,  1.19578764e-01, -6.74698781e-03,
     1.36052072e-01, -1.90357372e-01, -3.12648535e-01, -1.51011765e-01, -3.34560871e-01, -1.13399878e-01,  4.42887619e-02, -2.31728584e-01,
    -2.20711067e-01, -6.77292198e-02,  1.07495531e-01, -1.79666191e-01,  6.01867326e-02,  2.58724131e-02,  7.32876686e-03,  3.16521198e-01},
   { 9.71691981e-02,  3.86438258e-02, -3.98746222e-01, -3.45826030e-01,  7.05283955e-02, -4.59853224e-02,  4.10531372e-01,  9.26674381e-02,
    -8.11870694e-02, -7.46224225e-02, -9.44365263e-02,  1.28739715e-01,  1.57195508e-01, -1.34511784e-01, -1.82188705e-01, -4.04362142e-01,
    -9.90230888e-02,  1.65889382e-01,  1.73265323e-01, -3.96332778e-02, -2.16358870e-01, -9.47456434e-02,  1.26025170e-01,  1.95055306e-01,
    -8.71580392e-02, -5.27897924e-02,  1.49987251e-01, -7.38246441e-02, -1.50279347e-02, -8.82523432e-02,  1.70474485e-01, -1.70916304e-01},
   {-8.65780339e-02, -1.05991073e-01,  4.90479499e-01,  3.82613927e-01,  1.93509936e-01,  1.49180040e-01,  1.12526827e-01,  1.80545852e-01,
    -7.52866790e-02,  1.89261492e-02,  6.26295954e-02, -3.11456710e-01, -1.87238798e-01, -2.34594315e-01, -1.67469904e-01, -2.97577113e-01,
    -1.77368060e-01, -1.24067903e-01, -7.38667920e-02,  2.47952163e-01, -8.51490498e-02, -5.92956655e-02, -2.25699425e-01, -2.05336526e-01,
     9.70177352e-02,  3.89139682e-01,  3.27878356e-01,  2.82336026e-01,  3.22653949e-01,  4.06062305e-01,  2.49275148e-01,  1.09180108e-01},
   { 1.62334993e-01,  5.80029525e-02, -3.81119340e-03,  3.15515362e-02,  1.87107176e-01,  1.87591687e-01,  2.28333890e-01,  1.33419838e-02,
    -4.41703379e-01, -5.94472826e-01, -4.43689018e-01, -2.07995608e-01, -1.13207676e-01, -2.73205917e-02,  4.30471078e-02,  2.18486756e-01,
     4.65104640e-01,  1.21336274e-01, -2.82634851e-02, -1.66331917e-01,  2.28282258e-01,  1.34183899e-01, -1.71942756e-01, -2.96436548e-01,
     1.88748166e-01,  2.18221582e-02, -1.12363495e-01,  5.85777499e-02, -1.10557713e-02,  2.11277843e-01,  1.05608575e-01,  1.54542282e-01},
   { 1.66609749e-01,  3.28947008e-01,  6.54116988e-01,  9.61346850e-02,  3.39860432e-02,  1.05995119e-01, -1.95983171e-01, -1.87627152e-01,
    -1.24162301e-01,  1.23730570e-01,  2.73972452e-01,  3.41571063e-01, -2.19424888e-01,  2.65835430e-02,  3.46722454e-01,  4.30355728e-01,
     1.78273786e-02, -4.09031957e-01, -3.60326827e-01, -1.38767824e-01, -5.05454391e-02, -3.97420749e-02, -1.28362939e-01, -7.60262460e-02,
     2.95846373e-01, -1.08354045e-02, -1.46758676e-01, -1.99217856e-01, -1.52829692e-01,  2.13884652e-01,  8.29111859e-02, -5.22559322e-02},
   {-2.71494929e-02, -4.06937068e-03,  1.36423260e-01,  2.50774086e-01,  1.18663780e-01,  6.07638061e-02,  3.02019119e-02, -3.09302688e-01,
    -2.23767653e-01, -2.84275770e-01, -1.59311503e-01,  1.89695045e-01,  5.32813311e-01,  2.83594042e-01,  3.61859858e-01,  5.63023426e-02,
    -4.24496144e-01, -2.06860840e-01, -2.03918859e-01, -1.21471331e-01, -1.14522837e-01,  1.79780405e-02, -2.03508809e-01, -2.07543299e-02,
     9.46804583e-02,  1.82197735e-01, -1.29730135e-01, -2.75644884e-02, -1.38725433e-02,  8.93931463e-02, -1.05428278e-01, -7.52718672e-02},
   {-4.91643921e-02, -3.40160578e-01, -3.93984705e-01, -4.82834697e-01, -4.70477134e-01, -2.96993911e-01, -4.40491587e-02,  1.70449615e-01,
    -8.67826194e-02, -3.24788213e-01, -8.70973468e-02, -5.69178117e-03, -2.85632521e-01,  8.45774487e-02,  1.55880257e-01,  1.08010203e-01,
     1.07128337e-01, -1.45439982e-01, -1.13734052e-01,  1.38446763e-01, -5.19675910e-02, -1.65933669e-01, -2.14940175e-01, -2.91553289e-01,
     5.85083328e-02,  8.86509195e-04, -3.53527479e-02, -1.03359520e-02, -2.50431057e-02, -9.39977169e-02, -2.44901814e-02,  4.39666212e-02},
   {-4.58832830e-02,  1.20726004e-01, -4.07648355e-01, -2.05536578e-02,  1.01560540e-01, -5.72067909e-02, -1.35448247e-01, -3.01713973e-01,
    -1.71177555e-02, -2.06714317e-01, -6.83170557e-02, -2.02146962e-01, -1.01013653e-01, -2.80666292e-01, -1.79706171e-01, -3.56245935e-02,
    -1.57608241e-01,  4.19489481e-03, -8.82533714e-02, -2.11307645e-01,  1.35252979e-02, -2.08316460e-01,  2.94243991e-02, -6.43599033e-03,
     1.08783491e-01, -1.08109033e-02,  2.18194053e-01, -7.38945305e-02,  7.18560293e-02,  2.46718720e-01, -4.14298810e-02,  2.06319988e-01},
   {-1.83676124e-01, -1.82416011e-02,  2.00542510e-02,  3.47235240e-02,  2.72531360e-01, -5.92395058e-03,  6.87204897e-02,  2.20229417e-01,
     2.79954970e-01,  1.58606306e-01, -1.84876144e-01,  4.69439328e-02,  1.92245722e-01,  2.83271074e-02,  4.21754792e-02,  1.41929891e-02,
    -1.39878497e-01,  1.09167919e-01,  3.55961412e-01,  1.64940491e-01,  2.17107758e-01,  1.78414762e-01, -1.01855949e-01, -1.35511830e-02,
    -7.32482672e-02,  9.70987901e-02,  3.22903544e-02, -1.04360215e-01, -3.10374200e-01,  2.29915101e-02,  8.02604258e-02, -8.75550788e-03},
   {-2.13382557e-01,  1.31862894e-01, -1.89717695e-01, -3.02413285e-01, -1.24082230e-01, -1.16467811e-01, -1.37213528e-01,  9.02988613e-02,
     5.29721141e-01,  1.17266618e-01,  1.45737410e-01,  6.31901473e-02,  2.56856918e-01,  2.26048067e-01,  7.35368580e-02, -1.10794266e-03,
    -9.16630551e-02,  1.51062652e-03,  3.91309887e-01,  3.82754743e-01,  4.50471453e-02, -2.26316810e-01,  4.94714305e-02,  2.01004505e-01,
     1.33249313e-01,  6.66632280e-02,  4.95481342e-02,  8.05373192e-02, -1.73186082e-02, -5.03409691e-02, -8.55156258e-02,  1.95922665e-02},
   {-3.94144356e-02,  5.69090508e-02, -7.44323954e-02,  8.98671970e-02, -5.07857837e-02, -2.45886400e-01, -3.47911298e-01, -3.13856900e-01,
    -1.12211637e-01, -7.44865686e-02, -2.47081012e-01, -3.57962474e-02,  3.29210818e-01,  3.12448919e-01,  1.25959650e-01, -6.93384260e-02,
    -1.56477451e-01, -3.27251077e-01, -3.83025169e-01, -5.46878241e-02,  3.10000516e-02,  7.70380581e-03, -1.51733562e-01, -7.83482194e-02,
     1.39558420e-01, -1.19008021e-02, -1.02755591e-01,  7.39338323e-02,  1.05453297e-01, -1.77021846e-02,  3.64850163e-02,  3.06374696e-03},
   { 4.48124819e-02, -5.23542225e-01, -3.63641769e-01, -3.05810124e-01,  8.77414197e-02,  4.08092469e-01,  4.43864256e-01,  2.24769324e-01,
     2.72502266e-02,  3.15561771e-01,  5.96158266e-01,  3.48176032e-01, -2.08529904e-02, -1.33946270e-01, -1.36714578e-01,  3.63771357e-02,
     7.94458613e-02,  1.17059357e-01,  1.23258948e-01,  3.56158763e-01,  2.28700921e-01, -1.27046973e-01,  1.43450528e-01,  1.72451630e-01,
     7.09966049e-02,  1.78632498e-01,  8.18518847e-02,  2.81598210e-01,  2.38283589e-01, -4.10561077e-02, -5.89093193e-02, -2.51778692e-01},
   {-3.66889425e-02,  6.43305480e-02,  3.20517212e-01,  1.57145455e-01,  5.66646978e-02, -2.30042905e-01, -4.69555497e-01, -4.65098143e-01,
    -1.85273618e-01, -9.01142806e-02,  3.99650693e-01,  2.93630958e-01,  5.23487329e-01,  1.22487977e-01, -2.23379016e-01, -2.72062808e-01,
    -3.63757402e-01, -3.28680798e-02, -2.68479079e-01, -2.95650810e-01, -3.37324999e-02, -1.53000169e-02,  7.10759312e-02, -3.35112572e-01,
    -2.52304990e-02, -2.53836781e-01, -1.42734751e-01, -1.13488697e-01, -1.06797874e-01, -1.06188998e-01, -1.64204463e-01,  4.40830411e-03},
   { 4.83360924e-02, -6.79004332e-03, -2.17606366e-01,  2.42987484e-01,  1.43794283e-01,  1.29691223e-02,  4.59150188e-02, -2.20465690e-01,
    -3.48674625e-01, -1.59026831e-01, -1.08492814e-01, -2.35785022e-01, -7.05181360e-01, -6.22229576e-01,  9.52113792e-02,  3.43755931e-01,
     4.42496508e-01,  2.49604970e-01, -1.59083977e-02,  9.82251763e-02,  1.72211770e-02,  3.44811678e-02, -3.33514288e-02, -1.38702050e-01,
     5.87246940e-02,  7.91670904e-02,  2.62240395e-02, -3.53471376e-02,  1.30657986e-01, -2.18586698e-01, -9.86080542e-02,  1.80901304e-01},
   { 2.38733925e-02,  1.21443763e-01, -3.27463239e-01,  2.28205830e-01, -7.06919506e-02,  1.58080772e-01,  2.83274502e-01, -7.22349808e-02,
    -2.16494530e-01, -3.15915123e-02,  1.38717577e-01,  9.00378302e-02, -2.77079105e-01, -3.91498953e-01, -5.35738707e-01, -5.81562161e-01,
    -1.22002937e-01,  2.02233717e-01,  2.78344125e-01,  1.95103109e-01,  1.09304681e-01,  9.59942564e-02,  1.04005285e-01,  1.80336926e-02,
    -1.00634821e-01, -1.10122629e-01,  5.70477434e-02,  1.33146837e-01,  2.33926699e-01,  4.44703773e-02, -1.66670993e-01,  2.13727847e-01},
   {-1.80581704e-01,  2.50973463e-01,  4.21989918e-01,  1.66912481e-01,  4.71058547e-01,  4.28287536e-01,  3.05315197e-01, -8.71756449e-02,
     8.61889124e-03,  1.67153493e-01,  2.78669178e-01, -1.12510696e-01, -3.84494901e-01,  6.73217922e-02,  3.56835455e-01,  1.54350653e-01,
     1.65443584e-01, -3.01239407e-03, -1.00086361e-01,  1.54893205e-01,  4.11564320e-01,  1.69274777e-01, -1.59777611e-01, -9.34843421e-02,
    -2.68608378e-03,  2.02383772e-01,  5.35916165e-02,  8.51844400e-02, -4.36173491e-02,  1.71593592e-01,  1.63815975e-01,  1.38588160e-01},
   {-3.03279776e-02,  1.57969877e-01,  2.45509416e-01, -2.20094249e-02,  1.75373796e-02,  1.70754984e-01,  2.38085106e-01,  1.53953835e-01,
    -6.48846552e-02,  2.40628079e-01, -1.13475171e-03, -2.03423172e-01, -1.84850410e-01,  1.81433439e-01,  2.57720262e-01,  2.17302352e-01,
     1.65309593e-01,  6.27275603e-03,  6.76789060e-02, -1.37152046e-01,  1.44953432e-03,  1.42640188e-01, -3.28137018e-02, -1.94233850e-01,
     1.64863676e-01,  1.26501411e-01, -3.33410725e-02, -6.69221729e-02, -7.42006153e-02,  8.15365911e-02, -4.52519432e-02,  8.59952644e-02},
   {-2.81684011e-01,  1.23016424e-02,  4.99107063e-01,  3.89110118e-01,  9.62076783e-02,  3.11223179e-01, -3.04539669e-02, -6.78700879e-02,
     5.37771992e-02, -2.60913432e-01, -2.54621148e-01, -1.68327048e-01,  7.42574409e-02,  1.07154407e-01,  2.44096562e-01, -2.00714786e-02,
    -1.27329677e-01, -2.94477224e-01, -1.34603247e-01,  1.92903429e-01,  3.06516171e-01, -2.08390448e-02, -1.87876374e-02,  9.99052748e-02,
     1.78863760e-03,  1.09714739e-01, -1.07309684e-01, -1.19622527e-02, -1.05045296e-01, -2.12674543e-01, -4.94675525e-02,  3.08600545e-01},
   {-7.57945031e-02,  9.04971212e-02,  1.55909777e-01,  2.10095629e-01,  3.64975631e-01,  9.06780139e-02, -1.02716960e-01, -1.66131288e-01,
    -1.01335384e-01, -3.65425140e-01,  9.90038365e-02, -1.52796519e-03,  1.58169214e-02, -1.04516029e-01,  3.92950587e-02, -5.07623627e-05,
     2.00883090e-01,  1.12979963e-01, -3.07359137e-02, -1.36909202e-01, -7.45874345e-02,  1.05856717e-01, -7.71658197e-02, -2.19905764e-01,
    -3.20047177e-02, -3.93600732e-01, -1.15594752e-01, -1.70843959e-01, -1.36664167e-01, -3.65181305e-02, -1.35563156e-02, -3.10403228e-01},
};

const float GRNN0_U[64][64] = {
   { 2.40082771e-01, -1.25315428e-01, -4.48193580e-01, -2.12193638e-01, -9.46092233e-02, -7.48969615e-02, -4.10078496e-01, -1.90103091e-02,
    -3.20231110e-01, -1.46225736e-01,  3.07931989e-01, -3.50710690e-01,  3.63291875e-02, -5.80627006e-03,  2.73930803e-02,  4.18750435e-01,
    -7.27824047e-02, -1.47582233e-01,  5.60968556e-02, -2.63641059e-01, -2.14148358e-01,  3.11660729e-02,  2.31973335e-01, -1.55071944e-01,
     1.90041438e-02, -3.65111679e-01, -2.84189165e-01, -7.82415792e-02,  6.70015737e-02,  2.51252323e-01, -2.97509074e-01, -2.62925088e-01,
     1.28471255e-01,  1.25407055e-01,  2.48746619e-01,  1.40265778e-01,  2.33354643e-01,  1.75142869e-01, -3.50198478e-01,  1.95896551e-01,
     1.59752339e-01, -3.24981272e-01, -2.44168743e-01, -3.71626824e-01, -7.93219656e-02, -2.75607079e-01, -2.33556911e-01,  1.13352491e-02,
     4.27057415e-01,  5.07662177e-01,  3.50445271e-01, -4.59979802e-01, -1.82575621e-02,  1.06149510e-01,  3.03197801e-01,  6.08824939e-02,
     5.77695705e-02,  6.24349654e-01, -1.12156989e-02, -9.76026431e-03,  5.14889896e-01, -1.86009914e-01,  2.74176113e-02, -3.29028293e-02},
   { 5.86619712e-02, -2.59772480e-01,  5.45533359e-01,  3.33070844e-01,  3.76877114e-02,  7.99334273e-02, -2.67523497e-01, -5.30978739e-01,
     8.92083198e-02, -1.98692754e-01,  3.24727565e-01,  5.18665314e-01, -1.60912380e-01, -1.96007639e-01, -2.06267357e-01, -2.87185818e-01,
    -3.27399850e-01, -3.15881371e-01,  1.15666270e-01, -3.12065938e-03, -6.04596883e-02, -3.96329820e-01,  8.56874660e-02, -3.38047981e-01,
     8.39473233e-02, -8.98946464e-01, -1.09187372e-01, -1.10751778e-01, -9.74009372e-03, -3.52053463e-01,  4.16580647e-01,  1.68975726e-01,
    -1.12684958e-01,  4.64057066e-02, -1.69278726e-01, -3.05335727e-02, -5.28082967e-01,  1.82347596e-01,  2.56179452e-01, -4.15249541e-03,
    -6.23510301e-01, -2.39932723e-03, -6.73351660e-02, -1.88835800e-01,  2.71649063e-01, -3.41488630e-01,  7.28672892e-02, -8.63035917e-02,
     5.80525875e-01, -3.95093024e-01,  2.65485615e-01, -2.64915347e-01,  1.52797878e-01, -6.05529100e-02,  1.77844763e-01, -3.46102208e-01,
     2.71538228e-01,  1.71081573e-01, -1.19492471e-01,  6.91393539e-02, -1.26568392e-01,  1.56501323e-01, -2.53471792e-01, -2.18716919e-01},
   { 5.98464124e-02,  3.03265691e-01,  6.05583847e-01,  3.19768608e-01, -2.29712859e-01,  2.04309270e-01,  8.76792789e-01, -3.97877425e-01,
     5.81204295e-02,  2.66552597e-01, -1.66177794e-01,  1.57907084e-01,  6.00825250e-01,  5.60951531e-01,  7.33053982e-01,  5.95225751e-01,
     8.63297462e-01,  5.27784050e-01,  9.04788971e-02,  7.50840545e-01,  5.95465839e-01, -6.50647938e-01,  5.69489419e-01,  1.53812274e-01,
     4.53764312e-02,  2.59847164e-01,  1.89272575e-02,  1.25123128e-01,  1.20340504e-01, -4.58146371e-02,  3.24049890e-01,  3.23980659e-01,
     2.46881709e-01,  4.99951154e-01,  2.06798106e-01,  9.58630025e-01, -3.05584252e-01,  6.21083975e-01, -3.27263027e-01,  3.08735203e-02,
     1.12088345e-01, -2.07428470e-01,  4.16356415e-01,  5.54435611e-01,  5.01417279e-01,  7.04458207e-02,  6.46375895e-01,  7.05440283e-01,
     1.92173660e-01, -4.27933067e-01,  4.91807431e-01,  3.44343930e-02, -1.42315373e-01,  9.78452116e-02,  4.43664849e-01,  5.64409435e-01,
     7.22951949e-01,  4.70313787e-01,  3.01483013e-02,  2.02207819e-01, -4.81747001e-01, -1.25066727e-01, -1.66611999e-01,  2.58963019e-01},
   { 1.58081695e-01,  3.50753546e-01,  4.18343663e-01,  8.43807817e-01, -3.70383590e-01,  2.48939350e-01, -8.83781239e-02, -1.35561317e-01,
     4.05467115e-02, -2.48964623e-01,  3.68828438e-02,  3.62895936e-01,  9.41676572e-02,  4.00490314e-03,  1.92411005e-01, -9.55337193e-03,
     2.59956688e-01, -9.01880339e-02,  3.73379365e-02,  5.85201979e-01,  2.12829486e-01,  2.69710153e-01,  3.33626390e-01,  5.52486032e-02,
     3.19040418e-01,  8.93908665e-02,  1.09407388e-01, -2.56419003e-01,  4.86973107e-01,  4.05368835e-01,  1.95977435e-01,  8.23455006e-02,
    -5.67754209e-02,  2.01247901e-01, -1.33161336e-01,  3.73373866e-01, -3.59516554e-02, -1.64585486e-01,  1.28078893e-01,  1.15913622e-01,
     9.32785496e-02, -1.56154186e-01,  3.30454558e-01, -1.43162966e-01,  1.17891088e-01, -9.09333676e-02,  3.29085737e-01,  1.91624179e-01,
     3.75914842e-01,  2.65205562e-01,  3.35094988e-01,  3.75368059e-01,  4.86112647e-02,  6.34864807e-01,  5.99388778e-01, -9.48763564e-02,
     1.02109954e-01,  3.36461246e-01,  2.28872880e-01,  4.11328077e-01, -8.50498527e-02,  4.37032878e-01,  4.31844175e-01,  2.38666594e-01},
   { 1.05286568e-01,  8.03372636e-02, -3.82305831e-01,  4.50358808e-01, -9.24977541e-01, -4.97195363e-01, -1.47186294e-01, -3.17641884e-01,
     2.48684108e-01, -1.27047598e-01, -1.66785568e-01, -3.43884766e-01, -3.86372089e-01, -4.98597920e-01, -2.02674508e-01, -3.11241686e-01,
     5.29019713e-01, -1.32574841e-01, -2.52184331e-01,  1.39342070e-01, -2.78258979e-01,  1.39620081e-01, -8.08296561e-01, -3.86920094e-01,
     1.44213483e-01, -1.29499152e-01,  2.54421592e-01, -2.39983425e-02,  4.60786432e-01, -3.16185653e-01, -1.57317758e-01,  1.23705797e-01,
     4.23771441e-02, -3.86854112e-02,  2.86025554e-01, -1.21175580e-01, -8.03088769e-02, -2.38600582e-01, -3.52858573e-01, -1.47585884e-01,
     2.40359291e-01,  1.57602027e-01, -6.06738478e-02, -2.18004555e-01, -4.13099408e-01,  1.03486530e-01,  2.41947889e-01, -8.72997120e-02,
    -9.51877832e-02, -1.66356698e-01,  1.13231605e-02,  3.47164154e-01, -2.04811469e-01,  3.64005744e-01,  1.25834137e-01, -1.31694674e-01,
    -2.69098841e-02,  6.75887277e-04,  4.80333835e-01, -3.52321900e-02, -1.97787061e-01, -1.50090978e-01, -1.25633210e-01, -1.25187337e-01},
   { 2.99458325e-01, -4.40825999e-01,  4.42547917e-01, -2.11123735e-01, -8.66364479e-01,  9.32497755e-02, -1.04960568e-01, -1.98401824e-01,
    -4.64102536e-01,  5.36022961e-01,  1.25059739e-01, -2.63536870e-01,  3.44461709e-01, -1.40079692e-01,  3.88361335e-01,  4.80162680e-01,
    -4.83289510e-01, -2.54830271e-01,  6.63981810e-02, -3.73170897e-02,  2.97860712e-01, -2.83762395e-01, -1.87536016e-01,  1.44568846e-01,
     4.23442386e-03,  1.82881847e-01, -1.38674125e-01,  1.32332087e-01,  2.20147327e-01,  4.01731431e-02, -4.41609293e-01,  2.74138272e-01,
     2.14983895e-01,  3.89125019e-01,  2.70899445e-01,  1.95760936e-01,  4.99797426e-02, -6.99091777e-02, -3.98088783e-01,  2.12187633e-01,
    -4.51628938e-02, -6.94059968e-01, -2.73895025e-01, -2.05716312e-01,  3.14801037e-01, -2.43248791e-02,  4.66237992e-01, -1.91594735e-01,
    -7.69385695e-02, -1.80817977e-01,  2.55995780e-01,  5.63190401e-01,  5.45454443e-01,  4.74566877e-01, -2.01375723e-01,  3.10846329e-01,
    -2.15112358e-01, -1.43844858e-01, -9.78249460e-02,  6.68326616e-02, -5.91289043e-01, -5.16057126e-02,  9.49293524e-02, -1.44059062e-01},
   {-2.00910330e-01, -1.62784159e-01,  1.65655658e-01, -2.00889772e-03, -7.89316818e-02, -2.97641128e-01,  2.80130893e-01,  4.83324289e-01,
     6.83362707e-02, -6.33870289e-02,  3.60240228e-02,  2.09751185e-02,  3.95945907e-01,  2.13470146e-01,  7.18732178e-02,  3.34510058e-02,
     1.13769881e-01, -1.53243914e-01, -3.32958847e-01, -1.47686456e-03,  2.53852129e-01, -2.52753913e-01,  1.10042527e-01,  3.08946997e-01,
     2.11818814e-01, -1.23188585e-01,  2.31789604e-01,  2.15073928e-01, -5.64129353e-01,  2.82622010e-01, -1.99213132e-01, -7.85485432e-02,
    -3.39179158e-01, -1.26174882e-01, -1.59564584e-01,  2.16231167e-01, -1.29176557e-01, -5.21068908e-02,  3.03645451e-02,  2.02595472e-01,
     7.76450858e-02, -2.41660267e-01,  6.90558851e-02,  9.84377228e-03, -2.98743218e-01,  1.56803057e-01,  2.90685287e-03,  1.33222550e-01,
     3.06061171e-02, -1.24180682e-01,  1.78610712e-01,  1.34136155e-02, -2.31809542e-01,  1.72383457e-01,  8.56147483e-02,  3.84002961e-02,
     6.88771755e-02, -4.51928586e-01,  4.83914167e-02, -2.21035480e-01, -1.98889762e-01, -6.99104816e-02,  3.57272804e-01,  8.31136405e-02},
   { 4.83592190e-02,  3.38803649e-01, -1.85419485e-01,  2.68276840e-01,  1.61199585e-01, -3.08808446e-01,  4.17702556e-01,  1.22535951e-01,
     3.63619387e-01,  7.44493902e-02, -8.58609676e-02,  1.97673202e-01,  3.26113343e-01,  1.96475759e-01, -2.00962797e-01,  2.01421872e-01,
     7.97661185e-01,  2.69161254e-01,  2.60981232e-01,  4.30264682e-01,  2.60259062e-01,  1.39260679e-01, -5.20132124e-01,  1.71424240e-01,
     4.37518597e-01, -1.04300544e-01,  8.10094655e-01,  3.66428852e-01, -1.63586646e-01, -3.67332026e-02,  2.77846724e-01,  1.70456171e-01,
    -2.32060403e-01,  1.57503799e-01, -8.23749881e-03,  7.10430264e-01, -2.45767221e-01,  5.46288610e-01,  1.91622034e-01,  3.27233702e-01,
     3.28573525e-01, -4.08056676e-02,  2.40652040e-01,  2.10750952e-01,  5.01290381e-01,  5.99099398e-01, -1.78009585e-01,  6.78559840e-02,
    -2.48455092e-01,  2.51920640e-01,  7.15947747e-02,  9.49166641e-02, -2.97456235e-01, -8.18554088e-02,  3.81715298e-01, -5.72506264e-02,
     3.30760241e-01,  1.89501613e-01, -8.29819813e-02,  1.02863021e-01, -6.27690032e-02,  3.61378849e-01,  2.13432059e-01,  4.77089673e-01},
   {-4.43948321e-02, -2.80966401e-01, -1.93976283e-01, -8.74428675e-02,  2.76363790e-01, -1.72945395e-01,  1.55569121e-01, -5.92499189e-02,
    -3.15511286e-01, -1.02717549e-01, -1.81472123e-01, -8.56666639e-02, -1.08172141e-01, -4.84358996e-01, -1.87264934e-01, -3.87353182e-01,
     1.06225334e-01, -1.41986087e-01,  9.32592433e-03,  2.38192409e-01,  9.91686285e-02,  7.04468787e-02,  5.32058328e-02, -2.09623039e-01,
     2.49504969e-01, -3.19474220e-01,  1.12519553e-02,  2.04196125e-02, -1.36870846e-01, -9.42390263e-02,  6.86464161e-02, -6.18402883e-02,
     8.03695470e-02, -1.11941762e-01, -1.56279266e-01, -1.15280278e-01, -3.92304450e-01, -1.54015973e-01, -3.26724440e-01, -1.43309429e-01,
     2.67402202e-01,  2.34487444e-01,  1.06861070e-01,  2.95311119e-02, -1.43682852e-01, -9.31586884e-03, -3.46355468e-01, -6.40306324e-02,
    -2.59903073e-01,  1.34786546e-01, -3.40269744e-01,  7.50988275e-02,  7.17301667e-02, -2.16573045e-01, -6.93057571e-03,  9.66162011e-02,
    -2.66364872e-01, -3.48123401e-01,  1.50324795e-02,  1.28901273e-01,  2.76521504e-01,  1.40423506e-01, -2.30476130e-02, -9.13404822e-02},
   { 2.75336713e-01,  2.70290300e-02,  5.77722371e-01,  1.24110736e-01, -1.79665148e-01, -3.87795120e-02,  9.30185691e-02,  2.25113556e-02,
     9.06238481e-02, -4.70841855e-01, -3.07525903e-01,  1.93610176e-01,  1.03305675e-01,  4.74447235e-02, -2.31400728e-01,  1.06621897e+00,
    -1.86671838e-01, -1.22681394e-01, -2.30820477e-01,  2.87202209e-01, -1.26883447e-01,  3.28609914e-01, -6.71409518e-02,  2.31172785e-01,
     1.59920469e-01, -1.22098714e-01,  4.62291278e-02,  2.06559345e-01,  2.27026492e-01, -1.95761785e-01,  1.60863757e-01,  3.36660385e-01,
    -4.00474638e-01, -1.61543891e-01,  9.48988795e-02,  4.30191338e-01,  6.14302754e-02, -7.95822591e-03,  2.81425565e-01,  1.24809116e-01,
     1.64687604e-01, -1.12463087e-01,  6.28923923e-02,  4.88528656e-03, -1.58974566e-02,  9.92007256e-02,  2.84360319e-01,  1.57423273e-01,
    -1.60703152e-01,  1.24576040e-01, -2.12943424e-02, -1.88615113e-01,  4.00389023e-02, -2.95918018e-01, -2.41896790e-02,  4.69166376e-02,
     4.00518745e-01,  6.19291484e-01, -6.21757060e-02, -1.43544257e-01, -2.79242963e-01, -3.50307673e-02,  3.24105591e-01,  4.54395890e-01},
   {-2.29645059e-01,  2.46647924e-01, -7.43738860e-02,  6.83300048e-02, -1.16324343e-01,  1.75020680e-01, -4.47165892e-02, -1.99854612e-01,
     1.59393504e-01, -5.69371581e-02,  2.99519390e-01,  2.80843168e-01, -4.56240416e-01, -1.24888398e-01, -2.96953078e-02,  8.33094940e-02,
    -2.77257681e-01, -2.42222343e-02, -6.55950746e-04,  4.95616011e-02,  1.58454865e-01, -2.98764110e-01,  1.98547572e-01,  1.01044886e-01,
    -3.19512486e-01, -2.10557655e-01, -1.50788173e-01,  1.65546581e-01, -6.84574902e-01, -1.30251706e-01,  1.27103835e-01, -3.34362000e-01,
     7.64030695e-01,  1.55179560e-01, -6.49121404e-02, -1.61972165e-01,  3.81489173e-02,  5.54580867e-01,  1.50643229e-01, -3.62841152e-02,
    -3.06005061e-01, -4.73446220e-01, -8.15701559e-02, -2.48029798e-01,  6.04388535e-01,  2.41891190e-01,  3.16867568e-02, -1.45445332e-01,
    -4.78968360e-02,  3.67890485e-03,  4.18728888e-01,  2.77662016e-02,  8.96022975e-01,  1.38744354e-01, -5.86865246e-01,  8.47477540e-02,
    -3.72256637e-02,  4.78844374e-01, -3.27877365e-02,  3.27411443e-01,  2.52249271e-01,  6.38401806e-02,  3.32352012e-01,  1.02425978e-01},
   { 9.72539559e-02,  3.28673840e-01,  7.86542520e-02,  9.33809802e-02,  7.87892342e-02, -3.30592096e-01, -2.21907720e-01, -3.51359725e-01,
     2.69967616e-02, -1.73103660e-01, -1.35205194e-01, -1.52808413e-01, -2.13718474e-01, -3.64146270e-02, -2.85097629e-01,  2.85751019e-02,
     4.38713789e-01,  2.85597175e-01,  9.56263244e-02, -2.08216887e-02, -2.37777397e-01, -5.64268589e-01,  2.70151258e-01,  3.82503748e-01,
     1.89193875e-01, -2.94326395e-01, -1.86521739e-01, -4.79149640e-01,  8.21657032e-02, -5.57161629e-01,  8.02476883e-01, -3.55238348e-01,
    -7.39411218e-04, -2.33682618e-01, -9.59535763e-02,  1.00866824e-01, -4.26444143e-01,  1.87139675e-01,  1.83050811e-01,  5.28126545e-02,
    -5.51559925e-01, -2.99612969e-01, -4.88624014e-02, -2.20998779e-01, -2.59005576e-01, -6.01620115e-02,  1.65508062e-01,  1.08774275e-01,
    -1.64556488e-01, -3.95359904e-01,  1.94205806e-01,  4.50050086e-01, -2.06863694e-02,  2.95701008e-02,  3.13131779e-01, -1.64592519e-01,
     2.43213892e-01,  4.45600539e-01, -2.63061404e-01, -5.27524482e-03, -7.25726262e-02,  2.74404943e-01, -3.87020379e-01, -1.04991876e-01},
   { 1.02910347e-01, -1.42393494e-02,  8.36253539e-02, -1.41156003e-01,  1.01369388e-01, -5.18995464e-01,  2.28857920e-01,  1.11251317e-01,
     1.14523135e-02,  4.30200338e-01, -1.87946185e-01, -2.11976364e-01,  8.53834927e-01,  5.22433877e-01, -2.62302160e-02,  5.23722887e-01,
     1.22859649e-01,  4.40781265e-01, -3.39888223e-02,  1.29015207e-01,  2.06813544e-01,  1.29699437e-02,  3.25124599e-02,  1.74238514e-02,
     2.73715764e-01,  2.37766623e-01,  7.54579753e-02,  1.11645237e-01,  2.00151149e-02,  3.91692013e-01, -1.79930657e-01, -1.10504627e-01,
    -4.97845858e-01, -1.48488984e-01, -2.20745385e-01,  3.60402614e-01, -3.81836146e-02, -4.39296484e-01,  4.19672616e-02, -4.96819094e-02,
     1.33233607e-01,  1.92086086e-01,  1.65682778e-01,  2.64008999e-01, -1.03079610e-01,  3.00788134e-01, -2.42002830e-01, -1.61792375e-02,
    -1.73350628e-02,  9.50383618e-02,  4.03199270e-02,  1.21331856e-01, -3.24672043e-01,  1.53305411e-01,  1.97304398e-01,  1.54736102e-01,
     5.54462261e-02, -9.78345498e-02,  5.80736637e-01, -5.06075323e-01,  2.74972379e-01,  1.10725619e-01, -2.57429332e-01,  6.63340464e-02},
   { 3.25859785e-01,  3.59512925e-01, -1.79679692e-02,  1.92557499e-02, -9.44468081e-02, -1.16279528e-01, -2.47612134e-01,  1.39796913e-01,
     2.19093114e-01, -1.80117369e-01,  1.25027969e-01,  7.69743696e-04,  1.60948902e-01,  1.00686386e-01, -2.74318624e-02,  4.28382456e-02,
     4.68309037e-02,  2.11051151e-01,  1.86453741e-02, -4.54908639e-01, -4.71131243e-02, -1.30959406e-01,  8.98422301e-01,  3.47114205e-01,
     1.38688147e-01, -1.20573007e-01,  1.09635508e-02,  1.18904673e-01, -9.43393037e-02, -4.40312661e-02, -1.66258305e-01,  3.15578222e-01,
     5.08037984e-01, -2.28171229e-01,  1.42756745e-01, -1.42192960e-01,  2.62207896e-01,  1.36809558e-01, -6.95696175e-01,  1.15685491e-02,
    -2.61969566e-01, -5.42720377e-01, -2.72489339e-01,  1.55259907e-01, -1.04347222e-01,  9.52380002e-02,  3.35228443e-02,  2.30200723e-01,
    -2.21696019e-01, -8.42594206e-01,  2.47652963e-01, -5.59537232e-01,  4.08626758e-02, -2.36288190e-01, -2.10657775e-01,  5.81276834e-01,
     4.70085442e-02,  1.05564594e-01,  1.73223227e-01,  3.89722526e-01, -1.00373827e-01,  7.15923980e-02, -4.63100612e-01, -2.41819620e-01},
   { 1.03465989e-02, -1.53213590e-01,  4.24777001e-01,  5.24707139e-02, -3.33373308e-01,  2.63102859e-01,  3.45901459e-01, -2.51003355e-01,
    -1.27524570e-01,  2.76472896e-01,  7.92205557e-02,  1.02249302e-01,  5.52708626e-01,  2.88795680e-01,  2.91804612e-01,  3.43888044e-01,
     2.04151765e-01,  5.07745054e-03,  2.60235034e-02,  1.32893473e-01,  6.33067369e-01, -1.72662303e-01,  2.60088563e-01, -3.52136493e-01,
     5.77566803e-01,  2.08938271e-01, -2.12194622e-01, -6.89525545e-01, -8.58061314e-02,  2.30978608e-01, -4.72108066e-01,  2.17375204e-01,
    -1.31542131e-01, -2.80007213e-01, -2.05254465e-01,  5.48371196e-01,  2.00439692e-01, -2.56517660e-02, -2.28778630e-01,  3.64798486e-01,
     1.21826842e-01, -6.94950521e-02,  6.57697916e-01,  3.33561808e-01, -3.59258503e-02, -3.93495560e-01, -2.21431404e-01,  2.46229768e-01,
     5.13152957e-01, -4.64326471e-01, -1.62442684e-01,  1.30647525e-01,  9.45648849e-02, -9.91825983e-02,  5.03719389e-01, -3.72571588e-01,
     6.39955476e-02, -3.27727109e-01,  1.12734869e-01,  1.64685220e-01, -3.39988798e-01,  9.95827094e-02, -2.11975008e-01, -4.00265940e-02},
   {-2.28793278e-01,  1.05984025e-01, -1.10019319e-01, -4.75886971e-01, -2.05071405e-01, -4.76382881e-01, -4.83401209e-01,  4.09829915e-02,
     7.86594376e-02, -5.80881536e-01, -3.70142758e-01,  1.29267693e-01, -2.60343522e-01, -3.27524424e-01,  2.49288604e-01, -1.58696681e-01,
     1.99618284e-02,  1.42794579e-01,  5.90460896e-02, -6.25028610e-01,  3.46511215e-01,  6.36304915e-01, -6.35926902e-01, -1.35094598e-01,
     3.38995069e-01, -3.26186359e-01,  3.43039632e-01,  9.21933874e-02, -1.49367899e-01,  2.52086610e-01,  3.16786766e-01, -2.44920477e-01,
    -5.96886538e-02, -3.23701262e-01,  1.46278471e-01,  4.34819788e-01,  3.51819456e-01,  3.34357955e-02,  1.44025773e-01, -8.00979584e-02,
    -4.02121305e-01, -1.14900783e-01,  3.49752814e-01,  4.07933667e-02, -2.93496519e-01, -1.94057018e-01, -1.36051074e-01,  3.01202655e-01,
    -1.39360130e-01,  4.10605133e-01, -5.01711190e-01, -1.19492903e-01, -5.51749505e-02, -2.87892343e-03,  1.72643870e-01, -4.54032898e-01,
     4.40390743e-02,  4.33140993e-01,  1.06441088e-01, -4.09334838e-01,  3.49344075e-01,  8.30782130e-02,  1.40706331e-01,  4.50637013e-01},
   { 2.29066849e-01,  7.12141633e-01,  4.33925122e-01, -4.31651920e-02,  1.20517224e-01, -1.08633637e-01,  1.06551655e-01, -3.63908738e-01,
    -3.66623774e-02,  3.58659834e-01, -1.00585140e-01,  3.98628831e-01,  4.18991446e-01, -3.10910624e-02,  3.77465039e-01, -7.84393772e-02,
    -4.32741284e-01,  1.67420655e-01,  6.66102707e-01,  2.57947534e-01, -3.46192904e-02,  3.37298393e-01, -3.50658089e-01, -2.49756932e-01,
     2.89143771e-01, -2.62498349e-01, -3.85978132e-01, -8.40383232e-01, -2.68191189e-01,  4.57454473e-01, -3.86475623e-01,  5.61244301e-02,
    -4.06305373e-01,  2.25983448e-02, -1.49748191e-01,  2.57956773e-01, -1.02299422e-01,  1.58235818e-01,  3.54058504e-01,  5.02724826e-01,
    -1.21780343e-01,  7.97973335e-01,  3.95080149e-01,  5.03656209e-01,  6.73130378e-02,  2.02029258e-01,  2.65561968e-01,  3.61632496e-01,
     1.37907624e-01, -9.44164302e-03,  2.10487381e-01,  6.84318423e-01, -1.37374148e-01, -7.14838728e-02,  1.57406535e-02, -9.81619179e-01,
    -2.54620284e-01,  2.71440633e-02, -7.04433620e-02,  3.04637194e-01, -7.51055703e-02, -6.15187436e-02,  3.83929342e-01,  3.08737725e-01},
   { 1.29374042e-01, -2.82192200e-01, -2.80947208e-01, -2.61410594e-01,  6.38910949e-01, -2.49999911e-01, -1.72997881e-02,  2.07116053e-01,
     6.50066555e-01, -1.53215257e-02, -9.29994404e-01,  1.92634035e-02, -7.22184330e-02, -4.84253541e-02, -1.73635408e-01,  1.43754765e-01,
     2.39612848e-01,  3.36976230e-01,  7.36384839e-02,  4.16287273e-01, -2.94365525e-01,  2.47082099e-01, -2.57742971e-01, -7.05223605e-02,
     2.57000238e-01, -6.04280792e-02, -2.89604336e-01, -3.77184868e-01,  4.70355302e-02,  2.68552393e-01,  2.94403225e-01, -2.54168510e-01,
    -1.63846985e-01,  6.48145452e-02,  1.09990500e-02,  1.66828483e-01, -3.51367779e-02, -3.12343359e-01,  7.22724572e-02,  4.26336564e-03,
     2.62291044e-01,  2.95045912e-01,  1.03825219e-01, -3.29539962e-02, -3.63285355e-02, -1.96643025e-02, -3.05874608e-02, -1.25959992e-01,
     5.10153323e-02, -4.89325374e-02, -2.72355586e-01,  8.04538280e-02, -5.26809037e-01, -4.45290655e-01,  3.04624271e-02,  2.24108204e-01,
    -1.74965784e-01,  7.91158527e-02, -1.99643709e-02, -2.77847320e-01,  2.32796028e-01, -2.50004232e-01, -5.91553688e-01, -2.91611671e-01},
   {-3.11302304e-01,  3.82399589e-01, -4.22623068e-01, -2.32950866e-01, -3.87415243e-03, -3.81971896e-01,  2.95613319e-01, -1.74168497e-01,
    -6.48169369e-02, -1.66836888e-01,  2.67134815e-01,  3.29078525e-01, -3.84012535e-02,  2.46688858e-01,  7.71265030e-02, -9.77138951e-02,
    -4.67913747e-01, -4.09232855e-01,  1.60234720e-01, -3.91894251e-01,  3.27049464e-01, -5.37747741e-01, -1.22781456e-01, -5.14738858e-02,
    -6.12600818e-02, -3.26261260e-02,  3.44482273e-01,  4.59842354e-01, -6.32104278e-01, -5.64738691e-01,  5.65232299e-02, -1.52750403e-01,
     2.17011496e-02,  7.36147910e-02, -4.26403642e-01, -9.14671272e-02,  1.56569108e-01,  3.47423822e-01, -6.45038709e-02, -3.52007180e-01,
    -4.78083014e-01, -3.40665758e-01,  4.21024054e-01,  1.11726753e-01, -6.36965632e-02,  1.31494388e-01, -9.61646363e-02, -6.20126389e-02,
     7.26776570e-02, -7.23977566e-01, -6.89752921e-02, -2.38597110e-01, -3.72402281e-01, -2.76091039e-01, -3.26943338e-01,  2.44043171e-01,
    -1.41705051e-01, -6.15867041e-02,  2.83267260e-01,  1.43062264e-01, -1.16100810e-01,  1.66390687e-01, -2.22750343e-02, -2.32628152e-01},
   { 4.01779830e-01, -1.61465034e-01, -7.01982826e-02,  1.07275106e-01,  6.01179786e-02, -1.69030149e-02, -2.93001771e-01,  1.80770010e-01,
    -5.19306287e-02, -5.07856309e-01, -1.39051855e-01, -1.38961747e-01, -3.46077263e-01,  1.07552692e-01, -1.52358666e-01,  6.46001577e-01,
    -3.18520725e-01,  2.97841448e-02,  3.90897058e-02, -1.44889265e-01, -3.08775425e-01,  2.01423362e-01, -3.69886398e-01, -7.38397911e-02,
     7.02304766e-02,  2.74428248e-01,  1.16593093e-01,  2.82502383e-01,  2.67872810e-01,  3.06054175e-01,  6.98265061e-02, -4.64063793e-01,
     7.99625292e-02, -2.61535585e-01, -4.96742308e-01,  2.26691306e-01, -1.89029261e-01,  1.24149054e-01,  3.32240015e-01, -1.90331340e-02,
     1.97269440e-01, -2.72995979e-01,  2.30580300e-01,  1.50946882e-02, -8.36051011e-04, -1.56845286e-01,  1.21365683e-02, -1.05205454e-01,
     2.58054167e-01,  3.58941585e-01,  4.99830432e-02,  2.52393186e-01, -2.87752509e-01, -3.02607387e-01,  5.09710796e-02, -1.90367490e-01,
    -1.28343508e-01, -3.19681205e-02,  7.23119359e-04,  1.15460306e-02, -8.13194215e-02,  4.68715318e-02, -1.43951595e-01,  6.45868629e-02},
   { 4.24278647e-01, -3.93305480e-01, -2.82129824e-01, -1.37083501e-01,  9.65972990e-02,  1.00251660e-01,  1.59306839e-01, -5.12335956e-01,
    -3.95918608e-01,  1.01703472e-01,  5.03744259e-02,  4.59522335e-03,  2.94555724e-01,  2.15618014e-01,  3.63323122e-01,  2.61506736e-02,
    -6.45914972e-02,  5.89022115e-02, -4.32103783e-01, -1.68487296e-01, -1.26049682e-01,  1.24972880e-01,  1.06238775e-01, -3.84896576e-01,
     2.79955000e-01,  2.91416973e-01, -1.35329574e-01, -6.01868749e-01, -3.44637543e-01,  4.61064309e-01, -2.32207775e-01,  1.00258496e-02,
    -9.81362257e-03, -4.32568155e-02, -1.78458333e-01,  4.10595015e-02, -3.06589097e-01, -1.70585170e-01,  1.61504135e-01,  3.24963421e-01,
     1.30603313e-01, -1.53311968e-01, -6.62786365e-02, -7.78480098e-02, -8.77278075e-02,  5.41992765e-03, -7.63763011e-01, -4.52662185e-02,
    -8.79661441e-02,  3.58491421e-01,  1.55368641e-01, -3.90836596e-02,  8.66857395e-02, -5.36022410e-02,  1.09932028e-01,  9.81024057e-02,
    -1.40748963e-01, -2.01364666e-01,  2.43480578e-01, -3.04179907e-01,  6.90944672e-01, -3.20116915e-02,  2.44578257e-01,  2.45304525e-01},
   {-4.15419430e-01,  2.31470868e-01,  2.14954153e-01, -4.69964236e-01,  2.91432112e-01, -6.15552366e-01,  3.38422894e-01,  4.91651356e-01,
    -2.24940434e-01, -8.85576755e-02, -7.73381829e-01,  5.66978455e-02,  2.80903488e-01, -1.51142672e-01,  1.35420993e-01, -9.27370131e-01,
    -3.85000974e-01, -2.53068835e-01, -2.76244462e-01, -4.57425714e-01, -3.44261616e-01, -7.49998748e-01, -1.55138180e-01, -1.31945595e-01,
    -7.71082640e-02, -3.40892851e-01, -4.93637562e-01, -1.25109404e-01,  1.62814423e-01, -1.30354777e-01,  1.88871905e-01,  1.49627656e-01,
    -2.73529530e-01, -5.56369543e-01,  1.22523665e-01, -5.87202702e-03,  2.98905615e-02,  2.21742198e-01, -2.01376915e-01,  2.43623897e-01,
    -3.99239421e-01,  8.58926415e-01,  2.21409544e-01,  2.22020168e-02, -6.36715949e-01, -4.31432009e-01, -2.81129569e-01,  1.27101704e-01,
    -5.50457478e-01,  2.13964321e-02, -6.88292086e-01,  9.64467674e-02, -6.82603300e-01, -2.16791481e-01,  1.40890181e-01, -4.61078376e-01,
     2.73282588e-01, -4.29961950e-01, -1.52936831e-01, -4.72936243e-01,  2.08724201e-01,  1.59022152e-01, -2.15723231e-01, -1.42894208e-01},
   {-2.50028307e-03, -2.68565476e-01,  1.81723818e-01, -9.91978794e-02, -9.54357609e-02,  1.59611374e-01,  2.63579547e-01, -1.32311508e-01,
     2.13328049e-01,  1.23435510e-02,  3.86173725e-01, -6.40427694e-02,  1.14016138e-01, -1.58912107e-01, -1.88358396e-01,  5.04458964e-01,
     1.95390403e-01, -5.03861196e-02,  1.50684983e-01,  2.29879752e-01, -3.63194585e-01, -3.60823087e-02,  3.84700269e-01,  3.80089045e-01,
    -2.22020417e-01, -7.52487257e-02, -6.72895372e-01,  3.34991753e-01,  1.34976700e-01, -2.28353471e-01,  6.56424403e-01, -3.21936220e-01,
     4.74565983e-01,  2.68355429e-01, -2.79648423e-01, -1.00669712e-01, -2.56444931e-01,  3.42369050e-01,  5.83224967e-02, -1.54226750e-01,
     1.03405982e-01, -8.84322524e-02, -5.06927334e-02, -2.14865535e-01, -2.37528846e-01, -4.37419146e-01, -2.59588778e-01, -5.46128452e-02,
    -3.80814932e-02, -2.90444970e-01,  1.56951889e-01,  1.79568082e-01,  1.51575327e-01, -4.42191631e-01,  9.75825489e-02,  3.67337763e-01,
    -7.49740973e-02,  7.38373756e-01, -1.20747827e-01,  2.55102247e-01,  2.40704650e-03,  3.76017183e-01,  1.96924247e-02,  9.13015276e-04},
   {-3.19885492e-01,  2.80218542e-01,  9.14565325e-02, -1.08316198e-01, -3.12415734e-02, -3.11995625e-01, -4.55719829e-01,  8.36236253e-02,
     2.41583198e-01, -3.28837723e-01,  4.32503708e-02, -1.76498760e-02, -4.98661190e-01, -3.12567025e-01, -4.25963938e-01,  4.28702712e-01,
     1.70412272e-01,  7.70235658e-02,  3.00188035e-01,  3.82594503e-02,  2.12871745e-01, -1.72788367e-01,  1.80334806e-01,  3.82175118e-01,
     2.01980826e-02, -3.65015507e-01,  2.13598609e-01,  9.65542495e-01, -3.42881173e-01,  3.72613408e-02,  9.56767917e-01, -3.35099012e-01,
    -5.04622934e-03, -2.27675617e-01, -2.79377311e-01,  3.76699306e-02, -9.23297852e-02,  2.49348193e-01,  4.59627032e-01,  1.30795032e-01,
    -3.66515279e-01,  6.21121526e-02, -1.10641845e-01, -2.85790786e-02,  2.19410494e-01, -1.61464334e-01,  7.12336972e-02, -2.27413028e-01,
    -5.81846833e-01,  9.49163735e-02,  3.08281571e-01, -1.69301271e-01, -6.72706962e-02, -4.52647865e-01, -2.71389127e-01, -1.72614008e-01,
    -4.70484644e-02,  1.88632801e-01, -2.17548758e-01,  1.13941997e-01,  2.75922745e-01,  5.69949821e-02,  3.30338329e-02, -3.62581387e-02},
   { 2.71988362e-01, -1.15081899e-01,  6.27803564e-01,  2.21455861e-02, -4.49897975e-01,  8.44539776e-02,  9.14226592e-01, -3.87242772e-02,
    -9.44228098e-02,  4.64639008e-01, -1.70164630e-01, -1.82524305e-02,  1.27195060e+00,  7.21574187e-01,  4.22163755e-01,  2.76361555e-01,
     5.33086844e-02,  1.65627792e-01, -1.91998392e-01,  2.68385470e-01,  5.15095413e-01, -1.90668792e-01,  4.30088580e-01, -2.77357191e-01,
     2.01752245e-01,  3.87000829e-01,  1.71713769e-01,  1.78607881e-01, -9.83691067e-02, -6.26934767e-02, -5.18797457e-01, -5.49426228e-02,
     2.40269542e-01, -4.38792437e-01,  1.85266156e-02,  6.30934954e-01,  3.68845373e-01,  5.09301007e-01,  9.42876637e-02, -9.47043858e-03,
     7.46969938e-01, -2.02489421e-01, -4.77038249e-02,  7.35308349e-01,  5.82589507e-01,  5.45798838e-01,  5.89395046e-01,  7.61188149e-01,
     2.85566717e-01, -1.65223464e-01,  1.55949160e-01,  6.84387535e-02, -2.14702412e-01, -9.23580378e-02,  5.97649932e-01,  7.70910025e-01,
     4.40494001e-01, -1.38412595e-01, -5.02224624e-01,  4.41634804e-02, -4.25220877e-01,  1.11019127e-01,  1.11904003e-01,  3.35282981e-02},
   {-9.41793397e-02,  7.46986195e-02, -1.74597581e-03, -2.83471227e-01,  1.93911090e-01, -1.19830638e-01,  5.22758812e-02,  3.35502118e-01,
    -3.96945588e-02, -2.12867960e-01, -4.22153100e-02,  2.11088229e-02,  4.66948096e-03, -2.73315787e-01,  1.82261825e-01,  5.69904089e-01,
    -1.49727106e-01, -1.32708222e-01,  3.98570374e-02, -9.31460559e-02, -3.83967400e-01, -1.84168205e-01,  5.41880429e-02,  6.12430334e-01,
     7.85529986e-02, -1.09251039e-02, -1.46873280e-01,  1.43578768e-01, -3.44317146e-02, -9.02040228e-02,  2.50550285e-02, -4.59194005e-01,
    -4.04794514e-01, -8.80689099e-02, -1.65194735e-01, -2.39537768e-02, -4.33926642e-01,  4.44515906e-02,  3.30673933e-01, -3.84238631e-01,
     2.05949664e-01,  5.65325916e-02, -2.01488525e-01, -4.24956605e-02,  4.55664296e-04,  1.26086146e-01, -7.46198818e-02, -1.56453341e-01,
     3.75513099e-02,  3.42420414e-02,  8.08754861e-02,  1.31046593e-01,  1.53309107e-01, -6.51838541e-01, -2.53081262e-01, -2.76225545e-02,
     1.96184754e-01, -6.52628183e-01, -1.48406804e-01,  9.74390656e-02,  4.37032580e-01, -1.93356872e-01,  4.60088216e-02,  2.24797167e-02},
   {-2.45277271e-01,  4.47835982e-01,  5.99439442e-01,  4.21634555e-01, -3.03286016e-02, -7.53361464e-01,  4.89281937e-02,  1.50753126e-01,
     2.91093290e-01,  1.19011462e-01,  8.40226114e-02,  2.25405127e-01, -2.81284675e-02,  3.65351886e-02, -9.11535323e-02, -2.31823817e-01,
     3.56574394e-02, -3.47520083e-01, -1.11493841e-01, -4.74425480e-02,  3.97163391e-01,  8.23407248e-02,  4.44775335e-02, -1.24804065e-01,
    -5.29524833e-02, -3.62953365e-01, -2.18128623e-03,  4.21969555e-02, -3.38443756e-01, -6.12850897e-02, -3.31735879e-01,  6.94987476e-01,
    -2.30671361e-01, -5.61723597e-02, -1.55561864e-01,  1.89977512e-01,  7.11228967e-01, -8.89311433e-02, -3.58511418e-01, -1.82578117e-01,
     5.44641763e-02, -9.20790955e-02, -6.21680953e-02, -1.26022073e-02,  2.26451010e-02,  5.18567145e-01, -1.36743411e-01,  9.97010395e-02,
    -1.00958578e-01,  1.21314377e-02, -1.39702842e-01,  5.63361384e-02, -1.36331156e-01, -1.35135740e-01,  2.52490103e-01, -4.33543287e-02,
    -2.85687834e-01, -2.54715502e-01, -3.23306233e-01, -2.78456032e-01, -1.04995094e-01,  4.56825912e-01, -1.47035971e-01, -1.05232470e-01},
   {-2.03767315e-01,  9.48676765e-02,  1.15300715e-01, -4.48773336e-03, -3.01745236e-01, -2.65294701e-01,  1.32631153e-01, -1.26521483e-01,
     1.91410795e-01, -5.97067475e-02, -1.67482734e-01,  1.51467770e-01,  1.28312528e-01, -3.82069349e-02, -2.23006885e-02,  2.38967892e-02,
     3.36923182e-01,  4.94901985e-02, -1.38293386e-01, -2.99230516e-01,  9.07234430e-01,  3.87756638e-02, -3.04392189e-01, -2.59889185e-01,
     1.13537788e-01, -5.03513455e-01,  5.17801166e-01,  1.03717670e-01, -4.79814827e-01, -1.97080866e-01, -3.23004156e-01,  5.55718504e-02,
    -9.80351493e-02, -1.21201733e-02, -4.41673815e-01,  4.64072049e-01,  9.10377726e-02,  1.57384962e-01, -1.58334628e-01,  4.95797917e-02,
    -4.76322234e-01, -6.07528444e-03, -1.36326015e-01, -5.55324219e-02,  1.40431866e-01,  2.37189084e-01, -3.27122957e-01,  1.04728065e-01,
    -6.18839622e-01,  4.12830025e-01, -1.71148866e-01, -5.48815355e-02, -9.96929258e-02,  6.48462996e-02,  7.44802877e-02,  2.17769980e-01,
     3.16567160e-02, -3.89806069e-02, -1.27533734e-01, -1.54588640e-01, -1.40958831e-01,  5.03316164e-01,  6.36105612e-02,  2.79563330e-02},
   { 2.09297627e-01,  8.22946429e-02,  9.76477563e-03,  3.90413582e-01,  8.08937401e-02, -3.98887135e-02, -6.78257644e-01,  6.94995299e-02,
    -1.49564028e-01, -6.64898455e-02, -3.36422175e-01,  8.18951055e-03, -3.18203598e-01,  1.35119125e-01, -2.45357245e-01,  8.33992660e-01,
     2.08928168e-01, -3.18378270e-01,  5.69372535e-01,  2.59046078e-01,  3.21277112e-01,  5.27743340e-01,  1.03919441e-02,  3.91494036e-02,
     3.88078809e-01, -1.82431787e-02,  2.97153682e-01, -1.48186252e-01, -2.94540673e-01,  5.66342294e-01,  4.07363653e-01, -2.99710929e-01,
    -1.03502899e-01,  1.36638165e-01, -2.77617157e-01,  8.61439556e-02,  2.74452299e-01, -2.99800355e-02,  3.35438848e-01,  1.09418565e-02,
    -1.47330627e-01,  7.27870455e-03,  3.99635643e-01,  4.37004790e-02,  1.15161590e-01, -4.33481261e-02,  3.88957709e-01,  4.37168241e-01,
     9.66132656e-02,  4.79743093e-01,  4.46413726e-01,  6.01748645e-01, -4.23223339e-03, -6.29470795e-02,  2.02410355e-01, -6.87209368e-02,
     4.68263716e-01,  5.11296749e-01,  1.33006185e-01,  2.12632269e-02, -1.36805132e-01,  1.92128912e-01,  5.58080852e-01,  7.22491622e-01},
   { 4.86288629e-02, -2.59797454e-01, -5.49736954e-02,  1.38420105e-01, -3.08886878e-02, -2.95618083e-02, -2.88773417e-01,  4.06406820e-02,
    -3.74733716e-01,  4.23751920e-02, -5.42593420e-01,  1.18221119e-02, -1.86111212e-01, -7.66759589e-02, -2.58460194e-01, -4.86110151e-01,
    -9.32962447e-02,  3.66166502e-01,  6.35251701e-02, -2.95511991e-01, -3.57960522e-01,  5.01041770e-01, -2.71428227e-01, -3.65298510e-01,
     1.46204636e-01, -2.39527285e-01, -3.02624732e-01, -3.87629569e-01,  2.82744646e-01, -7.28966370e-02, -6.66389525e-01,  1.91579729e-01,
    -7.01831952e-02, -7.25779086e-02, -9.18217376e-02, -2.96889469e-02,  1.22616947e-01, -2.26070099e-02, -1.80794179e-01,  1.85087904e-01,
    -1.15564391e-01,  2.75723189e-01,  5.76347671e-02,  6.67390004e-02, -1.27422765e-01, -1.39858797e-01,  4.87825215e-01, -1.51559427e-01,
    -8.99992958e-02,  3.89515042e-01, -1.45916834e-01,  3.14377286e-02, -2.63294309e-01, -1.71908304e-01, -7.73605406e-02, -2.26779714e-01,
    -4.11288083e-01, -3.15117896e-01, -4.45852935e-01, -2.79862322e-02,  1.59251943e-01,  1.08446956e-01,  4.13732277e-03,  1.63057163e-01},
   {-2.90107280e-01, -2.85057873e-01,  5.39904833e-01, -1.54184431e-01,  9.23438668e-02, -1.05268009e-01,  2.60330617e-01,  5.13251781e-01,
     2.65393764e-01,  1.45983011e-01, -5.60502289e-03, -9.98843536e-02, -9.04893726e-02,  5.73429577e-02,  1.57857195e-01,  3.19081157e-01,
    -3.30637664e-01,  1.35569483e-01,  2.93855071e-01, -1.69132724e-01,  4.80417162e-01, -3.74372214e-01, -1.07677601e-01, -1.73839524e-01,
     1.00708461e+00,  8.32729191e-02,  8.15467894e-01,  9.33033586e-01, -4.30026352e-01, -3.94388169e-01,  1.04824364e-01,  2.95127898e-01,
     3.19028288e-01, -8.95505920e-02,  2.51314163e-01,  8.57732773e-01,  4.23458181e-02, -3.93787920e-01,  2.44289041e-01,  8.70137885e-02,
     4.68920060e-02, -2.90794104e-01,  6.00722671e-01,  2.18372166e-01, -1.51183352e-01, -2.51108427e-02,  1.89777300e-01, -3.77260894e-02,
    -3.33516151e-01,  3.98449183e-01,  5.85089847e-02, -9.70909670e-02, -3.16507041e-01,  4.89320271e-02,  3.24869245e-01, -6.40232086e-01,
    -1.34747982e-01, -1.11676455e-01,  3.83308202e-01,  1.62430629e-01, -4.36219513e-01,  3.12725067e-01, -2.22187936e-02,  1.52877137e-01},
   {-2.84179952e-02, -1.70531739e-02,  1.01924586e+00,  2.39046156e-01, -3.40275586e-01, -1.75926819e-01, -3.30301255e-01,  1.32066384e-01,
     8.40443000e-02, -2.20648229e-01, -3.85894626e-01, -7.16589838e-02,  3.55700940e-01,  9.36591700e-02, -5.45937568e-03,  6.45126224e-01,
    -7.23128617e-02, -3.56855333e-01,  1.50136590e-01,  3.57127845e-01, -3.13558638e-01, -6.52452745e-03, -2.36030713e-01,  2.57682838e-02,
     2.35557050e-01, -3.96990240e-01,  5.03253996e-01, -4.30977717e-02,  2.39944175e-01, -1.63568184e-01, -9.50795561e-02,  3.58432531e-01,
    -1.98740110e-01,  2.06585258e-01,  1.67278629e-02,  6.94553316e-01,  7.90468097e-01,  2.05126610e-02, -3.02265324e-02,  4.68613058e-02,
    -2.31121570e-01, -7.16692150e-01,  1.28664926e-01,  4.63796675e-01,  2.70149261e-02,  9.92002413e-02, -3.85529846e-02,  9.82688963e-02,
    -5.49467325e-01, -2.93070853e-01,  2.89874136e-01,  2.31556386e-01, -9.56275389e-02,  2.19653562e-01,  4.38841075e-01,  1.21032506e-01,
    -5.20038940e-02, -2.36893483e-02, -2.52149642e-01,  1.29560411e-01, -9.60595727e-01,  7.09141269e-02, -2.91355789e-01, -1.20279882e-02},
   {-2.95883596e-01,  9.22261253e-02, -2.96592146e-01, -7.65925273e-02,  6.46854341e-01, -4.67385828e-01, -1.30013287e-01, -1.17846370e-01,
     4.41966474e-01, -3.30603153e-01, -3.62495393e-01,  1.70584500e-01, -1.63368076e-01,  2.05279529e-01, -1.18000237e-02,  1.63978904e-01,
     5.73958397e-01,  2.45250054e-02,  2.49294564e-01,  1.68535620e-01,  4.98345010e-02,  3.77820730e-01, -3.50784302e-01,  7.34221935e-02,
     7.21179992e-02,  1.61064893e-01,  2.20004529e-01, -5.37862420e-01, -2.18129829e-01, -1.76301330e-01,  2.11146221e-01,  6.53818071e-01,
     3.39716643e-01, -8.81312266e-02,  2.47809663e-01,  4.36603010e-01,  6.25272036e-01,  1.67152390e-01,  2.16375381e-01,  1.75789550e-01,
    -3.19695473e-01, -1.15141243e-01,  2.04248294e-01, -1.32587463e-01,  7.95774013e-02, -2.97736173e-04, -2.44863033e-01,  3.19300234e-01,
    -1.76873997e-01,  1.34051636e-01,  1.79821283e-01, -4.41960711e-03, -7.33589381e-02,  3.51408422e-01,  3.63141805e-01, -2.86548920e-02,
     1.34123623e-01,  8.27230394e-01, -1.60434559e-01, -6.31308019e-01,  4.29497391e-01,  1.03716575e-01,  4.41507757e-01,  5.06643355e-01},
   { 3.77998911e-02,  2.87226085e-02, -1.33277133e-01, -2.91326404e-01,  1.29107177e-01, -1.46456212e-01, -5.80828860e-02,  4.62562114e-01,
    -1.33120820e-01, -2.09179029e-01, -1.29437909e-01,  8.87738690e-02, -5.31693250e-02,  9.66975614e-02, -5.05034089e-01,  2.11822346e-01,
    -1.51863629e-02, -3.85239601e-01,  1.21405788e-01, -7.60174170e-02, -2.39373595e-01,  2.08120301e-01, -1.17267743e-01,  3.85327071e-01,
    -5.11687219e-01,  6.37778491e-02,  2.15938255e-01,  7.56178796e-01,  2.20369443e-01,  1.15710795e-02,  9.86954123e-02,  1.41156062e-01,
     1.23993292e-01, -2.58720428e-01,  6.56872630e-01,  6.85050935e-02,  5.24408758e-01,  3.10748756e-01, -1.09210886e-01, -1.66833073e-01,
     6.57865480e-02, -3.68435800e-01,  1.67176902e-01, -2.23351672e-01, -2.96636019e-02,  2.83844411e-01, -6.16276152e-02, -1.34344548e-01,
     2.23070472e-01,  2.19762787e-01,  1.97010279e-01, -1.80806816e-01, -2.05802441e-01, -9.89461690e-02,  8.40885341e-02,  3.47943068e-01,
    -1.61749780e-01, -4.02910560e-01,  1.14922531e-01, -2.66944647e-01,  2.01120511e-01, -2.71439552e-01,  1.51730582e-01,  2.02974245e-01},
   {-2.13691071e-01,  5.62886477e-01,  1.06236078e-01,  2.00605299e-02, -7.53915429e-01,  4.84719396e-01,  1.01843104e-01, -5.90468228e-01,
     1.72843993e-01,  3.89822841e-01,  1.11591458e-01, -1.01930901e-01,  3.30796391e-01, -2.26280808e-01,  3.21663439e-01,  7.55664408e-01,
     9.87328827e-01,  1.16655283e-01,  4.75224704e-01,  1.35135755e-01,  3.22306305e-01, -6.00087166e-01,  1.53443635e-01,  5.51505387e-01,
     1.97970778e-01,  9.74548683e-02, -1.13677822e-01, -3.50443348e-02,  4.16701704e-01,  7.05711450e-03,  2.85431236e-01,  4.88448190e-04,
    -6.57353580e-01,  6.85089976e-02, -2.48535499e-01,  2.79454410e-01, -5.49874187e-01, -1.98300797e-02, -5.19071184e-02,  7.98622251e-01,
    -3.34479302e-01, -4.22420561e-01, -3.60266477e-01, -3.37140143e-01,  4.52606678e-01,  5.18883824e-01,  1.07437335e-01,  2.89383501e-01,
    -1.44504681e-01,  5.49355567e-01, -2.88101494e-01,  3.90985608e-01,  1.86682865e-01,  2.40288824e-01,  5.68318069e-01,  1.55120254e-01,
     9.09424722e-02, -2.27386504e-01,  1.85867161e-01,  2.68454045e-01,  4.67718720e-01, -3.95798802e-01,  1.63215265e-01,  8.97314399e-02},
   { 2.82897763e-02,  2.60352463e-01,  3.84547383e-01,  4.89966035e-01, -2.39259511e-01,  2.70387270e-02,  6.29833162e-01, -2.12728158e-02,
     5.37702560e-01,  4.92808759e-01, -1.83462858e-01,  5.02452433e-01,  5.93799829e-01,  4.38416749e-01,  5.88248432e-01,  4.69651312e-01,
     1.62215218e-01,  6.37553930e-01,  4.63475361e-02,  2.19405994e-01,  3.65620941e-01,  8.15230086e-02,  2.63309985e-01,  1.13583222e-01,
     4.38536495e-01,  4.28203523e-01,  1.90605596e-01,  8.73210788e-01,  2.96265990e-01, -7.92263821e-02,  3.98811758e-01,  1.48293972e-01,
    -1.63054705e-01, -1.34736598e-01,  2.18523100e-01,  2.86654234e-01, -9.43615884e-02,  5.27315199e-01,  2.18495846e-01,  4.76119760e-03,
     5.28598785e-01, -5.42611063e-01,  5.55227578e-01,  3.15821528e-01,  1.53059259e-01,  9.84554067e-02,  4.02411252e-01,  3.32190216e-01,
     1.56291544e-01, -3.51644218e-01, -2.31120050e-01, -2.81669378e-01, -8.90518799e-02, -8.23690519e-02,  3.27905536e-01,  2.78634280e-01,
     3.69002610e-01, -3.99121828e-02,  1.44751325e-01,  3.65350395e-01, -7.23686337e-01,  2.31070966e-01,  2.77813375e-01,  3.51725638e-01},
   {-2.10811824e-01,  5.68218827e-02,  2.75948554e-01,  3.04877043e-01, -1.65391490e-01,  1.84930012e-01, -6.77310973e-02, -1.16623826e-01,
     4.98399228e-01,  1.72570631e-01, -5.72678670e-02,  7.54966140e-02,  5.95087782e-02, -7.90903643e-02,  1.53803974e-01, -8.61433297e-02,
    -4.60576192e-02,  1.43851951e-01,  1.05560832e-01,  3.72155577e-01, -4.06194888e-02,  1.40363365e-01, -6.63590655e-02,  1.65755630e-01,
     3.23199689e-01,  6.50608063e-01, -8.64449143e-02, -1.54338598e-01, -1.06974527e-01,  1.57845885e-01,  5.57074472e-02,  2.00850680e-01,
    -5.94155490e-01, -4.23918158e-01, -1.19809741e-02,  2.16366857e-01,  2.24726111e-01, -7.45045394e-02, -1.23384923e-01,  7.07110614e-02,
    -1.98778808e-01, -4.59352255e-01,  1.55655995e-01,  2.50407755e-01, -4.10390258e-01,  3.50517154e-01,  4.26890045e-01,  3.96398604e-01,
    -5.34878410e-02,  9.89649296e-02,  1.00230120e-01,  6.54866323e-02,  3.23884152e-02, -5.61274707e-01,  3.31774801e-01,  7.75450841e-03,
     3.04489553e-01,  4.90391970e-01,  1.83232278e-01,  1.75179973e-01, -2.55410790e-01,  8.98993835e-02, -1.00016586e-01, -4.13406417e-02},
   { 1.58972129e-01, -5.46097802e-03,  2.76921451e-01, -2.29024008e-01, -3.09055269e-01,  5.63032180e-02, -3.75121325e-01, -6.60029709e-01,
    -2.89366841e-01, -9.12801176e-02,  1.45062074e-01,  5.18285155e-01, -2.54644044e-02, -5.06984554e-02, -4.42801178e-01, -2.64158338e-01,
     2.45574504e-01, -1.24809057e-01, -9.60754529e-02,  3.02581042e-01, -1.83528274e-01, -5.62722862e-01,  1.21611029e-01, -1.33694634e-01,
    -3.24952424e-01, -3.34213898e-02, -2.76832044e-01, -2.72862613e-01,  6.46002218e-02,  1.67356804e-01,  4.18740690e-01, -1.76435739e-01,
     2.17983961e-01,  2.61339128e-01, -5.88882148e-01,  5.87499030e-02, -1.06215030e-02, -1.51647672e-01, -3.51509124e-01,  5.02225198e-02,
     1.66010916e-01,  2.78465003e-01,  6.75613880e-02,  8.38328451e-02, -3.99869531e-02, -1.31495461e-01, -1.67202219e-01,  1.35696784e-01,
    -2.84070913e-02,  7.02799186e-02,  1.93714604e-01,  1.38988048e-01,  1.23565599e-01, -1.93640217e-02,  3.94752808e-02,  9.81621966e-02,
     1.29322812e-01,  3.84890020e-01, -4.03247476e-01, -2.95370936e-01,  1.69348389e-01,  4.05967474e-01, -2.35250313e-02, -3.14321816e-01},
   {-4.93779004e-01,  4.55095857e-01, -5.55386469e-02, -4.97429108e-04,  1.01497069e-01, -2.87987858e-01,  2.80330330e-01,  2.42264584e-01,
     3.39783490e-01,  9.73110646e-02, -1.04611345e-01,  1.87681556e-01, -8.28804597e-02, -5.55757105e-01, -2.40499482e-01, -2.51107484e-01,
    -3.16165477e-01,  9.05701667e-02, -9.08736438e-02, -4.95836474e-02, -2.20825166e-01,  6.95300177e-02, -1.46990895e-01,  7.11088479e-02,
     3.87739092e-02, -7.66049474e-02,  4.72670980e-02, -2.78561981e-03, -1.05361633e-01,  1.92793146e-01,  6.45562187e-02, -7.37197772e-02,
    -2.22477630e-01, -2.73530066e-01, -5.54100201e-02, -3.36561650e-02, -4.52811837e-01, -2.20206410e-01, -4.18882519e-01, -5.76364398e-02,
     3.29991519e-01,  1.94151789e-01,  3.14509809e-01, -1.40369028e-01, -1.13238543e-01,  2.74468392e-01,  5.77713609e-01, -1.75745040e-01,
    -3.26462954e-01, -8.73414427e-03, -3.72877449e-01,  5.09073675e-01, -2.74440825e-01, -1.82120323e-01, -4.92657460e-02, -4.69093502e-01,
     3.68243843e-01, -8.78892839e-01,  2.64974814e-02, -5.79991415e-02, -2.72003680e-01,  7.00047538e-02, -2.08816946e-01, -3.23715240e-01},
   {-4.11001205e-01,  6.60081804e-01,  4.92470592e-01,  3.86386216e-01, -3.84065032e-01, -1.17716588e-01,  3.89668047e-01, -1.62974194e-01,
     5.90406477e-01,  7.51657188e-02,  2.36247957e-01,  5.26800632e-01,  5.46070874e-01,  6.25471324e-02,  1.63908482e-01,  3.86335611e-01,
     3.41106445e-01,  4.23625946e-01,  5.31156242e-01, -2.22836554e-01,  3.43956470e-01, -3.37026060e-01,  4.07752246e-01,  3.20389092e-01,
     7.70383418e-01,  3.08603525e-01, -6.30239964e-01,  6.96559474e-02,  1.24681108e-01, -4.81444821e-02,  5.60430706e-01,  1.62403464e-01,
    -4.01340306e-01, -2.13931456e-01, -4.12030518e-02,  6.28895998e-01, -2.62921482e-01,  3.22078854e-01,  7.26882458e-01, -6.37915870e-03,
    -8.03167224e-02,  3.71736586e-01, -8.57802108e-02,  3.54813516e-01,  4.06871974e-01,  2.63639748e-01, -3.72861803e-01,  5.86059868e-01,
     2.50323713e-01, -1.37771934e-01,  3.16678472e-02,  2.99432874e-01,  1.88181788e-01,  4.58956808e-01,  7.41916895e-01,  4.44300473e-01,
     3.84388745e-01,  3.77609208e-02,  1.50898799e-01,  4.47952934e-02, -4.01821852e-01,  4.01190370e-01,  1.10164359e-01,  4.46537584e-01},
   { 2.54170924e-01, -2.36434370e-01, -4.17812131e-02, -1.41240731e-01, -3.81117426e-02, -1.25574499e-01, -6.08042717e-01,  2.00491428e-01,
    -1.12980284e-01, -2.36426696e-01, -1.25254437e-01, -4.54146326e-01, -1.89390048e-01,  2.20588341e-01, -1.63245678e-01,  5.66348374e-01,
    -3.33637029e-01, -1.50784492e-01,  4.34575044e-03, -1.19853683e-01, -2.45887041e-01,  3.05779755e-01, -4.79815528e-02,  3.20435137e-01,
    -1.13378577e-01, -2.38805845e-01,  1.01873968e-02,  2.33973905e-01,  3.33362520e-01, -3.26557994e-01, -1.34314939e-01, -3.70749623e-01,
     1.63292125e-01,  1.77033752e-01,  7.99914002e-02,  2.22533241e-01,  8.19750875e-02,  1.02024838e-01,  5.43633550e-02, -1.08643882e-01,
    -1.27754509e-01,  8.51330608e-02, -3.55358273e-01, -4.55862164e-01, -1.51044309e-01,  1.11864306e-01, -1.30655160e-02,  1.63496315e-01,
    -1.14791684e-01,  2.81943530e-01, -3.60858515e-02, -1.24067664e-01, -1.07855789e-01, -2.16353424e-02, -1.33562507e-02,  5.16266882e-01,
    -1.57463953e-01, -6.08799458e-01, -8.96531269e-02,  9.14817303e-02,  2.69290805e-01,  9.16654766e-02,  9.87726152e-02, -2.26676404e-01},
   {-1.11969277e-01, -5.80330372e-01, -1.16057627e-01, -1.96771249e-01, -1.30836263e-01,  2.64794618e-01,  7.09195063e-02, -1.98761478e-01,
    -1.94778293e-01, -5.15085340e-01, -6.85894728e-01,  1.25812413e-03,  7.64741078e-02, -7.74491355e-02,  2.50172526e-01,  4.09938753e-01,
     5.91062188e-01,  1.82767898e-01, -8.09394896e-01,  6.31905258e-01,  2.64004588e-01,  1.46044776e-01, -2.69418359e-01, -9.25420880e-01,
     4.25044358e-01,  1.41665656e-02,  4.57383931e-01, -8.17441717e-02, -5.50573431e-02,  2.25345641e-01,  6.09998047e-01,  3.13386679e-01,
     4.91670519e-01,  4.91445512e-01,  2.84552157e-01,  2.50867814e-01, -1.87438443e-01,  5.47342934e-03, -2.22021565e-01, -1.08684324e-01,
    -1.65818259e-01, -2.38395363e-01,  1.31437615e-01, -5.97352445e-01, -5.15614040e-02, -3.40445787e-01, -2.26181939e-01,  1.13510164e-02,
    -3.19948699e-03, -1.42069772e-01,  1.05479002e-01, -1.00594319e-01, -6.98493361e-01,  3.08979005e-01,  1.63318798e-01,  4.78129238e-01,
    -2.45975405e-01,  2.34030440e-01, -3.14940095e-01, -6.43643141e-02,  2.24698901e-01, -2.06442147e-01, -5.89266956e-01, -3.12251061e-01},
   {-1.90170512e-01, -2.77086169e-01, -4.17842835e-01, -1.96656495e-01,  4.29030433e-02, -2.06970990e-01,  1.60509184e-01,  4.02265191e-01,
    -8.41931179e-02,  5.17517388e-01, -2.20733270e-01,  1.58259824e-01, -9.32705328e-02, -1.78143814e-01, -2.41032764e-02, -8.41301858e-01,
    -2.96246380e-01,  3.29044253e-01, -1.22372117e-02, -7.14237913e-02, -4.80377153e-02, -3.70812789e-02,  2.65582670e-02,  3.40973347e-01,
     1.17617317e-01, -4.31649610e-02, -1.03754729e-01,  3.49045187e-01, -5.99808335e-01,  1.24911912e-01, -3.47612351e-01, -2.85986841e-01,
     3.88964176e-01, -3.36185366e-01, -1.67414770e-01, -9.16568711e-02,  1.75295658e-02,  1.35319587e-02,  1.57435551e-01,  1.42399013e-01,
    -8.20139125e-02, -2.10218623e-01, -2.35437170e-01, -9.11987349e-02,  1.86422497e-01,  1.56725973e-01, -3.16695005e-01, -4.52308878e-02,
    -3.17442387e-01, -3.15923966e-03,  1.05198193e-02, -2.00085044e-02, -3.24491233e-01, -1.01396158e-01, -8.31407532e-02, -3.49084049e-01,
    -5.11613727e-01, -1.44919708e-01,  3.38133246e-01, -1.31188706e-01, -1.61697194e-01,  1.86244413e-01,  1.63139418e-01,  1.06673412e-01},
   { 2.07082331e-01, -2.00969711e-01, -1.56889036e-01,  6.03858195e-02,  5.21950722e-02, -1.82176262e-01, -8.22366849e-02,  1.40502974e-01,
    -7.04140514e-02, -3.25302184e-01,  2.26766616e-01,  3.04967314e-01, -2.56755173e-01, -2.08492965e-01, -2.26761773e-01,  1.00960553e-01,
    -1.03400779e+00, -2.32484728e-01,  3.36369634e-01, -2.52334289e-02,  2.76019275e-01, -1.56801492e-02,  1.14474326e-01, -1.03348903e-01,
    -2.50116177e-02, -1.45747319e-01,  8.63760039e-02, -4.53741737e-02, -2.16192737e-01, -7.25730928e-03,  1.89786598e-01, -4.13128287e-01,
     6.58811331e-02, -4.42654461e-01, -2.98486978e-01, -3.89489233e-01,  2.22172052e-01,  7.47889578e-02,  1.16424561e-01, -5.72162941e-02,
     1.43816739e-01, -3.65156382e-02,  2.00738013e-01, -3.71989757e-02,  1.78870156e-01, -2.56902635e-01,  5.99848432e-03, -3.62522781e-01,
    -1.57873690e-01, -1.09859012e-01, -4.22527224e-01, -2.56180704e-01,  7.91592747e-02, -6.75908253e-02, -3.04441065e-01, -1.36608660e-01,
    -2.62026668e-01,  1.92244083e-01,  4.66357976e-01,  3.09131920e-01,  1.90246582e-01,  1.10473655e-01,  1.39412224e-01, -4.64187786e-02},
   { 1.88570961e-01, -6.81224167e-02,  2.92650908e-01, -1.53318077e-01,  1.91722631e-01, -8.07999611e-01, -4.47480157e-02,  9.32055786e-02,
     2.80998230e-01,  4.08944100e-01, -2.33092621e-01,  2.73450851e-01, -4.62764390e-02, -7.60336742e-02,  2.40121689e-03,  2.96725452e-01,
    -1.43049091e-01,  2.52643257e-01, -2.15895951e-01, -2.64633179e-01,  1.21766806e-01,  2.49803722e-01, -6.41710103e-01, -5.06470390e-02,
     1.94230661e-01, -4.49394614e-01, -6.84161335e-02, -1.08733222e-01, -4.02107954e-01,  5.19188523e-01,  5.18255793e-02, -4.83738519e-02,
     5.65282643e-01, -3.10387433e-01, -1.68682635e-01,  3.02336782e-01,  1.21670507e-01, -7.05265552e-02,  2.50370324e-01,  2.65676945e-01,
    -2.00176495e-03,  1.11832190e-02,  2.04797965e-02, -6.34715855e-02,  1.49727434e-01,  1.73951797e-02,  5.42381763e-01,  1.79447178e-02,
    -4.93567556e-01,  6.62660122e-01, -3.90939601e-02, -5.17511228e-03, -3.07026535e-01,  2.11272463e-01,  1.20694757e-01,  7.19778007e-04,
    -2.54897386e-01,  4.73649889e-01, -3.22229594e-01, -5.84589779e-01,  4.50074553e-01,  9.45025012e-02,  2.05592126e-01,  4.24255401e-01},
   {-2.99850732e-01,  4.40190703e-01,  1.71107531e-01, -2.77663201e-01, -6.17686212e-02, -6.90759197e-02,  2.43709162e-01, -5.80258705e-02,
     9.58498344e-02,  2.81783164e-01,  2.24953473e-01,  3.09253752e-01,  3.69469523e-01, -6.25988543e-02,  2.73732156e-01,  6.96658716e-02,
    -1.02988601e-01,  1.93202555e-01, -2.19772756e-03, -3.68982941e-01,  4.51943487e-01, -4.24731404e-01, -2.54812539e-01,  1.70252830e-01,
    -4.02191371e-01, -2.45454118e-01,  2.43906826e-01,  2.89463885e-02, -1.69039413e-01, -1.09592617e-01, -2.89424568e-01, -1.02454275e-01,
    -4.41585273e-01, -3.03510576e-01, -7.51340017e-02, -1.74904943e-01, -2.38094911e-01,  1.49673417e-01, -5.85040264e-03,  1.81877196e-01,
     1.62809253e-01, -8.99209604e-02, -1.86453238e-01,  1.42920494e-01,  4.64490175e-01,  1.18486226e-01, -2.28462890e-02, -4.01909202e-01,
     1.55629486e-01, -5.09576440e-01, -6.75200298e-02, -2.60165244e-01,  6.05680607e-02, -6.24558292e-02, -8.31112936e-02,  4.61778462e-01,
    -2.78698653e-01, -3.00192982e-01,  5.07753611e-01,  7.06209317e-02, -1.50252283e-01, -1.32701155e-02, -3.08369547e-01, -1.04163505e-01},
   {-2.43995115e-01, -8.56444761e-02,  7.17331618e-02,  9.93233547e-02, -1.85925692e-01,  1.06993213e-03,  3.83282304e-01,  4.10321921e-01,
     2.21525386e-01,  2.86101729e-01, -3.60187367e-02, -8.96471813e-02, -6.82571530e-02, -3.74389529e-01,  3.17399949e-01,  2.58389890e-01,
    -1.24833472e-01, -7.70833641e-02, -2.43462231e-02, -2.88419485e-01,  1.60535261e-01, -3.69293541e-01, -5.28036833e-01,  1.22029342e-01,
     3.73383611e-01,  1.81251377e-01,  2.40758315e-01,  5.93737662e-01,  4.30489630e-02, -4.48778987e-01,  4.22841340e-01,  1.09439977e-01,
    -2.60823995e-01, -8.17708895e-02,  7.15272576e-02,  9.46708694e-02,  1.90116256e-01, -3.81132752e-01, -3.67290348e-01, -2.55593080e-02,
    -2.61128664e-01, -7.45411962e-02,  6.11028038e-02,  2.35861748e-01,  4.47616518e-01,  2.91706920e-01,  4.01238084e-01, -1.27318740e-01,
     2.12305367e-01, -1.09655134e-01,  4.02869806e-02,  1.58636287e-01,  4.42356579e-02,  2.71463931e-01, -2.37222575e-02, -6.24880612e-01,
    -6.49431825e-01, -1.23458095e-01,  4.03368056e-01,  1.95993647e-01, -4.63215947e-01, -1.32289231e-01, -2.14464843e-01, -3.90277475e-01},
   {-3.48867357e-01,  2.79806614e-01, -3.82550806e-01, -4.89367992e-02,  2.38892689e-01, -1.24055378e-01, -2.61973649e-01, -1.22982442e-01,
     3.26004863e-01, -1.72825217e-01, -5.18377006e-01, -2.75604129e-01,  2.32846886e-01,  3.15169871e-01,  2.32015207e-01, -3.19274776e-02,
     5.49910307e-01,  8.38149786e-02,  2.97986835e-01, -4.69352752e-01,  1.81825534e-02, -2.45859772e-01,  2.17546850e-01,  3.65242422e-01,
    -2.19590869e-02,  1.84711590e-02,  4.35502380e-01,  2.48914778e-01, -7.54681975e-02, -7.14632496e-02,  2.03344017e-01,  4.47345451e-02,
     2.40467906e-01,  4.41247344e-01,  5.62260225e-02, -1.41232470e-02,  1.32680655e-01,  2.43169531e-01,  3.78054649e-01,  2.97430068e-01,
     1.20264657e-01, -3.45467147e-03, -1.52864903e-01, -2.85422176e-01,  2.04387709e-01,  4.08140153e-01,  4.78056446e-02, -3.87431234e-01,
    -6.55034602e-01, -1.30426541e-01,  5.44352233e-01, -3.00704449e-01, -3.82356584e-01,  1.13897296e-02,  4.44846302e-02, -6.37080893e-02,
     2.06496447e-01, -1.81709468e-01, -1.37653440e-01, -3.21375221e-01,  3.19865823e-01,  1.90313175e-01,  4.77713466e-01,  1.90206170e-01},
   { 4.66591775e-01, -2.35879168e-01,  2.97003835e-01,  2.34288186e-01, -1.62402496e-01,  3.38649780e-01, -2.77612954e-01, -1.39001250e-01,
    -3.90633702e-01,  5.51063061e-01,  1.42702624e-01,  1.86365366e-01,  1.68599695e-01,  1.20882794e-01,  2.54790306e-01,  2.05367967e-01,
     1.39148563e-01,  2.37288419e-02, -4.80253518e-01,  3.25125337e-01, -3.05273384e-01, -9.25899744e-02,  2.64008064e-02, -2.71594435e-01,
     2.32543543e-01,  5.05629659e-01, -2.34498337e-01, -5.78375757e-01, -8.02446976e-02,  1.96790308e-01,  3.58076513e-01, -2.85255522e-01,
     2.18255907e-01,  1.36223398e-02, -8.85079354e-02,  1.16186049e-02,  6.27261251e-02, -1.61114052e-01,  1.34205163e-01,  1.43772990e-01,
     3.57562870e-01, -5.59862107e-02,  2.22154722e-01, -6.07365519e-02,  9.02055278e-02, -2.18620256e-01,  3.17674428e-01, -5.16260117e-02,
     4.19101387e-01, -4.16267803e-03, -2.85168648e-01,  2.34614629e-02,  1.25826001e-01, -4.88341413e-02,  1.10127494e-01,  8.97457171e-03,
     3.96208316e-01,  3.81536365e-01,  3.02477360e-01,  3.85092109e-01, -3.68692093e-02,  3.20605755e-01, -1.44412085e-01, -2.46331140e-01},
   {-5.17518222e-01, -3.78837526e-01, -6.46702275e-02,  2.29827240e-01,  1.80058807e-01, -4.35080566e-02,  1.10293478e-01,  2.23536804e-01,
    -5.79557382e-02, -1.87739059e-01, -1.00948669e-01, -1.44377843e-01, -1.05976805e-01, -4.65947688e-01,  1.90981165e-01, -3.28202486e-01,
     3.98951292e-01, -9.39254910e-02, -4.30215597e-01, -1.25840411e-01, -9.65298787e-02, -3.42387743e-02,  7.21561983e-02, -6.68134689e-02,
     2.47887686e-01,  2.21660957e-02, -4.67908502e-01, -2.44226694e-01,  6.87083125e-01, -1.97458938e-01,  2.11533532e-01, -1.09868020e-01,
     2.30851188e-01, -2.04387933e-01,  5.60511649e-01, -4.85539325e-02, -1.49026528e-01, -2.68868089e-01, -1.02874383e-01,  2.35488027e-01,
    -3.94577593e-01,  3.39590877e-01, -1.73971370e-01, -5.59628427e-01, -4.55694288e-01, -4.27212238e-01,  2.69612670e-01,  5.92160821e-02,
    -1.80850729e-01, -7.66739100e-02, -6.69525623e-01, -1.77191928e-01, -2.35336851e-02,  4.26950097e-01, -2.88659725e-02, -3.26457202e-01,
     2.14561038e-02, -2.34337404e-01, -2.57504378e-02, -1.14428386e-01,  8.16698551e-01, -3.00775647e-01, -1.49531020e-02, -8.60292539e-02},
   { 2.52566338e-01,  1.11038022e-01, -1.45572871e-02,  1.10647917e-01, -3.41133803e-01, -1.49142653e-01, -4.38582078e-02,  2.30975702e-01,
    -1.42772123e-01,  1.97357506e-01,  1.82027400e-01,  2.21861035e-01, -1.81729749e-01, -1.01331964e-01, -6.20051682e-01,  7.79519677e-01,
    -4.60120142e-02, -2.11196169e-01,  1.19786903e-01,  2.00548276e-01, -3.28097463e-01, -3.98359358e-01, -1.08649522e-01,  3.18912894e-01,
    -2.14907110e-01,  2.60713637e-01,  1.22043565e-01,  5.11755228e-01, -3.23809050e-02, -4.46786694e-02,  6.03092670e-01,  1.28396437e-01,
     1.38557270e-01, -3.34170759e-02,  4.28407431e-01,  4.74220179e-02,  5.40131748e-01,  1.47312045e-01,  9.63623673e-02, -3.81928943e-02,
    -3.80052514e-02, -8.67869794e-01,  1.14167042e-01, -1.55216321e-01, -7.22584948e-02, -1.08556256e-01, -3.67318839e-02, -1.75719693e-01,
     3.08010995e-01, -3.30557615e-01, -1.41001061e-01, -2.35844180e-01,  2.28207465e-02,  3.04776967e-01, -3.60115431e-02, -1.48713157e-01,
    -1.91258445e-01,  5.09079158e-01, -1.19419610e-02, -1.11588947e-01, -4.35094923e-01,  1.41888484e-01, -1.59041405e-01,  6.49191886e-02},
   { 3.92972166e-03, -3.46718967e-01, -5.80100775e-01, -4.12561983e-01, -1.49361581e-01, -4.70797002e-01,  6.59524351e-02,  1.35824278e-01,
     3.77736092e-01,  5.92162758e-02, -4.10105616e-01,  1.49878919e-01,  1.29186898e-01,  1.28635243e-01, -3.28805558e-02, -1.48882285e-01,
    -7.63973057e-01, -1.44134432e-01,  5.23885608e-01,  8.26935321e-02, -1.56354219e-01, -6.09017462e-02, -2.44009852e-01,  2.43559390e-01,
     9.43509713e-02,  1.78822473e-01,  2.69180834e-01, -1.57209888e-01, -1.00856364e+00,  3.64044338e-01,  1.35386512e-01, -2.33587742e-01,
     2.18440458e-01, -4.94966060e-01, -6.07664049e-01, -1.84501797e-01,  1.14208691e-01,  7.28758425e-02,  2.76292056e-01, -3.38437319e-01,
     1.15671735e-02, -5.69194146e-02,  4.50871974e-01,  7.96173215e-01,  5.52828014e-01,  3.82062793e-02,  1.28284007e-01,  6.66666478e-02,
    -2.13378385e-01,  7.53989210e-03,  2.67262101e-01, -7.63500571e-01, -4.50899601e-01, -8.79303366e-02, -7.30321929e-02, -4.26466733e-01,
     1.14317641e-01, -3.30160141e-01, -1.04734138e-01, -1.51158189e-02, -5.14770925e-01, -1.16884775e-01,  1.33974954e-01,  6.82031363e-02},
   { 1.14844985e-01, -1.06166273e-01,  1.00739956e-01, -8.66693184e-02, -6.47120714e-01,  1.26021523e-02,  2.07213223e-01,  1.85392916e-01,
    -3.92359495e-02,  3.59322637e-01,  1.49440452e-01,  8.32961321e-01,  1.69795528e-01, -2.25175470e-01,  3.65897119e-01,  1.64899081e-01,
    -3.54543865e-01,  2.18371097e-02,  2.11188897e-01, -4.84633110e-02,  2.78842509e-01, -4.86729234e-01,  4.25944179e-01,  4.51541245e-01,
    -1.94808003e-02,  6.03462122e-02,  2.44322926e-01,  5.92878401e-01, -2.29172930e-01,  6.51219636e-02,  3.05079699e-01, -1.18487790e-01,
     6.13874495e-01, -3.07819359e-02, -6.63436949e-02,  3.71494383e-01,  3.43070552e-02,  5.51209807e-01,  1.73994079e-01,  4.80020851e-01,
    -3.74646068e-01, -6.81963384e-01,  4.11535323e-01, -3.16731706e-02,  7.11973011e-01,  9.06688273e-02, -1.33520082e-01, -2.23481670e-01,
    -4.10586685e-01,  4.16127555e-02,  4.85033542e-01,  1.82683885e-01,  2.76529938e-01,  3.31782043e-01,  4.71020415e-02,  3.16089571e-01,
    -5.62286228e-02, -9.44851711e-02, -6.76719546e-02,  4.27262485e-01, -4.35774356e-01,  2.63973236e-01, -6.06659688e-02,  2.68286839e-02},
   {-2.81694084e-01, -4.30190295e-01, -3.60338867e-01, -2.27642149e-01, -5.13777416e-03, -3.25956851e-01,  4.16129351e-01,  1.15560591e-01,
    -5.06561041e-01, -2.19509974e-01, -9.82155502e-02, -1.44984439e-01,  1.59935713e-01,  4.92599040e-01, -9.06151086e-02, -1.86875492e-01,
    -2.24557444e-02, -1.18247569e-01, -1.71156093e-01, -3.08265835e-01, -8.68782178e-02,  2.97626629e-02, -3.48601907e-01, -6.58954978e-02,
    -1.56027839e-01, -4.38231975e-01,  4.30792809e-01,  4.23799939e-02,  2.78595716e-01,  2.14148853e-02, -1.05193585e-01,  4.01167154e-01,
     4.79484171e-01,  7.09720135e-01,  7.90347755e-01,  1.97266694e-02,  4.66411173e-01, -3.18936184e-02, -3.31173152e-01,  2.32536778e-01,
    -1.26423717e-01, -2.37904206e-01,  8.18452984e-02,  5.33429570e-02, -6.22160695e-02,  2.22551584e-01,  2.18046270e-02, -1.50451422e-01,
    -3.59913379e-01, -2.59390354e-01,  2.47885168e-01, -5.64085186e-01, -1.65588900e-01, -1.65689811e-01, -7.23750740e-02,  2.54763693e-01,
    -8.00781429e-01,  3.47673029e-01,  3.21423560e-01, -1.91146389e-01,  1.17928023e-02,  3.94158140e-02,  1.56537712e-01, -2.97307581e-01},
   { 2.91017413e-01,  1.90467343e-01,  2.30843008e-01,  5.88644743e-01, -1.36774898e-01, -1.96275130e-01,  7.75793850e-01,  1.59970596e-01,
     3.77903730e-01,  5.69263458e-01, -1.64157063e-01,  1.65295452e-01,  3.65331382e-01,  5.94683401e-02,  1.62306815e-01,  4.51203227e-01,
    -5.64546064e-02,  2.94444442e-01,  3.19423586e-01,  2.25342780e-01,  3.82452726e-01, -2.15494201e-01, -1.21499874e-01,  1.78881750e-01,
     4.22432661e-01,  1.29797474e-01,  4.80767131e-01,  6.60953343e-01,  2.25603685e-01, -1.80505306e-01,  3.40072632e-01,  5.98839104e-01,
    -2.34026924e-01, -6.05158508e-02, -1.22716852e-01,  6.99330509e-01,  9.31483731e-02, -4.19131100e-01,  4.86220896e-01, -8.41747820e-02,
     1.01363271e-01, -5.00337541e-01,  1.49275512e-01,  2.18918636e-01,  7.97857791e-02, -2.43886963e-01,  7.26609349e-01, -1.12484023e-01,
