#ifndef __FASTGRNN_GRNN0_PARAMS__
#define __FASTGRNN_GRNN0_PARAMS__

#define GRNN0_HIDD_DIM0 (32)
#define GRNN0_HIDD_DIM1 (64)

// clang-format off

const float GRNN0_ZETA = (-1.033101e+00);
const float GRNN0_NU = (-5.800393e+00);

const float GRNN0_BIAS_UPDATE[64] = 
   { 1.73627591e+00,  8.65394652e-01,  3.61718059e+00,  2.22299862e+00,  7.81684875e+00,  1.97234690e+00,  1.04755424e-01, -6.68878794e-01,
     1.75556135e+00,  1.62034547e+00,  1.33417141e+00,  9.74902928e-01,  1.08882558e+00,  2.23244834e+00,  5.88345242e+00,  7.45600033e+00,
     1.22513688e+00,  1.09503508e+00,  2.83296871e+00,  2.67287850e-01,  9.99403238e-01,  1.06258678e+00,  3.99757028e-01,  7.47389495e-01,
     1.61488688e+00,  1.95474172e+00,  6.41753578e+00, -3.97732288e-01,  1.93661913e-01,  5.06872237e-01,  2.54359651e+00,  2.34188008e+00,
     2.01458263e+00,  1.00153589e+00, -4.67765272e-01,  1.65973234e+00,  8.08852100e+00,  1.32369781e+00,  4.01901340e+00,  2.85295105e+00,
     8.42310727e-01,  8.05099607e-02,  2.71513796e+00,  1.35282397e-01,  4.16338891e-01,  2.07939458e+00,  7.60569036e-01,  7.04310036e+00,
     4.37565708e+00,  4.16575098e+00,  1.32811642e+00,  4.97679329e+00,  3.76857305e+00,  1.74208689e+00,  5.54569125e-01,  2.52600694e+00,
     2.02648687e+00,  6.84953988e-01, -4.39217418e-01,  8.99658799e-01,  4.99014330e+00,  2.24711204e+00, -1.86334655e-01,  4.00212097e+00};

const float GRNN0_BIAS_GATE[64] = 
   { 5.56050301e+00,  2.27937698e+00,  1.19991088e+00,  2.58166432e+00,  3.64333963e+00,  3.14202929e+00, -2.33266637e-01, -8.30002204e-02,
     1.62378705e+00,  5.62272501e+00,  2.78336644e+00,  4.80366421e+00,  1.64968467e+00,  2.59571052e+00,  2.30939078e+00,  4.33572388e+00,
     1.50167561e+00,  1.55416155e+00, -1.02005756e+00,  5.80136347e+00,  2.60533094e+00,  3.42336369e+00,  1.31096506e+00,  2.26283431e+00,
     2.66760826e+00,  3.46162152e+00,  1.15909076e+00, -3.68137248e-02, -2.48634502e-01,  1.30546689e+00,  1.47336519e+00,  4.32962561e+00,
     4.04095316e+00,  2.78110194e+00,  1.58323467e+00,  4.45191479e+00,  4.15184546e+00,  3.26568246e+00,  1.85626316e+00,  1.29586864e+00,
     3.13041568e+00, -2.67706007e-01,  2.07513261e+00, -7.56694973e-01,  5.03663158e+00,  2.09518528e+00,  2.78439164e+00,  1.79042113e+00,
     3.20215154e+00,  3.14163494e+00,  3.90844774e+00,  2.64784741e+00,  2.12078810e+00,  3.62685895e+00,  4.73232985e+00,  5.20964003e+00,
     3.95817065e+00,  9.01960373e-01, -1.09811831e+00,  5.18626547e+00,  1.48053205e+00,  2.92163634e+00,  4.90380198e-01,  1.87622869e+00};

const float GRNN0_W[64][32] = {
   {-7.18004629e-03, -5.79604805e-01,  1.21631229e+00,  1.35654140e+00,  3.76750022e-01, -9.02418137e-01, -1.28439689e+00, -1.42107832e+00,
    -1.91563591e-01,  3.81799936e-01, -8.21683183e-02,  3.54999453e-01,  1.37331414e+00,  8.29930484e-01, -5.88894598e-02, -6.80134356e-01,
    -7.99278736e-01,  5.66741645e-01,  1.17751732e-01, -8.43436062e-01, -2.01585665e-01,  4.62080479e-01, -6.37581170e-01, -5.71172833e-01,
     4.25629586e-01, -9.72850561e-01,  2.42897481e-01, -6.31489456e-02, -1.17026880e-01,  1.41837522e-01,  6.39306128e-01,  8.83146971e-02},
   { 1.67665631e-01, -7.98119605e-01,  1.03354979e+00,  1.03228807e+00,  4.30195868e-01,  5.91270030e-01,  1.16365755e+00,  6.97293222e-01,
    -2.36157537e-01,  1.93182692e-01,  1.54333189e-01,  1.62975654e-01,  1.41917601e-01,  2.61378884e-01,  3.00910473e-01, -5.48352659e-01,
    -1.10301483e+00, -6.06733620e-01, -3.94080341e-01, -2.96889156e-01,  4.03923020e-02,  1.23664543e-01, -2.80444324e-01, -4.35843945e-01,
    -3.81911695e-01, -4.02270973e-01, -5.79420887e-02,  4.46134359e-02, -1.90798521e-01, -8.12290907e-01, -3.79914403e-01, -1.00033069e+00},
   { 5.33179522e-01, -1.30530953e+00, -1.28849506e+00, -1.31758153e+00,  5.46630561e-01,  6.62906826e-01,  1.39840662e+00,  5.71002543e-01,
    -3.30751866e-01,  2.21918777e-01,  3.84916097e-01,  1.14992164e-01, -4.34166819e-01,  2.19535798e-01,  4.53650594e-01,  4.16969568e-01,
     3.85761589e-01,  4.59976971e-01,  3.24463904e-01,  8.61820221e-01,  5.65497339e-01,  3.52723539e-01, -2.85855591e-01,  6.28197074e-01,
     2.81150818e-01,  5.56789815e-01,  3.11156839e-01,  3.02629530e-01,  7.18109429e-01,  6.62446558e-01,  3.45046818e-01, -4.23628330e-01},
   { 8.94980580e-02, -4.77213025e-01,  2.58231521e-01,  1.48851752e-01,  6.27814114e-01,  7.17592478e-01, -1.21717565e-01, -4.66733098e-01,
    -7.01922357e-01, -8.06118846e-01, -8.50506186e-01, -1.41564298e+00, -9.58536863e-01,  5.56597829e-01,  1.85437191e+00,  8.68358493e-01,
     7.89226651e-01,  6.30292296e-01,  1.97212230e-02, -4.34015453e-01,  7.67046884e-02, -1.73403844e-02,  1.33315116e-01, -5.95232725e-01,
    -4.75051515e-02, -3.59462798e-02, -1.69787213e-01, -1.67686850e-01,  2.19510689e-01, -1.71525687e-01,  2.73282140e-01, -1.95039399e-02},
   {-1.47051439e-01,  5.49234092e-01,  1.83698460e-01,  1.93051975e-02, -3.07518691e-01, -1.24520683e+00, -7.66946673e-01,  2.95949489e-01,
     9.92574096e-01, -2.50488035e-02, -9.40926790e-01, -1.73542452e+00, -3.78794670e-01,  1.29325819e+00,  1.40302062e+00,  2.32257277e-01,
     5.67697227e-01, -1.26314178e-01,  3.79613019e-04, -2.37101480e-01,  2.95174211e-01,  8.17338586e-01, -1.76820979e-01, -1.84292167e-01,
     8.48893821e-02,  2.34749228e-01,  7.00706393e-02,  1.96832865e-01,  1.96593121e-01, -2.72046924e-01, -2.76195817e-03, -2.42437750e-01},
   {-2.53416568e-01,  1.58131719e-01,  8.65728617e-01,  3.42929244e-01, -4.90355730e-01, -1.16294074e+00, -1.56442070e+00,  3.17779869e-01,
     3.11359167e-01, -1.26147494e-01, -2.50590742e-02,  4.95409191e-01,  7.41060972e-01,  8.98615301e-01,  1.60980642e+00,  1.24099076e+00,
     1.92074195e-01, -9.51676786e-01, -1.45112944e+00, -7.64463425e-01, -2.55920291e-01, -7.85683036e-01, -1.02133489e+00,  2.66181409e-01,
     3.39390993e-01,  4.01740968e-01,  5.15873849e-01,  2.01504111e-01, -2.01639831e-01,  2.86663681e-01, -7.77130723e-01,  2.11530536e-01},
   {-5.79954013e-02, -6.74960673e-01,  8.49103034e-01, -6.33559451e-02,  8.16091895e-02,  7.25527346e-01,  2.70015091e-01, -5.12598097e-01,
     8.71320307e-01,  4.71481502e-01,  9.44004357e-02, -1.68655172e-01, -6.69824257e-02, -2.05111206e-01, -3.04169208e-01,  1.04448342e+00,
     1.82123020e-01, -1.62300691e-01,  5.58733165e-01,  8.05517256e-01,  2.58064359e-01, -1.22309797e-01,  6.96268082e-01,  1.15839601e-01,
     3.26497555e-02, -1.03010178e-01, -3.95006299e-01, -3.63421142e-02,  2.05029324e-01, -4.04959023e-01, -4.52665418e-01,  6.10758699e-02},
   { 5.16333580e-01,  9.40941036e-01,  4.23798513e+00, -1.08041060e+00, -8.50625992e-01, -3.05094838e-01,  1.47889674e-01,  8.29144120e-01,
    -1.03477970e-01,  7.28705749e-02, -5.67756057e-01,  2.29894489e-01,  1.41701013e-01, -3.51765782e-01, -4.40803409e-01, -7.57725835e-02,
    -2.50733584e-01,  5.05854845e-01, -3.39477003e-01, -3.81832063e-01,  1.03543840e-01, -2.63385242e-03,  4.62825358e-01,  1.44883722e-01,
    -2.08186861e-02,  1.41579360e-01,  1.55169800e-01, -1.55371130e-01, -4.13282543e-01,  2.32910171e-01,  9.65267494e-02, -7.07742751e-01},
   {-4.57154810e-01, -6.16297983e-02,  3.84938598e-01, -5.43546200e-01,  4.55186903e-01,  8.01664293e-02,  7.20208406e-01,  5.33569515e-01,
     5.11594892e-01,  8.99836063e-01, -2.20592067e-01, -6.66464746e-01,  4.09970172e-02, -2.67899871e-01,  3.05079103e-01,  5.18835410e-02,
    -6.73389807e-02,  1.79868996e-01,  4.90608186e-01,  9.61643159e-01,  5.83016202e-02, -1.72313135e-02, -2.33376577e-01,  3.45762253e-01,
     2.61825681e-01,  1.61673874e-01,  2.43792489e-01,  2.46740803e-01,  3.04855138e-01,  6.12928152e-01,  4.47816551e-01,  1.00672759e-01},
   {-4.40322578e-01,  7.07481802e-01,  1.06259711e-01, -4.20457363e-01, -9.62960660e-01, -1.20942748e+00,  2.54074067e-01,  1.14555287e+00,
     2.66914427e-01, -3.52212936e-01,  7.42729008e-02, -8.18261728e-02,  8.42821226e-02,  5.12852848e-01,  5.19670725e-01,  4.66687322e-01,
     2.46080473e-01,  8.04794073e-01,  9.67274487e-01,  2.86726296e-01, -1.48120672e-01, -1.49250969e-01, -3.17175955e-01, -8.79388511e-01,
    -4.74131137e-01, -6.83843136e-01, -2.50725150e-01,  4.46689129e-02, -1.93885207e-01, -6.02464192e-02, -5.63511997e-03, -1.91984251e-01},
   { 1.38504103e-01, -2.18144283e-01,  6.63538039e-01,  3.44258755e-01, -7.48265147e-01, -1.59653771e+00, -1.87873864e+00, -1.48736537e-02,
     1.56437683e+00,  8.42688262e-01,  1.75745532e-01, -4.89323586e-01, -3.40850830e-01, -2.72267699e-01, -8.77319932e-01, -4.28290308e-01,
     6.08420134e-01,  1.24858487e+00,  7.19647825e-01,  2.48592496e-01,  2.49358922e-01, -2.21247040e-03,  2.18463331e-01, -7.96094537e-02,
    -4.24429119e-01,  2.22041950e-01,  4.15475249e-01, -5.86594604e-02,  1.30881071e-01, -3.20035338e-01, -2.66107500e-01,  9.56981480e-02},
   { 9.33191955e-01, -6.71809196e-01, -6.22839630e-01,  2.28710741e-01,  1.04877555e+00,  9.90075946e-01,  7.74586737e-01,  4.66820538e-01,
     6.65723562e-01,  4.52232897e-01, -6.25350356e-01, -3.61296684e-01,  6.58253372e-01,  9.24499929e-01,  1.02674946e-01, -6.44906521e-01,
    -3.75875145e-01,  4.06837910e-01,  7.10923076e-01,  2.12985680e-01,  1.81228817e-01,  3.10565889e-01, -1.01534314e-01, -3.33020836e-01,
    -3.97360384e-01, -1.84398577e-01,  7.66024739e-02,  1.09872028e-01, -4.67905164e-01, -5.50342858e-01, -2.65765727e-01,  5.13930380e-01},
   { 2.85587180e-02, -2.71516651e-01,  1.36637449e+00, -9.16126192e-01, -9.45740819e-01, -7.45476365e-01, -6.24448419e-01,  8.29545438e-01,
     1.32315683e+00,  1.26999068e+00,  1.64011896e+00,  1.48957938e-01, -1.16752172e+00, -1.49216878e+00, -3.43773961e-01,  9.36050892e-01,
     5.49644530e-01, -6.15689814e-01, -7.30003953e-01, -3.74820173e-01,  4.36760873e-01,  1.73770756e-01, -6.46407306e-01,  5.89860342e-02,
    -8.47400874e-02, -4.77711372e-02,  5.73307276e-01,  3.16820621e-01,  1.38988465e-01,  2.21428409e-01, -3.24793458e-02,  3.88115138e-01},
   { 1.75168306e-01, -5.65290272e-01,  2.47140288e-01, -1.83720499e-01,  3.04255694e-01,  5.05643249e-01, -2.69582212e-01, -1.29698896e+00,
    -7.99825609e-01,  4.52503040e-02,  1.39170766e+00,  6.51576996e-01,  6.37145996e-01, -2.15350315e-01, -7.50562489e-01, -6.32836223e-01,
    -4.58082199e-01, -4.60117012e-01, -1.59581825e-02, -3.81530523e-01,  7.37368688e-02,  2.42338762e-01, -4.77991015e-01,  4.33633000e-01,
     3.74689758e-01, -1.01658568e-01,  1.42782271e-01,  4.44908530e-01,  8.24673474e-03,  8.56720507e-02, -2.75646508e-01,  1.63147181e-01},
   {-3.18518430e-01,  8.87669809e-03,  2.20473155e-01, -6.07356548e-01, -3.98923904e-01,  2.58501172e-01,  1.21413958e+00,  3.98526400e-01,
    -2.03076720e-01,  3.53605390e-01, -5.53653181e-01, -7.57614970e-01, -2.68880427e-02, -1.87485427e-01,  1.82501838e-01,  3.48834783e-01,
    -1.67221963e-01, -6.80469036e-01,  6.51604950e-01,  8.22836399e-01, -1.52732641e-01, -9.71530750e-03, -8.56063724e-01, -8.32206905e-01,
     3.11015218e-01,  8.94098282e-01,  8.95005882e-01,  3.14084738e-01,  1.11475162e-01,  4.89381611e-01,  3.55772167e-01,  3.10405940e-01},
   { 2.04691783e-01, -9.75481570e-02,  1.00965329e-01,  6.15203343e-02, -8.40264142e-01, -9.94803905e-01, -6.32289350e-01,  2.92719454e-01,
     1.31364441e+00,  6.70114279e-01, -9.24840048e-02, -1.25011384e-01,  3.01463187e-01, -3.12539160e-01, -4.52581048e-01, -9.91618633e-01,
    -2.24019572e-01, -3.32229197e-01,  9.27246451e-01,  4.51826930e-01,  2.12887347e-01, -4.18668896e-01,  1.32455885e-01, -4.30428684e-02,
    -4.36191678e-01,  2.21671015e-01,  1.02892242e-01,  2.76251763e-01,  4.11617726e-01, -2.43540972e-01,  6.64581358e-02, -6.40776241e-03},
   { 4.49025303e-01, -3.09422821e-01,  8.80743742e-01,  2.57293314e-01, -4.26396728e-02,  5.00555754e-01,  1.08435965e+00,  3.35565478e-01,
    -7.82469586e-02,  4.95678067e-01,  1.99591413e-01,  7.14067072e-02, -1.52315557e-01, -4.39492583e-01,  3.72351706e-01, -1.28525615e-01,
    -2.55781382e-01,  2.50931010e-02,  5.25778949e-01,  4.06746924e-01, -2.98594236e-01,  4.38118838e-02,  6.14936709e-01,  2.63827652e-01,
    -3.71870488e-01, -3.85339051e-01,  3.77967298e-01,  1.38772428e-01, -2.72920787e-01, -1.80789068e-01,  3.75950962e-01,  5.47935069e-01},
   { 3.08006018e-01, -5.66224933e-01, -3.96021903e-01, -9.21848774e-01, -7.32668281e-01,  2.54968822e-01,  1.03908706e+00,  9.72073019e-01,
     6.52914286e-01,  6.88630164e-01, -1.30374268e-01, -4.27822620e-01, -4.59126294e-01,  5.42674005e-01,  2.64150351e-01,  8.61555040e-01,
     2.31123820e-01, -4.46862876e-01, -5.46002164e-02,  6.23366833e-01,  7.48598427e-02,  1.47719324e-01, -2.18273565e-01, -5.81645519e-02,
     3.48142236e-01,  8.36176723e-02,  9.75884795e-02,  9.62986574e-02, -1.67041913e-01,  1.21312514e-01, -3.09590042e-01, -5.47801793e-01},
   { 1.80816367e-01, -2.13966683e-01,  4.33062725e-02, -2.24360600e-01, -9.54861790e-02, -2.40124986e-01, -1.01766191e-01, -3.71776789e-01,
    -3.37327480e-01, -1.29008844e-01, -1.01736605e+00, -1.02109277e+00, -1.76114988e+00, -1.10153890e+00, -1.50946587e-01,  1.09651375e+00,
     1.97741270e+00,  5.13265014e-01, -9.37122032e-02,  7.26457015e-02,  7.80840963e-02, -1.10312372e-01,  1.99335665e-01, -1.73638910e-01,
    -5.13051227e-02,  6.44982085e-02,  3.80368918e-01, -6.90244138e-02,  5.61378300e-01, -4.96038377e-01, -5.09766564e-02,  5.97007871e-01},
   { 2.38468647e-01,  1.04968995e-01, -3.33320856e-01,  3.58650953e-01, -7.82652050e-02, -3.28183800e-01, -1.21880758e+00, -1.47343278e+00,
    -1.31775811e-01,  1.56034112e-01,  1.12911093e+00,  6.46343768e-01,  1.84988534e+00,  1.97155881e+00,  8.88729095e-02, -1.00366843e+00,
    -9.94406581e-01, -7.60429025e-01, -1.10121989e+00, -1.19060242e+00, -3.45158368e-01,  5.86091340e-01,  2.86246538e-02,  5.49326017e-02,
     9.51667652e-02,  4.58656810e-02,  1.97810188e-01,  2.64627248e-01,  9.21249017e-03,  9.99573350e-01,  7.17040598e-02, -1.87018007e-01},
   { 9.95294228e-02,  2.82481581e-01,  1.37654650e+00,  4.77105290e-01, -1.36046186e-01, -1.31648600e-01, -6.33343518e-01,  3.54574889e-01,
     8.93792808e-01,  6.13191962e-01,  6.87872350e-01, -1.83376193e-01, -2.29967266e-01, -1.63892090e-01,  2.98362821e-01,  1.33351609e-02,
    -8.55872512e-01, -8.93855751e-01,  7.57343043e-03,  5.26020706e-01,  4.37858135e-01, -1.04733981e-01, -1.53879449e-01, -1.85464576e-01,
     9.32772160e-02, -1.44637255e-02,  2.04636037e-01,  6.24277234e-01, -1.80019096e-01, -1.15413606e-01,  1.10839851e-01, -3.51850033e-01},
   {-3.72645967e-02,  1.81256905e-01,  1.13603890e-01,  2.76871435e-02, -4.94058765e-02, -2.25729436e-01, -1.02324545e+00, -4.43165749e-02,
     5.12088001e-01,  6.42773867e-01, -5.33370972e-01, -1.60717797e+00, -7.99250245e-01,  1.36718616e-01,  8.83489698e-02, -8.92411694e-02,
    -3.32322329e-01, -7.51179934e-01,  8.37835729e-01,  1.14762306e+00,  7.92219579e-01, -1.61432222e-01, -2.57142484e-01,  2.48688444e-01,
     3.15884888e-01,  3.29822421e-01,  3.35020691e-01,  2.10531846e-01,  6.22281469e-02, -5.38593195e-02,  2.71708574e-02, -4.52748537e-01},
   {-5.50269783e-01, -4.37698752e-01,  6.64818466e-01, -9.50916708e-01, -5.63658834e-01,  4.60486412e-01,  9.82484818e-01,  9.69977319e-01,
     7.01801777e-01,  7.40190744e-01,  4.77939576e-01, -4.24115777e-01, -5.27209997e-01, -3.42400432e-01,  1.94360122e-01, -3.28266710e-01,
    -5.96854150e-01,  8.96667764e-02,  2.73210853e-01,  7.69843876e-01,  9.33946133e-01,  2.88042575e-01, -9.51142684e-02, -8.95723924e-02,
     4.92169075e-02,  5.42390704e-01,  2.62562335e-01,  6.09801769e-01,  2.67100722e-01,  3.81210983e-01,  4.74673688e-01, -5.78888766e-02},
   {-1.91016868e-02,  1.85960621e-01,  1.60008037e+00,  1.02879119e+00, -4.39498127e-01, -7.38621473e-01, -7.81764627e-01, -1.76092237e-01,
     5.84505439e-01,  9.62660089e-02, -2.21874788e-01,  8.58315110e-01,  1.13121724e+00,  6.51481003e-02, -6.33313656e-01,  4.57556620e-02,
    -7.01470226e-02,  3.71388286e-01,  7.01827705e-01,  7.64078021e-01, -1.07768230e-01, -3.96150291e-01,  3.66399974e-01,  3.27322900e-01,
    -5.29278480e-02, -5.63991189e-01, -5.40450454e-01,  4.32147324e-01, -3.35012585e-01, -3.45583037e-02,  1.05355438e-02, -2.60223120e-01},
   { 1.26209244e-01, -7.89224625e-01, -1.68480170e+00, -5.23094475e-01,  1.08455455e+00,  1.42699075e+00,  1.74613571e+00,  1.12800874e-01,
    -1.50252914e+00, -1.24886465e+00, -6.00624740e-01,  3.57959896e-01, -5.78206599e-01, -1.62112772e-01, -1.94840804e-01,  1.65835842e-01,
     2.50920057e-01,  2.59557134e-03, -2.06988961e-01, -3.59017074e-01, -7.94463530e-02,  6.37532622e-02,  1.36881769e-01,  7.12580234e-02,
     3.26189488e-01, -2.29404911e-01,  1.67794839e-01,  7.35303387e-02, -4.53365482e-02,  1.77068472e-01, -3.30568105e-01,  6.87259376e-01},
   {-2.14162692e-01,  3.13934594e-01, -3.78410488e-01,  1.05567142e-01, -7.29180276e-02,  1.85326070e-01,  6.38603047e-02, -8.49928632e-02,
     5.18094420e-01,  7.72633731e-01,  1.78933725e-01, -3.96335155e-01, -2.00664535e-01,  1.57207116e-01,  5.08678019e-01,  1.31683676e-02,
     5.39720915e-02, -3.19830462e-04,  4.73616272e-01,  9.45753992e-01,  6.54975355e-01,  2.06692368e-01,  5.78760087e-01, -7.72375474e-03,
    -4.16704156e-02,  3.74528989e-02, -1.67238593e-01, -4.08378422e-01, -4.66594636e-01, -5.87362289e-01, -6.42519817e-02,  6.51962906e-02},
   {-1.86654747e-01,  1.05288661e+00,  5.22919714e-01,  3.59863758e-01,  2.78286785e-01, -1.08373499e+00, -7.76737273e-01,  4.71407175e-01,
     5.18088460e-01,  7.68342391e-02, -8.17968488e-01, -2.85791494e-02,  1.13679266e+00,  1.16223335e+00,  3.42824906e-01, -9.01422739e-01,
    -5.38573921e-01, -1.73906714e-01,  4.23334718e-01,  7.94785321e-02, -3.66985947e-02,  1.05503544e-01,  8.13372731e-01,  8.19067419e-01,
    -3.17081481e-01, -5.29936813e-02,  3.87204215e-02,  4.30753142e-01,  2.00891405e-01,  5.97817861e-02, -1.70430318e-02,  2.37625316e-01},
   { 1.07590032e+00, -6.26829445e-01,  1.47650152e-01, -7.39570409e-02,  6.07270896e-01,  8.50103140e-01,  3.76256466e-01, -7.20415711e-01,
    -1.08256721e+00, -5.06613851e-02,  1.09049046e+00,  5.09758115e-01, -1.13815045e+00, -5.27883828e-01,  6.99197590e-01,  5.38493633e-01,
    -1.42818928e-01, -2.64529884e-01,  2.45617762e-01, -1.02547936e-01, -1.94634855e-01,  2.19459802e-01, -2.20875055e-01, -1.70650594e-02,
    -7.08350688e-02,  1.44481465e-01,  3.27485472e-01,  1.85015425e-01,  1.12353586e-01,  2.58515090e-01,  3.53932887e-01, -2.80988216e-01},
   {-4.95171454e-03,  5.42223394e-01, -3.02015930e-01, -1.39719355e+00, -1.37127256e+00, -1.44902360e+00, -8.12047243e-01,  1.03611803e+00,
     1.51655281e+00,  1.44734251e+00,  2.07985044e+00,  1.21785247e+00, -2.11459532e-01, -8.81673336e-01, -1.98700324e-01,  3.15893680e-01,
     2.32120350e-01, -3.07660967e-01, -2.09285542e-01,  2.54717469e-01,  1.02425314e-01, -2.79743642e-01,  7.02125281e-02,  4.65522081e-01,
    -4.15043980e-01, -4.33846772e-01,  4.17978257e-01,  5.10924399e-01, -2.21866220e-01,  9.10318047e-02,  5.17826006e-02,  2.71678805e-01},
   {-9.05358493e-01,  3.64683606e-02,  4.37212080e-01,  5.71654201e-01,  1.67653704e+00,  7.90724814e-01,  6.26855135e-01, -3.01433653e-01,
    -1.29696262e+00, -4.50303674e-01, -7.58294687e-02,  5.89415550e-01,  1.61759272e-01,  1.14549518e-01,  7.81612247e-02, -3.34946513e-01,
    -1.49239868e-01, -2.60920316e-01,  5.60698569e-01,  2.23321110e-01,  5.22839502e-02,  5.31953514e-01, -2.00968925e-02,  2.53557622e-01,
     4.20275927e-01,  6.50177419e-01,  1.78115651e-01, -1.29956812e-01,  1.62785187e-01, -6.26461431e-02, -3.83007899e-02,  6.65613592e-01},
   { 2.76426673e-01,  1.84965000e-01,  3.02120596e-01, -2.93529660e-01, -7.08144665e-01, -1.33750224e+00, -2.04575896e+00, -1.49555445e+00,
    -6.00004615e-03,  6.52311623e-01, -5.60652977e-03, -2.25123137e-01,  5.44252038e-01,  1.81697404e+00,  1.66990268e+00,  3.15386981e-01,
    -3.83154571e-01, -9.06719640e-02, -5.38105011e-01, -3.30651790e-01,  1.13979173e+00,  5.19094586e-01, -9.05855179e-01, -3.62590253e-01,
     7.75696278e-01, -6.11741841e-02, -2.26175971e-02,  1.67892605e-01, -2.53654271e-01, -1.95741832e-01, -2.16476247e-01, -1.53508469e-01},
   { 3.56623232e-02, -1.57418162e-01, -3.95629704e-01, -9.14429501e-02,  1.33335084e-01, -4.36518073e-01, -4.30061311e-01, -1.46211743e+00,
    -6.36281788e-01,  1.16491236e-01,  1.20046413e+00,  1.05815649e+00, -5.15066922e-01, -4.12433118e-01, -2.77561732e-02, -1.63505599e-01,
     2.52166152e-01,  6.22610629e-01, -1.91559464e-01, -4.43351924e-01, -1.37576863e-01,  1.45882517e-02,  2.39198640e-01,  2.56455820e-02,
    -3.88603806e-01, -3.67154360e-01,  1.05337545e-01, -4.04649258e-01, -8.34101960e-02, -3.10153157e-01, -1.46249592e-01, -1.85032114e-01},
   {-3.53263795e-01, -1.48654096e-02,  8.15830454e-02,  7.40495086e-01,  3.78355950e-01, -1.47199437e-01, -1.76713005e-01, -2.47614551e-02,
    -1.66767403e-01, -9.87076044e-01, -1.68754792e+00, -5.07789493e-01,  1.02819324e+00,  1.31375575e+00,  1.15009356e+00,  1.03189930e-01,
     7.43069887e-01,  1.55607808e+00, -1.52501971e-01, -1.87961105e-02, -2.79539883e-01, -5.74240506e-01, -1.73382223e-01, -5.92470527e-01,
    -4.69262302e-02,  6.77144760e-03, -3.92035723e-01,  7.11783022e-02,  2.71402001e-01,  4.98899743e-02, -3.68141942e-02, -7.88601562e-02},
   { 9.77815911e-02,  7.48338521e-01, -6.73413038e-01,  3.92372727e-01, -1.25011548e-01, -1.15869176e+00, -5.89938223e-01,  8.13667849e-02,
     5.22011936e-01, -3.57675344e-01, -1.14937484e+00, -8.44431460e-01, -4.59020510e-02,  6.33657336e-01,  8.81139457e-01,  7.73386359e-01,
     1.26188874e+00,  2.98617244e-01, -4.98132497e-01, -1.49812430e-01, -6.06119812e-01, -5.34608006e-01,  5.17435074e-01,  1.96632624e-01,
    -5.55759132e-01, -2.27550596e-01, -6.44776076e-02,  8.97234771e-03,  3.22105139e-01, -1.09983962e-02, -4.41592067e-01,  6.09025180e-01},
   { 9.11196470e-01,  2.10593656e-01,  7.72909164e-01, -2.78844684e-01,  4.45685200e-02,  2.18878001e-01,  2.70903319e-01, -3.17178518e-01,
    -2.70624757e-01,  7.80898869e-01,  2.32517332e-01,  5.82143009e-01, -1.27491698e-01, -1.05565637e-01,  6.04280569e-02,  2.82171339e-01,
     4.78995800e-01,  1.99002996e-01, -5.56845605e-01, -4.13781703e-01,  8.04268122e-01,  3.78492385e-01,  4.15007174e-01,  7.09632114e-02,
    -1.76470384e-01,  1.15235031e+00,  7.09917843e-01, -3.08518529e-01,  3.19881380e-01,  7.15902567e-01,  3.56049776e-01, -3.31498623e-01},
   { 3.03814054e-01, -5.28313816e-02, -4.99831736e-01, -1.31761181e+00, -9.62729752e-01, -6.92349494e-01,  3.50444824e-01,  1.47189939e+00,
     6.41909182e-01,  1.09448659e+00,  1.05702543e+00,  4.48666155e-01, -6.55460179e-01,  1.59150064e-01,  3.34568530e-01,  1.02109468e+00,
     3.12036008e-01, -1.01617026e+00, -8.28813493e-01, -7.90338397e-01, -1.50205135e+00,  1.78023979e-01,  5.32231092e-01,  6.07892096e-01,
    -4.39342916e-01, -1.12462509e+00,  1.61792174e-01,  2.36547217e-01,  2.29136273e-01,  8.22088063e-01,  1.24925442e-01,  2.46238247e-01},
   { 4.07487988e-01, -6.82538152e-02, -1.23521733e+00, -8.49684000e-01, -1.21697843e+00, -7.12915599e-01, -7.42575049e-01,  6.95052743e-01,
     2.11243176e+00,  6.88869596e-01,  1.31048560e-01, -3.05870831e-01,  2.92603433e-01, -1.35588259e-01, -6.21413291e-01, -4.02782947e-01,
     4.71241564e-01,  3.83857816e-01,  7.50541866e-01, -4.59664576e-02, -3.45073432e-01, -8.98721442e-02,  2.09676474e-01,  1.06738135e-01,
    -3.37869048e-01,  5.68359435e-01, -1.38326110e-02, -2.05715001e-01,  7.49074146e-02, -5.16350150e-01,  4.27149266e-01,  2.35020384e-01},
   {-2.38146916e-01,  1.17273152e-01,  8.38923693e-01,  9.97466683e-01, -3.93622071e-01, -1.13757646e+00, -1.53696823e+00,  5.98170720e-02,
     1.14393163e+00,  4.39077348e-01,  2.94873446e-01,  1.63528100e-01,  6.46229267e-01,  1.23592758e+00,  8.61720502e-01,  8.93583894e-03,
    -1.19094694e+00, -1.19916379e+00, -1.08142778e-01, -3.29281360e-01, -3.47347111e-01, -1.07939444e-01, -4.09063399e-01, -2.30935588e-01,
    -7.53756464e-02, -2.59197831e-01, -3.89326870e-01, -4.88141716e-01,  2.77723521e-01, -3.28185320e-01, -2.15460174e-02, -2.26872444e-01},
   {-3.87266800e-02,  4.18518335e-01,  1.55397262e-02,  3.86456877e-01,  5.66687286e-01, -2.74672434e-02, -5.21767437e-01, -1.71047881e-01,
    -3.01214196e-02,  5.64486206e-01,  3.47540900e-02, -2.16672774e-02, -4.61276084e-01, -3.51718105e-02, -1.02085628e-01,  1.29606068e-01,
    -6.07151866e-01,  5.56845009e-01,  1.11585724e+00,  7.82705128e-01,  1.57461798e+00,  1.30578113e+00,  7.85803258e-01, -1.34409100e-01,
    -3.77305627e-01, -5.31926930e-01, -6.11339986e-01, -1.14991224e+00, -7.71415591e-01, -1.02685499e+00, -5.21498859e-01, -8.39092374e-01},
   {-5.41098356e-01,  3.99866402e-01,  1.80305898e+00,  1.84217048e+00,  9.21604991e-01,  5.93249142e-01,  3.49350005e-01,  3.44751209e-01,
     9.31412801e-02,  4.52202290e-01,  1.42141223e-01, -1.58886597e-01, -3.94690335e-01, -1.61157325e-02,  4.62613851e-01,  4.47733313e-01,
    -5.03922701e-01, -1.25316530e-02, -5.87484658e-01, -2.20014364e-01,  3.96812677e-01,  1.88044950e-01,  1.30451396e-01,  2.49547422e-01,
    -2.60683894e-01, -6.48244470e-02, -1.57447666e-01, -1.83568805e-01, -2.02347687e-03, -4.74577874e-01,  3.03287134e-02, -7.97954559e-01},
   { 1.15586571e-01,  5.61604798e-01,  1.67095438e-01,  7.13609815e-01,  4.03510630e-01,  8.01154315e-01,  7.83660412e-01, -6.38704062e-01,
    -1.27740729e+00, -1.35799491e+00, -3.59988689e-01, -4.04052645e-01, -5.69416821e-01, -9.50378120e-01, -6.89930141e-01,  5.81029169e-02,
     2.13916272e-01,  7.65526295e-02,  3.68970782e-01,  1.65607557e-01, -3.86870176e-01, -1.44724950e-01,  1.11847997e-01,  5.06073460e-02,
     8.88882503e-02,  2.44915426e-01,  4.17419225e-01, -7.05969483e-02,  3.41832161e-01,  3.05391163e-01, -4.54706281e-01,  1.87943757e-01},
   {-1.23178162e-01, -3.76660615e-01,  4.96068567e-01, -5.76531887e-01, -3.44563395e-01, -2.38970183e-02,  7.73019314e-01,  1.36275196e+00,
     1.16314614e+00,  6.86064899e-01,  4.91741359e-01, -4.08801019e-01, -5.92184030e-02, -1.39598459e-01, -1.29694179e-01,  7.42050052e-01,
    -6.81935623e-02, -1.33259624e-01,  1.22011706e-01,  6.06918633e-01, -2.24573433e-01,  2.20798608e-02,  3.65097910e-01,  3.89635235e-01,
    -2.67660290e-01,  2.95718551e-01,  3.40929776e-01,  6.00371122e-01,  3.14809650e-01,  1.44239455e-01, -1.64266914e-01,  1.72841344e-02},
   { 1.28050465e-02,  1.00531030e+00,  1.70678711e+00,  9.95088458e-01,  2.75927454e-01,  4.18898612e-02, -5.71029484e-02, -9.70370397e-02,
    -1.02621853e+00, -9.96943191e-02,  3.22925508e-01,  2.32551739e-01, -4.86987919e-01, -9.95609313e-02,  2.18141958e-01, -4.15322512e-01,
    -1.84071422e-01,  2.05044836e-01,  4.28678870e-01,  8.64442363e-02,  2.83923984e-01,  1.37143314e-01,  6.07106745e-01,  3.41563165e-01,
    -6.93575963e-02,  4.49114621e-01, -5.56182116e-03,  2.72189111e-01,  2.62045056e-01,  2.06353307e-01,  1.20582178e-01,  2.15505481e-01},
   {-2.75881052e-01, -4.32640254e-01,  1.54582107e+00, -3.10249589e-02,  6.64437950e-01,  7.77890086e-01, -8.05587098e-02,  8.80269647e-01,
     5.83244562e-01,  1.51438072e-01, -5.07739604e-01, -2.33052596e-01,  8.57145414e-02,  6.22373044e-01,  1.04628992e+00, -1.15590423e-01,
    -6.27417624e-01,  1.12836242e-01, -1.11012623e-01, -6.37945831e-02,  3.97256762e-01,  1.52305499e-01, -4.52249289e-01, -1.59235254e-01,
    -3.17010075e-01,  2.69941688e-01, -3.08590382e-01, -2.52662778e-01, -3.79295796e-01, -2.54137576e-01,  1.55025050e-01, -1.19092977e+00},
   {-1.34138137e-01, -1.55647457e-01,  5.30092001e-01,  5.15593946e-01,  6.20227903e-02,  1.29447654e-01, -1.31825060e-01, -3.82349133e-01,
    -2.24668697e-01, -1.57399699e-01, -7.05176517e-02,  2.91630745e-01,  4.56475437e-01,  5.06657481e-01,  7.62468517e-01,  4.66335475e-01,
    -9.21734929e-01, -1.47682399e-01, -9.22190920e-02, -2.79735923e-01,  9.82485712e-02,  2.93134183e-01, -1.34662956e-01, -1.54964998e-01,
     3.23238820e-01, -9.96524654e-03,  3.20116729e-01,  1.41575351e-01, -5.30398488e-01, -3.93172681e-01,  2.69977320e-02, -5.57257175e-01},
   { 5.95632553e-01,  7.57853806e-01,  5.01710057e-01,  3.34348917e-01,  2.29687184e-01, -1.58101514e-01, -5.65254450e-01, -1.96494833e-02,
     4.69202697e-01,  6.83634818e-01,  2.19865769e-01,  5.51411033e-01,  8.13404918e-01,  7.25385010e-01,  4.72610652e-01,  6.34969234e-01,
    -1.08889835e-02,  4.89750087e-01,  4.55285668e-01, -6.26415551e-01, -6.91867769e-01,  3.81141044e-02,  1.98009774e-01, -4.63770211e-01,
    -6.82340562e-03, -8.95754099e-01, -5.35577774e-01, -9.55423713e-01, -4.41743255e-01, -9.38825786e-01, -9.82481599e-01, -8.00086260e-01},
   {-3.05532515e-01,  1.44268483e-01, -9.25184369e-01, -6.40586793e-01, -1.89154434e+00, -1.95135260e+00, -1.50604916e+00,  9.24483955e-01,
     1.57927668e+00,  7.60509446e-02,  4.43550974e-01,  8.42935070e-02,  1.03888130e+00,  7.23901868e-01,  6.12161577e-01,  2.83334166e-01,
    -1.72284871e-01, -5.13423085e-01,  6.58449590e-01,  7.38146305e-01, -4.63050902e-01, -3.37269455e-01,  3.98173034e-02,  2.60346740e-01,
    -4.49195236e-01,  9.86821875e-02, -5.06383419e-01,  5.16177900e-02,  2.17664078e-01,  6.01504929e-02, -1.67377442e-01, -4.40881774e-02},
   {-2.03550771e-01, -3.45173091e-01, -1.37497708e-01, -5.62914908e-01, -6.60502970e-01, -1.41169235e-01,  8.47559690e-01,  7.57922884e-03,
    -7.50033408e-02, -8.02476779e-02, -1.94038332e-01,  1.19959600e-01,  1.04995406e+00, -4.42980051e-01, -1.65138245e+00, -1.22272432e+00,
     3.07009548e-01,  1.68128455e+00,  9.64051664e-01, -3.67437243e-01, -4.62996155e-01,  4.53746498e-01, -5.57101797e-03, -6.76452160e-01,
     1.26500502e-01,  1.23909377e-02,  2.02794552e-01, -4.09295410e-01,  6.08052164e-02,  5.92056155e-01,  1.41891193e+00,  1.54281342e+00},
   {-5.01948893e-02, -4.86986972e-02,  6.14636838e-01,  1.79813474e-01, -9.04517323e-02, -1.10116594e-01, -6.13815010e-01, -1.71646893e-01,
     7.91391790e-01,  5.38383186e-01,  5.26468694e-01,  5.52951455e-01,  3.97633612e-01, -5.05721271e-01, -1.63966382e+00, -1.76735723e+00,
    -1.15252364e+00,  1.51362985e-01,  1.19457316e+00,  8.19912493e-01,  2.93847531e-01,  6.46210492e-01,  1.82079747e-02, -1.50883019e-01,
     4.59821254e-01,  1.86306819e-01,  4.45023686e-01, -1.42062098e-01,  3.63773346e-01,  3.32756847e-01,  2.98136443e-01, -5.86303473e-01},
   {-1.33894831e-01, -1.01931286e+00, -1.01315439e+00, -1.75659156e+00, -2.22217947e-01,  9.72670913e-01,  6.84393883e-01,  8.18948925e-01,
     9.06530738e-01,  4.72173048e-03,  5.99205673e-01,  7.02815413e-01,  5.07377982e-01,  2.98696578e-01,  3.12167406e-01,  9.07975137e-02,
    -2.61606276e-01, -3.10184546e-02,  2.21779589e-02,  5.19291878e-01,  7.29980290e-01, -3.27445894e-01, -1.70087695e-01,  7.65294194e-01,
     6.69493824e-02, -1.38720453e-01,  1.16811402e-01, -2.91976309e-03,  2.62205992e-02,  7.27935582e-02, -1.18139185e-01, -1.62932336e-01},
   { 1.83360279e-01, -7.67644703e-01, -8.29334632e-02,  3.51153284e-01,  2.21575424e-01,  7.24676907e-01,  8.40114772e-01, -3.14826787e-01,
    -5.01675785e-01, -3.97149334e-03, -3.24765563e-01,  2.84463435e-01,  1.01912737e+00,  1.04875201e-02, -6.55061364e-01, -7.40053415e-01,
     2.13045657e-01,  1.10773933e+00,  2.01834977e-01, -2.36784771e-01,  4.82566476e-01, -1.12797037e-01, -1.34207651e-01, -3.97253007e-01,
    -1.81796283e-01, -3.26466203e-01, -9.20961648e-02,  1.67034209e-01, -3.55754465e-01, -3.33854437e-01,  2.57581830e-01, -3.72928560e-01},
   {-1.90773442e-01, -6.80048168e-02, -4.06693518e-01, -7.63481438e-01, -6.48285568e-01, -5.14975488e-01,  1.02524035e-01,  1.17780447e+00,
     1.34547412e+00,  1.01563704e+00, -8.30640793e-02, -9.20958698e-01, -1.48342056e-02,  2.29580328e-01,  9.75536406e-02,  1.03395157e-01,
     1.98658913e-01, -8.47266391e-02,  4.73619029e-02, -6.47846237e-02, -2.34902874e-01,  2.63432488e-02,  5.50347090e-01,  4.20761555e-01,
    -3.07094634e-01,  3.95496227e-02,  4.73562032e-02,  3.33044380e-01,  2.76861563e-02,  1.27126768e-01,  2.79181391e-01,  1.29259408e-01},
   {-3.42316449e-01,  2.41451096e-02,  9.98007832e-04, -1.47592425e+00, -1.52998292e+00, -1.17652178e+00, -5.53202629e-01,  1.71951902e+00,
     1.46360517e+00,  4.87928316e-02, -2.06774548e-01,  7.73558840e-02,  9.00350273e-01,  4.83757079e-01,  2.34712750e-01,  2.86283433e-01,
    -4.35770214e-01, -8.31074893e-01, -5.92694461e-01, -3.62922937e-01, -1.95485458e-01,  4.89449538e-02, -5.84077179e-01, -4.03935730e-01,
     4.85975176e-01,  6.55466497e-01, -1.63814783e-01,  3.74973267e-01, -2.08359808e-01, -7.69407153e-02, -5.21679223e-01,  1.03272364e-01},
   { 2.33827695e-01, -2.51129925e-01, -4.34368819e-01,  3.57760429e-01,  9.10673916e-01,  1.04023874e+00,  4.05620396e-01, -1.56701076e+00,
    -1.37651777e+00, -8.24665189e-01,  7.96510577e-02,  3.42092872e-01,  1.31727052e+00,  5.58703184e-01, -3.89870971e-01, -7.94595420e-01,
    -7.17528582e-01, -2.78149456e-01, -4.88381088e-01, -5.67229033e-01,  2.90627833e-02,  5.84411263e-01, -1.91719264e-01,  2.56704032e-01,
     4.12826151e-01, -1.91115677e-01,  2.51639575e-01,  2.35073403e-01, -3.80714200e-02,  2.16697484e-01, -1.46698058e-01,  4.70737517e-01},
   { 5.99612832e-01,  3.82515758e-01, -1.88539118e-01,  2.11131554e-02, -3.67530525e-01, -1.42594945e+00, -2.18078804e+00, -5.28522849e-01,
     3.83800477e-01,  3.08438301e-01,  9.33226943e-01,  1.76464105e+00,  1.05864692e+00,  1.79601625e-01, -4.12486196e-01, -2.35920057e-01,
     2.57736504e-01,  4.04389262e-01, -6.21719658e-01, -1.05099964e+00,  2.73694038e-01,  4.32398796e-01, -4.23651308e-01, -2.99556971e-01,
    -2.21082047e-01, -9.69206169e-02, -9.00459811e-02,  3.62600267e-01, -2.84231566e-02,  1.62389517e-01, -4.73790824e-01,  1.74324483e-01},
   {-8.25741515e-02, -2.77579129e-01,  4.21422929e-01,  3.65534335e-01,  6.99171349e-02, -1.84843868e-01, -8.32495928e-01, -1.05100417e+00,
     2.68975854e-01,  7.17143536e-01,  6.71727836e-01, -3.23835492e-01, -1.08043790e+00, -3.90727162e-01, -5.00088707e-02, -9.18470025e-01,
    -1.55916286e+00, -7.16204166e-01,  1.15889204e+00,  1.13892436e+00,  2.65023448e-02,  5.69456100e-01,  7.02752352e-01,  9.43088889e-01,
     3.55819076e-01,  5.26628792e-01,  2.87226617e-01,  2.62398481e-01,  1.80776879e-01,  7.00631291e-02, -6.55975640e-02, -5.93516588e-01},
   { 1.20379344e-01,  4.57471818e-01,  7.94538498e-01,  9.23453987e-01,  3.82722132e-02, -1.36088967e+00, -1.41961133e+00, -7.87392199e-01,
    -2.08858997e-01, -1.30135328e-01,  1.10436618e-01,  6.99700713e-01,  2.39006042e-01,  6.73284605e-02,  1.29125744e-01, -1.59260720e-01,
    -4.72173870e-01,  1.01584136e-01,  1.27807468e-01, -7.16732621e-01, -6.45341039e-01,  1.00939609e-01, -4.15548012e-02, -1.34452522e-01,
    -1.27288342e-01, -4.60095108e-01,  1.61062792e-01, -1.69851646e-01, -3.56551975e-01, -1.71721488e-01, -3.43756020e-01,  2.92035162e-01},
   {-2.78914064e-01,  8.31695944e-02, -2.21855283e-01,  2.23426953e-01, -1.96709633e-01,  2.16813698e-01, -4.18978721e-01, -4.40547287e-01,
     4.20127541e-01, -3.79383773e-01,  7.83168059e-03,  1.71135232e-01,  1.11556959e+00,  4.97472107e-01, -1.15121990e-01, -1.92346387e-02,
    -3.38348776e-01, -6.84031606e-01, -4.12801266e-01, -3.13295960e-01, -4.45079654e-01, -6.81759492e-02,  3.55969012e-01,  2.71541923e-01,
    -1.16088197e-01, -1.03646830e-01, -5.09668440e-02, -8.87768641e-02,  1.87798053e-01, -1.77651703e-01,  6.71347529e-02,  1.57177314e-01},
   { 1.11470208e-01, -7.72203784e-03, -7.79524028e-01, -1.41337112e-01, -6.10832930e-01, -2.96328843e-01, -1.79271791e-02,  6.78285897e-01,
     2.23902985e-01,  5.31786494e-02,  3.93430203e-01, -5.33806719e-02,  6.22359216e-02,  2.61012055e-02, -6.27201796e-02,  3.49458344e-02,
     2.14398816e-01, -4.18092996e-01, -9.41296481e-03,  6.20849431e-01, -3.25059816e-02, -5.90769164e-02, -3.45818102e-02, -4.22802195e-02,
     2.73273349e-01,  3.54216874e-01,  2.05107763e-01, -3.13108414e-03, -2.09192503e-02,  3.22433919e-01, -1.56800941e-01,  6.12896442e-01},
   {-2.56963819e-01,  2.06563190e-01,  5.17729037e-02,  5.58004975e-01, -2.41430715e-01, -1.21949649e+00, -1.57193780e+00,  3.91223937e-01,
     1.31974494e+00,  6.29545212e-01,  5.18390059e-01, -3.90144050e-01, -6.01695657e-01, -2.77073532e-01, -5.85475683e-01, -5.22570491e-01,
    -8.11570510e-02,  5.44128776e-01,  1.26198900e+00,  9.87529457e-01,  2.36941516e-01, -1.04927830e-01,  3.81606698e-01,  3.52219135e-01,
    -5.12983680e-01, -3.38010967e-01, -3.63042317e-02, -3.21745366e-01,  1.58731461e-01, -5.74962914e-01, -2.09882930e-01, -1.14357002e-01},
   { 7.19488114e-02, -4.05245602e-01, -3.61336470e-02,  5.82236230e-01, -5.31119928e-02,  4.08873260e-01, -1.59277231e-01, -1.03017569e+00,
    -1.31114936e+00, -3.88541192e-01, -4.37687039e-01, -1.79625705e-01, -6.68409690e-02, -6.71407044e-01, -4.98423159e-01, -5.09348869e-01,
     6.07864857e-01,  1.11821055e+00,  2.92126060e-01, -9.62654427e-02,  1.07685626e-01, -3.27637613e-01, -4.41995889e-01, -1.50653822e-02,
    -4.35312986e-01, -1.94659963e-01,  2.45760486e-01, -1.97400391e-01,  1.19367830e-01, -2.95628130e-01, -4.88448739e-02,  2.37615153e-01},
   {-6.58779085e-01,  1.97367594e-01, -3.00384969e-01, -3.08331326e-02,  9.67405513e-02,  1.75500184e-01,  3.82266194e-01,  1.39776170e-01,
     2.02798750e-03, -2.98602469e-02,  6.49716854e-01,  6.22481287e-01,  7.53588676e-01,  7.92123973e-01,  8.41814637e-01, -3.34037483e-01,
    -3.11466306e-01,  5.86352125e-02,  2.58959621e-01, -1.40076712e-01, -2.08154961e-01, -2.21848451e-02,  1.52374208e-01, -3.21492463e-01,
    -1.32384831e-02, -9.43733379e-02, -2.59036601e-01, -9.89686102e-02, -8.64035217e-04, -6.82508111e-01, -3.15735698e-01,  6.14633560e-02},
   {-1.67181477e-01,  1.65496254e-03,  1.48481989e+00, -1.06008649e-01, -9.74144876e-01, -1.07515502e+00, -9.45580602e-01, -4.69438046e-01,
     2.60931313e-01,  9.19479430e-01,  1.09419036e+00,  3.59995306e-01, -8.25929105e-01, -9.01848078e-01,  3.70629609e-01,  9.03010190e-01,
     8.62451732e-01,  2.17330486e-01, -6.01916648e-02, -5.69561958e-01, -4.09886464e-02, -1.24357931e-01, -6.12869561e-02,  1.26045480e-01,
    -2.39545047e-01, -5.57166375e-02,  1.04965203e-01, -1.01623878e-01,  1.69781834e-01,  9.47790742e-02, -1.10920817e-01,  2.83722103e-01},
   {-5.76487780e-02,  8.22191387e-02, -4.04494643e-01, -2.70457357e-01, -1.32354721e-01,  1.72501326e-01,  7.91954517e-01,  5.74439764e-01,
     4.70482141e-01,  8.56072187e-01,  1.24517553e-01,  1.04816325e-01,  6.05881274e-01,  2.43526295e-01,  2.72604764e-01,  3.14974964e-01,
    -3.50656807e-02, -6.00666814e-02,  2.71752030e-01,  3.79399568e-01,  4.74294461e-02, -2.88076371e-01,  2.16711149e-01, -2.17261642e-01,
    -2.82830834e-01,  2.85621017e-01,  4.28278118e-01,  5.27209938e-01, -9.37494412e-02,  2.15287596e-01,  2.81756371e-01,  8.97786617e-02},
};

const float GRNN0_U[64][64] = {
   {-7.65571976e+00, -2.71065474e+00, -4.20683697e-02, -5.39307690e+00,  1.33981490e+00,  2.02761507e+00,  1.16851568e+00, -8.53647351e-01,
    -4.97613311e-01, -9.08169508e-01, -1.74868941e-01, -1.49570835e+00,  6.27787530e-01, -1.04811990e+00, -2.34607983e+00,  2.75895000e+00,
    -1.30898631e+00,  1.59587753e+00, -2.92928433e+00, -6.57080173e-01, -7.64423311e-01, -1.73851228e+00,  9.14516687e-01, -1.24174319e-01,
     1.25712991e+00, -1.54149103e+00,  5.36097646e-01, -1.69936627e-01, -8.30476284e-01,  3.68737727e-02,  1.00472152e+00,  8.09767425e-01,
    -9.64899957e-01, -3.12671363e-01,  2.02318525e+00, -6.35791421e-01,  2.32956862e+00,  8.00463557e-02,  2.93124795e+00, -1.24130082e+00,
    -1.84308469e+00,  1.15955615e+00,  1.27080336e-01, -1.94084302e-01, -3.31218362e+00,  3.47326875e+00, -2.67032194e+00, -1.76966822e+00,
     8.24958444e-01,  2.00119662e+00, -2.56771398e+00,  2.54418224e-01, -4.14087206e-01,  1.93661332e+00, -5.35344660e-01, -3.20079255e+00,
     3.20448726e-01, -1.93013608e+00,  8.13418746e-01, -3.16772532e+00, -3.31262827e+00, -1.34677982e+00, -1.40915334e-01, -1.34111655e+00},
   { 1.44063342e+00, -5.13134003e+00,  7.01786757e-01,  7.32662439e-01,  3.87696803e-01,  1.22757399e+00, -1.58867705e+00,  1.61823380e+00,
     4.91470009e-01,  2.67949653e+00,  1.23507202e+00,  1.08238840e+00,  3.22421002e+00, -1.61169791e+00, -1.87255085e-01,  4.32653546e-01,
     8.44999313e-01, -3.41089034e+00, -1.07270038e+00, -1.06270939e-01,  3.17020297e+00,  1.78669989e-01,  2.63948947e-01,  5.09565532e-01,
     6.60116374e-01,  1.74816477e+00,  1.03754377e+00, -7.81260848e-01,  6.80277288e-01, -1.75145054e+00,  6.72044680e-02, -7.60506392e-01,
    -1.02451205e+00,  1.33256400e+00, -6.83062613e-01,  8.53928149e-01,  2.20314884e+00,  1.66276884e+00,  8.74041677e-01, -1.16781950e-01,
     2.94201046e-01, -1.45527184e+00,  7.00180650e-01,  8.10997009e-01,  3.14992380e+00,  3.23914099e+00,  4.31677520e-01, -2.21773818e-01,
    -1.13521166e-01,  1.04674220e+00,  1.39260995e+00,  1.64599872e+00,  1.43897724e+00, -2.88579881e-01,  7.72452354e-01, -6.26932919e-01,
    -4.43219185e-01, -8.94809723e-01,  6.58158779e-01, -4.54241484e-01, -2.55366850e+00,  9.93111193e-01, -3.22419739e+00,  1.32107246e+00},
   {-3.05512357e+00, -5.28126895e-01, -4.24454498e+00,  5.18088579e-01,  1.02704597e+00,  3.41986716e-01, -1.77734837e-01, -1.91510308e+00,
     2.46063900e+00,  2.78085023e-01,  1.12252615e-01, -5.00359356e-01,  7.10516214e-01,  3.69554684e-02,  5.72222292e-01,  3.09292465e-01,
     1.34654939e+00,  1.22976446e+00, -2.36263536e-02, -8.02784801e-01,  1.14688240e-01,  1.61944777e-01,  4.24010307e-01, -1.40600801e+00,
     4.11594272e-01,  1.39413691e+00,  2.37914276e+00, -3.42609853e-01,  3.58010471e-01, -1.49742985e+00,  1.62182897e-01, -2.33744812e+00,
     1.59220493e+00,  2.03885958e-01, -1.06455612e+00,  1.01039517e+00, -5.71507849e-02, -3.09506583e+00, -3.61779451e-01,  1.25778306e+00,
    -7.00269818e-01,  5.40270567e-01,  1.02496946e+00, -4.41975564e-01, -1.44930851e+00,  1.71853527e-01,  1.47363007e+00,  7.81504750e-01,
     4.67156082e-01,  1.53176069e+00,  5.54581881e-01,  1.35139394e+00, -7.07074881e-01, -1.74542892e+00, -3.63936782e-01,  5.03376245e-01,
    -2.65189624e+00,  6.94740355e-01,  6.38283968e-01,  8.81540477e-01,  8.07513073e-02,  8.76662254e-01, -1.00458777e+00,  2.92951882e-01},
   { 4.77052182e-01,  3.57606232e-01, -1.32762277e+00, -3.37458634e+00,  7.55184948e-01,  6.72245741e-01, -2.87425667e-01,  1.52026311e-01,
     6.30998850e-01, -1.65694511e+00, -4.81138897e+00,  8.47975552e-01, -3.57180417e-01, -2.14077687e+00,  8.55450869e-01,  5.50142825e-01,
    -8.95334005e-01, -9.10902202e-01,  2.62489176e+00, -1.59015328e-01,  1.84719265e+00,  1.94911242e+00,  5.90483882e-02, -6.69231653e-01,
     2.22450423e+00,  4.45450902e-01,  1.91416097e+00,  3.24138589e-02, -3.56012844e-02, -3.16296369e-01,  3.17096996e+00,  2.46482086e+00,
     1.38819790e+00, -2.92348355e-01, -7.42696881e-01, -1.91744733e+00,  9.81016338e-01,  1.01600766e+00,  5.98061644e-02,  1.30223319e-01,
     1.13217533e+00,  8.57174277e-01, -1.26911700e+00, -1.00663948e+00, -2.10716218e-01, -3.83919775e-01, -2.87092733e+00,  2.14000964e+00,
    -2.02874169e-02,  5.25385380e-01, -3.10316652e-01,  1.16828728e+00,  1.19592309e-01, -2.40552711e+00,  1.58709431e+00, -2.78259277e+00,
     4.98674631e-01, -2.33556056e+00, -2.77703166e-01, -1.91964638e+00,  1.69687605e+00,  1.31429713e-02, -1.27833414e+00,  5.04536510e-01},
   { 7.60999143e-01, -3.48487906e-02, -1.58946618e-01,  2.60003495e+00, -1.72320187e+00,  1.28046894e+00, -2.19957232e+00, -1.89318776e+00,
    -5.63520670e-01,  1.38402689e+00,  1.72247016e+00, -8.21622461e-02, -1.76445663e+00, -1.15074408e+00,  1.03952456e+00,  1.07679021e+00,
     2.24499077e-01, -9.48645234e-01,  3.84751987e+00, -2.09872651e+00, -1.58982858e-01,  6.18950248e-01,  5.25295883e-02, -9.93904531e-01,
    -8.85353148e-01, -3.37233663e-01,  1.76278603e+00,  4.05331582e-01, -1.39413631e+00,  8.74074340e-01,  2.67586303e+00, -2.59525514e+00,
    -1.28557456e+00,  1.85841846e+00, -1.23131371e+00, -1.82744050e+00,  1.41955090e+00, -2.24206090e+00, -6.06492162e-01,  1.18001187e+00,
    -1.24303758e+00, -5.39630175e-01,  1.26471594e-01, -7.68471956e-01, -7.18515456e-01, -1.85409546e+00,  1.66637544e-02,  1.97059226e+00,
     3.84486437e+00,  2.34713674e+00,  1.41192150e+00,  4.97386009e-01,  7.92216063e-01, -3.03916240e+00, -9.20149922e-01,  9.37399447e-01,
     3.79010111e-01, -1.57469940e+00, -3.13807636e-01,  1.08822894e+00, -2.27672887e+00,  6.17627800e-01,  1.54758036e-01,  1.01064360e+00},
   { 1.12402594e+00, -9.48154271e-01,  1.00246775e+00, -3.73934150e-01,  2.31258726e+00, -3.85124326e+00, -1.08092046e+00, -1.78760123e+00,
    -3.34809661e-01, -1.23709118e+00, -1.23077595e+00,  8.44519377e-01,  7.45789886e-01, -9.01786759e-02,  3.71785522e-01,  2.63691592e+00,
    -1.19393206e+00,  1.31885386e+00, -1.13296616e+00, -4.76106346e-01, -5.77718914e-01, -2.93594915e-02, -3.21749717e-01,  2.06216983e-02,
    -1.82859194e+00,  2.04803562e+00,  5.59345245e-01, -3.73874724e-01, -1.16805039e-01,  3.95024002e-01,  9.00935590e-01,  1.08328605e+00,
     1.31235397e+00, -1.93383801e+00, -6.04752958e-01, -1.40134442e+00,  2.80658865e+00, -5.08170247e-01, -9.98323143e-01, -1.30966995e-02,
    -1.01080053e-01,  9.64195669e-01, -6.70664132e-01,  8.75555873e-02, -3.66916847e+00, -1.19368362e+00, -1.74050891e+00,  5.10793149e-01,
    -7.24489912e-02, -7.88131729e-02,  1.45187244e-01,  6.94194853e-01,  7.35088766e-01,  1.92303705e+00, -1.26041150e+00,  3.39888906e+00,
     2.91634947e-01, -2.18495086e-04, -6.19045913e-01, -1.38116968e+00,  1.08470231e-01,  6.88351631e-01, -5.21812916e-01,  8.80449057e-01},
   {-2.24969077e+00, -2.13599473e-01,  3.73380899e-01, -1.31966257e+00,  6.84794962e-01, -7.62797415e-01, -4.92386007e+00,  1.28437793e+00,
     7.02083707e-01,  1.51725113e+00,  2.04402757e+00,  1.49106884e+00,  4.51559544e-01,  2.49473691e-01,  1.12430549e+00, -1.23988664e+00,
     9.36593115e-01, -1.34050274e+00, -1.74482059e+00,  3.69831920e-01,  2.07406712e+00, -2.08902583e-01,  6.02272689e-01, -1.19585156e+00,
    -2.24231537e-02, -3.40914279e-01, -5.05433798e-01,  1.61676615e-01,  3.35678071e-01, -9.95705724e-01, -5.04494369e-01, -1.29857826e+00,
     1.81801283e+00,  3.61652583e-01, -1.35693789e+00,  1.36100626e+00, -1.99288082e+00, -4.48127717e-01, -2.79706359e-01, -1.41845536e+00,
    -2.60053825e+00,  4.29915249e-01,  4.88341451e-01, -6.13404512e-01,  2.92161202e+00, -2.31753063e+00,  2.71282554e+00,  1.73427141e+00,
    -5.79986095e-01,  2.30773434e-01,  1.70816255e+00, -5.98371327e-01, -1.76539004e+00, -1.48623264e+00,  1.42228949e+00,  1.74930608e+00,
    -2.08476543e+00,  1.35493994e+00,  1.47525537e+00,  3.38383460e+00, -2.07009435e+00, -1.57533514e+00,  3.60685289e-01, -7.69189954e-01},
   {-5.50548136e-01,  3.08184803e-01, -2.57302940e-01, -4.31093089e-02,  6.16382241e-01, -5.95847368e-01, -9.22364235e-01, -5.55909634e+00,
    -1.13969231e+00, -4.09118026e-01,  2.61659741e-01,  1.16598201e+00,  1.29770458e+00,  4.37032193e-01,  1.24120414e+00, -5.58206677e-01,
    -2.94221431e-01, -5.31597257e-01, -1.76199138e+00,  5.88163920e-02,  1.17288089e+00, -1.23336351e+00,  1.71996698e-01,  2.69002616e-01,
     2.26618242e+00, -6.80129528e-01,  2.72687578e+00,  3.16665244e+00, -2.04735518e+00,  5.94889939e-01,  2.59053499e-01,  2.12333512e+00,
    -2.22674370e-01,  7.10964799e-02, -1.02329709e-01,  1.44783258e+00, -6.22356296e-01,  1.05892599e-01, -5.15054703e-01,  1.28386533e+00,
    -2.26530313e+00, -2.62095785e+00,  1.97770607e+00,  7.98100710e-01,  2.78404546e+00, -1.43111169e-01,  3.12405825e-01,  1.80287540e+00,
     3.44429642e-01,  8.14955682e-02,  2.15300107e+00,  2.95039248e-02, -1.60533118e+00, -3.74615836e+00,  3.74631137e-01, -1.22566903e+00,
    -2.09115791e+00, -3.81210446e-01, -9.41180348e-01, -6.65530324e-01, -3.55797338e+00, -8.46645772e-01, -1.40824652e+00,  3.83995593e-01},
   { 2.05366683e+00,  4.22511482e+00, -1.60412514e+00,  1.19569457e+00,  3.05854440e+00,  1.89783370e+00, -2.01638684e-01,  8.76305997e-01,
    -4.45231199e+00,  3.01222897e+00,  1.90788317e+00,  2.70400357e+00,  4.78722930e-01,  1.95549384e-01,  2.55018187e+00,  1.32832229e+00,
     2.44909191e+00, -1.43472469e+00,  1.17975831e+00,  6.62187397e-01,  3.67485690e+00, -7.51262963e-01,  3.94982576e+00,  1.19350910e+00,
     1.28864193e+00,  1.94483602e+00,  2.43081236e+00, -1.17775954e-01,  3.72036070e-01, -4.83040541e-01,  5.81004143e-01,  4.37448883e+00,
     7.94560015e-01,  8.59981716e-01, -3.97926092e-01,  4.85768840e-02,  2.25295234e+00,  4.00428867e+00,  7.61383951e-01,  9.20477271e-01,
    -1.13688076e+00, -5.24271190e-01,  2.91254640e+00,  5.63410163e-01,  2.67690444e+00,  2.89130259e+00,  1.44256306e+00,  2.95275187e+00,
     2.05464888e+00,  1.10698903e+00,  3.57432151e+00,  2.56973672e+00, -1.67363310e+00, -5.26056767e-01,  1.16699144e-01,  1.37623358e+00,
     3.04574108e+00, -1.75302505e-01, -1.65034497e+00,  9.13287103e-01,  5.86716592e-01,  2.32039666e+00, -9.69844699e-01,  2.21518588e+00},
   { 1.08926511e+00,  7.61170909e-02, -1.66302037e+00,  4.25487608e-02,  1.22084641e+00,  1.45507717e+00, -1.16957152e+00, -1.52677989e+00,
    -9.53000665e-01, -5.72699690e+00,  1.37158942e+00,  6.27201498e-01,  2.67482376e+00, -3.37868780e-02, -4.00385588e-01,  2.04999030e-01,
    -1.08903420e+00, -3.87882209e+00,  9.92271081e-02,  9.32375565e-02,  8.69869769e-01,  4.45717335e-01, -3.51641357e-01, -3.30579042e-01,
    -3.68005109e+00,  8.85358378e-02,  2.49347597e-01, -2.35095263e+00,  1.05371046e+00, -1.75171053e+00,  8.81925166e-01,  6.13612056e-01,
     1.73365879e+00,  2.59509397e+00, -4.53101575e-01,  2.28046227e+00, -4.10261452e-01,  6.71236873e-01,  2.40535617e+00,  4.95390058e-01,
    -2.89829445e+00, -5.08081913e+00, -4.44682777e-01, -3.25744867e-01,  7.28082135e-02,  5.46005778e-02,  2.29455352e+00, -2.32450533e+00,
     1.79502904e+00, -1.28155410e-01,  1.53903162e+00, -6.72511101e-01,  2.55460000e+00, -1.12475014e+00,  5.88839352e-01,  2.55585337e+00,
     3.70029628e-01,  1.13272226e+00,  5.84520400e-01,  3.16579723e+00, -9.60204840e-01,  1.98916882e-01, -2.35119843e+00,  1.31335151e+00},
   {-5.55203389e-03, -1.88237891e-01, -3.89668941e-02, -6.77137017e-01,  3.04429793e+00, -7.10172474e-01, -3.32931101e-01, -1.70334816e+00,
     9.23853278e-01,  9.04198766e-01, -3.78861141e+00, -6.57942116e-01,  9.94139731e-01, -1.81900620e+00,  6.73837304e-01,  3.42121720e+00,
     5.87232888e-01, -6.35611892e-01,  1.26832092e+00,  6.19760275e-01, -1.87929893e+00, -2.46784234e+00,  3.89067680e-01,  4.56321150e-01,
    -2.89333701e+00, -1.24042876e-01,  1.10304341e-01,  1.37188882e-01, -1.05847073e+00, -9.26756501e-01, -9.83714759e-02,  9.33669284e-02,
     7.44465172e-01,  2.23378348e+00, -2.14468047e-01, -1.30254662e+00,  3.71868873e+00, -4.56419408e-01,  5.92973530e-01, -3.60189140e-01,
    -3.64198160e+00, -3.90452325e-01, -2.55774349e-01, -9.85379145e-02,  6.66126192e-01,  6.24903552e-02,  3.69913578e-01,  7.37743199e-01,
     1.86348665e+00, -3.70518595e-01,  6.32835627e-01,  9.78031874e-01,  4.63168502e-01,  6.10542357e-01, -1.87584475e-01, -1.77643251e+00,
     3.89445692e-01, -1.09478939e+00, -4.54795003e-01, -2.72614312e+00, -2.21900964e+00,  7.87389755e-01,  1.97062767e+00, -3.33231360e-01},
   { 1.98215473e+00,  1.94208890e-01, -1.09889567e+00,  1.22379556e-01, -1.74690628e+00,  1.10763800e-03, -5.21987140e-01,  1.51902318e-01,
    -2.46290946e+00,  2.11372185e+00,  3.03683901e+00, -4.35090590e+00,  5.81530869e-01, -1.29067600e+00,  9.81077731e-01, -9.65382695e-01,
    -2.28206587e+00, -1.68376756e+00,  5.07144369e-02, -1.00082362e+00,  2.07826519e+00,  2.83688974e+00, -8.57744157e-01,  1.37123525e+00,
    -7.82514691e-01,  2.78371483e-01,  7.78053164e-01, -1.16858256e+00, -1.18210100e-01, -1.15500653e+00,  2.98204511e-01,  2.20317207e-02,
     2.54049158e+00,  2.28244606e-02, -2.10091758e+00, -3.34438610e+00, -1.00775886e+00,  7.12662816e-01,  7.39570498e-01, -1.65418792e+00,
    -1.86974001e+00, -2.51426864e+00,  1.99225068e-01,  1.60435379e+00,  1.27318668e+00,  4.14895821e+00, -2.89038926e-01,  5.99129558e-01,
     2.39319730e+00, -3.40756357e-01,  2.18945360e+00, -7.50644654e-02, -1.88927269e+00, -5.21223962e-01, -2.11916256e+00,  1.10121799e+00,
    -5.95665693e-01,  4.15726542e-01, -1.87446380e+00,  2.79584622e+00, -1.99250114e+00, -3.17376494e-01, -2.47349668e+00,  7.07629979e-01},
   { 2.56881475e-01, -7.87943900e-02, -7.33381569e-01, -2.35274363e+00,  3.71710014e+00,  3.16395020e+00, -6.97998226e-01, -3.85579407e-01,
     1.80227745e+00, -2.66017377e-01,  5.85613012e-01,  4.57966387e-01, -2.38753438e+00,  2.55315661e+00,  1.28190625e+00,  2.38403845e+00,
     1.06689739e+00, -3.83945274e+00, -1.43856168e+00,  1.65976036e+00,  6.76073432e-01,  5.63199222e-01,  4.75691110e-01, -1.30812287e+00,
    -1.39367342e+00,  1.16202641e+00,  3.39303732e+00,  8.98967087e-02,  1.53397274e+00, -1.95817709e+00, -2.89185584e-01,  2.67263365e+00,
    -5.36645055e-01, -1.15322733e+00, -2.01670742e+00,  1.27847806e-01,  1.95797896e+00,  3.02191108e-01, -7.78576314e-01,  1.73608691e-01,
     4.28044319e-01, -7.19214797e-01,  9.33801532e-01, -1.48349106e+00,  3.34318101e-01,  2.05687332e+00, -3.22349757e-01,  2.39723492e+00,
     1.34642410e+00,  9.14287746e-01, -1.36902308e+00,  2.65853262e+00,  7.38711238e-01,  1.74804056e+00,  8.26598942e-01,  4.20690060e+00,
    -5.23462594e-01,  1.13421345e+00,  4.93582845e-01, -2.99688041e-01,  3.57382476e-01,  4.10606772e-01, -1.37094033e+00,  7.60313988e-01},
   { 9.21118379e-01, -7.30398178e-01, -4.39727873e-01, -9.78504717e-01,  1.83978658e-02,  9.42224085e-01, -1.13266957e+00, -1.76691639e+00,
     8.37142859e-03,  2.56575561e+00,  7.30274630e+00, -1.50348115e+00,  7.76350141e-01, -5.43573952e+00,  5.74066520e-01, -6.85596943e-01,
     4.49922752e+00, -1.03655827e+00, -2.10822511e+00,  4.85591221e+00,  1.15873122e+00, -2.17462793e-01,  1.15934885e+00, -2.50564218e+00,
    -2.33609414e+00, -5.15208602e-01, -8.68282616e-02, -1.06369555e+00, -1.75545835e+00, -1.52380669e+00, -1.85397363e+00,  1.05381310e+00,
    -8.39502811e-01,  2.02402210e+00, -2.66496271e-01,  1.21651781e+00, -1.53084970e+00,  6.61373377e-01, -3.65648240e-01,  2.02277571e-01,
     6.15882091e-02, -8.90448987e-01,  1.64286971e+00, -2.84860992e+00,  4.50525522e+00, -4.66015667e-01,  3.53850555e+00, -3.01747561e-01,
     4.93896246e-01, -1.30351377e+00, -1.98447430e+00, -1.14532463e-01, -1.93125382e-01,  2.87975621e+00,  1.12747765e+00,  4.67305946e+00,
    -5.51666692e-02,  8.54052246e-01,  2.70731390e-01,  5.58050632e+00, -2.09791064e-01, -1.38699397e-01,  1.85685062e+00,  1.08096850e+00},
   {-7.01937228e-02,  2.07725063e-01,  7.33381212e-01,  4.90769774e-01,  1.30739021e+00,  1.15503681e+00, -2.64791608e+00, -1.57090569e+00,
     2.35856080e+00,  4.02446061e-01, -3.32837880e-01,  1.00510740e+00, -1.67198110e+00, -3.19032240e+00,  5.26880980e-01,  1.63585460e+00,
    -1.70891774e+00, -4.74657714e-01,  8.26227486e-01, -3.94716454e+00,  1.39196444e+00,  3.84360164e-01,  2.68941462e-01, -3.30313832e-01,
     2.17889845e-02,  3.01673174e+00,  2.22191191e+00,  1.21158254e+00, -1.22745073e+00,  3.17386299e-01,  2.10316324e+00,  4.38080549e-01,
    -9.22644362e-02, -2.97658324e+00, -4.60403889e-01, -3.60754585e+00,  2.60277963e+00,  1.10217035e+00, -1.21170385e-02, -1.39951181e+00,
    -2.60246348e+00, -2.17854333e+00,  4.43904251e-01, -2.20558524e+00, -2.09326839e+00, -1.38156879e+00, -1.62470412e+00,  2.34821320e+00,
     2.52092695e+00,  2.44163537e+00,  7.49239028e-01,  3.07448936e+00, -2.34503075e-01, -1.82812905e+00, -4.66074562e+00,  8.35866407e-02,
     1.32100880e+00, -2.16784191e+00, -7.56384075e-01, -1.61565816e+00, -1.99287403e+00,  2.12985444e+00,  1.26257107e-01,  2.57045317e+00},
   {-4.06328011e+00,  1.65575534e-01, -1.31237543e+00,  1.01416433e+00, -2.69653201e-01, -4.69757915e-01, -1.13355339e+00, -9.06274319e-01,
    -6.04918420e-01, -7.23127782e-01,  3.24031520e+00, -3.05096298e-01,  2.37473321e+00,  1.64183939e+00, -3.11965764e-01, -1.06715667e+00,
     6.99929714e-01, -2.30878925e+00, -1.86108112e-01, -2.62994337e+00,  1.67481959e+00,  2.56473422e+00, -1.52426469e+00,  1.20193863e+00,
    -5.29548502e+00,  1.45394951e-01,  9.00153399e-01, -1.30511749e+00,  1.56981635e+00,  6.03282988e-01, -1.07262778e+00, -2.46819353e+00,
    -1.20169008e+00, -5.76268256e-01, -2.43394613e+00, -3.38716936e+00, -1.40632141e+00, -2.21390653e+00, -6.46492004e-01,  4.85017359e-01,
    -8.15436065e-01, -3.25125188e-01, -7.30399251e-01,  1.89047366e-01, -4.46077633e+00, -6.82792515e-02,  7.66963959e-01,  1.38963258e+00,
     6.63218689e+00, -3.57526660e-01, -2.09530067e+00,  9.53111410e-01, -4.59980160e-01, -2.42843413e+00, -1.33726203e+00,  4.22130489e+00,
    -1.35018122e+00,  1.20515919e+00,  1.06562006e+00,  2.22550583e+00, -1.39393008e+00, -5.16917706e-01, -2.13088012e+00,  7.06933022e-01},
   { 1.81720757e+00, -7.25682378e-01,  5.31486422e-02, -3.38595845e-02,  2.07056785e+00,  4.71040487e-01, -3.40382576e-01, -1.30936909e+00,
    -7.96753347e-01,  1.64325500e+00,  3.99525166e-01, -2.49973249e+00,  1.16200995e+00,  1.16533196e+00,  3.50310636e+00,  4.85748589e-01,
    -1.45194006e+00, -1.10255823e-01, -9.83628631e-01,  2.29397821e+00,  1.26997554e+00, -1.45559800e+00, -5.93259394e-01, -8.49771798e-01,
     3.08894813e-01,  4.09527868e-02,  3.61737895e+00, -1.90708923e+00,  1.17218304e+00, -2.43070197e+00,  3.40101451e-01,  4.87609768e+00,
     1.22435772e+00,  1.05982697e+00, -3.24014854e+00,  2.44295979e+00,  6.75192401e-02, -2.03895420e-01,  1.93699345e-01, -8.57257903e-01,
     5.36325395e-01, -1.49213159e+00,  2.37908888e+00, -2.68534012e-02,  1.50711417e+00, -1.08223903e+00,  1.76602936e+00,  3.04040074e+00,
    -1.11344731e+00, -3.86493176e-01, -2.10581899e+00,  1.83165801e+00,  1.03080235e-01,  1.42574692e+00,  1.56444454e+00, -1.03911662e+00,
     9.37051177e-01,  1.13790381e+00,  3.28265071e-01, -1.60650939e-01, -3.00586820e+00, -3.27493966e-01, -1.05483818e+00,  2.41287518e+00},
   {-3.69733238e+00, -7.84510851e-01,  8.97358656e-01,  9.18723464e-01, -9.49988842e-01, -1.16738701e+00, -2.15043589e-01,  4.15095419e-01,
    -3.18799168e-01,  1.18511569e+00,  2.02047199e-01, -1.75193524e+00, -1.42808461e+00, -2.07951570e+00, -1.19711506e+00, -1.74297059e+00,
     4.17628795e-01, -5.99003220e+00,  1.43037319e+00, -3.88336515e+00, -1.28115153e+00,  1.58367646e+00, -4.50224429e-01, -8.19614291e-01,
    -4.38512892e-01,  1.69115826e-01,  3.27715367e-01,  1.74983032e-02,  4.86043543e-01,  4.96946961e-01,  4.95351046e-01, -3.74197912e+00,
    -9.23342645e-01, -1.25252664e+00, -1.05234516e+00,  2.01905560e+00, -2.49086833e+00, -3.68239474e+00, -2.32029653e+00, -6.74342573e-01,
    -2.68743306e-01, -1.39711523e+00, -6.20450437e-01,  2.32110947e-01, -2.05311966e+00, -4.00092602e+00,  3.24426800e-01, -4.32359427e-01,
    -1.42816758e+00,  7.40677118e-01, -1.61974359e+00, -9.33274329e-01, -5.67316651e-01, -3.51607299e+00, -1.94561827e+00, -9.76001859e-01,
    -1.73252201e+00,  1.02260575e-01,  1.93160248e+00,  1.04007781e+00, -1.22983646e+00,  1.44426024e+00,  7.87209392e-01, -1.91027433e-01},
   {-1.10621798e+00,  4.56901580e-01, -2.34508920e+00,  2.63545322e+00, -1.86274529e+00,  1.44834375e+00, -1.18152297e+00,  6.62801147e-01,
     5.35083592e-01,  9.44494978e-02,  1.40612088e-02,  6.09129488e-01,  8.45364332e-01,  5.80091476e-01, -9.48120654e-01, -1.76881385e+00,
    -7.81983376e-01, -2.33164683e-01, -3.09916425e+00, -2.87487197e+00,  1.42245144e-01,  4.98492986e-01, -5.62364399e-01,  3.00415844e-01,
    -3.86375189e-02,  1.81460285e+00, -1.63504744e+00,  1.61676335e+00,  2.74200812e-02,  1.49351680e+00,  1.24517369e+00, -8.93174648e-01,
     1.09766328e+00,  7.95809209e-01,  1.40152478e+00,  3.87113869e-01, -9.01972771e-01, -2.91486025e+00, -1.55766875e-01,  6.87391639e-01,
     1.31404279e-02, -1.79639685e+00, -1.18264699e+00,  8.93611461e-02, -9.53434467e-01, -2.27005625e+00, -6.41473234e-01, -3.69906336e-01,
     1.34316273e-02, -2.79660821e+00,  4.50363427e-01, -3.69896859e-01,  7.06145942e-01, -3.93606853e+00, -6.46073818e-01,  2.96935290e-01,
    -6.63469136e-01, -4.88577515e-01, -7.28624582e-01,  1.68621397e+00,  1.69829190e-01,  2.08881497e+00, -1.36904448e-01, -9.42395926e-01},
   { 7.74319291e-01, -4.13152128e-01,  1.13263881e+00, -3.51323652e+00,  4.64180374e+00,  9.57792819e-01, -1.31283331e+00, -8.71340632e-01,
    -7.12127268e-01, -1.00245583e+00, -2.90224135e-01, -5.65749586e-01, -1.89130545e-01, -7.43475735e-01, -2.02314742e-02,  2.80998397e+00,
     1.07951701e+00,  1.24466503e+00, -3.36860180e+00, -4.54317760e+00, -3.04168593e-02, -4.61361742e+00,  7.11249053e-01,  8.49704087e-01,
    -1.01322317e+00, -8.37262273e-01,  6.17263496e-01, -1.28464794e+00,  1.90425560e-01, -5.78067780e-01,  1.34212601e+00,  2.28128958e+00,
    -1.28837660e-01, -3.40471059e-01, -6.81034744e-01, -1.76154554e+00,  2.44514990e+00,  1.32449746e+00, -7.66764104e-01,  4.77685928e-01,
    -4.66703624e-01,  5.23010969e-01, -1.75245345e-01, -5.16235650e-01, -2.06612754e+00,  1.73367679e+00,  1.06038904e+00, -1.08080137e+00,
    -3.59352767e-01,  2.00180340e+00, -9.24327374e-01,  1.14377367e+00,  1.29841745e+00,  9.43592072e-01, -9.14512634e-01, -2.20846152e+00,
     2.27571511e+00, -2.84380460e+00, -2.36246634e+00, -3.44303060e+00, -1.49543369e+00, -1.54473889e+00,  7.00929582e-01,  3.30830336e-01},
   { 1.62419939e+00,  1.83914864e+00,  6.91432893e-01, -6.50364280e-01,  5.19801438e-01,  2.37124276e+00, -1.67547905e+00,  1.31508172e+00,
    -1.14754796e+00,  1.27614665e+00,  6.47589564e-01,  2.15964293e+00,  1.84181225e+00,  2.51239508e-01,  1.69886589e-01,  1.33014572e+00,
    -5.02947927e-01, -1.29095602e+00, -6.04268491e-01,  1.41225207e+00, -5.54171181e+00,  1.79835212e+00, -1.20256114e+00,  9.46488261e-01,
    -1.29439938e+00,  1.32547438e+00,  3.36302012e-01, -5.55600166e-01,  1.10112250e+00,  1.16823055e-01,  5.66534586e-02,  1.54046953e-01,
    -5.74514627e-01, -4.79768962e-01,  1.59840614e-01,  8.87560904e-01,  8.33461225e-01,  3.39335418e+00,  1.57754242e+00,  8.55603576e-01,
     2.85108000e-01, -2.59041095e+00,  1.56281650e+00,  1.75346565e+00,  2.49604011e+00,  4.14184713e+00,  1.10797334e+00,  4.83148359e-02,
     1.66849637e+00,  8.82375538e-01,  3.01424098e+00, -2.05169424e-01,  1.27954423e+00, -1.00892641e-01,  1.65656269e+00,  3.52827644e+00,
    -5.38475886e-02,  3.85945410e-01,  4.03007597e-01,  1.99872732e+00, -2.23576427e+00,  3.62178862e-01, -3.58209300e+00,  8.69718611e-01},
   { 1.14419687e+00,  1.14922237e+00, -6.42355144e-01,  2.74163079e+00,  8.50250661e-01,  1.47242416e-02, -3.82051378e-01, -1.23171592e+00,
     1.72726333e-01, -1.29504788e+00, -7.96673119e-01,  1.05205810e+00, -3.09109151e-01,  9.54586387e-01, -3.14380899e-02,  2.57686949e+00,
     1.24379325e+00, -1.42235458e+00,  1.47000182e+00, -3.03326547e-01,  5.60390532e-01, -7.14572477e+00, -2.49645486e-02, -1.16684482e-01,
    -2.49234319e+00,  1.20744097e+00, -5.81197262e-01, -1.93028355e+00, -8.27333689e-01, -7.37290442e-01,  1.94241142e+00, -2.65974712e+00,
     1.03025043e+00,  3.07915777e-01, -6.75994635e-01, -1.39324927e+00,  1.98625064e+00,  9.10496950e-01, -2.64410526e-01, -2.27507338e-01,
     1.29279113e+00, -4.93022591e-01,  1.18892111e-01,  7.20670521e-02,  1.13054204e+00, -3.80169243e-01, -3.99697542e-01,  1.03562868e+00,
     4.71151143e-01, -4.54266876e-01,  1.03240955e+00,  8.35916936e-01, -6.88686132e-01, -1.69521773e+00, -3.13329995e-01,  3.96459389e+00,
     7.43944585e-01, -1.90365338e+00, -4.26678598e-01, -3.50122228e-02,  1.17995843e-01,  8.89280558e-01, -3.24865222e+00,  1.44255459e-01},
   { 4.90317345e+00,  4.01554680e+00,  1.15013704e-01,  1.19326198e+00,  4.01122046e+00,  7.73748696e-01, -1.21094656e+00,  1.96889901e+00,
     6.40756011e-01,  2.57405090e+00, -1.23305392e+00,  2.42575550e+00,  4.84945655e-01, -6.70426130e-01,  2.31685066e+00,  1.04633176e+00,
     1.15409422e+00, -1.72730422e+00, -1.05839276e+00,  8.73061776e-01,  4.21034145e+00, -1.91171825e+00, -5.08248472e+00,  8.35973561e-01,
     2.13113999e+00,  3.45059633e-01,  1.96187484e+00, -3.62705022e-01,  1.04812121e+00, -1.02251136e+00,  1.07461607e+00,  6.46017504e+00,
     7.90799875e-03, -2.83601344e-01, -2.29809427e+00, -3.95206898e-01,  3.25161099e+00,  3.22698951e+00, -1.44513965e+00, -5.52781284e-01,
     1.39423144e+00, -3.87666821e-01,  2.88311791e+00,  1.15739167e+00,  2.06411695e+00,  1.87092221e+00, -6.53303146e-01,  2.81353045e+00,
    -2.34505892e-01,  9.23082709e-01,  3.40318847e+00,  2.01736474e+00, -1.13290370e+00,  3.00991219e-02,  6.21079862e-01,  1.46265291e-02,
     3.13206649e+00, -7.92527735e-01, -2.00497437e+00, -6.11055791e-01, -1.30666339e+00, -1.02003729e+00, -1.33234370e+00,  9.75929379e-01},
   {-1.53832138e+00, -3.02569181e-01,  6.30471647e-01, -1.80660546e+00, -1.05564868e+00, -3.07067084e+00, -1.68058038e+00,  8.01204085e-01,
    -1.12754369e+00,  6.56604290e-01, -2.46353343e-01,  1.64662850e+00,  1.72661990e-01, -1.58504522e+00, -1.15074348e+00,  5.23659825e-01,
    -3.95331550e+00,  1.33945358e+00, -7.38408625e-01, -2.60225725e+00, -3.91138613e-01, -3.45263571e-01, -2.52235293e+00, -6.97056007e+00,
     2.51552075e-01,  5.62129617e-01, -4.18497175e-01,  1.40444291e+00, -1.99394035e+00,  1.54524982e+00,  2.38046154e-01, -1.59556234e+00,
    -2.61929482e-01, -1.41427147e+00,  1.36556482e+00, -1.54315221e+00, -1.12741292e+00, -4.19642568e-01, -8.69534969e-01, -1.36650646e+00,
    -2.19370389e+00, -2.78780580e+00, -9.23480272e-01,  1.22569537e+00, -4.10328686e-01,  2.08509302e+00, -8.32979620e-01, -8.83085370e-01,
    -8.87149721e-02,  4.93071467e-01,  2.95120192e+00, -1.59550917e+00, -3.73848259e-01, -9.50913012e-01, -1.37572777e+00, -1.72688055e+00,
    -1.19293272e+00, -1.28186178e+00, -2.60562515e+00, -1.60193825e+00, -2.80814219e+00,  1.23174441e+00,  1.78257477e+00, -7.36550272e-01},
   { 1.32735145e+00, -5.98864913e-01,  1.57003507e-01, -1.95161653e+00,  2.70578408e+00,  2.29325795e+00,  1.82368398e+00,  4.69927132e-01,
     1.91812587e+00, -1.03276408e+00,  2.25887418e+00,  4.51889247e-01, -6.73082113e-01,  3.23398203e-01,  1.28643215e+00,  2.84804195e-01,
     2.67359912e-01, -8.20146620e-01, -3.90855730e-01,  2.57760808e-02, -2.23402828e-01,  3.33051205e-01, -4.92555141e-01,  1.40824580e+00,
    -6.08411551e+00,  1.59690523e+00,  1.23873256e-01,  4.36839879e-01, -2.30741215e+00,  6.92377090e-01,  1.26035380e+00,  1.78853917e+00,
    -3.28381419e+00, -6.14970699e-02,  8.22353423e-01, -1.49441421e+00,  1.45829010e+00,  1.02268589e+00,  1.22555293e-01,  9.74528119e-02,
    -4.60785389e-01,  1.65177715e+00,  2.32979760e-01, -9.45023775e-01,  6.91610038e-01,  7.90279925e-01, -1.79211771e+00,  7.29400694e-01,
    -2.19257355e-01,  2.82082701e+00, -7.46563375e-01,  8.45522165e-01,  1.06924760e+00,  2.18959284e+00,  1.39799133e-01,  3.00087404e+00,
     1.39966321e+00,  1.94452655e+00,  5.59476554e-01,  2.15158153e+00,  1.35280550e+00,  9.38614190e-01,  3.77256465e+00,  6.54339612e-01},
   { 6.54782593e-01,  1.50221145e+00, -9.38466489e-01, -5.01352549e-01,  3.30207324e+00,  5.92133999e-01,  7.07086563e-01, -1.08102107e+00,
     1.09062862e+00,  3.41222143e+00,  2.08829269e-02,  2.30454874e+00,  3.50305825e-01, -1.15566003e+00,  1.37880576e+00,  6.60848379e-01,
     9.62376773e-01, -1.84587336e+00, -9.38813567e-01, -1.03895366e+00,  1.83946204e+00, -2.78963304e+00, -1.09623504e+00, -2.09045202e-01,
    -6.90388739e-01, -2.24147463e+00,  1.50554228e+00, -1.94950497e+00, -8.68101418e-02, -3.94576621e+00, -9.07512128e-01, -6.70415580e-01,
     3.61105770e-01, -1.41071630e+00, -1.64546633e+00, -1.76098958e-01,  6.99236989e-01,  5.37524760e-01,  3.30418110e+00, -5.63899636e-01,
    -2.48924494e+00, -1.47537911e+00,  2.33483982e+00, -6.16382718e-01,  1.82048714e+00,  5.46890974e-01,  4.91475314e-01,  5.84865332e-01,
     2.03903270e+00,  4.88757379e-02,  1.95041513e+00,  1.28145742e+00, -7.40182459e-01, -8.19259644e-01, -7.27575183e-01,  1.60444140e+00,
    -1.04715145e+00, -9.35858309e-01, -7.14412212e-01,  1.98689902e+00, -9.96145904e-01,  4.26266581e-01, -3.46624351e+00,  1.39555013e+00},
   {-1.19631040e+00, -7.32304990e-01,  2.39962935e-01,  1.66054845e+00,  1.04587376e+00,  1.38469899e+00, -1.29359090e+00, -1.80641687e+00,
     2.70256853e+00,  1.11716315e-01, -8.93764198e-01,  1.45227671e+00, -9.77616549e-01, -2.89996314e+00,  2.04388714e+00,  2.47610927e+00,
    -1.37595689e+00, -7.61314452e-01, -1.41484722e-01, -3.95312977e+00,  6.97663650e-02, -1.24045813e+00, -8.07021856e-01, -4.49644208e-01,
    -1.88499153e+00,  2.35856509e+00,  2.14289260e+00,  1.50302613e+00, -1.32776451e+00,  4.50664818e-01,  1.53639054e+00,  6.41575277e-01,
     1.32230639e+00, -2.85190165e-01, -1.44136536e+00, -4.20751476e+00,  1.87188375e+00,  2.40640461e-01, -1.02366304e+00, -7.25289106e-01,
    -3.18192697e+00, -1.11826801e+00, -6.75138474e-01, -3.11008692e-01, -1.59964287e+00, -2.58883214e+00, -3.21326518e+00,  3.96346831e+00,
     3.99049497e+00,  2.70301676e+00,  2.12001681e+00,  2.49584484e+00,  6.38455868e-01, -2.65091586e+00, -3.71564436e+00,  1.60393584e+00,
     9.15519595e-01, -2.72665048e+00, -9.12602186e-01, -7.39053786e-01, -8.80218625e-01,  1.20488894e+00,  3.34179258e+00,  1.71422327e+00},
   { 1.45829630e+00,  1.11128795e+00,  4.96854097e-01,  2.51638389e+00,  8.04554075e-02,  1.15543044e+00,  9.64193463e-01,  2.14630222e+00,
     3.74075198e+00, -3.87909621e-01,  2.34209132e+00,  1.56426549e+00, -4.26976293e-01, -1.71147954e+00,  2.79410982e+00,  1.59250364e-01,
     2.80967593e-01, -4.23448950e-01,  1.81112111e+00, -1.25664628e+00,  1.24409032e+00,  1.10847092e+00,  2.72802615e+00,  2.38597417e+00,
     2.69158125e+00, -3.41562897e-01,  1.74629438e+00, -7.10183048e+00,  3.34794283e-01,  5.64553380e-01,  2.26098585e+00,  1.03787985e+01,
     5.50319552e-01,  2.93307677e-02, -4.63944972e-01, -8.66711974e-01, -2.01770067e+00,  2.14682269e+00, -1.51632285e+00, -2.92011333e+00,
    -2.42925540e-01, -6.70820117e-01,  3.29840326e+00,  1.55251884e+00, -1.59885836e+00, -3.94121379e-01,  1.22953665e+00,  3.09838724e+00,
     9.36260164e-01,  8.60924944e-02,  1.13566768e+00,  6.08751893e-01, -1.04792380e+00, -1.31966424e+00,  1.75769317e+00, -1.55089056e+00,
     2.42826247e+00, -1.88319111e+00, -1.21958041e+00, -1.42817664e+00, -1.01159632e+00,  4.95680690e-01,  4.95079100e-01,  6.25734389e-01},
   { 1.39779794e+00,  6.81620896e-01,  2.09504199e+00, -1.54411399e+00,  2.44082823e-01,  1.48287728e-01, -2.51762897e-01, -1.41759098e+00,
     9.91541028e-01, -1.61084247e+00, -6.91981435e-01, -1.04397762e+00,  9.11102712e-01,  1.03692377e+00,  6.36191726e-01, -3.02997231e-01,
     1.98123848e+00,  6.96167171e-01, -6.67785034e-02,  5.19800723e-01,  9.40944076e-01,  1.72661459e+00,  1.07464302e+00, -7.66521513e-01,
    -7.43977129e-01,  6.26758575e-01,  1.53778744e+00, -5.56453466e-01, -2.29528236e+00, -1.97952354e+00, -1.14731121e+00,  4.39615440e+00,
    -1.63246107e+00, -8.72955084e-01, -2.70275855e+00,  1.45685124e+00,  5.36922105e-02, -4.00272340e-01, -5.75287879e-01, -7.71466121e-02,
     3.64848757e+00, -1.10695176e-01,  2.61020631e-01, -1.73335397e+00, -1.46415830e+00, -8.83179963e-01,  1.17755866e+00,  1.31323409e+00,
     1.32444847e+00,  1.25131154e+00, -1.56554580e+00,  1.52193987e+00,  7.73728848e-01,  2.16520214e+00,  1.02430892e+00,  9.03465986e-01,
     1.32394099e+00,  1.45938218e+00, -1.04329288e-02,  4.68990833e-01, -7.55419374e-01, -3.64115953e-01, -8.41450274e-01,  4.08472002e-01},
   { 3.98903847e-01,  7.59595811e-01,  6.40390992e-01, -1.22828200e-01,  8.01797211e-02, -5.16304493e-01, -8.20398688e-01,  6.62792206e-01,
     3.20306754e+00, -7.33511806e-01,  1.14654231e+00,  8.05471241e-01, -1.96974552e+00, -2.39820886e+00,  7.68830061e-01, -8.68855417e-01,
    -1.46784079e+00,  1.03591657e+00,  2.08467729e-02, -1.96472204e+00,  6.26566589e-01,  1.49252319e+00,  2.15391970e+00,  1.45617735e+00,
    -4.59600687e-01,  4.47485685e-01,  8.80391419e-01,  3.85406566e+00, -3.22328639e+00, -7.26407003e+00,  1.27840030e+00,  8.54803467e+00,
     1.77989256e+00, -1.67671204e+00, -1.63020730e-01, -4.16621876e+00, -8.09335053e-01,  1.58960557e+00, -8.03365529e-01, -1.93864775e+00,
    -1.49101138e+00,  1.55082896e-01,  1.87553668e+00,  1.90942466e+00, -1.86673307e+00, -1.32532823e+00, -1.56697464e+00,  2.93182802e+00,
     2.41429359e-01,  1.02162600e+00,  2.51101303e+00,  3.83372813e-01, -1.69793868e+00, -1.27798510e+00, -7.62678683e-01,  1.37330627e+00,
     2.06291747e+00, -1.87666786e+00, -2.62087893e+00, -9.20169055e-01, -1.29596615e+00,  1.02173114e+00,  2.69058371e+00,  8.77665579e-01},
   {-1.02690911e+00,  3.75161648e-01, -2.73098040e+00,  4.65691566e+00,  5.05185127e-01,  6.63000643e-01, -1.52953625e-01, -1.24884868e+00,
    -1.24976858e-01, -2.13637233e+00, -1.01612711e+00,  4.71784413e-01,  3.00171614e+00,  8.11121583e-01,  2.12467408e+00,  2.32845426e+00,
     4.84926015e-01, -4.02131796e+00,  5.42313993e-01,  1.15170276e+00,  1.99843872e+00,  1.24105625e-01, -1.53578117e-01, -7.49265432e-01,
    -5.42744517e-01,  6.39315009e-01,  2.34215546e+00,  4.93049353e-01,  2.88264728e+00, -1.31745613e+00, -5.43640423e+00,  2.27624044e-01,
     2.47133946e+00,  2.18366385e+00,  2.13582963e-01,  1.41339564e+00,  2.34414768e+00, -7.54237354e-01,  2.40597740e-01, -9.92618561e-01,
    -1.32614136e-01,  4.50615473e-02, -6.12861335e-01, -2.65391994e+00, -5.81724048e-02, -3.61185700e-01, -3.89388680e-01,  2.98302412e+00,
     3.19259548e+00, -3.29459310e-01,  8.00482810e-01,  2.11044693e+00, -6.80309013e-02,  7.14844242e-02,  5.20830393e-01,  2.06658602e+00,
    -7.80744970e-01,  2.88812399e-01,  8.61622393e-04, -2.64917403e-01,  9.57523644e-01,  9.63442385e-01, -2.57621765e+00,  1.49436080e+00},
   {-2.19332242e+00, -1.96838915e+00,  9.03241456e-01, -1.28742707e+00,  2.65747380e+00,  5.43681085e-01,  2.22067165e+00, -7.76225448e-01,
     1.37339026e-01, -2.15988398e-01, -1.14088528e-01, -3.98255289e-01, -5.01006961e-01, -3.24479908e-01, -1.98517847e+00,  1.09608376e+00,
    -1.64796853e+00,  2.53410387e+00,  6.10761225e-01, -3.28622127e+00, -2.10727191e+00, -7.98740327e-01,  8.73021483e-01,  4.43925768e-01,
     3.30409139e-01,  7.83913076e-01,  4.76110965e-01,  2.59930044e-02,  1.31305790e+00,  1.93465233e+00,  4.12509859e-01, -8.80545616e+00,
    -1.90231121e+00, -3.45262438e-01,  3.16433573e+00, -5.07932007e-01,  2.31967592e+00, -1.24401641e+00,  1.84689033e+00, -1.09745812e+00,
    -9.68512297e-01,  2.13780594e+00, -1.69568706e+00,  6.93537474e-01, -2.92833495e+00,  2.25472164e+00, -5.20834637e+00, -1.19292080e+00,
     2.14201617e+00,  1.77775288e+00, -2.81147575e+00,  2.10647553e-01,  1.26015139e+00,  2.50627585e-02, -1.45807886e+00, -3.01312470e+00,
    -8.39243293e-01,  1.75291114e-02,  1.10740089e+00, -1.98590612e+00,  1.55787873e+00,  6.29122198e-01,  7.79409349e-01, -5.13443589e-01},
   {-6.24650061e-01, -2.04348490e-01, -2.81633705e-01,  1.88091874e+00, -6.48793727e-02,  1.02916646e+00,  7.70522475e-01,  5.73880924e-03,
     1.78923798e+00,  7.63761818e-01, -4.38750796e-02, -1.50209641e+00,  7.52371550e-01, -7.13444650e-01,  1.85692561e+00,  7.43442625e-02,
     1.45525193e+00, -5.52752197e-01,  1.56032848e+00,  6.04477942e-01, -1.04700260e-01,  4.60610360e-01,  1.19601071e+00, -8.63663077e-01,
    -1.84995699e+00, -5.26804507e-01,  8.35246146e-01, -2.57977891e+00,  3.20151389e-01, -1.79283607e+00,  8.11051965e-01, -3.73488784e-01,
    -4.13012600e+00,  2.97861123e+00, -7.69962609e-01, -3.96584392e-01,  6.52652383e-01, -1.04927266e+00, -1.85634160e+00, -7.20679998e-01,
    -8.59036446e-02,  1.01344967e+00, -8.67953479e-01,  4.15625751e-01, -4.49881792e-01, -1.13855624e+00,  1.38432920e-01,  1.61635470e+00,
    -8.22334051e-01, -3.27643573e-01, -1.91043770e+00,  6.68738544e-01,  1.12614799e+00, -1.66849172e+00,  3.53280616e+00,  4.60900515e-01,
     5.54661095e-01,  7.44550228e-01,  3.73978138e-01,  9.86143947e-01,  1.48033416e+00, -5.81840038e-01, -2.22521877e+00,  3.87729853e-02},
   {-3.91466260e-01,  1.76327741e+00, -1.48895454e+00,  1.82081342e+00,  2.98849845e+00,  1.55304658e+00, -1.51324594e+00, -1.71925223e+00,
     7.67202139e-01, -3.95828068e-01,  6.75634861e-01, -8.23311627e-01,  2.32955551e+00,  1.79625738e+00,  2.21933389e+00,  2.57633495e+00,
     1.73297131e+00, -1.83367074e+00,  7.39827231e-02,  2.96874285e+00, -1.07832603e-01, -2.11032248e+00,  1.03492725e+00,  7.97554076e-01,
    -4.62827015e+00,  3.96406390e-02, -1.97425351e-01, -2.40420282e-01,  1.52216578e+00,  2.41474181e-01, -9.87987578e-01, -2.09259701e+00,
     2.99900901e-02, -3.17728949e+00, -1.37834942e+00,  2.45772505e+00,  1.08631790e+00, -1.12433207e+00, -9.79539990e-01,  4.92897481e-02,
    -1.47162437e+00, -6.29357219e-01, -9.36936587e-02,  1.92384809e-01,  1.24375832e+00, -2.45811701e+00,  2.41206121e+00,  3.53713483e-01,
    -4.83539760e-01, -2.97516870e+00,  9.76300478e-01,  4.28642094e-01,  3.12345052e+00,  1.77982855e+00,  3.25904465e+00,  4.13727522e-01,
    -5.38542092e-01, -1.02774508e-01, -1.32373333e+00, -9.08536464e-02, -4.53645557e-01, -6.35997057e-01, -1.62246242e-01,  3.41639996e-01},
   { 3.74491751e-01, -1.40603387e+00,  1.02042186e+00,  2.05612874e+00,  4.03744996e-01,  1.24533987e+00, -1.26608098e+00,  2.28931260e+00,
     3.98187470e+00,  4.39293146e-01,  1.34617317e+00,  9.81150746e-01,  8.53278100e-01,  1.81012213e-01,  1.38660836e+00,  3.81061547e-02,
    -4.47226644e-01, -1.17382598e+00,  1.75773156e+00, -4.02985841e-01, -4.34040308e-01, -8.07244241e-01,  2.55943179e+00, -8.28075647e-01,
     3.04919147e+00,  1.83273602e+00,  1.84021866e+00,  3.09199452e+00,  9.55364943e-01,  1.60054708e+00,  2.99367380e+00,  6.61877012e+00,
     8.20123553e-01,  1.56336641e+00, -5.14971113e+00, -1.44132078e+00, -3.66116345e-01,  7.04537988e-01, -4.91298623e-02, -3.25271428e-01,
    -1.69925392e+00,  3.05697888e-01,  3.08250666e+00,  3.26306932e-02, -1.95539272e+00, -1.51984870e+00, -1.52958483e-01,  1.86140192e+00,
     8.25849473e-01,  2.11045170e+00,  4.73415017e-01,  7.66510069e-01,  3.40307027e-01,  1.39858708e-01,  6.38843358e-01, -1.94242454e+00,
     1.80103791e+00, -1.72864199e+00, -4.60291892e-01, -1.00411475e+00,  6.08389795e-01,  5.39178193e-01,  2.07174444e+00,  1.18032610e+00},
   { 9.76053298e-01, -2.08350420e+00, -8.58698726e-01, -2.32381392e+00, -6.62133336e-01,  1.05166018e+00, -1.68981624e+00, -2.79180360e+00,
    -8.55271757e-01,  5.55676281e-01, -1.90749240e+00, -7.33647287e-01,  6.86811507e-01, -8.32889140e-01, -1.37681496e+00,  4.88894552e-01,
    -2.87796646e-01,  2.52587438e+00,  1.03950274e+00, -1.04821825e+00,  7.02005029e-01,  3.01865190e-01, -7.21305311e-01, -1.09146714e+00,
    -1.54796588e+00,  1.12003732e+00,  1.44076467e+00, -9.18249369e-01,  1.67828667e+00, -6.33959472e-01, -1.35033464e+00,  2.58842081e-01,
    -1.78751528e-01, -9.93470550e-01, -1.68816590e+00, -5.09997034e+00,  2.30848953e-01, -1.38266373e+00, -3.33319247e-01,  1.84808195e+00,
     1.27389610e+00,  1.76123530e-01,  3.05952519e-01, -1.77476609e+00, -1.13641298e+00, -2.26115301e-01, -1.50435030e-01,  4.99214754e-02,
     8.16118777e-01,  7.69250929e-01,  2.86530852e-01, -3.45002972e-02,  1.08089352e+00,  7.18218803e-01, -3.17412943e-01,  4.50743407e-01,
    -1.36979640e+00,  9.45540983e-03,  1.85559422e-01,  4.39981341e-01, -1.72423232e+00,  6.49366736e-01, -9.01140571e-01,  1.57114351e+00},
   {-2.07555509e+00, -1.14047539e+00, -2.05731487e+00,  1.74912965e+00,  9.23209846e-01, -4.18748111e-01, -1.59535110e+00, -7.22917080e-01,
     2.52850413e+00, -7.28388011e-01,  3.08772421e+00, -1.67479634e+00, -6.97186887e-01, -5.84235549e-01,  1.32598913e+00,  1.41782665e+00,
     2.37111378e+00, -3.21353984e+00,  2.10649800e+00, -2.16810584e+00, -1.18772733e+00, -6.34825677e-02,  5.90821147e-01,  1.19663417e-01,
    -4.24841309e+00,  1.06097794e+00,  1.84981453e+00, -1.77354741e+00, -1.47873390e+00,  1.17667365e+00, -8.64177644e-02, -1.01641583e+00,
     2.65673637e+00,  1.66529250e+00, -1.13142896e+00, -3.23687172e+00,  1.24679692e-01, -2.13600636e+00,  1.11744344e+00,  1.70999539e+00,
    -2.59671545e+00, -2.88862324e+00,  3.36770952e-01, -1.30797851e+00, -2.26750946e+00, -1.25855339e+00,  2.80027807e-01,  2.04627728e+00,
     5.47560692e+00, -1.47586727e+00,  6.13344133e-01,  8.03353667e-01, -1.10699391e+00, -2.63579679e+00, -1.84016383e+00,  1.36958313e+00,
     1.11278012e-01,  5.92562437e-01,  1.09879829e-01, -3.11875820e-01, -1.62275636e+00,  1.66158438e-01, -9.61800694e-01,  1.05709314e+00},
   {-1.05562735e+00, -1.45109212e+00,  1.79706275e+00, -1.47233176e+00,  1.16153085e+00,  2.04095793e+00,  9.26780403e-02, -6.66354835e-01,
    -8.10434639e-01, -1.70946062e+00, -1.40342653e+00, -1.90299153e+00,  2.11409998e+00, -2.27407789e+00, -1.37068486e+00,  3.14879918e+00,
    -7.62161195e-01,  2.41279602e+00,  6.34438813e-01, -2.99494290e+00, -1.63147533e+00,  1.65116742e-01,  1.14687002e+00, -5.76782882e-01,
    -2.82563591e+00, -1.63756359e+00,  8.84209871e-01, -5.53827524e-01,  3.01022619e-01, -4.59447652e-02, -2.79858746e-02, -4.04921621e-01,
     5.44122994e-01, -1.14615643e+00,  2.30011225e+00, -2.86545366e-01,  1.91983509e+00, -8.86278057e+00,  2.92877150e+00, -1.03011616e-01,
    -3.92186666e+00, -8.13921690e-01,  3.24751645e-01,  7.29784012e-01, -3.74849248e+00,  1.69600224e+00, -1.25384605e+00, -2.12157059e+00,
     2.32637572e+00,  8.31709564e-01, -3.36883569e+00, -7.51144886e-01,  6.77239895e-01, -3.34502077e+00, -1.61622131e+00,  1.12015307e+00,
     1.84247506e+00, -1.47218835e+00,  1.12473226e+00, -6.65812433e-01, -1.76955473e+00, -3.54679048e-01, -2.36456060e+00,  1.17086053e+00},
   { 6.61446631e-01, -1.12587786e+00, -1.14041030e+00,  1.62691891e+00, -8.93726826e-01,  9.32368934e-01, -1.09008896e+00, -1.37850058e+00,
    -1.61918592e+00, -5.19700527e-01, -2.59452790e-01, -1.91228974e+00,  9.93131042e-01, -9.97037351e-01, -4.39187974e-01,  1.27755606e+00,
     6.01902008e-01,  1.20969689e+00,  1.38299203e+00, -2.75468898e+00, -2.02443528e+00,  1.49136162e+00, -8.75896156e-01, -1.25896141e-01,
     5.50695837e-01, -2.40735126e+00,  6.44231975e-01, -1.77093565e+00, -1.11047864e+00, -1.71182227e+00, -9.13199008e-01, -8.99464130e-01,
     1.21840692e+00,  6.64407849e-01, -1.98247641e-01, -2.48826361e+00,  1.23774695e+00, -1.25565040e+00, -6.23326957e-01, -4.89952028e-01,
    -2.73872852e+00, -2.47902107e+00,  1.86284471e+00,  2.60498405e-01, -2.20191121e+00,  1.79359388e+00, -3.53958368e-01, -2.28250504e+00,
     2.41572213e+00, -1.33421630e-01, -1.66490209e+00, -3.84442210e-01,  5.16061902e-01, -2.54641700e+00, -2.07736731e+00,  9.16851938e-01,
    -9.48941588e-01,  8.68432164e-01,  4.92346793e-01, -1.62620270e+00, -8.47090185e-02, -9.51884747e-01, -1.69852495e+00,  1.38717234e+00},
   {-4.48494166e-01, -6.12415135e-01, -1.87279618e+00,  6.09468877e-01, -1.08700037e+00,  8.24238539e-01, -1.99718428e+00, -7.36940682e-01,
    -2.56022501e+00,  1.04728889e+00,  1.20179849e-02,  2.35271290e-01,  1.18432868e+00, -1.84857762e+00,  1.29442585e+00, -2.16778457e-01,
    -1.11789846e+00, -1.85324252e+00, -8.35704446e-01, -3.23250151e+00,  7.09427357e-01,  6.33482456e-01, -2.71238971e+00, -1.15021241e+00,
     1.75048184e+00,  1.46132600e+00,  2.47661257e+00, -2.47104383e+00, -3.24663162e-01, -3.37728357e+00, -3.16976261e+00, -2.87394333e+00,
     9.71427739e-01,  8.06241095e-01, -2.65583301e+00, -7.74109304e-01,  5.45270681e-01, -4.10798699e-01,  7.12568521e-01, -2.67043614e+00,
    -1.55597854e+00, -3.54822826e+00,  5.81487596e-01, -5.07150590e-01,  3.53038125e-02,  6.66451037e-01,  3.80189896e-01,  1.64160669e+00,
     3.27473187e+00,  8.68768692e-01, -1.17374107e-01,  3.49800169e-01, -7.92428255e-01, -3.54407692e+00, -1.95311099e-01,  2.77394980e-01,
    -9.28067625e-01,  2.09233120e-01,  9.27451074e-01, -1.31139576e+00, -2.67022467e+00,  2.88613170e-01, -2.19474626e+00,  2.32810473e+00},
   { 2.46965036e-01, -5.06184042e-01, -1.85386881e-01,  2.95945573e+00,  1.51927137e+00,  2.28887647e-01,  1.71458733e+00, -2.24258780e+00,
     2.61573214e-03, -9.64222431e-01, -9.79819894e-01,  7.36474574e-01,  3.66747975e-01, -5.51481009e-01,  1.95257649e-01,  6.78918242e-01,
    -2.79380269e-02, -1.49740207e+00,  1.39288640e+00,  1.47166446e-01,  1.03195727e+00, -9.10809487e-02, -4.66064572e-01,  1.15745449e+00,
     4.44263840e+00, -1.84647031e-02, -4.84595805e-01, -2.87255311e+00, -1.36848474e+00, -1.00811340e-01,  1.06934321e+00,  1.56308997e+00,
    -2.06184238e-01, -4.06891823e-01, -1.57433665e+00, -9.75983024e-01,  2.07537341e+00,  1.06776273e+00,  1.23003416e-01,  1.31145680e+00,
    -1.43187857e+00,  1.06242573e+00,  4.86651182e-01,  3.85815233e-01, -1.13160849e+00,  1.87969840e+00, -3.36274529e+00,  2.61256337e-01,
    -5.93060851e-01, -1.75547406e-01, -1.38965738e+00,  1.18301880e+00,  1.33250499e+00,  2.34950542e+00, -1.87505114e+00,  1.21842015e+00,
     8.64486620e-02, -2.42831802e+00, -1.34582031e+00, -1.90136063e+00,  1.90961492e+00,  2.41491246e+00, -1.03344284e-01,  4.90994781e-01},
   {-8.98976147e-01,  1.35627997e+00,  6.10659420e-01,  6.08049214e-01, -9.71527219e-01, -2.06352925e+00, -5.03526516e-02, -5.70301533e-01,
     3.22154403e+00, -1.62245953e+00,  7.54766047e-01,  1.27935255e+00, -1.72385621e+00,  4.01325613e-01,  1.61659852e-01, -3.94122720e-01,
     1.66424501e+00,  1.80536580e+00, -4.26472276e-01, -8.98196042e-01,  1.07044077e+00,  2.78476048e+00,  1.74697542e+00, -1.43828619e+00,
    -2.03428268e+00, -1.26830041e-01,  5.58751881e-01,  1.14314651e+00,  1.30006945e+00,  5.00019252e-01, -1.07647085e+00,  1.13918018e+00,
    -1.64518762e+00, -1.50575721e+00, -2.38562584e+00,  4.24350679e-01, -1.59829569e+00, -1.31555364e-01, -2.57446861e+00,  6.03264011e-02,
     1.13494825e+00, -4.13964701e+00, -3.56607884e-02, -1.28667307e+00,  2.00699782e+00,  2.95512676e-01,  3.06348729e+00,  2.10882306e+00,
    -1.07649589e+00,  6.53214395e-01,  1.11209905e+00,  1.04638028e+00, -2.27396417e+00, -4.66321826e-01, -1.10759938e+00,  2.38352013e+00,
     1.31771505e-01,  1.11306882e+00,  7.74921060e-01,  1.75727975e+00, -2.25216076e-01, -1.60732895e-01,  5.61994553e-01, -1.69676870e-01},
   {-1.04954326e+00,  8.99567366e-01,  1.05360734e+00,  8.81437302e-01,  2.75031424e+00,  1.41511226e+00, -1.71724725e+00,  9.80720222e-01,
     6.29201174e-01,  1.61344039e+00, -4.53494728e-01, -7.10362315e-01,  2.99310517e+00,  5.71103036e-01,  2.51059771e+00,  8.20022047e-01,
     1.89631546e+00, -2.89682031e-01, -3.65973055e-01,  9.93784666e-01,  2.75303006e+00, -6.26819611e-01,  1.92169690e+00, -1.47662342e+00,
     7.42011547e-01,  4.20604020e-01,  3.12100458e+00, -3.64494026e-01,  1.29607707e-01, -1.14490759e+00, -1.08842291e-01,  3.28288627e+00,
    -1.40594602e-01,  2.05477381e+00, -7.78855681e-01,  1.04545522e+00,  8.17348003e-01,  5.69074631e-01,  8.42543483e-01,  3.82212818e-01,
    -6.83401585e-01, -1.68744278e+00, -1.74020600e+00, -4.05430883e-01,  9.92763340e-01, -1.77390730e+00,  1.34647071e+00,  3.58695602e+00,
    -6.58827484e-01,  1.85559714e+00, -2.34473228e+00,  1.83274341e+00,  6.68897927e-01, -1.27614284e+00,  2.96053767e+00, -6.64441824e-01,
     1.31129444e-01, -6.50326669e-01, -8.29374343e-02,  2.78941751e-01,  2.35853076e-01,  1.55256283e+00, -2.41207719e+00,  2.36426163e+00},
   {-6.62407339e-01, -7.50648737e-01, -8.23745579e-02, -1.02480221e+00, -4.85321194e-01, -2.59838772e+00,  4.25709993e-01,  4.03958464e+00,
    -1.70437241e+00, -6.43427730e-01,  9.31732357e-01,  4.32709277e-01, -6.57238185e-01, -1.97231317e+00,  1.12976365e-01, -8.15038502e-01,
    -1.36881459e+00,  1.66876405e-01, -1.52901149e+00, -8.52937698e-01, -4.62688357e-01, -3.33227605e-01, -1.00208712e+00, -2.05421805e-01,
     2.14590025e+00, -6.64061427e-01, -1.67107046e-01,  2.07147980e+00, -9.21735018e-02,  1.22062314e+00,  6.58537090e-01,  6.67519212e-01,
     1.52961099e+00, -3.24338704e-01,  1.11493599e+00, -5.99238455e-01, -1.20925021e+00, -1.76185250e-01, -7.88528919e-01, -1.35945678e+00,
    -2.27169895e+00, -1.14072382e+00, -9.79739308e-01, -1.93905771e+00,  8.52440596e-01, -2.38049880e-01,  1.34612477e+00,  2.85323977e-01,
    -9.96229947e-01,  7.25500047e-01,  2.35528636e+00, -1.01318359e+00, -2.41066837e+00, -4.34580851e+00,  2.34949157e-01, -7.93404400e-01,
    -3.31306368e-01,  3.10125232e-01, -5.30809462e-01, -7.39772379e-01, -1.93621528e+00, -9.23720360e-01, -1.01912153e+00,  1.64988413e-02},
   { 3.04117608e+00, -1.08285010e+00, -1.68595326e+00, -1.38569534e+00,  1.08234799e+00,  3.74986506e+00, -1.30002546e+00, -8.84069622e-01,
    -1.36082780e+00,  1.86963439e+00, -2.44613218e+00,  5.05546391e-01,  2.47275352e+00, -1.16426575e+00, -8.22928786e-01,  6.09211087e-01,
     3.05655245e-02, -3.13885546e+00, -1.94963074e+00,  2.77648067e+00,  5.98762631e-02, -8.25422764e-01, -1.44622087e-01, -1.98044479e-01,
     8.62243712e-01,  7.87705779e-01,  1.55975199e+00, -2.36552858e+00,  8.99577081e-01, -1.08444643e+00,  5.45223355e-01,  1.83660853e+00,
     1.70537126e+00,  1.89535117e+00, -1.66385984e+00,  7.47767627e-01,  1.23340571e+00,  2.16736943e-01,  2.87076998e+00, -2.28661466e-02,
     2.01364183e+00, -2.97329021e+00,  9.22703981e-01,  3.07597481e-02, -5.29213667e+00,  1.87304401e+00,  4.84762043e-02, -2.17441678e+00,
    -5.82502902e-01, -2.06971943e-01,  6.09334469e-01,  1.49997497e+00,  1.60728800e+00,  9.66935277e-01,  1.61140954e+00, -5.26216209e-01,
     1.05893576e+00, -7.45409071e-01,  3.56674582e-01, -1.96494532e+00, -4.35411167e+00,  5.92987597e-01, -3.43270040e+00,  1.05364180e+00},
   {-4.54291165e-01, -3.37125659e+00, -8.74685645e-01,  7.24076480e-02, -3.93652450e-03,  4.13143682e+00, -9.79230642e-01,  4.31324214e-01,
     3.33291620e-01, -6.66720748e-01, -3.73886973e-01, -3.43291664e+00,  3.43215108e+00, -9.69122469e-01, -1.63778734e+00,  1.36084354e+00,
    -1.46694407e-01,  8.17172408e-01,  1.45501077e+00,  9.02650058e-01, -1.73939466e+00, -2.42783483e-02,  2.31557655e+00, -1.14217591e+00,
     8.09967279e-01,  2.46424437e+00,  1.04153752e+00, -1.21850120e-02,  1.43618345e+00, -4.68054056e-01,  1.57233274e+00, -8.84456158e-01,
    -7.09596753e-01,  1.29825234e-01,  1.61003923e+00,  1.08405602e+00,  9.99964952e-01, -1.29575574e+00,  3.78461862e+00,  1.29217899e+00,
     5.17821074e-01, -9.31793690e-01,  1.33006084e+00,  1.32401049e+00,  1.20395109e-01, -3.90522265e+00,  1.27685976e+00, -3.54297924e+00,
    -7.21680462e-01, -4.50357832e-02, -3.10641360e+00, -8.74528527e-01,  2.49943137e+00,  4.30723429e-01,  3.62943828e-01, -1.46496546e+00,
    -1.25630403e+00, -8.70568454e-01,  9.48534310e-01, -2.08201098e+00, -1.67566800e+00,  2.60067582e+00, -2.66763592e+00,  1.33851802e+00},
   { 7.29548931e-01,  4.89218712e-01, -4.71042484e-01, -2.26889968e+00,  1.37231994e+00,  1.19187616e-01, -8.60203385e-01, -1.94219935e+00,
    -1.20860445e+00, -8.93532693e-01,  1.74379036e-01, -2.03210282e+00,  1.14534247e+00, -2.12655932e-01, -5.18379211e-01,  9.67851758e-01,
     1.17624450e+00,  1.22402859e+00, -7.86990643e-01,  5.12463450e-01, -5.94928503e-01, -1.19897568e+00, -1.20968603e-01,  5.40068328e-01,
    -3.95134258e+00, -9.12724078e-01, -5.80165923e-01, -9.77377653e-01,  2.96278811e+00,  4.43966329e-01, -3.40003729e-01, -1.56647170e+00,
    -2.49526191e+00, -1.11146450e+00, -5.57185650e-01,  2.76583743e+00,  6.90425158e-01, -6.63558900e-01,  1.22622621e+00,  1.95364642e+00,
    -1.37365496e+00,  1.87016189e-01,  5.80155104e-03, -6.73534393e-01, -3.47267628e-01,  3.10693625e-02, -6.14864683e+00, -1.34841394e+00,
    -3.78554799e-02,  1.90093085e-01,  3.95218194e-01, -4.77241755e-01,  2.29347396e+00, -5.80391109e-01, -6.21226549e-01,  2.01327610e+00,
    -7.83501863e-01,  2.32182518e-01, -3.30396920e-01,  3.35531652e-01, -2.91203713e+00, -4.08018798e-01, -1.11950435e-01, -5.33022940e-01},
   { 7.13643730e-01, -2.84769607e+00,  1.44390702e-01,  1.01766956e+00,  4.27555799e+00, -2.77273893e-01, -1.23728073e+00, -2.78302431e+00,
     1.71792364e+00,  4.09873724e-01, -4.89258647e-01, -5.46236038e-01,  1.58455241e+00, -1.88693631e+00,  1.32707524e+00,  4.31260157e+00,
    -5.23523152e-01, -1.02595353e+00, -6.67190790e-01, -2.14500403e+00, -4.38408881e-01, -3.78750086e+00,  9.97880757e-01, -3.02782393e+00,
     2.05575705e-01,  2.38731241e+00,  3.70985007e+00,  1.07719564e+00,  2.40529269e-01,  6.18166178e-02,  1.94404292e+00,  1.44620681e+00,
     1.03644526e+00, -5.43343306e-01, -1.01431131e+00, -2.66907573e+00,  5.35626650e+00, -1.90245914e+00,  1.45073342e+00,  1.36085600e-01,
    -4.10975361e+00, -1.48147416e+00,  3.47996801e-01, -1.78000462e+00, -3.45248175e+00, -4.81660700e+00, -4.43117237e+00,  1.58785534e+00,
     3.62711787e+00,  3.62578630e+00,  1.35397875e+00,  3.73937917e+00,  3.02631879e+00, -1.46841910e-02, -1.22545218e+00, -1.64438164e+00,
     1.05197124e-01, -2.94938254e+00, -1.92967701e+00, -1.08916056e+00, -2.51121497e+00,  2.35163736e+00,  2.13566422e+00,  3.65929484e+00},
   {-2.95443058e-01, -1.74125218e+00,  8.23906958e-01, -1.85074639e+00,  1.20718336e+00,  6.79150641e-01, -5.52537858e-01, -5.02172709e-01,
     3.44946355e-01,  3.11874181e-01,  3.71807963e-01, -1.59572864e+00,  6.70947850e-01,  3.91154766e+00,  2.70556545e+00,  2.01118708e+00,
     1.82992351e+00, -2.92490220e+00, -1.99433017e+00, -3.90777320e-01,  5.14465094e-01,  1.93075871e+00, -5.69312394e-01, -2.12572646e+00,
    -2.04483294e+00,  1.91054538e-01,  3.99261141e+00, -3.39904332e+00, -5.71823157e-02, -6.68522716e-01, -7.23594248e-01,  1.59679544e+00,
     3.87879491e-01, -3.40586007e-01, -3.73831296e+00, -3.32698464e+00,  7.60692000e-01, -6.99811280e-01, -1.05589783e+00, -7.10504830e-01,
     6.35309577e-01,  1.03287327e+00,  1.23342678e-01, -3.03461289e+00, -3.84868622e-01, -9.57784176e-01, -1.09995782e+00,  3.28550887e+00,
    -2.22244096e+00,  3.50657821e+00, -2.36725736e+00,  3.05628681e+00, -1.33348954e+00,  1.68567955e+00,  4.65481728e-01,  1.82006931e+00,
     2.17041850e+00,  1.40759766e+00,  8.13394368e-01,  1.37767315e+00, -1.11653671e-01, -3.35559964e-01, -1.60422313e+00,  1.80474949e+00},
   {-1.66795349e+00,  1.02492765e-01,  3.45052510e-01, -1.45751968e-01,  2.26245475e+00, -2.04024529e+00, -1.54643583e+00, -1.02480674e+00,
     3.80799919e-01, -4.82838720e-01,  2.77541304e+00,  9.13852572e-01,  2.21774414e-01,  3.41860354e-01,  2.58152914e+00,  2.81777644e+00,
     7.33016968e-01, -1.25848067e+00,  3.40115905e-01, -1.80995107e+00, -8.83209169e-01, -1.91970694e+00, -9.93942395e-02, -2.15123725e+00,
    -1.06476665e+00,  1.49344230e+00,  8.29968572e-01,  1.02445394e-01,  2.12078118e+00,  4.90070969e-01,  1.82761884e+00,  7.47961581e-01,
     1.92301357e+00,  5.15563607e-01, -1.42442048e-01, -1.55430377e+00,  8.28534901e-01, -3.55413651e+00,  4.00451124e-02,  1.17949985e-01,
    -3.32922721e+00, -1.46912837e+00,  4.71230298e-01,  4.69306484e-02, -3.60477805e+00, -2.31265616e+00,  5.13828397e-01,  1.20401132e+00,
     2.92583299e+00, -4.97156501e-01,  2.47915697e+00,  1.48548365e+00, -1.83502579e+00, -2.43679738e+00,  9.97229517e-01,  1.36205256e+00,
     1.81502748e+00, -1.27474117e+00, -1.88561130e+00, -4.25309777e-01,  5.99984527e-01,  2.22114101e-01,  1.00319564e+00,  1.30382323e+00},
   { 3.10249853e+00,  3.44666809e-01, -1.39734060e-01, -1.03470945e+00,  1.93424845e+00, -2.38709044e+00, -2.71166635e+00, -3.87835532e-01,
    -7.17103124e-01, -2.10381046e-01,  1.13103020e+00,  1.56353822e-03,  4.96298045e-01, -8.42610717e-01,  1.07874858e+00,  4.22955453e-01,
     4.13629450e-02, -3.82087588e+00, -1.11399364e+00,  5.32724977e-01, -1.52463675e-01, -3.86585779e-02, -1.67507574e-01,  4.24664795e-01,
     7.36963391e-01,  9.79373455e-01,  1.46920621e+00, -1.47922683e+00,  8.06338966e-01, -2.54638410e+00, -2.38128018e+00,  1.95360994e+00,
    -1.30088672e-01, -2.69109344e+00, -1.00495875e+00, -1.98240244e+00,  1.54921639e+00, -2.95409020e-02,  1.13657451e+00, -1.67970493e-01,
     8.14333260e-01, -2.05267024e+00,  4.04218942e-01,  3.22145432e-01,  1.27415657e+00,  4.05325842e+00, -2.26362920e+00, -1.91718471e+00,
    -1.18786164e-01,  1.05961275e+00, -7.06004143e+00,  2.02911592e+00, -1.19478905e+00,  1.23158395e+00,  2.31560141e-01, -3.82587224e-01,
     5.23993671e-01, -6.80661201e-01, -9.32026267e-01, -2.75227785e-01, -1.71791875e+00, -5.48838317e-01, -2.79932284e+00,  1.86112785e+00},
   {-1.77272201e+00, -1.75361145e+00,  6.65859997e-01, -7.72873580e-01,  8.02749217e-01,  1.24850202e+00, -3.62823200e+00,  6.02759182e-01,
     9.07447815e-01,  1.19561172e+00,  1.30874872e+00, -2.38410616e+00,  1.01999438e+00, -1.80518043e+00,  1.03947234e+00,  1.49004161e+00,
    -7.89714754e-01, -1.18006432e+00,  1.97265029e+00, -4.05934715e+00, -8.62524867e-01, -1.03516579e+00, -2.65031397e-01, -2.06729680e-01,
    -3.35849524e+00,  1.49000302e-01,  9.26455140e-01, -4.23972100e-01, -6.38864696e-01,  4.45931077e-01,  8.43769014e-01, -4.23922348e+00,
     3.59327048e-01,  1.07266140e+00, -7.37768710e-01, -1.94606006e+00,  9.88331079e-01, -8.88236463e-01, -7.18109846e-01, -2.47267628e+00,
    -4.99129677e+00, -3.24564767e+00,  2.67307878e-01,  1.36469647e-01, -3.19519854e+00, -3.34296608e+00, -1.24122190e+00,  2.57332253e+00,
     3.88763952e+00,  6.33791566e-01,  6.30115271e-01,  1.14339018e+00,  6.93793833e-01, -3.14516401e+00, -1.62216413e+00, -3.34745437e-01,
    -3.63251120e-01, -1.33301437e+00, -2.54512763e+00, -9.49132964e-02, -2.67915320e+00,  1.04485583e+00,  6.81669235e-01,  1.20163727e+00},
   {-7.28853106e-01,  7.00113118e-01,  1.92963436e-01, -3.79283816e-01,  3.46486545e+00,  1.80770135e+00, -1.19495654e+00, -2.11012173e+00,
    -4.58908617e-01,  6.06723502e-03,  5.62845409e-01,  1.15955949e+00,  2.07223678e+00, -9.62968528e-01,  2.87154126e+00,  1.39327538e+00,
     1.33963358e+00,  3.38273436e-01,  2.21080005e-01,  3.02707851e-01,  1.98521882e-01,  7.04377174e-01,  9.34559464e-01,  4.80196148e-01,
    -4.74473810e+00,  2.41475552e-01,  2.48056459e+00, -7.14446425e-01,  5.06618202e-01, -1.30852652e+00,  9.70873117e-01,  1.71509087e+00,
     2.99394464e+00, -5.60841560e-01, -1.44297302e+00,  5.23371041e-01,  8.50421131e-01,  8.18279803e-01, -2.05895805e+00, -2.94946153e-02,
    -4.01318741e+00, -1.41371205e-01,  2.04655457e+00, -3.44440341e-01, -1.21411693e+00, -2.36860111e-01,  4.65133965e-01,  2.47970796e+00,
     2.16786933e+00, -2.98500776e-01,  1.73618674e+00,  1.36552501e+00, -2.05111957e+00, -1.57988298e+00,  7.04426527e-01,  3.74943447e+00,
     1.92390651e-01,  1.37717485e-01,  3.31086993e-01,  5.81267238e-01,  7.75668502e-01,  5.51048398e-01, -3.57947022e-01,  9.60153937e-01},
   { 8.54255021e-01, -1.22202051e+00,  1.82245076e+00, -2.20872951e+00,  1.84039220e-01,  2.92843133e-01, -3.35859478e-01, -1.50041497e+00,
    -5.45928538e-01,  1.36019671e+00,  5.86068916e+00,  4.87770975e-01, -1.62258172e+00,  9.99470830e-01,  6.35038853e-01, -6.21732354e-01,
     2.22504926e+00,  1.11538494e+00, -2.92759895e-01,  8.31197739e-01, -1.79514825e+00, -5.21164477e-01, -7.33276784e-01,  2.65309036e-01,
     1.85056591e+00,  8.76700163e-01,  1.91166103e+00, -5.85868716e-01, -3.81845021e+00, -3.58831668e+00, -1.13220632e+00,  1.91251373e+00,
    -1.93976176e+00,  1.53812075e+00, -1.14349198e+00, -2.65258431e+00,  2.44813234e-01,  1.68965328e+00,  1.61989003e-01,  1.02355731e+00,
    -1.12463810e-01,  6.24511659e-01,  1.59552288e+00, -9.03043330e-01, -9.59617496e-01,  1.27141285e+00,  8.62935066e-01, -5.78021646e-01,
    -4.79798049e-01,  3.24367666e+00,  7.82205939e-01,  6.16681099e-01, -2.14349806e-01, -5.87721491e+00, -1.20256424e+00,  4.69991016e+00,
     1.08572531e+00,  2.89843500e-01, -2.19330621e+00,  2.44527888e+00, -3.02056193e-01,  1.61374584e-01,  2.53590250e+00,  1.80095565e+00},
   { 1.40478003e+00, -1.39764941e+00,  1.76428422e-01, -4.29061383e-01,  3.67181039e+00,  7.23638475e-01, -2.12216640e+00, -1.61400068e+00,
    -1.20855641e+00,  5.70194364e-01,  2.58675456e+00, -1.74816084e+00,  1.43897188e+00,  1.73126972e+00,  3.83841902e-01,  2.12925315e+00,
     5.48942447e-01, -1.36673260e+00, -1.71392870e+00,  3.00491357e+00, -4.39395696e-01, -2.77115726e+00,  2.79754460e-01, -1.35148466e+00,
    -3.11483765e+00, -1.14756837e-01,  1.07785845e+00,  8.72667730e-01,  9.52534556e-01, -1.08557796e+00,  8.61739337e-01,  4.74998188e+00,
     2.96039867e+00, -3.62973005e-01, -3.92968237e-01, -1.51994252e+00,  8.17127168e-01, -2.93225348e-01, -4.74173009e-01,  1.11406946e+00,
     5.95386475e-02, -2.23620272e+00, -9.89697337e-01, -3.21004677e+00, -1.16672826e+00, -1.76671398e+00,  1.08091247e+00, -8.73305917e-01,
