#ifndef __FASTGRNN_GRNN1_PARAMS__
#define __FASTGRNN_GRNN1_PARAMS__

#define GRNN1_HIDD_DIM0 (64)
#define GRNN1_HIDD_DIM1 (32)

// clang-format off

const float GRNN1_ZETA = (1.403238e-01);
const float GRNN1_NU = (-1.382949e+01);

const float GRNN1_BIAS_UPDATE[32] = 
   { 2.59362668e-01,  8.07108358e-02,  1.31816542e+00,  1.05565643e+01,  5.02613068e-01,  7.83051491e-01,  1.10698204e+01,  1.01897526e+01,
     1.31731424e+01,  8.34762335e-01,  6.24188900e-01,  1.16799927e+01,  1.77637681e-01,  1.16264324e+01,  1.02494411e+01,  1.07602463e+01,
    -1.04090464e+00,  3.83527763e-02,  4.30462569e-01,  1.06081181e+01,  1.15501318e+01, -1.14168627e-02,  1.13196650e+01, -3.16322774e-01,
     9.62432575e+00,  9.49187088e+00,  1.30853777e+01,  1.34030342e+00,  2.43652487e+00,  9.83919144e-01,  1.03290539e+01,  1.15200691e+01};

const float GRNN1_BIAS_GATE[32] = 
   {-6.28168297e+00,  1.09139717e+00,  3.16472244e+00,  3.33669424e+00,  6.85775727e-02, -4.19881201e+00,  3.87374425e+00,  2.01264167e+00,
     4.44358253e+00, -4.49511558e-01,  1.92504561e+00,  3.72575378e+00, -1.19963968e+00,  3.66708374e+00,  2.60312247e+00,  3.00953913e+00,
    -3.00325561e+00, -2.76002765e+00,  1.42275059e+00,  3.50662374e+00,  4.95169163e+00,  6.29732430e-01,  2.03996778e+00, -6.64219046e+00,
     1.86450171e+00,  3.28583908e+00,  5.63677931e+00,  2.30081224e+00,  2.74215150e+00,  2.01855516e+00,  3.76323342e+00,  4.28136683e+00};

const float GRNN1_W[32][64] = {
   {-6.58967137e-01,  6.20584749e-02, -2.35792011e-01,  2.53712013e-02,  3.08396190e-01, -2.09735796e-01,  8.17426026e-01,  3.74765545e-01,
    -4.13210601e-01,  3.29964906e-01, -1.99362040e+00,  8.63812745e-01,  4.28135067e-01, -1.21311116e+00,  1.42175004e-01,  1.61451042e-01,
     2.45026514e-01, -1.35182947e-01, -2.73686290e-01, -1.43147910e+00, -8.18868075e-03, -5.93165696e-01, -1.73063099e-01,  5.63236475e-01,
    -5.15577674e-01,  3.00779760e-01,  6.81050271e-02,  8.33998471e-02, -4.25035924e-01,  3.02140743e-01, -3.44643861e-01, -2.60373056e-01,
    -3.26667398e-01, -6.56364143e-01,  1.65511996e-01, -4.16687548e-01,  6.45051777e-01, -3.49171191e-01,  3.27952057e-01,  2.00665072e-01,
    -7.62930885e-03, -1.73812538e-01, -4.47149575e-01,  7.30336487e-01,  8.24677050e-01, -1.53745636e-01, -1.23543799e+00, -1.94858477e-01,
    -1.12184007e-02, -5.30143738e-01,  3.28345090e-01, -1.88508928e-01,  4.40642685e-01, -1.22681201e+00, -1.15129769e+00, -1.73714304e+00,
    -7.68325031e-01, -6.53026700e-01, -1.15171224e-01, -1.12852609e+00, -2.76766449e-01,  7.22156167e-02,  8.02372843e-02, -1.07673042e-01},
   { 5.03979504e-01, -2.50400960e-01,  1.97116375e-01, -4.08593088e-01,  8.36968720e-02,  3.68084610e-01, -1.34949937e-01, -2.47095987e-01,
     3.81456852e-01,  3.18278581e-01,  6.04420722e-01, -9.03614461e-01, -3.99018168e-01,  9.23288286e-01,  8.57365355e-02, -4.44228649e-01,
     3.51375997e-01, -4.51324508e-02, -5.65775514e-01,  6.90979958e-01, -3.77225816e-01, -1.61523864e-01,  1.44520879e-01, -1.69104800e-01,
     1.26262271e+00, -7.24055588e-01,  8.07470828e-02, -3.01845461e-01, -2.09022630e-02, -2.63151258e-01, -2.31669083e-01,  7.63571501e-01,
    -4.15166557e-01,  1.93279237e-01, -4.69459236e-01,  4.77572143e-01, -4.78691131e-01, -1.30838752e-01,  1.84529811e-01, -1.60341188e-01,
     7.64845490e-01,  1.45195514e-01,  1.21940613e-01, -1.85155556e-01,  7.04980195e-01,  3.07945848e-01,  2.23613292e-01,  1.19359851e-01,
    -2.75336921e-01,  3.52754742e-01,  3.30631018e-01,  1.53619081e-01, -3.55553716e-01,  1.19921565e+00,  1.23546624e+00,  2.79207319e-01,
     3.96888256e-01,  4.34113055e-01, -2.91849282e-02,  4.53402847e-02,  2.82588422e-01, -5.95868170e-01, -4.32668477e-01,  2.18296483e-01},
   { 1.14265513e+00,  6.63629547e-02, -6.82387948e-02,  1.31777808e-01,  5.34405589e-01,  2.94528455e-01, -3.74056458e-01, -4.58131284e-02,
     4.41579491e-01,  7.68883601e-02,  7.32704461e-01,  7.77582526e-02, -2.54892349e-01, -2.97922820e-01, -1.10036135e-01,  3.00983191e-01,
    -5.30812331e-02, -1.10394776e+00,  5.13184249e-01,  3.65578055e-01,  3.15286994e-01,  1.38261959e-01,  7.40331709e-01,  1.78611577e-01,
     2.71257252e-01, -1.32692292e-01,  5.37571535e-02,  9.48829129e-02, -1.29054412e-01,  1.23011656e-01, -1.04321033e-01,  6.36901498e-01,
     1.10686377e-01, -8.47110599e-02,  1.75525710e-01, -4.28851634e-01,  5.38394928e-01,  7.59835958e-01,  4.12230641e-02, -1.24388881e-01,
     9.11424980e-02, -6.04306497e-02, -9.54411626e-02, -5.71874306e-02, -2.02015415e-01,  3.14344257e-01,  3.62351507e-01, -1.16806224e-01,
    -8.45393613e-02,  2.52898306e-01,  2.12406456e-01,  2.10436776e-01, -1.20885789e-01, -4.31993864e-02, -6.18598759e-01,  2.59929951e-02,
     1.22303689e+00, -2.50033196e-02, -2.84611166e-01, -4.97065902e-01,  2.59831518e-01, -8.00869167e-02,  1.64057501e-02,  8.05990770e-02},
   {-4.39881384e-01, -3.33875388e-01,  4.14965391e-01,  1.28313446e+00, -3.34528059e-01,  6.08458102e-01, -2.96198279e-01, -7.48541951e-01,
     5.94727933e-01, -3.17424357e-01,  2.04215005e-01, -1.81378508e+00, -2.53452718e-01, -1.20585942e+00,  8.04453850e-01,  6.99229419e-01,
     9.86121297e-01, -2.28508577e-01,  8.31356704e-01, -3.97519976e-01, -5.90396047e-01,  1.45947909e+00, -1.41297066e+00, -8.33097696e-01,
     6.49832010e-01,  8.66022766e-01,  8.03057671e-01,  3.33900720e-01, -1.24546461e-01, -8.34845304e-01,  4.57097799e-01, -1.26630449e+00,
     1.67311525e+00,  8.57708097e-01, -9.46810424e-01, -1.25324678e+00, -1.61565408e-01,  5.10999262e-01,  4.47212815e-01,  1.87184766e-01,
     2.39728525e-01, -6.88098311e-01,  2.62817055e-01, -5.53231239e-01, -2.50722337e+00,  9.63532627e-01,  2.69202590e-01,  1.50616217e+00,
     6.39127314e-01,  1.18686593e+00, -1.39694333e+00,  2.00711131e+00,  6.69150651e-01,  2.33748853e-01, -2.79145867e-01, -4.50106621e-01,
     1.19933605e+00, -5.85837424e-01,  1.84686506e+00, -5.63008130e-01, -2.30888814e-01,  2.60378301e-01, -2.26888490e+00,  2.14929843e+00},
   {-4.28999633e-01, -1.81276068e-01,  1.20148197e-01, -1.30717263e-01, -8.99846181e-02, -1.72178060e-01,  1.78013250e-01,  1.57336414e-01,
    -1.33613661e-01,  5.11796117e-01,  6.45399317e-02, -2.23655432e-01,  8.10996741e-02, -2.22814947e-01, -6.80584908e-02, -2.24293828e-01,
    -2.54277349e-01,  5.42844474e-01, -2.31937498e-01, -1.38274506e-01,  1.34662479e-01,  1.54331699e-01, -3.45498294e-01,  1.00621104e-01,
    -3.13250750e-01, -5.42726576e-01,  2.27498673e-02,  1.33048922e-01,  1.77688841e-02, -9.69111696e-02,  2.42006570e-01, -1.13966322e+00,
     1.18784159e-01,  5.24452925e-01, -1.43024102e-01,  4.04011279e-01, -2.62447521e-02,  2.47763827e-01, -2.56860584e-01, -2.94964582e-01,
    -5.22373140e-01,  1.98814303e-01,  8.23999718e-02,  1.45459279e-01, -1.27418354e-01, -2.46103868e-01,  5.84336460e-01,  7.61744455e-02,
     2.45152220e-01, -8.36738274e-02, -1.49071023e-01,  1.80238619e-01,  9.74867940e-02, -4.92220253e-01,  5.23134887e-01,  1.06158689e-01,
    -1.01190813e-01,  1.68642759e-01,  1.66505739e-01, -1.12547450e-01, -4.12374914e-01, -3.66886765e-01, -1.25213474e-01,  3.40847105e-01},
   {-7.06592560e-01, -5.32587208e-02, -1.21970616e-01, -3.16545635e-01,  3.64135891e-01,  2.73618788e-01,  4.75461930e-01,  3.89863372e-01,
     8.57075006e-02, -1.00506604e+00, -2.81283915e-01,  1.01311468e-01,  2.80200299e-02, -4.86930728e-01, -3.10870737e-01,  4.86959293e-02,
    -1.30683589e+00,  6.87342763e-01, -1.77266374e-01, -4.69645888e-01, -2.76100814e-01, -7.73408949e-01,  7.66575694e-01,  3.98583055e-01,
    -4.91531163e-01, -2.03914210e-01, -2.77025044e-01,  1.72250342e+00, -2.02649862e-01,  1.36613309e+00, -2.34520599e-01,  2.30834365e-01,
    -3.32828313e-01, -1.92967862e-01,  7.49140382e-01,  4.66991104e-02,  2.92549133e-01, -5.25619760e-02, -8.74594629e-01, -9.28401291e-01,
    -2.96538562e-01,  1.00591660e+00, -7.49187410e-01,  6.21471345e-01, -6.11706614e-01, -4.94242847e-01,  5.55699728e-02,  7.69450366e-02,
     3.70954186e-01, -2.30672568e-01, -6.34754479e-01, -3.73219162e-01, -4.00397778e-01, -1.19798779e+00,  2.05889940e-01, -7.60074735e-01,
     9.30900648e-02, -3.17536026e-01, -5.84454775e-01, -5.61161697e-01, -4.01010841e-01, -5.54571807e-01,  1.31591403e+00, -7.78320372e-01},
   { 1.75922453e-01,  1.87283170e+00, -7.10623711e-02, -2.40778461e-01,  1.99858880e+00,  4.00524050e-01,  6.28581226e-01,  2.05365017e-01,
     8.16455901e-01,  3.51255208e-01, -3.19519907e-01,  1.40480137e+00,  5.99190533e-01, -6.64746463e-02,  1.88796675e+00,  1.69567931e+00,
     2.58956224e-01, -1.95177412e+00, -7.06765532e-01,  7.21038759e-01,  1.60923326e+00, -1.44884658e+00,  1.68843567e+00,  7.73492903e-02,
     1.21992148e-01, -2.09720701e-01,  9.83610451e-01, -3.19988988e-02,  6.45258844e-01, -5.89923441e-01,  1.68224230e-01,  2.95153201e-01,
    -3.23522717e-01,  5.07248789e-02, -1.34869277e+00,  9.69415069e-01,  4.06575114e-01, -1.06112115e-01, -2.09541336e-01,  1.29592347e+00,
    -5.29408455e-01,  8.44574094e-01,  6.66155934e-01,  1.74776852e-01,  1.17059600e+00,  1.76244175e+00,  5.01960456e-01,  1.14088333e+00,
    -8.99084881e-02, -2.70021893e-02,  1.13276958e+00,  1.61671960e+00,  1.72284067e-01,  8.75628710e-01,  6.47430003e-01,  2.40705276e+00,
    -1.09221876e+00, -5.10576427e-01, -1.27509862e-01, -5.47649980e-01, -8.96334350e-02, -5.40442169e-01, -8.52375150e-01,  7.74494410e-01},
   {-2.75475526e+00,  4.01337534e-01, -1.22145307e+00,  1.76152039e+00, -7.83578753e-01,  1.01069784e+00, -2.59503317e+00, -9.79713857e-01,
     1.12598801e+00,  1.74381065e+00, -7.34691441e-01, -7.33903348e-01,  1.36088800e+00,  2.73188382e-01,  1.43484578e-01,  2.34848157e-01,
     8.53367329e-01, -1.06967497e+00,  1.13212621e+00,  5.99855743e-02,  8.23852599e-01,  4.52282071e-01,  1.68995094e+00, -2.07434297e+00,
    -2.80298561e-01, -5.87850571e-01,  5.23477674e-01, -2.36112714e-01,  1.59886217e+00, -3.78261320e-02,  1.05332100e+00, -1.22082925e+00,
     2.72670436e+00,  2.30649137e+00, -1.65058970e-02,  2.33215666e+00, -6.45026565e-02, -1.28542113e+00, -1.93486094e-01,  4.04678106e-01,
     1.15649581e-01, -1.39023757e+00,  9.25212622e-01, -2.05606055e+00, -9.34191883e-01, -7.08514929e-01,  3.68416876e-01,  1.12925462e-01,
     9.46571410e-01, -6.54563606e-01, -9.02889729e-01,  1.41317397e-01,  1.61535478e+00, -3.00881314e+00,  1.96947649e-01, -2.44909978e+00,
    -2.10899282e+00,  8.08298707e-01,  2.47454807e-01, -4.70125198e-01,  1.42582333e+00,  4.09101427e-01, -1.47551179e+00,  3.00710559e-01},
   {-3.31148833e-01, -3.03018577e-02, -1.89848587e-01,  2.46937871e-01, -4.62653562e-02,  8.04703593e-01,  9.32168424e-01,  1.29575282e-01,
    -6.53566942e-02,  1.16327274e+00,  7.47638345e-01, -6.41255319e-01,  1.31799471e+00,  4.28003609e-01,  1.84495437e+00, -5.04392862e-01,
     1.18017602e+00, -2.52588987e-01, -2.82395303e-01,  8.87372553e-01,  7.14867830e-01,  8.96329224e-01,  5.21249056e-01, -9.54066098e-01,
    -2.80964828e+00,  3.43357354e-01,  1.57810926e+00,  8.62906992e-01,  2.47947305e-01, -3.67757201e-01,  5.18687844e-01, -6.04758501e-01,
     1.28929901e+00,  4.30821538e-01,  2.88356632e-01,  7.75777996e-01, -7.63598979e-01,  9.20576453e-01,  1.59695828e+00,  4.88910049e-01,
    -1.92389834e+00, -7.38835216e-01,  9.61850226e-01,  4.66051430e-01,  2.64015496e-01, -5.19744575e-01,  9.19484317e-01, -8.89660604e-03,
    -1.49593577e-01, -3.98439944e-01, -2.01357937e+00,  1.63318828e-01,  2.18732819e-01, -1.12641013e+00,  9.36879158e-01,  3.67132640e+00,
     5.73490858e-01,  2.70172894e-01,  3.62768531e-01,  1.70762992e+00, -2.72703797e-01,  1.90130010e-01, -1.52891338e+00,  6.81269646e-01},
   {-4.39552926e-02,  3.25338095e-01,  2.23646447e-01, -6.36261225e-01,  3.24032456e-01, -2.80539095e-01,  4.34275836e-01, -7.33665377e-03,
     3.95460874e-01,  5.31862974e-01, -4.65743184e-01,  3.23417872e-01, -6.08627945e-02,  1.03252746e-01, -2.68519878e-01, -6.48772418e-02,
    -2.47924253e-01,  3.16511154e-01,  4.32378948e-02, -4.61641341e-01, -7.40044937e-02, -5.64988017e-01,  3.10685992e-01,  1.59115642e-01,
     6.87359497e-02,  1.82008520e-01, -6.87946379e-02,  5.88631511e-01, -2.71602780e-01,  3.68476659e-02, -1.08258367e-01, -6.83216080e-02,
    -3.98482144e-01, -5.95166683e-01, -2.16388120e-03, -5.50163388e-01,  1.01723104e-04, -5.66422582e-01, -3.63737009e-02, -1.16446756e-01,
    -2.30302393e-01,  6.26618385e-01, -1.80064112e-01,  9.43689346e-02,  3.14796597e-01, -1.80398345e-01, -9.34903800e-01, -1.81562632e-01,
     3.05214643e-01, -3.15495729e-01, -3.56558003e-02,  1.86904445e-01, -6.20772094e-02,  2.01275364e-01, -4.45004404e-01, -1.63937032e-01,
     2.84999311e-01, -4.13984448e-01, -1.22498780e-01, -3.21062058e-01,  2.87976056e-01,  2.52661139e-01,  2.64288098e-01,  8.71372148e-02},
   { 3.63251477e-01,  5.18602371e-01, -1.60587430e-01, -5.05962491e-01,  2.59529144e-01, -4.45480384e-02,  3.37044805e-01,  2.25321770e-01,
     3.45382303e-01,  2.32328415e+00,  3.37917715e-01,  1.09502935e+00,  2.81792670e-01, -4.78737742e-01,  6.21704161e-02,  6.35653794e-01,
    -1.24120340e-01, -1.15166283e+00, -1.06713995e-01, -8.09697956e-02,  7.67771542e-01, -3.67765844e-01,  8.94463480e-01,  7.82510340e-02,
    -5.95881939e-01,  1.57604599e+00,  6.11654259e-02,  1.86079949e-01, -3.26415454e-03,  4.42054421e-02,  3.33793834e-02, -1.81476399e-02,
    -2.19198111e-02, -8.37730467e-02,  1.22147650e-01, -7.04243779e-01,  2.46547595e-01, -5.30259646e-02,  1.29476473e-01,  1.98465168e-01,
    -7.15059996e-01,  1.21394180e-01,  4.02004980e-02,  2.43633211e-01,  1.36467087e+00,  5.26887596e-01, -2.73699641e-01,  1.35333851e-01,
     5.51580966e-01, -1.09514572e-01,  1.57716203e+00,  3.19238871e-01, -5.72693720e-02, -1.70146799e+00, -1.09193638e-01,  2.53330886e-01,
    -2.74378449e-01, -2.08243996e-01, -2.17173323e-01,  1.95558345e+00, -1.27106279e-01,  9.26552296e-01,  3.18030000e-01, -2.95119971e-01},
   { 7.44203568e-01, -2.88417399e-01,  4.83072847e-01, -1.73503613e+00,  1.87237442e+00,  8.25134218e-01,  3.78103137e-01, -8.30866337e-01,
     1.02234292e+00,  2.07068220e-01,  7.39221036e-01, -2.07949042e+00,  1.97547626e+00,  1.13744116e+00,  1.87873030e+00,  5.57407260e-01,
     2.07415271e+00, -9.82033789e-01, -1.46411633e+00,  1.18791842e+00,  4.49494869e-01, -9.13020372e-01,  1.11344385e+00, -2.74037361e+00,
    -1.21977639e+00, -1.31885815e+00,  1.94740593e+00,  1.83997631e-01,  2.19967556e+00, -1.21011746e+00,  1.06860757e+00, -1.61827132e-01,
    -1.00154209e+00, -1.45726904e-01,  3.81515086e-01,  1.44355464e+00,  4.59748536e-01, -2.50647843e-01, -7.06297532e-02,  2.70739734e-01,
    -1.14631645e-01, -3.75455469e-01,  1.71815407e+00, -6.68684959e-01,  5.27098894e-01, -4.54616129e-01,  9.11136448e-01,  3.71840566e-01,
    -5.25587738e-01,  5.22565603e-01, -1.62504685e+00,  1.41233826e+00,  1.14835131e+00,  1.17029762e+00,  8.35032761e-01,  3.14460444e+00,
    -9.16117728e-02,  9.61969078e-01,  1.16949713e+00,  7.84063458e-01, -8.75943542e-01,  1.96879700e-01, -9.82733965e-01,  1.01168144e+00},
   {-1.15059698e+00,  5.87822907e-02, -6.98660389e-02,  2.60649920e-02, -2.22091809e-01,  1.18409004e-02, -2.34780535e-02, -4.75929305e-03,
    -2.58367974e-02,  5.74011087e-01,  2.46391773e-01,  1.34859204e-01,  1.42685935e-01,  1.26821235e-01,  8.78681708e-03, -3.63051802e-01,
     3.44615310e-01,  2.34958772e-02, -2.81475727e-02, -7.22358465e-01, -8.00341815e-02,  3.39272916e-01, -5.37154712e-02,  2.89490223e-02,
    -3.79183620e-01,  2.49665529e-01,  1.19803384e-01,  2.01425403e-01,  1.98390618e-01,  7.08138347e-02,  1.50897903e-02,  7.71155655e-02,
     3.99420083e-01,  4.49470341e-01, -7.68053532e-02,  1.44917369e-01, -2.31492341e-01, -5.42785823e-01,  2.38190398e-01,  2.58472025e-01,
    -4.84477729e-01, -1.20388314e-01,  1.67412028e-01,  1.63411021e-01,  1.35646939e-01,  3.96555625e-02,  3.11802953e-01, -2.08751738e-01,
    -1.02223597e-01, -1.56725734e-01, -2.07713440e-01, -5.30860126e-02, -9.79234353e-02, -2.34111860e-01,  5.59924096e-02, -3.09932940e-02,
    -5.69527864e-01,  3.71854782e-01,  2.77134925e-01,  1.51180983e+00,  2.11911872e-01,  4.18273062e-01, -3.42513551e-03,  2.39416808e-02},
   {-2.03657851e-01, -2.75589287e-01,  9.64092731e-01,  5.99997222e-01,  1.01588285e+00,  2.72907639e+00,  4.16637510e-01, -8.44805419e-01,
     5.79871178e-01,  6.56695247e-01, -4.18081284e-01, -2.65523434e+00,  1.10553706e+00,  7.82927096e-01,  1.24544883e+00,  1.10944822e-01,
     1.24842250e+00,  9.49936092e-01, -4.78413105e-01,  5.15402019e-01,  1.17913115e+00,  4.54544276e-01, -1.66693747e-01, -9.33099508e-01,
    -2.04086995e+00, -4.16792780e-01,  9.45660889e-01,  6.21581793e-01,  1.00532711e+00, -7.10716486e-01,  1.11444294e+00,  7.80385911e-01,
     2.44602776e+00,  1.95907545e+00, -1.92354307e-01,  1.35540771e+00,  1.82777867e-01,  9.18643773e-01, -1.95357904e-01,  4.60047126e-01,
    -2.35101312e-01,  1.86340198e-01,  2.50512153e-01, -8.22267115e-01,  8.51277053e-01,  7.18551219e-01,  6.74323440e-01,  1.10395372e+00,
     1.53078651e+00,  3.68364215e-01, -2.81944418e+00,  8.03277194e-01,  1.01913643e+00, -4.26010460e-01,  7.23801196e-01,  4.41342115e+00,
     3.33849072e-01,  4.87845778e-01,  1.56780040e+00, -9.37314928e-02, -3.25515747e-01,  6.29637718e-01, -1.64645374e+00,  1.06166875e+00},
   { 8.21935952e-01,  1.22917354e-01,  1.27472579e-01,  4.77693498e-01, -2.38741532e-01,  2.19067574e+00,  3.15825343e-01,  2.24081412e-01,
     7.69876063e-01,  9.97584283e-01,  1.71056405e-01, -7.44226754e-01,  1.07429183e+00,  2.05589116e-01,  1.80397701e+00,  4.22862470e-01,
     1.45082843e+00, -1.12786305e+00, -9.46619883e-02,  6.40254393e-02,  4.30080205e-01,  1.94621608e-01,  1.12093699e+00, -1.45601165e+00,
     5.47738969e-01,  1.52422881e+00,  2.11579823e+00, -2.88863052e-02,  7.81676114e-01, -1.56628704e+00,  1.69576263e+00,  2.50163227e-02,
     1.27393842e+00,  1.25470126e+00,  4.51494679e-02,  1.38650560e+00,  2.41440558e+00,  9.87886965e-01,  6.83999360e-01,  4.79624838e-01,
     1.35071963e-01,  2.35077649e-01,  8.39399159e-01, -3.53627443e-01,  2.14920089e-01,  1.73642889e-01,  3.53364915e-01,  1.88365805e+00,
    -9.06801939e-01,  1.51540124e+00, -1.77593434e+00,  2.70038390e+00,  8.72339010e-01,  7.37282217e-01,  1.80773675e-01,  1.54204988e+00,
    -2.21592951e+00,  7.19026983e-01,  7.80801058e-01, -1.94406700e+00, -5.70998728e-01,  5.85569859e-01, -9.82159138e-01,  1.46826386e+00},
   {-7.53014684e-01,  6.00997567e-01,  1.11746895e+00, -9.94772762e-02,  3.58043611e-01,  1.99857563e-01,  5.27945340e-01, -4.04931717e-02,
    -1.48841274e+00,  1.31797075e+00,  3.78757179e-01,  1.59472489e+00,  1.35684574e+00,  2.31800213e-01,  2.17273092e+00,  2.99954820e+00,
    -3.02922875e-01, -4.23666626e-01,  1.20162480e-01, -8.31726372e-01,  1.25523329e+00,  9.62410271e-01, -8.74303162e-01,  3.65482032e-01,
    -1.41872001e+00,  1.36141658e+00,  7.93405473e-01, -1.43196034e+00,  3.46400999e-02, -7.57333636e-01,  3.55414838e-01, -6.03150785e-01,
     1.74807000e+00,  5.86517692e-01, -3.27025652e+00, -5.45626462e-01,  3.23036492e-01, -1.15609467e-01,  1.22677209e-02,  7.21357942e-01,
    -1.17740154e+00, -3.02243561e-01, -7.29600668e-01,  2.95214146e-01,  7.20302880e-01,  2.48480007e-01, -6.68755293e-01,  2.40328884e+00,
     3.07604361e+00,  7.21230686e-01,  1.13110173e+00,  1.56202030e+00,  1.71317577e-01, -1.06738484e+00,  1.21567860e-01,  3.76184511e+00,
    -5.32771587e-01,  1.07726328e-01,  6.17740929e-01,  2.68657732e+00, -1.29008934e-01,  6.16898656e-01, -7.80505061e-01,  4.42818165e-01},
   {-1.84282571e-01,  2.75340945e-01,  2.98036560e-02,  2.08598077e-01, -3.86902630e-01, -1.08901560e-01, -1.36307955e-01, -5.18891476e-02,
    -2.56171912e-01, -5.72752297e-01, -6.13840520e-02, -3.30139697e-01,  2.44017392e-01,  2.14856237e-01,  1.30360955e-02,  1.26034811e-01,
     1.17701150e-01,  3.01842153e-01,  3.34102809e-01,  1.13265641e-01, -2.63353556e-01,  4.43808556e-01,  3.74241620e-01, -1.45732313e-01,
    -7.89574012e-02, -6.19308829e-01,  4.55017909e-02, -1.41017988e-01, -2.51956582e-01,  1.70619980e-01,  5.07294655e-01, -2.96309769e-01,
     5.57028711e-01,  9.38831151e-01,  2.22261518e-01, -3.82350266e-01,  3.19772869e-01,  3.42085995e-02, -1.28433734e-01, -1.14312174e-03,
    -5.64261079e-01, -1.56396225e-01, -2.60333568e-02, -1.04221255e-01,  1.44335672e-01, -2.18972102e-01,  1.20762408e-01, -2.82685280e-01,
    -2.06594337e-02,  9.37618241e-02, -4.51240122e-01, -1.98791459e-01, -1.93226546e-01,  2.15660110e-01,  1.66691050e-01, -5.32365024e-01,
    -1.94302082e-01,  3.15848738e-01,  4.15964983e-02, -4.71778512e-01,  1.29519120e-01, -1.15751994e+00,  1.99947655e-01,  4.08723727e-02},
   {-2.94165704e-02, -2.52431422e-01,  8.04309100e-02, -4.82221901e-01, -1.44485697e-01,  1.11081041e-02,  3.34514916e-01,  1.44199491e-01,
    -7.19391108e-02,  1.62046480e+00,  1.03488815e+00, -9.84008089e-02, -6.77846139e-04,  3.81629765e-01,  1.29320607e-01, -1.70117334e-01,
     3.83375764e-01,  2.92994857e-01, -3.10780972e-01,  7.35245720e-02, -1.98415071e-01, -1.07111263e+00,  1.24884598e-01,  1.12137742e-01,
     3.82545739e-01,  3.04857701e-01, -8.96331444e-02,  3.64044428e-01, -1.15932740e-01,  4.78393584e-01, -3.17684263e-01,  5.21776855e-01,
    -2.84363180e-01,  6.16789222e-01,  3.25275570e-01,  7.25775957e-01, -3.51213723e-01,  4.38581437e-01,  2.35303953e-01,  1.09162271e-01,
    -3.41412395e-01, -9.20943841e-02, -7.57583231e-02, -1.01714030e-01,  2.32337311e-01,  7.29491636e-02,  6.18860543e-01, -3.15868258e-01,
     1.95032164e-01, -4.67800319e-01, -3.65060538e-01, -7.66896307e-02, -3.74146402e-01,  2.84737289e-01,  4.87544447e-01, -1.37354124e+00,
     5.74367523e-01,  1.66468456e-01, -3.80428404e-01,  4.92173404e-01, -1.56722233e-01, -6.83067366e-02,  2.66243488e-01, -1.01510406e-01},
   {-1.20908999e+00, -8.44789743e-02, -1.43948302e-01, -4.29852635e-01, -1.92496583e-01, -1.70660496e-01, -3.12012881e-01, -3.64310443e-01,
     1.07820950e-01, -7.81358600e-01,  8.59346092e-01, -4.81977046e-01, -3.18152666e-01,  3.26634437e-01, -2.05028623e-01, -2.64853954e-01,
     1.54255386e-02, -3.79954249e-01,  2.76682079e-01, -9.62304592e-01, -1.04564212e-01,  7.81421900e-01,  3.97549361e-01, -2.46487826e-01,
     5.85359514e-01, -3.86130512e-01, -2.24285740e-02, -1.07063524e-01, -4.33273703e-01, -3.74533385e-02, -3.50564092e-01, -1.11698616e+00,
    -6.02078676e-01, -2.72382647e-01, -4.28696647e-02, -1.09162807e+00, -1.00661740e-01, -6.01477921e-01,  8.82030092e-03,  9.18903947e-02,
     1.61268666e-01, -5.62491596e-01,  2.90866703e-01, -1.65255830e-01, -5.47139883e-01,  1.48738995e-01,  2.11918235e-01,  2.99980193e-02,
    -7.63871968e-02, -3.27267274e-02, -3.01547319e-01, -2.66519248e-01, -3.06400865e-01,  5.47603488e-01, -8.24428201e-01,  2.28030658e+00,
    -9.86428022e-01,  2.88820773e-01, -4.49355334e-01,  9.03395712e-01,  2.19556361e-01, -1.92905068e-01,  1.41301885e-01, -5.36881797e-02},
   { 8.78485382e-01, -1.78593144e-01,  4.16321903e-01,  3.64676327e-01,  1.43674374e+00,  8.15964103e-01, -4.82937932e-01, -2.74485976e-01,
     1.16193950e+00,  3.56226712e-01,  2.24765611e+00, -5.36658347e-01,  8.38030756e-01,  4.20450062e-01,  9.31053221e-01,  1.13624918e+00,
     3.74188542e-01, -1.06013823e+00,  8.75533521e-01,  7.16813445e-01,  5.44796586e-02,  6.94326341e-01,  1.28063643e+00,  3.11637193e-01,
     3.31567258e-01,  1.31666529e+00,  1.28197253e-01,  5.34666814e-02,  1.61301002e-01, -7.99453333e-02,  7.63238609e-01, -9.75337401e-02,
     1.09627926e+00,  2.53227115e-01, -1.78055421e-01, -9.30627286e-01,  2.42451638e-01,  1.19473684e+00,  1.45508096e-01, -5.20334542e-01,
    -2.15911314e-01,  5.35544269e-02,  9.27517936e-02, -1.37996614e-01, -3.95876557e-01,  1.48691082e+00,  4.26773995e-01,  9.13276434e-01,
     1.31752408e+00,  1.91498965e-01,  5.09837985e-01,  8.16321731e-01,  1.08218193e+00,  9.02030528e-01, -4.84872550e-01,  5.87684035e-01,
     1.63470316e+00, -1.07171550e-01,  8.72892737e-01,  7.50931561e-01,  5.14684260e-01,  1.05658412e+00, -1.88916475e-01,  1.48331270e-01},
   {-6.11246943e-01,  6.33085251e-01, -9.07327794e-03, -5.83325803e-01,  8.66857469e-01,  6.30373061e-01,  3.72075796e-01,  2.30846047e-01,
     5.92665374e-01,  1.63538027e+00, -1.99548686e+00, -1.94282579e+00, -1.24721721e-01, -5.94382942e-01,  5.28174937e-01, -1.80148959e-01,
     1.10966980e+00,  4.04265225e-01, -1.10014938e-01, -3.25897753e-01, -4.96544782e-03, -1.79322362e+00,  4.76598144e-01, -8.66483569e-01,
    -8.14202368e-01,  2.41508961e-01,  1.89934373e+00,  6.85958192e-02,  8.59687388e-01, -7.70023942e-01, -7.96720147e-01, -5.44664741e-01,
    -1.62521994e+00, -2.57167965e-02, -2.57733703e-01,  2.54495215e+00, -9.45093632e-02, -1.36553362e-01,  6.30424917e-01,  1.60804182e-01,
    -1.14120400e+00,  8.59777510e-01,  2.76800275e+00, -2.35150173e-01, -3.70556861e-01,  2.92309403e-01,  7.80959070e-01,  6.15710437e-01,
     3.84902716e-01, -4.74142581e-01, -1.96773183e+00, -2.58241355e-01, -1.15713108e+00, -1.38523138e+00, -4.65674371e-01, -1.95334280e+00,
    -1.13833702e+00,  4.73510474e-02,  1.53112039e-01, -1.94384503e+00,  1.40356168e-01,  1.01148021e+00, -8.87681961e-01,  1.33201212e-01},
   { 4.50945824e-01,  2.87986279e-01,  1.29146889e-01, -8.12769160e-02, -2.72175610e-01,  3.07722270e-01, -1.04150824e-01, -1.07974090e-01,
     8.15242946e-01,  3.01385850e-01, -1.31780565e-01, -6.10425830e-01,  4.69570234e-02,  1.40867427e-01,  2.43645728e-01, -4.18291748e-01,
     5.04587889e-01,  8.09079111e-02, -1.26614586e-01,  1.18540800e+00,  1.60167769e-01,  4.85216409e-01, -1.34421855e-01, -4.79068816e-01,
    -3.60941291e-02, -1.27800095e+00,  1.61582753e-01, -3.26513827e-01,  3.15153033e-01, -2.60923386e-01,  1.93103895e-01, -4.87401277e-01,
     9.12624180e-01,  7.77685404e-01, -5.53026497e-01,  1.16551781e+00, -4.17593002e-01,  2.20142215e-01, -9.19365957e-02, -5.59085235e-02,
     1.72800824e-01,  1.80548936e-01,  1.87822416e-01,  3.17830332e-02,  5.32342434e-01, -1.75764099e-01,  8.18534493e-01,  6.47303388e-02,
    -2.01119468e-01, -5.01658022e-01, -3.24630350e-01,  2.70854533e-02, -4.72753495e-01, -2.84589022e-01,  8.82500231e-01, -4.49963450e-01,
     2.61610270e-01,  8.61576080e-01,  5.33057809e-01, -6.04011379e-02, -5.77146970e-02, -6.60736918e-01, -8.11658144e-01,  5.06795943e-02},
   { 5.21952927e-01, -6.81819916e-01, -4.67617214e-02,  2.98393965e+00,  7.75198713e-02,  7.82005787e-01, -7.07614124e-01, -7.75699794e-01,
     9.18806374e-01, -2.19232583e+00, -1.00972664e+00, -1.53775299e+00, -7.33614862e-02, -1.20844913e+00,  4.67832386e-01,  1.89874423e+00,
     6.36047661e-01, -1.42362285e+00,  1.73900926e+00, -9.30707753e-01, -6.28098130e-01,  1.27332044e+00,  1.32493570e-01, -1.61030734e+00,
     2.91904736e+00,  2.86775678e-01,  4.42764461e-01,  6.85601756e-02,  4.10343438e-01, -1.00757539e+00,  7.77262032e-01,  3.82647347e+00,
    -2.17586998e-02, -3.93990308e-01, -5.34655511e-01, -9.55797195e-01,  1.37501705e+00, -9.85230982e-01, -3.82936373e-02,  9.58701551e-01,
     1.85688317e+00,  5.12504019e-04,  8.47279787e-01, -1.62175322e+00, -1.57023537e+00,  2.25511864e-01, -2.71953678e+00,  3.10213178e-01,
     3.76456767e-01,  5.60705364e-01, -3.29459310e-01,  8.59104633e-01,  1.06915343e+00, -4.24977183e-01, -1.41475391e+00, -1.36282825e+00,
     1.54793501e+00, -1.43450987e+00,  6.54456735e-01, -3.74002218e+00,  1.70680439e+00,  1.40609220e-01, -3.10566157e-01,  7.47983575e-01},
   {-8.60364556e-01, -9.33387160e-01, -1.45345062e-01,  6.52424216e-01, -5.33113301e-01, -4.53796029e-01,  1.44844782e-02, -3.88827324e-01,
    -3.42451453e-01, -2.34577820e-01,  1.16606760e+00, -7.86995769e-01,  1.93131566e-01, -7.68313110e-02,  1.62201390e-01, -7.57419527e-01,
     1.75464615e-01, -4.19306248e-01,  7.00276673e-01, -5.61486304e-01, -1.20643461e+00,  1.20268619e+00, -4.40915734e-01, -1.07816197e-01,
     6.79257745e-03, -6.92184120e-02, -6.97893947e-02, -3.46234351e-01,  4.77330610e-02,  1.16800018e-01, -2.99670011e-01,  2.43548736e-01,
     3.35323066e-01,  1.40707672e-01,  4.92261685e-02, -2.99842179e-01, -5.32251835e-01, -1.52609503e+00, -1.10070728e-01,  1.81245416e-01,
     4.52269375e-01, -2.52009988e-01,  1.06769465e-01,  1.34310378e-02, -1.86114454e+00, -9.85345185e-01, -2.30852515e-01,  2.08504230e-01,
    -2.28610430e-02, -1.76385164e-01, -1.36876559e+00,  6.50829673e-02, -2.16411188e-01, -5.08263230e-01,  8.19067471e-03,  6.04443014e-01,
    -8.82495880e-01,  3.75300974e-01,  3.06351602e-01,  1.24115658e+00,  6.65470123e-01, -4.96116459e-01,  2.19131336e-01,  2.67829210e-01},
   { 9.73128140e-01,  8.57606456e-02,  9.20014322e-01,  4.99497920e-01,  1.57154346e+00, -7.53260732e-01, -9.16475952e-01, -8.79193246e-01,
     3.62514526e-01, -1.82954860e+00, -3.54971856e-01, -6.64584756e-01, -9.40732479e-01, -2.82923669e-01,  1.41190434e+00,  2.28768873e+00,
    -4.47571933e-01, -5.32248557e-01, -6.28483146e-02,  7.13331521e-01, -1.16586074e-01, -4.44345981e-01, -7.15925992e-01, -8.49589527e-01,
     3.72193187e-01, -2.52413660e-01,  1.85751140e+00, -4.35281903e-01, -1.27817237e+00, -1.59125304e+00, -3.05911928e-01, -6.65620148e-01,
     5.60540594e-02, -6.88923836e-01, -3.56687689e+00, -1.73373604e+00,  1.69217432e+00,  1.21803306e-01,  6.07833147e-01,  2.32667059e-01,
     1.72993213e-01, -7.54390001e-01,  6.05746865e-01, -1.98653400e-01,  2.63168484e-01, -6.57374740e-01, -6.99822247e-01,  1.28259373e+00,
    -4.31643307e-01,  2.56311965e+00,  1.67893481e+00,  2.11164856e+00, -3.35418254e-01,  5.19401968e-01, -2.48947069e-01, -1.85511267e+00,
     1.52582967e+00, -1.03429246e+00, -1.63544193e-01, -2.68201089e+00, -2.01859072e-01, -9.28787410e-01, -2.34940335e-01,  1.90387928e+00},
   {-2.73315263e+00,  2.73225665e-01, -1.09405639e-02,  6.04914963e-01, -3.45002294e-01, -4.02206212e-01, -9.16548729e-01, -1.19828033e+00,
    -7.64042199e-01,  2.16364861e+00, -8.94200206e-01,  6.75587058e-01,  9.15016055e-01, -3.27654570e-01,  1.12588215e+00,  3.08114648e-01,
     2.41283879e-01, -7.85827041e-01,  4.77194011e-01, -6.28946900e-01,  1.16100095e-01, -8.98832381e-02, -6.01870082e-02, -4.58549321e-01,
    -1.10236037e+00,  1.87103629e+00,  6.06406450e-01, -2.59210181e+00,  8.60819817e-01, -2.59772062e+00, -1.34301603e-01, -1.66776812e+00,
     2.33690548e+00,  9.75879192e-01, -1.55552185e+00, -1.29290503e-02, -4.81174350e-01, -4.12499636e-01,  7.93998361e-01,  1.56345201e+00,
     2.23513499e-01, -1.57979652e-01, -2.17904687e-01, -5.30367613e-01, -2.96952546e-01,  4.73748088e-01,  9.52741727e-02,  5.92363000e-01,
     8.18807721e-01, -8.38376522e-01,  2.44289964e-01,  5.08870423e-01,  7.05514967e-01, -2.41258717e+00,  7.94646084e-01, -2.65720892e+00,
    -8.20834219e-01,  3.05119663e-01,  1.02378523e+00,  1.08312815e-01,  1.32194197e+00,  2.10248923e+00, -2.55350852e+00,  2.79837251e-01},
   {-3.13905358e+00, -1.40862191e+00,  5.13333917e-01, -3.98352712e-01, -6.18559301e-01, -7.37985075e-01,  3.97585899e-01, -1.40717840e+00,
    -8.89561057e-01,  4.64410901e-01, -2.79895097e-01, -4.03981686e-01, -3.19079250e-01,  1.03840515e-01, -3.30707594e-03,  1.25883773e-01,
     3.00738271e-02,  8.93201292e-01, -1.04915810e+00, -8.78892660e-01, -9.37432051e-01,  4.19087797e-01, -6.09707594e-01, -9.21784163e-01,
    -9.55107436e-02,  1.21726418e+00,  9.51562703e-01, -1.30109370e+00,  8.99544001e-01, -1.16189754e+00, -3.98402661e-01, -2.03677320e+00,
    -1.96713042e+00, -1.67013794e-01, -5.66639304e-01,  1.97663999e+00, -4.05637532e-01, -1.05314362e+00,  3.10358763e-01,  9.74852979e-01,
    -8.09436500e-01,  5.16803801e-01,  5.05045533e-01, -2.02117652e-01, -5.00061631e-01, -2.10318584e-02,  8.84503722e-01, -1.63968518e-01,
     8.16146076e-01, -1.81896552e-01,  3.03123385e-01, -4.50453222e-01, -4.78172213e-01, -1.01834929e+00, -5.38731813e-01,  1.14433825e+00,
    -3.38400340e+00,  7.66383052e-01,  7.96154976e-01,  9.64993298e-01, -6.13959789e-01,  4.73416150e-01, -1.02851820e+00,  4.49558757e-02},
   {-1.40526927e+00, -7.32083738e-01,  1.75426528e-01, -2.57599652e-02, -1.58550367e-01, -4.22703549e-02, -2.02307671e-01,  2.27535412e-01,
    -1.43963963e-01, -6.11162543e-01, -4.55837309e-01, -1.31583333e+00, -2.82875746e-01, -4.25273091e-01, -2.39133164e-01, -2.78764665e-01,
     1.59765333e-01,  9.40087214e-02,  3.33581083e-02, -1.67197657e+00, -2.97237962e-01,  3.47609848e-01, -1.31110325e-01, -1.63701084e-02,
    -2.76312023e-01, -6.05844021e-01, -9.20455828e-02,  2.33750522e-01,  3.68266076e-01,  2.63827652e-01,  4.87110950e-02, -8.91021311e-01,
    -1.87365450e-02, -2.25318577e-02,  1.06617197e-01,  8.17426741e-01, -4.26866323e-01, -5.59269309e-01,  6.04987480e-02, -8.54581669e-02,
     2.09938690e-01,  1.02384113e-01, -4.13242318e-02,  1.96892753e-01, -1.24660766e+00,  3.11224192e-01,  4.25728619e-01,  3.23006183e-01,
     3.04535061e-01,  4.32534106e-02, -7.79996574e-01,  1.70556277e-01,  8.77244771e-02, -1.09154451e+00, -8.08575928e-01, -4.22535777e-01,
    -4.88748908e-01,  3.55605334e-02,  2.09182456e-01, -9.95258510e-01, -6.33857429e-01,  1.16955861e-02,  1.80592269e-01, -5.69041818e-02},
   { 8.29135776e-01, -2.25570485e-01,  2.24609092e-01,  1.59462556e-01,  6.60263419e-01,  1.64528668e+00,  7.67350644e-02,  3.51766348e-01,
     7.83786952e-01,  1.31024909e+00, -3.51065308e-01, -1.34864414e+00,  5.82860932e-02,  2.87455171e-01,  8.98738861e-01, -2.24354565e-01,
     2.49970272e-01, -1.71951562e-01, -9.16517153e-02,  3.84905219e-01,  3.41043025e-01, -7.03982115e-01,  1.62171602e-01, -1.47260058e+00,
    -6.59486204e-02,  1.80260334e-02,  9.21036959e-01,  7.24153399e-01,  1.43152311e-01,  3.45231853e-02, -3.72136235e-01,  1.17236185e+00,
     3.40358227e-01,  1.09299469e+00,  1.17882557e-01,  1.05161178e+00, -6.30130321e-02,  8.07680428e-01,  7.62038052e-01, -6.08230948e-01,
    -3.80153030e-01, -5.99815063e-02,  6.74059451e-01, -3.42523992e-01,  1.28313228e-01,  4.55092639e-02,  3.38327974e-01,  3.54566991e-01,
    -2.80719817e-01,  2.74587274e-01, -1.35907853e+00,  2.82600194e-01, -3.45203966e-01,  8.76566842e-02,  4.74476814e-01, -1.28740633e+00,
    -1.55438155e-01,  8.10382888e-02,  3.17708887e-02, -1.19471478e+00, -2.39607424e-01, -4.77971397e-02, -1.99453726e-01,  3.90389025e-01},
   { 2.00777769e-01,  2.62995213e-01,  2.57618636e-01, -4.91795182e-01,  5.92351437e-01,  1.23213977e-01, -2.41644010e-01, -1.31511405e-01,
    -8.69108066e-02, -9.69445884e-01, -3.07758689e-01, -4.60598916e-01,  4.85469282e-01,  5.90804182e-02,  4.46884125e-01,  4.85797197e-01,
     1.42502859e-01, -6.64821267e-01, -2.20581770e-01,  3.39491934e-01,  1.78058743e-01, -7.30213881e-01,  2.89436400e-01, -1.29707456e-01,
     4.49323833e-01, -1.62722498e-01,  6.98814452e-01,  1.54898778e-01,  1.55716896e-01,  1.75519705e-01,  3.61771360e-02,  1.85055926e-01,
    -5.96525729e-01, -3.19555342e-01, -2.64846951e-01,  3.23550344e-01,  3.15254569e-01, -9.13866162e-01, -9.93332043e-02, -1.20261610e-01,
     1.42608702e-01, -6.53857086e-03, -6.77722916e-02,  2.34814808e-01,  2.00967863e-01,  5.80495670e-02, -2.70934284e-01, -1.52751788e-01,
    -3.14057827e-01,  1.81257620e-01,  3.83711338e-01,  3.78956407e-01,  1.11156859e-01,  4.84062880e-01,  4.73936126e-02, -2.72976160e-01,
    -2.03313842e-01,  1.60006717e-01, -1.13006286e-01, -1.31971228e+00, -1.84894174e-01, -1.41940922e-01, -4.41560447e-01,  4.07433897e-01},
   {-6.08692646e-01, -1.91215920e+00,  4.82306570e-01,  1.00830376e+00, -6.14700079e-01,  1.24838173e+00,  8.95737529e-01, -1.91826212e+00,
     8.13401267e-02,  8.16980422e-01,  1.29576528e+00, -3.49155903e-01,  7.21174538e-01, -1.61030427e-01,  1.60374892e+00, -1.51826933e-01,
     6.31782234e-01,  9.82233524e-01,  1.09125805e+00, -4.45471644e-01, -2.03860283e-01,  7.39809871e-01,  1.63238510e-01, -2.19163275e+00,
    -3.62163961e-01,  1.06389487e+00,  5.59094548e-01, -5.47634184e-01,  1.05083716e+00, -1.48037696e+00,  4.95248616e-01,  8.15969110e-01,
     1.57374179e+00,  1.36988413e+00, -9.82731164e-01,  9.70259488e-01, -6.31622910e-01, -9.45365965e-01,  4.30041999e-01,  1.03901160e+00,
    -9.30869207e-02,  1.33072352e+00,  5.41881800e-01, -8.45268786e-01,  2.67241180e-01,  7.08138645e-02,  4.03000146e-01,  8.63107800e-01,
     7.48422265e-01,  1.28547892e-01, -1.71866322e+00,  3.08586985e-01,  4.28175598e-01, -6.04727447e-01,  5.23152113e-01,  2.41183853e+00,
     5.23108661e-01,  7.85076141e-01,  1.44302881e+00,  1.86555982e+00,  1.20730214e-01,  1.50719523e+00, -4.56421643e-01,  1.49920261e+00},
   {-2.40566516e+00, -8.94358039e-01,  3.27897131e-01,  7.30898201e-01, -1.57274827e-01, -4.89367604e-01, -4.66607749e-01, -1.12332308e+00,
     3.21818292e-01, -1.44016707e+00, -2.07880878e+00, -5.79042017e-01, -9.53467861e-02, -1.12394416e+00, -8.22477639e-01, -3.42246622e-01,
     5.90131521e-01,  1.34419787e+00,  6.18006229e-01, -2.71899390e+00, -7.76051998e-01,  1.16836882e+00, -1.22228181e+00, -1.22434413e+00,
    -5.10652781e-01,  8.54953110e-01,  1.43577576e+00, -1.03149712e+00, -2.16182500e-01, -1.36053991e+00,  4.76768494e-01, -1.73132288e+00,
     5.33416033e-01, -2.00563765e+00, -2.87343526e+00,  7.47582495e-01,  1.92652037e-03, -7.48455405e-01,  2.24821806e-01,  4.80478436e-01,
    -1.86678275e-01,  3.14495564e-01,  1.42272198e+00, -5.42053461e-01, -2.31797075e+00,  3.05939823e-01, -1.31691515e-01,  5.26107967e-01,
    -2.90635556e-01,  7.23402560e-01, -1.02947974e+00,  4.58361387e-01,  1.69187933e-01, -1.49120069e+00, -3.07039690e+00,  4.92904484e-02,
    -1.48441827e+00, -1.86670363e-01,  1.31324184e+00, -6.21960640e-01, -2.05183685e-01,  5.22643745e-01, -1.65824866e+00,  1.16331422e+00},
};

const float GRNN1_U[32][32] = {
   { 5.20474553e-01, -1.11577916e+00, -1.35385156e+00,  3.28538120e-01,  1.05736709e+00,  9.12435651e-02,  5.70795000e-01, -2.21961156e-01,
    -7.82909393e-01, -2.21515149e-01, -1.43278039e+00, -7.64436066e-01,  2.58740604e-01, -2.79505104e-01,  1.44397533e+00, -4.97955233e-01,
    -5.12583494e-01, -9.64398310e-02,  5.98646607e-03, -4.77137983e-01,  8.11571002e-01,  8.41472328e-01, -4.26936150e-01,  9.04100716e-01,
    -4.49764341e-01,  1.99359491e-01, -1.93937206e+00,  1.63548744e+00, -2.19072461e-01, -1.86781931e+00, -1.05421150e+00, -2.59125352e+00},
   {-5.17065108e-01, -2.23178363e+00, -8.78348351e-01,  2.48202421e-02,  2.61315465e-01, -2.52326846e-01,  2.99622941e+00, -9.98761415e-01,
     1.56776696e-01, -1.13503015e+00, -1.44686735e+00, -1.27213883e+00,  5.70276916e-01,  6.24471128e-01,  1.80451202e+00,  1.13254912e-01,
     1.03772414e+00,  8.02137852e-02, -9.69778225e-02,  4.23544079e-01, -3.84208583e-03,  1.15899161e-01,  1.12419510e+00,  5.29811203e-01,
     2.57170510e+00, -6.32081509e-01,  1.84313059e+00, -4.68931608e-02, -5.96173227e-01, -6.17443562e-01,  1.16543639e+00, -1.60900426e+00},
   {-1.23855688e-01,  1.99193850e-01, -2.01033878e+00, -1.60839379e+00,  4.27200526e-01,  1.54947925e+00,  3.35580230e-01, -1.03147037e-01,
    -2.29936913e-01,  4.42005575e-01,  2.78745866e+00,  8.02219093e-01, -2.76469529e-01, -1.84642151e-01, -3.94926190e-01,  2.53207922e+00,
    -4.86051649e-01, -2.97708094e-01,  2.01460385e+00, -1.41544831e+00, -9.06775713e-01, -2.63507873e-01, -1.14707625e+00, -7.98078001e-01,
    -7.04377443e-02, -7.06501722e-01,  7.42214739e-01,  1.38317776e+00,  7.29765356e-01,  1.61919439e+00, -3.10965441e-02, -2.56904721e-01},
   {-1.35499763e+00, -2.07083416e+00, -1.74698174e+00,  2.15164852e+00, -1.45837092e+00,  9.48563814e-01,  1.03632712e+00, -6.90508544e-01,
    -7.07402349e-01,  2.94304967e+00,  3.60592699e+00,  6.98747098e-01,  2.84525990e-01,  4.90590841e-01,  9.37939107e-01, -1.77444488e-01,
    -1.86485124e+00, -8.82047713e-02, -1.35970330e+00, -3.09650159e+00,  3.29165667e-01,  1.03078377e+00,  2.66544223e-01, -3.34895104e-01,
     4.83051014e+00,  9.31999534e-02, -6.32610977e-01, -2.07015648e-01, -1.18423200e+00, -1.70952749e+00, -1.06729627e+00,  3.39463043e+00},
   { 5.01379333e-02, -8.95200729e-01, -2.03101254e+00, -1.44509923e+00, -1.51259625e+00,  4.07235809e-02,  1.61834407e+00, -7.29429364e-01,
    -3.17135632e-01,  1.37958705e-01, -1.39729813e-01, -1.74601153e-01, -1.51642606e-01, -1.01253414e+00,  6.26362920e-01, -7.03143001e-01,
    -5.19803107e-01, -2.70191163e-01, -7.85790384e-01, -1.07299066e+00,  4.11958508e-02,  1.12702894e+00, -2.36321688e+00,  3.07901621e-01,
    -8.07444096e-01, -3.34861428e-01, -2.10086155e+00,  1.76912880e+00, -5.35860479e-01, -4.25988525e-01, -1.01139593e+00, -6.58000708e-01},
   { 4.39592242e-01,  6.58429712e-02,  2.79508561e-01,  6.51022196e-01,  5.99293530e-01,  5.13350487e-01, -1.26463151e+00,  7.13090450e-02,
    -6.40995920e-01, -6.35018647e-01,  9.41824436e-01, -5.70752025e-01, -1.24816604e-01,  1.68310627e-01, -1.14950693e+00, -5.69597423e-01,
    -3.55923295e-01, -3.39864373e-01,  1.09245646e+00,  3.68955821e-01, -1.93987668e+00, -1.93930596e-01, -4.08715963e-01, -2.03387350e-01,
     3.63296002e-01, -4.38467860e-02, -4.33087778e+00,  5.88258505e-01, -1.22717857e+00,  1.99840939e+00, -1.38298583e+00,  6.70647144e-01},
   { 2.73407698e-02,  1.73841763e+00, -1.35751152e+00, -3.31436545e-01,  2.15352035e+00, -2.67369556e+00,  6.76079690e-01, -2.71443558e+00,
    -8.67522717e-01,  4.94829386e-01, -5.67167044e-01, -3.38327336e+00, -4.79537815e-01,  8.01703274e-01,  1.50018364e-01,  3.58010709e-01,
    -1.51338208e+00, -2.55559158e+00,  2.35786271e+00, -8.31159204e-02,  8.31340611e-01,  8.01547348e-01, -1.57947659e+00,  1.15599883e+00,
     2.81839061e+00, -1.50892913e+00,  5.87860525e-01, -1.43107259e+00,  1.58349633e+00,  2.10614395e+00,  2.61924624e+00,  7.10772800e+00},
   { 6.33497417e-01, -2.85385799e+00, -3.86489362e-01,  3.19910073e+00,  7.51937509e-01,  4.06895161e-01,  9.12290871e-01,  1.72267228e-01,
    -9.19026375e-01, -2.57028401e-01, -2.39631271e+00, -5.76524615e-01,  5.09830892e-01, -1.23082614e+00,  1.38988698e+00,  1.48553538e+00,
    -4.58035648e-01,  1.75802112e-01, -5.27980387e-01,  5.34668827e+00, -7.08250523e-01, -1.34881771e+00, -1.03862500e+00,  4.71702397e-01,
     2.64141297e+00,  1.37682402e+00,  1.25419843e+00, -8.41771066e-01,  2.92207313e+00,  1.06561494e+00,  5.16740561e+00,  5.51031780e+00},
   {-2.64784396e-01,  7.21437335e-01, -4.28590202e+00,  5.32118380e-01,  1.82787943e+00, -1.99727905e+00, -8.67965162e-01,  5.68403304e-01,
     3.64671302e+00, -7.15681851e-01,  1.55552506e-01, -3.32550311e+00,  4.15252239e-01,  1.25889972e-01, -2.65976524e+00, -1.11722374e+00,
    -1.26680017e+00, -1.86835396e+00,  2.81959319e+00, -1.84566462e+00, -5.53394973e-01,  2.26466942e+00,  2.78178267e-02, -8.34678173e-01,
     2.58670759e+00, -1.05319512e+00, -1.03122342e+00, -2.93037248e+00,  3.54921317e+00,  1.14945126e+00, -2.49902755e-01,  6.99874401e+00},
   {-8.61534663e-03,  7.52790511e-01, -1.19238637e-01,  1.66751635e+00, -4.24908876e-01, -3.40381861e-01, -3.01195526e+00, -5.23721039e-01,
     6.18294060e-01, -6.61438644e-01,  2.16807365e-01, -6.89083636e-01,  3.97908360e-01,  2.25168347e-01,  9.35123265e-01, -1.67994714e+00,
     4.89159882e-01,  5.96054830e-02, -2.44526491e-01,  6.63040042e-01,  5.46075523e-01,  1.34640861e+00,  1.69100380e+00, -3.44655573e-01,
    -2.86147976e+00, -6.32589042e-01, -1.45842719e+00, -1.38360333e+00,  5.46050787e-01, -2.30229408e-01, -2.18724751e+00, -1.25942242e+00},
   { 6.95599079e-01,  9.80482042e-01, -2.02824378e+00,  1.30831420e+00, -3.21577519e-01, -7.73081660e-01, -4.59260315e-01, -1.13026035e+00,
    -2.44555101e-01, -5.75403571e-01, -2.10742736e+00, -1.22807294e-01,  3.87655407e-01,  2.31407136e-01, -5.74263334e-02,  3.36312771e-01,
     6.29139483e-01,  3.15191925e-01,  3.02938074e-02,  7.05534935e-01,  5.88111281e-01,  6.38139188e-01,  1.17466164e+00, -3.89852673e-01,
    -5.39506674e-01, -1.33309507e+00,  1.74938309e+00, -1.02137053e+00, -1.47104275e+00,  8.55919242e-01, -1.34558868e+00,  5.94715297e-01},
   {-4.22293067e-01, -1.45408428e+00, -3.68523264e+00, -1.58644128e+00, -1.09702158e+00, -2.36546540e+00,  1.47626388e+00,  1.44890296e+00,
     2.55878782e+00, -4.25850332e-01,  2.44969869e+00,  2.98720710e-02, -1.28011212e-01,  1.48384320e-02, -1.81506717e+00, -5.11168182e-01,
    -9.43323493e-01, -1.66759586e+00,  3.70661473e+00, -1.77337694e+00, -1.00367057e+00, -1.34442520e+00, -1.80512309e+00, -9.89356816e-01,
     1.47797775e+00, -9.33550775e-01, -2.83734298e+00, -1.93640292e+00,  3.00794363e+00,  8.50230455e-01, -6.02742314e-01,  5.27996826e+00},
   { 5.57215571e-01, -8.84497166e-01, -1.40789330e+00,  1.79293227e+00, -7.74303898e-02, -4.16805327e-01, -5.85360467e-01,  3.27549368e-01,
     6.89798355e-01,  8.98147583e-01, -7.09258437e-01, -7.24864662e-01, -8.04468215e-01,  5.50633609e-01,  1.65707004e+00, -2.04280519e+00,
     3.59979928e-01, -2.37762228e-01, -1.15717983e+00,  1.61858484e-01,  1.08505034e+00,  1.38670504e+00,  2.05231476e+00,  1.02926679e-01,
    -1.60632506e-01, -3.08113307e-01, -1.74715018e+00, -6.58139884e-02, -4.06403333e-01, -1.34152532e+00, -1.82135081e+00, -2.40540314e+00},
   { 1.00162482e+00,  5.37036240e-01, -4.18000221e+00,  1.34630799e+00, -4.98974890e-01, -1.32729793e+00, -6.08439982e-01, -1.10322130e+00,
     3.89838904e-01, -3.04744571e-01, -2.76806474e+00, -2.55671763e+00,  8.77378464e-01,  3.09043479e+00, -4.86102104e-01, -1.07479477e+00,
    -7.55018175e-01, -2.42209077e+00,  3.37972879e+00, -5.55852830e-01,  1.82036114e+00, -9.78942961e-03,  9.61121917e-01, -7.67089874e-02,
     2.32187915e+00, -2.28358650e+00, -4.23890799e-01, -3.94275880e+00,  2.28907132e+00,  1.67014337e+00, -6.72459662e-01,  8.34394550e+00},
   {-7.04825044e-01, -1.98374033e-01, -1.71288788e+00,  4.02520776e-01, -2.85710037e-01, -1.31389642e+00, -1.19621027e+00,  7.57021606e-01,
     2.71675873e+00,  1.61722243e-01, -1.66040981e+00,  3.34169602e+00,  1.17916560e+00,  1.86228883e+00, -4.46714401e-01, -1.52449310e+00,
    -8.99171591e-01, -1.40273273e+00,  4.93202305e+00,  1.22117078e+00,  1.33780038e+00, -1.75300157e+00,  1.72201777e+00,  1.78761876e+00,
     2.23638058e+00,  1.21008027e+00, -1.47410858e+00, -5.95429800e-02, -5.27296141e-02,  2.24649265e-01,  1.58455753e+00,  4.76135540e+00},
   { 9.03528631e-01,  3.12978476e-02,  9.61162269e-01, -1.22103679e+00,  2.54077601e+00, -1.96679163e+00,  1.10178697e+00, -2.12451744e+00,
    -1.24989605e+00, -5.13390839e-01,  3.69226289e+00, -8.32086205e-01,  7.91429639e-01, -1.11483133e+00,  1.01836547e-01,  3.07999635e+00,
    -2.03330731e+00, -1.23599517e+00,  4.69671100e-01, -7.65889347e-01,  9.40646648e-01,  4.73371387e-01, -9.21046615e-01, -1.39233470e+00,
     1.74254537e+00, -1.34222853e+00,  3.97534919e+00,  1.22396839e+00, -1.03178072e+00, -1.86726224e+00,  1.62962055e+00,  4.50903225e+00},
   {-7.55837187e-02, -6.78549647e-01,  1.63268042e+00, -9.84041214e-01, -4.03026700e-01,  4.06152487e-01, -3.45973086e+00,  7.30734229e-01,
     2.91884750e-01,  5.09910226e-01,  8.29895914e-01,  3.21156122e-02,  1.03247058e+00,  2.34516099e-01,  2.86304988e-02,  1.03139184e-01,
    -5.27124815e-02, -1.23162270e-01,  1.38706219e+00, -1.08883619e+00,  1.91673303e+00,  1.43998981e-01,  2.42474532e+00,  1.42886907e-01,
     1.67594373e-01, -8.36131930e-01,  3.76051331e+00,  2.84760565e-01,  2.23212099e+00,  1.84528077e+00, -2.21410775e+00,  2.15340686e+00},
   { 2.59972066e-01, -5.81073225e-01, -1.62805343e+00,  3.09696651e+00,  4.76235688e-01,  2.76837677e-01, -6.25249684e-01, -2.91704953e-01,
    -1.98532820e+00,  3.54520351e-01, -2.94625252e-01, -2.95142078e+00,  2.03786194e-01, -1.89512599e+00, -3.57389855e+00, -1.67460978e+00,
    -8.28630447e-01,  1.03972375e-01, -8.17500412e-01,  1.38348985e+00, -2.31031656e+00,  3.56444120e-01,  7.16741860e-01,  2.12493137e-01,
     1.40320957e+00,  1.56843531e+00, -3.10912395e+00,  1.39793062e+00,  5.09517789e-01, -6.57335341e-01, -2.55996227e+00,  1.27440846e+00},
   { 9.98592675e-02, -1.45995033e+00,  1.73319831e-01, -1.88406873e+00,  8.48428428e-01,  1.92306668e-01,  5.60180187e-01,  5.67041695e-01,
     8.36020052e-01, -9.06401128e-02,  4.16902840e-01,  2.01183295e+00,  3.51440489e-01, -1.32478690e+00,  3.17125052e-01,  4.81568247e-01,
    -4.50683720e-02, -4.75864485e-02, -1.13630784e+00, -7.08465397e-01,  1.54480398e+00, -3.34788173e-01,  5.32963932e-01,  1.74360096e-01,
    -4.58616287e-01, -3.99791189e-02,  1.89712179e+00,  1.42896736e+00, -1.90467000e+00, -6.53062403e-01,  5.34428537e-01, -4.38896358e-01},
   { 1.18829226e+00, -2.08897853e+00, -1.10425472e+00,  3.54112935e+00, -5.04637063e-01, -2.68127489e+00,  2.84118032e+00, -1.54264140e+00,
    -1.79829955e+00, -7.17397690e-01,  3.04916382e+00, -7.16263056e-01,  9.61317658e-01, -7.58665919e-01,  1.27724195e+00,  1.34616435e+00,
    -2.93427730e+00, -1.84954807e-01, -2.23685050e+00,  2.41191173e+00,  4.99273866e-01, -9.95215058e-01,  4.42061806e+00, -3.15937018e+00,
     1.73463356e+00, -8.36574957e-02, -2.91691143e-02, -1.13079548e+00, -1.96749771e+00, -4.36047268e+00,  1.27922559e+00, -1.33933139e+00},
   {-4.30051386e-01,  1.11760628e+00, -1.85015237e+00,  3.19833726e-01, -6.07667148e-01, -1.96990478e+00,  8.68882239e-01,  3.48365068e+00,
     3.20337820e+00,  3.39484692e-01, -1.24561369e+00,  1.38814658e-01,  3.71841341e-01, -1.72227156e+00, -5.28345966e+00,  4.94532406e-01,
    -6.54780507e-01, -1.92809701e+00,  2.48698187e+00,  1.18236929e-01,  1.23045063e+00, -2.13899463e-01,  5.33217311e-01,  1.12111521e+00,
    -8.45373929e-01,  3.13134074e+00, -1.93797088e+00,  1.81149876e+00,  2.49353075e+00, -2.22135216e-01,  1.47330630e+00, -6.21816969e+00},
   {-1.62805885e-01, -6.35303855e-01, -8.69751811e-01,  1.11253753e-01, -8.29070747e-01, -6.41818166e-01,  7.11582243e-01, -2.18947142e-01,
     8.12365592e-01, -1.02707970e+00, -1.07676494e+00, -1.44502878e+00, -5.97675204e-01, -1.63051993e-01,  1.14623058e+00,  4.78475392e-01,
     8.72273862e-01, -6.95170701e-01, -3.86435688e-02,  7.67326713e-01,  3.04247165e+00, -5.49970269e-01,  7.19079077e-01, -9.12896872e-01,
    -2.91967034e-01, -5.47788024e-01,  3.85856223e+00, -4.76039559e-01,  1.18403101e+00, -1.16563702e+00, -1.14797151e+00, -2.93985415e+00},
   { 1.04684138e+00, -8.98254097e-01, -7.06326962e-01,  1.65609384e+00, -1.79731083e+00,  3.69643182e-01, -2.06947625e-01,  4.00551653e+00,
     2.35362098e-01,  1.13676202e+00,  1.46960139e+00, -8.08427572e-01,  3.49234939e-01, -4.03342456e-01, -9.00999367e-01, -8.35492134e-01,
    -1.71086490e-01,  8.86038616e-02, -1.12561607e+00, -1.40697479e+00,  1.76600134e+00, -3.15332383e-01,  9.36940789e-01, -1.19088225e-01,
     2.57990479e+00,  5.76828480e-01, -8.03121030e-01, -1.19950557e+00, -2.15151012e-01, -7.34936416e-01, -1.22700381e+00,  3.16184568e+00},
   {-2.85221577e-01, -6.53001368e-01, -4.81793976e+00, -1.27502716e+00,  2.59360075e-01,  1.87102988e-01,  3.49336475e-01, -4.00433630e-01,
    -5.90549484e-02, -3.01827073e-01,  6.83716118e-01,  1.68902129e-01,  6.96069151e-02,  4.71941801e-03,  1.28787601e+00, -5.87251842e-01,
    -4.52802256e-02,  1.22251540e-01, -8.11057270e-01, -1.94059193e+00,  1.05083644e+00,  8.40855479e-01, -2.43270087e+00,  1.26734152e-01,
     4.56051342e-02, -9.09791112e-01, -1.80384028e+00,  2.94647574e+00, -3.73093262e-02, -8.52781117e-01, -1.12019575e+00,  3.03690851e-01},
   {-2.48331356e+00,  2.77649546e+00,  1.23689556e+00, -1.99418247e+00,  4.11929220e-01, -1.96161732e-01,  2.08091378e+00, -2.72461802e-01,
     2.72614741e+00, -1.80994141e+00, -1.69098234e+00,  1.46630001e+00,  1.19476151e+00,  1.55634463e+00,  4.07301807e+00,  2.38695908e+00,
    -2.68491656e-01,  3.83667064e+00, -2.51041913e+00,  1.16988206e+00,  4.71097612e+00,  1.37578893e+00,  2.42529607e+00, -1.67773271e+00,
     3.97100925e+00, -3.83676559e-01,  5.41925812e+00, -7.10687116e-02,  1.38725266e-01,  1.65105188e+00,  2.41612625e+00,  3.92448354e+00},
   {-4.28604960e-01, -3.55919313e+00,  1.49903774e+00, -1.51438668e-01, -5.80561757e-02, -1.20795655e+00,  2.96232367e+00, -3.18387246e+00,
    -1.46136487e+00, -1.66097176e+00,  3.31413984e+00, -1.15693462e+00,  2.11828208e+00, -5.57915926e-01,  2.61255002e+00,  2.54644608e+00,
    -7.02587008e-01,  3.04434419e-01, -2.88267851e+00, -3.10559177e+00, -6.41688228e-01, -2.71996677e-01, -1.52023941e-01, -1.54135585e+00,
     5.74128485e+00,  2.10841894e+00,  9.45125341e-01, -7.08751976e-01,  1.28200114e+00, -1.33081555e+00,  2.46858668e+00,  3.05773163e+00},
   {-1.94826871e-01, -8.79340097e-02, -2.21459985e+00,  5.87509215e-01,  3.08332682e-01, -1.53388143e+00, -4.37866077e-02,  4.11540002e-01,
    -7.01744080e-01,  1.55294216e+00, -1.07864410e-01, -8.39745402e-01, -3.97713743e-02, -2.27958703e+00,  5.90868533e-01, -1.55748081e+00,
    -9.85813260e-01, -2.26006317e+00, -1.50337601e+00,  1.62285134e-01,  6.58571362e-01,  1.07100403e+00,  7.30913818e-01,  1.38070250e+00,
    -1.26687491e+00, -1.36487079e+00,  2.81328750e+00,  3.84047091e-01,  1.61263192e+00, -1.06026575e-01, -1.14760423e+00, -2.82099533e+00},
   {-3.62943172e-01, -4.87466842e-01,  7.43125200e-01, -1.22735560e+00, -4.55151536e-02, -8.21503162e-01,  3.90078574e-01,  1.42740488e+00,
     1.00886762e+00, -8.76601264e-02,  6.51236713e-01,  2.52971888e+00, -5.43281496e-01, -1.29898334e+00, -7.43133545e-01,  3.67329419e-01,
     1.72804207e-01, -1.02762692e-01, -3.09830129e-01, -1.03542650e+00, -2.21758556e+00, -2.75751501e-02, -6.24489307e-01,  1.12843430e+00,
    -7.45032489e-01,  4.53157932e-01, -2.03181577e+00,  4.93300766e-01, -1.00761378e+00, -5.09747088e-01,  1.67391860e+00, -2.07161617e+00},
   {-1.27434283e-01,  1.68450499e+00, -2.88720340e-01,  4.80330825e-01,  2.36139581e-01, -1.22963107e+00, -5.61710536e-01,  1.43748403e-01,
     1.93099213e+00,  1.83757529e-01, -1.00574410e+00,  1.07187474e+00,  6.48109615e-02,  4.28017586e-01, -6.79464638e-01, -2.41860569e-01,
     1.28792554e-01, -8.16424847e-01,  3.45620799e+00,  2.21746612e+00,  4.78079528e-01, -5.99359453e-01,  9.28344011e-01,  7.39540279e-01,
    -6.12955913e-02,  4.62620497e-01, -2.50165200e+00, -2.47514814e-01, -7.34221458e-01,  1.23892057e+00,  7.39795685e-01, -1.06715775e+00},
   {-8.21637094e-01, -2.27112323e-01, -2.68199772e-01,  9.36153769e-01, -1.05419052e+00, -6.03039384e-01,  1.07246324e-01, -3.40262771e-01,
     1.15927875e+00, -7.12434053e-01, -2.91350186e-01,  5.18175423e-01,  9.78169382e-01,  1.22701895e+00,  5.77810407e-01,  6.74009621e-01,
     3.65731120e-01,  1.22292030e+00,  1.11477542e+00, -3.87796313e-01,  9.99136329e-01, -3.04252803e-01,  1.20632732e+00,  2.19316530e+00,
     2.79217035e-01, -1.06004737e-01, -1.75859943e-01,  3.86199713e-01,  4.79308635e-01,  7.51707256e-01, -1.29450947e-01, -4.52305943e-01},
   {-5.56532085e-01,  1.63225174e+00, -2.26568270e+00, -1.25274763e-01,  4.11502212e-01, -2.41357780e+00,  8.04481208e-01, -3.84042948e-01,
    -5.04217803e-01,  5.07418811e-01, -2.26937127e+00, -1.23478520e+00, -1.37295127e+00, -1.47876546e-01,  2.31222197e-01,  2.91505635e-01,
    -1.71762073e+00, -2.29373384e+00,  6.61458075e-01,  6.18217885e-01,  3.07067692e-01,  1.18738532e+00, -1.79042673e+00,  1.01728499e+00,
    -8.59218657e-01, -1.57650006e+00, -5.79882741e-01, -2.41059959e-01,  2.54957891e+00,  1.88186407e+00,  1.58564663e+00, -7.27622330e-01},
   {-1.46804702e+00,  1.51458633e+00, -1.07450628e+00, -2.96571493e-01, -1.05218911e+00, -2.67377853e+00,  7.31127977e-01,  2.38942051e+00,
     1.26124859e+00,  6.72298372e-01,  6.89382851e-01,  6.82188928e-01, -2.22555351e+00, -2.32170057e+00,  1.15203691e+00, -1.58192575e+00,
    -1.50154543e+00,  2.59434134e-01, -2.45043039e+00, -3.71036716e-02,  4.87519646e+00,  3.91418517e-01, -1.38249658e-02,  1.09650448e-01,
    -1.52675962e+00,  1.91215181e+00,  5.88165617e+00, -2.51466572e-01, -3.57342549e-02, -1.42317498e+00,  1.46601164e+00, -7.21635699e-01},
};

// clang-format on


#endif // __FASTGRNN_GRNN1_PARAMS__

