#ifndef __FASTGRNN_FC_PARAMS__
#define __FASTGRNN_FC_PARAMS__

#define FC_IN_DIM (32)
#define FC_OUT_DIM (6)

// clang-format off

const float FC_W[6][32] = {
   { 2.97827959e-01,  5.91868222e-01,  6.14878714e-01, -3.68986279e-01, -4.93278861e-01,  7.13333860e-02, -2.11797372e-01,  3.21562052e-01,
     1.33992448e-01, -2.76112258e-01,  2.82296836e-01,  1.35414034e-01,  2.55721360e-01,  8.44054893e-02, -2.66646504e-01, -3.89940560e-01,
    -1.32182375e-01,  2.69646257e-01, -5.19406438e-01, -1.09421663e-01,  5.34837365e-01, -3.33577693e-01, -2.83256680e-01,  4.41701859e-01,
     7.45920986e-02,  3.54127437e-01,  4.02151585e-01,  4.62211549e-01, -6.77952170e-02,  8.42861682e-02,  2.40123793e-01,  2.15385005e-01},
   {-7.42873371e-01, -7.87759364e-01, -1.69863188e+00,  3.95195961e-01,  1.51716304e+00, -6.79850459e-01,  3.87789160e-01,  4.42232579e-01,
     6.22400522e-01, -2.55036891e-01, -8.85566175e-01,  8.65121782e-01, -4.74300772e-01,  4.22225557e-02, -6.38330281e-01,  7.10706949e-01,
    -7.41635025e-01,  2.29558665e-02, -3.97515953e-01,  2.02855870e-01, -4.09808725e-01,  6.25735819e-01, -4.21549946e-01,  1.91482037e-01,
     3.80644351e-01, -2.10929476e-02, -1.29830647e+00, -5.03286958e-01, -1.85264662e-01,  2.30448708e-01,  8.65982696e-02,  1.05583994e-02},
   {-5.40081739e-01, -4.42981988e-01, -1.30804944e+00,  6.97808504e-01, -8.37250888e-01,  2.94721246e-01, -3.46220523e-01, -4.44625497e-01,
     6.68079734e-01, -3.17208201e-01, -8.87061000e-01, -1.95269084e+00,  2.67934740e-01, -1.07303346e-02,  1.29428351e+00,  9.16310012e-01,
    -7.24279225e-01,  4.32196148e-02,  8.21056291e-02, -1.67481557e-01, -3.24806303e-01,  4.08407301e-03, -3.78488958e-01,  1.24217957e-01,
     2.33269528e-01, -5.60372829e-01, -9.82850909e-01,  8.91678929e-01,  1.52665570e-01,  2.81497657e-01,  3.99300963e-01, -5.10353982e-01},
   { 1.69049278e-01, -4.65971500e-01,  1.44521281e-01,  8.67141128e-01,  1.05273652e+00,  6.18749619e-01,  4.70705211e-01, -6.85964704e-01,
    -3.86339515e-01, -3.77380252e-01,  4.76750523e-01,  1.12083554e-02, -4.26942438e-01,  1.53453782e-01, -5.43509185e-01, -5.46399713e-01,
     2.11674571e-01, -6.18118823e-01,  7.40413010e-01,  6.62524164e-01, -6.01435900e-01,  2.19066054e-01,  4.97234583e-01,  5.11885762e-01,
    -4.30079937e-01, -2.08242744e-01,  7.42712766e-02,  3.26253623e-01, -1.10471413e-01, -7.72298634e-01, -3.74756873e-01,  4.55126733e-01},
   {-1.40425622e-01,  5.47844946e-01,  1.11314505e-01, -4.68310446e-01, -8.86573195e-01, -5.11429012e-01, -1.60481051e-01,  5.44509530e-01,
    -6.82420790e-01,  1.51388264e+00,  5.62922716e-01,  2.50389844e-01, -6.08492732e-01, -1.03280909e-01, -2.17262357e-01, -3.64360094e-01,
     1.36824369e+00, -3.15962046e-01, -2.49731705e-01, -3.67756486e-01, -4.86471385e-01, -7.21223950e-01,  8.32477927e-01, -1.32343686e+00,
    -1.74682990e-01, -2.64930338e-01,  4.53302562e-01, -1.52077329e+00, -1.84588149e-01,  2.44904846e-01, -1.50888592e-01, -5.49288392e-01},
   { 1.64407060e-01, -6.02445304e-01,  5.90694368e-01, -7.43475974e-01,  3.42475444e-01, -7.45399117e-01,  3.46146613e-01, -4.66843367e-01,
    -7.69162059e-01, -4.92922127e-01, -7.01556265e-01, -9.28189382e-02,  2.36759841e-01, -8.29135060e-01,  9.47812617e-01,  4.30205584e-01,
     3.26299787e-01,  3.41180027e-01,  1.24016356e+00,  6.00941777e-01,  3.87840658e-01,  5.39958239e-01,  3.46955568e-01, -6.92773879e-01,
    -3.04698169e-01,  2.10647389e-01,  3.04555863e-01, -8.13423634e-01,  3.32851827e-01, -1.91049471e-01, -3.42295468e-01, -3.37447785e-02},
};

const float FC_B[6] = 
   { 7.23446965e-01, -3.72924745e-01, -5.19175887e-01, -3.00190210e-01, -2.05947340e-01, -4.09050733e-01};

// clang-format on


#endif // __FASTGRNN_FC_PARAMS__

