#ifndef __FASTGRNN_GRNN1_PARAMS__
#define __FASTGRNN_GRNN1_PARAMS__

#define GRNN1_HIDD_DIM0 (64)
#define GRNN1_HIDD_DIM1 (32)

// clang-format off

const float GRNN1_ZETA = (1.789115e+00);
const float GRNN1_NU = (-7.432074e+00);

const float GRNN1_BIAS_UPDATE[32] = 
   { 1.12398586e+01,  8.92430246e-02,  1.90190208e+00,  1.47643238e-01,  8.01088274e-01,  7.17450798e-01,  6.55087423e+00, -1.73412442e-01,
    -4.96211201e-02,  1.72276750e-01,  6.50935292e-01,  6.14158452e-01, -5.65283179e-01,  6.13982081e-01,  1.47067082e+00,  1.54771790e-01,
     5.45197129e-01,  1.18276632e+00,  9.66300786e-01,  3.28673095e-01,  1.22170961e+00,  1.33796704e+00,  9.53723609e-01,  6.06037259e-01,
     5.64783752e-01,  3.88467222e-01,  1.31829962e-01,  7.45033205e-01,  1.67837048e+00,  8.10810566e-01,  1.66132629e-01,  3.93892199e-01};

const float GRNN1_BIAS_GATE[32] = 
   { 2.15264559e+00, -9.07881558e-01,  1.76781762e+00, -9.70317185e-01,  1.57832074e+00,  1.20625925e+00,  1.45762742e+00, -1.58916712e+00,
     2.46417284e+00,  2.07085991e+00,  1.86753368e+00,  1.30954456e+00,  1.06449497e+00,  1.93770692e-01,  2.70408845e+00,  9.21927214e-01,
     2.83254123e+00,  2.64083481e+00,  2.06746292e+00,  8.33458900e-01,  2.85550952e+00, -8.62359583e-01,  2.72970223e+00,  8.44600201e-01,
     1.08719933e+00,  1.02559340e+00,  7.02626944e-01,  1.15802360e+00,  3.35523891e+00, -1.00260818e+00,  6.06992066e-01,  1.72693992e+00};

const float GRNN1_W[32][64] = {
   {-2.10691132e-02,  4.19955343e-01, -4.14378911e-01,  6.16268039e-01, -1.18720710e-01, -5.58295965e-01,  4.21991676e-01,  5.43270528e-01,
     5.25648929e-02,  7.38896430e-01,  8.03637743e-01,  9.23617244e-01, -1.04848230e+00,  7.03268349e-02,  4.31785673e-01,  2.80272812e-01,
    -2.59854585e-01,  3.11577469e-02,  4.35510010e-01, -1.90328717e-01, -1.17658675e+00,  4.18402106e-02,  2.25162104e-01,  1.05940831e+00,
    -3.56916308e-01, -1.26523125e+00, -2.66815603e-01,  5.68427145e-01,  2.34165728e-01,  2.30585232e-01,  1.18912961e-02, -5.49199693e-02,
    -2.51344144e-02, -1.62647158e-01,  3.43264401e-01,  3.48396480e-01, -1.12259686e+00, -8.53490308e-02,  5.35419405e-01,  1.86807513e-01,
     1.27591118e-01,  1.31022334e-01, -1.20886430e-01, -2.31747106e-01,  5.16289234e-01, -3.62392068e-01,  2.42822304e-01,  2.43629500e-01,
    -2.77466863e-01,  4.17390019e-02,  4.95496392e-01, -5.99057496e-01,  4.91656005e-01,  1.02941096e+00,  5.33935368e-01, -3.36935818e-01,
     2.26961687e-01,  2.33527958e-01,  3.25800776e-01,  3.32603186e-01, -2.49857545e-01,  1.08672237e+00,  9.62753713e-01, -4.06433582e-01},
   { 2.87072778e-01,  1.90475926e-01, -4.57129925e-02, -1.88769456e-02, -4.76659052e-02,  1.55161694e-01,  7.65012801e-02, -1.51842624e-01,
     4.35928628e-02, -1.97373807e-01,  1.00440994e-01,  3.14414382e-01, -1.93739712e-01, -1.61806196e-01,  3.65729332e-02, -1.05826324e-02,
     3.16547543e-01, -1.05026893e-01, -1.29969805e-01, -1.97085544e-01,  6.95654675e-02,  2.15882152e-01, -1.07441628e-02, -1.21208549e-01,
     5.64808622e-02,  2.76864350e-01,  2.67589331e-01, -2.23620504e-01,  1.47651985e-01, -1.15927167e-01, -2.45783776e-01, -2.28207484e-01,
    -1.39619619e-01, -1.62566260e-01, -2.75770217e-01, -3.01580876e-01, -1.19846486e-01,  5.70598524e-03, -4.37544659e-02, -1.22660443e-01,
    -1.24970354e-01,  4.63376381e-02, -5.04457533e-01, -4.98829894e-02, -3.69217336e-01, -6.27882481e-02,  2.53193770e-02,  1.48027375e-01,
    -1.27285406e-01, -2.86453664e-02, -6.71786442e-02,  1.61614791e-01, -4.55212668e-02, -3.79483938e-01,  8.47846195e-02,  3.57521996e-02,
    -2.94376075e-01,  4.90545817e-02, -1.31976590e-01, -3.46998982e-02, -2.56328862e-02, -3.94446449e-03, -2.24923596e-01,  2.04541147e-01},
   {-6.29234836e-02, -4.84974831e-01, -1.13327906e-01,  2.76974946e-01, -2.03172505e-01, -2.93163568e-01, -3.02663594e-01,  6.08070269e-02,
    -1.33904126e-02,  1.92160144e-01, -1.86047480e-01, -3.86307269e-01, -2.82128230e-02,  9.04185232e-03, -3.11869737e-02,  3.31527501e-01,
    -9.68954742e-01,  1.75448254e-01, -2.00959370e-01,  4.99910623e-01,  4.23323214e-01,  6.29208311e-02,  9.69999507e-02, -8.69826749e-02,
    -3.72331530e-01, -4.35112685e-01,  2.96529412e-01, -2.10333019e-01,  1.16350628e-01,  3.82591367e-01,  1.97741374e-01, -1.18737176e-01,
    -6.31283782e-03, -6.05048276e-02, -3.99492353e-01,  2.84597844e-01,  2.81403325e-02, -5.67765646e-02, -5.88905096e-01,  1.27218897e-02,
     2.93209199e-02,  3.94783588e-03,  5.29145718e-01, -3.67586792e-01, -4.46491838e-01, -1.06293760e-01,  1.84072092e-01,  2.79265016e-01,
    -1.04178071e-01, -2.24534065e-01, -5.08064687e-01, -2.12356448e-01,  2.25269273e-01,  3.89475256e-01, -9.22587067e-02, -4.45358992e-01,
    -3.53563987e-02,  2.77852058e-01,  2.21274391e-01, -1.13483481e-01, -1.44225638e-02, -3.59617293e-01,  5.63730836e-01, -1.26196787e-01},
   {-4.61792648e-02,  8.16762820e-02, -8.72462094e-02,  1.66502133e-01,  1.61442131e-01,  2.33312789e-02,  7.96097443e-02, -4.81126830e-02,
     2.28677946e-03, -3.26129571e-02, -5.93600348e-02, -5.62790148e-02,  1.18270822e-01, -7.12540075e-02,  2.15133697e-01,  1.00120515e-01,
     3.09481651e-01, -1.95749546e-03, -1.48177639e-01,  3.40340585e-01,  4.29562896e-01, -5.41327670e-02,  4.13301997e-02, -2.44032666e-02,
    -3.35196219e-02,  4.28701676e-02, -2.52368718e-01,  8.93223956e-02, -2.66996287e-02,  7.64889643e-02, -1.04874978e-02, -9.40506347e-03,
    -4.78165224e-03,  6.38529733e-02, -4.65377808e-01, -6.89264759e-02, -2.64667291e-02,  1.06069438e-01,  1.01878613e-01, -4.19716462e-02,
     1.77781880e-01, -5.74731231e-02, -1.31862804e-01, -2.43393946e-02, -2.04763860e-01, -1.36793554e-01, -1.16084866e-01, -1.54254079e-01,
     1.27514809e-01,  3.37602317e-01,  4.49075960e-02,  3.85836922e-02, -1.03628784e-01, -2.99990892e-01,  1.56564936e-01,  9.79809687e-02,
    -3.80247444e-01,  5.32104447e-02, -2.08242714e-01,  7.47236460e-02, -6.63470402e-02, -8.85456279e-02, -1.23918325e-01, -2.12738335e-01},
   {-2.41690531e-01,  7.86300451e-02, -1.81497410e-01,  1.12944119e-01, -6.34704292e-01,  4.36830133e-01,  2.52688885e-01,  2.13049144e-01,
     9.35647786e-02,  1.92034692e-02, -3.15658569e-01,  5.91528893e-01,  5.42787671e-01,  4.73940134e-01,  1.97405249e-01,  1.57476783e-01,
     2.83823192e-01,  7.63950730e-03,  3.98620516e-01, -2.89936930e-01,  2.91259974e-01, -1.31953191e-02,  1.18542034e-02, -6.87299892e-02,
    -1.63551703e-01, -6.89940512e-01, -1.94078043e-01, -1.40307203e-01, -3.25316906e-01, -2.33025506e-01, -5.55016696e-01,  1.86183825e-01,
    -9.14043654e-03,  2.58494556e-01,  6.41031802e-01,  5.85811436e-02, -6.36293292e-01,  1.13100283e-01,  1.36971474e-01,  6.24887682e-02,
     1.52433157e-01,  2.34861583e-01, -4.83992510e-02, -7.47908503e-02, -6.38162643e-02,  1.33293346e-01, -1.12881303e-01,  4.58313376e-01,
    -3.39472294e-02,  2.66822547e-01,  1.45207152e-01, -1.08451807e+00, -4.97959852e-01,  2.83072233e-01, -5.81249297e-01, -8.80093256e-04,
     2.67829776e-01,  1.42567530e-01,  1.79065153e-01,  1.87059328e-01, -2.14049935e-01,  5.90343028e-02, -6.99323043e-02, -1.98491916e-01},
   {-5.53665757e-01, -6.33574203e-02,  1.09127730e-01, -2.27906212e-01,  3.38315994e-01, -2.61130035e-01, -1.07263647e-01, -1.94992036e-01,
    -2.21434340e-01, -6.70619607e-01, -3.62370461e-01, -1.74801216e-01,  1.80202663e-01, -6.90670311e-02, -2.70316660e-01, -4.84320782e-02,
    -2.44899198e-01, -4.31255810e-02, -1.78095013e-01,  8.22394937e-02,  6.87316135e-02,  7.33610056e-03,  3.16624016e-01,  1.61511332e-01,
     2.38342911e-01,  2.23938972e-01,  3.09221923e-01,  3.72062385e-01,  1.93211854e-01, -7.44503550e-03,  3.16906303e-01, -3.39401275e-01,
     3.32537442e-02, -6.34410605e-02, -2.99686164e-01,  3.17688346e-01,  2.18229979e-01,  1.31911516e-01, -1.52752101e-01,  1.73849285e-01,
    -1.82762951e-01, -7.60200918e-02, -1.05620399e-02,  1.14339776e-01, -1.62203789e-01, -1.90432191e-01, -1.25874534e-01, -2.06247494e-02,
    -5.29941678e-01, -4.08432912e-03,  7.01590180e-01,  2.54491214e-02, -2.35043526e-01, -2.13253405e-02,  1.31986886e-01,  1.37987345e-01,
    -7.58182585e-01,  4.97512929e-02, -4.58236963e-01, -6.68776557e-02,  1.53170943e-01, -8.42900760e-03, -2.95673728e-01, -4.71480399e-01},
   {-2.00265303e-01,  4.64876592e-02,  4.79593873e-01, -1.38716981e-01,  2.42081195e-01, -2.38633305e-01,  5.47923088e-01,  1.43656865e-01,
    -1.31204140e+00, -5.92161775e-01,  6.25861660e-02,  7.91275561e-01,  2.18832284e-01,  2.63346344e-01,  2.87368357e-01, -4.37183417e-02,
    -8.41761827e-01,  1.51186317e-01,  5.57181001e-01,  3.65948468e-01, -1.05451405e+00, -5.92746660e-02,  6.19656220e-02, -2.62662917e-01,
    -1.85457337e+00, -1.75674379e-01,  2.03711674e-01,  2.39078756e-02,  4.06625271e-01,  5.76774776e-01,  2.18429983e-01,  8.02483320e-01,
    -4.47549582e-01, -3.76431644e-01,  2.66172796e-01, -4.55138415e-01,  1.59208268e-01,  6.60785675e-01,  8.20509717e-02,  5.39959669e-01,
     4.38150942e-01,  6.93389922e-02,  3.55226221e-03, -1.19403386e+00,  3.50283861e-01, -4.20465231e-01,  2.75089711e-01, -1.97207439e+00,
    -1.89663514e-01,  4.04568285e-01, -1.74448520e-01, -4.13313031e-01,  4.50721651e-01,  2.17064455e-01,  4.97187138e-01, -3.01315486e-01,
     1.34821400e-01,  1.13174818e-01,  4.32955623e-01,  1.13269202e-01,  8.44382867e-02,  1.37623513e+00,  3.77892733e-01,  3.10081095e-01},
   {-3.71687710e-02, -3.88566107e-02, -2.28503972e-01, -4.21973728e-02,  3.35712638e-03, -1.35477349e-01, -4.00959790e-01, -1.94653779e-01,
     2.12746877e-02, -3.34962517e-01,  3.91003639e-02, -1.66943192e-01, -1.53626487e-01,  3.80193517e-02, -6.41998887e-01, -3.74675542e-02,
     4.67598289e-02,  1.14843883e-01, -8.76726210e-02, -1.15234204e-01, -1.94568336e-01, -1.00645214e-01, -8.35210979e-02, -8.70866608e-03,
     1.31461889e-01, -3.11762393e-01, -3.22586864e-01, -5.82087412e-02, -2.91856468e-01, -9.61047187e-02,  1.16395473e-01, -1.62109688e-01,
    -9.35609639e-02, -2.54242033e-01, -3.56639236e-01,  1.68982506e-01,  1.73879758e-01,  1.36400154e-02, -5.22004902e-01,  6.15532734e-02,
     3.70919481e-02, -2.71377981e-01, -3.94325480e-02,  1.01359293e-01, -1.22158155e-01, -3.65761369e-02,  8.36396590e-02, -4.12528068e-02,
    -3.14451344e-02, -5.41683547e-02, -3.15648317e-02,  1.04312241e-01, -5.77418469e-02, -2.39262730e-01,  1.79942474e-01, -6.44156709e-02,
     7.04348683e-02, -2.52270341e-01, -4.86190647e-01,  7.97316581e-02, -1.52362823e-01,  2.05224648e-01,  1.87418163e-01,  3.93869393e-02},
   {-1.80545613e-01, -1.38051510e-01, -1.96717069e-01, -2.34582916e-01, -1.97280630e-01, -3.99116278e-02,  3.73634666e-01,  2.82391459e-01,
     1.38990805e-01,  4.21956599e-01, -3.25908720e-01, -5.81479251e-01,  2.18759477e-01,  2.79515922e-01, -5.40792286e-01, -1.82336062e-01,
     8.51833001e-02,  2.42577970e-01, -2.13029578e-01, -1.84204116e-01,  4.23551768e-01,  1.35755085e-03,  2.27263451e-01, -5.36581695e-01,
    -5.07303715e-01, -3.56932655e-02,  4.75663990e-01, -7.13781774e-01,  4.04127315e-02,  3.93938094e-01, -4.28215861e-01,  1.24008469e-01,
    -6.29152834e-01,  7.01167434e-02,  1.38258651e-01, -3.35102412e-03, -7.49456227e-01,  6.16896600e-02, -4.87066269e-01,  2.20353141e-01,
     3.06836311e-02,  1.68653533e-01, -1.97235078e-01, -2.51929045e-01, -2.73784548e-01, -2.71083176e-01,  1.25111267e-01,  2.29643196e-01,
    -2.42332533e-01, -3.63218635e-02,  3.75832796e-01, -9.53638196e-01, -9.24918354e-02, -2.25762382e-01, -9.15285349e-01, -4.53262001e-01,
    -2.79610425e-01, -2.87911352e-02,  9.89497378e-02,  3.83177459e-01, -3.65895212e-01,  1.17420009e-03,  2.54899859e-01,  3.41193639e-02},
   { 2.59188563e-01, -3.12373787e-01,  6.32108599e-02, -2.34756932e-01,  2.77172804e-01,  5.08582890e-02,  2.85803616e-01,  1.73900444e-02,
    -9.63888913e-02,  6.18084490e-01,  1.48754884e-02, -4.57222879e-01,  1.87346071e-01, -2.92932421e-01,  2.44134646e-02,  2.64244407e-01,
    -5.45486689e-01, -1.60462055e-02, -1.11095458e-01,  2.97073185e-01, -3.25801790e-01, -1.39708400e-01, -5.27513213e-02,  1.35336876e-01,
    -2.30771840e-01,  2.09575877e-01, -7.82035142e-02, -8.91362354e-02,  7.49089718e-02,  7.91381970e-02, -1.79221496e-01, -4.47673909e-02,
     3.90136382e-03, -2.72712201e-01, -4.74799365e-01, -2.71951258e-01, -2.27203015e-02,  1.14404298e-01, -3.60157341e-01, -6.07865341e-02,
     8.90158489e-02, -2.60942668e-01, -1.06435925e-01, -4.88845587e-01, -5.22069633e-01, -1.86615586e-01, -5.75327128e-02,  3.67194176e-01,
     1.47701129e-01, -1.50509365e-02, -5.26443757e-02, -7.85689950e-02, -2.51072824e-01,  6.48351461e-02,  5.81296980e-01,  3.23679335e-02,
     3.27382326e-01, -1.70141995e-01,  4.42768663e-01, -2.60707796e-01,  3.24603081e-01, -2.11269304e-01,  4.53073889e-01, -3.24967593e-01},
   { 3.78771365e-01,  3.58881235e-01,  2.10113719e-01, -3.81754458e-01, -3.14286947e-01, -7.63000995e-02, -4.51748371e-02, -1.76008955e-01,
     2.50960231e-01,  1.68498144e-01,  2.88134426e-01, -7.52356172e-01, -1.07474007e-01, -2.16002241e-02, -4.52127248e-01,  2.24869013e-01,
     6.01415992e-01,  6.21502027e-02,  9.27665085e-02, -5.69213629e-01,  2.28700191e-01,  2.53670067e-01, -6.10380694e-02, -7.44154826e-02,
     3.76518041e-01,  5.29843628e-01,  1.52329430e-01, -3.33668023e-01, -3.36410224e-01,  7.01705441e-02,  8.01746175e-02, -2.07401186e-01,
    -1.58397272e-01,  3.71556431e-01, -3.38859528e-01, -1.70697361e-01, -6.19928390e-02,  1.93275586e-01, -6.99199736e-02,  6.79973811e-02,
    -6.00064658e-02, -8.33659470e-02, -2.06858337e-01,  3.89099047e-02,  2.54900157e-01, -1.37283221e-01,  8.79384857e-03, -2.74390161e-01,
    -3.87376100e-01, -3.47695388e-02, -3.62837493e-01,  1.94828194e-02,  3.03501874e-01, -3.34388882e-01, -3.98269713e-01,  5.63305020e-01,
     4.32825506e-01,  4.94253039e-02,  3.70916016e-02,  8.98572877e-02, -1.35330716e-02,  2.46698946e-01,  1.14069797e-01,  3.31330776e-01},
   { 1.35491818e-01, -1.51219815e-02,  3.96625906e-01, -2.98020691e-01, -1.52418733e-01,  3.07092130e-01,  2.40937680e-01,  1.49412200e-01,
    -7.56096989e-02,  1.50430411e-01, -2.63239861e-01, -1.30265266e-01,  3.64357591e-01,  1.00806588e-02,  5.31962931e-01, -3.47148627e-01,
    -1.82109892e-01,  1.53915420e-01,  3.34874302e-01,  5.23443408e-02,  1.57635778e-01,  3.80788930e-02,  2.42427081e-01, -4.82310355e-01,
    -6.32633984e-01,  1.59672812e-01, -2.62713432e-01, -2.11909652e-01,  1.12555198e-01, -1.46074081e-02, -7.61738658e-01,  4.14461195e-01,
    -7.00685475e-03,  3.61453861e-01,  4.09067571e-01, -3.08188498e-01,  6.12567589e-02, -1.06245158e-02,  2.21075431e-01, -1.71228662e-01,
     3.61505508e-01,  2.63487455e-02, -3.64756025e-02, -4.04586256e-01,  1.12827909e+00, -3.27385701e-02,  8.60972255e-02, -4.00357515e-01,
    -1.29221871e-01,  5.02761185e-01, -4.07541364e-01, -5.37847519e-01,  4.38648313e-02, -2.68506795e-01, -3.12093496e-01, -2.20909998e-01,
     1.12516485e-01,  1.83051258e-01, -1.29509317e-02,  1.76041916e-01,  1.08573146e-01,  3.68283018e-02, -6.89841330e-01, -7.19221085e-02},
   { 2.86655813e-01,  9.76955742e-02, -1.01969481e+00, -1.16198033e-01, -2.36835122e-01,  2.42471755e-01,  5.51202009e-03, -4.25771363e-02,
     1.43771827e-01,  3.86002213e-01,  1.86106101e-01,  1.86087146e-01, -2.84479279e-02, -2.97558933e-01, -9.11337137e-02,  1.52172789e-01,
     1.79699406e-01, -3.36349070e-01, -2.47068793e-01, -9.83601883e-02, -5.10850012e-01,  4.00703512e-02, -4.01776493e-01, -2.47342750e-01,
    -9.85901728e-02,  2.16057509e-01,  1.30296677e-01,  4.17405456e-01, -4.85530794e-02,  1.08420052e-01,  1.89361036e-01,  1.62658170e-02,
    -5.77320307e-02, -1.71123117e-01, -1.94537919e-02, -7.97403693e-01, -2.22949106e-02, -1.15856230e-01, -7.56241679e-02,  6.84755817e-02,
     2.27068048e-02, -4.42929119e-02, -1.54723436e-01,  3.07695150e-01, -7.67499208e-01,  8.39086622e-02, -1.38858899e-01, -2.69697696e-01,
    -1.51995510e-01,  1.32396355e-01, -1.28737479e-01,  1.20514221e-01,  3.98787618e-01, -7.63065815e-02,  9.53269303e-02, -1.10367827e-01,
     4.11899328e-01, -6.10790290e-02,  6.69067129e-02, -4.27304357e-02,  2.08582386e-01, -7.29084685e-02, -4.01818842e-01, -8.61301646e-02},
   {-2.68582758e-02, -4.04969379e-02, -3.41758341e-01,  2.86392272e-01, -1.92583978e-01,  2.07682952e-01, -1.29562318e-01, -2.01866776e-01,
     7.04414845e-02, -5.92955053e-01, -8.14427510e-02, -1.47239640e-01, -5.29570580e-01, -1.11935072e-01, -3.77938449e-01, -3.51978876e-02,
     8.36326703e-02,  4.02816348e-02, -3.25582355e-01, -4.61719543e-01,  1.37155829e-02, -8.54861587e-02, -1.91502310e-02, -5.26375556e-03,
     1.59164742e-01, -1.91100419e-01, -5.53430915e-01, -2.98611045e-01, -1.54769242e-01, -1.57072961e-01, -1.03829630e-01, -2.93723494e-01,
    -8.60140920e-02, -4.31956917e-01, -2.05758527e-01, -1.63132429e-01,  8.98434594e-02,  1.91777442e-02, -5.95347047e-01, -1.29972771e-01,
    -3.73734832e-01, -2.15259567e-01, -9.72659290e-02,  1.01933368e-01,  1.91842064e-01,  6.50566220e-02,  6.98229894e-02, -1.95490997e-02,
     6.66619316e-02, -4.71754000e-02, -1.80257455e-01,  7.37492666e-02,  8.76525566e-02, -1.22734793e-02,  7.86966756e-02, -2.15404585e-01,
     2.93629076e-02, -3.66893888e-01, -1.72920093e-01, -1.27909765e-01,  7.07848072e-02, -6.11267865e-01, -2.46912584e-01,  8.74767676e-02},
   {-7.78479618e-04, -4.52043742e-01,  2.11299255e-01,  3.77104551e-01, -3.06235284e-01,  4.35462832e-01,  4.32101190e-01, -1.14346944e-01,
     1.66498780e-01, -1.10482037e-01, -7.67977387e-02, -3.41542751e-01, -8.44504297e-01, -4.25925255e-02,  5.18249087e-02, -1.33677945e-01,
     2.72609554e-02, -4.10455503e-02,  3.76248993e-02,  4.18610573e-01, -3.12551022e-01, -3.26559722e-01, -1.27148107e-01,  5.28123975e-01,
    -1.47955224e-01,  1.12127170e-01, -4.72321481e-01,  1.89188153e-01,  1.63827628e-01, -9.89250988e-02, -8.46254587e-01,  1.42499536e-01,
    -7.27233440e-02, -2.06527725e-01,  5.03085330e-02, -6.46686628e-02,  3.20660993e-02,  2.34708190e-01, -2.03132834e-02, -1.20775446e-01,
    -2.23340213e-01,  3.12959343e-01,  2.48333350e-01, -2.73605473e-02,  3.18186641e-01,  8.04021880e-02,  3.17958504e-01,  4.13920909e-01,
    -1.33859649e-01, -4.67615545e-01,  1.16316624e-01, -4.53113019e-01, -4.08332288e-01,  5.27788401e-01,  5.59293553e-02,  7.56196771e-03,
    -2.00716123e-01, -1.50736988e-01,  3.38208437e-01, -3.49632770e-01,  2.84926385e-01,  4.68639940e-01,  1.71517789e-01, -6.21993184e-01},
   { 1.10739239e-01,  1.81966171e-01, -7.17021763e-01,  9.23391134e-02, -6.74710646e-02,  2.02063307e-01, -3.12643290e-01,  6.87314346e-02,
     1.39708415e-01, -3.11683327e-01,  9.74296406e-02,  2.07470715e-01, -9.43029225e-02,  1.51855797e-01, -1.12986922e-01,  4.73212987e-01,
     1.12819396e-01, -1.31348725e-02, -1.34400651e-01, -6.02529645e-02,  1.22557752e-01,  3.78837258e-01, -1.68294355e-01,  4.39046808e-02,
     7.02935308e-02, -8.71860236e-02,  6.03861928e-01,  4.95969832e-01, -1.91754028e-01,  3.30067337e-01, -3.45037907e-01,  1.55254439e-01,
    -7.46278092e-02,  1.66681483e-02,  1.29895478e-01,  1.78776413e-01, -5.80947936e-01,  1.21106319e-01, -1.14128226e-02, -1.99368656e-01,
    -5.41531026e-01,  1.33390024e-01, -1.59484550e-01,  3.37962598e-01,  1.98070288e-01, -3.70244682e-01, -3.08750808e-01,  6.10698283e-01,
    -7.20916018e-02, -4.71165448e-01,  1.09096713e-01, -2.08209634e-01,  1.43104613e-01,  2.43606836e-01, -3.93431574e-01, -8.83424580e-02,
     1.29652828e-01,  2.05462202e-01,  7.37137571e-02, -5.54991774e-02, -1.59106627e-01, -2.49302909e-01,  4.84267086e-01, -1.74722418e-01},
   { 2.64713407e-01,  7.88079128e-02, -2.88165122e-01,  5.07838503e-02, -9.81558487e-02, -6.09501489e-02,  1.89445436e-01, -2.12571979e-01,
     4.07180429e-01, -3.19838971e-02, -1.56010345e-01, -6.85442984e-01, -4.08587039e-01, -1.71962783e-01, -7.70468593e-01, -1.11339927e-01,
     7.44265199e-01,  8.49049032e-01, -3.01113039e-01, -3.00861746e-01, -1.43432766e-01, -9.49999839e-02,  5.14343619e-01, -7.23083317e-02,
     1.17372654e-01,  9.11980689e-01,  2.02035159e-01, -3.32325697e-01, -8.52446482e-02,  1.56443730e-01,  1.16020568e-01, -1.76465005e-01,
    -8.15872729e-01,  6.24722719e-01, -3.55726965e-02,  1.15809612e-01, -1.03679717e+00,  1.76080614e-01, -1.43871009e+00,  1.51098803e-01,
     2.72937208e-01,  1.37444496e-01, -6.57147467e-01, -1.12796240e-01, -9.21290874e-01, -2.52764910e-01, -2.16711342e-01, -5.26485324e-01,
    -6.37224555e-01, -7.71216899e-02,  1.35111451e-01,  1.15683279e-03, -3.09028447e-01, -3.20881069e-01, -4.45947587e-01, -6.40887380e-01,
    -2.19693080e-01,  3.10428888e-01, -1.66610554e-01,  2.70271171e-02, -5.41596293e-01, -8.51741657e-02, -6.39464438e-01, -3.71730864e-01},
   { 5.35942793e-01, -3.04902762e-01, -2.72078872e-01, -3.58805388e-01,  2.09163144e-01, -3.09941024e-01,  3.82149398e-01,  2.48401016e-02,
     1.44264415e-01,  4.79319245e-01,  3.78817528e-01,  1.78646594e-01, -6.06420375e-02,  9.04969797e-02,  2.84422964e-01,  2.45464802e-01,
    -9.64633405e-01,  2.76290588e-02, -2.59024799e-01,  4.07330871e-01, -4.86760259e-01,  1.36630476e-01, -2.17979446e-01, -7.36086965e-02,
    -3.98901284e-01, -8.65496397e-02,  2.73047745e-01,  1.53206736e-01, -2.76302814e-01,  2.18403623e-01,  4.73917183e-03, -3.47688317e-01,
     2.58180618e-01,  1.55129611e-01,  3.68661135e-01, -3.66879627e-02, -3.89512107e-02, -1.89757481e-01,  2.15430543e-01, -1.99902996e-01,
    -1.98268771e-01,  4.34498787e-02, -1.59621537e-01, -3.04094225e-01, -3.88265103e-01,  7.68959196e-03, -2.08089530e-01,  5.67339212e-02,
    -1.14882449e-02,  6.43576682e-02, -7.89996833e-02, -8.94577950e-02,  6.45727932e-01, -3.64953978e-03, -9.70315114e-02, -6.66718960e-01,
     7.41238594e-01,  2.63410900e-02,  3.05208713e-01, -5.28280437e-02,  3.46420288e-01,  3.51721913e-01,  5.02542555e-01,  2.00280502e-01},
   {-1.38009965e-01, -3.13432872e-01,  8.08350593e-02,  8.44517946e-01,  2.42177814e-01,  1.23110160e-01, -7.29457103e-03, -1.32289574e-01,
    -4.37811524e-01,  6.80945367e-02, -1.53335571e-01,  1.57318071e-01, -3.76017988e-01, -1.12095691e-01, -2.49982148e-01,  4.09001559e-01,
    -3.00265223e-01,  3.57310288e-02, -1.96938679e-01,  2.13943750e-01,  3.00391074e-02,  1.86382800e-01, -4.91942279e-02,  1.51012242e-01,
    -6.63349032e-01, -2.82130502e-02,  2.38387525e-01,  4.33496892e-01,  4.16878372e-01,  1.04307123e-01, -1.00541338e-01,  4.00971860e-01,
    -1.67491615e-01, -1.13828398e-01,  2.41329342e-01, -3.06640789e-02, -1.41184449e-01,  2.44044527e-01, -7.26814419e-02,  1.06397361e-01,
     1.66598141e-01,  3.49473119e-01,  4.01796222e-01,  8.18694159e-02,  6.07126296e-01, -8.83366540e-02, -5.45777380e-02,  9.17257071e-02,
    -2.64902897e-02, -1.20784469e-01,  2.42446110e-01, -4.45289373e-01, -2.16365799e-01,  4.52604681e-01, -7.76650338e-03, -7.42734224e-02,
    -9.17585343e-02,  1.08416090e-02,  2.43101448e-01, -1.75762028e-02, -1.89368173e-01,  6.01447761e-01, -1.30366519e-01,  1.04042821e-01},
   {-5.09299785e-02,  2.78337121e-01,  5.84996581e-01, -2.18946353e-01,  3.49650115e-01, -2.52059728e-01,  1.32530123e-01,  9.42774415e-02,
    -1.45670325e-01, -1.40087903e-01, -6.66920319e-02, -2.57893145e-01, -4.19556707e-01, -2.55218774e-01,  3.87218177e-01, -1.48277849e-01,
     4.11251724e-01,  1.07427791e-01,  2.25329220e-01, -9.34380889e-02,  1.92797437e-01, -4.61678281e-02, -5.84939234e-02, -1.00523546e-01,
     2.17522755e-01, -4.21077851e-03, -1.82140127e-01,  1.31231874e-01,  4.47336495e-01,  1.71265408e-01,  2.22533986e-01, -4.15076554e-01,
     5.71223348e-02,  4.74971421e-02, -6.74622282e-02,  9.35241342e-01,  6.04877397e-02, -2.09173970e-02,  1.87221572e-01, -1.43454030e-01,
    -1.28399253e-01,  1.89093815e-03,  9.74838138e-02, -2.43491709e-01,  5.44790030e-01, -3.53116393e-01,  9.04121101e-02,  5.84859848e-01,
     6.85877129e-02, -9.79060605e-02, -1.22769840e-01,  2.79912561e-01, -1.94449022e-01, -1.11804083e-01,  2.96775363e-02, -1.80462167e-01,
    -1.08148130e-02,  6.04381179e-03, -2.48828605e-01,  1.79331831e-03,  3.25261116e-01,  3.63465577e-01,  3.35083723e-01,  3.46967250e-01},
   { 3.99544500e-02, -7.20084906e-01,  6.20571852e-01,  8.96734297e-02,  6.42626464e-01, -5.75036049e-01, -1.84982717e-02, -1.00373238e-01,
    -9.36778724e-01, -1.31017476e-01, -6.63826525e-01, -9.06488121e-01,  2.05857813e-01,  3.08021992e-01, -1.41556993e-01, -2.54928499e-01,
     2.91154474e-01,  1.34469882e-01, -1.62473679e-01,  2.62901276e-01,  1.05682202e-01, -4.07707125e-01,  2.13832766e-01,  1.29288271e-01,
     7.98205361e-02,  9.90593955e-02, -1.72321007e-01,  1.96797416e-01,  6.39983535e-01, -4.06367093e-01,  4.17222649e-01, -3.14374387e-01,
     4.57629450e-02,  2.14916542e-02,  7.16976583e-01,  4.72547591e-01, -1.05815686e-01,  1.84756443e-01, -3.51461433e-02,  2.74161458e-01,
     4.84454989e-01, -2.37576991e-01,  5.76497793e-01,  8.48032013e-02,  5.53622484e-01, -2.08418116e-01, -1.29657939e-01, -1.33854747e+00,
     1.47086903e-01,  4.10489053e-01,  7.03094840e-01, -1.10848613e-01, -1.64675862e-01,  2.56369431e-02,  5.85731752e-02,  1.72033682e-01,
    -1.77858979e-01, -4.74676609e-01, -9.60251093e-02,  1.34309784e-01,  1.96041167e-03,  2.91355669e-01, -3.01900119e-01, -3.74105990e-01},
   { 1.82763875e-01, -4.95110564e-02, -2.12324217e-01,  6.41164407e-02, -1.52152315e-01,  3.03775184e-02,  4.43454646e-02,  3.03892754e-02,
    -2.06447188e-02, -3.54173928e-02,  8.18039477e-02,  3.88970464e-01, -1.98726863e-01,  2.03887969e-01, -2.48513475e-01,  1.54677555e-01,
    -5.26297629e-01, -1.73630007e-02,  2.70159058e-02, -5.00635028e-01, -2.48200729e-01,  1.19178087e-01,  2.11059581e-02, -1.52264358e-02,
    -1.55318826e-02, -7.94648349e-01,  3.15482646e-01,  2.04623818e-01,  7.90689141e-02, -7.86155686e-02,  8.16453621e-02, -4.40486968e-01,
    -3.16246562e-02, -7.54415318e-02,  1.41238853e-01,  1.75881937e-01, -4.19190899e-02,  6.51648548e-03,  1.29232734e-01, -2.15669870e-01,
    -1.33013368e-01,  8.68599266e-02,  1.39334202e-01,  3.47003639e-02,  3.08855832e-01, -4.10688519e-02, -1.95325404e-01,  6.62831515e-02,
     9.61047709e-02, -5.24007566e-02, -1.67844579e-01, -3.75209264e-02, -1.64100975e-02,  3.21356989e-02,  1.10842019e-01, -3.20120186e-01,
     1.78189892e-02,  2.46159011e-03, -2.14868337e-01, -1.09885037e-01, -2.22525120e-01,  1.50444135e-01,  3.27727944e-01,  2.08345696e-01},
   { 1.36735700e-02, -3.83183688e-01,  9.36967954e-02,  1.57882720e-01, -1.87947765e-01,  5.43895960e-01, -4.71955150e-01,  4.77132387e-03,
    -1.61413819e-01,  3.99911612e-01,  7.56968632e-02,  4.74927872e-01,  4.47770581e-02,  2.90149063e-01, -2.37428978e-01, -3.30169290e-01,
     5.07674873e-01, -1.89379185e-01,  3.26599330e-01,  1.76471397e-01, -6.55078828e-01, -2.26397529e-01,  1.01990268e-01,  1.34307459e-01,
    -4.52801865e-03, -1.57410160e-01, -6.73604488e-01, -7.14315295e-01,  4.13303971e-01, -6.80202961e-01, -1.79047731e-03, -1.32410228e-01,
    -1.53002492e-03,  1.21642470e-01,  1.57335103e-01, -6.30150586e-02, -1.49728790e-01,  1.95757598e-01,  2.65579492e-01, -3.51652384e-01,
     1.17629934e-02,  1.08982623e-02, -3.79481241e-02, -4.63845223e-01, -2.03415975e-02,  4.49795395e-01, -1.62617251e-01,  4.02195230e-02,
    -2.29718238e-02,  2.91239411e-01,  2.74782419e-01, -2.09172443e-01,  6.06239354e-03,  3.68430644e-01, -9.22385678e-02,  4.07995462e-01,
     9.77622628e-01, -4.41489547e-01,  2.59048074e-01, -3.48774344e-01,  3.02990407e-01,  5.80508411e-01, -4.98720258e-01, -4.38255578e-01},
   {-4.28928971e-01,  9.18345526e-02,  2.47074410e-01,  8.73108879e-02, -7.93792680e-02,  9.91975814e-02,  7.32821878e-03, -6.59035444e-02,
    -2.29584455e-01, -5.13998032e-01,  1.27495229e-01, -1.98527113e-01, -1.72334194e-01, -8.75049010e-02, -1.01762861e-01, -2.35660657e-01,
     6.98505938e-02, -1.76554129e-01, -4.09666300e-02,  5.23254097e-01, -2.28196248e-01,  1.31467581e-01,  1.20494239e-01,  8.64505023e-02,
     7.43175820e-02, -2.62976944e-01, -5.14319241e-02, -3.23628247e-01,  1.91933274e-01, -1.18310004e-01, -7.50234574e-02,  4.04805839e-01,
     1.31521940e-01, -3.76269221e-01, -2.33244315e-01, -3.39702159e-01,  6.84152916e-02, -3.84257175e-02, -1.50183722e-01,  1.46825433e-01,
    -5.08507080e-02,  1.24620199e-01,  1.98607475e-01,  1.19398139e-01,  2.84433424e-01,  3.60794775e-02, -2.52347827e-01,  9.10555199e-02,
     1.36394193e-02, -6.68503493e-02,  7.23735541e-02,  1.87394395e-01,  9.53901857e-02, -3.78672510e-01, -1.52785063e-01, -4.07906860e-01,
    -7.77780890e-01, -3.86841863e-01, -1.89149395e-01,  1.66836497e-03, -4.66991700e-02,  3.36508304e-01, -5.41143119e-01,  1.20502315e-01},
   {-1.22925594e-01,  5.06432414e-01,  3.85410309e-01,  2.49399930e-01,  1.95644081e-01,  3.15494776e-01, -6.42217277e-03,  1.85030505e-01,
    -1.12004422e-01, -1.23915263e-01, -1.68759957e-01,  5.75657248e-01,  6.43999994e-01, -4.30361629e-02,  2.72347689e-01, -1.44362926e-01,
     2.42428146e-02,  6.42867982e-02,  1.41600326e-01,  1.41137135e+00,  9.26273540e-02,  1.41139925e-01,  4.70266603e-02, -1.72621325e-01,
    -1.86370075e-01,  2.53566056e-01, -1.94536336e-02,  7.60458410e-02,  8.06871414e-01,  3.09974670e-01, -4.82538939e-01,  5.48946619e-01,
     1.48932040e-01,  2.04159319e-02,  4.94159847e-01, -1.50593042e-01, -3.42671812e-01, -1.17133297e-01,  1.93749517e-01, -1.15968570e-01,
     7.43189529e-02,  2.22679183e-01,  3.10115181e-02, -5.67922071e-02, -3.25873166e-01, -1.49490088e-01, -7.25158006e-02,  8.08325171e-01,
     2.36899871e-02,  2.98454493e-01,  2.76824772e-01,  4.93994132e-02, -3.97295356e-01, -3.14994067e-01, -6.14693910e-02, -3.82948786e-01,
    -1.56681091e-01,  1.78697780e-01, -1.09527186e-01,  3.45355831e-02, -2.02940013e-02, -1.53827876e-01, -6.79924667e-01,  3.17934364e-01},
   {-1.81876332e-01, -3.40166837e-01, -7.83557892e-02, -1.81397513e-01,  2.38894641e-01, -3.23181182e-01, -1.26218781e-01, -1.29724341e-02,
    -3.33930343e-01,  4.56055105e-01,  3.22717398e-01, -6.30530000e-01, -3.81119773e-02,  1.02859862e-01,  4.08839971e-01,  2.33907953e-01,
    -1.27292395e-01, -2.65308507e-02, -3.60568047e-01, -1.53232664e-01,  5.53457551e-02,  2.41122186e-01, -1.05593368e-01, -7.54389092e-02,
    -8.91142152e-03, -3.77959162e-01,  6.49655342e-01,  2.69474089e-01, -4.28485662e-01, -5.23036299e-03, -2.29872599e-01, -1.74167659e-02,
    -5.55421691e-03,  6.78180680e-02, -9.10091549e-02, -5.50731421e-01, -1.73848495e-02, -2.88423926e-01,  1.57920182e-01,  1.16880439e-01,
    -2.58332014e-01,  7.19047114e-02, -3.22422618e-03, -1.23153642e-01, -1.16032377e-01, -2.40096733e-01,  1.78560503e-02, -3.23035300e-01,
    -1.72427416e-01, -4.10876460e-02,  9.88963991e-02, -1.68204710e-01,  5.53678237e-02, -4.59456258e-02, -1.45786628e-01,  2.37425249e-02,
     8.01364258e-02, -7.37031251e-02,  7.07555711e-02,  3.13042030e-02,  2.35676691e-01, -3.93693000e-01, -1.08077504e-01,  4.42321241e-01},
   { 4.31896865e-01, -3.05686053e-02, -4.15918469e-01, -2.55022645e-01,  1.73820630e-01,  2.15365738e-01, -1.30007222e-01, -4.88104448e-02,
    -2.70398539e-02,  6.61390573e-02, -2.15843037e-01,  5.65215275e-02,  4.13151592e-01, -2.44435873e-02, -3.83640826e-01,  1.87253758e-01,
     2.05208641e-02,  1.24273628e-01, -8.54696184e-02, -7.68784881e-01, -2.50298262e-01,  8.83612931e-02, -2.48680621e-01, -3.69713366e-01,
     2.32343040e-02,  6.59848750e-02,  6.78391874e-01, -3.41411293e-01,  7.53933862e-02,  8.95928070e-02, -1.94632038e-02,  2.49488384e-01,
    -6.11755624e-02,  1.48180112e-01, -5.12415394e-02,  7.68532306e-02, -5.34847984e-03,  1.00321054e-01, -1.65303111e-01, -2.17870753e-02,
     7.51503631e-02,  9.01800394e-03,  5.03485166e-02, -2.71075487e-01, -4.19029742e-01, -1.27250537e-01,  4.65132333e-02,  1.16190054e-01,
    -1.14907637e-01, -1.56014740e-01, -6.28452897e-02, -1.84331283e-01, -5.71389943e-02, -1.89455107e-01, -4.57356833e-02, -7.56112784e-02,
     5.55827081e-01, -5.52292466e-02,  1.59700010e-02, -6.72524869e-02, -1.52327850e-01, -2.95365185e-01,  4.71017241e-01,  8.07130694e-01},
   { 5.82185723e-02,  1.14307433e-01, -4.65530843e-01,  4.25409555e-01, -4.11436141e-01, -1.35196120e-01,  3.02048832e-01, -2.67734975e-01,
    -1.93981841e-01, -1.46985933e-01, -4.66980226e-02,  3.55435498e-02,  1.72236860e-01, -4.08090018e-02,  2.61511296e-01,  1.83618050e-02,
    -3.92553747e-01,  3.83528583e-02, -4.10350204e-01,  1.41913623e-01,  1.78650871e-01,  1.23299904e-01, -2.33442798e-01,  1.07836664e-01,
    -5.62762320e-02, -9.46645916e-01, -1.93268582e-02, -3.27005573e-02, -1.25135574e-02, -1.07058048e-01, -9.21657383e-02, -1.99777782e-01,
     4.28069085e-02, -1.13073185e-01, -1.41794339e-01, -4.69959527e-02,  4.96763363e-02, -1.20842524e-01, -1.21280283e-01, -2.82834321e-01,
    -4.77688909e-01, -7.67987594e-02,  1.29570588e-01, -1.04951086e-02, -4.52334732e-01,  5.20059541e-02, -3.00979819e-02,  1.31352201e-01,
     8.88381749e-02, -4.65956420e-01, -5.27011812e-01,  1.87447399e-01, -1.14493333e-01,  1.98410475e-03,  1.83621421e-01, -2.05208167e-01,
    -6.94522336e-02, -4.09683466e-01, -5.22148497e-02, -1.66089237e-01, -1.46530956e-01,  1.70782879e-01,  2.80876577e-01,  1.33716032e-01},
   {-2.47220278e-01, -3.31607133e-01, -1.03580311e-01, -5.11515617e-01,  4.06382710e-01, -5.89801311e-01,  1.69194430e-01, -1.67839259e-01,
     3.91664177e-01,  2.05920681e-01, -4.59777296e-01,  2.29567438e-01, -1.12568401e-01,  1.25013962e-01,  3.18631560e-01,  1.58405881e-02,
    -6.11494601e-01,  2.73437589e-01, -4.99345601e-01, -4.20556456e-01,  3.48455608e-01, -2.69350708e-01, -1.76118482e-02,  2.40563229e-01,
     1.07630394e-01,  5.70792556e-01, -1.79012641e-01, -1.05409729e+00,  1.20987613e-02, -2.31406465e-01, -1.00702427e-01, -4.56327349e-01,
     3.70746367e-02,  7.99770653e-02, -4.90084291e-01, -1.35556519e-01,  1.52179683e-02,  5.27131744e-02,  2.98953205e-02, -3.15788567e-01,
     2.75945336e-01, -4.78750288e-01,  5.51384352e-02, -1.50584117e-01, -1.28228500e-01, -2.11801827e-01, -2.09596679e-01, -4.71652925e-01,
     9.09955725e-02,  2.91397214e-01,  2.60761410e-01,  1.00949578e-01,  2.44878039e-01, -4.52062666e-01,  1.55402586e-01,  1.60631135e-01,
     2.41143331e-01, -1.35447100e-01,  1.07024886e-01,  7.32897818e-02,  3.61184597e-01, -5.39851606e-01,  5.00314236e-01, -1.32008657e-01},
   {-5.10784425e-02,  3.00218850e-01, -1.86989129e-01, -4.34891373e-01, -4.18386906e-02,  1.42563805e-01,  3.46552487e-03,  3.77960205e-02,
     6.72378466e-02,  1.37253284e-01, -9.19706281e-03,  1.40186325e-01, -4.62542623e-01, -7.04279095e-02,  1.57236427e-01, -1.02208890e-01,
    -1.77501678e-01, -1.39105916e-01, -2.88318038e-01, -1.90987065e-01,  3.38708490e-01,  1.58347100e-01, -1.06318571e-01,  1.19747259e-02,
     9.90405455e-02,  3.46069515e-01, -2.62898803e-01, -9.92999449e-02, -3.67194004e-02,  1.00257695e-01,  1.67860106e-01, -7.29933381e-02,
     1.02995262e-02,  1.71296567e-01, -2.34738048e-02,  1.60270333e-01,  6.93494678e-02, -4.59736437e-02,  9.93038863e-02, -2.04866931e-01,
    -1.37579292e-01,  4.70292531e-02, -9.54829231e-02,  2.39462201e-02, -1.06936432e-01, -5.12860902e-02, -1.10196888e-01, -6.31113574e-02,
    -1.51878446e-01,  8.52868110e-02, -5.68010099e-02,  1.08557008e-01,  1.57004923e-01, -3.89296532e-01, -2.16132705e-03,  3.71137746e-02,
    -6.41379803e-02,  1.48213729e-01, -3.47973555e-01,  1.90714300e-01, -7.16706589e-02, -3.13730717e-01,  1.46413624e-01, -2.87388712e-02},
   {-1.86703980e-01,  1.02507316e-01, -3.54463935e-01,  2.77841598e-01, -1.78084567e-01,  1.33899838e-01, -2.17825204e-01,  7.39949755e-03,
     1.76693484e-01, -2.63124764e-01,  6.51037320e-03,  3.15583974e-01, -2.94755429e-01, -1.58346258e-02,  3.78536224e-01,  1.54675514e-01,
    -1.18083153e-02,  1.00781582e-02,  8.40414837e-02,  7.11451054e-01, -6.28694566e-03,  2.80959662e-02, -6.05678074e-02,  6.96947128e-02,
    -4.30501997e-02, -1.15978159e-02, -1.26334980e-01,  3.34436953e-01,  1.69200286e-01,  1.72019035e-01, -2.69396812e-01,  1.51095435e-01,
    -1.02038957e-01, -1.31922811e-01,  1.31305337e-01, -1.62659243e-01, -3.42964113e-01,  1.18864968e-01, -6.76886663e-02,  2.36884639e-01,
    -1.44712374e-01,  2.07925603e-01, -3.04758903e-02,  2.24527180e-01,  1.76482931e-01,  2.10012160e-02,  8.30243975e-02,  3.98439288e-01,
    -7.33035356e-02, -1.00446992e-01, -2.46939525e-01,  2.13738039e-01, -4.93209302e-01,  3.15999091e-01,  1.09014325e-01, -2.97351539e-01,
    -1.00553119e+00,  1.05352819e-01, -2.61087954e-01,  1.76864520e-01, -9.50824469e-02, -1.42047834e-02, -6.39792308e-02, -8.18746746e-01},
   { 2.66483333e-02, -2.74605490e-02, -1.24123143e-02, -8.68257135e-02,  1.96250707e-01, -5.44995964e-01,  1.12447828e-01,  3.24838400e-01,
    -3.69207531e-01,  3.00169110e-01,  2.38446057e-01, -2.80358791e-01,  9.83819440e-02, -3.98297966e-01,  3.82322401e-01, -3.72230619e-01,
     2.82994002e-01,  1.20587789e-01, -4.55402918e-02, -8.43165889e-02, -4.83633280e-02,  2.61047453e-01,  2.15929491e-03,  1.61402792e-01,
    -6.93209916e-02,  6.84233084e-02,  6.76811159e-01,  1.77037343e-01, -1.86914727e-01,  1.13029279e-01,  3.23145181e-01, -3.56706411e-01,
    -2.79839247e-01,  3.59550655e-01, -1.32569790e-01,  4.97885644e-02, -3.59968156e-01, -1.26822934e-01,  3.05744588e-01,  1.38933644e-01,
    -6.91294447e-02,  4.69479591e-01,  1.54352456e-01, -4.65317845e-01, -2.41176262e-01, -3.44392896e-01, -2.36029718e-02, -9.73682523e-01,
     5.59818596e-02, -2.61984378e-01,  1.50340855e-01, -1.58894539e-01, -1.43708840e-01,  3.28939438e-01, -2.26305783e-01,  5.14415622e-01,
     2.25145936e-01,  2.58434534e-01,  5.48349917e-01,  2.32039973e-01,  1.22902766e-02,  2.42422536e-01, -3.99127364e-01,  2.04971246e-02},
};

const float GRNN1_U[32][32] = {
   { 1.21195936e+00, -4.00460005e-01,  1.08946311e+00,  9.39201474e-01, -7.72889435e-01,  6.73978567e-01,  1.51404631e+00, -9.44673046e-02,
     1.85530293e+00, -6.23043895e-01, -4.58823860e-01, -9.35372710e-03,  4.94218141e-01, -1.78463235e-01,  4.83268827e-01, -1.35209590e-01,
    -2.00043035e+00, -6.65410906e-02, -4.71595585e-01, -9.72730100e-01,  8.28405023e-01, -4.02261049e-01, -5.28944433e-01, -1.55126706e-01,
     3.07602257e-01, -7.82918632e-02,  3.69955152e-01,  4.27223414e-01,  5.57035990e-02, -2.96137333e-01, -1.03903103e+00, -4.45429802e-01},
   { 1.27065897e+00, -3.62182319e-01,  1.00566529e-01, -3.11080098e-01,  2.26049781e-01,  6.21431768e-01,  2.56583154e-01,  3.09652358e-01,
    -7.02072307e-02, -8.61459225e-02,  7.09076226e-01, -7.20798850e-01,  2.33639628e-01, -4.35468733e-01,  7.16513172e-02, -4.93517220e-02,
     3.33269052e-02,  2.26223066e-01, -9.52180088e-01, -1.25993207e-01, -1.97270155e-01, -4.79714684e-02,  3.10263008e-01, -4.34193155e-03,
    -2.50383466e-01,  1.45860717e-01, -7.00897396e-01,  2.09798235e-02, -8.06440771e-01,  1.42447963e-01, -3.83430988e-01,  1.03358376e+00},
   { 5.66570401e-01, -4.61839020e-01, -3.62124324e-01,  2.18787596e-01, -7.14316487e-01, -1.09607923e+00, -4.63861376e-01, -3.47667664e-01,
     8.93131912e-01,  7.31261730e-01,  2.49622643e-01,  8.23503196e-01, -1.80083349e-01,  9.60380659e-02,  6.15686655e-01, -6.55443311e-01,
     4.82392460e-01,  1.82840303e-01,  5.49488127e-01, -3.09889972e-01, -1.04829872e+00,  9.97171402e-02, -1.06821561e+00, -2.02697009e-01,
     3.16013902e-01,  3.52754414e-01, -2.61023432e-01,  2.82730252e-01, -1.38564062e+00, -2.72850186e-01,  3.54341447e-01,  2.34403715e-01},
   { 3.10418069e-01,  4.34286177e-01,  7.01989830e-02, -7.23996818e-01,  3.40290099e-01, -6.09863341e-01,  1.09379029e+00,  5.46267107e-02,
    -1.92617670e-01,  4.80341315e-01,  6.56338215e-01,  1.86058760e-01, -6.07603490e-01, -9.61970910e-03, -1.19500399e+00,  4.92317438e-01,
     2.28282720e-01, -1.34789670e+00, -6.53989553e-01, -5.08672521e-02, -3.13497126e-01,  1.83685645e-02, -1.21505630e+00,  4.11968023e-01,
    -5.80803931e-01,  1.38619632e-01, -7.49919713e-01,  6.11523166e-02,  2.06138420e+00,  7.68538099e-03,  3.68919075e-01,  8.76476541e-02},
   { 3.64445925e-01,  6.50263488e-01,  6.62827611e-01, -6.69086218e-01, -1.76858783e-01, -2.29428932e-01,  3.39177698e-01,  3.77906889e-01,
     3.54355991e-01, -6.67256832e-01, -1.14990942e-01, -2.24853188e-01, -4.31327969e-02, -3.40476334e-01, -4.47002560e-01,  6.46718085e-01,
     5.42966783e-01, -3.28904867e-01,  3.01219583e-01,  5.86308772e-03, -2.53718883e-01,  3.87782268e-02, -4.47863430e-01,  6.24113195e-02,
     1.49952099e-01, -2.45922446e-01,  1.82942271e-01, -1.05549894e-01,  2.47521490e-01, -3.36254746e-01,  5.40983140e-01, -6.40958846e-01},
   { 1.80205449e-01, -5.11931658e-01,  8.61651182e-01,  7.43540049e-01,  4.95088756e-01, -9.92068827e-01, -1.13691986e-01, -2.03168228e-01,
    -2.31802121e-01,  1.37274295e-01, -1.31800417e-02,  1.38397798e-01, -3.11567903e-01,  1.40855566e-01, -2.71890108e-02,  4.30846632e-01,
     2.46616766e-01, -1.33538246e+00, -5.25720060e-01, -2.36123358e-03,  4.60697711e-01, -4.29329097e-01,  9.02963102e-01, -1.83931291e-01,
     2.23626420e-02, -7.08079636e-01,  3.75170916e-01, -7.26375103e-01,  5.51837742e-01, -4.43223864e-01, -3.22306633e-01, -7.63209462e-01},
   {-1.96139157e-01, -7.90646449e-02,  1.02704489e+00,  5.05165815e-01,  1.39727092e+00, -8.59692842e-02,  1.19366527e+00, -2.97118902e-01,
    -2.28034711e+00, -1.34557259e+00,  2.41436716e-02, -6.49233222e-01,  2.74101682e-02,  1.44463688e-01,  2.05486313e-01,  6.24452829e-01,
    -3.16158032e+00, -2.15295181e-01,  9.32440162e-01, -1.19246829e+00,  8.45435560e-01,  4.59758520e-01, -4.87241864e-01, -7.95890093e-01,
    -8.23887169e-01,  1.26044035e+00, -5.56507289e-01,  6.06018268e-02,  7.60476053e-01, -9.72742558e-01, -7.11901605e-01,  3.37981761e-01},
   { 1.14548349e+00,  3.18155834e-03,  5.40729105e-01,  7.30807558e-02,  8.56504291e-02,  3.78189832e-02, -4.27551866e-01,  4.96935606e-01,
     2.64109284e-01, -3.66290212e-01,  3.93967092e-01, -4.56222951e-01, -1.34714961e-01, -3.66942510e-02, -6.98700726e-01, -2.65432179e-01,
    -2.36128420e-02,  1.32856712e-01,  6.60009086e-01, -1.61832124e-02, -1.00903034e+00,  7.22392142e-01, -4.78135571e-02,  3.95513743e-01,
    -1.29404692e-02,  6.65664017e-01, -3.26169074e-01,  2.11021349e-01, -9.45665240e-01, -3.86938483e-01,  4.02353704e-01,  3.38297099e-01},
   { 1.53874278e+00,  7.22390115e-01, -3.92299980e-01, -3.58684249e-02, -5.18901527e-01, -3.14033926e-01,  3.22656065e-01,  3.48943502e-01,
    -6.60607457e-01, -5.95968008e-01,  8.18814039e-01,  6.93002045e-01, -4.15495187e-01,  4.94151145e-01, -3.91913146e-01,  7.88424984e-02,
     3.14549565e+00, -3.73877138e-01,  4.64698315e-01,  8.10842961e-02,  9.69893113e-02,  2.91410685e-01,  2.00406030e-01, -9.81496796e-02,
    -1.41675040e-01, -9.30443525e-01, -2.84228891e-01, -1.34814095e+00,  2.91071177e-01, -1.94197908e-01,  4.98093843e-01,  3.30048293e-01},
   { 5.05128622e-01, -4.26861197e-01,  8.59235942e-01, -3.27498317e-01,  1.51868343e-01,  5.43705702e-01,  4.07107741e-01, -1.08065534e+00,
     8.00589979e-01, -2.36352587e+00, -1.03004289e+00,  8.27042609e-02, -1.03263915e-01,  1.51439235e-01, -6.81894779e-01, -3.42987269e-01,
     1.79119170e-01,  1.47288668e+00,  4.87302989e-02,  7.86877096e-01,  2.39038579e-02, -5.79803586e-01,  1.46943617e+00,  3.23944241e-01,
     4.86733228e-01,  4.46550921e-02,  2.08999645e-02, -4.52929527e-01,  8.96956325e-01,  6.10455751e-01, -7.91196942e-01, -1.43037617e-01},
   {-7.24772066e-02, -1.00035392e-01, -5.96633911e-01, -2.90207893e-01,  3.29918355e-01,  2.86171168e-01,  1.08189702e+00, -1.64170697e-01,
    -1.91982999e-01, -4.87678796e-01, -1.28099144e+00, -1.03937018e+00, -4.99278270e-02, -2.46817291e-01, -2.01028259e-03, -2.02751771e-01,
     3.61393929e-01,  4.46722537e-01, -9.96554434e-01,  1.43526733e-01, -2.13050306e-01,  6.73221827e-01,  6.49345100e-01,  7.06349611e-01,
    -4.17469442e-01,  7.98189104e-01,  8.38342234e-02,  1.19417810e+00, -6.67029858e-01,  2.53694415e-01, -2.74532318e-01,  9.26656842e-01},
   {-3.71369004e-01,  8.79409850e-01, -3.20890009e-01,  5.01212180e-01,  8.17730248e-01, -2.36469328e-01,  6.56048238e-01,  2.59907655e-02,
    -1.80378944e-01, -9.54202116e-01,  1.14685580e-01, -5.65664470e-02,  3.73210788e-01,  3.90469581e-01, -4.59650010e-01,  4.64360088e-01,
     1.59106955e-01,  2.30224561e-02, -5.33560663e-02, -1.25264838e-01, -4.20448393e-01,  3.36263865e-01,  6.41914368e-01, -5.46295881e-01,
     4.66078490e-01, -4.49483514e-01, -4.55787122e-01,  1.05102941e-01, -2.34686062e-01, -6.92625046e-01,  4.18234140e-01, -6.22122347e-01},
   { 1.21690607e+00, -7.19489992e-01,  1.06836271e+00, -1.61700711e-01, -8.07924848e-03,  3.44386369e-01,  5.33145368e-01, -4.79296625e-01,
    -3.46233189e-01, -1.41575027e+00,  1.22580580e-01,  7.64389753e-01, -4.83963072e-01,  1.37047425e-01,  4.80303138e-01, -5.39326966e-01,
     4.29917336e-01,  1.25691366e+00,  8.53419185e-01,  1.36631757e-01, -7.53129661e-01,  1.48955870e+00, -2.62342542e-01, -1.85065597e-01,
     8.26834202e-01,  2.82794118e-01,  2.01652914e-01,  1.77094325e-01, -7.62939095e-01,  3.26212257e-01,  4.25367802e-01,  5.57163417e-01},
   { 1.14747298e+00, -3.59811455e-01,  2.85222352e-01, -6.82074487e-01, -3.04644424e-02,  2.79483706e-01, -4.32744175e-01,  1.59880832e-01,
    -2.79653758e-01,  1.19480319e-01, -8.09713304e-01, -5.30736940e-03, -5.63068807e-01, -2.74957716e-01,  1.43418968e+00, -2.82665402e-01,
     3.19978505e-01, -1.61108351e+00,  1.57095015e+00,  5.63239157e-01,  5.93515873e-01, -7.04180449e-02, -2.28390303e-02, -1.10279024e-01,
    -3.94887120e-01, -2.01869771e-01,  5.23689330e-01, -5.29694736e-01,  1.25459000e-01,  1.48623362e-01, -2.43071571e-01, -3.96536231e-01},
   { 3.31860900e-01, -2.90078640e-01,  5.75668454e-01, -7.96642423e-01,  6.33710444e-01, -9.65143025e-01, -3.23292524e-01, -6.28094614e-01,
     2.91960388e-01, -4.36135441e-01,  8.73857796e-01,  2.41986811e-01, -3.72030854e-01, -1.55376866e-01, -1.01701295e+00,  5.96861601e-01,
     1.01916187e-01,  7.80138820e-02, -3.96833390e-01, -6.01695001e-01, -4.14748490e-01,  1.74557552e-01,  6.53500259e-01, -9.04430687e-01,
     7.02199459e-01,  1.12003720e+00,  9.13944066e-01, -1.32500812e-01,  4.61458594e-01,  3.43482718e-02, -6.27554059e-01,  4.11027491e-01},
   { 1.00232375e+00,  4.28582251e-01,  4.32344407e-01, -1.46923900e-01,  2.00308502e-01,  1.47832900e-01,  4.21760589e-01,  2.20588490e-01,
    -5.72009921e-01,  7.41660058e-01,  1.93857476e-01, -1.51813343e-01, -5.03747463e-01,  8.19356203e-01,  1.30968356e+00, -8.08182001e-01,
    -8.59470814e-02,  3.52498561e-01, -3.26325834e-01,  6.08097434e-01, -5.65208904e-02,  2.73458809e-01,  2.10093066e-01, -6.96099341e-01,
    -2.78444439e-01, -6.13760054e-01, -4.80206728e-01, -8.57558101e-02, -6.05686843e-01, -8.49000439e-02, -2.16873631e-01, -7.68946111e-01},
   {-4.54948813e-01, -2.77695715e-01, -7.93095410e-01,  2.02472508e-01,  3.77248555e-01,  3.08936894e-01,  7.41890073e-01, -6.83887722e-03,
    -1.45511830e+00,  9.43596959e-01, -5.72390258e-01, -6.19576514e-01, -3.27412486e+00,  9.65386406e-02, -3.63382012e-01, -5.10267057e-02,
     1.53920972e+00, -3.82582210e-02, -5.34104347e-01,  2.21406579e+00, -7.00495124e-01, -9.01692271e-01, -7.74836764e-02, -1.72135364e-02,
    -5.66092134e-01,  6.79953754e-01,  2.40998879e-01,  5.52451946e-02,  9.64021444e-01, -5.69839418e-01, -2.28303626e-01, -1.30235851e+00},
   { 1.50708354e+00,  4.45227593e-01,  1.09635115e-01, -3.63910235e-02, -3.40542912e-01,  9.11298513e-01,  4.78542298e-01, -6.79768622e-01,
     4.62547213e-01, -1.54558980e+00, -9.57624495e-01,  7.08277106e-01, -3.77658784e-01, -3.87720734e-01, -3.54311407e-01, -3.20075363e-01,
    -3.42041366e-02,  2.95500338e-01,  5.47019728e-02,  5.92095017e-01,  4.91376579e-01, -7.46912301e-01, -4.45102394e-01, -3.62736136e-01,
     6.14072204e-01, -3.97565514e-01, -6.36088848e-01,  6.95889965e-02, -7.57548630e-01,  3.67997810e-02, -1.35791982e-02,  5.01176476e-01},
   {-1.08946264e+00, -9.19358246e-03, -9.86357257e-02,  1.10118814e-01, -2.70115972e-01, -4.19643134e-01, -6.92557752e-01, -1.11761272e+00,
     1.47768170e-01, -7.87811518e-01,  3.75867039e-01,  8.12100947e-01,  3.08343917e-01,  2.06636682e-01,  3.43637735e-01, -3.61954033e-01,
    -6.65931165e-01,  5.49306236e-02, -4.03161645e-01, -1.33528754e-01, -4.11205769e-01, -3.20233941e-01,  1.28810883e+00, -1.96365416e-01,
     1.83949143e-01,  7.31061339e-01,  5.19026458e-01,  2.42497683e-01, -2.13098243e-01, -2.03887239e-01, -3.24679792e-01,  8.82207334e-01},
   {-5.25731683e-01, -2.25194588e-01, -1.17914760e+00, -1.07049294e-01,  2.96988100e-01,  9.39908266e-01, -3.12193781e-01,  3.00684683e-02,
    -2.19645016e-02, -1.25977123e+00, -5.85183799e-01, -3.79078486e-03,  4.81968284e-01, -7.02434257e-02,  6.16900921e-01,  2.97075361e-01,
     5.19768238e-01,  7.88780928e-01,  2.94247299e-01, -9.08383787e-01,  8.34795952e-01,  1.39325297e+00,  1.07391834e+00,  3.84014606e-01,
     1.32711470e-01, -3.37971151e-02,  2.07114220e-01,  9.21031833e-02, -2.03622490e-01,  4.91964594e-02, -6.74496710e-01, -2.89312154e-01},
   {-1.57509875e+00,  2.74458140e-01, -7.69835591e-01,  9.23344120e-02,  1.24758220e+00, -4.42011327e-01,  2.70228297e-01, -4.41083193e-01,
    -3.74792188e-01,  2.09681597e-02, -2.69451022e-01,  1.61642686e-01,  7.46445239e-01,  1.78463515e-02, -7.42142916e-01,  1.16395772e+00,
     4.83571738e-01,  2.03489006e-01,  9.26020682e-01, -9.27052081e-01, -9.20344532e-01,  2.07366228e-01,  9.61615801e-01,  1.04716584e-01,
     6.83422461e-02,  1.06623799e-01,  7.54148602e-01, -8.62965286e-01, -1.13426343e-01,  2.08908901e-01,  3.60065073e-01, -1.59915686e-01},
   {-5.84757507e-01,  5.25167622e-02, -1.03681135e+00, -6.17088974e-01, -4.66145813e-01,  2.75373816e-01, -7.27375090e-01,  7.46972933e-02,
     3.29525530e-01, -6.68523192e-01, -3.02473813e-01, -1.23280443e-01, -1.01468347e-01, -4.41145897e-01, -2.55440235e-01, -2.64411479e-01,
    -2.46652529e-01,  1.37996510e-01,  5.80286980e-01,  3.81114483e-02,  1.03749454e-01,  3.25246453e-01, -1.66784272e-01, -1.85848355e-01,
     3.99563998e-01,  3.28909606e-02, -4.81149852e-01, -3.34749490e-01, -5.08413196e-01,  3.34574163e-01,  1.14899777e-01,  4.01347667e-01},
   { 6.26974344e-01,  5.37196398e-01, -1.20484591e-01, -4.81507957e-01,  5.29503226e-01, -6.49085781e-03, -3.18152189e-01,  2.65065849e-01,
     6.18891239e-01, -1.29820267e-02,  1.92747071e-01, -3.35933357e-01,  4.23576027e-01, -3.62551749e-01, -5.28130949e-01,  2.21860632e-01,
     5.71428955e-01,  6.15984201e-01, -1.19941044e+00, -3.53556216e-01,  2.92048633e-01,  7.28108346e-01, -8.89353514e-01, -2.89297491e-01,
     6.11754358e-01, -3.14346015e-01,  9.62846458e-01, -4.73890275e-01,  1.62395034e-02,  2.60219090e-02, -2.05466092e-01, -2.03979328e-01},
   {-2.79341131e-01,  9.54917222e-02, -7.48847306e-01,  1.37810364e-01,  3.30979317e-01, -5.06073058e-01, -2.16376379e-01, -5.44215560e-01,
    -7.98332468e-02, -6.53884947e-01,  2.38459140e-01,  1.59943238e-01, -2.61957079e-01, -3.15314204e-01, -5.28794169e-01,  5.97700059e-01,
    -8.32698643e-02, -7.76389420e-01,  8.38090658e-01,  2.78587759e-01,  6.05931692e-02, -1.12565823e-01,  4.43752617e-01, -3.84616256e-02,
    -7.72244394e-01, -9.50448439e-02,  4.45257664e-01, -2.99850404e-01,  4.94181007e-01, -7.04164207e-01,  1.24384034e-02,  1.12717664e+00},
   { 9.69710767e-01,  3.43546063e-01,  3.03734034e-01,  1.40854523e-01, -3.54031026e-01,  5.46131372e-01,  8.91944766e-01,  3.18407476e-01,
    -3.60888809e-01, -8.33927915e-02, -3.20852458e-01, -6.25131786e-01,  5.26459366e-02, -1.32786423e-01, -1.04539268e-01, -9.87740606e-02,
    -1.05695605e-01, -9.44941700e-01,  1.55248404e-01,  3.95212434e-02,  4.70025271e-01, -2.75515258e-01, -1.86175257e-01,  2.41711825e-01,
    -8.10174167e-01, -4.55232918e-01, -2.57317424e-01,  2.67685321e-03, -4.12083566e-01, -5.72692871e-01, -2.27149948e-01, -5.97409964e-01},
   { 6.95219278e-01,  6.39846995e-02, -6.76258206e-02,  2.54797399e-01, -2.30811816e-02, -3.09613943e-02,  2.97828585e-01, -1.31035045e-01,
    -3.91802713e-02, -1.39237082e+00, -1.76872119e-01,  7.64474154e-01, -6.17153406e-01, -3.89958918e-02, -5.93116283e-01,  4.54412341e-01,
    -1.81177240e-02,  5.45889735e-01,  2.62986213e-01,  8.69306266e-01, -2.35050172e-01, -6.56009674e-01, -1.31218016e+00, -1.43112555e-01,
     1.60810724e-02, -1.16350782e+00, -9.81488049e-01, -2.91561604e-01,  1.35120606e+00,  3.13076884e-01, -2.73391724e-01,  3.69022131e-01},
   { 2.85487115e-01,  2.35535726e-01,  4.71909791e-01,  4.95849289e-02, -8.91568840e-01, -5.91317043e-02,  7.22120166e-01,  2.67432451e-01,
    -1.20898567e-01, -2.88163442e-02, -1.34636074e-01,  2.78335195e-02,  9.75326728e-03,  1.50045633e-01,  1.62884474e-01, -3.65529925e-01,
    -1.54758871e-01,  8.76597345e-01, -5.27115203e-02,  1.02597766e-01, -2.05957904e-01, -2.58352607e-01, -7.85850167e-01, -4.76846635e-01,
     1.39250651e-01,  2.07707107e-01, -1.19265389e+00,  5.19263268e-01,  1.40266065e-02,  1.97071657e-01,  4.73037511e-01,  2.42498517e-02},
   { 4.89515275e-01,  2.74352849e-01,  7.72159457e-01, -1.72698498e-01, -6.21945560e-02,  1.99049070e-01, -8.64814073e-02,  5.61826229e-01,
     7.33527780e-01,  2.08078086e-01,  6.34921253e-01, -4.80321705e-01, -1.48362309e-01, -4.06902552e-01,  5.10565877e-01, -2.05797106e-02,
     3.09520394e-01,  7.00639844e-01, -5.95710814e-01, -2.50008076e-01, -4.86409426e-01, -2.58912116e-01, -5.39830685e-01, -2.00892285e-01,
     4.93598640e-01,  2.53200114e-01, -2.20643312e-01, -1.20314157e+00, -1.76537633e+00, -5.31360544e-02, -1.63116306e-01,  6.58836067e-01},
   { 3.00287604e-01, -4.06078756e-01,  7.08705008e-01, -4.61630255e-01,  7.38783300e-01, -2.15847284e-01,  4.76582229e-01, -9.59638298e-01,
     3.56091231e-01, -5.06135046e-01,  8.03423405e-01,  7.68111944e-01,  1.35393605e-01, -8.21346939e-01, -1.92073059e+00,  7.80738354e-01,
     1.25314683e-01, -7.54172206e-01,  1.13374576e-01, -1.88145727e-01, -2.35130668e-01, -1.44021809e-01, -1.02256823e+00, -9.24689788e-03,
     3.86552989e-01, -4.60607335e-02, -3.51605266e-01, -7.70542920e-01, -1.06658980e-01,  2.76414782e-01,  1.09400403e+00,  4.06926483e-01},
   {-1.64346963e-01,  2.00989708e-01, -5.29992223e-01, -1.10612430e-01,  5.84548891e-01,  4.74655420e-01,  2.12149918e-02,  1.52110249e-01,
     2.42521659e-01,  1.35028921e-02, -1.37418583e-01, -6.75107241e-01,  1.06725521e-01, -3.51393938e-01, -1.18835962e+00,  2.55857199e-01,
     3.08715343e-01,  1.68103695e-01, -1.25653577e+00, -1.80757493e-02, -8.15650597e-02, -9.58630219e-02, -1.87442020e-01, -5.64755872e-02,
    -3.04477699e-02,  2.00473428e-01, -6.30385935e-01,  5.88545680e-01,  9.87313926e-01, -4.13872421e-01,  4.95902032e-01,  1.26044124e-01},
   {-4.05789167e-01,  7.22015053e-02,  9.98594891e-03, -2.84919366e-02, -5.15204906e-01,  1.50454178e-01, -6.98249757e-01,  1.57009169e-01,
    -1.46661669e-01,  1.99484155e-01, -3.70013326e-01, -6.01887345e-01,  8.17559659e-01, -1.34586230e-01, -5.15342653e-01, -2.99371451e-01,
     2.10167006e-01,  1.46399200e+00,  5.71395218e-01, -7.16553777e-02,  7.72409081e-01,  1.68280706e-01, -1.09688640e+00, -3.42843264e-01,
     2.22794101e-01,  3.32673669e-01, -2.96131964e-03, -1.66879091e-02,  3.12312245e+00, -1.43881857e-01, -8.14471006e-01, -2.52379745e-01},
   {-1.40500337e-01, -6.62294328e-01,  7.51072347e-01,  2.13124901e-01, -9.14989412e-01,  5.56300581e-01,  8.22876632e-01,  4.13149297e-01,
    -4.96272802e-01, -7.35321119e-02,  6.63258076e-01, -2.14728802e-01,  3.83673936e-01,  3.92922878e-01, -3.01269114e-01, -1.78431824e-01,
    -1.38870254e-01,  7.53907487e-02,  2.84758687e-01, -8.99799243e-02,  1.91268086e+00, -8.47917125e-02, -1.91326007e-01, -7.97560155e-01,
    -1.28494278e-01, -8.29987109e-01, -4.40054536e-01, -5.46594024e-01, -3.33539397e-01,  3.92524838e-01, -3.47237408e-01, -1.30776489e+00},
};

// clang-format on


#endif // __FASTGRNN_GRNN1_PARAMS__

