#ifndef __FASTGRNN_GRNN0_PARAMS__
#define __FASTGRNN_GRNN0_PARAMS__

#define GRNN0_HIDD_DIM0 (32)
#define GRNN0_HIDD_DIM1 (64)

// clang-format off

const float GRNN0_ZETA = (-9.671936e-01);
const float GRNN0_NU = (-4.935390e+00);

const float GRNN0_BIAS_UPDATE[64] = 
   { 2.07725549e+00,  1.77153957e+00,  9.03215945e-01,  1.91342545e+00,  1.47678113e+00,  4.44950759e-01,  3.97715831e+00,  1.93853128e+00,
     1.43845510e+00,  1.89811444e+00,  1.67896080e+00,  3.01844120e+00,  1.84008026e+00,  1.88718960e-01,  2.77632833e-01,  1.91171259e-01,
     3.61747384e-01,  8.33759069e-01,  1.90416825e+00, -5.24454772e-01,  1.14916742e+00,  2.12372541e+00,  1.72354293e+00,  8.07941556e-01,
     1.43290329e+00,  6.81235969e-01,  2.05613065e+00,  1.30679619e+00,  3.19150186e+00,  1.28825259e+00,  1.38914478e+00,  1.06114876e+00,
     2.65748501e+00,  5.48891723e-01,  2.70300221e+00,  2.65433455e+00,  8.72835040e-01,  1.72840273e+00,  1.84506392e+00,  2.37845016e+00,
     1.56267929e+00,  1.10443544e+00,  1.36162090e+00,  1.74281764e+00,  1.13743436e+00,  2.03620911e+00,  2.09943891e-01,  2.40143919e+00,
     4.07593518e-01,  1.58460093e+00,  2.97481370e+00,  3.56558108e+00,  2.83582091e+00,  1.19560254e+00,  1.97854900e+00, -9.24613848e-02,
     1.01651919e+00, -1.64874363e+00,  1.64220214e-01,  1.23455858e+00,  4.45514500e-01,  2.71933174e+00,  1.44852579e+00,  7.13851750e-01};

const float GRNN0_BIAS_GATE[64] = 
   { 3.07695675e+00,  4.53832340e+00,  3.11011171e+00,  4.45487928e+00,  1.57042646e+00,  4.14139271e+00,  6.71881008e+00,  2.24801826e+00,
     4.36459875e+00,  1.88627982e+00,  7.10999060e+00,  2.65748191e+00,  2.30719376e+00, -1.02236485e+00,  6.00887203e+00,  3.55568480e+00,
     5.80528069e+00,  4.93452215e+00,  4.08457947e+00,  1.68325472e+00,  4.66683805e-01,  1.16143739e+00,  5.00418282e+00,  1.41780353e+00,
     1.73232853e+00,  3.34317708e+00, -2.91396952e+00,  9.48442221e-02,  1.77708864e+00,  2.98363304e+00,  6.30935049e+00,  3.90979362e+00,
     3.60442328e+00,  4.43366861e+00,  5.20392847e+00,  1.30295634e+00,  1.57010329e+00,  3.84141850e+00,  2.40220666e+00,  6.17897224e+00,
     6.42176867e+00,  5.50634098e+00,  4.11304045e+00,  4.45835781e+00,  1.05707777e+00,  3.64256191e+00,  1.73720753e+00,  3.20143151e+00,
     3.13089871e+00,  4.04707766e+00,  5.70637751e+00,  4.06154633e+00,  8.10414219e+00,  1.62147677e+00,  9.58291054e-01,  4.85870552e+00,
     5.63229609e+00, -1.05898643e+00,  5.68212318e+00,  3.17389870e+00,  2.44313526e+00,  1.57929587e+00,  2.42961240e+00,  2.76846385e+00};

const float GRNN0_W[64][32] = {
   {-3.43941748e-01, -1.64104179e-01,  2.42021367e-01,  4.99642223e-01,  3.22744191e-01, -2.85073638e-01, -2.68241525e-01, -1.83033034e-01,
     4.27027345e-01,  5.98836064e-01,  1.24733374e-01, -4.33036119e-01, -8.75201076e-02, -2.86672056e-01, -1.77336141e-01,  7.59229064e-01,
     5.87047786e-02, -3.77174020e-02, -5.18157244e-01,  8.80059749e-02,  4.77525070e-02,  1.88026652e-01, -3.59184265e-01,  9.11240876e-02,
    -6.76945597e-03,  1.70353100e-01, -1.42548010e-01, -1.60848703e-02, -5.44852376e-01,  6.33976281e-01, -1.53464222e+00,  5.10567951e+00},
   {-1.01548977e-01, -3.60924125e-01, -1.95619062e-01, -6.42732441e-01, -6.00659177e-02, -8.45066667e-01, -4.07815397e-01, -7.47807860e-01,
    -4.25756395e-01,  9.68488827e-02, -7.22759366e-02, -2.82778829e-01, -3.28272343e-01, -3.48037064e-01, -3.52429837e-01, -1.74113080e-01,
    -9.44652930e-02, -2.66803661e-04, -1.77609801e-01, -1.61500394e+00,  9.21419710e-02,  2.28546724e-01, -3.31851929e-01,  3.32587600e-01,
    -1.83958605e-01,  2.00023782e-03,  2.10340947e-01,  1.60426989e-01,  3.73666167e-01,  5.53358853e-01, -3.77166033e-01,  4.99391586e-01},
   { 4.04264569e-01, -9.30820644e-01, -1.23579693e+00, -8.15397322e-01,  5.70674300e-01,  1.04382992e+00,  7.44228363e-01,  2.27418914e-01,
    -1.85696349e-01, -2.86790609e-01, -5.92838407e-01, -2.71415319e-02,  4.77798954e-02,  4.14607637e-02, -1.36035964e-01,  1.31139696e-01,
     1.69411346e-01,  3.82047566e-03, -2.81237930e-01,  6.97801933e-02,  1.23529702e-01,  3.49420130e-01, -2.18886107e-01,  2.41959691e-01,
    -2.27742530e-02, -2.79163241e-01,  3.29579502e-01, -2.78648347e-01,  6.13028742e-02, -1.28034353e-01,  3.81930202e-01, -3.25519800e-01},
   {-2.28724226e-01,  7.56975234e-01,  2.85347551e-01, -6.91801429e-01, -1.05920494e+00, -6.19887531e-01,  4.15021002e-01,  1.33119178e+00,
     8.01461637e-01,  3.38938236e-01,  1.01072538e+00,  1.15344334e+00,  1.06531870e+00,  9.84994352e-01, -1.29412385e-02,  3.04576099e-01,
    -3.91124010e-01, -1.03556335e-01, -2.87397146e-01, -6.80151641e-01, -3.47456157e-01, -3.52163851e-01, -8.97564530e-01, -2.68879812e-02,
     9.00326297e-02,  1.16080381e-01,  4.51815277e-01, -2.26648495e-01, -9.36505944e-03, -1.87547877e-01,  1.32344437e+00, -7.11858630e-01},
   { 5.30231334e-02, -1.48072612e+00, -5.10434806e-01,  1.12362221e-01,  9.44141112e-03,  1.94803048e-02,  1.04042459e+00,  1.41767728e+00,
     9.91126597e-01,  1.05359769e+00,  2.57841885e-01, -2.28927091e-01, -7.97494769e-01,  6.97274432e-02, -1.20123313e-03, -5.20060072e-03,
    -6.40836298e-01, -1.06235087e+00, -1.98513746e-01,  2.67451614e-01, -5.41924462e-02, -1.30726263e-01, -3.33104245e-02, -4.14139181e-01,
     3.82300973e-01,  4.56591576e-01,  9.18882132e-01,  3.81753474e-01,  5.19790411e-01, -1.77674755e-01,  1.41485739e+00,  2.45628834e-01},
   { 7.11394250e-02,  1.95320740e-01, -2.89563954e-01,  4.68172282e-01, -1.99612960e-01, -9.89679471e-02, -3.18958908e-01,  2.04497606e-01,
     4.16167557e-01,  1.31154340e-02, -1.10692906e+00, -3.10629815e-01,  6.83528110e-02,  2.38440603e-01,  8.91499296e-02, -6.75017476e-01,
    -4.83773917e-01,  2.60956824e-01,  9.34875667e-01,  7.37696767e-01,  3.40520918e-01, -1.43765390e-01,  2.86112428e-01,  1.80225298e-01,
    -3.21414173e-02,  2.84153014e-01, -5.70587814e-01, -4.44942057e-01,  7.09102815e-03, -1.77213028e-02, -6.29474893e-02, -4.89480317e-01},
   {-3.39377642e-01,  6.30807504e-02,  7.16631949e-01, -7.69424066e-02, -4.01480973e-01,  2.56695133e-03, -4.69843656e-01,  2.69805104e-01,
    -1.15409546e-01,  9.89923924e-02,  1.41547233e-01, -2.44300812e-01, -1.76393285e-01, -2.38192335e-01,  2.24364996e-01,  5.26183367e-01,
    -8.70175719e-01, -1.13449469e-01, -1.16531052e-01, -4.23521042e-01, -3.37554038e-01, -4.77108620e-02, -3.11829209e-01,  4.03077602e-01,
    -9.60876122e-02, -1.03688538e-01, -3.69599573e-02, -1.53451592e-01, -3.51354808e-01,  3.43270135e+00,  2.88681316e+00,  1.05540037e+00},
   {-1.79824188e-01, -7.40953833e-02,  2.08751231e-01,  2.84869462e-01,  3.87514144e-01,  7.46033072e-01,  1.42991200e-01,  6.53316081e-02,
    -1.68210134e-01, -1.26532122e-01, -2.82436252e-01, -1.69095099e-01, -3.23290944e-01, -1.73651755e-01,  1.48202777e-01,  1.54922649e-01,
    -5.89046888e-02, -3.66035640e-01, -7.86331058e-01, -3.21857393e-01, -2.57496964e-02, -1.67885289e-01, -2.50384212e-01,  2.10598931e-01,
    -8.09944142e-03, -3.75280231e-02, -2.22483143e-01,  1.93671808e-01, -1.44001082e-01,  2.00322315e-01, -5.57445623e-02, -4.27053608e-02},
   { 1.34430438e-01, -4.11985874e-01,  4.17618126e-01,  4.80479002e-01, -2.74188727e-01,  1.80354025e-02, -1.16594248e-02,  3.10183883e-01,
    -3.44524622e-01, -3.37634176e-01, -1.04508311e-01, -3.07712406e-01, -6.58079013e-02, -2.68908411e-01, -9.63598132e-01, -5.95676482e-01,
    -2.41727129e-01, -6.61855519e-01, -5.25195077e-02,  2.13948870e-03,  8.54122639e-01,  2.92564273e-01,  6.02366984e-01,  4.88138795e-01,
     4.65923011e-01,  8.33779216e-01,  2.69052863e-01,  5.76042175e-01, -1.45328164e-01,  6.20486677e-01, -5.52830279e-01, -1.79542020e-01},
   { 9.77560282e-02,  6.19219877e-02,  5.77160358e-01,  7.53761828e-01,  1.03010461e-02, -6.75042927e-01, -5.81584573e-01,  5.32828033e-01,
     6.87090993e-01,  1.24919347e-01, -7.39410594e-02,  3.64543378e-01,  2.74871588e-01,  4.43775132e-02, -2.40223825e-01, -2.84876198e-01,
    -1.37144417e-01, -3.56590301e-02,  2.82544345e-01,  6.56948015e-02, -1.13797426e-01,  7.84466639e-02, -4.36290354e-01,  2.08008103e-03,
    -3.35517585e-01, -2.40695357e-01, -1.57419786e-01, -1.18659399e-01, -1.66340142e-01,  1.60908490e-01, -7.03204811e-01,  5.13547242e-01},
   { 3.05842876e-01,  2.63942629e-01, -4.31860775e-01,  1.72293022e-01,  3.49872053e-01,  2.18925178e-01, -3.48566294e-01, -7.62951255e-01,
    -1.53790981e-01, -4.81992513e-02, -5.50901175e-01, -2.01158188e-02,  6.44195020e-01,  6.24375284e-01, -1.51904553e-01, -1.66327879e-01,
    -7.44637728e-01, -1.22693591e-01, -2.69029364e-02,  1.53128088e-01, -3.64829041e-02,  4.39609401e-02, -2.17552260e-01,  7.68965557e-02,
     3.19894217e-03, -2.26624027e-01, -4.20589894e-02, -1.13103658e-01,  1.38915822e-01,  1.99042801e-02,  6.51608765e-01,  6.26870170e-02},
   { 5.63818514e-02, -9.97535646e-01,  1.09703410e+00, -1.24491036e-01,  5.90912759e-01,  3.54613125e-01, -2.31618896e-01, -1.09543824e+00,
    -1.00573242e+00, -5.57357743e-02, -8.61064017e-01, -1.17348588e+00,  6.09714210e-01,  1.64536858e+00,  1.11146200e+00,  5.06905556e-01,
    -7.56062418e-02, -1.20950252e-01, -2.79540956e-01, -2.71133810e-01, -4.83610816e-02, -1.53999785e-02, -9.35884118e-02,  7.67327994e-02,
    -9.43966284e-02,  2.12603167e-01, -1.73624560e-01,  2.38710299e-01, -1.81812700e-02,  3.40222329e-01, -4.80491877e-01,  4.69413847e-01},
   { 9.22428891e-02, -4.35517095e-02, -8.58644426e-01, -7.98813105e-02, -4.29135501e-01, -8.12134981e-01, -2.48534814e-01, -2.98473328e-01,
     1.55488595e-01, -1.99299425e-01,  6.64159477e-01,  7.85529256e-01,  7.50733793e-01,  6.95384383e-01,  3.15944552e-01, -2.19983403e-02,
     9.95340422e-02,  2.05813006e-01, -3.72671574e-01, -5.26911736e-01, -3.72860998e-01, -6.57543540e-02, -4.71687242e-02,  7.98328295e-02,
    -3.17868471e-01,  1.89328462e-01,  3.46143901e-01,  8.61220900e-03,  2.62439609e-01, -8.46106112e-02, -1.50493950e-01,  2.57308424e-01},
   {-1.35477275e-01, -6.65297285e-02,  3.49066377e-01, -2.03643978e-01, -2.64994681e-01, -7.05918819e-02, -2.82651275e-01, -5.11852503e-01,
    -2.64362872e-01, -2.27279612e-04, -4.34572816e-01, -4.29795414e-01, -3.65337670e-01, -1.28123596e-01, -5.07115543e-01, -7.15328157e-01,
     1.56210124e-01,  3.76917869e-01,  3.76214117e-01,  2.97276020e-01,  6.00033522e-01,  3.32375735e-01,  6.57004356e-01, -1.92311198e-01,
    -2.69612432e-01,  3.31166118e-01, -9.65571962e-05, -2.54049972e-02,  6.52130246e-01, -5.26241004e-01,  3.73696357e-01, -3.19996953e-01},
   { 1.45996530e-02,  9.44309309e-02, -3.85398418e-01,  1.04044867e+00,  1.14428186e+00, -6.04673773e-02, -1.83836073e-01, -4.56959397e-01,
    -3.32220942e-02, -5.91547728e-01, -4.53155160e-01, -7.53594220e-01, -1.72390621e-02,  7.06810236e-01,  8.15512896e-01,  8.79299223e-01,
    -1.57414332e-01,  1.33254513e-01, -8.85581970e-02, -1.92709327e-01, -4.34909388e-02,  2.60935485e-01, -9.03623477e-02, -7.80159235e-02,
    -5.51861525e-01,  1.99428186e-01,  4.45019491e-02, -3.44203413e-01, -1.28953874e-01,  2.22312331e-01, -1.23675156e+00,  3.44669312e-01},
   { 1.52274609e-01, -3.88575122e-02,  2.60579824e-01,  1.24802232e+00,  8.62294793e-01,  7.58611977e-01,  5.20094812e-01,  3.57830405e-01,
    -2.42921203e-01,  1.62867218e-01,  7.54122138e-02, -2.13915408e-01,  1.44346967e-01, -4.41389859e-01, -9.75789905e-01, -1.34940863e-01,
    -8.01212251e-01, -4.10757244e-01, -3.83934677e-01, -2.16685072e-01, -6.29330337e-01, -2.19780222e-01, -1.34294122e-01, -6.05775453e-02,
    -6.83451593e-02, -1.97652616e-02, -2.82368630e-01,  1.79101273e-01,  5.81692308e-02,  2.84760445e-01,  3.69072407e-01,  5.00014842e-01},
   { 4.74196166e-01, -3.70531648e-01,  1.07519053e-01, -1.59691170e-01,  3.54070753e-01,  3.48997056e-01,  2.12315649e-01,  7.22896576e-01,
     7.15965271e-01,  4.51219082e-01, -4.90500808e-01, -4.65940088e-01, -3.30950879e-02, -8.96603227e-01, -8.14536035e-01, -8.25811684e-01,
    -8.53199720e-01, -9.81567144e-01,  2.60906130e-01,  3.96628797e-01,  6.15697622e-01,  5.60552239e-01,  3.57151300e-01,  4.45788622e-01,
     4.45969924e-02,  1.32896870e-01,  3.60219955e-01,  6.25364959e-01,  1.20620489e-01, -6.92781061e-03, -4.50328559e-01, -7.91001081e-01},
   { 1.34171426e-01, -4.06757116e-01, -7.53698945e-02,  9.90340710e-01,  3.26572329e-01, -2.88123012e-01, -1.18337166e+00, -1.37835813e+00,
     1.21753454e-01,  4.00812030e-01, -8.37663114e-01, -1.69425237e+00, -1.32913017e+00,  5.22318073e-02,  6.68346643e-01,  8.58680725e-01,
     1.23663020e+00,  5.93417466e-01,  5.42082667e-01, -3.25624704e-01,  2.01449051e-01,  7.66196400e-02, -3.03163379e-01,  8.23544115e-02,
     2.58856714e-01,  3.37084860e-01, -3.99563052e-02, -8.11517909e-02, -9.32287648e-02,  1.38204573e-02, -2.07802773e-01,  5.07463157e-01},
   { 4.77647372e-02, -8.53128910e-01,  6.00466967e-01,  6.04086220e-01,  4.68282223e-01, -3.92447084e-01, -1.16371250e+00, -1.74917960e+00,
    -7.58605078e-02,  7.41061926e-01,  8.21347356e-01,  6.52184069e-01, -3.65702540e-01, -4.15924788e-01, -9.96694922e-01, -7.65591681e-01,
    -1.79121524e-01,  7.96829164e-01,  7.41467893e-01, -6.51270390e-01, -1.02416515e-01,  3.24495941e-01,  3.93650025e-01,  1.93233624e-01,
    -2.50872731e-01,  1.31672367e-01,  4.61985141e-01,  1.46079749e-01,  1.41847625e-01,  1.24298576e-02, -5.56676805e-01,  6.24141276e-01},
   { 8.18240643e-01,  2.77921557e-01,  1.67186177e+00,  2.33754501e-01,  9.20857713e-02,  3.94721031e-02,  6.08869456e-02, -5.09728312e-01,
    -9.66314673e-01, -4.08432446e-02,  6.33371234e-01,  1.00187814e+00, -1.89265415e-01,  1.90878008e-02,  4.06274140e-01, -1.86788216e-01,
     4.99335259e-01, -1.95886299e-01, -2.53803015e-01,  1.57196045e-01, -1.05498657e-01, -1.48629785e-01,  1.60341814e-01,  3.11972380e-01,
     6.46154881e-02,  5.50683320e-01,  1.65734515e-01,  5.68831563e-01,  1.59279287e-01, -9.12470184e-03,  6.78662419e-01, -1.31436631e-01},
   { 2.87069589e-01, -3.97008806e-01,  1.07253325e+00,  7.67459929e-01,  1.20196950e+00,  5.60120881e-01,  1.02231491e+00,  4.30418700e-01,
     1.02529573e+00,  2.96585262e-01, -2.60359079e-01, -3.33607495e-01,  1.06935501e-02,  6.18708551e-01,  2.88162142e-01, -1.00029103e-01,
     1.28255650e-01, -2.78235614e-01,  8.18603858e-02, -1.91682614e-02,  2.27058902e-01,  2.29883157e-02,  5.01191437e-01,  1.11409329e-01,
     5.19772649e-01,  2.83302665e-01,  1.49125740e-01,  4.62054573e-02, -2.24202186e-01, -3.91974479e-01, -2.66326278e-01,  1.91796377e-01},
   { 8.99251103e-01,  6.95778966e-01,  1.07611068e-01,  5.66441894e-01,  2.11106017e-01,  9.49213952e-02, -1.17598020e-01, -4.23798949e-01,
     5.94022907e-02,  5.85215569e-01,  8.51466060e-01,  6.10444769e-02, -4.66850847e-02,  1.31048888e-01,  1.79498717e-01, -1.54620066e-01,
    -2.44877607e-01,  4.43101138e-01,  1.32710621e-01,  8.64384174e-01,  3.03715169e-01,  4.94243741e-01,  2.25197896e-01, -9.26906615e-02,
     2.31855139e-01, -2.86416441e-01, -3.17843825e-01, -4.08167511e-01, -7.65833557e-01, -1.21273458e-01,  1.32915795e-01, -4.53833401e-01},
   { 3.42300773e-01, -5.03851891e-01, -1.00699139e+00, -1.87019360e+00, -7.52267122e-01, -7.29237683e-03,  9.30177271e-01,  1.07009006e+00,
     1.08375716e+00,  1.15389276e+00,  7.41340101e-01,  7.85402715e-01,  5.13717681e-02,  5.16681671e-01, -2.92644408e-02,  3.41486692e-01,
    -7.33833671e-01, -8.89588594e-01, -4.02539998e-01, -5.85430324e-01, -1.06054366e+00, -3.76232296e-01,  8.17652345e-01,  1.52988076e-01,
     1.46375567e-01, -3.25358003e-01, -3.27486843e-01,  2.98652977e-01,  5.17710090e-01, -2.82544553e-01,  1.38834164e-01,  2.50833333e-02},
   {-4.25213575e-01, -7.52557695e-01, -5.13141930e-01,  5.22166312e-01,  2.73811109e-02,  6.98341370e-01,  4.52683628e-01,  9.51664209e-01,
     8.15509677e-01,  4.32967126e-01, -2.87093252e-01,  5.20159721e-01,  1.87444806e-01,  2.96228200e-01,  9.75592807e-02, -5.64392507e-02,
    -4.67131212e-02, -6.65002584e-01, -6.53522491e-01, -3.45949352e-01,  1.39381915e-01,  2.29519784e-01, -7.88990185e-02, -4.23725061e-02,
    -2.58280970e-02, -5.90587199e-01,  4.18589175e-01, -1.62574481e-02,  1.04512841e-01, -4.78701800e-01, -1.16865873e-01, -6.10264599e-01},
   {-6.01448953e-01,  7.69995630e-01,  5.99018395e-01,  6.24257140e-02,  3.89781326e-01,  3.47383976e-01,  4.67268471e-03,  1.51235729e-01,
    -9.05898586e-03,  2.03819443e-02,  1.93366379e-01, -2.30634153e-01, -4.58830409e-02, -4.59505171e-02,  4.16733414e-01,  7.55843461e-01,
     7.34591603e-01,  1.18471086e+00,  1.08485889e+00,  6.32063597e-02, -3.32805097e-01,  2.89302409e-01, -4.40076381e-01, -5.08166254e-01,
    -7.12309122e-01, -8.16158831e-01, -7.61113644e-01, -7.56582379e-01, -7.89702892e-01, -7.43914485e-01,  4.05795634e-01, -1.08356202e+00},
   {-3.22812200e-02, -1.13760710e-01, -7.36099407e-02,  5.50927997e-01,  1.74057379e-01, -3.25866729e-01, -2.78778434e-01, -5.46219707e-01,
     2.22511157e-01,  4.34656590e-01,  1.40730345e+00,  1.49267888e+00,  9.24418390e-01,  3.19226801e-01, -8.84845853e-01, -1.43408740e+00,
    -1.95828521e+00, -1.49465919e+00,  2.53530256e-02, -8.19554448e-01, -5.71245980e-03,  4.10542190e-01,  7.55445659e-01,  7.37365305e-01,
     2.54542559e-01,  1.79529935e-01,  3.91953699e-02,  9.71527755e-01,  2.74059862e-01,  3.62007082e-01, -7.39522099e-01,  9.36036944e-01},
   {-8.91016498e-02, -2.86926091e-01, -7.28713095e-01, -9.48202789e-01, -8.65799725e-01, -7.09933639e-01, -3.21208298e-01, -1.35682613e-01,
    -3.77550691e-01, -4.66765940e-01, -3.42062622e-01, -2.63386101e-01,  6.80781007e-02,  8.67861509e-02, -6.91407472e-02, -1.29362479e-01,
     2.39037246e-01, -1.21997595e-01,  1.68819308e-01,  2.06487685e-01,  1.39911249e-01, -9.76105686e-04,  2.42913380e-01,  3.89678538e-01,
    -1.60924941e-01,  2.81702638e-01,  2.33235717e-01,  9.85995084e-02, -1.41723976e-01,  2.34211702e-03,  5.46539798e-02, -3.11129186e-02},
   { 2.74561271e-02,  3.16687644e-01, -8.94816995e-01, -1.05461860e+00, -1.69130161e-01,  8.22305501e-01,  1.02756393e+00,  9.67203736e-01,
    -8.81909192e-01, -4.80798483e-01,  5.47246456e-01,  4.47253078e-01, -4.37162846e-01, -1.22199309e+00, -1.39525998e+00, -1.18342116e-01,
     8.11385691e-01,  9.34647262e-01, -1.12629645e-01,  1.35317042e-01,  9.71037567e-01,  3.19267929e-01, -9.16512832e-02, -6.92066103e-02,
     4.02278721e-01, -5.58606610e-02,  1.81674376e-01, -1.11589190e-02,  2.95403063e-01,  4.45118099e-02, -1.68788290e+00, -3.38170491e-02},
   { 3.66398185e-01, -3.17893386e-01,  9.22780186e-02, -5.60858063e-02,  8.17173123e-02,  2.50296593e-01,  2.53687888e-01, -1.27588347e-01,
    -7.02272058e-01, -5.66128075e-01, -3.74896318e-01,  1.68756410e-01, -2.66005248e-01, -4.47494626e-01, -1.36310771e-01, -9.80052054e-02,
    -7.67898023e-01, -5.31512618e-01, -9.19217393e-02, -3.30849916e-01,  1.91279888e-01,  6.51255369e-01, -1.15761235e-01,  5.66814482e-01,
    -6.61295801e-02,  7.53861666e-03, -3.16035181e-01,  6.65864721e-02,  3.28622013e-01,  2.44668812e-01,  4.06571478e-03,  1.63660899e-01},
   { 2.82355279e-01,  1.53899014e-01,  2.20566005e-01,  6.69613063e-01,  3.47660005e-01,  5.52454293e-01,  5.08091092e-01,  7.19872117e-01,
    -2.23697081e-01,  1.01274931e+00,  5.69292545e-01,  5.32132149e-01,  2.79423535e-01, -2.95878083e-01,  4.74587440e-01,  6.24047399e-01,
     2.73605287e-01,  5.80338351e-02, -6.07939996e-02, -1.51039675e-01, -1.05000466e-01,  1.41529024e-01, -1.10321254e-01, -3.63899231e-01,
    -7.14742094e-02, -7.45323956e-01, -1.86233059e-01, -2.92995870e-02, -5.86897612e-01,  6.95321709e-02,  4.32120293e-01, -1.11188102e+00},
   {-1.57194752e-02,  3.70982885e-01,  6.69429451e-02,  2.40900725e-01, -2.26532266e-01, -1.74975836e+00, -9.77477133e-01,  7.01854527e-01,
     1.02694762e+00,  3.69299166e-02,  3.56398791e-01, -7.22660720e-01, -8.20354879e-01, -1.05586743e+00, -7.70501614e-01, -5.52573264e-01,
     9.02208865e-01,  1.49243319e+00,  1.04649758e+00,  9.36745226e-01,  2.77879745e-01, -2.41191581e-01,  1.94670022e-01,  3.82903218e-01,
    -9.86036897e-01, -1.12555064e-01, -2.25092441e-01, -1.12594970e-01,  5.34121692e-01, -7.12385297e-01,  1.48226693e-01, -1.10538356e-01},
   { 1.82849050e-01,  5.99126294e-02,  1.17383748e-01, -1.69067219e-01, -7.78184056e-01, -1.09592319e+00, -9.13490593e-01, -4.31421995e-01,
     2.40742028e-01,  4.59794641e-01,  8.21779251e-01,  8.46288919e-01,  7.67733574e-01,  1.13060318e-01,  2.15449423e-01, -2.24696368e-01,
     5.87747693e-01,  1.28400279e-03, -7.37012401e-02, -5.68103135e-01, -4.28338468e-01, -4.52881247e-01, -4.68058705e-01, -3.36296856e-01,
    -2.52268583e-01, -4.37663376e-01, -2.67637223e-01, -1.15974024e-01, -3.28139752e-01,  6.40507042e-02,  9.38865095e-02,  5.84432855e-02},
   { 1.40571550e-01, -1.57925129e-01, -9.72661495e-01, -1.00443697e+00, -4.84114379e-01,  1.39188478e-02,  1.03821254e+00,  6.32172346e-01,
     1.89956054e-01, -1.50969736e-02, -8.88440162e-02, -3.95030051e-01, -7.67065659e-02,  1.09086379e-01,  9.66053724e-01,  3.92864436e-01,
    -4.08845752e-01, -4.45081353e-01, -3.82286422e-02,  5.31684160e-01,  2.61976451e-01,  3.24724585e-01,  5.48402429e-01,  5.96885979e-01,
     7.18227923e-01,  9.33925569e-01,  3.82734299e-01,  4.35707480e-01, -8.13393772e-01, -3.35605234e-01, -2.09789443e+00, -1.31308973e+00},
   {-2.18335614e-01, -6.09559566e-02, -6.86216831e-01, -2.25281361e-02,  9.23295379e-01,  1.08316898e+00,  1.31838763e+00,  4.59522784e-01,
    -9.21836913e-01, -8.52221608e-01, -5.74701428e-01, -3.83527011e-01, -5.67238212e-01, -3.77790570e-01, -9.94812623e-02,  3.66772711e-01,
    -4.39625114e-01, -3.17253083e-01, -2.06922933e-01,  2.05361903e-01,  8.92302860e-03,  2.08138555e-01,  8.30050558e-02, -2.57228967e-02,
     5.12358546e-01,  1.41189858e-01,  2.81411469e-01,  1.11408159e-02,  8.55760157e-01,  2.52711028e-02,  3.00575495e-01,  5.87291062e-01},
   { 1.44068331e-01, -1.29716843e-01, -3.74547362e-01, -1.80772066e-01,  2.21466750e-01,  2.70799607e-01,  7.11573362e-01,  4.85704511e-01,
    -5.84596753e-01, -4.64381665e-01, -5.74344136e-02, -1.14809072e+00, -1.52135599e+00, -7.95005560e-01,  4.70186882e-02,  2.02275515e-01,
     7.12026834e-01,  6.10962570e-01,  5.02370059e-01,  6.15050375e-01, -2.36547962e-02, -1.71568096e-01, -1.53621793e-01, -1.63269006e-02,
    -5.25977015e-02, -3.33684646e-02, -1.10025853e-01, -2.07627565e-01,  1.95371032e-01, -4.43424694e-02, -4.79396172e-02, -7.17772543e-02},
   { 3.12900513e-01, -1.95292771e-01, -4.71470207e-01, -1.16685279e-01,  5.17647190e-04, -2.57263660e-01, -2.56465107e-01, -3.22418869e-01,
     7.66254425e-01, -3.23352754e-01, -3.26367676e-01, -6.29106104e-01, -3.15207988e-01, -6.98674023e-01, -2.28854179e-01, -6.08109713e-01,
     6.48179576e-02,  1.70114085e-01, -3.11903119e-01,  6.62476718e-02, -1.31420260e-02, -1.86177000e-01, -2.00533003e-01,  1.90833703e-01,
    -4.42154557e-01,  3.46342772e-01,  1.33014962e-01,  3.33570480e-01,  6.37774944e-01,  1.41691938e-01,  3.52713585e-01, -3.73417325e-02},
   {-3.71574223e-01,  6.78061962e-01,  1.13762140e+00,  1.00475037e+00,  6.55685782e-01,  6.92877293e-01,  8.03436160e-01,  7.18832672e-01,
     2.72864550e-01,  1.90304622e-01, -2.11013258e-01, -3.04927737e-01, -4.67206180e-01, -4.66718525e-01, -3.25270385e-01, -4.19759393e-01,
    -2.60032445e-01, -3.74247938e-01,  4.42116737e-01, -3.14598978e-01,  4.74590994e-03, -5.12089372e-01,  2.97334641e-01, -4.01330292e-01,
    -8.19832757e-02, -3.04010101e-02, -6.27550557e-02, -5.86175993e-02, -1.44789055e-01, -3.23431522e-01,  4.08996735e-03,  2.27078289e-01},
   { 9.91807207e-02,  2.69050092e-01,  2.27776274e-01,  1.47091940e-01,  1.72445759e-01, -1.36905253e-01, -7.43938625e-01, -2.46879384e-01,
    -7.96428144e-01, -9.12172377e-01, -1.18307638e+00, -5.57381988e-01,  1.30961418e+00,  1.17384529e+00,  1.35082054e+00,  1.33022714e+00,
     6.17382288e-01,  8.12178478e-02, -3.90807182e-01, -3.23642731e-01, -6.92024887e-01, -2.66486883e-01, -2.91869581e-01, -2.51771897e-01,
     3.41238499e-01,  6.29557148e-02, -7.31329098e-02,  3.53957295e-01,  1.25809714e-01, -2.01562479e-01, -3.39290849e-03, -5.75841486e-01},
   { 1.67439982e-01, -9.52744931e-02, -3.59371543e-01,  1.52471796e-01, -2.89860517e-01, -4.68195677e-01, -2.99030989e-01, -4.96718138e-01,
     1.92444902e-02, -2.64567077e-01,  2.54692584e-02, -1.46066859e-01, -4.02538270e-01, -1.23623893e-01, -4.00792360e-02,  4.51237299e-02,
    -1.23946555e-01, -2.25795314e-01, -2.47106209e-01, -8.24285448e-02, -2.64265001e-01, -5.96197903e-01, -2.86918253e-01,  2.99751908e-02,
    -3.20314467e-01, -1.20342672e-01, -2.87424892e-01, -1.92987800e-01,  2.58265376e-01, -4.34634537e-01,  1.49856448e-01,  9.38362330e-02},
   {-3.26962352e-01, -1.88488960e-01, -4.34769958e-01,  5.86203337e-01,  1.78558022e-01, -1.82743780e-02,  3.28450561e-01,  6.25967562e-01,
     5.96424401e-01, -1.05354041e-01, -2.33098403e-01,  3.82870771e-02, -7.77001828e-02, -4.66755740e-02,  2.52712965e-01,  2.18514949e-01,
     3.49345326e-01,  1.99759662e-01,  2.90209025e-01,  4.68411952e-01, -9.70591232e-02,  7.24405423e-02,  2.88672030e-01,  4.50540520e-02,
    -3.28378588e-01, -3.48319292e-01, -4.82622951e-01, -3.32985908e-01, -9.72488463e-01, -6.64728954e-02, -6.02681458e-01,  2.99396306e-01},
   {-1.48085788e-01, -5.56228995e-01, -2.45747507e-01,  2.05084562e-01, -6.07485712e-01, -3.74650359e-01, -4.25241172e-01,  4.35396768e-02,
     2.17604294e-01, -2.40616873e-02, -2.88470000e-01,  5.75699322e-02, -2.38642424e-01, -3.08415979e-01,  1.05299771e-01,  5.58905780e-01,
    -1.60926029e-01,  1.14582516e-01,  9.05089527e-02,  2.84435041e-03, -4.84907106e-02,  3.38490903e-01,  1.35801494e-01,  6.14559576e-02,
    -1.66959807e-01,  1.81234598e-01, -1.11852437e-01, -3.59820426e-01, -4.27496463e-01, -5.29711172e-02, -1.02747604e-02, -9.71009731e-01},
   { 3.19472224e-01,  3.61081421e-01, -4.43180233e-01, -8.78150761e-01, -1.13294613e+00,  1.18923781e-04, -3.06583226e-01,  3.98290247e-01,
     6.02544308e-01, -2.50780642e-01, -2.97703862e-01,  1.35594919e-01,  8.63399565e-01,  8.99925411e-01,  2.61521250e-01,  4.12630111e-01,
     1.71751782e-01, -3.25300992e-01,  9.03733373e-02,  3.34532350e-01, -1.14990599e-01, -2.38671660e-01, -4.21832986e-02, -7.98875466e-02,
    -8.67501460e-03, -2.62520373e-01, -1.42394498e-01, -1.27155721e-01,  4.00837690e-01, -2.78158635e-01,  1.04978077e-01,  5.10524333e-01},
   {-7.47199282e-02,  3.42144787e-01, -6.83613181e-01, -1.65438151e+00, -1.98465216e+00, -1.34485066e+00, -4.38415378e-01,  8.15919340e-01,
     8.77758980e-01,  1.51259363e-01,  1.30953431e-01, -1.33725703e-01,  4.41718519e-01,  3.80820930e-01,  5.52536547e-01,  8.10996592e-01,
     4.61034596e-01, -6.84528202e-02,  2.10810117e-02,  3.59522134e-01,  3.52908403e-01, -2.29062483e-01,  3.90042514e-01,  1.94382370e-01,
     2.24414885e-01, -1.05205989e-02,  1.27564892e-01, -1.63879432e-02, -1.73509359e-01,  1.61100537e-01, -7.49475658e-02, -1.14631131e-01},
   { 1.91827402e-01, -6.78429723e-01,  1.59467787e-01,  3.26462030e-01,  4.80210990e-01,  9.29082990e-01,  7.28132010e-01, -3.40326205e-02,
    -1.42226946e+00, -1.48166656e+00, -7.98679352e-01,  6.84580505e-01,  1.53079438e+00,  1.34066272e+00, -1.74333155e-01, -1.26438355e+00,
    -7.44989932e-01, -1.21448576e-01, -1.41278610e-01,  3.18980515e-01,  4.45514739e-01,  2.04166234e-01,  4.18968588e-01, -3.12734693e-01,
     8.12948108e-01, -3.36444899e-02, -2.00380787e-01, -6.21772930e-02, -1.92635637e-02, -8.23972404e-01, -1.85818188e-02, -2.01931730e-01},
   { 1.54061928e-01, -4.76343274e-01, -2.82678127e-01, -3.60290945e-01, -2.20276400e-01, -1.70211568e-01,  5.59785925e-02,  3.16037089e-01,
    -3.36368799e-01, -3.15007538e-01, -3.23339581e-01,  1.24525808e-01, -1.06941760e-01, -1.81355700e-01,  5.68169177e-01,  3.76499385e-01,
     7.41970122e-01,  5.39162457e-01,  1.71942055e-01,  5.59387922e-01,  4.45976555e-01,  1.10714249e-01, -1.23092934e-01,  3.66965413e-01,
     2.20838457e-01,  4.93296832e-02,  5.43264866e-01,  3.37343700e-02, -3.03443551e-01,  3.81716579e-01,  6.07303903e-02, -9.81230259e-01},
   { 3.66828553e-02, -1.41360134e-01,  6.70852005e-01,  3.68698627e-01, -3.22507471e-01, -1.29107118e+00, -1.54801106e+00, -6.84169590e-01,
     4.66856092e-01,  5.48898697e-01,  6.35463297e-01,  4.11407918e-01, -5.30154957e-03, -2.19576317e-03,  3.11147869e-01,  1.70515418e-01,
    -2.24234253e-01,  4.52577174e-01,  1.39854819e-01, -1.93306878e-01, -1.32015541e-01, -4.10720930e-02, -2.86405414e-01,  1.09504379e-01,
    -4.13239211e-01, -1.48096323e-01, -3.61726940e-01, -6.67142123e-02, -1.36368766e-01,  9.67853703e-03, -5.87296128e-01,  4.05540645e-01},
   {-1.75580576e-01, -4.58252758e-01,  9.29010928e-01, -2.59342104e-01, -4.01734859e-01, -5.57046413e-01, -9.58406448e-01, -3.03623378e-01,
    -4.35268611e-01,  4.16104309e-02,  1.80359602e-01, -4.06157404e-01, -1.54282904e+00, -1.62692487e+00, -7.37694561e-01,  2.94707180e-03,
     5.96045017e-01,  1.06456220e+00,  7.94871032e-01,  5.68303823e-01,  4.83118653e-01,  5.69605231e-01,  3.15886475e-02,  1.16506994e-01,
     6.37653321e-02,  4.52807210e-02,  2.19428465e-01, -2.65563875e-02,  4.45710212e-01,  4.46595609e-01, -6.82076395e-01,  9.75323498e-01},
   {-1.16234995e-01,  3.95341188e-01,  2.01079771e-01,  8.16315532e-01,  2.19191059e-01,  1.45476475e-01, -8.31959024e-03,  4.29146327e-02,
     5.45513630e-02, -2.67101467e-01, -7.36271620e-01, -5.48667133e-01, -3.88753414e-01, -4.70133359e-03,  1.79987684e-01,  7.26445988e-02,
     2.37176120e-01,  6.35586023e-01,  3.11286658e-01,  7.42216766e-01,  4.11922276e-01,  1.45292655e-01,  1.41497239e-01,  2.13593408e-01,
     1.02267019e-01, -2.00153217e-02,  3.82900178e-01,  2.26631314e-01,  1.34882808e-01, -1.89282477e-01,  2.13667452e-01,  1.93849623e-01},
   {-2.96096861e-01, -5.13963282e-01,  7.22754896e-01,  3.95945251e-01, -7.22057447e-02,  6.12216413e-01,  1.52943182e+00,  8.29676509e-01,
    -1.86194628e-02,  4.45700824e-01,  4.66190010e-01, -1.58725902e-01, -6.37336671e-01, -2.72306234e-01, -4.58845228e-01,  3.76127690e-01,
     7.04931170e-02, -2.28836313e-01,  2.83060074e-01,  2.38755599e-01,  2.72093147e-01,  7.43287802e-01, -1.19513609e-01,  2.75610685e-01,
    -4.84642573e-02, -1.77978426e-01,  4.58364755e-01, -2.67125905e-01, -1.18943833e-01,  4.55221444e-01,  1.01049864e+00, -1.06358361e+00},
   { 2.92705983e-01,  3.07888687e-01,  1.35652050e-02, -4.21820670e-01,  4.09481853e-01,  7.85910368e-01,  1.10835648e+00, -8.62579107e-01,
    -2.14046693e+00, -1.28507245e+00, -9.49260890e-01, -3.99700552e-01,  9.90500599e-02,  1.55176595e-01,  2.58899361e-01,  3.41771990e-01,
     3.91761422e-01,  7.06820339e-02, -2.38428459e-01, -1.57328218e-01, -3.09272468e-01,  2.33023003e-01, -3.97635013e-01, -3.01865309e-01,
     2.37962052e-01, -3.20957810e-01,  1.78493559e-01,  1.92510977e-01, -2.46210620e-01, -9.59001034e-02,  8.32687497e-01, -2.14124471e-01},
   { 7.36976564e-02, -1.13148376e-01,  3.34856212e-01,  1.50356814e-01,  6.86225533e-01, -1.46823227e-02, -3.48452419e-01, -1.38451651e-01,
     1.74056634e-01, -1.53423473e-01, -9.92413223e-01, -6.17302418e-01,  1.71545804e-01,  2.18432192e-02, -4.43783075e-01, -8.83373022e-01,
    -4.08587784e-01, -2.60729969e-01, -5.95664561e-01, -1.02935538e-01, -1.15007170e-01, -6.59514368e-02, -4.49029952e-01, -6.28171325e-01,
     6.83863088e-02, -2.16503695e-01, -9.03370231e-02,  7.42650852e-02,  1.26823913e-02, -2.03042440e-02, -2.33495101e-01,  2.98573554e-01},
   {-5.37695348e-01,  4.88729119e-01,  1.11335456e+00,  3.59357297e-01, -5.64815337e-03, -7.14966431e-02,  2.10946091e-02,  1.16847195e-01,
    -2.81509012e-01, -3.26830149e-01,  6.79697916e-02,  3.09463114e-01,  2.05286086e-01,  1.55473456e-01,  1.77965369e-02,  2.69950390e-01,
     1.71491116e-01,  1.35764241e-01, -2.53909498e-01, -8.04954395e-02,  6.35630608e-01,  1.25339353e+00,  7.34037638e-01,  3.18950742e-01,
     6.19898081e-01,  6.26901388e-01,  7.33564019e-01,  4.02840108e-01,  3.12824130e-01,  3.03947717e-01,  6.16989493e-01, -5.56249809e+00},
   { 3.31629902e-01, -6.42413437e-01,  5.32887518e-01, -4.71138090e-01, -1.13819683e+00, -7.04564393e-01, -7.21649349e-01, -6.53121173e-02,
     1.26537075e-02,  6.18580461e-01,  7.11055756e-01,  4.31754708e-01, -2.10230067e-01, -2.14731321e-01,  4.72390234e-01,  6.43762708e-01,
     3.15726876e-01, -3.64590406e-01, -5.58992028e-01, -8.67817283e-01, -1.39366344e-01, -9.04574171e-02, -1.83351189e-01, -6.32100642e-01,
    -1.52169496e-01,  2.73119453e-02,  1.14884377e-01,  1.57099739e-01,  2.56209195e-01, -4.90351409e-01,  7.05164552e-01, -1.88580737e-01},
   { 2.82329887e-01, -3.65817279e-01, -6.16538525e-02, -6.68864965e-01, -3.46251845e-01, -4.33630086e-02,  1.97946280e-02, -1.91430405e-01,
    -1.06765307e-01,  3.88957947e-01,  3.39377284e-01,  8.59970570e-01,  6.66025937e-01,  5.26902199e-01,  4.22212332e-01,  1.53868571e-01,
    -2.18193829e-01,  3.16406488e-02, -2.60853712e-02,  3.65471780e-01, -1.52025983e-01, -5.86724341e-01, -9.41335559e-01, -8.98417115e-01,
    -3.39452952e-01, -5.30284524e-01, -7.19916403e-01,  1.82075277e-01,  2.27779374e-01, -2.56547034e-01,  1.65648413e+00,  7.49259517e-02},
   { 2.10820027e-02, -7.94657469e-01, -3.77309054e-01,  2.35895976e-01,  1.07239775e-01, -3.22835177e-01, -6.88196301e-01, -5.60624242e-01,
    -1.00875378e+00, -7.53140926e-01, -8.53465259e-01, -2.89921433e-01, -2.85155118e-01,  2.57894099e-01,  1.06315267e+00,  1.33297777e+00,
     1.14862454e+00,  5.90149224e-01,  1.02854408e-01,  4.62556444e-02, -2.45995164e-01,  1.92406967e-01, -5.36750667e-02,  3.82165641e-01,
     7.86751658e-02,  4.23391201e-02, -7.01974630e-02,  4.46039766e-01,  2.24038556e-01, -2.25753903e-01,  4.24033664e-02,  4.75975245e-01},
   {-3.91791970e-01, -3.65855336e-01, -4.40866917e-01, -5.15454747e-02, -8.05582821e-01, -2.28902116e-01,  1.85656905e-01,  6.30832538e-02,
     3.32862526e-01,  6.59096777e-01,  5.63451946e-01, -1.28552273e-01, -4.64919098e-02, -2.79927433e-01, -2.84990579e-01,  5.45682246e-03,
     1.91572130e-01,  6.04186952e-01,  1.11361229e+00,  5.43176711e-01,  5.02785861e-01,  5.31301424e-02,  6.94886386e-01,  1.11671194e-01,
    -3.03397924e-01,  4.02952075e-01,  4.97978806e-01,  3.45520496e-01, -3.09197344e-02,  2.25917436e-02, -2.03762110e-02, -1.13264926e-01},
   { 2.30167404e-01,  8.42056423e-02,  4.87064540e-01,  4.76359367e-01,  1.14838645e-01, -6.25241816e-01, -2.99823314e-01, -5.58862031e-01,
    -1.57476112e-01,  8.11835587e-01,  7.83539832e-01,  6.38463974e-01,  8.49660814e-01,  8.81943464e-01, -1.19764246e-01, -2.69908875e-01,
    -1.00650644e+00, -1.16549516e+00, -3.61525983e-01, -8.07198584e-01, -7.17706800e-01,  3.51245970e-01, -2.98159868e-01, -1.99302495e-01,
     3.64145577e-01, -1.63148046e-01, -2.99267352e-01, -7.53322318e-02, -3.67067695e-01, -9.58308876e-02,  7.28873610e-01, -3.56527567e-01},
   {-3.84713933e-02,  2.77499259e-01,  1.85093001e-01, -3.59938294e-02,  5.98817542e-02, -1.30710408e-01,  3.74656558e-01,  3.96909922e-01,
     7.27145672e-01,  1.07908893e+00,  6.34692609e-02, -6.79273844e-01, -1.38390452e-01,  3.12929273e-01,  1.26291072e+00, -1.35920018e-01,
    -8.61260295e-02, -6.45717025e-01, -2.01466139e-02,  6.82593107e-01, -3.91568005e-01,  1.87167153e-01, -1.69706509e-01, -1.16830990e-01,
     1.94152549e-01, -2.16891512e-01,  5.91549743e-03,  3.55531722e-01,  5.12160420e-01, -1.24077424e-01,  8.74945343e-01, -2.59983540e-01},
   {-4.07839745e-01,  4.19066072e-01,  1.26261324e-01, -4.57335830e-01, -1.06308572e-01, -1.04733698e-01, -7.90497884e-02,  1.19462919e+00,
     2.66993552e-01, -1.69796801e+00, -2.02930784e+00,  9.24474835e-01,  2.47406983e+00,  1.51447523e+00, -7.18372643e-01, -7.59023726e-01,
    -4.51497704e-01,  1.79556027e-01, -3.20577085e-01, -1.49401724e-01,  5.54067269e-02,  5.52695990e-01,  3.96652251e-01,  5.26152551e-01,
     4.47919607e-01,  5.33325374e-01, -3.11261654e-01,  7.34176263e-02, -3.69889408e-01, -7.37361908e-02,  1.63001230e-03,  1.74299061e+00},
   { 1.30561084e-01,  2.09601447e-01, -2.24708527e-01,  1.01160333e-01, -4.62314487e-01, -1.06005490e+00, -1.29913795e+00, -1.04270995e+00,
    -7.00736105e-01, -2.48932779e-01, -1.94349349e-01,  2.02106208e-01,  4.38918829e-01,  5.42469501e-01,  4.64395642e-01,  6.84365258e-02,
     2.37190157e-01,  1.15125716e-01,  9.21678990e-02,  2.88325369e-01,  4.08178538e-01, -4.56101522e-02, -1.36087969e-01,  1.33828491e-01,
     9.88567770e-02,  3.52072343e-02,  3.07001412e-01, -3.03327829e-01, -9.19568539e-03, -1.19273074e-01,  1.30251244e-01, -4.87011373e-01},
   {-2.30706662e-01,  4.55886692e-01,  4.59663033e-01,  8.44572723e-01,  6.01293385e-01,  5.76310456e-01,  1.64186716e-01, -2.02342004e-01,
    -5.87182879e-01, -4.27166462e-01, -6.52070463e-01, -7.71533251e-01, -5.59744298e-01, -3.62610698e-01, -3.36277604e-01, -2.23018616e-01,
     4.33562063e-02,  5.53445518e-01,  5.67961447e-02,  2.14789376e-01,  2.87320077e-01,  2.17504114e-01,  8.87385979e-02,  2.42585838e-01,
    -1.34799436e-01,  3.39654945e-02,  2.95584470e-01, -2.25784242e-01,  3.40031609e-02,  2.35248491e-01,  4.02599163e-02,  1.35151863e-01},
   { 3.83600034e-03, -3.19237970e-02, -4.76012647e-01, -3.37797165e-01, -3.33382338e-02,  9.51947495e-02, -2.95076706e-02, -2.21145093e-01,
    -2.62170851e-01,  5.09037450e-02,  1.11632101e-01,  4.03850116e-02,  1.18911281e-01,  6.35668859e-02, -3.07994783e-02,  1.75790742e-01,
    -2.60340095e-01, -2.66346544e-01, -2.60918587e-01, -2.75437981e-01, -1.90198004e-01, -6.68651462e-02,  3.18759605e-02, -1.33783549e-01,
     6.26207143e-02, -3.64222467e-01,  3.73753197e-02, -4.18691449e-02, -1.65198877e-01, -1.98961452e-01, -3.03463787e-01, -1.19205818e-01},
   { 4.32872355e-01,  6.11508265e-02,  4.45322553e-03,  3.61818910e-01,  4.90729809e-01,  2.61595815e-01, -3.66402417e-01, -1.65752661e+00,
    -1.19407403e+00, -3.46664041e-01,  8.15973401e-01,  6.49441659e-01,  1.51782587e-01, -5.37093729e-02,  2.46281937e-01, -2.88246330e-02,
     7.06725359e-01,  8.82045448e-01, -3.26702654e-01, -3.50635111e-01,  5.33627272e-02, -6.33604750e-02,  5.57418205e-02, -1.30589679e-01,
    -6.54117703e-01, -2.78066933e-01, -2.32951999e-01, -2.14538857e-01, -6.13131642e-01, -4.09947783e-02, -3.71417969e-01, -4.70949471e-01},
   {-9.73700508e-02, -1.09352231e-01,  3.21727693e-01, -6.50030732e-01, -3.15587699e-01, -1.07543874e+00, -1.23560941e+00,  8.64745751e-02,
     8.10565054e-01,  9.36945319e-01,  1.64195836e+00,  1.33172381e+00, -1.05105370e-01, -7.84020543e-01, -5.62209785e-01,  1.70772091e-01,
     3.81252289e-01, -2.52079785e-01, -1.82961419e-01,  2.73239285e-01,  5.47559619e-01,  4.58889231e-02, -1.95411637e-01,  2.03216195e-01,
     1.19368687e-01, -1.15623310e-01,  5.89009345e-01,  6.46621585e-01, -6.93235993e-02,  1.62443995e-01, -1.14243500e-01,  6.82545245e-01},
};

const float GRNN0_U[64][64] = {
   {-1.55177593e+00, -8.36526096e-01, -1.44751465e+00,  9.99891400e-01, -1.03673565e+00, -5.55003941e-01,  5.56818867e+00, -9.59700406e-01,
    -1.78831398e-01,  1.88480592e+00,  5.70072949e-01,  8.97276282e-01,  9.62461457e-02, -8.58061761e-02,  1.27514362e+00,  9.00662065e-01,
    -6.40359342e-01,  2.78588206e-01,  2.65483052e-01, -2.05977750e+00, -2.89411396e-02,  1.83979928e-01, -9.51455951e-01, -7.94068754e-01,
     1.30035007e+00,  2.81712741e-01,  1.30420315e+00,  1.71110284e+00,  5.54004192e-01,  9.45960104e-01, -1.78833580e+00, -3.38816166e-01,
    -6.70521855e-01, -6.79740846e-01, -2.74913096e+00,  1.02803040e+00, -1.36035994e-01, -2.63359022e+00,  6.81290865e-01,  3.98082995e+00,
     1.81070626e+00,  6.30375803e-01, -5.44726491e-01,  4.59708452e-01, -7.68747270e-01, -1.52127847e-01,  6.77658796e-01,  4.28260833e-01,
    -6.65768087e-02, -2.53529096e+00,  1.14621031e+00,  2.06216288e+00,  5.88098049e-01, -1.10415900e+00,  5.44301808e-01, -1.11696994e+00,
    -8.26994538e-01, -2.06596398e+00,  2.63800049e+00, -1.07720101e+00, -1.66055179e+00,  1.81074333e+00, -4.10132915e-01, -5.26519239e-01},
   {-5.49103880e+00, -7.21514988e+00,  5.37452042e-01,  1.73127341e+00,  6.87206507e-01, -3.09260082e+00, -4.72086477e+00,  1.04654980e+00,
     6.60356104e-01,  4.62878036e+00, -5.59538412e+00,  3.59199500e+00,  1.48811746e+00, -7.07365096e-01, -1.90043390e+00, -9.37189043e-01,
    -4.31042433e+00, -1.64871299e+00,  9.44602907e-01,  3.81973952e-01,  4.43866396e+00,  2.17362547e+00,  8.74813616e-01,  2.73244429e+00,
     2.74276781e+00,  2.07083631e+00,  1.53667212e+00,  1.29878342e+00, -8.98685336e-01,  1.73514277e-01, -3.27253079e+00, -8.63495827e-01,
     1.55898499e+00, -2.45952702e+00,  3.00860143e+00, -1.83419907e+00,  2.31226039e+00,  7.86133170e-01,  6.35409534e-01,  2.24671483e+00,
    -3.12599206e+00, -1.57091773e+00,  1.43365443e+00,  2.34019828e+00,  2.86626625e+00, -9.44604695e-01, -2.80105114e+00,  2.19047427e+00,
     8.94940019e-01, -4.00084209e+00,  7.97685385e-01, -6.26828551e-01, -2.03887010e+00, -3.04597374e-02,  1.61121571e+00,  1.34605896e+00,
    -5.76185405e-01,  1.65944278e+00,  1.29068375e+00, -1.18362057e+00,  2.13857722e+00,  4.46155787e-01,  2.00555280e-01, -7.15260386e-01},
   { 1.11225080e+00, -5.14863968e-01, -9.33330250e+00,  1.56857884e+00, -8.17468762e-01,  1.06980312e+00,  1.96837986e+00,  8.01015675e-01,
     2.02553916e+00, -7.10734904e-01,  1.05360401e+00,  4.05698776e-01,  1.15520489e+00, -4.07798976e-01, -1.27795625e+00,  3.73253012e+00,
     4.86550903e+00, -3.95939946e+00,  2.70935249e+00, -5.84375441e-01,  9.46025491e-01,  4.86342335e+00, -3.96665335e+00, -1.01576519e+00,
     1.24036169e+00, -6.43753409e-01,  1.70612454e+00, -1.03689313e+00,  9.55123067e-01,  1.13704669e+00,  1.34963477e+00, -6.30330026e-01,
    -3.18420506e+00,  5.48153877e-01,  3.04092550e+00, -8.42553854e-01, -3.39354068e-01, -1.31386721e+00,  1.64651886e-01, -3.41929650e+00,
     1.62344348e+00,  5.64659476e-01, -1.53130436e+00, -2.60537744e+00, -8.54864001e-01,  9.70953763e-01, -1.79259241e+00, -2.08642912e+00,
     2.46889710e+00,  1.79044080e+00,  9.44666445e-01,  2.38669276e+00, -1.21924806e+00, -2.10596323e+00, -3.51234496e-01, -2.21926498e+00,
     3.52524817e-02, -2.06240386e-01,  2.34610319e+00, -3.21329802e-01,  3.13533992e-01, -9.32253227e-02, -2.41027355e+00, -4.21045208e+00},
   { 3.74361068e-01,  1.10568607e+00,  7.35577524e-01, -4.93542385e+00,  1.25409091e+00,  2.43949342e+00,  9.18120980e-01,  2.18120560e-01,
     5.15445328e+00, -1.88678014e+00,  3.21528625e+00,  3.48433517e-02,  1.34650505e+00, -2.42416096e+00, -1.96765077e+00,  1.01227534e+00,
     2.81321454e+00,  2.98638701e+00,  1.56738126e+00, -1.86507213e+00,  1.10435532e-02,  2.11200571e+00, -1.54357874e+00,  1.54189885e-01,
     2.50046182e+00,  1.54899204e+00,  2.21799016e+00, -3.30854654e+00,  1.03771460e+00,  1.85212940e-02, -5.95578909e-01, -1.48739874e+00,
    -6.83379412e+00, -2.65412354e+00, -7.08410740e-01,  1.32243156e+00,  8.79460990e-01,  2.21170831e+00, -1.50737619e+00, -1.67471218e+00,
     2.96536636e+00, -3.64948153e-01,  8.23714674e-01, -2.59611034e+00,  5.48943937e-01,  3.12902164e+00,  8.87463272e-01,  3.05826545e-01,
    -1.85490274e+00, -1.51581466e+00,  1.87022471e+00,  4.98600101e+00, -1.53529668e+00, -9.22214508e-01, -4.80592906e-01, -1.41766250e+00,
    -3.27635884e-01, -3.15831923e+00, -4.31693792e+00, -1.46123612e+00, -8.01880658e-02,  1.86514747e+00,  7.01144785e-02,  1.91924798e+00},
   { 1.83558202e+00,  1.53466058e+00,  2.70600891e+00,  2.55863595e+00, -5.60171032e+00,  2.79328942e-01,  1.20626426e+00, -5.63726485e-01,
     3.37878585e-01, -4.06074792e-01,  3.47170854e+00,  1.70116365e+00,  5.86023331e-01, -5.69287300e-01, -5.44480562e+00,  7.98466086e-01,
    -1.25013888e+00, -7.05194950e-01,  5.68141751e-02, -7.38372803e-01,  1.15468574e+00,  1.70274186e+00,  1.78055382e+00, -3.15434545e-01,
     4.67894942e-01,  1.93579006e+00,  8.14629793e-01,  8.93373728e-01,  1.20895982e+00, -4.32466209e-01, -1.11909211e+00, -9.51968789e-01,
     1.92353463e+00,  2.13870978e+00, -2.73360968e+00, -1.79038554e-01, -1.76820838e+00, -1.39162266e+00, -3.31506878e-01, -1.38852850e-01,
    -7.09400475e-01,  7.15280056e-01, -2.39447141e+00,  1.95847130e+00,  1.22536814e+00,  1.70796514e+00,  7.78586209e-01,  1.17175078e+00,
     2.23448038e+00, -2.84644723e-01, -7.79500365e-01,  4.38302135e+00,  4.08296287e-01, -2.72314835e+00, -1.53017547e-02, -1.80997217e+00,
    -1.72423565e+00, -1.16532803e+00, -5.25323868e-01, -4.95573521e-01, -8.63373697e-01,  1.27104878e+00, -3.57703495e+00,  2.42268592e-01},
   { 1.14069533e+00,  1.51601720e+00,  2.72009909e-01, -2.23237133e+00, -1.56367302e+00, -6.84695387e+00,  2.07844901e+00,  5.21860242e-01,
     1.68911207e+00, -1.09390235e+00,  1.42506635e+00,  4.85975838e+00, -2.40076637e+00,  2.13527226e+00,  6.25056028e-01,  9.67539012e-01,
     6.63228798e+00,  2.67594433e+00, -2.89401770e+00, -2.01634359e+00, -1.98411334e+00,  1.09082901e+00, -1.88677120e+00,  2.66164131e-02,
     8.29072371e-02,  1.23929656e+00,  1.57091892e+00, -1.96223781e-01,  8.44950080e-01, -6.71813548e-01,  2.30571413e+00, -2.82768846e+00,
    -2.40801454e+00,  1.78053939e+00,  2.72245193e+00,  4.98648465e-01, -1.95594454e+00,  3.54308575e-01,  1.89417815e+00, -1.10564005e+00,
     4.42288101e-01,  6.24613404e-01,  7.73633957e-01, -3.72964191e+00, -1.66289139e+00, -1.62869835e+00,  1.14909661e+00, -2.23990250e+00,
     9.71218050e-01, -3.65120977e-01,  9.15791333e-01, -3.29637468e-01,  9.35430586e-01, -3.09487164e-01,  1.78335238e+00, -1.45293021e+00,
    -1.05038559e+00, -1.86210668e+00,  3.62247562e+00,  1.49850512e+00, -9.30051565e-01,  2.05262333e-01, -2.42753077e+00, -1.21591687e+00},
   {-5.27126026e+00, -2.27208757e+00,  3.32787424e-01,  4.53531885e+00, -6.12883985e-01, -6.59623563e-01, -1.48311424e+00,  3.90024990e-01,
     1.54957449e+00,  2.17506838e+00,  7.00936973e-01,  1.97102642e+00, -1.54544771e+00,  7.39401102e-01, -1.92213285e+00, -7.12015450e-01,
     8.81664574e-01,  1.51482785e+00, -1.16035485e+00, -3.04579198e-01, -2.23338294e+00,  2.82798624e+00, -2.69699425e-01, -9.71511662e-01,
     2.16428876e+00, -8.98081422e-01,  6.90024853e-01,  1.47750962e+00,  1.01833773e+00,  1.58295631e+00,  1.77753890e+00, -3.05040908e+00,
     7.25165784e-01, -1.65378797e+00, -4.80057240e-01, -2.12815225e-01, -9.38550711e-01, -1.55118093e-01, -6.87541842e-01,  1.98240310e-01,
     2.08915043e+00, -1.09722877e+00, -4.29114074e-01,  1.27193069e+00,  9.30834353e-01,  1.47093177e+00, -2.21481848e+00,  5.68584383e-01,
     6.47776186e-01, -2.27646017e+00, -1.25124633e+00,  1.40318716e+00, -1.86527717e+00,  1.20025627e-01,  4.90261286e-01, -6.42629325e-01,
     7.18148947e-01, -1.02608345e-01, -1.01884472e+00,  1.06164587e+00, -2.58641815e+00,  1.06319094e+00, -4.92754400e-01, -5.87654531e-01},
   { 2.97021866e-01,  6.46384537e-01, -2.33882084e-01, -3.34290981e+00, -1.00462782e+00, -1.71230936e+00,  2.38225713e-01, -6.41122627e+00,
     1.77138627e+00,  1.40756083e+00, -9.20184135e-01, -2.52986360e+00, -1.46575940e+00, -9.76819396e-01, -2.92445093e-01, -9.27585721e-01,
     7.14898646e-01, -4.09831375e-01,  5.91929197e+00,  3.33215803e-01, -1.46811098e-01, -7.83323705e-01, -2.81309748e+00, -6.33946240e-01,
    -1.48544919e+00, -4.00776863e-01, -2.23915670e-02, -5.52363023e-02, -1.46719432e+00,  3.97600204e-01, -3.00044447e-01,  1.75959516e+00,
     5.67483902e-01,  1.69593167e+00, -2.72921824e+00,  2.32596606e-01,  7.76187360e-01, -1.65531719e+00,  5.45659959e-01, -3.82418990e+00,
    -2.44237590e+00, -5.36451519e-01,  1.78332758e+00,  1.50162303e+00,  2.27047242e-02, -8.07518125e-01, -1.70897019e+00, -5.48380852e-01,
    -1.42597067e+00,  2.36414099e+00, -3.69058084e+00, -1.19044149e+00,  5.51157773e-01, -1.33716297e+00, -4.41256851e-01,  5.09582663e+00,
    -2.04351544e+00,  1.55210078e+00,  3.51593733e-01,  3.79690623e+00, -2.21210647e+00, -4.42953914e-01,  5.70646882e-01, -1.22990477e+00},
   {-3.41090500e-01, -5.32833219e-01, -1.94976425e+00, -1.90572470e-01, -1.87394750e+00, -7.42056072e-01, -1.14576721e+00, -1.93189549e+00,
    -1.05339956e+01,  2.19034344e-01, -3.03101945e+00, -2.71839887e-01, -1.02581501e+00,  2.82294035e+00,  5.22721481e+00,  6.37418091e-01,
    -3.61093473e+00,  1.18126309e+00,  2.33328223e+00, -2.07347584e+00, -5.94036043e-01,  1.30609703e+00, -1.21494269e+00, -1.31386209e+00,
    -1.28295219e+00, -2.38676071e+00,  1.30776322e+00, -1.88544405e+00,  1.97584069e+00, -2.60901141e+00,  2.08685780e+00,  2.19378877e+00,
     8.00653338e-01, -8.69777262e-01,  2.06799746e+00,  7.25740343e-02,  5.31075299e-01,  2.47406340e+00, -3.71737933e+00,  3.86547780e+00,
    -9.00916606e-02,  2.08539486e+00, -2.61647940e-01, -1.39221013e+00, -3.31308007e-01, -2.57571054e+00, -1.28204203e+00,  1.49326992e+00,
    -7.28188828e-02, -2.69212413e+00, -1.96058714e+00, -1.99600530e+00,  6.32436633e-01, -7.44118333e-01,  1.23932016e+00, -9.55440164e-01,
     3.32086349e+00, -1.39479399e+00, -3.70208949e-01, -1.73483157e+00, -1.66340196e+00, -7.94046938e-01, -3.49264431e+00, -1.38611972e+00},
   {-1.33528030e+00,  1.58219766e-02,  1.53370309e+00, -9.40716565e-01,  2.92728603e-01, -4.99413460e-01, -2.74401605e-01, -5.53905308e-01,
     1.42915690e+00, -4.50024080e+00, -7.95326889e-01, -1.56602764e+00, -8.37660849e-01,  4.42507416e-01, -1.12983847e+00, -2.43771031e-01,
     6.57792836e-02, -9.70989838e-02, -3.07934070e+00,  1.86654425e+00, -5.40180683e-01, -1.53455293e+00,  2.10860443e+00,  1.49044919e+00,
    -1.32170129e+00,  1.97359815e-01, -7.41026223e-01, -1.42811942e+00, -2.12002352e-01, -7.15223014e-01, -1.72562456e+00, -1.99195659e+00,
     2.12931490e+00,  3.04541087e+00,  1.30337095e+00, -2.59264350e+00,  9.77190912e-01,  2.11237574e+00, -2.39729118e+00,  1.38790643e+00,
     8.56174588e-01,  2.24129200e+00,  1.31684840e+00, -2.45445585e+00, -6.52218819e-01, -5.43972158e+00, -2.22113207e-01, -6.61637425e-01,
     2.66111612e-01, -8.32692206e-01, -1.71166539e+00, -6.32042587e-01, -7.37227499e-01,  3.18312824e-01, -1.29179850e-01,  2.39509559e+00,
    -2.53625274e+00,  1.40242910e+00,  1.78990650e+00, -3.04987526e+00, -4.07215357e-01,  5.97877085e-01, -6.44781232e-01,  1.32874441e+00},
   {-1.38265359e+00, -8.92272413e-01, -1.90386999e+00, -5.55343270e-01,  1.34522796e-01,  8.82513225e-01, -1.84912050e+00,  9.78465974e-01,
    -2.98932958e+00,  1.33380747e+00, -1.80227077e+00,  1.34016025e+00,  7.41570413e-01,  6.34290755e-01, -2.23586106e+00, -2.52807808e+00,
    -1.45921037e-01,  8.20162714e-01,  3.99565411e+00, -1.62207425e+00,  1.32459569e+00,  5.36057293e-01, -1.40233755e+00,  1.42443621e+00,
    -1.35077548e+00,  8.00024152e-01,  2.78203511e+00,  4.96283770e-01,  2.50682473e+00,  1.00890303e+00,  3.10127765e-01, -2.01897430e+00,
    -2.41169468e-01, -1.59429419e+00,  2.14994717e+00,  2.26115179e+00,  8.54081154e-01,  1.05448973e+00,  2.50629926e+00, -5.36044836e+00,
     1.90235472e+00, -2.60888195e+00,  1.90604675e+00, -3.18345547e-01, -9.73551393e-01,  2.62248588e+00,  3.41506720e-01, -2.92803049e+00,
     3.17234576e-01,  1.32071030e+00, -1.76916790e+00,  8.79628420e-01,  4.47285366e+00,  5.08285820e-01, -1.43346991e-02, -2.61629510e+00,
    -1.84095359e+00,  1.46245015e+00, -5.47648132e-01,  2.23769879e+00, -1.63439715e+00,  7.92691529e-01,  2.61757898e+00,  2.15363121e+00},
   { 3.20271873e+00,  2.45985150e-01, -1.19942212e+00,  1.67318225e+00, -5.31297505e-01, -1.72220039e+00,  3.31042504e+00,  4.00685579e-01,
    -4.32359070e-01,  1.61411732e-01, -3.28754745e-02, -3.35725331e+00,  6.03236794e-01,  1.17847431e+00,  1.97614968e+00,  1.90751982e+00,
    -2.67626405e+00,  7.55782947e-02,  6.90801799e-01, -8.56323242e-01, -6.18253350e-01,  1.12342584e+00, -2.20649600e+00, -1.98981595e+00,
    -6.16903603e-01, -6.37933910e-01,  6.30105883e-02,  2.43411735e-01, -8.10093999e-01,  1.51806355e+00,  5.03379047e-01,  4.53205436e-01,
    -3.37426990e-01, -5.45727015e-01,  1.83741629e+00, -3.19711208e-01, -1.27252436e+00, -2.81366467e+00, -5.96163511e-01, -1.17705032e-01,
     1.41141391e+00, -1.28473878e+00, -2.20852470e+00, -4.48886442e+00,  9.01597738e-01, -6.69427633e-01,  8.25501859e-01, -5.21215200e-01,
    -2.58735985e-01, -9.90236521e-01, -9.84850585e-01,  1.26227295e+00,  1.19528389e+00,  4.04347450e-01,  2.09115624e+00, -2.37806726e+00,
    -8.18777919e-01, -4.41731542e-01,  3.31007934e+00, -2.77452111e-01,  1.55778933e+00,  2.94148833e-01,  1.18745959e+00, -1.78924203e-01},
   {-1.93518329e+00,  1.04365861e+00,  8.77673745e-01,  3.09074283e+00, -1.00059140e+00,  3.45023513e+00, -1.39816058e+00, -1.67626774e+00,
    -7.42351860e-02, -3.30729628e+00,  6.52421653e-01,  4.99516949e-02, -5.09201860e+00, -1.61244839e-01, -5.44825673e-01,  2.50526071e+00,
     3.06212044e+00,  3.34578443e+00, -6.45184457e-01, -3.02392507e+00,  3.86392355e-01, -9.32465792e-01,  1.97098422e+00, -2.71462321e+00,
    -4.91563261e-01,  1.56685674e+00,  7.23490000e-01, -1.22295272e+00,  3.27883571e-01,  2.79141515e-01,  8.55404317e-01, -3.65028524e+00,
    -7.79360414e-01, -3.96773863e+00,  4.63807487e+00,  3.51428062e-01,  1.55276880e-01,  2.65142012e+00, -1.40023935e+00, -1.40302694e+00,
    -2.51031905e-01, -2.14013743e+00, -1.63236284e+00, -2.64351463e+00,  1.13368809e+00,  7.56898701e-01,  2.58464980e+00, -1.77583885e+00,
     6.66444719e-01,  2.83092976e+00,  3.76174831e+00,  1.60926890e+00, -3.51080561e+00,  1.08345389e+00,  6.83199108e-01, -2.73310542e+00,
     2.66195208e-01, -1.47769856e+00, -5.38618922e-01, -4.04255009e+00,  6.46735716e+00, -8.60886574e-01,  1.33107352e+00,  3.57041526e+00},
   {-2.49707031e+00,  2.32658520e-01, -8.11896443e-01,  1.69557083e+00,  1.44306764e-01, -1.40517664e+00, -2.72474384e+00, -1.73085821e+00,
    -2.79099321e+00, -8.49543333e-01, -2.11454129e+00,  4.20225906e+00,  1.62054873e+00, -3.88849902e+00,  2.07914686e+00,  2.00960422e+00,
    -1.97997916e+00,  8.75278354e-01, -6.35456133e+00,  4.14344263e+00, -1.81747818e+00,  1.53535530e-01,  3.10427165e+00,  1.02642202e+00,
    -2.04459858e+00, -1.06001413e+00,  1.32848418e+00,  4.64135706e-02, -5.94756901e-01,  6.35970011e-02,  8.79288375e-01,  2.67993903e+00,
    -2.33758783e+00, -2.22406793e+00,  3.45660257e+00,  2.70611942e-01,  1.27121305e+00, -2.70716476e+00,  1.36260235e+00,  3.07233024e+00,
    -1.18963873e+00,  1.46367610e+00, -2.07969046e+00, -1.91777337e+00, -1.80546319e+00, -1.66443348e+00,  2.61839342e+00,  5.95614791e-01,
    -2.58361411e+00, -1.55367959e+00,  4.76876527e-01, -1.92888880e+00, -6.94601238e-01,  5.19135356e-01,  2.39605689e+00, -2.02939796e+00,
     2.27536440e+00,  7.59281993e-01,  2.05586672e+00, -3.19994271e-01, -2.82831434e-02, -2.52930045e-01,  3.89746279e-01, -1.27232540e+00},
   { 1.57233238e+00,  1.09097528e+00, -2.58949304e+00,  1.13835740e+00,  2.30119634e+00, -6.55186355e-01,  2.29828405e+00, -3.07965112e+00,
    -3.04749680e+00,  7.59482160e-02,  1.54839671e+00, -2.11123180e+00,  2.67372036e+00, -2.84614968e+00, -7.97042656e+00, -2.37321877e+00,
    -3.41370296e+00,  1.70416427e+00,  2.39472651e+00, -2.13845801e+00,  1.06914747e+00, -2.83918071e+00,  1.43313599e+00,  1.92778206e+00,
     6.43359363e-01,  4.43690109e+00, -1.72293234e+00,  8.97913218e-01, -2.31912184e+00, -3.65259528e-01, -4.29026127e+00, -6.97366834e-01,
     4.44845486e+00, -2.14364147e+00,  4.99680668e-01,  7.04071522e-01, -1.85821176e+00,  2.21025944e+00, -2.01540422e+00,  4.14995098e+00,
     2.91279960e+00,  1.10812902e+00, -6.56448603e-01,  6.40635565e-02,  1.03769410e+00,  2.21097851e+00, -5.24901152e-01,  1.77093458e+00,
    -1.19762039e+00, -1.14085531e+00,  2.46848941e+00, -1.66337025e+00,  5.03429747e+00,  2.80179024e+00, -6.06467798e-02, -2.12745100e-01,
     2.57744145e+00,  5.86403608e-01, -1.71592450e+00,  6.62617743e-01,  1.41375315e+00, -2.28406739e+00,  2.26991248e+00,  3.68232942e+00},
   {-2.06573531e-01, -9.50723290e-01, -4.62275267e-01,  1.85598159e+00, -2.85561502e-01, -4.00381994e+00, -1.06640637e+00,  3.34633994e+00,
     9.47812498e-02,  1.33201158e+00, -1.48495150e+00,  2.89021707e+00,  1.38393953e-01,  1.58154857e+00,  5.02324924e-02, -8.70009041e+00,
    -5.34893274e+00, -1.04958260e+00,  1.36972475e+00, -1.66475928e+00,  3.26522961e-02,  2.33997655e+00,  2.18651891e+00,  1.25070763e+00,
    -1.78554788e-01, -4.56763363e+00,  9.81935859e-03,  1.12466204e+00, -2.98735046e+00,  4.72456783e-01,  1.37787211e+00,  1.72032118e-02,
    -7.02658772e-01,  1.46378681e-01,  4.27911699e-01, -2.67672324e+00, -7.09238127e-02,  4.88549948e-01, -5.43513536e-01,  8.47050786e-01,
    -1.46311700e+00,  2.87844324e+00,  1.07715440e+00,  6.90318108e-01,  6.23071611e-01, -4.67859983e+00, -5.47290993e+00,  5.12896419e-01,
     1.13214779e+00, -4.32345200e+00, -2.03629208e+00,  1.32274818e+00, -3.13523722e+00, -4.02788162e+00,  1.85319686e+00,  1.00561827e-01,
    -2.95634532e+00, -6.88139260e-01, -2.02564764e+00,  1.42338789e+00,  4.92383862e+00,  1.84677935e+00, -3.41355348e+00, -7.35056758e-01},
   { 9.60558206e-02,  4.01601821e-01, -2.25743079e+00,  2.32762623e+00, -2.98717904e+00,  2.22622361e-02, -2.05609846e+00, -7.51939476e-01,
     7.98666757e-03,  3.09819007e+00, -2.09643340e+00,  2.97114635e+00, -8.36264014e-01,  2.88511205e+00,  4.12915850e+00,  2.31497669e+00,
    -9.29168415e+00,  3.82399178e+00,  9.16174054e-01, -3.54597181e-01, -1.50723422e+00,  8.79364908e-01, -6.76880851e-02, -3.77134651e-01,
    -2.05564246e-01, -5.67142308e-01,  1.95628071e+00, -1.94584870e+00, -1.70187104e+00,  6.00170493e-02,  4.57563496e+00,  1.53579426e+00,
     3.53430331e-01,  1.64421380e+00,  2.19626856e+00,  4.02053855e-02,  2.42787313e+00,  3.36033320e+00, -1.15584731e+00,  3.75564790e+00,
    -1.48933387e+00,  1.77824724e+00,  7.12877154e-01, -5.81245756e+00, -1.60908365e+00, -7.16340923e+00, -1.59925532e+00,  2.87025273e-01,
     1.97468829e+00, -3.83657074e+00,  8.86521339e-01, -3.29858494e+00,  1.90247095e+00, -1.86229956e+00,  2.43333507e+00, -1.35333106e-01,
     4.93498832e-01, -5.55375218e-01,  1.80147064e+00, -7.14395165e-01,  5.88341892e-01,  2.42915392e+00, -6.82482529e+00, -4.48729008e-01},
   {-9.68972981e-01,  1.26767203e-01, -4.36139345e-01,  2.82528830e+00, -2.02754498e+00, -3.37497282e+00,  1.32375920e+00,  5.24872601e-01,
    -3.15918064e+00,  2.33141780e+00, -2.57239199e+00,  4.82866430e+00, -5.17372072e-01,  9.52953041e-01,  1.85432947e+00,  5.97092628e-01,
    -2.91728354e+00, -7.31659460e+00, -8.16164303e+00, -1.96185589e+00,  1.51132166e-01,  1.39442909e+00, -1.27777815e+00,  1.53411075e-01,
    -3.91021907e-01,  4.16574049e+00,  2.31960082e+00,  9.28092837e-01, -1.25405574e+00, -5.34036815e-01, -3.82496715e+00, -1.05136657e+00,
     1.06372845e+00, -2.92941958e-01,  4.32040834e+00, -2.29611516e-01, -1.39003992e+00,  3.44281578e+00, -2.43574071e+00, -2.92805266e+00,
    -1.97472417e+00,  4.58126098e-01, -1.52966893e+00,  6.39092863e-01,  1.13419104e+00, -3.13823557e+00,  1.32092059e+00,  2.16005063e+00,
     7.20055342e-01, -2.70091701e+00, -4.55977589e-01, -1.76983371e-01, -1.34760165e+00, -8.58993948e-01,  2.84781790e+00, -9.17805552e-01,
     2.97461838e-01, -8.46026778e-01,  1.92455482e+00, -1.51460958e+00, -2.83548087e-01,  1.08682647e-01, -8.82182956e-01, -1.30822575e+00},
   { 3.73407745e+00, -2.08303005e-01, -1.60901046e+00,  4.50316381e+00,  5.93728423e-02,  1.06813049e+00,  2.85316062e+00, -8.39379728e-01,
     4.09786433e-01,  9.60382700e-01, -4.28946447e+00, -2.35183692e+00, -1.31371415e+00,  1.32662380e+00, -7.12413862e-02,  1.25655413e+00,
    -3.23318911e+00,  3.05802846e+00, -8.37933731e+00, -1.37143433e+00, -4.48196590e-01,  1.62800086e+00, -2.00122014e-01, -5.17333388e-01,
     7.96659052e-01, -4.11114740e+00,  4.96858060e-02,  4.21167970e-01, -9.62446809e-01,  7.67326355e-01,  2.78576231e+00,  1.00553334e-01,
     1.02277625e+00, -2.74831462e+00, -1.07634294e+00,  6.41920388e-01, -5.21626398e-02, -1.20256519e+00,  1.33309436e+00,  2.52942175e-01,
     6.97490394e-01, -1.74828663e-01,  8.09027851e-01, -2.05769658e+00, -4.70006466e-02,  2.02775764e+00, -7.40382731e-01,  1.67409015e+00,
     3.36586535e-01, -3.30260181e+00,  1.00774407e+00, -9.45862830e-01,  4.12678748e-01,  3.95795941e-01,  6.76339507e-01,  1.40841439e-01,
    -1.16758358e+00,  7.62608647e-02,  4.72916931e-01, -2.85862827e+00, -1.06891143e+00,  5.17613351e-01,  4.32098210e-01, -1.13187897e+00},
   { 2.13534760e+00,  4.18289870e-01,  2.31209922e+00,  2.92609739e+00, -6.16360545e-01,  2.75239646e-01, -2.92849779e+00, -2.45605016e+00,
    -1.84165502e+00, -2.08414698e+00,  8.11003804e-01,  1.58953774e+00, -1.71326792e+00, -1.78033441e-01, -6.05702758e-01, -3.39231896e+00,
    -1.74649560e+00, -6.68129027e-01, -1.43657124e+00, -8.02078438e+00,  1.56151056e+00,  1.86064327e+00,  2.59035015e+00, -2.60591656e-01,
     9.14769113e-01, -9.22299027e-01, -4.44729757e+00,  1.00023174e+00, -1.36200356e+00,  5.49708009e-01, -1.54823029e+00,  2.70393991e+00,
     1.18498787e-01, -1.01282310e+00,  4.21882296e+00, -1.81920063e+00, -1.02403450e+00, -1.41084886e+00, -5.31357944e-01,  5.14226072e-02,
     8.36038208e+00, -1.60948384e+00,  5.02301931e-01,  6.03649855e-01, -7.48864412e-01,  1.62803090e+00,  5.52374125e-03,  3.54649949e+00,
    -9.25715744e-01, -1.42430639e+00,  1.19727564e+00,  3.64624023e-01,  2.41174173e+00, -5.28037429e-01, -3.67578059e-01, -2.42995667e+00,
    -1.11387718e+00, -4.35026914e-01, -2.00301504e+00,  1.47281528e+00, -4.78669345e-01,  4.89819735e-01,  2.79184556e+00, -2.65361452e+00},
   { 8.89505625e-01, -3.04498506e+00, -1.65207648e+00, -5.39408743e-01, -4.36627179e-01, -1.88855374e+00,  2.14940286e+00,  1.12975585e+00,
     9.78736043e-01, -9.49007198e-02, -2.06518269e+00, -4.82233286e-01, -1.51917005e+00,  1.10351980e-01, -3.73230290e+00,  5.82111776e-01,
     1.14354348e+00, -1.36546302e+00,  8.99628460e-01, -1.73929882e+00, -3.15825224e+00, -9.37931240e-01, -2.90077662e+00, -9.09681439e-01,
     1.17501509e+00, -9.25265610e-01, -1.31224647e-01, -1.82817459e-01, -1.50365090e+00, -1.80131662e+00,  3.09851146e+00,  2.91684365e+00,
     1.01462734e+00, -9.13344443e-01, -1.97997522e+00, -6.14606142e+00,  6.26309574e-01, -6.82864487e-01,  5.64727366e-01,  8.71333599e-01,
     1.25823903e+00, -2.47093186e-01, -1.61475766e+00,  2.82434535e+00,  2.72219539e-01,  4.13277388e-01,  1.76254988e+00,  7.48473644e-01,
    -2.36967540e+00, -1.57424510e+00, -1.79329827e-01,  1.02446532e+00,  3.41929793e+00,  1.50228500e+00, -4.03135836e-01, -2.41457534e+00,
     1.27064788e+00, -1.60202336e+00, -1.66995859e+00, -2.92211950e-01, -2.62009001e+00,  1.98725894e-01,  2.04574656e+00,  2.69093227e+00},
   { 4.81639862e+00,  1.71984541e+00,  2.23805413e-01, -8.13756287e-01, -1.30983746e+00, -1.05541813e+00,  1.72536993e+00,  2.47976303e+00,
     8.55144560e-01,  1.76949751e+00, -1.25359595e+00,  1.93089533e+00,  2.48119187e+00,  2.96985745e-01, -2.84108496e+00, -1.12523532e+00,
    -5.80158174e-01, -9.69311595e-01,  3.23356152e+00, -2.42048717e+00, -1.23424852e+00, -1.31546223e+00,  2.56249428e+00, -1.59217429e+00,
    -3.18707228e-01,  4.64444447e+00,  2.39694953e-01,  3.32908010e+00,  7.71032035e-01, -2.65074801e+00, -3.93319055e-02, -9.83283341e-01,
     5.88172054e+00,  3.76833618e-01,  3.64003778e+00,  1.86354196e+00, -2.38653398e+00,  5.42852211e+00, -1.00715041e+00,  1.08679724e+00,
     4.15693223e-02, -9.15722549e-01, -7.08158314e-01,  9.07735080e-02,  1.15907180e+00, -2.62621015e-01, -8.04188013e-01,  3.29173994e+00,
    -1.77726889e+00, -5.61921187e-02,  1.35911727e+00, -3.67299724e+00,  3.70821214e+00,  6.45939636e+00,  5.43044984e-01, -1.66241980e+00,
    -2.26440716e+00, -1.53047419e+00, -2.12031031e+00, -1.80016828e+00, -1.45498383e+00,  1.07285225e+00,  3.46022606e-01, -4.89922822e-01},
   { 2.65099794e-01, -7.27233067e-02,  3.22014868e-01,  6.37440324e-01,  3.22576791e-01,  2.27377370e-01,  5.00051558e-01, -9.41776454e-01,
    -3.46314251e-01,  1.55909264e+00,  8.07560682e-01, -1.50310636e+00, -4.19958949e-01,  2.85626888e-01, -1.06519830e+00, -3.86974454e+00,
    -4.55024815e+00,  2.23632407e+00,  1.37184262e-01, -1.11923623e+00,  1.29693067e+00,  7.63416946e-01, -8.94209576e+00,  9.63055372e-01,
     3.97571772e-01, -2.65264010e+00, -2.11018305e-02, -1.48516572e+00, -3.99682581e-01, -5.58730781e-01,  1.22325969e+00, -1.28304124e+00,
     1.08339798e+00, -8.84747267e-01, -2.18718648e+00, -5.52075565e-01, -8.71310234e-01, -8.79600465e-01, -3.33770418e+00,  1.73516870e-01,
     5.57331443e-01,  7.23749220e-01, -4.15141344e-01, -2.48809695e+00,  1.12933330e-02, -1.40312064e+00,  1.18604219e+00, -1.88590634e+00,
    -9.84603047e-01, -2.03686094e+00,  8.57846737e-01, -1.49376035e+00, -7.32770324e-01,  9.76407409e-01,  6.11445047e-02, -5.46166003e-01,
    -1.42805099e+00, -6.33516371e-01,  1.38318193e+00, -1.34444618e+00, -2.49966598e+00,  1.21934581e+00,  2.49872518e+00,  3.50048423e-01},
   {-1.75808921e-01,  4.06085849e-01, -1.37230110e+00, -1.06434785e-01,  9.58124042e-01, -1.05510250e-01,  2.19703531e+00, -1.38865173e+00,
     1.49584854e+00, -1.48644328e+00, -2.97035384e+00, -9.81692612e-01, -8.87529910e-01, -1.30719578e+00,  2.16007710e+00, -1.35002518e+00,
    -1.54733801e+00, -5.84306479e-01, -1.35885394e+00, -8.74341011e-01,  4.25518870e-01, -1.42553523e-01, -3.71097183e+00, -8.06029892e+00,
     2.73378164e-01, -3.06815600e+00, -5.59186459e-01, -6.28109813e-01, -2.95436001e+00,  2.49195337e+00,  3.21167380e-01, -6.59752965e-01,
    -4.44725752e-01, -2.21387386e+00, -1.93101597e+00, -3.30396795e+00, -6.30530193e-02, -2.63497210e+00, -3.44647264e+00,  3.77945852e+00,
     2.83874822e+00, -2.17570281e+00, -9.50667262e-01, -2.02112389e+00, -2.23819241e-02,  1.08485699e+00,  8.74721110e-02, -3.16177821e+00,
    -8.31783712e-01, -4.31436014e+00, -1.66401610e-01,  3.56616527e-01,  2.15590954e+00,  1.89920396e-01, -6.08313560e-01, -2.33766031e+00,
    -1.43628228e+00, -3.99827026e-02, -6.98410273e-01,  3.50918442e-01, -2.52786565e+00,  8.59795928e-01,  4.73582566e-01, -1.36286354e+00},
   { 7.77091146e-01,  1.09496154e-02,  8.24627504e-02, -5.50227284e-01,  2.17805833e-01, -1.54968917e+00,  3.27836466e+00,  1.82499206e+00,
     1.65613902e+00,  2.48883677e+00, -1.42763183e-01,  2.31174961e-01,  8.28978494e-02, -1.57269681e+00, -3.36299491e+00, -2.74761587e-01,
     1.94625461e+00, -6.27921820e-01, -1.77901530e+00, -5.48177183e-01,  1.17028677e+00,  1.64136201e-01, -2.78538322e+00, -1.03571999e+00,
    -3.80683780e+00,  1.67113543e+00,  1.62300661e-01, -2.81204134e-01, -5.05232573e-01, -2.84479141e+00,  4.45029050e-01, -3.57877660e+00,
     2.72022438e+00,  4.86996889e+00, -3.10322595e+00, -2.86945045e-01, -8.58857751e-01,  2.68500781e+00,  1.82916045e+00, -7.93079376e-01,
    -5.30305445e-01,  2.80001473e+00,  1.79401428e-01, -4.13055706e+00, -4.73255247e-01, -3.13558504e-02,  2.81881876e-02,  3.28462911e+00,
     1.71888173e+00, -2.72310877e+00, -9.77511778e-02,  4.67419815e+00,  1.90805423e+00,  2.41978097e+00,  7.57931545e-02, -1.35673121e-01,
    -1.98055077e+00, -1.76381803e+00,  1.86995482e+00, -1.19408584e+00, -1.27482426e+00,  1.76532662e+00, -1.00929320e+00,  1.37126482e+00},
   {-2.69968200e+00,  2.41048479e+00,  8.15009296e-01,  3.60392427e+00, -1.53142691e+00,  2.32334539e-01, -3.33328056e+00,  3.44634950e-01,
    -4.19561297e-01, -5.62821388e-01, -2.23134354e-01, -1.13636005e+00, -7.09596395e-01, -9.57475483e-01, -1.53358638e+00, -2.67316747e+00,
    -6.88135862e-01, -1.58152312e-01,  3.80230594e+00, -6.08575821e+00,  1.30146182e+00,  1.51875448e+00, -7.07681298e-01, -4.26722407e-01,
     8.94187808e-01, -6.83464718e+00, -1.23442590e-01,  1.00915186e-01,  3.19398546e+00,  4.16031927e-01,  2.82257915e+00,  1.04714060e+00,
     1.30835402e+00, -1.67885709e+00,  6.27433538e-01, -4.90283549e-01,  1.90769708e+00,  1.53760135e+00,  5.22574782e-01,  1.02744353e+00,
     1.38309050e+00, -5.38433170e+00,  3.85283828e+00, -1.38089478e+00, -6.96480215e-01, -5.58524840e-02, -2.43946242e+00,  2.97051400e-01,
     7.23268911e-02, -1.59895480e+00,  1.55982941e-01, -2.21951008e-01, -4.70654190e-01, -8.45724791e-02, -3.35335803e+00,  1.11627519e+00,
     7.04171181e-01, -3.83088160e+00, -1.83537638e+00,  1.22257006e+00,  3.51065367e-01,  8.68942916e-01,  1.72309732e+00, -2.06698203e+00},
   {-1.54120266e+00, -5.75853825e+00, -4.25905132e+00, -1.99736977e+00,  2.36424148e-01, -2.13934708e+00,  1.51739693e+00,  1.05188407e-01,
     8.44719261e-02,  1.48724520e+00, -4.87017202e+00, -3.31985712e-01,  7.02229023e-01,  1.04954541e+00,  1.43170953e+00,  4.69996929e+00,
    -2.22550821e+00, -9.88894045e-01, -4.38072085e-02,  6.01498187e-01, -1.39272416e+00, -3.80962789e-01,  2.76665783e+00, -1.86275089e+00,
     8.79685879e-02,  6.06436789e-01, -2.38982129e+00, -7.25865960e-01, -1.11886919e+00, -2.13292807e-01, -2.55152941e+00, -7.45633900e-01,
     1.18875670e+00, -3.81838918e+00,  3.00533009e+00, -1.50331855e+00, -5.63152730e-01,  4.16025448e+00, -2.62726736e+00,  1.59832984e-01,
    -6.87794209e+00, -1.54297209e+00, -4.13230324e+00, -5.00981808e-01,  7.79360592e-01,  1.10074949e+00, -1.03881562e+00, -7.32529700e-01,
     2.52109289e+00,  7.49116302e-01, -1.95754409e+00, -2.27029777e+00, -3.00732040e+00,  9.50091660e-01,  3.74795347e-01, -4.67735857e-01,
     4.85128975e+00,  1.77414906e+00,  3.07049656e+00, -4.52474785e+00,  2.51007199e+00, -8.74039590e-01, -1.33314192e+00,  1.01750088e+00},
   {-3.32260466e+00,  1.89303041e+00,  1.27140713e+00, -1.85740089e+00,  8.72912943e-01, -1.50272143e+00, -1.85795879e+00, -2.25932360e-01,
    -2.74166703e+00,  1.94898283e+00, -2.24107474e-01, -1.00250328e+00,  2.66178042e-01,  1.80166587e-01, -1.53080952e+00,  5.28338432e-01,
    -4.88932228e+00, -3.16829109e+00, -4.25191611e-01,  1.87218338e-01,  6.07067108e-01, -1.17275488e+00, -1.33310640e+00,  1.32623100e+00,
    -6.79648757e-01, -1.32354951e+00, -9.03348327e-01, -3.92011237e+00,  1.00755394e+00,  7.08904266e-01, -3.61560822e+00,  3.52050829e+00,
     2.91719770e+00,  2.86015868e+00, -1.07136464e+00,  5.88760376e-01,  1.73432624e+00, -1.08154356e+00, -1.10664332e+00,  2.95652080e+00,
     3.73166353e-02,  4.69399601e-01, -1.93570614e+00,  1.02735937e+00,  2.23216936e-01,  9.73440111e-02,  1.38317418e+00, -1.60505831e-01,
    -3.07219315e+00,  1.71391439e+00,  1.06837225e+00, -6.03025079e-01, -1.86835492e+00,  3.05825925e+00,  1.41254210e+00, -2.48984098e+00,
    -1.72303289e-01, -1.18086888e-02,  2.52689242e+00, -1.54876602e+00,  1.51117921e+00, -2.25576138e+00, -1.13828266e+00, -2.27937627e+00},
   { 1.95120788e+00, -1.32233584e+00, -7.38365889e-01, -1.63596225e+00, -5.93543649e-01,  1.04215540e-01, -8.34667325e-01,  1.99987817e+00,
    -1.70503485e+00, -4.27103162e-01,  3.61805409e-01,  1.01469290e+00, -1.58281624e+00, -4.64775294e-01,  3.38013721e+00, -6.49655640e-01,
     2.43775323e-01,  1.78241119e-01,  5.69272947e+00, -1.16025698e+00, -1.69468474e+00,  8.54462504e-01, -3.46060371e+00, -9.63981211e-01,
    -5.94410479e-01, -3.15491247e+00,  1.59786677e+00,  5.60547113e-01, -4.00396967e+00,  1.10047102e+00,  2.98852825e+00,  2.22217273e-02,
    -1.69805050e+00, -1.28602612e+00, -2.30612949e-01,  1.98678303e+00,  1.89658046e-01, -7.87268579e-01,  1.62409532e+00,  1.59794033e+00,
    -1.88183391e+00, -1.50457585e+00, -2.57482910e+00,  1.92383182e+00, -1.84250748e+00,  7.01857388e-01, -2.26409292e+00, -3.76395297e+00,
     5.28258467e+00,  2.98635960e-01, -3.70358801e+00,  9.39967215e-01,  3.21533036e+00,  7.00528979e-01,  5.83661079e-01,  1.79322863e+00,
     2.12394938e-01, -1.12835240e+00,  2.97850633e+00,  1.76872230e+00,  5.69742739e-01, -8.15895423e-02, -4.58767563e-01, -2.29773855e+00},
   { 4.70073080e+00,  3.43540335e+00,  2.72725558e+00, -8.88877988e-01,  5.87333083e-01, -1.24929535e+00,  3.84313846e+00,  1.11268556e+00,
     3.40111208e+00, -1.21931410e+00,  4.82062817e+00,  1.68822026e+00, -1.49441803e+00, -1.78470302e+00, -1.15795052e+00, -1.22959208e+00,
     1.25296438e+00, -5.64587533e-01,  1.88526499e+00, -3.00646377e+00,  2.49851830e-02,  3.89540553e-01, -1.68953633e+00, -1.37645483e+00,
     1.24169755e+00, -7.98307717e-01, -5.76188803e-01,  1.84295130e+00, -1.95568204e+00, -5.79407454e+00, -3.72239137e+00,  3.41992915e-01,
     6.95808053e-01,  6.71276569e+00, -1.81587553e+00, -2.21790880e-01,  2.50756621e-01, -3.12447476e+00, -2.24536204e+00,  5.99071980e-01,
     2.35186648e+00, -1.68250561e+00,  3.15901451e-02,  2.00139746e-01, -8.60793769e-01,  1.00884926e+00,  1.58798361e+00,  8.33041430e-01,
    -3.74335098e+00, -1.05200611e-01,  1.72270370e+00,  8.19223762e-01,  1.36232913e+00,  5.33884466e-01,  4.47930574e-01, -6.37257242e+00,
    -2.18739653e+00, -2.87974334e+00, -5.93212986e+00,  2.17573738e+00, -2.41025519e+00, -1.11468923e+00, -1.76029205e+00,  7.07092345e-01},
   {-5.25299883e+00,  1.16451561e+00, -3.73209214e+00,  1.69791961e+00, -2.50392199e-01, -1.78944373e+00, -2.67652082e+00, -1.14656699e+00,
    -3.03887457e-01, -1.14158165e+00, -2.07000422e+00, -8.73343050e-01,  1.95385158e+00,  4.52177942e-01,  2.92911863e+00, -8.64625335e-01,
    -3.40777254e+00,  3.43375087e+00, -2.66634321e+00, -3.64226341e-01, -4.01562482e-01,  2.45524859e+00, -1.11983085e+00,  1.77857208e+00,
     1.98557770e+00,  1.36057174e+00,  2.60943604e+00, -1.61519063e+00, -3.40806317e+00,  1.44988608e+00, -8.06878185e+00,  3.10541964e+00,
    -2.10930443e+00, -1.58980572e+00, -1.78410637e+00,  1.55160081e+00, -9.51060355e-01, -2.33173490e+00, -1.11372709e+00,  3.91213083e+00,
    -2.05229807e+00,  5.18361926e-01, -3.73564214e-01, -2.49031812e-01, -2.53367066e-01, -6.93812490e-01, -1.62541807e-01,  2.91467524e+00,
     6.01405621e-01, -4.49710894e+00, -2.01177418e-01,  3.86022043e+00,  2.63390899e+00,  1.06876361e+00,  1.25569034e+00, -3.61503273e-01,
     9.78798792e-02, -1.63094842e+00,  2.66340882e-01,  1.15837502e+00,  1.04863775e+00, -1.01285625e+00, -5.81162262e+00, -1.30405009e+00},
   {-1.65026391e+00, -2.90847158e+00, -3.36092979e-01,  2.97541189e+00,  3.03952885e+00, -3.90655696e-01,  5.05280495e-01, -8.66065323e-01,
     2.74689412e+00,  2.06260228e+00, -6.16487026e+00, -9.07204688e-01, -1.20800287e-01,  7.01923907e-01, -1.31535935e+00, -1.67141092e+00,
     1.22540545e+00,  6.82295620e-01,  1.81510651e+00,  1.91491857e-01, -1.81542146e+00,  1.64464772e+00,  2.74621892e+00, -1.44863868e+00,
     6.59598529e-01, -8.16200078e-01, -8.96203697e-01, -8.61880720e-01, -3.65686798e+00, -1.42769599e+00, -9.10143912e-01, -9.10483265e+00,
     2.55847573e-01, -9.50426877e-01, -1.31046581e+00, -2.41649008e+00, -4.86145049e-01,  1.76063144e+00, -1.57133881e-02,  2.97188544e+00,
    -4.13968325e+00,  4.37626958e-01,  1.94904006e+00,  3.58685672e-01, -1.06244791e+00, -1.74643636e+00, -1.52551019e+00,  4.14588976e+00,
    -2.94580579e-01, -5.63260651e+00, -2.76758623e+00,  8.62322152e-01, -1.09191883e+00, -5.10561526e-01, -1.71227649e-01, -7.19732940e-01,
    -2.89408088e+00, -6.95862949e-01,  5.18414788e-02, -1.80383861e+00,  2.86232567e+00,  1.04244864e+00,  1.32056499e+00, -6.66117489e-01},
   {-5.23951888e-01,  9.09309149e-01,  1.87316775e+00, -3.94029927e+00, -4.44233358e-01,  3.59730750e-01, -1.65994930e+00, -1.42875361e+00,
    -1.73125756e+00,  1.45911360e-02, -1.13328569e-01, -3.42093897e+00,  1.31068206e+00,  1.41332135e-01, -5.20249701e+00, -1.01241517e+00,
     1.25264049e+00, -2.86606818e-01, -2.93291664e+00, -1.08012414e+00,  1.94122624e+00, -2.50140369e-01,  3.16966677e+00, -3.78750861e-01,
    -7.76556253e-01, -3.53916168e+00, -1.29631090e+00,  1.24178290e-01, -6.31422177e-03, -2.02519059e+00, -2.46439624e+00, -1.18506420e+00,
    -6.69086456e+00,  3.03504848e+00,  1.62449241e+00, -3.81201118e-01, -1.09456038e+00, -1.25825237e-02, -1.12833965e+00, -1.32253051e+00,
    -1.64878464e+00,  2.65872741e+00,  1.08013332e+00, -3.16242647e+00, -3.13808560e-01, -4.27799034e+00, -7.33286858e-01, -9.45901632e-01,
     3.04035574e-01,  1.46904910e+00,  4.23484182e+00,  5.30544758e-01, -2.66514397e+00,  3.88503504e+00, -2.10375381e+00, -2.31333598e-01,
    -2.61773324e+00, -3.73410046e-01,  1.47327709e+00, -2.84876466e+00, -7.09461987e-01,  1.52297604e+00, -8.32871914e-01, -3.52820218e-01},
   {-3.11462021e+00,  5.05493343e-01, -1.35941541e+00,  3.70109707e-01, -1.75782168e+00,  4.71940428e-01, -2.98688412e+00, -1.01451313e+00,
    -1.68538487e+00,  7.86793411e-01,  1.17454016e+00, -1.14015579e-01,  4.46263790e+00,  1.27493787e+00,  1.50838101e+00, -2.01574063e+00,
    -2.84867167e+00, -6.35382593e-01,  2.19165802e+00, -5.43092680e+00,  1.36422205e+00,  1.09138870e+00,  6.20191932e-01,  4.12158251e-01,
    -6.22896731e-01,  3.62172961e+00,  3.08532047e+00, -1.48926914e+00,  1.69605911e+00, -7.51097873e-02,  3.86726260e-02,  1.83804536e+00,
    -1.43559575e+00, -8.76923466e+00,  5.91056585e-01,  1.92618871e+00,  2.41656117e-02,  5.36954927e+00, -7.18989074e-01, -2.39328837e+00,
     7.40531608e-02,  2.95009613e+00,  2.49057007e+00,  2.44155598e+00,  1.06989276e+00,  6.20973825e-01, -1.41321361e+00,  6.11034513e-01,
    -1.68952394e+00,  7.09698871e-02, -1.78493947e-01,  1.21806490e+00,  2.00535774e+00,  5.83034992e-01, -1.32411078e-01,  8.62002373e-01,
     1.94397628e+00, -2.51913190e+00, -9.96422544e-02,  1.81849837e+00, -2.23701882e+00,  6.71462417e-01,  2.43254945e-01,  2.11804485e+00},
   {-1.03026366e+00, -1.64163515e-01, -5.20680547e-01,  3.38702893e+00,  8.10926974e-01, -1.11776519e+00, -2.90368581e+00,  7.31595933e-01,
     1.11749567e-01,  2.03553855e-01, -1.10271657e+00,  7.40430832e-01, -3.67433619e+00, -7.40069598e-02, -2.28930163e+00,  2.14123774e+00,
     2.49503756e+00, -7.13716173e+00, -2.94186378e+00, -2.72897458e+00, -4.43249077e-01,  9.38428283e-01,  1.01178217e+00, -1.76107037e+00,
     1.74016345e+00,  4.78446865e+00,  5.33391118e-01,  1.22054338e+00,  8.00703645e-01, -3.23284745e-01, -2.05581546e+00, -1.17780292e+00,
    -9.68817592e-01, -1.41182423e-01, -5.03208876e+00,  2.37128779e-01, -1.09699512e+00, -2.50975996e-01, -1.09335923e+00, -2.32290244e+00,
    -2.07121825e+00, -1.36358392e+00, -1.07604301e+00,  1.05484664e+00,  2.07006976e-01, -9.87582505e-01,  1.80905569e+00, -7.82819092e-01,
     2.07269025e+00, -7.32229948e-01,  5.13873518e-01,  3.92774522e-01, -1.46004391e+00,  6.35761440e-01,  1.56641018e+00, -1.81449783e+00,
     2.78044653e+00,  4.84036580e-02,  1.01019061e+00, -3.85222650e+00,  3.15104902e-01, -9.36706364e-01, -1.18975937e+00,  2.23009205e+00},
   {-2.41700244e+00, -8.39933634e-01, -3.31409574e+00,  2.19101095e+00, -1.56171656e+00,  1.30337501e+00,  4.18379754e-01,  2.73358679e+00,
     1.63741565e+00, -2.23067141e+00, -1.83604050e+00,  1.13650906e+00, -5.23332953e-01,  4.68486041e-01,  1.44693685e+00, -4.48930025e+00,
    -1.28540671e+00,  3.09204221e+00,  3.09162378e+00, -2.42581010e+00,  6.07469022e-01, -1.61050856e+00, -1.09716165e+00, -1.47397363e+00,
     5.65613806e-01,  4.51683331e+00,  1.78517425e+00, -5.63806482e-02,  2.01948428e+00,  6.60627902e-01,  1.53643095e+00, -5.76416135e-01,
    -1.40109524e-01, -2.52920628e+00,  2.11392856e+00, -1.13804042e+00,  9.72058296e-01,  5.88951206e+00,  3.06370997e+00,  9.96281624e-01,
    -3.66924500e+00, -7.56457031e-01,  9.42240596e-01,  3.53044844e+00, -1.62875384e-01, -1.48407459e+00, -9.50997174e-01, -1.09204888e+00,
     1.01709807e+00,  2.49852633e+00, -3.70024776e+00,  3.49720836e-01,  2.31596157e-01, -1.38815433e-01,  1.55777311e+00,  1.62975144e+00,
     2.29996490e+00, -1.90012658e+00,  1.84005901e-01,  4.70178318e+00, -1.28683543e+00,  9.48734164e-01,  1.65688947e-01,  7.64156282e-01},
   {-2.52835464e+00,  1.08776081e+00,  4.46944356e-01, -5.39268136e-01,  7.12601900e-01,  4.39854622e-01,  1.83556938e+00, -1.11564413e-01,
    -3.91844541e-01,  1.62897491e+00,  2.09864640e+00,  8.00573587e-01, -1.34614319e-01, -1.21082529e-01,  1.66872367e-01, -2.29418516e+00,
    -2.28036642e+00,  3.57316422e+00, -1.00251353e+00,  1.03362906e+00, -3.84500593e-01,  1.05274558e+00, -3.27967739e+00,  1.75522244e+00,
    -7.92797565e-01, -4.84568501e+00, -5.74193120e-01,  3.50501984e-01,  4.31964964e-01,  1.11651731e+00, -2.20096636e+00, -7.43126273e-01,
     1.08408475e+00,  4.09239149e+00, -7.75491953e-01,  1.54009700e-01, -7.36762667e+00, -1.50489017e-01, -6.37797862e-02,  4.60137129e-01,
     2.16696605e-01, -9.45631742e-01,  2.21244669e+00, -1.21131027e+00, -5.36825597e-01, -1.50564706e+00,  1.33455789e+00,  5.38818061e-01,
    -2.89138865e+00,  2.80937582e-01,  1.32309902e+00, -9.13775206e-01, -2.82124138e+00, -1.67568159e+00, -3.89242589e-01, -2.31846857e+00,
    -4.45285130e+00, -2.19652340e-01,  1.46022284e+00,  5.49423361e+00, -2.67409492e+00,  8.52796137e-02, -4.74598974e-01, -3.69735384e+00},
   {-3.59714460e+00,  6.45365298e-01,  1.77555412e-01, -1.18263376e+00,  2.17726424e-01,  7.78558731e-01, -3.53781366e+00,  1.18610728e+00,
     4.83039522e+00, -2.73320961e+00, -1.96980894e+00,  7.19954193e-01,  1.64137125e+00, -4.15076107e-01, -3.29360509e+00,  1.05966210e+00,
     2.08637142e+00, -3.53261495e+00, -1.21054614e+00, -2.41087103e+00, -1.67436779e+00,  2.59759712e+00,  1.89123034e+00, -6.17116511e-01,
    -2.98785627e-01,  1.27568173e+00, -1.02703726e+00, -1.50239313e+00, -1.97939503e+00, -1.30241930e+00, -1.03214586e+00, -1.11438215e+00,
    -1.17787802e+00, -5.77862167e+00,  1.05291426e-01, -9.61847782e-01, -7.12346613e-01, -6.15849590e+00, -1.49769321e-01, -1.22932720e+00,
    -2.55218774e-01,  7.23827660e-01,  1.11487997e+00, -2.82892585e+00,  1.47164583e+00,  1.96058941e+00, -3.13628387e+00,  2.70168543e+00,
    -1.01983833e+00, -1.21890342e+00,  1.27388608e+00,  4.91897523e-01,  1.25817966e+00,  3.13788319e+00,  1.01036286e+00,  1.00426257e+00,
     2.15492892e+00, -1.54986882e+00, -2.52409363e+00, -8.21200758e-02, -6.81234151e-02, -6.29938245e-01,  2.49288067e-01, -1.62070048e+00},
   { 1.50593567e+00, -5.40345287e+00, -8.33931267e-02,  2.00167871e+00,  2.68631220e-01, -1.34855342e+00,  2.37455916e+00,  1.13756931e+00,
     2.22482634e+00,  2.00748801e+00, -3.81174946e+00,  6.43205583e-01,  1.81121573e-01, -6.45712614e-01, -1.16951549e+00, -7.24595428e-01,
     1.70013261e+00,  1.36772323e+00,  3.79741579e-01,  6.18687296e+00, -1.96996748e-01, -6.12751059e-02,  3.92185897e-01, -3.10582131e-01,
     9.54610884e-01,  1.29412997e+00,  3.71408999e-01,  5.50535381e-01,  2.42907882e-01,  2.67093873e+00, -5.68786144e-01, -4.99594641e+00,
     3.66375983e-01,  4.55689609e-01, -4.26572084e-01, -6.92992508e-02, -3.14735472e-01,  1.20414793e+00, -3.60009360e+00,  2.26215363e-01,
    -5.77610683e+00, -1.74942338e+00,  1.88273978e+00, -1.08141339e+00, -1.18502879e+00, -2.92360258e+00, -1.28748083e+00, -2.27704644e-01,
     4.88491249e+00, -1.19186592e+00, -6.94338846e+00,  1.81320357e+00, -1.49392879e+00,  9.44889009e-01, -6.70381784e-01,  4.35602331e+00,
    -2.50302458e+00,  1.61239827e+00,  3.63955116e+00,  4.70576882e-01,  1.90240169e+00,  1.74198687e+00,  5.13608456e-01,  2.82035995e+00},
   { 2.01079583e+00,  1.94559455e+00,  1.49353039e+00, -8.00665975e-01, -2.67272067e+00,  2.37395477e+00,  4.71209431e+00,  4.40026611e-01,
     3.00326848e+00, -1.81066144e+00,  1.61998296e+00, -5.62609553e-01, -5.87245598e-02, -2.27249122e+00, -2.04355374e-01, -1.68934911e-01,
     1.20649111e+00,  3.74992371e+00, -1.31426799e+00, -3.67338538e+00, -8.25729892e-02, -9.95007277e-01, -3.55377603e+00, -7.07150578e-01,
     1.77631474e+00, -1.15929499e-01, -2.90853405e+00,  2.29547858e+00, -4.09404373e+00,  1.70759606e+00, -1.33054483e+00, -5.11537015e-01,
     3.03756505e-01,  7.25442886e+00, -3.06275439e+00, -2.63331866e+00,  6.85347855e-01, -1.92286336e+00, -1.03356206e+00, -7.57892847e+00,
     1.45985639e+00,  1.19311762e+00, -6.16181493e-01, -1.51177227e+00, -2.62732327e-01,  1.59487450e+00,  2.64634997e-01,  4.59620118e-01,
    -3.24551249e+00, -1.44902861e+00,  1.41336191e+00,  2.55602330e-01,  1.59012055e+00,  2.03631473e+00, -2.14284733e-01, -2.63974071e+00,
     1.88349828e-01, -5.17846012e+00, -2.02610517e+00,  2.01957488e+00, -3.51081657e+00, -8.44383001e-01, -1.54195464e+00, -6.77388310e-01},
   {-3.25253516e-01, -2.90557432e+00, -2.27594566e+00, -1.89216471e+00,  6.25885054e-02, -2.53623903e-01,  2.00974393e+00,  2.95374322e+00,
     2.61731791e+00, -2.68665701e-01, -6.69422895e-02, -4.57025826e-01,  2.00638604e+00, -2.27089494e-01, -4.46038723e+00,  1.08289599e+00,
     3.39953804e+00, -1.92966425e+00,  1.60435462e+00,  8.89229596e-01, -7.46159375e-01,  2.68123198e+00, -4.67257690e+00, -1.90929306e+00,
     2.09153771e+00,  2.02596402e+00,  3.56194496e+00,  3.19838852e-01,  2.16299272e+00,  2.66897981e-03, -6.35834455e-01, -2.33726454e+00,
    -1.27596724e+00, -3.06130648e-01, -1.32345140e+00,  1.37177455e+00, -2.62399650e+00, -1.54424298e+00,  2.84441805e+00,  1.01382744e+00,
    -8.18634605e+00, -3.83652925e+00,  6.82200432e-01, -1.02304316e+00,  1.21543229e+00,  2.45778871e+00, -2.31070876e+00, -2.66213584e+00,
     3.63726425e+00, -4.18458879e-01,  2.47444153e-01,  5.82255483e-01, -9.75192666e-01,  2.22360969e+00,  4.65715110e-01, -1.68070531e+00,
     1.75959349e+00, -1.76871255e-01,  4.05005932e+00, -2.55176854e+00, -6.43901587e-01,  2.76769686e+00, -7.25642025e-01, -9.02949929e-01},
   {-3.38834786e+00,  1.41805720e+00, -1.08568728e+00, -4.27120086e-03,  2.47619772e+00,  9.38403070e-01, -1.72780037e+00, -3.80219245e+00,
    -2.80509782e+00, -1.67986941e+00,  2.76439714e+00,  4.16352600e-01,  2.55648017e+00,  2.90887386e-01, -2.34592247e+00,  3.79660934e-01,
    -3.90323222e-01,  1.75376511e+00, -1.34541142e+00, -1.17441702e+00, -4.53100234e-01, -6.01692200e-01,  1.02151155e+00, -1.46506354e-01,
    -3.23690557e+00,  2.26694465e+00,  8.25056136e-01, -2.79428577e+00, -3.20325589e+00, -3.27550936e+00,  4.23227644e+00, -8.44270527e-01,
    -2.48341274e+00, -1.93426049e+00,  1.63473397e-01, -6.51630536e-02, -2.05070543e+00,  1.07609332e+00, -5.38351774e-01, -4.00322199e+00,
     1.85510790e+00, -9.64655399e+00, -1.85725749e+00, -2.96163535e+00, -1.79354703e+00, -1.26025844e+00,  2.23910308e+00,  5.70697844e-01,
     6.85757935e-01, -2.12017059e+00,  1.94970047e+00,  1.87846231e+00,  1.73034227e+00,  8.93853366e-01, -4.80552644e-01, -2.13625774e-01,
    -3.83356977e+00, -1.60836124e+00,  6.89777493e-01, -7.99932957e-01,  1.36933792e+00,  5.28934777e-01,  6.21243834e-01,  5.03261805e-01},
   { 6.47346973e-02,  3.43085259e-01,  8.54260564e-01,  5.92405260e-01,  9.00329530e-01, -2.58847618e+00, -7.70683885e-02,  3.16984504e-01,
     1.40229917e+00, -1.59574544e+00, -2.35640049e+00, -1.10032082e+00,  2.36143064e+00, -4.69156593e-01, -1.03318405e+00,  5.55174398e+00,
    -2.21802449e+00, -3.47025204e+00, -9.29484487e-01, -2.84427460e-02, -8.25534821e-01, -3.72209251e-02,  7.03106523e-01, -4.55785632e-01,
     6.59477949e-01,  1.48211122e+00, -1.45172179e+00, -1.39349595e-01, -2.04406232e-01, -2.09120274e-01, -2.75889611e+00, -1.55530822e+00,
    -1.72306383e+00, -2.54647899e+00, -7.66315162e-01, -1.78792536e+00,  2.09954119e+00,  1.49404705e+00, -1.37330270e+00, -4.06475931e-01,
     7.24910975e-01,  2.95607030e-01, -8.16267872e+00,  2.51908159e+00, -2.38001063e-01,  1.89735579e+00, -2.01533842e+00,  9.17100191e-01,
     1.49148488e+00, -9.99417186e-01,  1.78215337e+00,  8.27579677e-01, -1.59666479e+00,  1.33345222e+00,  2.12636054e-01, -8.40929091e-01,
     1.20166518e-01, -1.00439858e+00, -5.06587505e-01, -4.95801640e+00,  3.39329171e+00, -2.91310310e+00,  5.39694011e-01, -4.56672832e-02},
   {-1.56249094e+00, -7.54426241e-01,  1.47076595e+00, -3.24584675e+00, -2.11191893e+00, -1.17145598e+00, -7.89887142e+00, -1.00587440e+00,
     4.37680244e-01, -1.13351882e+00,  1.26169491e+00, -3.83736539e+00,  1.61334324e+00,  1.47878587e-01, -6.04214191e-01, -2.95845819e+00,
     4.99872342e-02, -3.96708035e+00,  3.21551514e+00, -7.15434790e-01, -6.61583960e-01, -1.22396290e+00, -1.95951176e+00, -2.33891964e+00,
     1.28594565e+00,  5.55769682e-01, -1.62644100e+00, -1.81992543e+00,  2.76861414e-02,  4.93135303e-02,  3.02654719e+00,  7.96443969e-02,
     1.93884526e-03,  7.80410588e-01, -3.09998250e+00, -1.25142813e+00, -8.26056361e-01,  2.38697910e+00,  1.22237217e+00,  2.48076558e+00,
     3.34609896e-01, -4.70728189e-01, -1.97316095e-01, -6.41715431e+00,  4.11469430e-01, -9.92585897e-01, -1.31405127e+00, -1.05416012e+00,
    -1.27042603e+00,  1.10147035e+00,  1.13217875e-01, -3.42972457e-01,  2.06031823e+00,  2.92941618e+00, -5.76321840e-01, -8.68438408e-02,
     4.40750539e-01,  5.03528297e-01,  2.02197120e-01,  3.22446346e+00,  2.74326158e+00, -1.01819551e+00, -9.59298074e-01,  1.28354430e+00},
   { 4.01636094e-01,  1.27655649e+00,  2.32964134e+00,  5.62766969e-01,  1.76643401e-01,  2.84632623e-01,  6.55918658e-01, -2.71815109e+00,
    -1.08616483e+00, -8.73434901e-01, -6.83393478e-01,  4.05827373e-01, -3.43944639e-01,  1.11647332e+00, -8.28895187e+00,  3.19043779e+00,
    -1.08507562e+00, -3.42290378e+00,  1.38572663e-01, -2.06860089e+00,  1.93184900e+00,  1.90363133e+00,  1.11109710e+00,  5.28292120e-01,
    -1.14991260e+00, -1.15700471e+00,  1.50366771e+00, -1.13615537e+00, -1.73204422e+00, -1.55643892e+00,  1.44881696e-01,  1.23873937e+00,
     2.30675563e-01, -2.39275694e+00,  3.35555255e-01, -1.77257204e+00,  1.54781893e-01, -3.86641669e+00, -4.22131300e+00, -2.20083570e+00,
     8.29838932e-01,  8.24811816e-01, -3.70848507e-01, -1.45303583e+00, -6.87357044e+00, -3.74376869e+00,  2.68631911e+00,  3.48084897e-01,
     7.24283457e-01,  1.52412072e-01,  6.76681757e-01,  1.23336005e+00, -1.28754234e+00, -1.59356403e+00, -1.79447460e+00, -3.65537310e+00,
    -3.18943834e+00, -1.64423919e+00, -4.73278522e-01,  3.93033713e-01, -1.06888318e+00,  1.43055224e+00, -2.89505935e+00,  4.71878290e-01},
   { 3.32997990e+00, -1.66948831e+00,  3.37164044e-01,  1.62048280e-01,  9.77085114e-01, -5.74932098e-01,  3.72119308e+00, -8.87991488e-01,
     8.43611836e-01,  1.22426581e+00, -1.35086334e+00, -7.46516824e-01,  3.13665479e-01,  4.10838611e-02, -2.94314194e+00,  1.55662858e+00,
     1.23239243e+00, -2.05872089e-01, -8.26216757e-01,  1.85938728e+00, -2.07098532e+00, -4.03403461e-01,  4.57610488e-01, -1.58207333e+00,
     4.76692766e-01, -2.37955838e-01,  3.55613045e-02,  3.89372766e-01, -1.25728750e+00, -6.67967260e-01, -3.23051763e+00, -1.08858097e+00,
     3.41629207e-01,  1.53857875e+00,  9.00989473e-01,  2.16771096e-01, -2.25873375e+00,  1.54692566e+00,  3.50395823e+00, -8.13384593e-01,
    -1.59902334e+00, -3.42101359e+00, -4.50586271e+00,  1.48104990e+00, -2.22460103e+00, -7.35526562e+00, -9.23959494e-01, -3.90711039e-01,
     1.71008062e+00,  2.85170102e+00, -3.57096195e-01, -1.55216861e+00, -4.59146786e+00, -2.29179218e-01, -5.93912005e-01,  1.92058031e-02,
    -6.91699862e-01,  1.73437536e+00, -9.67514515e-01, -2.03997755e+00,  1.29819942e+00,  4.03251685e-02,  4.11231184e+00,  2.41955113e+00},
   { 1.73236549e+00, -1.33139467e+00, -9.69859719e-01,  1.34983957e+00, -2.37527974e-02,  3.01027107e+00,  4.28679037e+00,  5.83595097e-01,
    -2.89830017e+00, -1.47343075e+00, -8.89436126e-01,  1.95855248e+00, -2.55958533e+00, -1.50679672e+00, -2.17825365e+00,  1.32186759e+00,
     3.23162675e+00,  3.19265652e+00,  4.06066656e-01,  1.80930984e+00, -1.12285352e+00, -1.35999978e+00, -1.53409374e+00, -1.15871942e+00,
    -2.01100063e+00, -6.69225395e-01, -6.40342087e-02,  8.14405799e-01,  9.40983966e-02,  3.03509653e-01,  5.01980662e-01,  4.32251960e-01,
    -2.01260376e+00, -2.04305387e+00,  5.15300155e-01,  1.97330087e-01, -1.54622769e+00, -2.33354330e+00,  2.70738339e+00, -5.14460981e-01,
    -7.85230398e-02, -2.64295959e+00,  2.13899732e+00,  2.68966413e+00, -1.45043790e+00,  2.07945514e+00, -3.04598856e+00, -1.87480092e+00,
    -1.66628003e+00, -1.16842341e+00, -1.06392181e+00,  1.70167673e+00,  9.65584219e-01,  8.36694181e-01,  1.38572305e-01, -2.27376509e+00,
     1.83623588e+00, -1.96426046e+00,  3.64577055e+00,  2.94942737e-01, -4.30529499e+00, -1.68362558e+00,  6.12933517e-01, -2.23709989e+00},
   { 1.25226289e-01,  3.30833793e+00,  9.41394746e-01, -1.33467436e+00, -5.70242167e-01,  7.25992024e-01, -2.18086910e+00, -5.06323099e-01,
    -2.69943380e+00, -1.10006618e+00,  3.26047730e+00,  2.32328916e+00,  6.04330659e-01,  2.24586987e+00,  6.11858591e-02,  3.13685328e-01,
    -1.73679745e+00, -3.04092860e+00, -1.07516181e+00, -1.56603694e+00,  6.61924601e-01, -5.90319000e-03,  1.30681837e+00, -1.22744954e+00,
    -1.14656293e+00,  1.97563434e+00, -1.25398552e+00, -5.70588112e-01,  1.09253967e+00, -3.81352019e+00, -2.28244805e+00,  4.22115707e+00,
     7.76852965e-02,  1.86915725e-01,  1.63305807e+00,  1.17126894e+00,  2.96827793e-01,  2.05895734e+00,  6.04934216e-01, -2.45656991e+00,
     5.08407974e+00,  7.84874380e-01, -7.47499019e-02,  1.88568532e-01, -1.92004696e-01,  1.28233504e+00,  4.14245987e+00, -5.35102320e+00,
    -2.33636808e+00,  6.32498980e-01,  5.25827169e+00, -1.96400881e+00,  3.19587052e-01,  9.86564457e-02,  9.55649257e-01, -3.94217086e+00,
     1.99714541e+00,  8.88537705e-01, -2.85867476e+00,  2.40611768e+00, -1.34700239e+00, -2.47035456e+00,  1.49873018e+00,  2.49272466e+00},
   {-8.27269435e-01,  1.47695947e+00, -6.47221267e-01,  2.71228504e+00,  1.73246711e-01, -5.07865489e-01, -1.13414168e+00, -1.43621480e+00,
    -3.52509093e+00,  5.33348799e-01,  1.43380141e+00, -2.72735983e-01,  1.58186424e+00, -1.33392394e+00, -7.62211680e-01, -1.97184801e+00,
    -4.84283686e+00,  1.19100380e+00,  9.56461310e-01, -3.82307863e+00,  1.02494359e+00,  1.37150824e+00,  6.92859232e-01, -1.09214199e+00,
    -9.28728104e-01,  1.34411156e+00,  1.36917210e+00, -1.12963045e+00, -2.99204141e-01, -2.19888783e+00,  1.12580788e+00,  1.17271066e+00,
    -1.59410274e+00, -3.09945965e+00, -4.20724332e-01, -2.27610517e+00, -2.81448197e+00,  1.03841889e+00, -2.20143938e+00, -1.69513631e+00,
     4.78247941e-01,  2.82302761e+00,  2.20401907e+00,  2.61277485e+00,  2.52072740e+00,  4.87403536e+00, -9.13877130e-01,  8.96428287e-01,
    -6.89093924e+00,  1.87097144e+00,  5.02562809e+00,  3.27047229e+00,  2.34443092e+00,  7.11977333e-02, -2.26829195e+00, -2.49177909e+00,
    -3.88102204e-01, -3.34010696e+00, -4.54066086e+00,  3.60477030e-01, -3.74106932e+00,  1.94426644e+00,  8.06536153e-02,  3.68109179e+00},
   {-9.39826369e-01, -4.38391447e-01, -1.29145753e+00,  2.83312589e-01, -9.94771600e-01,  4.70385760e-01,  3.10547411e-01,  8.53998899e-01,
    -1.84941554e+00,  1.21467435e+00,  1.32021558e+00,  2.46981645e+00, -1.70461106e+00, -6.07831120e-01,  2.12504601e+00, -6.76003456e-01,
     2.77042365e+00, -1.77878714e+00,  3.84265137e+00, -1.32894421e+00, -1.59802580e+00,  1.76733756e+00, -1.30473602e+00, -1.01541150e+00,
     1.33652604e+00,  1.14403009e+00, -1.83946073e+00,  1.20530820e+00,  1.46695256e+00, -7.24286377e-01, -1.29228622e-01, -1.77924132e+00,
     9.42618489e-01, -6.45250499e-01,  2.86386156e+00,  1.48462617e+00, -1.58663869e+00,  2.71709323e-01,  1.25451744e+00, -1.59566426e+00,
    -3.79889429e-01, -4.43243790e+00, -3.95485878e+00, -4.66836035e-01, -2.88661647e+00, -1.34926748e+00, -1.61776495e+00,  8.17883849e-01,
     4.05147457e+00, -5.55449772e+00, -3.34289193e+00,  7.94295311e-01,  5.33428490e-01, -2.11583471e+00,  8.72421443e-01,  1.56742191e+00,
     2.22695515e-01, -4.72333163e-01,  7.09377289e-01, -8.99174988e-01,  8.73155892e-01, -9.74801421e-01, -1.54041857e-01,  5.74512631e-02},
   {-1.03041005e+00, -3.65640688e+00, -2.88804889e-01,  2.96794832e-01,  1.00923741e+00, -3.54136086e+00, -6.48835003e-01,  1.85889864e+00,
     1.32221758e+00,  5.44423866e+00, -8.36629868e+00,  2.97296119e+00,  7.47572720e-01,  5.22787571e-01, -1.03050828e+00, -1.45579851e+00,
    -5.36477566e+00,  3.38244468e-01, -9.82769072e-01,  1.73613024e+00,  1.04661620e+00,  1.70888305e+00,  2.66460085e+00, -7.46560514e-01,
     4.59369510e-01,  7.79163301e-01,  2.16427612e+00, -5.55647135e-01, -1.31880903e+00, -3.35841447e-01, -6.31188583e+00, -2.99444532e+00,
     2.06821918e+00, -8.38600248e-02,  2.50252295e+00,  1.92135930e-01,  1.40690196e+00,  3.93596935e+00,  1.08998454e+00,  3.13642740e+00,
    -6.51729727e+00, -9.63355184e-01,  2.25751328e+00, -2.15695202e-01,  1.71721113e+00, -2.60622168e+00, -2.96259689e+00,  3.66807508e+00,
     1.80225313e+00, -3.11227226e+00, -9.63962460e+00,  5.94127119e-01, -1.94567895e+00, -1.31188405e+00,  2.87983155e+00,  3.25615668e+00,
     1.26166511e+00,  3.15161276e+00,  1.35229695e+00,  1.42026973e+00,  1.16433299e+00,  2.45205355e+00, -2.73425460e-01,  1.12830472e+00},
   {-2.20438337e+00, -4.52854514e-01, -1.07819450e+00,  8.39896321e-01,  9.91524942e-03,  7.64280021e-01, -6.21421480e+00, -7.74254322e-01,
    -7.81431422e-02,  9.91169572e-01, -4.62509632e-01,  2.10500813e+00,  8.40597451e-01,  7.09823370e-02, -3.26241180e-02, -2.13765889e-01,
    -9.71098244e-01,  6.69282582e-03, -1.00412822e+00, -1.83930981e+00,  7.02465415e-01, -2.77806163e-01, -2.32043529e+00,  1.44737765e-01,
    -1.77220181e-01, -2.43419766e+00,  3.01886463e+00,  5.30326426e-01,  9.94157732e-01,  5.43243065e-02, -5.60586751e-01, -9.18086588e-01,
     1.11030483e+00,  2.88272500e-01,  2.06596121e-01,  1.37449443e+00,  2.54471183e-01, -8.36653292e-01,  6.10292137e-01,  1.16667092e+00,
    -1.40865762e-02,  1.66739321e+00, -7.07397282e-01, -2.55613017e+00,  1.19875610e+00,  8.62538636e-01,  1.04851985e+00,  4.88486242e+00,
     1.09527253e-01, -5.07734835e-01,  2.79112637e-01,  2.68275046e+00,  5.03839850e-01, -1.20173538e+00,  1.71983159e+00,  4.30184245e-01,
     2.42384657e-01, -2.51382065e+00, -1.48169240e-02, -1.60704523e-01, -5.62975556e-02,  6.19037628e-01, -1.77327371e+00,  2.11860061e+00},
   { 2.95104480e+00, -9.45734918e-01, -2.51781082e+00,  1.97293377e+00,  4.28932810e+00, -1.77839589e+00,  2.27859783e+00, -2.66819382e+00,
    -1.30490947e+00,  2.35140014e+00, -4.48059368e+00, -2.06164193e+00,  3.83013338e-01,  3.32284868e-01,  3.46206456e-01, -1.94300056e-01,
    -1.17043197e+00, -2.06070256e+00,  4.59220290e-01, -9.45301771e-01, -2.64461905e-01,  1.75620246e+00,  1.31056142e+00, -1.68080664e+00,
     1.43736339e+00,  3.64406973e-01,  2.03891873e+00, -1.48602939e+00, -3.27212334e+00,  5.19361138e-01,  2.78698862e-01, -4.00182046e-02,
     4.46862370e-01, -3.45052075e+00, -1.42964232e+00,  1.10791659e+00,  3.66984755e-01,  1.27219105e+00,  1.43368375e+00,  2.55941629e+00,
     1.93892613e-01,  2.17285752e+00,  2.49114847e+00,  2.05358648e+00, -4.74328429e-01,  3.68426943e+00, -7.96732247e-01,  9.48162898e-02,
     1.32513249e+00, -5.27138376e+00,  6.66136861e-01,  9.82073605e-01, -5.37654209e+00,  1.36352432e+00, -2.11891079e+00,  9.08228278e-01,
     7.31586933e-01, -1.00423551e+00,  1.77110708e+00,  3.64992805e-02,  1.92030513e+00,  6.32522523e-01,  2.37266827e+00, -2.76733828e+00},
   {-1.03652883e+00, -6.76664412e-01,  9.98870671e-01,  2.78075069e-01,  2.70421505e+00,  3.68218720e-01, -5.37220389e-02,  8.73494685e-01,
     1.70738709e+00,  4.14452881e-01, -1.49480557e+00, -9.11991596e-01,  9.28402662e-01,  2.45838434e-01, -4.38565922e+00,  5.83053589e-01,
     2.55366397e+00,  2.20479655e+00,  1.41179037e+00,  5.38778126e-01,  1.91438049e-01,  2.85784411e+00,  3.27687472e-01, -1.55774489e-01,
     2.44390440e+00,  1.44295239e+00,  1.32660365e+00, -1.40886962e+00,  5.31222746e-02, -1.40085012e-01, -1.78449380e+00, -2.70134902e+00,
    -3.88647079e+00, -1.42093563e+00, -8.26759458e-01,  4.08904374e-01,  9.35298979e-01,  2.51389563e-01,  1.53126597e+00, -2.01124859e+00,
    -1.95638633e+00, -2.25563735e-01,  5.36123931e-01, -5.29788911e-01,  3.89629394e-01,  2.72296214e+00,  1.28321326e+00, -2.64535666e+00,
    -2.20506042e-01,  2.56709456e+00,  1.71622682e+00, -5.23374462e+00, -3.41856360e-01, -5.01121426e+00, -5.68940639e-01,  7.89064825e-01,
    -3.01893377e+00, -1.23325074e+00,  8.51989925e-01, -1.85994089e+00,  5.28046191e-01, -5.72789252e-01,  3.69979596e+00,  2.42589250e-01},
   { 2.12084627e+00,  1.48822832e+00, -7.65418947e-01,  2.22006536e+00,  8.62969041e-01, -1.57549465e+00,  3.75612140e-01,  3.08095008e-01,
    -7.73873806e-01,  3.28972310e-01,  5.79437912e-01,  6.85734153e-02, -3.69954288e-01, -7.66359568e-01,  1.05728209e+00,  4.49616528e+00,
    -4.03616905e+00, -3.46025848e+00, -8.19636464e-01,  1.28343356e+00,  1.78463173e+00, -8.64650786e-01, -2.09043002e+00,  3.51318359e+00,
     1.03008054e-01, -9.42532361e-01,  3.18866968e-01,  1.23344469e+00,  6.06675297e-02,  1.05457075e-01, -3.93721044e-01,  2.27043390e+00,
    -8.28130007e-01, -7.10361779e-01,  5.21674395e+00,  3.68171424e-01,  7.65507162e-01, -7.30349493e+00,  8.52132022e-01, -1.10892975e+00,
     1.34123027e+00, -9.56843734e-01, -3.71232224e+00, -4.81279945e+00,  2.41045332e+00,  1.68025959e+00,  2.67398572e+00,  1.70516372e+00,
