#ifndef __FASTGRNN_FC_PARAMS__
#define __FASTGRNN_FC_PARAMS__

#define FC_IN_DIM (32)
#define FC_OUT_DIM (6)

// clang-format off

const float FC_W[6][32] = {
   { 1.04237759e+00, -3.83100361e-01, -3.07326674e-01, -1.12687945e+00,  6.22345448e-01,  9.96154785e-01,  5.72875500e-01,  1.37209249e+00,
     3.55373502e-01,  1.23749852e+00, -8.26086521e-01,  4.49777581e-02, -8.68112624e-01, -9.13724303e-01,  3.53206605e-01,  9.89892960e-01,
     5.35375655e-01,  2.19136432e-01,  9.57525492e-01, -2.35001549e-01,  8.48326623e-01,  1.54209197e-01, -6.49995089e-01,  5.83037436e-01,
     5.53079322e-02,  3.08163434e-01,  4.21940029e-01,  1.01873815e+00,  5.52950315e-02, -1.07431471e-01,  3.14399213e-01,  8.82918298e-01},
   { 1.14305818e+00, -8.28062952e-01, -3.89774990e+00,  2.15051556e+00, -2.59680748e+00,  1.70559144e+00, -3.12154382e-01, -1.68820977e+00,
    -2.72178411e+00, -2.45213246e+00,  3.23126888e+00, -1.76566407e-01,  5.71837723e-01,  2.48392773e+00, -1.27460361e+00, -9.25256073e-01,
    -1.17756891e+00, -3.82372081e-01, -2.56217194e+00, -2.24182963e+00,  1.81671345e+00, -1.60940439e-01, -1.64456666e+00, -1.80805695e+00,
     3.97323728e-01, -1.82307458e+00, -3.36951688e-02, -1.09972048e+00, -2.05276892e-01, -2.68744683e+00, -2.92463231e+00,  9.80021834e-01},
   {-1.60493433e+00, -8.15142572e-01, -3.84530067e+00,  2.07011962e+00, -2.66529536e+00, -2.07207131e+00, -1.09479511e+00, -1.09130406e+00,
    -3.04271770e+00, -2.19192004e+00, -1.03960133e+00,  5.66273965e-02,  5.04998267e-01, -2.04585433e+00,  7.64299333e-01, -1.84596908e+00,
    -2.03373337e+00, -1.45162868e+00,  1.85826528e+00, -3.68508053e+00,  2.67739964e+00,  3.12956721e-01, -9.52401042e-01,  1.19094229e+00,
     3.31863463e-01, -1.54843020e+00, -9.25250411e-01, -1.42420685e+00,  3.36243868e-01, -2.15048504e+00, -3.73428750e+00,  7.92345330e-02},
   { 1.73119938e+00,  2.79383183e+00, -2.12909651e+00,  1.82299721e+00,  1.37583482e+00, -1.70487726e+00, -1.61013293e+00, -1.09347165e+00,
     1.32239246e+00,  2.25453138e+00,  1.68311763e+00, -8.05767402e-02,  6.36899233e-01,  1.53915417e+00, -1.87629962e+00, -3.07546473e+00,
     9.85410929e-01, -1.09066713e+00, -2.92296052e+00,  1.55118966e+00,  1.96598399e+00,  5.17358959e-01,  2.00032806e+00,  6.51328683e-01,
    -1.05629742e+00,  9.50317442e-01, -5.21100163e-01, -4.75973308e-01,  1.80167072e-02,  2.63891220e-01, -7.55312085e-01, -2.03041363e+00},
   {-1.62981534e+00, -3.88401859e-02,  2.25706005e+00, -1.53209889e+00,  1.15136063e+00,  1.71235597e+00, -4.58938122e-01,  1.42013001e+00,
     7.50611007e-01,  2.44426274e+00, -1.62815046e+00,  6.02192208e-02, -1.90199280e+00,  9.25384462e-01, -1.79906523e+00, -7.02419102e-01,
    -1.35715365e+00,  8.36442828e-01, -1.62089872e+00, -9.69115555e-01, -4.70821047e+00, -9.10668254e-01,  1.18235064e+00, -2.30142355e+00,
    -2.18035325e-01, -5.66778898e-01, -7.17001081e-01, -9.17187154e-01, -2.50467867e-01,  6.76719725e-01, -2.14191413e+00, -3.03966552e-01},
   {-2.16590738e+00,  2.53304791e+00,  1.96075988e+00, -4.51366574e-01,  1.31694746e+00, -1.96322155e+00,  1.00455892e+00, -1.46347225e+00,
    -2.03128412e-01,  7.41618425e-02,  1.65608549e+00, -1.80233151e-01,  9.41222727e-01,  2.38726044e+00,  1.40790582e+00,  1.17429543e+00,
     6.33484066e-01,  8.48655343e-01, -2.71683574e+00,  1.61916971e+00,  2.00847602e+00, -1.02308166e+00,  2.97763586e+00, -2.61790037e+00,
     4.79402870e-01,  9.85559404e-01,  6.80329621e-01,  1.57060516e+00, -1.81856543e-01,  8.97438765e-01,  2.46853733e+00, -2.02815509e+00},
};

const float FC_B[6] = 
   { 1.64708292e+00, -2.72793144e-01, -6.92410469e-01, -5.97947478e-01, -7.39622176e-01, -2.34714913e+00};

// clang-format on


#endif // __FASTGRNN_FC_PARAMS__

