#ifndef __FASTGRNN_GRNN0_PARAMS__
#define __FASTGRNN_GRNN0_PARAMS__

#define GRNN0_HIDD_DIM0 (32)
#define GRNN0_HIDD_DIM1 (64)

// clang-format off

const float GRNN0_ZETA = (2.135413e-02);
const float GRNN0_NU = (-6.907786e+00);

const float GRNN0_BIAS_UPDATE[64] = 
   { 9.94013771e-02,  1.69084644e+00,  7.39502609e-01,  4.86062109e-01,  2.07174078e-01,  7.98598707e-01,  1.69594538e+00,  2.12759900e+00,
     6.17054217e-02,  1.44905365e+00,  9.52759206e-01,  3.90597701e-01,  6.85408294e-01,  1.80189347e+00,  1.27846527e+00,  1.29972136e+00,
     1.34889078e+00,  1.68017495e+00,  2.56810760e+00,  8.47610116e-01,  8.25972855e-01,  1.26382971e+00,  1.66650379e+00,  2.69630075e-01,
    -3.98454159e-01,  8.82988155e-01,  9.82031167e-01,  6.82436645e-01,  1.01407731e+00,  2.64694810e+00,  4.57721293e-01,  7.54441738e-01,
     4.26281393e-01,  1.02682674e+00,  1.15333271e+00,  1.20158744e+00,  5.45787871e-01,  3.41199934e-01,  1.26316583e+00,  1.54943919e+00,
     1.02673483e+00,  1.11558509e+00,  7.41470337e-01,  5.23337960e-01,  5.97471654e-01,  1.79268587e+00,  9.13860321e-01,  5.86526930e-01,
     1.30456603e+00,  4.63100523e-01,  9.63075042e-01,  2.78172433e-01,  7.67937005e-01,  1.96004367e+00,  4.85751748e-01,  1.36916053e+00,
     1.16874802e+00,  3.02248740e+00,  1.51242936e+00,  1.47406554e+00,  5.35356104e-01,  1.16340148e+00,  9.98913705e-01,  3.93049747e-01};

const float GRNN0_BIAS_GATE[64] = 
   { 2.53915858e+00,  1.59073472e+00,  2.75902462e+00,  2.45357180e+00,  1.64781117e+00,  2.45641232e+00,  2.21351647e+00,  1.25265574e+00,
     1.95954919e+00,  2.82661009e+00,  2.22649217e+00,  2.32046151e+00,  2.74535465e+00,  1.95711207e+00,  3.30343866e+00,  8.19368720e-01,
     2.40375066e+00,  2.05323362e+00,  2.25982952e+00,  2.75326180e+00,  1.22786760e+00,  2.03280187e+00,  2.18806267e+00,  7.37227559e-01,
     1.12076247e+00,  2.20982122e+00,  2.71308541e+00,  3.33838153e+00,  2.84804535e+00, -4.33358043e-01,  2.45954967e+00,  2.28572130e+00,
     1.30569145e-01,  2.13920951e+00,  2.35128069e+00,  2.64068437e+00,  1.27678788e+00, -5.69048762e-01,  2.68872404e+00,  2.34353399e+00,
     2.12558460e+00,  1.74585366e+00,  7.98914850e-01,  2.01368904e+00,  2.53641033e+00,  1.22456765e+00,  1.29396594e+00,  2.87069798e+00,
     9.08703327e-01,  1.18966973e+00,  2.29804969e+00,  1.59959698e+00,  2.17677402e+00,  2.15463972e+00,  1.45822299e+00,  1.98072720e+00,
     2.90992641e+00,  2.17700052e+00,  2.39266706e+00,  1.76338136e+00,  3.84131074e-01,  2.87786794e+00,  2.60251117e+00,  1.97483563e+00};

const float GRNN0_W[64][32] = {
   { 1.03282221e-01, -6.68340027e-02, -2.13555768e-01, -1.10209592e-01,  1.05120592e-01,  2.75734246e-01,  2.73672193e-01,  1.28614932e-01,
    -4.69374597e-01, -2.78392226e-01, -1.41755983e-01,  1.71675742e-01,  1.53899685e-01, -1.09524913e-01,  1.12062268e-01, -2.34608889e-01,
    -1.27586976e-01, -2.02970862e-01, -3.76704335e-01, -2.20977888e-01, -1.05795756e-01, -2.64018863e-01,  1.44765535e-02, -1.12730183e-01,
     3.27117205e-01, -3.80741358e-02,  4.11998868e-01,  1.34039298e-01,  3.12961876e-01,  7.15002120e-01,  7.98781455e-01, -6.04425848e-01},
   {-1.32547885e-01,  3.83434951e-01,  1.17286123e-01,  3.75830382e-01,  3.19472551e-01,  3.48155200e-02, -3.83757234e-01, -5.15653610e-01,
    -2.13337317e-01, -2.05598772e-01, -3.43458772e-01, -4.70355034e-01, -3.64892453e-01, -1.38387516e-01,  1.21518336e-01,  6.28600568e-02,
    -1.19184151e-01, -2.80676603e-01, -7.70562813e-02, -1.33498192e-01,  8.42831507e-02,  3.51944417e-02,  1.61849722e-01,  3.44090819e-01,
    -2.19891757e-01,  7.83832744e-04, -1.31055430e-01,  1.44366235e-01, -1.03463687e-01,  1.05050638e-01, -1.64345607e-01,  3.41443688e-01},
   {-8.24643075e-02, -9.96220484e-02,  1.22358263e-01,  8.28003809e-02,  1.38846949e-01,  1.81315988e-02,  5.54225072e-02, -8.53775442e-02,
    -2.23481227e-02,  8.67391676e-02,  9.30565596e-02, -9.01226252e-02, -1.06972471e-01, -6.35230467e-02,  2.17452813e-02, -9.49089900e-02,
    -6.95222989e-02,  4.49972413e-02, -4.96026725e-02, -4.19609062e-02,  4.15898860e-03,  1.58171114e-02, -3.30922529e-02, -4.74919155e-02,
     5.65955192e-02, -5.52602224e-02,  1.39072627e-01,  5.84248304e-02, -1.87782031e-02,  6.65164813e-02,  9.75359380e-02,  1.56446978e-01},
   {-1.44840572e-02,  3.02701414e-01, -1.29591852e-01, -8.18322718e-01, -8.41454566e-01, -8.67933333e-01, -2.64525320e-02,  2.32825696e-01,
     3.12242627e-01, -8.57696682e-02,  2.02570274e-01,  3.06280345e-01,  5.32541201e-02,  2.59451002e-01,  4.73317862e-01,  3.18967253e-01,
     1.51579231e-01,  1.81515917e-01, -2.31156185e-01,  2.63285875e-01, -5.49363047e-02, -1.12207860e-01,  7.96227679e-02,  8.45013112e-02,
    -2.69125789e-01, -1.72137484e-01,  1.28659770e-01, -3.64683419e-02,  2.52485663e-01,  1.79378316e-01,  1.02249905e-01, -7.63156638e-03},
   {-1.97585166e-01,  6.29603863e-01,  8.30130950e-02,  3.15885723e-01,  3.75738963e-02,  1.98591873e-01, -1.23908361e-02,  4.75238919e-01,
     2.97525972e-01,  4.23960239e-01,  2.90845811e-01,  8.81616250e-02,  5.51826097e-02,  7.17723668e-02,  3.92750829e-01,  4.22182322e-01,
     6.06500328e-01,  4.66723084e-01,  1.71281755e-01, -4.05818745e-02, -5.32567322e-01, -3.88265461e-01, -1.00356437e-01, -5.22207737e-01,
    -3.49304497e-01, -4.98958945e-01, -2.28003681e-01, -6.25970364e-01, -1.28502473e-01, -5.35860538e-01, -6.89796433e-02, -2.91571647e-01},
   {-1.29289702e-01, -3.01382065e-01,  9.09042060e-02,  1.90824457e-02,  1.48782939e-01,  2.11875573e-01, -1.46028847e-01, -2.56553411e-01,
    -1.15857475e-01,  2.53902644e-01,  4.58436131e-01,  2.49015450e-01, -2.77652264e-01, -6.85962379e-01, -7.70793438e-01, -4.30448949e-01,
    -2.68514633e-01, -3.23046654e-01,  1.51393607e-01,  2.60468602e-01, -2.45709103e-02,  4.10871148e-01,  1.43681273e-01,  1.00696579e-01,
     1.03832491e-01,  1.61848485e-01,  2.82636344e-01,  8.11396390e-02,  2.61217803e-01, -1.72295570e-01,  2.93073319e-02, -5.08144032e-03},
   { 5.47295660e-02, -5.38179755e-01, -6.94826066e-01, -1.01802766e+00, -6.88311383e-02,  2.51003712e-01,  6.92779541e-01, -1.56595811e-01,
     2.74608135e-01,  5.48243582e-01,  9.19330306e-03,  4.20387089e-02, -1.68355647e-03,  8.67294967e-01,  1.98274493e-01, -3.45679410e-02,
     2.25569103e-02, -2.46860590e-02,  7.06013814e-02, -1.17183877e-02, -1.85694218e-01,  1.27356812e-01,  7.93192536e-02, -3.64226475e-02,
     1.80739895e-01,  1.74127489e-01, -1.42538249e-01,  1.43231660e-01,  3.04431077e-02,  1.10167429e-01, -9.60895345e-02, -9.52006206e-02},
   {-4.73141968e-02,  1.99848730e-02, -1.26209632e-01, -1.62235722e-01, -4.75586981e-01, -7.46029794e-01, -5.43601215e-01, -4.47302490e-01,
    -6.43046498e-02, -3.20775330e-01, -5.34226038e-02, -9.91374925e-02,  4.84565645e-03,  6.17755651e-02,  8.66795406e-02, -9.64909568e-02,
    -1.75857142e-01, -1.53915823e-01,  8.09590295e-02, -2.50476543e-02, -9.63445306e-02, -3.01782817e-01, -1.41002178e-01,  4.45165694e-01,
     2.23587111e-01,  7.84217268e-02,  7.24657252e-02, -1.22362142e-02, -2.05428898e-02,  9.44394246e-02, -7.82785192e-02,  3.21831048e-01},
   {-2.12862581e-01, -7.64295310e-02,  1.30625851e-02,  1.43732205e-01,  1.97262079e-01, -5.42915389e-02, -1.38418198e-01, -8.19885075e-01,
    -7.86744356e-01, -1.59137212e-02,  6.45225048e-01,  4.78421628e-01, -9.59667340e-02, -7.81590566e-02, -2.14597046e-01,  1.75843894e-01,
     3.69421631e-01,  2.42293790e-01,  5.46117686e-02, -4.40997779e-01, -7.35427514e-02, -2.54411191e-01,  1.09439068e-01,  3.56624514e-01,
    -9.08264890e-02,  1.24372415e-01,  3.92410547e-01,  1.01659484e-01,  1.46986768e-01, -8.63600373e-02,  1.53682932e-01,  3.09035301e-01},
   { 1.65078744e-01,  2.29191065e-01, -4.64555681e-01, -4.18571800e-01,  5.25449179e-02,  5.07239699e-01,  7.85718203e-01,  6.93687141e-01,
    -1.08920559e-01, -5.79252899e-01, -1.00510120e+00, -4.18600529e-01, -1.51973397e-01, -2.84299731e-01, -4.59470265e-02, -7.03135133e-02,
     3.48847717e-01,  2.87130713e-01, -1.11706769e-02,  1.88184500e-01, -1.44487411e-01, -8.91528726e-02, -5.68332970e-02, -1.54404432e-01,
    -2.09707350e-01, -2.39459984e-02,  2.26648655e-02, -2.00262025e-01, -4.28124964e-02,  2.77079433e-01, -4.92700422e-03,  3.42178997e-03},
   {-1.69930592e-01, -3.56239110e-01,  2.94092774e-01,  3.34179908e-01, -7.06262663e-02, -9.81405154e-02,  1.72022536e-01, -3.36044371e-01,
    -4.04809415e-01, -1.44894347e-01, -4.53859806e-01, -8.87152314e-01, -2.28306308e-01,  3.55670124e-01,  9.56232548e-01,  5.46112239e-01,
     1.99989095e-01,  2.01397121e-01,  7.23202601e-02,  4.66050804e-02, -5.89018501e-02, -1.30997047e-01, -1.69212833e-01, -9.17271376e-02,
     1.66057497e-01,  1.17377184e-01,  8.00691620e-02,  7.88216740e-02,  5.64209633e-02,  5.57714067e-02, -8.18982124e-02,  2.94067889e-01},
   {-6.63345978e-02,  1.44747898e-01, -4.27727878e-01, -3.57256591e-01, -7.64209092e-01, -2.92634934e-01, -8.39898765e-01, -1.15031801e-01,
     1.85250774e-01, -9.16115344e-02, -1.63675547e-01, -2.40839481e-01, -1.60506636e-01,  2.45322898e-01,  2.44115442e-02,  1.44395307e-01,
     3.09538782e-01,  1.74100980e-01,  1.02024354e-01,  1.56646669e-01,  1.22201055e-01,  7.81632513e-02,  1.29305780e-01,  1.43129975e-01,
    -8.87302384e-02,  2.86997557e-01,  8.85970443e-02,  1.51558155e-02,  2.74496794e-01,  1.57678217e-01, -1.35572433e-01, -1.79864809e-01},
   {-1.48245588e-01, -1.93330988e-01,  1.29374087e-01,  1.97848275e-01,  2.03755468e-01, -1.32025033e-01,  2.57752836e-01,  5.39312065e-02,
    -2.47201830e-01, -5.05560517e-01, -1.43575072e-01, -2.36248389e-01,  6.12274371e-02,  1.31840289e-01,  1.86770007e-01,  2.01316640e-01,
     3.05289924e-01,  2.30677783e-01, -2.50441253e-01, -1.13382041e-01,  1.70511361e-02, -9.11105797e-02,  1.11887917e-01,  1.25315070e-01,
     2.37602517e-01, -1.04841515e-01, -7.18755722e-02, -5.73805021e-03,  9.37179551e-02, -1.71083540e-01,  5.13390824e-02, -2.66554892e-01},
   { 7.32407421e-02, -1.59959272e-01,  6.74054980e-01,  2.75697768e-01,  4.64781821e-01,  3.19078833e-01, -4.01572045e-03, -7.76890516e-02,
     1.20553292e-01,  2.86940843e-01, -1.71946689e-01, -1.07265659e-01,  5.21128327e-02, -1.98406950e-02,  3.07041168e-01, -1.33270860e-01,
    -7.06082731e-02, -2.22378835e-01, -1.35277048e-01, -4.99088526e-01, -1.26733750e-01, -1.36630356e-01, -8.28953087e-02, -4.10612077e-02,
    -2.99141258e-01, -4.61694673e-02,  1.93952650e-01, -6.64408132e-02,  8.21078792e-02, -2.67613456e-02, -5.79140000e-02,  9.65998620e-02},
   {-1.38456970e-02, -2.76432157e-01,  4.00943607e-02,  1.05178930e-01,  5.32238662e-01,  2.30122581e-01,  1.91945165e-01,  2.81866714e-02,
    -1.79464459e-01, -2.48237714e-01, -1.86934501e-01, -2.23323688e-01, -2.68737316e-01, -1.23373315e-01, -2.10247949e-01, -8.76998529e-02,
    -4.66490015e-02, -7.62008131e-02, -1.29824402e-02,  3.44823971e-02,  4.67065051e-02,  1.03183463e-01,  4.31661494e-02, -4.82390486e-02,
     1.73493743e-01,  5.60878068e-02,  8.00635964e-02,  6.99720904e-02,  1.99434366e-02,  3.09535056e-01, -4.25190255e-02,  9.38450024e-02},
   {-1.39299423e-01, -2.72056612e-04, -9.31936875e-02,  2.48013929e-01,  2.05885202e-01,  4.22050804e-02,  9.04937983e-02, -2.22236946e-01,
    -1.90527350e-01, -2.82928683e-02,  2.11686552e-01,  1.81334361e-01, -2.99178332e-01, -8.68162066e-02, -3.91838700e-02,  9.58898738e-02,
    -2.16804400e-01, -3.18905622e-01, -9.99767631e-02, -1.52842104e-01,  1.12495519e-01, -2.58511994e-02, -1.61031216e-01, -6.50506318e-02,
    -1.01541370e-01, -1.51931673e-01, -7.68390819e-02, -2.63615817e-01, -1.02786966e-01, -4.99464348e-02, -2.49768525e-01, -1.57705158e-01},
   {-8.27274248e-02, -2.38469660e-01,  1.06257282e-01,  9.45049152e-02, -2.70243078e-01, -5.26485264e-01, -7.89585769e-01, -6.72442913e-01,
     1.04746185e-01,  4.30080086e-01,  4.89916444e-01,  2.50037014e-01, -1.54845521e-01, -7.11840317e-02, -8.13821778e-02, -9.28120986e-02,
    -1.02737099e-02,  2.29446292e-01,  1.18798278e-01, -5.38655445e-02, -9.46652293e-02, -7.76559040e-02, -3.48826945e-02, -4.69926111e-02,
    -8.62336084e-02, -2.03868642e-01, -1.54470012e-01, -1.46045342e-01, -2.28391394e-01, -1.26567379e-01,  1.11288160e-01,  1.42413482e-01},
   {-3.63329351e-01, -1.40310675e-01,  2.88689971e-01,  1.32024109e-01,  1.15018137e-01, -3.49884890e-02, -3.88333321e-01,  5.89042231e-02,
     1.60824656e-01,  9.83139202e-02, -3.34830105e-01, -1.45804137e-01,  2.88124055e-01,  1.09881915e-01,  1.99041933e-01,  2.44807959e-01,
    -8.31772611e-02, -1.69108808e-01,  2.08411440e-02, -1.55241549e-01, -4.66196299e-01, -1.34864867e-01,  8.46102908e-02,  2.12012246e-01,
     6.37708530e-02,  4.78757471e-02, -7.64772668e-02, -3.39177877e-01, -5.61341703e-01, -3.06778587e-04,  1.52211726e-01,  2.34295917e+00},
   { 1.76905483e-01, -1.78218648e-01,  2.17248544e-01,  2.94389158e-01, -7.85542950e-02,  4.69077937e-02,  7.74659440e-02, -3.24040234e-01,
    -4.42545623e-01,  1.58722609e-01,  1.08787373e-01,  3.24626178e-01, -5.91410697e-02,  1.52849168e-01,  1.14913248e-01,  1.38359129e-01,
    -1.45406216e-01, -4.26374048e-01, -3.94196808e-01, -1.92163527e-01, -1.50090277e-01, -1.45759553e-01, -3.08609754e-01, -3.43284786e-01,
     5.80532812e-02, -4.61174846e-02, -2.40952969e-01,  6.75064996e-02, -1.04817659e-01,  2.45326415e-01, -9.86707024e-03,  2.00083062e-01},
   { 3.76297012e-02, -6.32913783e-02,  1.98526755e-01, -1.38597637e-01, -1.28637373e-01, -4.85064566e-01, -7.47210085e-01, -3.88875544e-01,
    -2.90877819e-01,  2.44248778e-01,  3.78974944e-01,  2.69740134e-01,  2.06249535e-01,  2.39565526e-03, -8.62375870e-02,  5.45296110e-02,
     1.89260617e-01,  3.16711254e-02,  1.34609699e-01, -2.19569311e-01, -1.32901132e-01, -1.11274160e-01, -7.09340796e-02, -3.84993218e-02,
    -2.58004129e-01, -2.16041267e-01, -8.28818604e-02, -5.10032959e-02,  1.31367385e-01, -1.33333951e-01,  9.46239084e-02, -9.27711278e-02},
   {-5.76055199e-02, -1.77113757e-01, -5.46567857e-01, -5.14256597e-01,  2.13052318e-01,  4.66544777e-01,  4.08065766e-01, -2.79354244e-01,
    -5.38494766e-01, -2.30210751e-01,  1.58208206e-01, -2.40020275e-01,  4.45221066e-02,  2.09469646e-01,  3.16597849e-01,  1.99887857e-01,
     6.76010996e-02, -1.91283122e-01, -2.05576479e-01, -3.11807692e-01,  1.95636377e-01,  4.97717559e-02, -2.62436569e-01, -8.05633441e-02,
     2.90855169e-01, -2.14663327e-01,  7.70493224e-02, -7.04182759e-02, -7.21953437e-02, -3.90956737e-02, -2.76869796e-02, -3.53933841e-01},
   { 6.79756477e-02, -2.79483944e-01,  1.83445767e-01,  7.78615242e-03, -5.34899496e-02, -2.69676298e-01, -4.57337707e-01, -3.49789262e-01,
    -3.00046891e-01, -6.10135272e-02, -1.68390021e-01, -5.22222042e-01, -3.96458238e-01, -5.73838055e-01, -2.26359040e-01,  1.77336231e-01,
     1.91529244e-01,  3.21354777e-01,  3.72568578e-01, -7.71171823e-02,  9.20770094e-02,  1.76585600e-01, -4.48643640e-02, -4.33308631e-02,
    -1.76581498e-02, -4.65689972e-02,  7.01262280e-02,  5.07438928e-02,  2.81020254e-01,  3.19130093e-01, -8.12474713e-02,  8.47736448e-02},
   {-3.76503579e-02,  2.57231802e-01,  6.98834360e-02,  8.61735269e-02, -3.60790305e-02, -6.10571265e-01, -4.14379805e-01,  3.61009896e-01,
     7.19648182e-01,  6.07521415e-01,  5.39959133e-01,  1.22945741e-01, -7.50826061e-01, -5.24428010e-01, -2.13470459e-01,  3.25029463e-01,
    -6.66041486e-03, -2.46937573e-01, -2.16825157e-02,  2.87687778e-01, -7.46836066e-02, -2.89906412e-01,  1.45570850e-02, -1.25563383e-01,
    -1.50391936e-01,  1.30330250e-01, -1.72846481e-01, -7.19085336e-02, -3.03613916e-02,  7.98651651e-02, -1.96200147e-01,  1.36982810e+00},
   { 2.13532567e-01,  1.12857580e-01,  4.07117605e-02, -7.24418223e-01, -5.86345613e-01, -5.90104640e-01, -2.90131390e-01,  7.72066772e-01,
     1.14301646e+00,  6.19962573e-01,  7.27868676e-01,  2.09192470e-01, -6.03621826e-02, -1.21523045e-01, -8.47126320e-02,  2.79953003e-01,
     1.70888051e-01, -2.86120415e-01, -1.40585050e-01, -3.12212348e-01, -1.38008827e-02, -2.64597058e-01, -2.10120305e-01,  2.70064235e-01,
     1.03305519e-01,  9.00999308e-02,  1.43314272e-01,  4.38414872e-01, -2.04203710e-01,  1.07548861e-02, -3.22491936e-02,  6.40075281e-03},
   { 1.80644527e-01,  1.67689398e-01,  3.99436355e-01,  1.19254030e-01,  3.23052853e-01,  3.41230296e-02, -2.40824595e-02, -6.27967775e-01,
    -3.26028943e-01,  1.48611054e-01,  7.91926682e-01,  4.32415679e-02, -5.20341635e-01, -4.66143370e-01,  4.55101639e-01,  4.51598793e-01,
     2.21038312e-01, -3.83723266e-02, -1.72280520e-01, -2.24618137e-01,  1.65207684e-02,  2.79274657e-02,  1.05593661e-02, -5.70924431e-02,
    -1.55595750e-01, -9.38515663e-02,  2.15484485e-01, -7.87694827e-02,  3.56188416e-02,  1.10926689e-04,  1.70892894e-01,  5.25284149e-02},
   { 9.56133083e-02, -1.16561867e-01, -1.50818989e-01,  1.35179490e-01, -2.46417336e-02, -1.34611920e-01,  2.34899640e-01,  1.22761428e-01,
     9.59693268e-02, -6.87206835e-02, -2.02370863e-02, -8.76060501e-02, -4.81252402e-01, -2.64803022e-01,  5.39353602e-02,  7.85461664e-02,
     1.41733781e-01,  6.71422407e-02,  7.06728846e-02, -6.75124824e-02,  8.55313689e-02, -6.55186083e-03, -1.68840289e-01, -1.42296731e-01,
    -2.04909202e-02,  3.59972119e-02,  3.64086479e-02, -1.19302556e-01,  3.39514650e-02,  1.54303804e-01,  1.83977842e-01, -2.29233325e-01},
   { 1.19989336e-01, -8.11830387e-02,  7.48690516e-02,  2.54105274e-02, -3.92956555e-01, -1.76983774e-01, -3.25925678e-01, -1.59514114e-01,
     3.27474415e-01,  3.22405219e-01,  1.90676942e-01,  3.22486050e-02, -1.38719350e-01, -4.71814424e-01, -6.76047802e-01, -8.44675243e-01,
    -2.63676286e-01,  3.64498496e-02,  6.96002007e-01,  5.09362698e-01,  1.51626691e-01,  2.49485940e-01,  1.44256830e-01,  1.52860701e-01,
     4.20100912e-02, -1.53445110e-01, -1.07926847e-02, -2.56204456e-02, -4.43275832e-02,  7.00492933e-02, -2.08878830e-01, -7.36525655e-02},
   {-6.69583753e-02,  2.98842102e-01, -7.11334705e-01,  2.67165631e-01,  3.56618464e-01, -3.46689463e-01, -5.36031760e-02, -1.68089233e-02,
     1.44123316e-01, -8.57445970e-02,  2.72841603e-01, -2.69465536e-01, -2.59474218e-01, -3.08592051e-01, -1.00599378e-01,  4.25727010e-01,
     7.14534938e-01,  8.74105334e-01,  2.21717004e-02, -3.27272743e-01, -7.18052983e-02, -2.46181995e-01, -9.98455137e-02, -5.20744473e-02,
    -2.10903704e-01, -2.17915237e-01,  2.03489773e-02, -4.01393659e-02,  3.04473490e-02, -2.81563073e-01, -5.91325127e-02, -3.44171107e-01},
   { 1.52814105e-01, -2.71692753e-01,  1.30983129e-01,  1.25629202e-01, -7.66153913e-03,  1.01626791e-01, -2.50027359e-01, -7.32204676e-01,
    -8.41692209e-01, -4.57353592e-01,  8.74833688e-02,  7.11756527e-01,  5.74340463e-01,  1.13087006e-01, -2.58367866e-01, -9.25648734e-02,
    -5.78538179e-02,  1.45913810e-01, -1.00146867e-01,  1.51182353e-01,  1.79080432e-03,  1.39115602e-01, -1.01744480e-01,  3.90302725e-02,
     1.45683652e-02, -2.21013417e-03,  5.97933643e-02,  2.14248419e-01, -1.01853587e-01, -1.29192129e-01,  8.51604342e-02, -1.07334135e-02},
   {-9.49373320e-02, -2.00002387e-01, -5.52619576e-01, -4.13437068e-01, -1.19072355e-01, -3.75779010e-02, -3.47634032e-02,  1.60273015e-01,
    -1.21852875e-01, -3.30103725e-01, -4.15432960e-01, -4.70340550e-01, -1.49457783e-01, -3.35118681e-01, -1.58063039e-01, -2.66708266e-02,
    -9.03408527e-02, -3.37999575e-02, -9.85039100e-02,  2.13905677e-01,  6.82451576e-02, -1.92840286e-02, -3.70907038e-02,  1.99893638e-02,
    -4.29133177e-02, -7.06220344e-02,  9.99860168e-02,  5.89855127e-02, -3.38816009e-02, -1.49525896e-01, -1.95870865e-02,  1.30982459e-01},
   {-1.80763796e-01,  3.42426091e-01,  1.03244938e-01,  1.93703577e-01,  1.75510034e-01,  3.26684564e-01,  1.50081605e-01,  1.10068340e-02,
    -1.54325485e-01, -3.35941255e-01, -1.90778047e-01, -2.54672617e-01, -2.26862326e-01, -4.28997576e-01, -6.42470121e-01, -3.44050407e-01,
    -1.69881210e-01,  4.71032783e-02,  4.63168584e-02,  1.61929265e-01,  6.30741045e-02,  1.35907410e-02,  1.57972887e-01, -2.56137736e-02,
    -2.25901138e-02,  7.41826445e-02, -2.61584699e-01,  2.14210927e-01,  2.12142050e-01,  1.71254247e-01, -1.23007640e-01,  1.09588772e-01},
   { 8.77836347e-02,  9.92508978e-02,  2.22486049e-01, -3.05487961e-01, -9.71005633e-02,  1.08708978e-01, -5.21762148e-02, -5.52561954e-02,
     2.62601405e-01,  2.47942433e-01,  2.83103853e-01,  3.65494847e-01,  8.68143663e-02, -8.46249685e-02, -3.55547339e-01, -1.08097918e-01,
    -4.90117818e-01, -6.84100807e-01, -1.51420280e-01, -2.00494260e-01,  2.66583543e-02,  3.46571505e-01,  4.66479734e-02,  1.03786923e-01,
    -5.95933795e-02,  1.34716004e-01, -1.29573792e-01,  3.21271896e-01,  1.28575101e-01,  1.40078351e-01, -9.39108506e-02, -1.24824017e-01},
   { 5.49303219e-02, -4.45278287e-02,  3.53429943e-01,  6.75402224e-01,  7.43485808e-01,  7.96886325e-01,  2.60814339e-01,  4.09807950e-01,
     3.01674128e-01,  4.09266353e-01,  2.11727545e-01,  4.22385745e-02,  2.74047613e-01,  2.08958939e-01, -3.60795051e-01,  6.47301897e-02,
     5.77231348e-02, -2.21456513e-02, -2.22293269e-02,  4.40949686e-02,  3.21700089e-02, -4.66850251e-01,  1.24927908e-01, -1.27412498e-01,
     2.89283961e-01,  2.15506315e-01,  2.17497632e-01,  4.99100797e-02,  1.55152589e-01,  3.99795711e-01, -3.36856157e-01,  3.11866291e-02},
   { 2.42113084e-01, -3.86749208e-01, -3.27962302e-02, -1.67868733e-01,  3.11216384e-01,  3.57226133e-01,  4.89179231e-02, -4.10037756e-01,
    -3.56257886e-01, -7.13596120e-02, -2.48979017e-01, -1.34661078e-01, -2.27856085e-01,  1.98020071e-01,  2.59354770e-01,  1.50672987e-01,
     2.87993508e-03,  3.01506728e-01,  1.29234195e-01, -1.04692124e-01, -4.51688729e-02, -1.15696996e-01,  4.13336121e-02, -1.69549063e-01,
    -9.88229811e-02, -4.14692834e-02, -1.00716330e-01,  4.78979647e-02,  1.70039646e-02,  8.81861597e-02, -1.43913385e-02,  3.05919498e-01},
   { 2.79603712e-02, -1.93100899e-01,  1.93321094e-01,  1.78627476e-01,  5.07154875e-02,  1.96450800e-01,  1.53820263e-02, -2.98353918e-02,
    -1.57679871e-01, -4.45214845e-03,  5.92182204e-02,  3.26353341e-01,  3.40767264e-01,  3.01176533e-02, -2.65505672e-01, -4.26169008e-01,
    -4.03154135e-01, -3.66125494e-01, -2.32966244e-01, -1.35214448e-01,  1.76169425e-02,  6.73742145e-02, -3.57337855e-02,  4.15818170e-02,
     1.01202931e-02, -1.45396098e-01,  2.08662935e-02,  3.12778652e-02,  9.70450342e-02,  1.14845701e-01, -1.61653757e-01,  7.98165277e-02},
   { 5.76487243e-01,  2.20903784e-01,  8.39809254e-02,  4.46011037e-01,  4.30243276e-02,  8.65265504e-02,  2.87031561e-01,  2.58803219e-01,
     3.94882768e-01,  1.27605602e-01,  1.72517583e-01,  4.65430677e-01, -2.04669889e-02, -3.31410587e-01,  1.17494352e-01,  2.25378066e-01,
    -1.18034154e-01, -9.21415761e-02,  6.47855029e-02,  1.64035335e-02, -3.00513040e-02,  2.63494521e-01,  1.10743523e-01, -1.00063264e-01,
     2.13688701e-01, -1.54861450e-01, -1.03518911e-01,  3.89488377e-02, -3.13566715e-01,  1.06218912e-01,  5.77474236e-01, -1.91498113e+00},
   {-3.60900424e-02,  2.19065193e-02,  1.75317258e-01,  1.40765965e-01, -3.25169042e-02,  1.69336066e-01,  3.05093735e-01,  4.38707173e-01,
    -2.03669488e-01, -1.14897341e-01, -4.35207859e-02,  7.71809071e-02, -2.83443704e-02,  6.53665047e-03, -9.63785797e-02, -3.18940789e-01,
    -1.56246498e-01,  1.38797294e-02, -2.34059289e-01, -2.10258961e-01,  4.41034473e-02, -2.89145065e-03,  2.97822095e-02,  1.59037694e-01,
     1.17342718e-01, -3.42453234e-02,  2.31031864e-03, -9.54064801e-02,  5.65563440e-02,  1.50391059e-02, -1.35042639e-02, -4.68186617e-01},
   { 1.61376461e-01, -1.50626913e-01, -2.89197743e-01, -8.60121548e-02, -2.00552076e-01, -3.29044908e-01, -2.38051772e-01, -1.59955114e-01,
    -6.99973777e-02,  3.78409699e-02,  4.20948088e-01,  4.08580571e-01,  3.74391885e-03, -2.60886371e-01, -9.37177241e-02, -1.13940455e-01,
     4.50051650e-02, -9.42509621e-02, -4.02215332e-01, -8.01780522e-02, -1.43055812e-01, -2.18887273e-02, -8.92784633e-03, -2.81327460e-02,
    -2.60451406e-01, -1.57260284e-01, -8.38220939e-02,  1.48378536e-02, -1.27312347e-01, -4.89131585e-02, -1.04969576e-01, -1.13628753e-01},
   {-1.02386720e-01,  2.57775545e-01,  1.89728051e-01,  4.80193049e-01,  3.27540874e-01,  8.72334838e-02, -5.11357188e-01, -9.16787922e-01,
    -2.59361178e-01, -8.83096009e-02,  2.17097268e-01, -2.76510656e-01, -3.49785596e-01, -3.26064020e-01, -3.13221693e-01, -2.71868199e-01,
     5.07267192e-02,  3.60929310e-01, -4.59371600e-03, -3.81498933e-01, -1.08709916e-01, -4.98344116e-02, -3.19726812e-03, -3.75525467e-02,
    -1.51323959e-01,  2.92758971e-01,  6.33597001e-02,  3.00674215e-02,  2.21369439e-03,  8.34038779e-02, -1.59164846e-01,  1.37176802e-02},
   {-3.30466241e-01,  3.07985634e-01,  1.20646074e-01, -5.02505302e-02,  6.26123250e-02,  2.56926000e-01, -5.64208589e-02, -5.80638766e-01,
    -3.54044318e-01, -3.06779385e-01,  2.27415934e-02, -9.86243263e-02,  1.15809292e-01,  3.45019579e-01, -3.13525461e-02, -9.08731818e-02,
    -2.80527055e-01, -9.53254849e-02,  4.22395915e-02,  7.08665028e-02,  5.20948648e-01,  8.00635219e-01,  1.01125109e+00,  1.08182335e+00,
     3.03673089e-01,  3.52466166e-01, -2.77195483e-01, -7.60355532e-01, -7.17787802e-01, -7.17365086e-01, -5.54208159e-02, -6.55791938e-01},
   { 2.13392694e-02,  3.72771353e-01, -6.64293244e-02, -1.74167186e-01,  1.22539610e-01,  2.91112542e-01,  3.82889062e-01,  3.40952158e-01,
    -7.61125758e-02, -2.59806812e-01, -5.69834232e-01, -4.73154783e-01,  4.34430689e-02,  6.87021971e-01,  8.69840324e-01,  2.76074588e-01,
    -6.99982703e-01, -3.94221812e-01, -1.90458909e-01, -6.99817091e-02, -1.25720948e-01, -2.28109300e-01,  8.30125287e-02,  5.91199249e-02,
    -1.10563874e-01, -5.02420254e-02,  2.18616277e-01, -1.92589149e-01,  4.23311703e-02,  9.37020630e-02, -1.30275879e-02, -6.00795567e-01},
   {-1.98928895e-03,  2.24003658e-01, -2.04714313e-01, -3.91475618e-01, -5.45531452e-01, -2.55809397e-01, -1.68981075e-01, -4.78988916e-01,
    -2.11102799e-01,  2.00549662e-02,  1.65200606e-02,  2.74805367e-01,  3.64207923e-01,  3.81793171e-01,  1.12471431e-02, -5.54195762e-01,
    -2.72912830e-01,  4.38829288e-02,  1.37796983e-01, -3.28963161e-01, -4.12999481e-01, -2.33003229e-01, -2.42476612e-01, -1.23113856e-01,
     2.37957779e-02,  9.47541818e-02, -7.21898377e-02,  1.87173992e-01,  5.84346712e-01,  3.45709980e-01, -8.55779946e-02,  1.36838332e-01},
   { 1.89810544e-01, -2.17431366e-01,  5.36198914e-01,  5.92851043e-01,  6.46829069e-01,  8.13342333e-01,  6.34338975e-01,  1.91528678e-01,
     1.79173443e-02,  1.34718776e-01, -2.19689846e-01, -2.74933457e-01, -2.29745582e-01, -9.14641395e-02,  2.41378590e-01,  1.11845784e-01,
     1.29330844e-01,  1.39947012e-01,  3.61253113e-01,  1.44453511e-01,  2.02623770e-01,  3.60679664e-02, -2.54434228e-01,  5.05712926e-02,
    -6.44571111e-02, -7.54766390e-02, -1.29652452e-02, -4.45062935e-01, -1.08452834e-01, -1.29784107e-01, -1.06787644e-01, -1.92258805e-01},
   { 2.72454135e-02,  9.54759419e-02, -2.52302289e-01, -2.15310931e-01,  2.75296181e-01,  3.84337991e-01,  1.66608468e-01,  2.38347411e-01,
    -2.00912416e-01, -4.48254704e-01, -4.21644747e-01,  5.94171703e-01,  7.06627667e-01,  2.87064370e-02, -3.35205674e-01, -6.07045472e-01,
    -2.82212317e-01,  3.73479128e-01,  7.50774741e-01,  4.78630662e-01, -2.26900995e-01, -3.19965184e-01,  2.26169959e-01, -1.72628358e-01,
    -2.34137088e-01, -6.50469679e-03, -1.00930944e-01, -1.88917637e-01,  8.07454512e-02, -2.41418660e-01, -3.34117264e-01,  1.31439298e-01},
   {-1.01421654e-01, -8.18767175e-02, -6.57276809e-02,  1.46345764e-01,  7.81581551e-02,  2.31024727e-01,  1.17555127e-01, -3.61306295e-02,
     6.53831586e-02,  2.48865113e-01,  5.55065751e-01,  5.57630241e-01,  5.28000176e-01, -1.57514233e-02, -5.46080053e-01, -3.30725372e-01,
    -2.76507914e-01,  8.12186375e-02, -2.81545543e-03, -2.17154279e-01, -3.37519348e-01,  6.10394888e-02,  1.56614810e-01,  1.31860524e-01,
    -7.33565167e-02,  6.55584112e-02, -1.20622024e-01,  1.85863331e-01, -1.51519433e-01,  2.10679621e-01,  2.06775397e-01, -1.01443022e-01},
   {-2.42627025e-01,  1.36522040e-01,  1.93552494e-01,  2.87050784e-01,  1.19537925e-02, -1.69430912e-01,  2.10691035e-01,  1.44300088e-01,
    -5.18555753e-02,  1.07054070e-01, -1.20718464e-01,  7.46950209e-02,  2.96431109e-02,  4.75857705e-01,  5.92785627e-02, -1.98103487e-02,
     3.02905679e-01, -1.69117898e-01, -2.28069853e-02,  4.71849926e-02,  9.84997954e-03,  1.05908420e-02, -2.19710961e-01, -1.17895111e-01,
     5.31449392e-02,  5.04190363e-02, -1.81694895e-01, -1.17326207e-01,  9.73186269e-02, -2.67882109e-01, -1.55964643e-01,  1.37094688e-02},
   { 4.66202170e-01, -3.68056446e-02,  2.69112498e-01,  1.51598454e-01,  2.95189321e-01,  3.26063424e-01,  2.46797979e-01,  2.79282480e-01,
    -1.48586750e-01, -9.56317112e-02, -1.87004715e-01, -3.55014443e-01, -3.39888126e-01, -1.76515147e-01, -1.99972749e-01,  1.14567401e-02,
     1.17044501e-01,  2.82426625e-01, -3.24099332e-01,  2.10584417e-01,  3.81029785e-01,  3.44460517e-01,  1.57607287e-01,  2.82021940e-01,
     4.74190623e-01,  5.63295424e-01,  4.67212349e-02,  3.29375178e-01,  5.69538288e-02,  4.89970446e-01,  4.68690485e-01, -1.28421748e+00},
   { 4.28024903e-02, -3.47542502e-02,  1.83403656e-01, -4.15712774e-01, -7.80598998e-01, -3.19232225e-01, -1.58575356e-01,  6.44836307e-01,
     7.21875727e-01,  4.29346681e-01, -1.00766025e-01, -7.26253986e-02, -2.72674680e-01, -3.28385144e-01, -3.28240544e-01, -2.96917170e-01,
     4.40595716e-01,  5.06005883e-01,  1.80181444e-01,  2.15819314e-01, -5.21122431e-03,  4.42162305e-02, -4.42168750e-02,  2.85922717e-02,
    -1.87392980e-01,  4.27548587e-02, -5.87750487e-02, -1.40730083e-01,  9.18314829e-02, -1.76641583e-01,  9.69166085e-02,  1.29689515e-01},
   {-4.21101525e-02, -2.58737922e-01, -4.08286490e-02,  4.05280232e-01,  2.92180657e-01,  1.42131224e-01,  3.49361688e-01,  9.03171837e-01,
     8.80505860e-01,  6.69498026e-01,  3.53745818e-01, -1.32364765e-01,  7.85835087e-02, -1.15431644e-01, -4.96258020e-01, -3.16970944e-01,
    -2.52892762e-01,  3.36917280e-03, -1.07441723e-01, -2.49565944e-01, -2.56430507e-01,  4.76401329e-01,  2.06868529e-01,  1.51470348e-01,
     7.96846598e-02, -1.86763108e-01, -3.43744725e-01, -2.57803231e-01, -2.22699001e-01, -3.06912661e-01, -2.23139897e-01, -4.27817225e-01},
   {-9.15857255e-02, -1.24069400e-01,  3.95605527e-02,  2.20424727e-01,  4.08225775e-01,  1.18976392e-01,  2.96031266e-01,  3.00297886e-01,
     1.07984774e-01, -2.06897318e-01, -3.25171719e-03,  3.16490710e-01,  6.70234263e-01,  1.33345760e-02, -6.32714748e-01, -6.62394345e-01,
    -4.82144445e-01, -1.60915419e-01, -1.98073119e-01, -1.85824007e-01,  1.04025699e-01, -9.75347906e-02, -1.70357615e-01, -1.59694359e-01,
     1.48575604e-01, -2.04185680e-01, -6.77123219e-02, -1.29701421e-01, -1.22387819e-01, -2.30021089e-01, -9.56613338e-04,  2.70592213e-01},
   {-9.99230742e-02,  1.41301259e-01,  2.35164255e-01, -1.37202471e-01, -4.36225086e-02, -2.91925937e-01, -1.58428162e-01,  2.76952595e-01,
     2.91722983e-01, -1.62636518e-01, -1.38444021e-01, -1.31558120e-01, -6.48885742e-02,  3.31858635e-01,  1.49661124e-01,  1.18823722e-02,
     7.73485377e-02, -3.34258452e-02,  4.15582508e-01,  6.04693472e-01,  4.28656548e-01,  1.75501317e-01, -1.75217077e-01, -3.29392821e-01,
    -2.21849471e-01, -2.59503454e-01, -4.24922965e-02, -6.64072111e-02, -4.78497632e-02,  1.26914024e-01,  1.16296813e-01,  1.14094369e-01},
   { 7.60935843e-02,  6.88702008e-03,  3.12773377e-01, -3.19973201e-01, -3.01634401e-01, -2.27014229e-01, -9.38754901e-02,  9.83805861e-04,
     1.16935603e-01,  3.93719196e-01,  2.92738646e-01,  4.14887607e-01,  4.88088220e-01,  1.86577827e-01, -2.46616334e-01, -4.67930585e-01,
    -3.71364266e-01, -2.60284752e-01, -2.10022852e-01, -1.37782088e-02, -7.67976791e-02, -2.33657077e-01, -2.16842264e-01, -1.95636883e-01,
    -1.23523928e-01, -5.77458926e-02, -1.10037193e-01,  2.93361992e-02, -8.16133469e-02,  9.91513208e-03, -4.63609174e-02, -5.57618886e-02},
   { 6.56328648e-02,  2.45708227e-02, -4.07609731e-01,  1.29934773e-02, -1.74868733e-01,  2.50035495e-01,  1.56149954e-01,  3.98455381e-01,
     2.51927912e-01,  5.43303788e-01,  3.36051702e-01, -2.37860054e-01, -8.52398932e-01, -8.52288485e-01, -3.32318276e-01, -1.31517604e-01,
     4.63211238e-02,  1.78463850e-02,  4.62884367e-01,  1.45552769e-01,  7.15623125e-02,  1.06187187e-01, -6.56605558e-03,  6.42942637e-02,
    -1.17227197e-01,  4.45054173e-02,  6.33617351e-03, -6.78191185e-02,  2.00670451e-01,  1.12595320e-01, -1.59769192e-01, -4.86277789e-02},
   { 7.51073956e-02,  5.30515164e-02, -4.42713439e-01, -4.12880540e-01, -3.97528619e-01, -3.84736508e-01, -1.55932963e-01, -3.95368457e-01,
    -1.50632113e-01,  1.11888714e-01,  3.71969163e-01,  2.32122764e-01,  1.11143798e-01, -2.20871600e-03, -1.51923120e-01, -2.21235808e-02,
     1.39557257e-01,  3.97495665e-02, -6.13102578e-02, -7.70246014e-02, -2.08366290e-01, -4.86335196e-02, -1.78185627e-01, -9.00128782e-02,
    -1.00869015e-01, -7.31050549e-03, -1.14433698e-01, -2.80326396e-01,  1.00267030e-01,  2.14208007e-01, -1.75908953e-01,  1.93357497e-01},
   {-2.38091633e-01, -2.11486772e-01, -6.70835376e-01, -7.23592818e-01, -3.35658073e-01, -1.62172660e-01,  3.00117522e-01,  7.55032778e-01,
     1.95990428e-01,  3.44224364e-01,  6.42149299e-02,  3.99854928e-01,  4.07946080e-01,  1.82447687e-01, -3.63838784e-02, -6.21870346e-03,
    -2.12437779e-01, -3.27616096e-01, -3.29487652e-01, -3.85719597e-01, -2.19378024e-01,  9.22864527e-02,  2.82559961e-01,  8.12416747e-02,
     1.11869141e-01, -9.52004790e-02, -2.88962526e-03,  1.76958859e-01,  4.00147028e-03, -4.84210141e-02, -7.56992772e-02,  2.80311555e-01},
   { 2.99212188e-02, -1.48683310e-01, -2.65950739e-01, -7.77287316e-03, -1.51189342e-01, -4.86661792e-01, -3.53779674e-01, -6.69736922e-01,
    -2.78647900e-01, -7.49234483e-02,  2.60382384e-01,  2.48611897e-01,  1.74586639e-01,  2.31724471e-01,  8.46179575e-02, -3.45560387e-02,
     1.59553438e-01, -1.06290057e-01, -3.14776897e-01, -1.80881739e-01,  1.40366638e-02, -6.16922304e-02, -6.19890317e-02,  2.04852899e-03,
    -2.29523003e-01,  1.48059115e-01,  3.94297705e-04,  1.07502658e-02, -1.82786472e-02,  1.62773579e-01, -2.73806453e-01, -1.45616913e-02},
   { 1.89081356e-02, -6.61646500e-02, -1.02386605e-02,  1.83600485e-01,  2.11834326e-01, -8.46436471e-02,  6.83833212e-02, -2.43617579e-01,
    -3.08479428e-01, -2.28737116e-01, -2.63115227e-01, -1.87829956e-01, -2.42916957e-01,  8.50239098e-02,  1.88297540e-01,  8.25156420e-02,
     2.49532133e-01,  1.56274885e-01, -3.65371779e-02, -1.13030627e-01, -1.98613629e-01, -1.55051379e-02, -3.57803181e-02, -1.06724016e-02,
    -9.01045203e-02, -2.71748863e-02,  7.95726627e-02,  7.43267015e-02, -9.80094299e-02, -3.00580353e-01,  1.16008334e-01, -6.50039781e-03},
   {-1.52116776e-01, -4.04574014e-02,  8.76309872e-02, -5.92555925e-02, -6.47684038e-02,  2.44320631e-01, -5.92635944e-02, -3.17519128e-01,
    -3.83807808e-01, -3.13130647e-01, -4.49037045e-01, -3.58949721e-01, -4.08368647e-01, -3.67221743e-01, -1.61366791e-01, -2.63033181e-01,
    -2.39908502e-01, -2.15366527e-01,  1.56077936e-01,  1.93078354e-01,  1.64747208e-01,  3.16601336e-01,  2.35066667e-01,  3.98322567e-02,
     1.39097601e-01,  8.87562409e-02,  6.88393116e-02, -1.09997364e-02,  2.07431063e-01,  2.08087832e-01, -1.18984416e-01,  1.10897727e-01},
   {-2.28112012e-01,  3.50519478e-01, -3.13111871e-01, -6.66930556e-01, -3.83603305e-01, -3.06905299e-01, -2.12716669e-01, -1.45335540e-01,
     1.97551250e-01,  5.21472633e-01,  2.12164968e-01,  4.96210933e-01, -7.73043185e-02,  3.16728652e-02,  2.65693277e-01,  4.36537154e-02,
    -3.14847603e-02, -2.28776917e-01, -1.36207193e-01,  3.92347164e-02, -5.67385107e-02, -2.96311174e-02, -1.42537847e-01, -1.49452001e-01,
    -7.97263458e-02, -2.79575944e-01,  1.18087038e-01, -1.10410817e-01, -8.66030976e-02,  1.22741640e-01,  6.02268502e-02, -2.11883396e-01},
   { 7.85271525e-02,  1.89378932e-01, -2.67225742e-01, -3.16545457e-01, -1.43448189e-01,  3.90776336e-01,  8.94131958e-01,  6.19452298e-01,
    -5.24718821e-01, -7.50591338e-01, -1.21506073e-01,  7.33500540e-01, -2.23433867e-01, -1.09587681e+00, -8.39783728e-01, -3.46215755e-01,
     3.11889052e-01,  5.42438388e-01, -7.76959062e-02, -3.98554802e-01,  2.76610941e-01,  2.15530768e-01, -8.46306309e-02, -5.70203140e-02,
     1.93467990e-01, -2.87845433e-02,  4.67559025e-02,  2.47737899e-01, -8.18525627e-03,  1.57225353e-03, -2.29488328e-01, -2.81854391e-01},
   { 3.67837638e-01, -1.47228986e-01,  2.23266244e-01, -1.75853953e-01,  1.20887950e-01,  1.89639837e-01,  7.20858872e-01,  3.04669410e-01,
    -1.83468580e-01,  4.39364344e-01,  4.79386836e-01, -5.50779514e-04,  1.97200775e-02, -7.57519901e-03,  2.83113420e-01, -1.60020530e-01,
     2.96529800e-01,  2.17492446e-01,  8.67345277e-03, -7.52321109e-02,  1.86335459e-01,  9.18424949e-02,  2.84504682e-01,  1.46143343e-02,
     1.85729086e-01,  3.98658395e-01,  1.01631895e-01,  1.09415516e-01,  2.80159444e-01,  3.36699128e-01, -5.87809719e-02,  1.54507712e-01},
   {-1.70409724e-01,  7.98257813e-02,  3.11002076e-01, -1.48674011e-01, -2.60355383e-01, -4.16157722e-01, -8.43186006e-02, -4.06968631e-02,
     4.03137505e-02, -4.87387091e-01, -6.76935971e-01, -3.31972390e-01,  1.00512826e+00,  8.67764592e-01,  7.10432589e-01,  3.98900330e-01,
     1.98769569e-01, -3.69980365e-01, -4.48113412e-01, -4.34289128e-01, -1.58396542e-01, -3.88221294e-01, -3.10838073e-01, -8.46387818e-02,
     1.47641107e-01, -1.17504876e-02,  3.53746340e-02, -4.94042449e-02,  1.04234293e-01,  3.19053054e-01, -1.25446185e-01,  1.64606050e-01},
   {-5.70163056e-02,  1.48713499e-01, -8.82921442e-02, -5.81817985e-01,  4.79178093e-02,  2.64311451e-02,  5.20501658e-02,  4.20477331e-01,
     8.54877196e-03, -2.65397906e-01, -6.84870183e-01, -2.13259041e-01, -2.41963807e-02,  1.19729303e-01,  8.51305500e-02, -9.98868197e-02,
    -8.17971602e-02, -7.45678321e-02, -2.22053289e-01,  5.03390394e-02, -2.64539540e-01, -1.50537461e-01,  3.60847712e-01,  8.76216334e-04,
    -8.26019645e-02,  1.82670690e-02,  1.16528064e-01,  1.17879137e-01,  3.01135331e-01, -2.24042330e-02, -1.06224110e-02, -1.38754547e-01},
   {-2.75787022e-02,  7.17859268e-02,  5.41205332e-02,  4.80513632e-01,  2.58972168e-01, -4.34505381e-02, -1.71165839e-01, -7.56769404e-02,
    -3.62382941e-02, -2.40751296e-01, -3.70758593e-01, -3.98236066e-01,  8.68443176e-02,  2.12487370e-01, -1.80560514e-01, -3.32886279e-01,
    -2.61735380e-01,  2.43910566e-01,  9.36880782e-02, -3.35055683e-03,  3.52890462e-01,  1.46298930e-01,  3.42042536e-01,  1.03629880e-01,
     4.26809266e-02, -1.00703388e-02,  1.41257346e-01,  1.66364789e-01,  1.86461985e-01, -1.35125920e-01,  3.31585892e-02, -6.77628219e-02},
};

const float GRNN0_U[64][64] = {
   {-1.58122253e+00, -6.71740592e-01, -6.79081559e-01, -1.34900004e-01,  7.13027179e-01, -2.75580920e-02,  1.12065494e+00, -4.62522149e-01,
    -2.75167882e-01,  7.01911092e-01, -1.23397976e-01, -3.64158571e-01,  6.98678613e-01, -3.01512688e-01, -7.77162194e-01,  4.77506340e-01,
    -9.07385230e-01, -7.40480721e-01,  2.71736294e-01, -1.04045403e+00, -3.55654135e-02, -4.70498502e-02, -1.13834929e+00, -2.78166384e-01,
    -1.06124449e+00, -4.97919440e-01,  1.57871807e+00,  9.71448421e-01,  1.53458089e-01, -4.65331733e-01, -1.15789366e+00,  4.94370818e-01,
    -1.10762611e-01, -1.01712382e+00,  2.30574667e-01,  9.59618449e-01, -7.86959171e-01, -4.13790405e-01, -1.88554749e-01, -8.01759124e-01,
     3.32578331e-01, -9.90713060e-01, -4.51228172e-01, -1.04751360e+00,  5.98899901e-01, -4.54351127e-01, -1.04675964e-01, -2.23028168e-01,
    -3.72029245e-01,  2.02412773e-02,  9.58763123e-01, -1.02221763e+00,  3.49767685e-01, -4.98166740e-01, -1.61965168e+00, -4.77885038e-01,
     1.14039695e+00, -5.08976996e-01, -5.87357700e-01, -3.33136097e-02, -2.97713518e-01, -1.71970069e-01,  1.75826997e-01,  6.79181933e-01},
   {-4.51723225e-02, -1.02259052e+00,  5.08386455e-02,  2.80045956e-01, -1.14589095e+00,  3.52265865e-01, -7.43960679e-01,  6.11326635e-01,
     1.12422240e+00, -6.68354094e-01,  2.26014167e-01,  1.28734696e+00, -4.98025119e-02, -4.81407225e-01, -4.22425084e-02,  2.04686925e-01,
     9.85646714e-03, -7.06336915e-01,  6.72140896e-01,  1.83307123e+00,  6.78356066e-02,  1.51401162e-01,  2.88940012e-01, -3.18343729e-01,
     1.16186023e+00, -5.67575157e-01, -4.71970439e-03,  7.83130340e-03,  4.31347877e-01, -6.08827211e-02, -4.75795478e-01, -4.01721925e-01,
     3.37344408e-01, -1.01525855e+00, -1.03089190e+00, -2.84637868e-01, -2.31147632e-01, -3.13853055e-01, -6.02938354e-01, -5.22995174e-01,
     6.15595886e-03, -5.99753559e-01, -1.12588763e+00,  9.07048523e-01, -3.36811274e-01, -7.65986070e-02,  4.72383052e-02,  2.74142832e-01,
     4.26247418e-01,  2.98867106e-01, -1.14151490e+00,  1.40275776e+00, -1.91762328e+00, -5.16527221e-02,  3.44763428e-01, -2.14385465e-01,
    -1.98339200e+00, -2.70795107e-01, -1.32053638e+00,  5.49783409e-01, -6.39255583e-01, -6.91743800e-03, -2.56797254e-01,  8.28625917e-01},
   { 2.76178718e-01, -5.88678837e-01, -5.37533164e-01,  3.96354109e-01,  1.63307357e+00,  4.20038462e-01,  4.92713809e-01,  6.58518672e-01,
    -6.07989848e-01,  1.80892751e-01, -1.37904286e+00,  3.74136150e-01, -2.37037390e-01, -5.88637471e-01, -2.13012751e-02, -3.58242810e-01,
     1.70289004e+00,  1.07909024e-01,  5.04949868e-01,  2.36815381e+00, -3.48241657e-01, -6.40262485e-01,  5.07321715e-01, -1.00763047e+00,
    -4.25533324e-01, -7.35196397e-02,  9.91949797e-01, -1.08264649e+00,  6.06455579e-02, -5.82800746e-01, -3.27295363e-01, -7.92822838e-01,
    -8.73836100e-01, -1.99066997e-01,  1.93796501e-01,  1.67958021e+00,  1.63514018e-01,  2.18053371e-01,  1.23963070e+00, -1.06929183e+00,
     2.16968313e-01, -2.18681544e-01,  6.20468659e-03, -4.37339485e-01,  8.33827198e-01, -7.17522979e-01,  1.31136060e+00, -4.49450910e-01,
     5.52703500e-01,  8.18490088e-01, -5.52051842e-01,  6.72936380e-01, -6.17828071e-01,  3.05047743e-02, -8.47646356e-01,  1.19107437e+00,
     3.29441547e-01, -9.77521718e-01, -4.55861390e-02,  2.27836426e-02,  4.85410661e-01,  4.36384082e-01, -1.40776837e+00, -9.22239900e-01},
   {-3.05096149e-01, -7.62204468e-01,  1.15442967e+00, -1.23346066e+00, -9.74355862e-02,  8.04271758e-01,  1.89835286e+00,  2.75905758e-01,
    -1.00982261e+00, -7.70090878e-01, -7.74681449e-01, -1.95928645e+00,  2.21151009e-01,  9.91275430e-01, -1.69550434e-01, -3.73385638e-01,
    -7.45099545e-01, -2.04584152e-01, -4.31996316e-01, -1.01273894e+00, -3.49902213e-01, -5.35191774e-01, -4.72394347e-01,  7.49702752e-01,
    -2.10178107e-01,  7.20436037e-01,  1.04574442e+00, -6.98910177e-01, -1.34064615e+00,  1.38304755e-01,  9.40725327e-01,  1.56974864e+00,
    -3.98252249e-01,  1.02163756e+00,  8.78532290e-01,  3.29966210e-02, -4.64122385e-01,  3.11146051e-01,  7.88961470e-01,  4.60349321e-01,
    -4.23499882e-01,  9.75923240e-02, -1.22782469e+00, -2.61185944e-01,  6.44664466e-01,  3.33091259e-01, -1.70274362e-01,  4.82090041e-02,
    -7.65875459e-01, -8.84879887e-01, -8.55241120e-01, -1.09085597e-01, -8.40386562e-03,  2.05929242e-02,  1.43865848e+00,  1.05623722e+00,
     7.41447508e-01, -1.13410890e+00, -3.91246900e-02, -2.81081110e-01,  4.52805251e-01, -2.81856651e-03, -2.12113231e-01,  1.14075863e+00},
   { 3.20900202e+00, -1.24782212e-01, -1.23977554e+00,  2.71394193e-01, -2.79172230e+00,  7.64251113e-01,  2.24458396e-01,  4.63420182e-01,
     8.13632071e-01, -1.43074524e+00, -3.79745029e-02,  1.51716387e+00, -1.54326871e-01, -8.29167068e-01,  1.37330890e+00,  6.18764877e-01,
    -4.58714366e-01,  5.54089129e-01, -6.09753132e-01, -6.09078884e-01,  2.08475009e-01, -2.40610480e-01,  1.00927866e+00, -5.22580266e-01,
    -1.37504482e+00, -1.22652031e-01, -4.05240953e-01, -1.85442090e+00, -1.08004463e+00,  4.84042168e-01, -1.61693084e+00,  2.86309510e-01,
     2.12339669e-01,  1.15388274e+00,  1.08420968e+00, -4.94148076e-01, -9.43114936e-01,  3.09867650e-01, -1.70816526e-01,  1.56780446e+00,
     9.83023942e-02,  8.04968238e-01,  1.05126783e-01, -1.39473215e-01, -4.66520339e-01,  3.47149372e-01,  6.90911785e-02,  3.09457541e-01,
     8.41438651e-01,  2.14159176e-01, -4.51073229e-01, -7.10749149e-01,  6.67396605e-01,  5.51117063e-01, -3.98825049e-01,  1.96964696e-01,
     3.19849461e-01, -1.83383679e+00,  5.80784202e-01, -8.81641150e-01, -9.67090607e-01,  1.37909114e-01,  9.59569693e-01,  1.75031185e+00},
   {-4.38992888e-01, -1.39861971e-01, -3.89505625e-01,  5.02041161e-01, -7.67407894e-01, -1.99723697e+00,  4.82016861e-01, -2.07248986e-01,
     5.39732158e-01, -6.78680062e-01,  7.38229677e-02,  2.70163953e-01, -1.51703191e+00,  1.53883591e-01, -3.06597531e-01, -1.09863020e-02,
     9.40863252e-01,  7.07568705e-01, -4.72375274e-01,  4.55810159e-01, -4.54970747e-01, -7.86275625e-01,  1.22880507e+00,  2.34887183e-01,
    -3.36964369e-01, -1.85478359e-01,  6.86746418e-01,  8.13022435e-01, -7.88432121e-01, -4.83504504e-01, -2.27594376e+00, -1.03363097e+00,
    -5.15441000e-01, -7.22256541e-01, -4.44677085e-01,  7.42134690e-01, -2.09198520e-01,  1.55814096e-01,  1.16299427e+00,  8.27554226e-01,
     5.39177537e-01,  3.21224809e-01, -3.55465174e-01,  7.32157648e-01,  3.15089852e-01,  1.92742810e-01,  3.39192629e-01,  1.70945179e+00,
     3.79378557e-01, -6.92864776e-01, -4.18704927e-01, -4.47243243e-01, -4.68182236e-01, -3.67426164e-02,  1.36810470e+00, -5.24601519e-01,
     6.30996078e-02, -2.06640497e-01, -6.30074978e-01, -1.44019198e+00,  5.31342268e-01, -4.82972443e-01, -2.09354535e-01, -8.62447992e-02},
   {-8.32476094e-02,  7.81075776e-01,  1.95195842e+00, -4.10114616e-01, -4.86163795e-01, -3.31918478e-01, -7.94288635e-01, -1.09770930e+00,
    -5.51767051e-01, -3.72487813e-01,  1.02603233e+00, -3.72663170e-01,  3.91028672e-01,  1.91242468e+00, -1.38375342e+00,  1.51509836e-01,
     5.88243008e-01, -8.43020827e-02,  8.33066344e-01, -6.83870554e-01,  6.18777201e-02, -2.63854057e-01,  9.09453630e-02, -6.80186510e-01,
    -5.17633259e-01,  2.86516190e-01, -1.71520904e-01,  8.74537885e-01, -1.65462174e-04,  9.15735364e-02,  1.03548908e+00,  9.37757730e-01,
     4.84891713e-01, -4.85849559e-01,  5.08911252e-01,  1.41072237e+00, -1.10405497e-01,  7.47771040e-02,  1.60385525e+00, -6.21258058e-02,
    -9.04030085e-01, -1.57477331e+00, -3.28112036e-01, -2.41726264e-01, -1.18086398e+00, -3.80847633e-01, -5.50526857e-01,  1.30913639e+00,
    -2.98029065e-01, -1.35323346e-01,  7.82784820e-01,  5.51885068e-01,  1.29042578e+00, -4.91381496e-01,  3.47572029e-01,  4.96622741e-01,
     4.80445355e-01, -1.70161545e+00, -2.04071581e-01,  5.51017046e-01, -2.13375688e-01, -3.46071750e-01,  6.84526980e-01,  7.53793597e-01},
   {-5.37767470e-01,  6.19701892e-02, -3.96561176e-01, -2.12106556e-01, -5.90628386e-01,  1.49931049e+00,  7.32524574e-01,  3.91039044e-01,
    -4.60727274e-01,  2.10898709e+00,  2.46892914e-01,  8.03210884e-02,  7.41511881e-01,  1.35172617e+00,  6.80360019e-01, -4.67627406e-01,
     1.63228005e-01,  4.05873120e-01,  8.24459851e-01,  2.77176261e-01,  2.14944914e-01, -2.80383259e-01, -6.97971523e-01,  5.16783416e-01,
     4.76454161e-02, -7.30351269e-01, -5.00131667e-01,  3.82469356e-01,  9.50852036e-02, -4.84318696e-02, -4.63538289e-01,  6.22383237e-01,
     1.05118370e+00,  7.51840949e-01,  4.38465714e-01, -3.21334213e-01,  1.05621660e+00, -2.18009084e-01,  5.94153583e-01,  5.67842007e-01,
     1.47014570e+00, -5.03520250e-01,  3.93000484e-01,  2.87628621e-01,  2.67200857e-01,  1.57115936e+00,  9.32206213e-01,  3.70346695e-01,
    -2.57727593e-01, -4.72247899e-02,  1.22034407e+00,  1.19306958e+00,  8.68291795e-01, -7.52920955e-02,  4.09100056e-01,  6.60612822e-01,
    -2.57454395e-01,  4.44969356e-01,  7.28488505e-01,  5.84150851e-01, -2.07417890e-01, -1.17265284e+00,  2.15851694e-01, -9.96630013e-01},
   {-2.81860203e-01,  1.92325816e-01, -6.61404729e-01,  3.36589366e-01,  5.24837732e-01,  1.12554178e-01,  1.26244831e+00,  9.87050030e-03,
    -1.16560268e+00, -4.84692723e-01,  1.25585735e+00, -9.19856310e-01, -3.42966229e-01,  1.10222805e+00, -2.70431396e-02,  6.72873139e-01,
     1.20827091e+00,  6.44936621e-01,  7.60462224e-01, -7.14536726e-01, -6.02290511e-01,  2.19291095e-02, -1.85388014e-01,  4.02741879e-01,
     7.80192435e-01,  1.08713567e+00, -7.51858652e-01,  1.33037433e-01, -2.95747846e-01,  1.99775383e-01, -1.31546664e+00, -6.79636776e-01,
     1.29332706e-01, -8.99118185e-01, -1.93155944e-01,  3.12839933e-02,  1.34172833e+00,  6.38499949e-03,  4.50098328e-02,  7.85534680e-01,
     5.10379434e-01, -3.27204406e-01,  4.69944894e-01,  2.47418750e-02,  5.91242909e-02,  9.22163129e-01,  1.66297615e-01,  4.03293729e-01,
     2.19683006e-01,  2.98206687e-01,  2.60960102e-01,  6.36384487e-01,  2.22340211e-01,  2.48885140e-01,  1.07104135e+00,  4.89971608e-01,
     4.10206199e-01, -6.78911984e-01, -3.49524319e-01,  6.11585379e-02,  8.19544911e-01, -5.95548868e-01, -1.35862812e-01,  6.75278604e-02},
   {-5.70337176e-01, -3.15240771e-03, -4.95263129e-01, -4.48430568e-01, -8.68663788e-02,  3.83283705e-01,  9.23584342e-01,  4.96578574e-01,
     6.63828254e-01, -1.82126760e-01,  1.32032537e+00,  3.56867820e-01,  1.53647438e-01,  8.88610601e-01,  7.31008589e-01,  6.09412231e-02,
    -6.40000224e-01, -8.26879442e-01, -5.86704463e-02,  6.43502474e-02,  1.03932214e+00, -1.49999335e-01,  8.56570959e-01,  1.56604946e-01,
    -8.15126836e-01, -2.59121776e-01, -5.99598348e-01, -1.19422388e+00,  1.44581819e+00,  1.28154826e+00,  4.75231737e-01, -1.55032918e-01,
    -1.22964895e+00,  6.28055930e-01,  9.79840830e-02, -9.90329862e-01, -1.32141054e+00, -3.25359404e-01, -4.55039412e-01,  7.32749343e-01,
     1.01552188e+00, -5.44201508e-02,  2.48721223e-02, -4.45887327e-01,  3.96485001e-01,  5.03663957e-01,  2.98325298e-03, -1.45456791e+00,
    -5.64095259e-01,  2.15204865e-01,  3.87920469e-01, -5.22999167e-01,  1.16622519e+00, -2.93874070e-02, -4.27879602e-01,  6.69432431e-02,
     1.22999322e+00,  3.11848074e-02, -3.84255946e-01, -1.37509793e-01,  3.30909669e-01,  5.83036020e-02,  3.58864576e-01, -2.18132123e-01},
   { 1.28776968e-01,  2.89241761e-01,  1.76070899e-01, -1.63204938e-01, -7.27383196e-01, -6.81267858e-01, -6.03401184e-01, -2.46539965e-01,
    -9.88588631e-01,  2.18947142e-01, -1.44776404e+00, -1.03024435e+00,  5.74550569e-01,  4.90122624e-02,  3.86834949e-01,  2.69029468e-01,
    -1.59341432e-02,  6.27563715e-01, -1.23042904e-01, -9.11692604e-02,  8.54689360e-01,  7.40329802e-01, -9.86847341e-01,  7.42538929e-01,
    -5.37064970e-01, -9.77170914e-02, -1.35512996e+00,  3.84110034e-01,  2.23851085e-01,  2.68923014e-01,  2.74473038e-02, -1.29481685e+00,
     1.09586850e-01, -4.16050106e-01, -6.77964151e-01, -9.71013904e-01,  5.74630424e-02, -2.14937478e-01,  1.00497030e-01,  2.48062372e-01,
    -2.27968073e+00, -2.74458051e-01, -6.96443841e-02,  2.24405676e-01, -3.91046792e-01,  6.51535511e-01, -1.98557988e-01, -1.08131206e+00,
     5.29672444e-01, -1.22503519e+00, -7.65714347e-01,  3.73359650e-01,  1.21092057e+00, -3.28094244e-01,  2.96779513e-01,  3.78320366e-01,
     6.27605677e-01, -3.04359019e-01, -2.13373527e-02,  4.29855049e-01, -2.77267247e-01,  4.64239828e-02, -7.92489827e-01, -1.05590196e-02},
   {-1.19084954e+00, -9.05050457e-01, -3.68404925e-01,  9.12697315e-01,  3.19816440e-01, -6.28135622e-01,  9.96678352e-01, -5.21587431e-01,
    -4.04560208e-01, -2.40707010e-01,  1.24749944e-01, -3.55061960e+00, -1.30961645e+00,  1.83464706e+00,  2.22347543e-01, -1.52403009e+00,
     5.02394259e-01,  3.04003298e-01, -7.87757114e-02, -5.07804334e-01, -2.63600856e-01, -9.97417808e-01,  1.01203304e-02,  2.65431076e-01,
     1.09050602e-01,  5.85266650e-01, -1.01576567e+00, -9.85938430e-01, -8.63926291e-01, -1.64867371e-01, -1.77606076e-01,  1.68091595e-01,
    -1.90302387e-01, -3.37609261e-01,  2.40035877e-01,  4.85970788e-02, -7.71045327e-01,  1.95119962e-01, -2.97173321e-01,  1.10595095e+00,
     4.23631221e-02, -9.84295130e-01,  9.80834737e-02,  3.51283014e-01,  1.57180810e+00,  2.67680973e-01,  2.96519995e-01, -1.98216945e-01,
     1.15759462e-01,  6.73168719e-01,  5.89733362e-01,  8.14501762e-01,  1.39866590e+00,  2.13828430e-01,  8.35030735e-01,  4.72554445e-01,
    -3.10934693e-01, -2.04292446e-01, -1.07164252e+00, -5.64518631e-01, -3.59699056e-02, -3.59714448e-01, -7.10869804e-02, -9.59139317e-02},
   { 7.84532487e-01, -2.41426960e-01,  3.03094536e-01, -9.94312465e-01,  4.62844938e-01,  1.12159276e+00,  2.78760612e-01,  1.27540782e-01,
    -1.75185651e-01,  8.53234157e-02, -1.18408203e+00,  7.37772882e-01, -4.47844326e-01,  3.34643930e-01, -1.95087865e-02, -2.31312335e-01,
     7.49878526e-01,  6.71456814e-01,  3.79086286e-01,  5.61691701e-01,  3.63594443e-01, -4.00279015e-01,  9.25665647e-02, -1.18407023e+00,
    -1.00438774e+00,  7.47260928e-01,  9.33694959e-01, -9.27556574e-01, -3.63069713e-01,  8.09237421e-01, -4.65918541e-01,  1.31599605e+00,
     1.01330793e+00, -1.23019768e-02,  6.50395975e-02, -4.27148789e-01, -2.54303925e-02,  1.70169365e+00, -4.51278090e-01,  1.78056031e-01,
    -2.71393239e-01,  2.93374598e-01,  4.57381696e-01, -7.88211346e-01, -4.03373569e-01,  9.48819280e-01, -1.81497708e-01,  2.39377290e-01,
     1.13611662e+00,  4.18890625e-01,  1.11938047e+00,  6.67258203e-01, -8.13504979e-02,  8.66971761e-02,  1.01391077e+00,  2.43690729e-01,
     1.54530361e-01,  8.18326294e-01, -5.26660383e-02, -2.85352349e-01,  2.69769073e-01, -1.49415100e+00, -1.50600329e-01,  1.91066101e-01},
   { 4.91827309e-01,  2.54265547e-01,  7.39847183e-01,  8.33166182e-01,  8.32322463e-02,  2.89396763e+00, -1.57511815e-01,  4.28156078e-01,
    -1.37657285e+00, -3.54463458e-01, -1.71161920e-01,  1.92139161e+00,  7.60752022e-01, -1.38833761e+00, -7.09766507e-01,  9.63388801e-01,
    -3.17477852e-01,  2.14197025e-01,  9.03057218e-01, -6.16596997e-01,  1.04591072e+00,  1.67165071e-01, -4.87917989e-01, -1.28324938e+00,
     8.77744973e-01,  3.36244851e-01,  1.78792512e+00,  6.77288532e-01, -3.01076770e-01, -4.67449933e-01,  5.50014079e-01, -2.92837560e-01,
    -1.47560388e-01,  3.51209313e-01,  1.42553091e+00, -1.97794273e-01, -2.12174043e-01,  1.99081391e-01, -1.62033990e-01, -5.63289344e-01,
    -6.24742448e-01,  3.84554505e-01,  1.42216235e-01,  3.80317271e-01, -7.92767942e-01,  5.74285090e-01, -6.92247868e-01,  1.01810813e+00,
     7.55604327e-01,  6.20181859e-01,  1.85947314e-01, -1.23064563e-01, -1.69380054e-01,  1.02256604e-01, -4.96001720e-01,  4.55826372e-01,
     5.69711864e-01, -1.40480414e-01,  6.45702779e-01,  6.33624643e-02, -1.29904222e+00,  6.95692539e-01,  6.27571404e-01, -4.11268055e-01},
   {-1.04021084e+00,  1.16264367e+00,  5.20493686e-01,  7.11769462e-01, -1.12727899e-02, -1.02989227e-01,  8.04735065e-01,  5.03318369e-01,
    -5.58417737e-01,  2.37194508e-01,  3.92419547e-01,  1.58373785e+00, -8.17928538e-02,  6.67055726e-01, -1.30274069e+00, -7.22354725e-02,
     9.28995907e-01,  1.48964494e-01,  9.17013824e-01,  1.73986340e+00,  1.03048575e+00,  1.59933999e-01,  6.59280300e-01,  4.95003998e-01,
     1.02990270e+00,  1.66795999e-01, -1.99635422e+00,  6.77377105e-01,  2.13716507e-01,  7.14275181e-01, -1.13011733e-01, -5.93463242e-01,
    -3.08362663e-01, -6.62177682e-01, -7.98127055e-01,  1.22451052e-01,  3.86738956e-01,  6.99547708e-01,  8.42892706e-01,  1.92231372e-01,
     4.02546138e-01,  6.48909688e-01, -3.73859823e-01,  8.77152264e-01, -2.74285793e-01,  4.18623477e-01,  4.73900586e-01, -6.98397040e-01,
    -3.01479727e-01,  3.17293853e-01, -3.35670859e-01,  1.21859002e+00, -8.65264058e-01,  3.21848333e-01,  1.09701192e+00,  1.01305556e+00,
    -9.30091739e-01,  6.11062288e-01,  6.48168325e-02,  2.96659488e-02,  5.74280381e-01, -3.39929640e-01,  8.74850810e-01, -3.03929496e+00},
   { 1.60608864e+00, -7.03073740e-01, -2.15032101e+00,  1.32120025e+00, -5.26708782e-01,  8.27354491e-01, -7.02665269e-01, -8.04694593e-01,
     1.31881273e+00,  5.65587878e-02, -4.22274806e-02,  1.86229229e+00, -1.15256488e+00,  1.08522780e-01, -3.86608452e-01, -1.63729465e+00,
    -1.16797674e+00, -4.09220129e-01, -1.99826285e-01, -1.76262879e+00, -2.81809419e-01,  4.42266911e-01, -1.34641838e+00,  4.96190667e-01,
    -2.67698914e-01, -4.11957771e-01,  6.90627456e-01,  8.08466494e-01, -8.78879309e-01,  2.17829257e-01, -9.13091063e-01, -4.37002838e-01,
    -4.07005101e-02, -7.89512217e-01, -9.25373852e-01, -2.84739256e-01,  6.24865554e-02, -1.19603038e-01, -1.12324226e+00,  9.13810253e-01,
    -3.36222917e-01,  4.54942554e-01,  6.80086672e-01,  3.00001264e-01, -3.28073740e-01,  3.57698351e-01,  4.78649914e-01,  7.80921876e-01,
     4.21996683e-01, -6.23125553e-01,  3.51504207e-01, -1.80469781e-01, -3.72983128e-01,  1.95198983e-01,  2.09650800e-01, -1.44046104e+00,
     7.58740306e-01,  6.76707447e-01, -6.36129141e-01, -8.17531765e-01, -1.60929248e-01, -3.35218281e-01,  7.21053123e-01,  6.22671068e-01},
   { 1.69488096e+00,  7.46941328e-01, -1.12294030e+00, -8.20348620e-01,  1.75540671e-01,  4.10675585e-01,  9.64349031e-01, -1.21580386e+00,
     1.05773008e+00,  8.27099621e-01,  1.90620884e-01, -5.60480177e-01, -5.76616943e-01,  7.47677445e-01, -1.28822160e+00,  7.12665200e-01,
    -1.75194407e+00,  4.83538926e-01,  1.13995731e+00, -1.62745595e+00,  1.71482831e-01, -4.51340407e-01,  6.84793055e-01, -5.94520569e-01,
     3.72211158e-01,  3.89441520e-01,  3.16719227e-02, -7.46027231e-01, -4.44914341e-01,  2.63383061e-01, -1.25990629e-01, -1.07737827e+00,
    -1.83305001e+00,  6.41034365e-01, -2.93209106e-01,  8.79705727e-01, -5.58724999e-02,  1.78733885e-01, -5.84553242e-01,  6.51003957e-01,
     9.46300983e-01, -2.54262239e-01,  1.52877420e-02,  9.13458169e-01, -3.43210429e-01,  1.21760535e+00, -4.54535931e-01,  7.63397336e-01,
     2.65404969e-01, -4.04945940e-01,  8.62379909e-01,  6.68190539e-01, -7.32854903e-01,  2.12922916e-01, -7.23084688e-01,  4.08432931e-01,
     6.86476111e-01,  1.20621431e+00,  5.08969307e-01,  8.28623712e-01, -8.99888098e-01, -6.71236634e-01,  1.04183960e+00, -9.34565187e-01},
   { 1.12254834e+00, -2.68804282e-01,  7.97996283e-01, -1.43300109e-02,  1.89692169e-01, -2.51801074e-01, -3.58404666e-02,  1.34983927e-01,
     2.10578486e-01, -1.36191154e+00, -4.27528657e-02, -5.45793831e-01,  2.15122044e-01,  1.74209714e+00, -3.93430471e-01, -4.11864758e-01,
     4.12530094e-01,  1.11007214e+00,  5.42342067e-01, -5.77050507e-01,  1.87201202e-01,  3.87024254e-01,  9.05241251e-01, -3.72575253e-01,
    -6.37140572e-01, -6.40222207e-02,  3.60590100e-01, -2.39286125e-01, -5.42337656e-01,  5.81899703e-01, -7.04624504e-02, -1.48973793e-01,
    -6.83227241e-01, -8.19138050e-01, -6.06122017e-01,  8.03257108e-01, -3.38268459e-01, -2.80303299e-01,  2.40807936e-01, -6.49254918e-01,
     2.60402530e-01, -6.94853008e-01,  2.07305010e-02,  7.90948048e-02,  1.27003181e+00, -4.54413965e-02, -4.73565727e-01,  1.14640880e+00,
     3.50824207e-01, -8.07111859e-02,  1.87592417e-01,  2.47524932e-01,  2.04491600e-01,  1.12647973e-01, -2.63941407e-01,  6.22174323e-01,
     2.15904504e-01,  2.02888131e-01, -1.36053756e-01, -4.52676386e-01, -5.17979041e-02, -6.95579723e-02,  8.47903565e-02,  5.74298084e-01},
   {-6.88162565e-01,  5.59945107e-01, -2.03581244e-01,  2.64338523e-01, -6.26439273e-01,  1.64512551e+00, -3.83165568e-01,  5.00316739e-01,
    -2.33055472e-01,  3.32443237e-01,  1.09516177e-02,  2.51069188e+00,  3.03165644e-01,  1.47189811e-01, -5.26064754e-01,  1.81371495e-01,
    -5.44313602e-02, -3.24148327e-01, -3.96176487e-01, -9.57040191e-01,  2.12459657e-02, -6.61592305e-01,  1.49082232e+00,  1.15241396e+00,
    -1.21634793e+00, -1.33520424e+00,  5.48462212e-01,  1.10027277e+00,  1.69252563e+00,  1.03300643e+00, -1.16457713e+00, -2.63571322e-01,
     8.20762336e-01, -1.68927580e-01,  9.27387416e-01, -1.25292993e+00, -1.64999104e+00, -6.08201288e-02,  1.17032003e+00, -3.77586842e-01,
     1.25148773e+00,  2.43184552e-01,  5.86832404e-01,  4.00624603e-01,  6.78545654e-01,  3.39522995e-02, -1.34776282e+00, -7.52908111e-01,
    -7.33059719e-02,  4.25015539e-01, -3.72611225e-01, -1.26204550e+00, -5.80067217e-01,  7.01342404e-01,  6.55423224e-01,  2.71993846e-01,
     1.10278392e+00,  2.52965569e-01,  5.54599702e-01,  6.31908894e-01, -2.00972050e-01, -2.29623914e-01,  1.19081080e+00,  8.84722769e-01},
   { 6.09258771e-01, -9.19767916e-01, -9.31154430e-01,  8.87342542e-02, -8.00506398e-02,  3.67701083e-01, -1.10707983e-01, -1.22964509e-01,
    -1.16329297e-01, -5.08285522e-01,  7.57277980e-02, -1.18267846e+00, -6.53097153e-01,  5.83436526e-02,  5.90463340e-01,  9.93293643e-01,
     4.32909638e-01, -5.32926619e-01, -4.12128627e-01, -1.53437352e+00, -6.83132112e-01, -4.77234155e-01,  1.13284385e+00,  1.17063098e-01,
     6.13668323e-01,  2.94174492e-01, -6.06872082e-01, -3.15369248e-01, -6.10526264e-01, -1.17297649e+00,  1.49000034e-01, -7.45012939e-01,
    -2.09190980e-01, -2.09102249e+00, -1.23138979e-01,  6.08025908e-01, -3.94612670e-01,  4.63065766e-02, -7.22368062e-02,  1.51408410e+00,
    -2.99911708e-01, -5.68222106e-01, -1.21557340e-01, -4.53629822e-01,  7.31597066e-01, -1.92599386e-01,  3.88365030e-01,  1.38417423e-01,
    -4.08270866e-01, -4.55253184e-01,  9.78616774e-01, -1.33902863e-01,  2.03916535e-01,  5.34248352e-01, -7.18755603e-01, -6.15955234e-01,
     1.82456717e-01, -1.09907794e+00, -3.77625853e-01, -2.95765966e-01,  4.42342972e-03,  1.14740387e-01,  6.27838731e-01,  4.29546148e-01},
   { 1.58271492e-01, -1.48980737e-01,  3.47161293e-01, -6.46364152e-01,  7.58161843e-02,  8.01974654e-01,  6.99550569e-01, -4.42981184e-01,
     9.88924086e-01, -5.85780084e-01, -9.86198902e-01, -7.93906033e-01, -3.80483419e-01,  5.05680799e-01,  6.40529692e-01, -1.07626140e-01,
     5.59305131e-01,  3.74393649e-02, -8.83608758e-01,  2.68439740e-01, -1.46736634e+00,  5.62286854e-01,  5.09078860e-01,  6.92050517e-01,
     9.83139396e-01,  4.72531199e-01, -6.41928986e-02, -5.23773670e-01, -3.14103067e-01, -4.10570323e-01, -1.21709779e-01, -2.30642483e-01,
     1.08778048e+00,  8.64133596e-01, -4.79234099e-01,  5.05916961e-03, -1.41873404e-01,  9.38593447e-02, -4.57728565e-01, -5.56534946e-01,
    -1.63938120e-01, -4.26129073e-01,  2.73742914e-01,  8.97990167e-01,  3.02275419e-01, -7.90294632e-02,  8.45533162e-02,  1.06095695e+00,
     6.36998832e-01, -5.97399175e-01, -7.13457823e-01, -1.89077303e-01, -4.68175173e-01, -2.52891183e-01, -1.44816542e+00, -6.12664342e-01,
    -1.39281797e+00,  8.23858857e-01, -6.66487932e-01,  4.20654565e-01,  1.60454154e-01, -1.48570669e+00, -8.32713783e-01,  2.74471313e-01},
   {-6.68190956e-01, -8.68301839e-02,  1.45576507e-01,  1.93032119e-02, -3.05395782e-01, -2.34424606e-01, -1.46481085e+00,  2.81394981e-02,
     7.99694002e-01,  5.93403101e-01,  1.95960391e+00,  9.84364748e-01,  5.04571795e-01,  9.29962456e-01, -3.37823838e-01,  2.80922443e-01,
     1.73583537e-01,  7.14415848e-01, -5.38276970e-01, -5.96893840e-02,  1.50500789e-01, -9.10250843e-01,  2.38072827e-01,  2.90360749e-02,
     8.56974602e-01,  7.00194001e-01,  9.72864509e-01, -1.53718712e-02, -2.89177716e-01,  3.00176710e-01, -8.06962669e-01,  5.58770001e-01,
    -2.96669722e-01,  4.98105884e-01, -6.55338585e-01,  2.40043774e-02, -1.20974469e+00,  1.57179490e-01, -7.41821826e-01,  3.94699752e-01,
    -1.09756613e+00,  3.85748520e-02,  1.76641956e-01,  1.11457668e-01,  1.13903379e+00, -1.20546937e+00, -8.83872434e-02,  2.39405796e-01,
     1.20625407e-01, -1.37319386e+00, -1.49827793e-01, -3.52011710e-01,  8.39029491e-01, -7.11237431e-01, -2.77332872e-01, -1.96664527e-01,
     3.05381835e-01, -3.50406438e-01, -1.05806160e+00,  1.20376801e+00,  5.36369562e-01,  1.96881339e-01,  3.29941928e-01,  6.04249001e-01},
   { 8.71059060e-01,  2.55516827e-01,  7.62327760e-02, -5.95827401e-03,  6.62040889e-01,  3.89150113e-01,  3.68695289e-01,  2.74909288e-01,
     3.28506380e-01, -3.62810373e-01,  5.13756096e-01, -6.18663058e-02, -6.19952202e-01,  6.86853409e-01,  1.54541284e-01, -4.11405712e-01,
     7.58641958e-03,  7.99386621e-01,  2.18914494e-01, -5.83771229e-01, -1.59075540e-02, -2.17588291e-01, -2.12217569e-01, -2.14417294e-01,
    -5.93516886e-01,  2.56421138e-02,  5.04043221e-01, -2.51852781e-01, -2.10316539e-01,  5.45267425e-02,  2.32300118e-01, -8.52950573e-01,
     2.53364891e-01, -6.57866836e-01, -1.06687821e-01, -4.38646734e-01, -6.72214210e-01,  2.48538733e-01, -5.73597610e-01, -6.08660817e-01,
    -8.10886443e-01, -2.65577883e-01, -2.56620254e-02,  1.18330590e-01,  6.06871903e-01,  1.83700725e-01, -1.14357197e+00, -9.82101917e-01,
     2.43445709e-01, -2.34205529e-01,  1.03203905e+00, -4.74395841e-01, -8.84896338e-01, -7.52330899e-01,  5.46291649e-01, -3.88336211e-01,
     1.07606519e-02, -4.71953452e-02,  6.55614674e-01, -2.57635236e-01, -5.54171622e-01, -6.85514688e-01, -2.25901932e-01, -4.12828714e-01},
   {-3.61229777e-01, -1.56403780e-01,  4.83384937e-01, -7.16511428e-01, -3.04458976e-01,  1.52666450e+00,  1.41586268e+00, -3.30681950e-01,
    -9.46297050e-01, -2.42797422e+00,  1.97571442e-01, -6.52321696e-01,  1.01731174e-01, -2.65726954e-01,  8.70509863e-01,  3.14590573e-01,
     2.42288530e-01, -2.20486000e-01, -3.80406052e-01,  1.08037388e+00, -7.90793896e-01, -3.29474241e-01, -3.89204174e-01, -1.86010718e+00,
    -6.15692675e-01, -1.18262367e-02,  1.76101133e-01,  6.34953260e-01,  4.96832192e-01, -2.08357990e-01, -1.07018554e+00,  1.05337703e+00,
     9.41063583e-01, -3.78758669e-01,  6.67498112e-01, -9.23443437e-01,  5.80588579e-02,  1.92904472e-01,  8.43743622e-01, -1.85219660e-01,
    -1.50384232e-01, -1.54599279e-01,  5.34450293e-01, -5.25280118e-01,  3.29061329e-01, -4.26117867e-01, -1.23316658e+00,  5.50236404e-01,
    -8.99356976e-02,  1.64692313e-03,  1.38863897e+00,  1.27982110e-01, -8.54227901e-01,  1.36048734e-01,  6.13886654e-01, -4.70500141e-01,
    -7.52440035e-01, -1.41825438e-01,  1.00815594e+00, -9.45212916e-02,  4.82257843e-01, -3.76861364e-01, -8.11625645e-02, -7.72603929e-01},
   {-4.97288644e-01,  3.13489102e-02, -4.03985232e-01, -8.91136765e-01,  1.17338037e+00, -6.28307402e-01,  1.45305246e-01,  3.14320594e-01,
    -8.00561488e-01, -2.70045608e-01,  4.23930496e-01,  2.00112104e-01,  6.28347337e-01, -4.92728919e-01,  7.81656206e-01, -4.15415168e-01,
     3.37791294e-01,  4.76054192e-01,  3.66328448e-01, -8.90513182e-01, -1.94375604e-01, -8.23348016e-02,  8.85780036e-01,  6.24961674e-01,
    -1.08904183e+00, -3.25967491e-01,  8.41919899e-01, -1.16193041e-01, -6.78367555e-01, -7.29027092e-01, -4.25797820e-01,  8.00038159e-01,
     1.02748609e+00, -1.11122692e+00, -5.54821730e-01,  8.30514550e-01,  1.45086795e-01, -1.48282456e+00, -1.43217218e+00, -3.51028025e-01,
    -1.07994008e+00, -1.28942162e-01, -2.81609178e-01, -1.12951803e+00,  5.45531511e-01, -7.05101550e-01,  2.37923101e-01, -6.60019100e-01,
     8.75235915e-01, -2.49175012e-01,  4.97421503e-01,  2.50914752e-01,  7.42417037e-01,  5.22691369e-01,  1.32419914e-02,  9.47145283e-01,
    -1.07977021e+00, -6.26894176e-01, -7.19375491e-01,  5.58302030e-02,  4.46028970e-02, -1.69184041e+00,  3.26896638e-01,  4.17590529e-01},
   { 1.13491380e+00,  6.38346434e-01, -3.40523750e-01, -1.08183610e+00,  1.51215899e+00, -4.45495725e-01,  1.47645995e-01,  7.13958070e-02,
     1.13324201e+00, -1.83988929e-01, -1.13026071e+00, -6.93968773e-01, -3.10605258e-01, -2.94760376e-01, -2.42784873e-01, -4.45050746e-01,
     1.88844606e-01,  6.46550715e-01, -9.49221253e-02,  7.31423438e-01, -5.82832932e-01, -6.09254897e-01,  9.95481610e-01,  3.51834267e-01,
     9.99921441e-01, -1.82182264e+00, -9.73682821e-01, -8.92799318e-01,  3.94903272e-01, -2.87818253e-01,  2.87935793e-01,  4.87039685e-02,
    -1.12860823e+00,  1.09119169e-01, -2.41634890e-01, -3.06299984e-01,  9.17094529e-01,  1.01466328e-01, -2.28229091e-02, -3.66091400e-01,
     3.89952213e-01, -5.77787161e-01, -7.70993292e-01,  4.18055624e-01,  3.09774011e-01,  1.63522571e-01,  4.67094749e-01, -6.41162813e-01,
    -1.31963027e+00,  2.71006376e-01,  7.32006490e-01,  1.08400369e+00, -2.19812557e-01, -6.34427130e-01, -1.27302432e+00,  4.68337029e-01,
    -6.70275837e-02,  7.78744638e-01, -1.56292164e+00,  8.46917927e-02,  1.31145072e+00,  5.34700751e-01, -1.40689480e+00,  5.59798837e-01},
   { 4.03723717e-01, -6.41132817e-02, -1.05060709e+00, -9.85636532e-01,  5.10894179e-01, -1.13418138e+00, -7.62966722e-02,  3.23305666e-01,
     9.02247190e-01,  1.41428113e+00,  1.11415315e+00, -1.62059367e-01,  3.18486482e-01, -6.17772281e-01,  1.20141661e+00, -3.81934553e-01,
    -9.19497386e-02,  9.63869810e-01, -5.74270189e-01, -7.28684604e-01,  3.60459596e-01,  4.83482450e-01, -1.18704307e+00, -1.57822862e-01,
    -3.92319977e-01,  8.83575618e-01, -2.41643476e+00,  1.18941212e+00, -4.55985963e-01,  1.84109006e-02,  8.56501162e-01, -2.76580423e-01,
    -3.92064959e-01, -8.09161365e-01, -1.91384590e+00, -1.01862609e+00, -1.08728833e-01, -3.78544070e-02,  6.12671375e-01,  8.09321404e-01,
     9.24775302e-02, -9.94097054e-01,  1.01289973e-01, -4.88548726e-01, -9.38353896e-01,  2.26096049e-01,  1.16425395e+00,  8.44012856e-01,
    -1.04950094e+00,  3.42767507e-01,  1.65940547e+00, -6.35831058e-01, -2.47019753e-01, -2.58489966e-01, -4.73637581e-01,  1.79229960e-01,
    -7.82382607e-01,  1.73722595e-01,  6.50530457e-01, -1.91385761e-01, -4.36682194e-01,  5.32183707e-01, -7.41095245e-01, -7.02107728e-01},
   { 4.28244323e-02,  5.11448801e-01, -4.69251573e-01,  1.50429189e+00,  4.26354021e-01, -2.71417528e-01, -2.66998466e-02,  2.53938049e-01,
     3.94885778e-01,  4.62201506e-01,  1.58024943e+00,  2.29631782e-01,  1.03264824e-01,  1.15476429e-01, -8.68147433e-01, -1.63158923e-01,
    -1.45983607e-01, -4.73104537e-01, -3.78565371e-01,  1.52024850e-01, -3.45836133e-01,  9.22196209e-01,  8.96626949e-01,  9.51138794e-01,
    -6.51284099e-01,  9.09181118e-01, -5.32874584e-01, -1.50956845e+00,  4.95702028e-02,  5.35502791e-01,  4.81295139e-01, -6.27308190e-02,
     9.24392715e-02, -5.32242179e-01, -1.77233064e+00,  1.01357937e+00, -1.67055488e+00, -1.52854715e-02, -5.82360923e-01,  1.00563049e+00,
    -2.92228490e-01,  2.36825466e-01,  1.12949908e+00,  1.41068518e-01,  7.89308906e-01,  5.60595274e-01, -6.93330824e-01,  1.56869784e-01,
     9.05541778e-01, -5.72479606e-01,  1.72708869e+00,  4.29077446e-01,  8.47112954e-01, -6.61731958e-01,  1.32398292e-01, -1.25635052e+00,
     9.93879795e-01,  3.58678520e-01,  9.04350430e-02, -1.05291188e+00, -1.15725434e+00,  6.75276875e-01, -7.48790860e-01,  1.05205154e+00},
   {-1.55433873e-02, -7.50984490e-01,  9.21188474e-01,  8.71746242e-01,  7.10185468e-01,  9.74244714e-01, -2.62872040e-01,  2.09389865e-01,
    -4.71521139e-01, -7.24029601e-01, -4.89238232e-01,  1.23521779e-02,  3.60881478e-01,  4.74052072e-01, -1.02314615e+00, -3.71216565e-01,
     1.32880732e-01, -3.45641404e-01,  1.84036463e-01,  8.01531672e-01, -1.27469912e-01, -5.56106329e-01,  7.45561719e-01,  6.77775562e-01,
     1.01775908e+00, -1.53570786e-01,  7.34227657e-01, -7.26183712e-01, -8.21782649e-01,  9.49186981e-02,  1.46186781e+00, -5.03107727e-01,
     1.98724642e-01, -2.72902578e-01,  3.77601475e-01,  6.97392941e-01,  9.39900875e-02,  5.41748464e-01, -8.25596035e-01, -3.22245896e-01,
     1.05806208e+00, -2.21365511e-01, -2.13955015e-01, -1.94452763e-01,  5.66792727e-01, -6.94139451e-02, -5.49601197e-01, -5.18039949e-02,
    -8.99372518e-01, -2.88550109e-01,  8.45255494e-01,  8.42428863e-01,  5.59815228e-01,  9.08369292e-03,  1.35200274e+00,  1.36546290e+00,
     5.07113189e-02, -4.37051177e-01, -4.22797054e-02, -1.55407107e+00,  3.97082269e-01,  5.64561725e-01,  5.26690483e-01,  4.72562999e-01},
   { 3.58268499e-01,  1.32606044e-01,  9.73219424e-02, -2.75391251e-01,  2.36415938e-01, -6.25918448e-01, -1.08676696e+00, -6.22085631e-01,
     8.19978833e-01, -5.54846406e-01,  3.61080855e-01, -6.17695451e-01, -1.43139768e+00,  6.79644346e-01, -3.57900053e-01, -3.43497276e-01,
    -1.88144767e+00,  1.59650087e-01, -8.42706740e-01, -7.95066208e-02,  2.04002131e-02, -1.45132490e-03, -4.37022775e-01, -2.70725846e-01,
    -1.04719734e+00,  1.52165234e+00, -1.67052746e-01,  6.97951555e-01,  4.24133360e-01, -1.30876791e+00,  2.97584772e-01,  1.81922007e+00,
    -4.37618315e-01, -1.49603352e-01, -8.22730243e-01, -2.36867025e-01, -3.33966553e-01,  2.37982497e-01, -6.26298487e-01,  7.30110288e-01,
     3.38128179e-01,  1.56485721e-01,  5.84070504e-01,  6.35985613e-01, -5.06648839e-01, -9.77953553e-01,  2.75172383e-01,  5.35223067e-01,
     2.56263912e-01, -6.27207577e-01,  2.86942512e-01,  1.91303656e-01,  9.63100672e-01, -4.87594128e-01,  8.31923485e-01, -7.34861493e-01,
     8.56955275e-02,  3.16783726e-01, -3.97137523e-01, -1.20658267e+00, -8.38151798e-02,  4.00162995e-01,  6.23458147e-01,  8.99487317e-01},
   {-1.11148298e+00, -9.51191008e-01,  3.41747493e-01,  4.52813894e-01,  3.57720703e-01, -1.00141168e+00,  3.91152173e-01, -2.27343738e-01,
     9.20357823e-01, -6.52305007e-01, -3.88356954e-01, -6.78234816e-01,  9.09118950e-02,  8.32915425e-01, -3.23826998e-01,  4.01764780e-01,
     2.14127153e-01,  9.04495776e-01, -8.64975333e-01,  4.16111499e-01, -6.10970855e-01, -1.48092914e+00,  3.31791192e-01, -1.61647332e+00,
     2.01622322e-01, -1.45184314e+00,  1.60164863e-01, -1.74333915e-01, -5.90787530e-01, -5.04019670e-02, -9.82984245e-01, -2.26161852e-01,
    -8.51173759e-01, -1.84185493e+00, -6.36594236e-01,  1.10067844e+00,  4.81672049e-01, -4.60857570e-01, -8.62567246e-01,  1.51941895e+00,
     1.64145112e-01, -6.76558197e-01,  9.14903343e-01,  2.21950382e-01, -1.15858972e+00,  4.30210620e-01, -2.23576143e-01,  6.94538474e-01,
     3.55264284e-02,  1.30038333e+00,  2.01831579e+00,  1.04114823e-01,  3.07684213e-01, -1.70622766e-01,  1.10919237e-01, -9.16311443e-01,
    -1.32062709e+00, -3.97207290e-02,  6.11509383e-02, -4.41747457e-01,  4.07690555e-01, -8.81163925e-02,  5.92183650e-01, -9.71531630e-01},
   {-9.16873634e-01,  2.53684521e-01,  5.19109964e-01,  4.01234552e-02, -6.59149408e-01,  7.98316240e-01,  7.07000375e-01,  4.33158219e-01,
    -8.89656484e-01, -1.00513470e+00, -1.04133046e+00,  1.10584117e-01, -8.20481360e-01,  1.55226216e-01, -8.19833875e-01,  4.83112037e-01,
     6.39993548e-01, -2.32036710e+00,  4.14803326e-01,  9.29989159e-01,  4.00980055e-01, -9.06045616e-01, -1.77907974e-01, -2.97265410e-01,
    -3.93140495e-01, -7.16001332e-01,  9.70860302e-01, -1.18622527e-01,  9.07430351e-01, -2.66363114e-01, -2.57777810e+00, -1.76336265e+00,
    -2.28284106e-01, -8.14052582e-01,  7.65247941e-01, -1.20398569e+00, -1.10002434e+00,  1.55815077e+00,  1.35495901e+00, -3.81119728e-01,
     1.29727376e+00,  8.89903307e-01,  3.47056091e-01,  4.85038221e-01, -5.91619723e-02, -7.60406256e-01, -4.78099063e-02, -7.05652177e-01,
    -1.14901341e-01,  1.44146860e-01, -2.79829115e-01, -8.00082862e-01, -6.76198630e-03,  3.11130881e-01,  2.74084598e-01,  9.96831119e-01,
    -9.71004307e-01,  9.00155008e-02, -3.86249155e-01, -9.71190706e-02, -7.85069764e-01, -1.51873007e-01, -1.04081416e+00,  1.34874225e+00},
   {-4.54956353e-01,  6.68826461e-01,  1.24528432e+00, -1.30836761e+00, -4.04055089e-01,  9.72463310e-01, -4.38366175e-01, -2.27747583e+00,
    -1.45836174e+00, -5.29007375e-01, -6.05647683e-01, -9.91953373e-01,  1.01495430e-01, -3.43790621e-01,  7.78183579e-01,  5.53947389e-01,
     3.51382673e-01, -6.82279095e-02, -1.47333252e+00,  1.82649636e+00, -1.46741256e-01,  8.57055306e-01,  2.90527195e-01, -1.42806339e+00,
    -8.54451239e-01, -2.88727045e-01,  9.52651024e-01, -1.78131253e-01, -1.03985608e+00, -3.16779673e-01,  2.77634468e-02,  7.81760216e-01,
    -2.22071290e+00,  9.26856935e-01, -8.98860991e-01, -1.22015023e+00, -6.59214199e-01,  6.43684685e-01,  6.74350083e-01,  1.48335361e+00,
     5.02311885e-02, -1.22810829e+00, -1.12927043e+00, -5.41711688e-01,  2.25748599e-01, -1.56851554e+00,  1.79829329e-01,  7.08145946e-02,
     2.38721848e-01,  3.68244559e-01,  3.44537705e-01, -6.92687705e-02, -6.65073812e-01, -1.75120759e+00, -1.29872859e+00, -4.10283089e-01,
     5.01755536e-01, -1.21936691e+00, -1.16665721e+00,  7.03726634e-02, -3.66263501e-02,  7.82667816e-01, -4.56106097e-01,  4.24873978e-01},
   { 6.50822043e-01,  4.21059430e-01, -3.50677818e-01, -2.27442527e+00, -4.41658705e-01,  7.84637928e-01, -2.22876504e-01,  1.02600551e+00,
     1.60894513e+00,  4.75121200e-01, -6.04119897e-01, -1.23870051e+00, -6.82860315e-02, -1.92687094e-01,  6.22948445e-03, -6.35095716e-01,
     7.93997288e-01,  5.09978473e-01, -2.24081263e-01,  3.32810014e-01,  2.60174245e-01,  4.01306599e-02,  1.09325603e-01, -5.77989519e-01,
     1.26426160e+00,  3.26363593e-01,  2.40924652e-04, -7.90976644e-01, -4.51793849e-01, -3.59963715e-01,  1.51865458e+00,  5.51593006e-02,
     3.46860872e-03, -4.32790220e-01,  1.09502923e+00,  8.79229426e-01, -2.79786021e-01,  7.09627151e-01,  2.03086868e-01,  4.35177594e-01,
     3.17917079e-01, -1.56901598e-01,  3.10978722e-02,  1.77498922e-01,  9.80442524e-01, -2.22127423e-01, -1.58506238e+00, -3.60761613e-01,
    -6.62525415e-01,  2.07372010e-01,  1.80009723e-01,  1.96809486e-01,  8.98049057e-01,  5.22756837e-02, -1.41836131e+00, -2.26106361e-01,
     3.47155780e-01,  1.77614480e-01, -4.47502345e-01,  1.10129452e+00, -4.04931903e-01, -1.28458154e+00,  8.27095062e-02, -8.00813660e-02},
   {-2.34068602e-01,  3.21168572e-01, -3.08208764e-01, -6.48441672e-01, -9.47779000e-01,  7.56319761e-01,  6.73527598e-01,  4.16711390e-01,
     1.24882221e+00, -5.37603319e-01,  4.93081659e-03,  2.48594427e+00, -6.22862101e-01,  8.27609897e-01,  2.43013576e-02,  7.82477677e-01,
    -1.56782791e-01, -2.00623292e-02, -4.99227732e-01,  8.22719455e-01,  3.28394413e-01,  7.39197373e-01,  3.45521688e-01, -9.83523190e-01,
    -6.59717858e-01, -2.57984996e-01,  1.45722139e+00,  1.77047336e+00, -7.08647147e-02,  2.87582308e-01,  1.38606469e-04, -8.39579999e-01,
     8.93184170e-02, -2.71168768e-01, -8.22484255e-01,  1.17381322e+00, -5.23266017e-01, -2.16870293e-01,  2.53973067e-01,  5.37670016e-01,
    -7.79198706e-02,  6.75080180e-01,  6.14766479e-01, -3.34350079e-01, -2.04837465e+00, -7.90979862e-02, -4.11030557e-03,  5.00874162e-01,
     1.78722546e-01,  8.87468576e-01,  1.14356947e+00, -3.51871520e-01, -1.32978380e-01, -7.85078824e-01,  1.59148708e-01, -1.55758178e+00,
    -5.35867177e-02,  4.10187632e-01, -7.83705950e-01,  6.36320770e-01, -6.00654185e-01, -1.47073257e+00,  1.46993389e-02, -1.89825490e-01},
   {-9.88092065e-01, -1.66162938e-01,  9.77630675e-01,  1.47288990e+00, -2.25286737e-01,  8.22367787e-01,  4.87383604e-01,  5.11716723e-01,
    -2.05252957e+00, -1.68729037e-01,  1.61512733e+00,  1.30636895e+00,  7.01168597e-01,  7.20512152e-01,  1.50942564e+00, -5.27965367e-01,
     1.48808348e+00,  2.04240108e+00,  2.31501967e-01,  2.02359462e+00, -1.98273256e-01,  9.37586725e-01,  2.83282685e+00, -7.46521652e-01,
    -9.28699613e-01, -1.55645120e+00,  2.35948399e-01,  1.73742443e-01, -3.51076484e-01,  1.34484982e+00,  1.35070503e-01, -9.26399827e-01,
    -1.03204036e+00,  2.21058413e-01,  3.11067462e-01, -6.51983500e-01, -6.36871636e-01, -6.27222955e-01, -1.46967244e+00, -1.42288148e+00,
    -5.13164520e-01,  8.20248663e-01,  4.34813946e-01, -1.48706004e-01,  5.36466718e-01,  1.43228933e-01,  9.13696408e-01, -9.06649292e-01,
     3.10755521e-01,  5.01545608e-01,  5.87879121e-01, -6.38089895e-01, -4.84099001e-01,  1.87910485e+00, -1.39182210e-01,  6.84284985e-01,
    -5.30573249e-01,  3.70627344e-01,  8.19815397e-01, -2.13514324e-02, -5.28966010e-01,  6.19405210e-01,  1.23933151e-01, -8.34484398e-01},
   {-6.13047183e-01, -1.00513506e+00,  4.65951174e-01,  4.79969412e-01, -2.33931452e-01, -2.98481852e-01,  1.15273142e+00, -1.16655207e+00,
     2.34137297e-01, -1.42259419e+00, -2.09724680e-01,  4.98026073e-01, -1.29766154e+00, -3.67040604e-01, -2.52635479e-01, -3.43554229e-01,
    -1.53237271e+00,  2.38590352e-02, -1.26930487e+00, -1.02743912e+00,  5.03899872e-01,  1.04151741e-02, -2.70595789e-01,  5.74555397e-01,
    -1.09343970e+00, -1.56495893e+00, -1.28922963e+00,  2.74899483e-01,  5.73919453e-02, -9.74422336e-01, -1.73184976e-01, -1.02147423e-01,
     1.21849000e+00, -3.49026203e-01, -1.44153094e+00, -1.46698803e-01, -1.44451475e+00, -1.70683041e-01, -8.77114475e-01, -5.65554976e-01,
     3.29140067e-01, -1.44867912e-01, -2.67133918e-02, -3.59664142e-01, -4.17065531e-01,  7.74016023e-01, -1.75625563e-01,  8.61999989e-01,
    -6.61279857e-01, -8.58165026e-02,  4.56800342e-01, -2.02191472e+00, -1.98809192e-01, -1.09958684e+00, -1.65627778e-01, -1.11902380e+00,
     2.03744233e-01, -1.32268512e+00, -1.82678148e-01, -6.94990933e-01,  3.13688606e-01, -4.32048619e-01,  5.37448108e-01,  3.69163662e-01},
   { 8.56572270e-01,  1.81489915e-01, -5.12277901e-01,  4.80939955e-01,  4.50675726e-01,  1.76748443e+00, -8.95355403e-01, -9.52909768e-01,
     5.57099760e-01, -2.75538623e-01,  1.69542730e-01, -8.68006647e-02, -2.25185609e+00,  2.13902712e-01, -1.98001647e+00,  2.28037223e-01,
    -4.57334727e-01, -3.48419249e-01,  6.24565542e-01,  2.70228624e-01, -8.01016212e-01, -6.71744823e-01,  5.39467812e-01,  1.44840956e-01,
     1.79339007e-01,  6.74863517e-01,  2.54090130e-01,  5.39973229e-02, -1.41660404e+00, -1.18901432e-01,  2.70785913e-02,  6.57416344e-01,
    -1.29342765e-01, -4.14436996e-01, -1.27682490e-02,  3.58483225e-01, -3.28128844e-01,  1.40346019e-02, -3.10265303e-01,  7.35047102e-01,
     8.07301342e-01,  3.50179434e-01,  9.20553040e-03,  4.33513254e-01,  1.04952753e+00, -7.24585056e-01, -2.81852782e-01, -3.07066560e-01,
    -2.70147733e-02,  8.48415077e-01, -8.43387365e-01, -7.32504785e-01, -9.31496501e-01, -5.49818695e-01, -5.52572012e-01, -4.45521176e-02,
     1.13016009e-01, -1.26221681e+00, -6.17295265e-01, -6.25921547e-01, -1.10656202e+00,  6.61251187e-01,  1.01953256e+00,  2.63382524e-01},
   {-9.69302237e-01,  6.29514635e-01, -7.99927115e-01,  1.32829756e-01,  5.03769815e-01, -1.25457656e+00,  8.42568517e-01, -1.37003604e-02,
    -7.91504383e-01,  6.00016236e-01,  4.01480675e-01,  1.75928998e+00, -3.30429971e-01,  1.17465174e+00,  2.86060214e-01,  5.07702887e-01,
    -5.44395223e-02, -1.12810977e-01,  2.43890304e-02,  1.16402566e+00,  1.99109629e-01, -4.59610075e-01, -6.66959107e-01,  8.19258749e-01,
    -7.74064183e-01, -2.18257412e-01, -9.20362890e-01,  1.10706401e+00,  7.79109657e-01, -4.42565441e-01, -4.30688500e-01, -1.72228742e+00,
     1.70645952e+00, -2.01876536e-01, -6.25328898e-01,  2.45936781e-01,  6.58240795e-01, -1.07068324e+00, -1.00546479e+00, -4.72893894e-01,
     5.09504676e-01, -4.24676657e-01,  1.75885797e-01, -3.23950380e-01, -1.31435588e-01,  7.22368956e-01, -2.48272061e-01,  1.54832411e+00,
    -5.55554986e-01,  4.42847818e-01, -1.73600763e-01,  1.37232319e-01,  3.87616962e-01, -2.48825978e-02,  1.48862529e+00,  2.19958082e-01,
    -8.99941660e-03,  3.24041784e-01, -5.21814406e-01, -3.58222902e-01,  9.90426719e-01,  1.93246320e-01, -1.89534456e-01,  3.75256181e-01},
   { 6.62014544e-01, -2.96415389e-01, -3.58866960e-01, -6.96069002e-02, -7.68911898e-01, -3.74122292e-01,  5.21802425e-01, -1.45802051e-01,
     3.22328180e-01,  4.11021709e-01,  7.70164505e-02, -1.09534347e+00,  1.58488855e-01,  2.82205135e-01, -5.58527708e-01,  4.90054004e-02,
    -6.96799681e-02,  1.74505746e+00, -2.94110775e-02,  1.59962792e-02,  7.05669746e-02, -8.75773668e-01,  9.95283127e-01, -1.14301033e-01,
    -4.43240814e-02,  2.02096537e-01, -8.59376013e-01,  2.06288338e-01, -9.02804136e-01,  2.94774443e-01, -1.53746411e-01, -3.68390739e-01,
     8.00154731e-02,  4.16447490e-01, -4.38874692e-01,  3.57349068e-01,  2.11750478e-01,  2.79039651e-01, -4.87135768e-01,  8.01249027e-01,
     4.55542743e-01,  3.61320168e-01,  2.26261243e-02, -5.55899180e-02, -1.44950360e-01,  7.84588754e-01,  5.97444415e-01,  8.86813700e-01,
     5.58985472e-01, -1.45744309e-01, -1.96656495e-01,  3.10546845e-01,  1.63090372e+00, -5.27473450e-01,  1.79551356e-03, -7.05133319e-01,
     3.58129203e-01, -1.98661670e-01, -3.78415853e-01,  8.24167505e-02, -3.24215412e-01,  9.45091963e-01, -7.51436174e-01,  2.43065581e-01},
   { 5.25965512e-01,  3.34261023e-02, -3.67060363e-01,  2.83054799e-01,  2.37986803e-01, -1.92004561e-01, -2.97108620e-01, -3.38651717e-01,
    -3.39584440e-01,  6.17211282e-01, -1.45959914e+00,  4.32623565e-01, -9.12066475e-02,  4.48121279e-01,  5.84510088e-01,  4.83719170e-01,
    -2.27738813e-01, -2.28335094e+00, -6.02619946e-02,  9.70485687e-01,  2.03219205e-01, -4.68974113e-01, -4.06722128e-02,  1.83621198e-02,
     2.34461516e-01, -5.01091421e-01, -8.23880672e-01, -4.74056542e-01,  1.26415157e+00, -1.32053599e-01, -3.56227010e-01, -2.27267727e-01,
    -8.14443976e-02, -3.61173123e-01, -4.99283344e-01, -7.74117768e-01, -9.32975173e-01, -1.80779025e-01,  1.51333772e-03,  3.26784104e-01,
    -1.29309940e+00,  1.51628956e-01,  2.70273924e-01,  3.02721169e-02, -5.41642308e-01,  5.91587842e-01, -1.42673820e-01, -1.85358620e+00,
    -7.55758658e-02, -3.63228112e-01, -5.78602493e-01, -1.00074792e+00,  5.81287205e-01,  7.36361891e-02,  3.33742984e-02,  2.55243510e-01,
    -7.19987154e-01, -5.15981257e-01,  1.12441629e-01, -3.76455456e-01, -7.58807302e-01,  1.75161123e+00,  6.89817593e-02,  9.78073359e-01},
   {-2.41552782e+00,  3.95175576e-01, -5.17661721e-02,  3.55486840e-01,  1.89638793e-01, -1.33199477e+00, -3.29669386e-01,  9.85486269e-01,
    -5.33080161e-01,  1.48052976e-01,  4.98275936e-01,  2.56661981e-01, -2.82421887e-01,  4.56311345e-01, -1.38970351e+00, -1.24976981e+00,
     4.06145304e-01, -1.27660349e-01,  8.74088109e-02, -5.91789126e-01,  5.58468640e-01,  1.84790697e-02, -6.88816190e-01,  5.68628669e-01,
     1.98911667e-01,  1.82451144e-01,  2.44820237e+00,  7.57741451e-01, -3.63929182e-01,  4.33932841e-02, -3.76945026e-02,  3.82574350e-02,
    -9.86246109e-01, -7.32364714e-01,  5.78658521e-01,  8.08670282e-01, -1.94237363e+00,  1.41936705e-01,  2.15781674e-01, -3.36757809e-01,
     1.18511908e-01, -1.01427841e+00, -3.32990617e-01, -3.36085260e-01, -2.23303393e-01, -2.27707997e-01, -9.64312911e-01,  2.38539577e-02,
    -3.58959660e-02, -7.80114532e-01,  6.32278383e-01, -2.93838024e-01,  1.01305939e-01,  3.73064250e-01, -1.27745867e+00,  9.44273114e-01,
     7.98919082e-01,  2.47842774e-01, -1.19537279e-01, -8.85983884e-01, -4.76872295e-01,  1.66858470e+00, -8.50531042e-01,  1.07095432e+00},
   { 9.29796159e-01,  2.40261301e-01,  3.99404675e-01,  1.42583716e+00, -1.86589599e-01,  8.02990437e-01,  3.94596547e-01, -2.16188836e+00,
    -3.95823598e-01, -5.04405141e-01, -1.08508921e+00,  5.85513294e-01,  7.44691730e-01,  9.46175814e-01, -5.67775130e-01,  5.17752469e-02,
    -1.61999628e-01,  9.62139010e-01, -4.92953330e-01,  7.01677263e-01, -5.49207628e-01, -9.68245268e-01,  8.32131326e-01, -1.88799232e-01,
    -1.82061672e+00, -8.81952584e-01, -2.43039161e-01,  1.62262666e+00,  4.24489230e-01,  3.18252780e-02, -2.28188658e+00, -8.12427998e-01,
     2.66321719e-01, -1.58564281e+00,  1.53598666e-01, -2.14195609e-01, -9.76780713e-01,  6.80935606e-02,  2.08824247e-01,  1.93314046e-01,
    -2.99968541e-01, -3.49146053e-02, -1.48221803e+00, -4.60928589e-01, -5.39939344e-01, -7.45091259e-01,  7.97951162e-01,  2.60714144e-01,
     1.62116513e-01,  4.88790087e-02, -8.34748328e-01,  5.01768887e-01, -2.06725836e+00, -4.79389019e-02, -2.71678597e-01, -1.53224096e-01,
    -1.45987225e+00, -6.99751079e-02, -9.78376508e-01,  2.09169924e-01, -1.40893832e-01, -2.13655800e-01, -5.02928495e-01, -1.41861391e+00},
   { 4.77513596e-02,  1.98674917e-01, -1.22974873e+00,  1.77300319e-01, -5.54889560e-01,  5.32930017e-01,  3.51921231e-01, -7.42089391e-01,
     3.39569658e-01,  2.70824116e-02, -8.43681633e-01,  4.20391202e-01, -1.06709027e+00, -8.39153398e-03, -1.15134346e+00, -2.94333011e-01,
    -9.22209863e-03, -1.21876526e+00, -2.92880297e-01,  9.58826244e-01, -9.24379528e-01,  3.40597272e-01, -6.62435532e-01, -7.32100010e-02,
     4.49210495e-01, -5.65562725e-01, -2.62791723e-01,  1.06341727e-01, -6.97112858e-01,  5.74269379e-03,  1.39874625e+00,  1.96633205e-01,
     8.94039094e-01, -6.40806556e-02,  1.74657956e-01, -2.12069821e+00, -1.85987487e-01, -5.53916767e-02,  9.71311152e-01,  4.33481216e-01,
    -8.35577369e-01,  1.05331552e+00,  6.01982832e-01, -7.78678060e-01,  5.48969984e-01,  7.20347524e-01, -4.42581445e-01,  3.45524132e-01,
    -6.17007613e-01, -2.91351587e-01,  1.17284179e+00,  5.23375392e-01, -6.37955725e-01, -1.39645502e-01, -1.39686689e-01, -4.46136147e-01,
     2.52756059e-01, -1.00840402e+00, -1.40522003e+00,  4.41264033e-01, -2.29548350e-01, -1.48729488e-01,  4.86832440e-01,  5.58268785e-01},
   {-6.82693243e-01, -9.00935292e-01,  8.21282923e-01,  6.93044841e-01,  9.35705602e-01,  1.15954912e+00, -5.69265783e-01,  8.02269101e-01,
    -1.71372974e+00,  5.28525859e-02, -2.03561616e+00,  1.33939177e-01, -3.18798959e-01, -4.00582045e-01,  1.02845335e+00, -6.15864575e-01,
    -4.10792708e-01, -6.16687477e-01,  9.40536201e-01,  6.99415028e-01, -8.58626366e-01, -1.19874465e+00, -3.23358655e-01,  2.20392346e-01,
    -1.26557291e+00, -2.76307374e-01,  1.64728165e-01, -4.99783695e-01,  7.90562809e-01,  1.63504794e-01, -1.02636862e+00,  5.88602483e-01,
    -6.78344607e-01,  6.49057925e-01,  1.97338295e+00,  7.03971148e-01, -6.46237373e-01, -1.07908398e-01,  1.20769465e+00, -7.83748329e-01,
     6.83031380e-01,  1.89419731e-01,  2.04150721e-01, -1.03693271e+00, -1.41985476e+00, -9.02711213e-01,  6.94414735e-01,  3.99997592e-01,
     9.29689407e-02, -3.50446582e-01, -1.30834186e+00, -1.12932277e+00, -8.94569337e-01, -1.12664416e-01, -5.97415566e-01,  7.24495649e-01,
    -5.74840426e-01,  2.36838847e-01, -3.35053921e-01,  2.60253191e-01, -3.92143339e-01,  5.87255776e-01, -5.43730855e-01,  6.25811815e-02},
   { 7.28843391e-01,  3.23277146e-01, -2.54905796e+00,  5.78798115e-01, -9.94795144e-01, -7.91998804e-02, -3.58744800e-01, -6.63387001e-01,
     2.55904436e-01, -3.21193129e-01,  6.35441363e-01, -3.10394466e-01, -1.37976682e+00, -1.87504292e-01,  2.58253038e-01,  1.33912075e+00,
     2.77070612e-01, -5.91548920e-01, -5.31683743e-01,  5.66105366e-01,  1.14557080e-01, -2.59312660e-01,  4.40059662e-01,  3.40459377e-01,
     1.92342982e-01,  4.61953521e-01, -5.02010226e-01,  1.24688339e+00,  3.96456033e-01, -1.25342011e-01,  1.82515144e-01, -1.59992766e+00,
     6.53320491e-01,  4.77587909e-01, -8.24132204e-01, -1.63704216e+00,  3.73245507e-01, -3.32304329e-01, -1.12335002e+00, -3.11308950e-01,
    -2.49202594e-01, -1.73532055e-03, -3.75289172e-01,  1.41803741e+00, -1.81148696e+00, -1.33149970e+00,  3.81628245e-01, -8.88647959e-02,
     1.17688291e-01, -2.42069602e-01, -1.34216070e+00,  1.95730478e-02,  1.20602168e-01,  2.21283078e-01,  3.52404490e-02, -4.29841787e-01,
     6.94825709e-01, -1.44347668e+00, -1.05378389e+00, -1.62561643e+00,  1.43720135e-01,  9.45897847e-02,  1.27773225e-01,  1.00895691e+00},
   {-4.72613245e-01,  3.80856544e-01,  8.97156417e-01,  2.62843609e+00, -4.47378874e-01,  1.59627926e+00, -3.60796958e-01, -1.63362777e+00,
    -1.26292574e+00, -9.20095444e-01, -6.43402576e-01,  1.62872529e+00, -5.21686912e-01, -8.27644467e-01, -5.60686924e-02,  1.05917916e-01,
    -2.58153696e-02,  4.22512591e-01, -5.44249117e-01,  1.63177609e+00, -6.91184402e-01, -8.19512486e-01, -1.36966864e-02,  1.08581638e+00,
    -8.50359619e-01,  2.08270252e-01,  1.19065487e+00, -2.54944611e+00,  1.18065447e-01,  5.18055558e-01, -1.78657103e+00, -5.28109297e-02,
    -1.40087247e-01,  1.40979624e+00,  2.58917302e-01,  1.16874826e+00,  2.51439124e-01, -8.23505521e-01, -6.47182703e-01, -1.06853163e+00,
    -5.68764150e-01, -4.40383077e-01, -4.55412924e-01, -1.43010020e+00,  7.38142014e-01,  1.80222690e-01, -1.34690869e+00,  2.27099943e+00,
     9.57965493e-01, -7.57062733e-01,  7.21959770e-02, -8.54360580e-01,  1.16466209e-01,  1.66630173e+00, -4.43894386e-01,  1.18565273e+00,
     2.29378507e-01, -6.22631073e-01,  4.47412193e-01, -2.19180882e-01, -1.17840230e+00, -5.67684948e-01,  4.31161076e-01, -1.64394289e-01},
   { 3.18043351e-01,  2.37156674e-01,  1.71994478e-01, -4.39881980e-01, -6.95198834e-01, -1.13995135e+00, -6.76239252e-01,  5.06474674e-01,
     1.07894793e-01,  2.46680051e-01,  1.81964543e-02,  7.29323685e-01, -1.32639623e+00,  3.85825008e-01, -3.46016824e-01, -5.02365530e-01,
    -1.07165611e+00,  1.37066767e-01, -3.83556813e-01, -9.25250575e-02, -4.45671648e-01,  1.68455660e-01, -1.60928667e-01, -1.32773399e+00,
     1.31623074e-01, -2.53931463e-01, -3.31603549e-02, -1.30240667e+00, -4.09549206e-01,  2.33416155e-01, -1.30200660e+00, -8.06329310e-01,
     4.59133834e-01, -1.59124291e+00, -1.17655921e+00,  2.03402257e+00, -2.74608910e-01,  3.02998811e-01, -4.35330808e-01,  3.48169953e-01,
    -1.32593885e-01,  1.57016292e-01, -7.74742842e-01, -6.15551293e-01,  5.93722045e-01, -3.20492566e-01, -2.32494716e-02, -1.87383235e+00,
     8.54725484e-03,  5.19495726e-01,  3.50479454e-01,  2.48433098e-01, -7.05911577e-01,  2.41677478e-01, -1.60192758e-01,  4.86379176e-01,
     5.05206823e-01, -6.08874857e-01, -2.50060737e-01, -9.54696178e-01,  2.25388003e-03,  2.63170153e-01,  5.26322424e-01, -1.24016595e+00},
   { 1.90985310e+00,  3.27356607e-01,  4.69183177e-02, -1.82245612e-01,  3.92943621e-01,  4.42110986e-01,  2.88911350e-03, -9.79658544e-01,
     7.98266709e-01, -1.68056846e+00,  1.21199392e-01, -1.34133375e+00, -1.64232123e+00,  4.16657686e-01, -5.79286158e-01, -5.87152719e-01,
     4.36336994e-01,  6.10013068e-01, -7.10375607e-01,  5.63461900e-01,  1.29667461e+00, -1.55045629e+00,  7.15022087e-01, -1.49571443e+00,
    -1.64378703e-01,  1.53870451e+00,  4.48738158e-01, -2.54284120e+00, -5.77663422e-01,  1.70953423e-02, -1.47652376e+00, -1.19571185e+00,
    -2.13474199e-01,  7.76936412e-01,  2.34359264e-01,  1.90126717e-01, -3.32709163e-01,  2.21901089e-01, -5.97104311e-01, -4.40104485e-01,
    -3.53967026e-02, -4.53953594e-01, -8.30286145e-01, -3.95076722e-02, -8.62211704e-01,  3.46797496e-01,  3.27559263e-01,  2.16665521e-01,
    -1.59186172e+00, -7.90264904e-02, -7.53174782e-01, -3.70905757e-01, -4.95128810e-01, -2.00406745e-01, -1.27025473e+00, -7.51918614e-01,
    -6.48025095e-01, -1.36319327e+00,  1.75867006e-01,  1.47985816e-01,  3.77228469e-01, -1.15016401e+00, -6.70041800e-01,  2.09971115e-01},
   { 8.81637871e-01, -2.30852097e-01, -1.07815778e+00, -7.28798330e-01,  1.17268467e+00, -4.33812916e-01,  1.28393695e-01,  1.23794816e-01,
     8.21464181e-01,  8.69223058e-01, -5.54395430e-02,  3.55233645e+00,  4.86806557e-02, -4.63827811e-02,  9.20713186e-01, -3.34955305e-01,
    -2.18985662e-01, -8.01481724e-01,  4.79295403e-01,  3.19557905e-01,  6.23207912e-02, -2.66274601e-01,  6.47882640e-01, -3.85144323e-01,
    -1.76289547e-02, -8.45461309e-01, -5.17009497e-01,  1.79191127e-01,  6.35532320e-01, -2.96446949e-01, -1.18521392e+00, -3.89383197e-01,
     3.00770462e-01,  1.43311232e-01, -3.66044670e-01, -4.08850163e-01, -1.23429865e-01, -6.22437537e-01, -2.07205564e-01,  1.39680475e-01,
     1.49165463e+00, -2.16139004e-01, -6.27113283e-01, -1.09651875e+00,  1.81617260e-01,  8.92663300e-01,  1.61747530e-01, -1.83673739e+00,
     7.21972525e-01, -1.34294915e+00, -2.72905976e-01, -1.32341385e+00, -1.68668628e+00, -8.82969201e-01, -3.58452678e-01, -3.25231582e-01,
    -9.32207033e-02, -4.06442195e-01, -9.21482325e-01, -2.96276212e-01, -3.84250730e-01, -7.96659946e-01, -3.56638908e-01,  9.45818245e-01},
   { 4.49529737e-01, -1.39939177e+00, -1.19056646e-02, -9.12546962e-02,  1.19132662e+00,  4.21128720e-01, -2.22505331e-01,  9.05572101e-02,
    -1.09641039e+00, -4.42739993e-01, -6.02638461e-02, -7.20411956e-01,  1.38266826e+00, -3.25534903e-02,  4.97235209e-01, -1.21727729e+00,
     4.97098356e-01, -6.91835284e-01, -8.92728418e-02,  4.71636891e-01,  5.73643565e-01, -8.55409145e-01,  2.44816154e-01, -3.68472487e-01,
    -1.62888300e+00, -6.03124440e-01,  3.28244656e-01,  1.20882976e+00, -2.16353331e-02, -6.97191119e-01, -4.49543446e-01,  1.47797036e+00,
     7.64528736e-02, -3.50454897e-01,  3.01762283e-01, -6.37325883e-01, -6.06524169e-01,  1.14154768e+00, -6.25419796e-01,  8.75241518e-01,
     4.99739259e-01,  9.75498185e-03, -1.85623825e-01,  5.17315745e-01, -2.13778675e-01, -3.43968034e-01, -9.43906963e-01, -1.04542017e+00,
     2.64901102e-01,  8.03295970e-01, -8.30590308e-01, -8.30736518e-01,  4.20488864e-01, -9.65341032e-01,  5.46770930e-01,  5.58640122e-01,
    -8.79377425e-01, -1.52664590e+00,  4.86136317e-01, -5.78531861e-01,  1.37920797e-01,  1.76582623e+00, -3.46544534e-01, -1.24638522e+00},
   { 4.73258406e-01, -1.80164680e-01, -1.53410482e+00, -2.01540336e-01,  2.90305585e-01, -4.30418670e-01,  2.72612989e-01, -4.01671737e-01,
     1.97334141e-01, -2.54904896e-01,  3.15889984e-01,  8.71017158e-01, -8.39598477e-01, -1.50632724e-01, -9.59933519e-01, -5.18759370e-01,
    -6.03491902e-01, -2.54160732e-01, -3.14310610e-01, -6.51086390e-01, -5.01553237e-01, -1.06172955e+00,  6.97820708e-02, -3.17597091e-01,
     8.80439341e-01, -9.91582692e-01,  4.66245025e-01, -1.19590545e+00, -2.84839392e-01, -2.95117736e-01,  1.92607343e-01, -1.02013898e+00,
    -5.74222088e-01, -7.37139761e-01, -4.24513519e-01, -4.23892379e-01,  4.69734281e-01, -1.07985163e+00, -2.76808172e-01, -8.79661962e-02,
     3.61004353e-01, -1.24259329e+00, -8.18416893e-01, -8.98724318e-01,  8.40033293e-01,  6.21774256e-01, -6.99817479e-01, -1.44026875e-01,
    -1.73471406e-01, -5.29831529e-01,  5.19438908e-02, -1.36038280e+00, -4.69698131e-01, -6.86231494e-01, -6.59404397e-01, -1.04734552e+00,
     3.28399152e-01,  4.02553678e-01, -1.39429390e+00, -7.05075920e-01, -1.01333074e-01,  6.73212886e-01,  1.11174095e+00,  2.08422828e+00},
   {-4.41033930e-01,  3.51675570e-01, -2.93472618e-01,  6.35175332e-02, -2.32486814e-01, -4.54825610e-01,  2.47563105e-02,  2.56292015e-01,
    -1.79223627e-01,  3.08925778e-01, -1.39256746e-01, -8.97653997e-01, -4.64569569e-01, -1.19344138e-01,  2.61226535e-01, -5.64000189e-01,
     1.66147336e-01, -4.55652118e-01, -3.13713878e-01, -1.28190720e+00, -9.98135388e-01, -1.79982275e-01, -4.90029067e-01, -3.03195089e-01,
     4.97028619e-01,  4.69232410e-01,  7.27679133e-02, -1.09244657e+00,  6.86945438e-01, -1.17338829e-01, -3.99542272e-01,  6.45858705e-01,
    -9.24734920e-02, -4.92206901e-01, -1.64679542e-01, -9.02854145e-01,  3.39804620e-01,  4.13390666e-01, -3.00301492e-01, -5.28281987e-01,
    -4.13895667e-01, -5.52450120e-01,  9.34163034e-01,  3.58186930e-01,  2.54169226e-01,  3.57163429e-01, -3.35050553e-01, -3.64296287e-01,
     1.56118959e-01,  1.51798725e+00, -3.36982369e-01,  7.94749320e-01, -1.13219130e+00, -1.62853360e-01,  3.02282512e-01, -3.61345768e-01,
    -6.51002109e-01,  1.67994887e-01,  1.61656097e-01,  1.05393994e+00,  2.91033953e-01,  1.22896993e+00, -3.78021240e-01, -9.18801606e-01},
   {-5.84460832e-02, -1.04165566e+00,  4.51463163e-02,  8.71367574e-01, -1.05015671e+00,  4.85850498e-02, -7.02360451e-01, -8.64783406e-01,
    -9.52648282e-01,  1.34693116e-01,  5.22885561e-01, -5.87122977e-01, -9.90501404e-01,  7.36210465e-01,  4.68898982e-01,  4.59791362e-01,
    -9.09533858e-01, -8.02195072e-01,  1.42290041e-01, -1.47379553e+00, -6.18516132e-02,  7.39339352e-01, -1.38525993e-01,  1.41273820e+00,
    -1.38400912e+00, -5.90723395e-01,  6.20346293e-02,  1.41957450e+00, -2.75743306e-01,  2.34942600e-01, -4.72077370e-01, -4.32249337e-01,
     6.16108477e-01,  5.01509726e-01,  1.35351586e+00, -5.80657482e-01,  1.96507964e-02,  9.49862301e-01,  7.45370805e-01,  4.39847670e-02,
     2.24359389e-02,  5.27863614e-02,  4.33448493e-01,  4.95845407e-01,  1.02188718e+00,  2.70130694e-01,  2.00448185e-02, -6.13731086e-01,
    -3.67239892e-01, -2.97722280e-01,  1.31933296e+00, -2.47629428e+00, -3.46849322e-01, -2.29011536e+00,  7.29791582e-01,  2.18693286e-01,
     1.23992348e+00, -8.73362064e-01,  4.18171465e-01, -3.35833341e-01,  5.24811983e-01,  1.55551887e+00,  1.30338407e+00, -6.80213749e-01},
   {-5.28648496e-01, -2.94303894e-01,  8.44146729e-01, -9.39139277e-02,  2.22234782e-02,  1.84126362e-01, -4.93490100e-02, -1.08303440e+00,
     2.57474035e-01, -5.35691619e-01,  4.07205462e-01, -1.55514383e+00, -5.06602585e-01,  9.79317963e-01, -5.82142174e-01, -5.79962172e-02,
     4.96601790e-01, -3.84675235e-01, -7.39037216e-01, -1.14201081e+00,  5.28830528e-01, -1.96273088e-01, -4.33198959e-02, -4.57147777e-01,
    -5.22018850e-01,  5.71948647e-01,  1.00330079e+00,  5.79746850e-02, -1.35679185e+00, -4.06435311e-01,  1.10970652e+00,  2.56729037e-01,
     1.18128181e+00, -8.45116377e-01, -1.40788287e-01,  4.50483076e-02,  1.62760571e-01,  6.44947112e-01,  5.25315166e-01,  4.53318387e-01,
     9.92968559e-01, -1.24968588e+00,  1.32730439e-01,  2.27015808e-01, -5.56809068e-01, -2.72471130e-01, -5.06522477e-01, -2.12042421e-01,
